{"layers":[{"weights":[[0.08388191058564491,0.08404729134226849,0.0038211495333776886,0.26200209372611566,-0.3479065386467767,0.014523755520909072,-0.32809141103618866,-0.07194984111191721,-0.06764997320641307,-0.0073136147582083,0.02037026120003003,0.1622294598902706,0.10978573937387749,0.05738523767452436,0.15212051533260923,0.051037112304653125,-0.014744290641618007,0.02980914015267463,0.05110985204117559,0.0022152059874560944,0.002797727931560647,0.030271204467069733,-0.1090731248832493,0.01994741931614217,0.021483862613606765,0.16907608679380862,0.061371039711437245,0.16110670441228972,-0.04447088695339653,-0.1322732423960086,0.18785609081130467,0.25142000341198834,0.2017892428881117,0.017589727524684597,0.01411034589112885,0.002424694966332736,0.12458825363898482,0.13236614005950903,-0.012168545062837098,0.3184233270222155,-0.1432324192768752,0.13746351637319948,0.09965964397617624,0.047977078406907875,0.0039021382661288983,-0.012641804483002459,0.03577514222905167,-0.2153099105608341],[-0.04952115641193666,0.22149903937792353,-0.01774391781810752,0.03883570777482137,0.03299422282579957,-0.17192253162304746,0.13379963682272758,-0.0646711431561326,0.07524824244858759,0.023510324393773496,0.05141179184225297,-0.17707445611627307,-0.24085759375650365,-0.2307587288049785,-0.06723111787296115,-0.05978568967743829,-0.21864008588422995,-0.00017158514472348784,-0.06656132866952609,-0.0067145672162529785,-0.11944566466957936,0.04158355535516851,-0.09435947366837885,-0.13812523830806228,0.27277304963647014,-0.06198025570434489,-0.062138994602965965,0.16994017936620942,0.2521222706560957,0.1091796757614922,0.08690958390979946,-0.0009533687107538046,-0.18224829499175962,-0.03611017931253529,-0.14642750981624797,0.025866841412169262,-0.09164876917612363,-0.12428117153090949,-0.032589633300274576,0.16945025928529597,0.04653903843945846,-0.20658756884609947,-0.03220314067297295,-0.15396172360558702,-0.11468544755145216,0.07822227406233931,-0.15781100145200996,-0.16998147570788363],[-0.18088613182232569,-0.420610418336819,-0.17206633124189719,-0.2872372539847942,0.22467204702111326,-0.06731011292720131,0.062342495278383266,0.052361944112732296,-0.2733660374628089,-0.28682584223447605,-0.15993404441164458,-0.045532687352638,-0.21959322050078464,-0.11999185030479306,0.04148257431469725,-0.09677605556795661,-0.08673673861444971,-0.20856499589515962,0.00022025826216837106,-0.03616138383404895,-0.013783815010619841,0.10035638386771226,-0.2131880211505501,-0.04566261309709645,-0.1806722519900534,0.12403931197711074,0.16789061978416395,-0.018692477501264227,0.12823482825544483,0.15054166162066998,-0.09743699722975427,0.07917637613510337,0.11384982100731819,0.27118668333096324,0.04510634883112585,0.2673400291878075,0.23243258434822361,0.05165724591121403,-0.02591064743653155,-0.17061769994789242,0.033888288027352186,-0.2003337932575264,-0.2057334528777706,-0.0042445217987946565,-0.039792430555056754,0.13247304345384245,0.2417643584548968,-0.10360575749370463],[-0.364466230320437,-0.3281778253817079,0.12853819795261204,-0.01117668686783613,-0.12037249803904598,0.1462981455942468,0.06788954882139743,-0.0316609255157485,0.06625887551099205,-0.04809414149385295,0.116609007781831,-0.14836082797329733,0.026046174331376862,0.19089710666623577,0.09047299367321883,0.030694637491163714,-0.1494303332024014,0.1392164724126161,0.07526379363161954,-0.034696970607592484,-0.36565200716137375,0.019996920496780934,-0.250496378923655,0.1485766879133777,-0.1151074815600073,-0.11181547254818837,-0.32667848797344373,0.009864604472854949,-0.015729460416515642,-0.25011596342568765,-0.08670082000652966,-0.03409263698230255,0.24229347809362917,0.07192130192080985,-0.029846196275541415,0.043590774577178235,0.01461722714287605,0.030425922956284164,0.12683685431031833,-0.3392382941741417,0.06667802503989988,0.07729853715382057,0.03953631478407542,-0.25405447333839065,0.1682606405056865,0.09383609636238593,0.24069617677301203,0.14452002389755403],[-0.004648373550000459,-0.03026191467091433,-0.05772232761998687,0.11092834647600133,-0.03315483609127218,0.018587342079318798,0.02615006054334873,-0.2340237462371876,-0.11475164886742581,-0.14716648948341346,-0.007390002653395285,0.0020211091163314077,-0.13142921319647335,-0.03313812148048474,-0.2402651417886903,-0.04137837003192385,-0.23190875233197636,-0.10046866197445996,0.023668080771027004,-0.03820897370372486,0.18496670838334417,-0.2282978078647687,0.13403903328693123,-0.039161630774049716,-0.11448473774124678,0.12167356110850597,0.09407349736334338,0.05458660940736603,-0.058026625255396376,0.10890714857554552,0.021629385287292406,0.18266396556697725,0.04580970078476606,0.031922542973855675,0.10133842688884787,0.23844833272675248,-0.042793711591720865,0.38041844994229457,-0.07515559620963648,-0.18380897282122555,0.004602488556612236,0.13723563214082574,-0.17945810315980726,-0.30916115581186626,-0.18469893052196998,-0.15227863411161027,0.04715389461832694,-0.05163213451002406],[0.21823638149831803,0.09639659275083173,0.26354821348707924,0.124999570203112,0.1584011091899335,-0.07383168037423335,0.2090598050736273,-0.05512183661555198,0.0940257344392862,-0.042916313164904414,-0.037113762041787714,-0.04692880918329006,-0.01284740866062169,-0.10791694520585542,-0.10844576823108082,-0.07653425652720575,0.17372673151411114,0.03504480300471333,0.07066844525957797,0.032687481602390475,-0.08061311536153437,-0.04819576183883143,0.12099363954464105,0.01284630345919352,-0.1608363329199581,0.18655793452555952,0.022127593062307143,-0.01167510495757192,0.20647079279858424,0.07086984538839063,-0.060776489725367436,0.027851696618529882,0.19109771797229855,-0.032225210572920986,-0.05100869677757627,0.12388270082758882,-0.0026452759922190637,-0.07347081578335088,-0.21596364717617508,0.16804669108326806,0.23529084363987543,-0.08907939005029127,-0.006901446678972893,-0.2999772664179022,0.13701992598096868,0.0034316967126387325,0.16129589457395468,0.07928518526869748],[0.07960399980424979,0.22590092932050485,0.1601605591426434,-0.13705241937514204,0.055535953860509454,0.11746615909400736,-0.05243838201104241,0.21631950689901058,-0.2621721514598999,0.041776867282757986,-0.11550799078527399,-0.26204853344439455,-0.09547814190261215,0.06320378531951579,0.08019013973410664,0.06744120490759294,0.1265673047500918,-0.057918331485028805,-0.004503380563961373,-0.08935869419597003,-0.0353273839965976,0.062195247285004855,0.06300389831312572,0.18407090767611384,0.19915696359101154,0.0021501506906388243,-0.12481889775104148,-0.004609749375443392,0.21703746732593496,0.03320601095254437,0.023808006279397737,0.09876774220788302,0.03832820407193787,0.13864295853652414,0.2547309551063693,0.2596763399740849,0.22246356208207269,0.10825414786718611,-0.10127107760979141,0.08385472661488629,0.07813982703637776,0.010773593607095058,-0.27200191225823606,0.029151804794677563,-0.13084080636630113,0.06372113919801632,-0.020273796604652256,-0.07974439928033118],[-0.10091585019163353,0.046658071039860326,0.24297308020606226,-0.11819327340287201,-0.17999274441736718,0.0929055540962255,0.13247880816470578,0.09136276102898111,0.13248381880813026,-0.2391771899410875,0.06596159139374802,0.12673485474345014,-0.12542603331210406,0.060264086593451456,-0.13394820807267438,-0.15280854829035245,-0.052280587597216245,-0.04907730726574607,-0.01087033242534796,-0.10773048926500141,-0.15533598951703598,0.06347731278723659,-0.057906770097506305,-0.0073696027562896,-0.15009335525985718,-0.13643174449392767,-0.02575794946349964,-0.00937538284569523,0.061279339760262445,-0.15253745710467467,-0.0431699435939615,0.035106906752671134,0.03335610888555384,0.04082799299693763,-0.15966793605621366,-0.07992534356809512,0.0004977257481855084,0.18211029156758735,0.07815031325253888,-0.19862857294161465,-0.16857119843831042,-0.10475696171418016,0.12185601238496205,-0.3198855915950435,0.17545238084506162,-0.0698635786859881,-0.02923833760037931,-0.23704152024866604],[-0.05353586891873196,0.01885332457932092,-0.19344807819784457,-0.20858880999968282,0.1380271158010643,0.02027019616667001,0.006779272770315278,-0.04465332091811042,0.16861536121560045,-0.14249048729487976,0.1863529716422962,-0.01038986804409581,-0.09499023470970173,0.0030384019548637636,-0.03656935095636799,-0.09645729472637755,-0.1442813825263897,-0.08888728875516423,-0.06173482975878161,0.10129574123280179,-0.2878071003351658,-0.17193112424947438,0.1016878641257178,-0.06044732970928781,0.16209153592691897,-0.06534843401782216,-0.06071389902452128,-0.21502281476078924,0.18305591021320936,0.02830600140853836,0.03891788823901812,0.06341776030519232,-0.1142555503679539,0.23577132837522596,0.20671323458714783,-0.03823297444571821,0.24609844251969398,0.044951275782970056,0.12965526396216637,-0.081670341188564,-0.2534180728603797,0.10170401760628285,-0.28973249453013206,0.14604768156442546,0.11456340024496905,-0.02025528005732773,0.11723344063161757,0.06737553022617727],[0.07745241120453433,0.053864017066179874,0.04442556238172277,-0.08360927433868254,0.14819032495728549,0.0998370572740771,-0.21139490535604374,-0.1920264757740957,0.04763052487292848,0.04434446705994418,-0.2278810887509911,-0.08099725974595991,-0.08273340865173413,0.12325766996161554,0.06311599727154898,0.081154379856932,-0.20889173034007966,0.01455153443092382,-0.0964405311723315,-0.14818174707238072,-0.14783856840376305,-0.13089239765769112,-0.15351368544006327,-0.025927987610037295,-0.07782711575943993,0.02170258803449507,-0.3043733348609677,-0.14878057109076626,0.20372590225770426,0.05007871476003119,-0.1657942118523555,-0.1796791301880709,-0.07790723700859604,0.17407076870967902,0.16033478291996092,0.042616542932223694,0.21654568533688115,-0.3230604481833565,-0.015947356187492125,-0.10084462430333509,-0.1258751412390585,-0.3285065420003092,-0.0910497255504031,-0.15268571096593567,-0.10392701035211395,0.07840905051868134,-0.03873946560078543,0.2849397445888258],[0.1851098721127478,0.05065412311321751,-0.0015623920717488119,-0.026936004757848405,-0.041176249999649125,-0.146777368411887,0.0561235303954141,-0.10005223124560582,-0.12952808778561833,-0.047199678053144414,-0.1582352867755817,0.19529545101434706,-0.05274287881269472,-0.30751280559951505,-0.131730581813826,-0.11581928119708376,0.042110899644939304,0.12746771139793875,-0.08036976640795704,-0.2983602152742601,-0.04842782816413663,-0.1048573361219913,-0.08694022416779514,0.15162141270803833,-0.16219975092208475,0.04330026653600345,-0.062247057785454606,-0.24980322920457607,-0.09645814897403505,0.12560583386149488,0.1592989409912303,0.023616322776582214,-0.2815653949910292,-0.18839201860019023,-0.056944829008252734,0.23810038951831136,-0.011686831492755623,-0.052662962681227846,-0.08387077404135124,-0.10679420062165128,-0.11848133538655997,-0.1543089936680712,0.2715077777144455,-0.11119546409781203,0.07884310375206542,0.04530812968338007,-0.2661837810597409,-0.08374325451383538],[-0.008189592010927942,-0.003246511502735572,-0.03451087088374215,-0.025574159428406483,-0.008736644312078793,-0.14843295195487877,-0.11594916439849323,-0.08016199497785867,0.11866163614478145,-0.1766001776784015,-0.310030052729963,0.0934467499708331,-0.1448173948399364,-0.08840344033643933,-0.22025282903390705,-0.4041193743050181,-0.21521376487756524,0.012981513303093639,-0.2341054399378848,-0.11919635872419587,0.006754059668831249,-0.2713207548710329,-0.15685471052054634,-0.1969388583219519,-0.2531418734772105,0.10676288055615742,0.10573980301918502,-0.2025344807362967,-0.09734989182618568,-0.11286103405466637,-0.21645474261641812,-0.025623602513228816,-0.10968667591717042,0.23584051011293056,-0.034160297636865886,-0.0712177975916744,0.17327071632310964,0.030417750741548236,0.23097611383365516,0.09507376366650147,0.22990579193750843,-0.9093868863013752,-0.4309127987914139,0.28705223554714443,-0.01571684919527737,0.21081750501166807,0.044525937286421166,-0.22514664250121944],[-0.002283420949053758,-0.016837918111392024,0.037467379696688834,-0.0030220428109735634,0.011090092454402853,-0.19111120394656866,-0.1322038401218965,0.03629878289336749,-0.17114615169245892,-0.12159352463531493,-0.2979219633158109,0.03456002100634302,-0.1478469016638756,0.04930530959218912,-0.22635826799013856,-0.15167403124848983,-0.000001657661604196395,-0.12149239164436668,-0.0597402091153945,0.018216855533045317,-0.23545612594664053,-0.06999846799744737,0.09445196139261758,-0.2120300385468684,-0.006360862247435247,-0.007578492977637931,-0.09717577215308996,0.08875279066301776,-0.11655189170397975,-0.2646535198870812,-0.2507651512304879,-0.2624524196554685,0.24978843425618064,0.2870976021775705,0.058473889256206786,0.3246000315775582,-0.06177632511297364,-0.0075986634769072145,-0.1205700085107549,-0.3287858772940663,0.14957424984524384,-0.7960379048947382,-0.25161704907816973,0.28148860221721556,0.09468418062115043,0.31483986087460203,0.2034614733076419,0.07966325331936908],[0.00896264179158308,0.12805876958067064,0.1609462220116579,-0.14604455726814522,-0.3023148766759718,-0.12100859285319016,-0.12119693188234733,-0.13380183542476262,-0.058447641388185936,-0.2622594753273438,0.01214406776925378,-0.08733657542662054,0.14818185341541673,-0.09019709803245736,-0.07903139629814886,-0.07292410381037935,0.13194057211944551,-0.034185875001590774,0.07078749521896156,0.3066410306729582,0.08069619071011642,0.1835146205612293,0.07834295603277336,-0.05029034350766656,0.15045921453802424,0.06363575501957289,-0.12034615441997051,0.12827524062851264,-0.25991661227201035,0.25061784313452773,0.06478867800621803,-0.25575459593900624,-0.10841501288056327,0.10601106433031358,0.11285330091009645,-0.13400350096887723,-0.06654519567656256,-0.02395978234517945,-0.0026771787087417048,-0.44342287812504017,0.14207145740444618,-0.5631922684380389,-0.1968806940531836,0.1735532312847315,0.23331542009606746,0.10523015376700383,-0.17517508934443818,0.21662858076780603],[0.06598370447485886,0.07437389331037383,-0.05132901014186519,-0.11248576926366058,0.2813438104040706,-0.02112050611071899,-0.06305699906035266,-0.11535865545888332,-0.025049416474913627,-0.14214862256381258,-0.3289401348804442,0.0347298422928765,0.10435210613173815,-0.08540713169103628,-0.08506441885150148,-0.0375426107838082,-0.049607242937242224,-0.0017612559460983702,0.19056463030803053,0.11909901095502595,-0.05410070681908616,-0.1655833944129353,-0.03473254002949657,-0.02444892127556345,-0.21483692833331014,0.08419633339140203,-0.06917457795243602,0.12122598824483048,-0.08053793555550467,0.12346169405714062,-0.0575540981784919,-0.04636518244986074,0.10789728562518927,0.1134508570120394,-0.21422367811570694,0.13468863775349743,0.09831639455390322,-0.00044296353565738823,-0.050465968718617894,-0.05955833482600474,-0.05365416722784344,-0.10051783789391631,-0.10388956582588861,0.15144518930289572,0.04960788200829234,-0.018966763863193795,-0.06046352534770363,-0.19340076052954813],[-0.018667440666605566,-0.038304102497582995,-0.059623421195805534,0.04771523134411207,-0.04948669081915058,0.26723426673670625,-0.14049376634733585,0.025398648814652418,0.12615691189984976,0.16806934468649554,0.08260197220954393,0.03662366784388216,0.025571088044733004,0.1068837011613773,-0.08257580010201829,-0.013945982033616265,0.10633786119197611,0.20830205492657466,0.1647846455354938,0.1529813664965233,-0.21722454704857838,0.134673613737819,0.10924624691873806,0.03739307811363801,-0.25218382475282863,0.07909662574148854,0.0005351831803754566,0.07112496902263117,-0.058319944763085114,0.13293306419830164,0.11715332432686366,0.04098312167783306,0.15797086803653032,-0.05970027185137748,0.045431376711460615,-0.06744963498728011,0.009263292684789133,-0.07198906759038244,0.30680249140598853,0.18290889616765346,0.19754121948986314,0.17224296681157095,-0.09743804031700024,0.09537905588089587,-0.05510015771950962,0.06181812191553466,-0.2608251932291795,0.2532695592476098],[-0.020872771438480944,-0.11162159678898453,-0.016939650826174494,0.00042388556905577455,-0.007520939461949851,0.011938394882651556,0.023356103853188193,0.1024634224737482,0.09339006671639151,0.09807951017661169,-0.15766899791469044,-0.049323195437607534,0.028004359310435958,0.07490024368602166,-0.09623830843362903,-0.09574508729636474,-0.030802779729176482,0.3215359596431665,0.09193695175195053,-0.12976712714783095,0.03742185193353976,0.125032525027735,0.13496698701034746,0.18745397369359085,0.03686270648368198,0.16534326543422506,-0.12888386500591836,0.15203875758239885,0.1091939088246696,0.18094661764107778,0.19514409884529996,0.018764238831023135,0.07814659442620533,0.3523564484610022,0.15407971377287816,-0.06717750825019793,0.018752620415251314,0.0840024336849844,-0.16549185405558098,0.20217421841103705,-0.1583990302332053,0.12278862849959461,-0.043621881952248615,-0.13198718288809055,-0.0612194700493872,0.047565120213123195,-0.13417188246041592,0.2750101029720851],[-0.09631960659068689,-0.2712729958773021,-0.0783267635515226,-0.03606928464745113,0.02450965772804238,-0.13274420679681853,-0.11059516850431461,-0.13306280816370206,-0.012771243314083199,0.11807679595800002,-0.18281399991930908,0.14403390898010202,-0.040634272375716596,0.008470454598972166,-0.18791841934189146,-0.04880231241177693,0.02897069193233978,-0.127905678756214,0.018423548696860564,0.01849820776830593,0.006974620008600455,0.043514323968937015,0.20028229312246199,-0.14706752913112975,-0.047107040711771256,0.061677604276882826,0.1148159223364017,-0.004779358951300142,-0.08417722498816108,-0.1119852474897219,-0.01899740399053506,-0.1160503255210563,0.06724024687846894,-0.2201393129041108,0.0028428999392741245,-0.0464445783265642,0.05153806031753899,0.26044652293767506,0.07056539675367815,0.01812967520582702,0.24335828482931948,-0.2244862000070736,-0.14231908117635114,-0.13230153318236862,-0.1399806459113499,-0.04027030968516059,-0.06308367403519911,0.03260004689852368],[0.2697426824690152,0.13979318993063525,-0.04303282645387112,0.1571920718535356,0.16413309738804932,-0.085752246091887,-0.020629916788361527,-0.018597559023029092,-0.07005378540297186,0.11535522899436622,-0.029145047932318393,-0.2810547336806415,-0.043410380002600515,0.15473833625403674,0.045890522690125904,0.10962289335470403,0.15554231678325486,-0.04237325297597682,-0.09533189537133803,-0.19595056328015337,0.0011196729093075435,0.2726076174876055,0.10485150179665223,-0.0580830269663185,-0.14168700756258698,0.05281252628225872,-0.20156956901653258,0.17059595175537012,0.22973239434527512,0.19507976363613677,0.13078954564969436,0.09859599046881831,-0.2099237950700759,0.22363400697270303,0.028383329801627267,-0.06952653160950957,-0.08590870744276775,-0.1095865287960286,0.0471890569010961,0.3512124116958034,0.12893151465896907,-0.3820102553028739,-0.2879119493103612,0.07565061785249659,-0.09716861874760022,0.16625071756469698,-0.2096362558617471,-0.10006542157650795],[0.19015579883906997,-0.07365904752753964,-0.0020523039164958797,0.1566148806186976,0.2569833841210327,0.17780178602911528,0.06529938616613576,-0.020724533778372665,-0.05210562110407287,-0.18928346763507495,0.12618947195234576,0.11949700245905005,0.2198056272778167,-0.02781310144417303,0.13986235318471102,0.12397124408398,0.18002370385481586,0.14092610268616323,0.09341865388185745,-0.015133275235103162,-0.049198793342401355,-0.03635227317521785,-0.000291030886978989,0.1418725516529549,-0.1926969391749873,0.12435437006019125,0.006620466135266012,-0.07078272817052435,-0.07641388293695094,-0.014803299882357568,0.03902227859909912,-0.010336831580215342,-0.1843656431210083,0.12692870953302263,-0.045870914557568976,0.1180516125497352,0.16749012974645383,0.1022416182870163,0.023351150550853655,-0.21871875594235207,0.25422001862818944,0.12445858817667804,-0.07025692161494722,-0.0000350182881668868,-0.023315049815860384,0.009464811241960086,-0.23950714314577903,-0.004180221293562466],[0.2718220934814268,0.011631593339509248,0.16013254331494922,-0.1391216350227311,-0.0830681599570962,0.033284258595418004,0.14972822184409865,-0.10676794947906079,0.022575828304478872,-0.07856989172173653,-0.19456104053758955,-0.14385013542555203,-0.26176713749153274,-0.16278422636099704,0.1289773774056522,-0.16922716443320954,-0.049303837759068325,0.01849921410870823,-0.1840876852357827,-0.2019963380399904,0.032750843281453605,0.07742851862654887,0.19324261005888677,0.04696151669713838,-0.022982011629667336,-0.1462364772909932,-0.019500712966805122,-0.25795564828137285,-0.008291169598626726,-0.04195977571605855,0.17391585734940984,0.09795598783817942,-0.07186806683882883,-0.08709277653094653,0.06827962795600272,-0.058356652118057455,0.05256326575760757,-0.1164142202580029,-0.030890169332333163,0.10554192066806614,-0.03901730577693921,0.00017218159094834588,0.16397845650809853,-0.14233742173369557,-0.15630555369284024,-0.3155012342709812,-0.04531149784951659,0.12619844316182174],[0.9094324673466972,0.9136755312386898,0.08561975368676694,0.23801014361690556,0.28075905444292787,-0.01431168933026439,0.07152846711175552,-0.05176323298517464,0.00812244771964398,0.019048497562463823,-0.12319388559169046,0.05417780234745449,0.009362323780262508,0.04890320772066935,0.0738021689427518,0.014862519229171279,0.016918236210163664,0.03953147572343191,0.013509010406767831,-0.03914877035011517,0.08958542703853795,0.05844393659719557,-0.0980603811309107,0.035430006037846684,-0.05294815935590677,0.13501739165696053,-0.01441245189241283,-0.13588772229225057,-0.06153788289871797,-0.13232086235736118,0.0056488611590850505,0.024645329280847932,0.07635784771576072,-0.16345746021063742,-0.06027764210734228,-0.14334239378399724,0.033737816917343254,0.040561360589751315,-0.2221720932747411,-0.2130591198658928,-0.22206494650561506,0.0936374859779732,-0.2169510062056117,-0.01224343375481471,-0.14284082072604806,0.013376730029265902,-0.5887597368961902,0.002512208621019991],[0.10454444877157495,0.24465070408179723,0.2100743986353664,0.0617582745265932,0.5429720352081189,0.09463906469012062,0.32590556023642775,0.415847791561346,0.14764938121323545,0.09379594838978382,0.12741421097086972,0.02141036034723402,0.07588140316155388,-0.07486824364440613,-0.03302901613954799,0.06853272985392515,0.06949173066229468,0.03168780211772839,0.08040130967427571,0.021007045753543625,0.04798747860709992,0.16511120461023934,-0.006677329493431569,0.11866565151414521,0.18307752199270028,0.09659028340010603,-0.2014448456704342,0.1361745861164164,0.12343470274522395,0.007528487178024396,0.2171066191681076,0.2502494255769799,0.07157858656911664,-0.17586165747568644,0.019251489315734522,-0.015073394443808546,0.1145155127754377,0.010651349632817964,0.0645420232118192,0.16869387440799602,-0.15411058336990166,0.37238502236033666,0.267645837991013,0.06392798141173843,-0.33376142807707576,-0.5027609358308736,0.11593965025831174,0.11376996975767083],[-0.025675044575550254,-0.2010443300598285,-0.32316003008199573,0.07134125131994005,0.004326313542209638,0.0041281806950427,0.16298677866961855,0.2971574030331511,0.04980804053712405,0.15770873926075685,0.03944768583925581,-0.06465720346384257,-0.2100175126536819,-0.3551778089027814,-0.03963761712911485,-0.11351187266588665,0.19447752593863463,0.12328148776459559,-0.05240018965247337,-0.0896125725648097,0.0005446959640387164,-0.08138312143730345,-0.07469667575886993,-0.04109654699046171,0.3574096534006933,0.14750005050252993,-0.0019005160664366456,0.12340901732550867,-0.04033158303175965,-0.038189868010473464,-0.0565059014322787,-0.09542620468224526,0.01546604256125716,0.025899635567968704,-0.008280719320933494,-0.15616122961735332,-0.32165333273819285,-0.07106012615039635,0.020346813523667868,-0.1874210715418762,0.0351619741128113,0.24817250596977175,-0.1728303622609603,-0.13217791358959574,0.46934811935023246,0.1428235400066335,0.05857459762623334,0.021648552887984455],[-0.02918385607041123,-0.09139622964360002,0.039898384958839586,0.14491166164965125,-0.004427039203808146,-0.30399708290194455,-0.03334802715059112,-0.04932735066514574,-0.18877906836342967,-0.29362953634893846,0.00412140463832,-0.0925756530694772,-0.0904908966698212,-0.03910757158048722,0.029666627824704195,-0.2588111016957539,0.1929666479268379,0.03288837548097233,0.027963413097793675,-0.03337093137182891,0.16033454686554138,-0.0070953807315196306,-0.28495685652276487,0.08407359713974608,0.06646887809401354,0.026359208200534782,0.013005201508906446,-0.16030967257131323,-0.05580167638203565,0.08772424782655669,-0.054024892383926805,0.08775102878885627,0.10632124323657134,-0.32070224014018306,0.1092362682843201,-0.1203417278542811,0.03599024423399765,0.08885571662197664,-0.06406944381823969,0.1318301950636928,0.2003492991717663,-0.14757094126387243,0.01813887060484573,0.0890789890826777,0.1516603128830983,-0.04975360177820435,0.10361912150016059,0.2040816994831542],[0.13596514779463037,0.20050453476044525,0.20210147324865307,0.3009471822844088,0.150017922596968,0.1538208736973129,-0.018405893726565745,0.10591035557709062,-0.3526487664827741,0.11071318201952852,0.11750092182646751,0.14006711118580328,-0.03522941634871,0.1824281243603782,0.013921820794264359,-0.23223330970166287,-0.09678097069071279,-0.08265728940029954,0.027449388449739345,-0.020008262771395297,-0.03886827436394519,-0.09787156767649045,0.15762384938351257,0.020556871901159186,0.02901538010999652,-0.18767226577397825,0.1093617213817036,0.15377482710060572,0.11648495477453688,-0.03142687165996068,0.12053186752544538,-0.10047041607831386,0.022490612444991842,0.0059551856570965265,-0.17722084814953348,-0.013146759775769498,-0.11806608524454258,-0.06500395241762326,0.1446279369186111,-0.12088051526849831,-0.11301770408674623,0.016328676057396203,0.0317147024013528,-0.05805251098686972,0.0812250931150643,-0.09183039669085352,-0.12509226901990073,0.06384299129550132],[-0.08337015719633935,-0.05766984373282547,-0.01615759674899495,-0.08183740445197855,-0.06357717889326954,0.16508326316780955,-0.09767570661018829,0.030124277637525326,0.11361928234644933,-0.22960807015249174,-0.02317121684436677,-0.05349765105410433,0.11679551675398585,0.20403808463944098,0.056165614746104424,0.04805760807543502,-0.21205961211898341,0.052424551182655425,0.0296294318653137,-0.10388958045500661,0.095984093957787,-0.15733873469807752,0.09332409754794803,-0.19745287607195952,0.1296269153593969,-0.06730538092837232,-0.1546904482872218,-0.25120029257571763,-0.04852564200261597,0.1551638773356115,-0.1336854281769099,0.07605043627436336,-0.0004014316386632539,-0.15533210551137924,-0.11403926883201304,0.0224418168365773,-0.2220131414999667,0.05008243419753932,0.1517569033210639,0.057181471251544644,0.13322384403001628,-0.261740821059467,-0.059927451065261705,0.14186046105188108,-0.07427145901003507,0.09905232284809896,-0.07512907619062231,0.13679461988204425],[-0.10407244366150503,0.023842002121965106,-0.004142830167902213,0.055980434195376794,0.12405514329075881,-0.18790999633002972,-0.18577304025922603,-0.11148817333958376,-0.0363225143961504,0.012629505592301436,-0.14638494249418227,0.11086969313608837,-0.017507885623393598,-0.06266295016765654,0.1785730731255042,0.0005130879780316749,-0.10466738952949867,-0.0939660699343532,0.05442371741606446,-0.019588988568740327,-0.11436026932545283,0.031125762424384886,-0.1725661932629838,0.08692974847962576,-0.20985464705794568,0.05926647307508232,0.15795996428728676,0.06869568033382625,-0.14018181230044963,-0.08329112194431555,-0.20898631239353807,-0.06794262012593917,-0.03132525729680703,0.14470214473499268,-0.08281652830247309,-0.2741609058157898,0.23587349921442372,-0.08916419206422681,-0.05479485760194918,0.23453727190806092,-0.04613074060108679,-0.19206768176800754,-0.011015809981725955,0.14396913707201553,0.0627654449213446,-0.1563309315921959,0.031198071250018337,-0.0966461668868445],[-0.12098745200926395,-0.19295201831445488,-0.1297436644718943,0.05201558422851954,0.10239269842357546,0.08940092955551385,-0.013531896158631016,0.092760326377036,-0.006803496953835157,0.07329758258559455,0.26077016592095736,-0.0992978371204252,0.07427893074560946,0.10315277471021894,-0.030143663604788772,0.12521612029836585,0.02292928617583088,-0.17458818203520637,-0.034755128240631004,-0.05996029020354787,-0.184354697542054,-0.07863352105617098,-0.1003456291624518,0.0627555707195112,-0.16383595730930486,-0.005865797453564653,-0.07925569055246723,-0.08076916936838785,-0.05447113186659826,0.020206806891019582,0.05957948982797617,-0.006365234662979604,0.19212811773146835,0.14575048677612762,-0.032838355392543504,-0.09159209967420155,0.13011524976109298,-0.17764134900608783,-0.3258979548384674,-0.1942199333073081,0.0374333986104904,0.041491061521942686,-0.018134430112523216,-0.09983235135598281,0.1612446897048333,0.059102727766964534,0.09212105837469461,-0.2377984542668682],[-0.08001861880954637,-0.025286832751918176,0.007208754186836178,-0.06076523950777917,-0.10593633231446185,-0.07263525788087902,-0.09672025207670037,-0.24049965398885131,-0.10606398826575392,-0.22462857513852677,-0.1355448520683431,0.0483014830383829,0.10926912540803611,-0.015500694390525148,-0.22756080341851664,-0.23722441355886248,0.12742776158516622,-0.08792524339419906,-0.2962865884044046,0.1832686850921862,0.1696802591906906,-0.09166238586483264,-0.05828840934296406,0.04914339114967023,0.0833148199176235,-0.052781100226318156,0.09648045925016861,-0.01977228119487673,-0.1499739661144839,-0.0728067375015867,-0.17073322841011418,-0.013626635012049,-0.1251178863662382,0.3190238087398191,-0.14851092628664062,0.26009667170120104,0.03598815234557904,0.1606152053659782,0.053947944861256515,0.001692354396576162,0.0071470510840705125,-0.488730609261106,-0.05963468991226653,0.05807278235339187,-0.1118937418706814,0.08464896266270404,0.5050671574826959,-0.29333143331159545],[0.01845398300902091,-0.030369050845439338,0.03931767924541847,0.21364713269086344,0.4103046412431217,-0.218420127784748,-0.012764802025248477,0.01818522592297873,0.21832741331651756,-0.005549034851637877,0.039132808750169244,-0.09060434905784136,-0.07477876848338967,0.07814662926958729,-0.10492112494255668,-0.05394815530573423,0.028375575447496762,-0.1925849953944995,-0.12885110374110406,0.15822759701040612,-0.057082455109087014,0.03662669430443507,-0.2817887208723918,0.09230447965653502,0.2500354675737636,0.19196870272843053,-0.2195516390011261,0.17491678179726813,-0.12890542041735917,0.3403677244369431,0.14969694476145692,-0.04666093874827116,-0.07191407681838385,-0.1718399841082736,0.03197266701234074,0.1091507835945509,0.22423224868401498,-0.06580138887950729,0.08682988443007296,0.20257874731089384,-0.11202840076679099,-0.08960758255307308,0.07658514146650836,-0.019552324227938248,0.0818256762812613,-0.09865673918959471,-0.24261413676101193,-0.18614250543364372],[-0.11605202342579718,-0.09714701057543958,0.12710926162580422,0.07726661566073917,-0.047505112829920815,0.21175745415490058,0.021018271536358747,0.04873339331572247,0.2004258766837239,0.1279282583583758,-0.18413206925843198,-0.14697765322256726,0.037873352536452805,-0.1165334992540482,0.19326770575680863,0.03143479467868665,-0.049490356581424505,-0.13865934740549446,-0.07573598711385056,-0.11533288467463433,0.10438781632965213,-0.11042567018421744,0.07528405626051965,0.012668345393841417,0.03493630964049869,-0.11547106384638998,-0.1039898768256586,-0.06317068881199848,-0.0576117760860139,0.059997713165613566,0.0030618593322245366,-0.19643969993601387,0.15146453484851408,-0.18084213423908552,-0.1316963010585861,0.03715468992327904,-0.05410407680701115,-0.016765107899139223,0.1400319882620615,0.022735688208821176,-0.38291277306378146,0.26649936517460915,-0.07786301670456866,-0.011873214171439208,-0.11722020428239618,0.13868183757285596,-0.09481696054663967,0.4298067889578849],[0.029968034107525795,-0.10924982790913322,-0.11406874237998299,0.12302979118315258,0.08002621380252227,0.06235842951081789,-0.009615315832383927,0.3392381577534866,0.028339653945401423,0.06117756679956531,-0.16012956951969007,0.10054521935233224,0.03620184720269478,-0.4096704419279585,-0.0062771719753841985,-0.18930592294784485,0.05624406016200714,0.13975949438410312,-0.10809007553513589,-0.04576697858981303,-0.06954643020906422,-0.1255821825113618,0.02631244760227641,-0.286379734009811,0.04078668011072656,0.23633092716377235,-0.05882260154578462,-0.1033439751322264,0.005988868562313127,-0.0665746372129721,-0.012211468141520526,0.061876785693202915,0.1251369627628185,-0.04796521566451857,-0.09040881134282316,-0.05179072843683581,-0.11940379491404067,0.08121662215178067,-0.26275732603178903,-0.0007710961754601385,-0.03747433619403411,-0.08922288704329757,-0.23944663426122234,-0.003450664764020966,-0.0625206343606195,-0.03626976977669707,-0.08267446160289806,0.10635892324341031],[0.19277132100413155,0.08636982521169097,-0.04358933042440171,-0.20961677656789898,-0.12118175991128338,-0.10840346716645557,-0.1403899922014315,-0.1578675193396163,0.032769900353974826,-0.025674515199596168,0.03976713898626004,-0.14155699665774107,-0.2769080113006185,0.0021778433712073613,-0.038485502305056964,-0.08788391328605694,-0.18043857055855642,-0.0025038722675326396,0.04747779699110501,0.19170499120549436,-0.028488618862489302,-0.07612655852376343,-0.17091153738470352,0.016946287398712578,-0.11144416665856857,0.4233210134169677,0.16344730422908887,-0.03848998079834936,0.09333717691834048,0.16175441498121748,-0.10184044435994483,0.029908294236558396,-0.13591314225276396,-0.008659604486411673,-0.03995694790679773,0.05480962313884757,0.1998914540268876,-0.09843250863161608,0.058193723659767896,0.1529591522928484,-0.06978318131488777,-0.011802381770456985,0.008106127569002634,0.00853702823621418,-0.05632391271158026,-0.025992968763150215,-0.30038232266928067,-0.15011012671118465],[0.12275527019523498,-0.1138929702278158,0.021606780712488012,-0.0392488929660933,-0.09064299981449185,-0.16916028751704373,-0.088477023284039,-0.1910974164899876,-0.23541278725322795,0.23330239293296232,-0.04832264304105395,0.058334924650339036,-0.13801280312347367,0.0035510761794010793,0.12647503748623953,0.057618853666167584,-0.006357969664506173,-0.014699776049130416,0.0431370323640169,0.03466607059576476,-0.01804892551291201,-0.05914896672354574,-0.123117747807869,0.051911521328841824,-0.09330892835075025,-0.08302465283814324,0.16663507547274317,0.00467195455299946,-0.15682333095756748,-0.06794125908521774,-0.0036975994125447724,-0.08601445392006053,-0.08366398615370195,0.031407655087054114,-0.07004595435513478,-0.1487860370432713,-0.031219625937077018,-0.08997641611100257,-0.066512237936191,0.03913373639721322,0.009143036115435222,0.19405404066590554,0.16350006749482662,-0.20441366240162537,-0.1261944400441456,-0.360062692850665,0.06335961093804222,0.1969759751665987],[-0.06266374064443665,-0.06144266430923146,-0.07072793659924378,-0.11685320894367159,-0.00885723705938917,-0.18455335112042498,0.19209871372598258,-0.08817376579635612,0.06948406561696804,-0.05902975280713061,-0.21557259149055755,-0.009782169420387787,0.005971754381991111,-0.09160009154066664,0.15246377603957914,0.013808944276099777,0.11151072515400039,0.07623983587590927,-0.05438675343262688,-0.20387676258976642,0.06287145398700791,0.05252207339539488,-0.10876426010359075,0.11548796187838556,-0.085016054657602,0.11244631174159174,-0.08829873280167952,-0.053383726344102884,0.11253612860870775,0.08569088201522881,-0.1898823866800909,-0.07670683268823515,-0.07755701704872113,-0.14318335392427675,0.11136138342163403,0.01633430330532769,0.01629323429104762,0.28143601094759063,0.060365350657044854,0.2956492799444072,-0.07692554430091134,0.01309777542950321,-0.17001560144276717,0.0466311162849863,-0.2575445053092499,-0.21349033470691434,-0.18389739876988773,-0.08109926578791425],[-0.27872042774975514,0.23017938781829675,0.0017396892501686523,-0.18877514445881255,-0.27613666260580944,-0.0600864003476413,0.028859953733221325,-0.18608262135561274,-0.06741718198862331,-0.15442652772509413,-0.13217256670617644,0.062314881575607106,-0.11116035316286088,0.2342345760256739,0.2613553608425752,-0.15085634500464265,-0.08577268951880075,0.06086121783799424,0.030642792425428226,0.14337179435701178,-0.07830068400673475,-0.10398325710748245,-0.11097701045886149,-0.058939127728214344,-0.04680266529734672,-0.06718342733163099,-0.0071865086933470546,0.07353325920711475,-0.23728665352762068,-0.2111736507935706,-0.2686513479289648,0.19205588828856002,0.0224178415088219,-0.11376907194747,-0.10177723923100637,0.08017186846899219,-0.005176973531180152,-0.18508086115016437,-0.13283287849167708,-0.2465147586191424,0.09509437797197823,0.05269242899292766,-0.08813249144258002,-0.05006436808120319,-0.13845218964296302,0.18195172789147365,-0.09581216218407498,-0.20304384497888073],[-0.0606700994957028,-0.05745388416396665,-0.1749332303586526,-0.12848754397042417,0.3711494867593382,0.05160464993816642,0.04852436424725533,0.006185525397883797,-0.08342695794068335,-0.058758846299689596,0.1173629177513808,-0.11493390311505311,-0.0006430191428151727,0.02199670786752821,0.05359101894693965,0.13835173996701486,-0.06761991143729877,0.07638019772926288,-0.12327265838333848,0.004606403112154595,0.15757832036226796,-0.037604449577708005,-0.06765190190157337,-0.0052513810102615835,-0.178961149830717,-0.19109601194296583,-0.031900647962788936,0.06026860216331509,-0.21152413211061846,0.06569300710672235,-0.08537446880623399,0.007131274746603691,0.1778238634316277,0.3141282731083883,0.05035946710731859,-0.030172592155968524,-0.027382471608334995,0.016042619344981687,0.031863620866689875,0.20020416105536593,-0.22534529292378983,-0.17804305265605097,-0.13791055537798555,0.20338503289584228,0.1493175764634711,0.025618805131187906,0.5003782925440454,0.14592663298639585],[-0.03546227567319376,0.032210936878673,0.10165881665606442,-0.01833630438156888,-0.01543613773580067,-0.1480036464802451,-0.10329089594810156,0.010604046230126125,-0.0953947159992265,-0.2714032349103462,-0.16894839383548352,-0.19196234268540033,-0.1683639868048794,-0.1940223386712622,0.0565317082810544,0.11610410828293258,-0.12123101421362835,-0.06364056688291007,-0.026503667921440776,-0.15330051301314637,0.09609610320346702,-0.11476678442469443,0.010703302532707227,-0.10658081039582638,-0.3234057589463953,0.05405368311623964,-0.2295433924179376,-0.032413327176923516,-0.009681002144410328,0.024021654779116792,-0.00040423189818450546,-0.05398503537048094,-0.11854419113898894,0.15482122288724195,-0.3294350032841515,0.24154490247176552,0.21227951164375292,-0.1652598649973945,0.0011773768896527381,-0.2842969729156175,-0.043207897130363236,-0.43148750602844405,-0.37826359259994097,0.06479069960363967,0.30402351469177324,0.5027566516342213,0.30178316485439516,-0.14891872334646478],[0.1553863355516025,0.04669004635984418,-0.10305479917823672,-0.035507300258900934,-0.06084623439103558,0.377858112611805,0.1850589088198622,-0.03094573180834986,-0.04300761709927324,-0.26358829812876783,-0.0871046052370036,0.14044723739915593,0.1641197349211374,0.015351938270288358,0.19180459530108632,0.08452838570661758,0.04645007694453371,-0.09814753329161402,0.002845473413520968,0.020104387999765872,-0.12669202520039524,0.0731646246845016,-0.035068448533681996,0.06880880295178049,0.07572745194545853,0.25295121290070655,0.33212693103078306,0.07062730178464989,-0.007206223985095567,-0.06332788978314724,0.28474864863403637,-0.05520827790291683,-0.06303904231022488,-0.3172421025387215,0.01994052234127661,0.1938305368329516,0.06710931042375651,0.05726429961515897,0.07010575171833418,-0.16316023484663444,-0.016046162173638613,0.2224287493887321,-0.028366093444121446,0.18193418729513966,-0.05311175232895391,0.11783538781259,-0.05652495770661129,0.2162461763861044],[0.13653122399018766,0.01703832507114421,0.03916887645677344,0.09230015504713132,0.09495103226773778,-0.14205257921050846,0.07560605863068881,0.047249026364978096,0.06912541827157004,0.0178043638932095,-0.06301422254084119,-0.03640185008641876,-0.160012928797946,0.004759634271337287,-0.006996608014255292,-0.1577502145365633,0.0019154231633519367,-0.03395461817559306,-0.12612685099678148,-0.02641881446763978,0.031015679925762544,0.0938925894095211,-0.16156549416849536,-0.25040999666720526,0.0546432767165391,0.056470747470539165,0.18776434551764437,0.01911448146177348,-0.10980953120752136,-0.20051194693019378,-0.10576635389644347,0.037949674504309035,-0.18560464141124638,0.0621804607299881,0.04216043616174263,-0.13676697708650137,0.0008379589322927478,0.021489862158795878,0.24937245947070688,-0.2658077720829021,0.15835429395146433,-0.15018645198943015,-0.31192163043696763,0.03913272954974688,0.1025770136396561,0.09224192927975085,0.16361659065052156,-0.12141377319247934],[0.1444774028363803,0.1442530272722833,-0.11413581501733694,0.016050798348821813,-0.2630360731502538,0.10608286756513209,-0.057209065125889524,-0.21548460755826773,0.26386658693960646,-0.1435637431804899,0.3286750023334309,0.027172489951334387,-0.08617459193606168,0.13339855195045694,0.21927109409345394,0.17330043478152282,-0.08070613313750767,0.17167903194873196,-0.06840975447256056,0.19193173567878327,0.11684178221500567,0.2899423024845453,0.043943253412866895,0.015674939568679342,0.03329861867373324,-0.08539053351260996,-0.00558266917581864,-0.01920972514503174,0.04085332283307108,0.06831645862467231,-0.0830422999814343,0.14094812742430007,0.0923709334667277,0.11748434241738046,-0.26612448839308706,0.12334742230553028,0.08109444185301462,-0.22097819170470048,0.1567062266322012,-0.08131179869017346,0.02532264827758024,0.035090629029236355,-0.09817043002219342,-0.009932888095760197,0.07433020330525453,0.049964302249722904,-0.2945738551090427,0.3443773160029388],[-0.018749888485518527,0.04435143477227753,0.23844599184671092,-0.0026708536817126967,0.09305809683919479,-0.21013329910092135,-0.1707303894856017,-0.14947916946678128,-0.0904476588633721,0.009720336652560412,-0.07590324243151593,-0.11234834452615246,0.038242273688075736,-0.13171975100292527,-0.3205303072692858,-0.25594132222472565,-0.03815177911409274,0.00007276924264690056,-0.10383017143248009,0.1837657509312282,-0.1962988828153122,-0.035241852882478095,0.03564557373287732,0.0623184519881152,0.06645179262873804,-0.17985827355269027,-0.13834461444160673,-0.0014727174130929937,0.17190652749189247,0.09859743406864288,-0.17369456373666844,-0.10044941803024737,0.0032653289569074366,0.3060838992162349,0.030915321064145174,-0.014481809168846466,0.02654248468927068,-0.22491198728224102,-0.3033107234830904,0.13887814071128987,-0.029687316732165858,-0.20812985649080862,0.06680615882674319,-0.01910112041763296,0.17883401214511221,0.27976293783353023,0.2488925756897702,-0.039650472879337324],[-0.09239106588068252,-0.2258539107818049,-0.1693408281895709,0.07774806220000156,-0.11164585057647432,0.11050641814295727,0.05652571173730079,0.007828838775498406,-0.34672739191687485,0.016644438733848153,0.20300170597226355,0.2201861991731002,0.2113572412382851,0.04744951799490096,0.14683568755666448,0.1605068944537385,-0.10277330134337219,-0.014624338390840154,-0.09631218066336425,-0.12784555002097212,0.33039856956841923,-0.03763426105869359,-0.1437285431653826,0.0367034000540258,0.031197213484281533,0.2523610008111454,0.29360720781967636,0.17167155825165792,0.03957804813434947,0.04614662776386096,0.169269149547921,0.09968483237754161,0.013730916933744244,0.061775087695500844,-0.17450993782305602,0.13468097828000478,-0.026477406925644327,-0.1856704392943173,-0.20531360072724636,0.09927514583353308,-0.10658304154812855,-0.04900935792653014,-0.07609470135702052,0.04628391020039971,0.13727064537725436,0.06914618059025414,-0.20864960752915476,0.07479814188941374],[0.36626807076076046,-0.04595122782555435,-0.11812766331567831,0.262895690571822,-0.014034279634219132,-0.08858962758011543,-0.20607085301356975,0.011614155218324792,0.026199477222635253,0.007406169397995382,0.08949561099559385,0.014408410827934353,-0.012902608249096205,0.13103363354590153,-0.1536041736316691,0.11562923838806508,0.09921830797227478,-0.3586411220260269,-0.1024963961595744,0.20491708042818865,-0.058040779606661694,-0.14258231951926392,0.03466630685953955,-0.32196981472801645,-0.18684161032644103,0.019675953451564976,-0.15003022911730926,-0.42544979640853214,-0.3093904898801353,-0.21468589624745327,0.03907831626295214,0.08795063618485545,0.036747167099360434,0.12169472283054963,-0.07252081290753842,-0.1101024302995425,0.1387513994419393,0.09171618710054666,0.13103066625901555,-0.09664004974719112,-0.017498319518093757,-0.051176787973470445,-0.1972883429965433,-0.018192711440361636,-0.09127985248814606,0.04366318523531694,-0.11224297966089652,0.030484271933000955],[-0.21703549358180707,-0.24244275045200325,-0.10327204071085609,-0.1821534049972137,0.7167763455125532,0.023098445959370228,0.17792906203563155,0.25129821260538493,-0.02563186755955179,0.07508045085101743,0.3110973303428312,0.19160315054992896,0.15198432222546143,0.03865515292508826,0.12477972518587226,0.14577949992270525,0.18647660152186685,0.07613109463928486,0.220366796237574,0.23306792002066964,0.019209146845372838,0.01841876591336138,0.159293202813385,0.07326763930597145,0.09368898467006623,0.08350413312270272,0.056359588340553234,-0.04269065419393929,-0.015572729803086844,0.14495369833483915,0.24786150524395645,0.14145599603309822,0.14545627945309744,-0.16934026236728597,-0.07822743664635033,-0.18179470784572468,-0.09416952370044664,-0.07463559252260028,-0.1504802964113004,0.019926785533854543,-0.04995784664904315,-0.03039911678323992,-0.15319040081349933,0.04046055854261255,0.07286670480491098,-0.0029421218616539724,-0.09249368565376004,-0.05271188862138841],[-0.06856050523024725,0.013035283609466009,0.000011713343816649397,-0.016159635138936576,-0.06425565766189478,0.04132382114193181,0.15450025923412228,-0.22472345818547826,-0.07884461624855807,0.13415050488581756,-0.04401712281018076,-0.21816607400931948,0.059050451061306526,-0.1498900366011865,-0.007849487126447485,0.014508261661693719,-0.01578580436436014,-0.15794373263520503,0.16685012725568357,0.021708008627313487,-0.28919959830526676,-0.21476192291943064,-0.14342133573964447,-0.031975676027481144,-0.03418854033586756,-0.16735830321873196,-0.026406778910361473,-0.18885070998579165,0.10080699678016158,0.1677678769160158,-0.13219961481992196,-0.20260852537907273,-0.053566675842913025,0.21972430264318743,-0.04741168667556341,0.12464380557040808,-0.05297133042568313,0.22366788835803428,-0.08315814733095922,-0.11558967277907407,0.06395854695158566,-0.3262159742011054,-0.15035309654130471,-0.14502748277490343,0.005158075718790017,-0.0017152103533085623,0.073867680025545,0.22259526768145085],[-0.10884103424272895,-0.13167727263895004,0.24219075359033868,-0.10032439855942735,-0.09925558234336772,-0.15972115730426506,-0.274102230369349,0.08049812299048219,0.17260542717070887,0.1386956032487568,-0.002657780467223592,0.0034568930543046337,0.16447292223301566,0.10471366670932629,0.14251485829674776,0.01981832458335059,0.15340902180826063,0.05625047781696758,0.17363755548693938,-0.04586852055315062,-0.02201157661439676,-0.03826542183228773,0.02158431091622444,-0.03533069844132936,-0.003455243708591672,0.10275797277851398,-0.0002896769176470478,0.08491887254183458,0.2718824688213629,-0.06479679098042154,-0.09151260581566811,-0.11564122226736472,-0.06198054809503629,-0.11903163895347448,-0.08257697728112504,0.02227144727348987,-0.02185059137633158,-0.27259064370332703,-0.2326552479007034,-0.06298395183890365,-0.09242921662995024,-0.08645738903200419,0.07287779896002947,0.09630353110413864,-0.24928585432855815,-0.19089655702030456,-0.09021310714210516,-0.0009283691552656792],[0.36013502236216505,0.3723991225033352,-0.2868258827013536,-0.06186458864277798,0.44123683239702016,-0.05767122461350006,-0.16945974602898697,-0.04713202335432241,-0.20041983546271358,-0.13870697407285967,-0.15955866429406113,-0.09647766705173859,0.02817368642567329,-0.15426107526535343,0.009299457079726722,-0.0930920277269763,-0.254597066658117,0.21038958306527322,-0.016713826234285523,0.03677093771363678,0.20192741446115323,-0.1348136269491521,-0.1316159707249213,0.12773755449841062,-0.06703165145246653,-0.09375651456051595,-0.17884504556701158,-0.07518242459681539,0.015194482388415784,-0.05674682598748099,-0.09920679929326252,-0.164322845766117,-0.15872499496009063,-0.0694464797416082,0.021132306344208106,-0.040448715617863965,-0.06189594693193026,-0.019749443689324752,-0.0015513645014212994,-0.20743883103202546,0.0369581972734755,-0.45609155508466664,-0.24856274655391972,-0.06029512600291122,0.08133304083135409,0.011075090318099477,0.21359461648835,0.04728887214877025],[0.003558385503500814,-0.15663503555417418,-0.315586957493453,-0.06443361440551645,0.09083545250030868,0.01991709608227386,0.042573859747850225,-0.23174284514235888,-0.17067395297376348,-0.005920727580092241,-0.015962861292833943,0.042594489361308385,0.2786740548403612,0.12783035419077546,0.05022353066938402,-0.058820094861215845,-0.06697404330439738,0.0717860700914035,0.051503460312837125,-0.1683020213179075,-0.35847961582259075,-0.20482390690688948,0.25455038267343144,0.008271024919037246,0.1648961211217876,0.1172379773477746,-0.12216510175620607,-0.028879607544291284,-0.12753237036366694,-0.012475765956543941,0.17507345386245998,0.12876635279240486,-0.027156370600774936,-0.008502856596367098,0.00605603723368798,0.20165151195741005,-0.2339891515100729,-0.2521780582813932,-0.039586050894140995,0.16044411907815037,0.12843090337442994,-0.17086605111845546,-0.08096670909050101,0.21861822693540003,0.07479757780518642,0.17289109191916513,-0.21342278201321638,0.01969405811574507],[0.29212448244102807,0.18612932081903372,0.07914788095684094,-0.0046021294956252595,0.03505101293701206,-0.09547662975244993,-0.03310781926168191,0.10118076359175032,-0.12513593748989485,-0.19637799002072795,-0.0864705430043971,-0.029049395818716805,0.1253010087948824,0.007552275735089881,0.10578754576646392,0.033716472177850544,-0.08746049380523302,0.11435573125280808,-0.049940132277963345,0.12019697379147347,-0.15192822132131825,-0.09703202849425059,0.12753058991510893,0.34619517609027883,-0.08654817342652629,-0.03765388622526061,0.01594543836286156,0.03427524605135143,-0.15797370667000463,-0.008429150995266609,0.24914673594290113,-0.022542734000921372,0.057248518662662395,0.24845230730811596,0.03780091601600262,-0.19600316843041518,0.1286416499017492,0.1802024543014701,0.28910819753007483,-0.06474048742254306,-0.08394992378771027,-0.13199325504400142,0.09509918182422625,0.09299843690570368,0.11692862494460357,-0.1226232188754969,-0.055340113188786545,0.17271656966969076],[-0.09767395211685748,-0.35270469839190205,0.027308985741525297,-0.06661483484785682,-0.28597319135626637,-0.08667411744992744,-0.05230287068769333,-0.00183675013470163,0.01699520658000642,0.029058234761046214,0.08982491259276595,-0.12612704953628467,-0.027068641006402258,0.13203536600655127,-0.12140061322817422,-0.15863938093261454,-0.1108889846865582,-0.02780384207585178,0.11959872458044264,-0.08641894541550071,-0.003152080697805144,-0.1405249911454608,-0.09292904044903882,-0.15891303328604767,0.009939857037993782,0.09169483534994989,0.1241822685460066,-0.12209768408708323,0.11527686033183555,-0.026426791506626815,-0.15268439382910462,-0.008754554873172641,0.0002703843023405069,0.06351076301596661,-0.10030497161589885,-0.015577192687740648,-0.06580977417495897,-0.14951072238280363,0.20900798078644095,-0.09496043033712499,-0.03365800220627837,-0.1640824319641783,-0.009356832873299463,0.17449366880631192,-0.07667672578335627,-0.08578935928409474,0.07257314268709189,0.22064214247454325],[0.23553486409704188,0.10991285712263706,0.1374325508919762,0.2727202743048984,-0.1979650145132076,-0.06610028782148532,-0.1858161394575899,-0.0012637993364261059,-0.13990890661182354,-0.013525337264476361,-0.01380538216389971,-0.04056738027435464,-0.09381414106135626,-0.2968469575299391,-0.31518331272142364,-0.09377305199390785,-0.12517517121529634,0.1197689818908769,-0.16887012798882672,-0.0744614461843541,-0.2335514519437025,0.1494639121767772,-0.022382437101099894,-0.03942716653536964,0.2378914384536185,-0.08721379770774011,-0.004330652674049752,-0.052041902553970676,0.16029169708326838,0.14315220362488756,-0.209159663257151,-0.1277400958735775,0.05718226168684893,0.10487598519437277,0.04899271684786865,0.2913806793533144,-0.009315241143671974,0.06104982604036639,-0.030762930199133003,0.12702910716230342,-0.011029346720147635,-0.403114060350299,0.08996133801377688,0.3275522099755402,-0.06320246530418007,0.16450742466563303,0.21366268330621868,-0.20934937298077194],[0.301031362455878,0.30492508748571423,-0.21058110726061907,0.21547150589593925,-0.6909928310599899,-0.001987286303505625,-0.05217911683964682,0.0753333003329699,-0.14376389452057883,-0.08711759844251638,-0.126944620872458,-0.211155983242787,-0.2001654532341459,-0.05869884961678521,-0.1998320815856656,-0.25575391690827654,-0.14425210760756393,0.026670211604148158,0.10070453015478956,0.0431420695718581,-0.13970538136470573,-0.12060497365351036,0.0808169399612902,0.13611908387968819,-0.028471705783796767,0.06681465467495101,0.010599387715624919,-0.1035962480585023,0.08685829932552303,0.048723533834242404,-0.13935179200813902,0.1927155451235805,0.11390987835255749,0.08836049719555257,0.019029552760880003,0.08933345844579062,0.15098368078509836,0.13549898010252176,0.05612626440475566,-0.2669379697540195,-0.10102126919151401,-0.08044736791575102,0.05927863223292952,-0.010553287548273857,0.07089616873836582,-0.0170478128761259,0.007413328083832807,0.003922169139831336],[-0.14486013626749736,-0.09507124222897158,-0.11910592598359951,-0.1848079364459723,0.0026222665399429296,-0.0373098241830673,0.18784605508500637,0.05465192547312677,0.226930298206444,0.14141957224442347,-0.05648393513147004,0.11225574236789469,0.16031983873811725,0.0402421464187043,0.15913062162408934,-0.0032490731231534426,0.026148108916735167,-0.14309783202535553,0.0644333205387446,0.034247387170731454,0.055552990604978626,0.17094411986158026,-0.0020836834002253323,-0.18786728630503963,0.029574191854722605,-0.3284778957002935,0.008940003577332243,0.08028419497011964,-0.058254686046013957,-0.04084052891921539,0.09061827114659425,0.2022342586570807,0.15160341532310243,-0.08697342476325651,0.027347701447356345,0.03423794309598492,0.2382748274635811,0.0836446090044174,0.029836934605204878,0.28335382823636807,0.1898833344892486,0.2730857603307038,-0.024166201475687047,-0.08077019880298049,0.004274850366752957,-0.017575136255850575,-0.020618998283097,0.3762265491781237],[-0.10971313908579494,-0.182886245787609,-0.06433903566489331,0.04174692379451848,0.3282719404034902,0.04612189357104164,0.018374143020251896,-0.26104697989753883,0.127808444605166,0.09863372534793627,0.03030145028202072,0.0461200071005931,0.21859762183240747,0.04300627657893129,0.10544332389656827,-0.034418202454828614,-0.043594337855300834,-0.02594701917467457,-0.1756481771302002,-0.038002872394080844,0.07064049364087535,0.12309129962655327,0.01967126487159995,-0.05786182442719569,0.0892103437569196,-0.17126698434366236,0.12121294224534733,-0.07131862277481658,0.021206041969115602,0.01947066215735984,-0.04405872789612091,-0.011633165168307792,-0.0474739823223579,0.29358542390033443,0.08277268512409276,0.17200059850227234,-0.12879610602094527,0.26107835543425956,-0.028885984385333935,-0.2738876792470158,-0.23304970806015854,-0.3701461595895009,-0.050140366839226146,0.017923129758120233,0.3082022245157775,0.12247802974842907,0.1497928370285828,-0.22489177472309616],[0.47978449418546776,0.4804454577715935,0.08581598968842397,-0.19528680272145948,0.7550450718593669,-0.2885237100082177,-0.28206726731333476,-0.24901900441333807,-0.16504777993070763,-0.22032006145954766,0.09880120141856193,-0.09652844324368287,-0.0881890232080239,0.008335256343897781,-0.11206793056664226,-0.17586385967938895,0.07116530079472913,0.024411248011723233,0.027288439253227104,-0.02722363321686088,0.06670638400560841,-0.0027426436127569705,0.12907364365224125,-0.05975869154242948,0.024991967826147002,-0.03720911979287289,0.0017394263645620033,0.08419877479068895,-0.1536728700630724,-0.15479317500184536,0.005552382485368404,0.03441574894780258,-0.10510632150378196,-0.08111644961415954,-0.05085489199369641,-0.10897515236467341,-0.10168028030292087,-0.12803352941990012,-0.12035869995577575,-0.23306155395685255,-0.0501841387209367,-0.017897156835716556,0.3142240074410763,0.0007333458604785247,0.06687089528650311,-0.021844503065618116,-0.18003799615982222,-0.049931122307428084],[0.20342538511935424,0.20335753072901472,-0.0443075548431784,0.14604139049866216,-0.055373490936215776,-0.0710913079213997,0.168428610878436,-0.2725516440364855,-0.0042512536109921995,0.16522797003228917,-0.11619828096333551,0.016237763205564887,0.04562753182482462,-0.025543550571777072,0.01819878379847931,0.047317459791719425,-0.12724409978141887,-0.016789043353684828,-0.007607796341603466,0.0358202703818768,-0.16856582465266828,0.0621257757891616,0.03754428366822627,0.18702424934032105,0.010979096229195465,-0.0070370391740676875,0.035658100069137735,-0.09105519617554786,-0.15873637661589518,0.2525229409614787,0.008929769536291493,0.04830209049123442,-0.01079105839453931,0.006247478327179976,-0.1023560901638465,0.13802175789483112,0.28061558268249337,0.06281139671962861,-0.023946851350547537,-0.045524828739754115,0.090356065365219,0.07881147852994358,0.17568632308897253,-0.26610310897184114,0.26312444348969477,0.0693005957133767,0.04638771296383859,0.08343657524155057],[-0.06049622171131618,0.1175454693843075,-0.14050136748258715,-0.015032784587819767,-0.007334458724119826,-0.08006622012161298,-0.36650643201038907,-0.022717766564120417,0.07992687809176613,-0.3973419050768526,-0.038717798421356205,-0.03412904579943475,0.005982938785204744,0.09284982020679323,-0.009336086231495616,-0.04296535569244762,0.013345687861812752,-0.015938441105633784,-0.2844891625775845,0.12443451724431424,-0.2232948583412678,0.11953065132605181,-0.16056233069998943,0.023662957851077887,-0.10228758154775867,-0.32320043065224063,0.09251410482972935,0.09005841808064335,-0.2898870856754592,-0.08139083121397941,-0.08934373583615475,-0.017766252060346772,0.10141591606181628,0.22533714472784355,0.19103800509449745,-0.006735952732594019,-0.08558131814378235,0.17071959414267435,-0.022562734184174957,0.1436690494445242,0.09715391158611854,-0.048604718268905646,-0.2006890034415667,-0.03950094268901744,-0.11475653534166087,0.0766376558686068,0.2549499178816117,0.10202454174149225],[-0.04076366593086792,0.07007508985377801,-0.01459852816917683,-0.041342735896447894,-0.12506505732818143,0.3164628486154643,0.05426080321816114,0.18774280555362646,-0.19248300785256073,-0.07786054375282796,0.21866972839255822,-0.028792541744597482,0.08465211808316278,0.1000911088571675,0.013364416813971594,0.09870516301653502,-0.06304019318862152,0.04566882940328449,-0.04516635595442504,0.003305603756495978,0.105334708742195,0.16417067193997334,-0.13082958501548125,0.15274455312225965,0.07892815638795923,0.0003900638936843594,0.1760164979865341,0.39169412173074397,0.14220941841166884,0.015088293547250603,0.16605123379535625,-0.08076221001367732,-0.10502953830556162,-0.22518775255520812,0.062453978373898114,-0.2960731689290909,-0.13933064027461836,0.13425278704652574,-0.06371163313168804,0.09237313279557569,0.09124319343478038,0.31991436195440776,0.15296620948026926,-0.08252827190336683,-0.01742018729621246,-0.09214116238931143,0.16634645268909368,0.12316284132333923],[-0.08622704788150846,0.04511116169545122,-0.14115076540337024,-0.10960259300276819,0.2484198446934882,-0.023221152665840846,-0.13811435848779896,-0.13273175793583622,-0.15794456322427314,0.04048948331487396,0.14128282356331864,0.2386317050002624,0.04822805483353799,0.15549512813695734,0.034948110059415435,0.190749967466831,-0.12222944342124828,-0.15234587740931846,-0.08808831022939476,-0.14156158176114517,-0.07319109113408062,-0.11162941213710773,0.06672318709870677,0.024059238327929586,0.08507023690121132,0.12642908540167253,-0.2375463624841023,-0.13598712937848856,-0.009826320325132663,-0.04057916615446979,-0.1789452352035344,0.032339021433311396,0.05834787906094735,0.21401244978470632,-0.06458149245575608,-0.002208374349240062,-0.24124506701510687,-0.3111578894834543,-0.33121302649425627,-0.4648142382666838,-0.02547389393615825,-0.35380863536367185,-0.11230226470995587,-0.10912267131533894,0.10162206804698216,0.14437575101778516,-0.040320802659150154,0.13531514477332302],[0.18167255312163733,-0.0750258236183708,-0.028548003539306126,-0.2630059635858119,-0.054131923030877896,0.0954447868770229,-0.030285200095010872,0.21989543987682372,0.15471302583829608,-0.023327511373026338,0.11722173745728935,0.020311777654327547,-0.005032869834698117,0.1297799835242863,0.13662212322238143,0.13728971598931228,0.06346485425679844,0.06978782638119942,0.3093774219996564,-0.07697248317220273,-0.031163887373113278,0.19299467241045778,0.216786134804594,0.023594069020761686,-0.004474556768778866,-0.0003431444925538558,0.263021827999536,-0.059941458554347266,0.24640916617393496,0.1318202388078614,0.0413402847303215,-0.06688584910983207,-0.07151821162451848,-0.08489451651609292,-0.044793139734032296,-0.06979026449345475,0.08936378642210288,-0.049451392934875014,-0.1137005252434606,-0.19757480848204226,0.17501891908543524,0.25233221017369106,0.13089638399127795,-0.14322725740184494,0.2620389271747296,-0.07266551729633784,0.4114123414688142,-0.016320473420098097],[0.1701929186047218,-0.15433394350994742,0.0995390620366157,-0.06925111697089976,-0.18158533008890762,-0.09914004354406179,-0.13467419206068088,-0.19292667032130192,-0.096191649689215,-0.12274479048677689,0.014557889126160675,0.04319562211355511,-0.10441268829651765,-0.1062335717277779,-0.0450597202311589,-0.2261142760039951,-0.10884321662827427,-0.06770694340245131,-0.03793921139525677,0.041092795676185775,0.18239332285149118,-0.004350205725480162,-0.02592653633388333,-0.08164506691769567,-0.11803068099240592,0.05407302848469425,0.18453135092935286,0.2343909969986716,-0.014695242270036098,-0.04210511780054844,-0.08864971655418534,0.03778586064951627,-0.15919816431709768,-0.13539149022766814,0.12326682284467096,-0.07734009356257156,-0.010148289514409558,-0.047964309245281535,0.07406019025019187,0.3492013672026501,0.12099787467654309,0.13399275653505943,0.012526632081154666,-0.09157923456826116,0.11406475663832578,-0.12335653492226523,-0.021934910515417183,-0.34677637331721745],[-0.11574472565522326,-0.15267459232916364,-0.27908468432857236,0.043564008460277574,0.34134119425125636,0.2896199121457182,0.10840745950965393,-0.04276901920648869,0.013964387557088788,0.011031783323461613,0.10406761065562464,-0.008853424024335298,-0.09783196200353597,-0.2973906105668529,-0.14307805142013552,-0.2738517976793937,0.08134061202944187,-0.057280953718862035,-0.07138641625749892,0.18773654751815236,-0.23877031654704947,0.026538844987389423,-0.004225240232964271,-0.011847618757887781,-0.10154943344867988,0.06743852214903452,0.14022180442611598,-0.003090018201674214,-0.001845351136034784,0.009693589251177331,0.05473058544209837,0.04656577457810183,-0.022420090903187792,-0.054968681818197654,0.2984792178043594,0.0971163587007929,0.2026506061170771,0.07159062358415659,0.21342595788361376,-0.15253762268629129,0.16536844495109282,0.149478519434079,0.04137843600643523,-0.001756256675545683,-0.07541873929278559,-0.026224309531646468,0.2694043140763129,0.23656439726526285]],"biases":[0.014809568371741749,0.08154778443695489,0.06492622523490109,0.04467461763742203,-0.01287872319527231,0.01301500395119901,-0.05946353789714036,-0.016707879209515775,0.19653892457950756,-0.14491617673510881,-0.05524130313753302,0.2586449884191269,0.04352240870156948,0.013609661948038781,0.059137508403699475,0.11131388301087956,0.0482150629783338,0.047666754747942686,0.16471590687036855,0.0033722581786838754,0.07245920577854204,-0.5671880168379433,-0.026381079518215025,-0.05353259559405433,-0.001525560734899088,-0.04692403151464417,0.032437535016782884,0.10434522683711814,-0.01693803260732528,0.05339333529651244,-0.023215420154865402,0.09257119231880002,-0.030814488026416197,0.06930858704196055,0.011215679117830024,0.009808210898123258,-0.0035617015161956357,0.14262216370738828,0.08251693701101107,0.08927983151319226,0.05743611105611255,0.09442570806659825,0.00665834125267952,0.044055503888191946,-0.05470967944450507,0.10479793824705287,0.017237152172345633,-0.018741320639850168,-0.39443012840241154,-0.000887981404245678,0.08990637091709007,-0.009689989174214214,0.08186501838594314,-0.10206254938186389,0.007492685234179185,0.10177911989593798,-0.6015207664326351,-0.04220522829470641,0.032608758977215234,-0.023015827222518898,-0.012430804074639232,-0.0927726356872369,0.046279892463263965,-0.03137351515650224]},{"weights":[[-0.19032826784455936,-0.05915318484637735,-0.1806522247058292,-0.10554200059960551,-0.1280087257176859,-0.03484545118153494,-0.04898728383102991,-0.30216720607778036,0.12701655918954455,0.09802271187422762,0.04146996081624844,-0.0760434317128567,0.0706049180603548,-0.15402652998675634,0.17668526026859813,-0.006082317048789729,0.08759271614988526,-0.08975434233123562,-0.06075337470053292,-0.10059394476234224,-0.055635085876530356,-0.10927067562892406,0.02500522447706762,-0.010048708381587657,-0.34304345382891255,-0.011836972572725925,0.3190125661689455,0.11767514430800137,0.19288996944489123,0.09760403035016267,-0.08949452799307928,-0.06880961130691608,0.17835230516622336,0.3702931328849322,0.056547827384213926,-0.17522853719640646,0.05588654474211178,-0.060893941468451354,-0.05420918062745361,0.08215363148947807,-0.12105354733382978,0.007718145733096723,-0.0007246528807714705,-0.17440389937425121,-0.3069401768787548,0.0258019635833574,0.05378077349879855,0.03445300704839358,0.00026648914277801783,-0.39433275321087896,0.01098831809446136,-0.24075131574867292,-0.12218238786276092,-0.3448940627036317,-0.09683343362446968,-0.08159151793188885,0.2156823964122538,0.20592126348534967,-0.04457235212921071,0.03712497457989832,-0.10271826485500564,0.23813841846697714,-0.0295849728141378,0.12145182725171175],[0.06694664839077567,-0.1538043093732699,0.023535973818586475,-0.1285749476752168,0.18270209351007194,-0.05507406248239439,-0.04929014221797782,0.1664541726374991,0.42453204823873386,-0.16135510590452942,-0.2580392358463091,-0.046787103838686145,-0.10942528758954255,0.13670842570582217,0.22560240983416072,-0.08222176965035814,-0.051765783550678034,0.05341526696780581,0.26041360747775216,-0.0007191355879996594,0.11299051113376399,-0.0827067339152735,-0.048252517162187564,-0.0375680561827119,-0.08559887987197694,0.1388273937489588,0.0750112370950243,-0.2539507056580113,0.0916625140728137,0.10103889557594413,0.21404689628469026,-0.24865955412001126,0.2036123534262862,0.1744089202381492,0.12723099149461728,-0.07020509852764836,0.18023092155293713,-0.2493190231671658,-0.12882619188615224,-0.024315687446589688,-0.36536676154873104,-0.027701541822256773,-0.012727433598710603,-0.012162640874718094,0.2101652571210074,0.07624872039204411,0.2836393765383862,-0.10027021493473426,-0.07380611331893515,-0.021317441263439207,0.24396711612447505,-0.03847292494453561,0.05771746340497297,-0.33380296434678375,-0.2604289736161985,0.04025772719443962,0.20678488208450294,-0.19055887348965764,-0.10805241472442077,-0.14668908918204626,0.23034329175043605,0.09656792417293185,0.08467406349168634,0.08461947680243993],[-0.046868538627145344,-0.05760059215867888,0.03509686598553678,-0.024312548235625717,-0.2899831348356348,0.016835602001248624,0.08193787924637994,-0.3818346207968011,-0.011968929170101093,0.09588193200027444,-0.023168825507760615,-0.08819937707257089,-0.0930486924910308,0.05880881998352362,0.19656294327065155,-0.07352475426855781,-0.052779124424499405,0.06566390492376616,0.05918574760059526,-0.2525590513541526,-0.281381307741171,0.14214818006824734,-0.13681618244940438,0.009860064766368545,0.1605464698274197,0.027004919539514352,-0.05263348246966964,-0.014854939849095203,0.07465385056052537,0.05009896680109806,-0.021437965999632762,0.09963708725898933,-0.26059008950945617,0.14267698106275986,-0.1058292043222227,-0.22484957661570473,0.08789087250746176,0.15940835392532018,-0.1450400826623417,0.13103443822407485,0.03590322273147316,-0.0432332085146455,0.12955329651854813,-0.17786035309885334,0.13941842153509737,0.2221757328196918,-0.0494617378469662,-0.11776128749043564,-0.03591682483847289,-0.10039301894548334,0.06238494921723526,-0.00895495832973221,0.06469202102531375,-0.00313380622955287,-0.005160083681563924,-0.07225772679980698,0.13992584216150553,-0.10415502987787442,0.07429210512794629,-0.14870802593135285,0.1076559267090624,0.20224904698811266,0.31878248704318685,0.0258486049214755],[0.1014779173475465,-0.20461238063781853,-0.03923213784466917,-0.009574777629485628,0.031069047294704853,-0.019935926152798916,0.16456783444748077,0.14005166315006623,-0.28490217221726793,-0.004309129388500917,0.021851067978390756,-0.1739957049923075,-0.1273961851378663,-0.2438312898391631,-0.020758738096179903,-0.01061078715150356,0.01660268145573179,-0.058767905919339974,0.0015085580372189106,-0.11734368392648521,-0.06099161862291737,0.1882935912043997,-0.03912009878512065,-0.27533968979117984,0.0756641889447392,-0.013005458088188298,0.00446125400036625,0.30068738494496006,-0.01394302224586012,-0.15029848080977806,0.11032232526862576,0.08357352378869769,-0.08362511911921164,-0.3305672903323478,0.05979790667758449,-0.06296944545193219,0.27007602369462225,0.025791521786421783,-0.19309675102898283,0.1774954540320278,0.2572761800687695,0.1867081208827079,-0.0023657109078613933,0.16685027282378528,-0.13327516469125583,0.09980219758915754,0.1693918989305033,0.27420130217056027,0.10386792711644832,0.12788025064361175,0.2901965627443043,-0.1711271336092669,0.19566310405020987,0.003924140048745813,0.20298421375753742,-0.018412604570927367,0.3798911194320046,0.019823289196155044,-0.03266442601706512,-0.16374966810397765,-0.035401772578722866,-0.039247828617629356,0.027427391132337803,-0.0488717667397838],[-0.0022674092614132033,-0.0369140870880538,-0.09691831896539999,0.21194011494752438,-0.24447402394334475,0.13076828894153275,-0.25508698006876357,-0.15426511054655387,-0.03717070137036737,-0.3239544707024719,0.12426472241754413,0.01400977150270343,-0.2878160619194662,0.18630315920209195,0.08551144154097212,0.0004859630905984823,-0.04253321214821608,-0.041552330363447604,-0.13846601111102183,0.04586674195171668,0.09457807432679433,0.09736328003043393,0.16105240222925238,-0.055088453239966875,0.19111255006103356,-0.030520810344259772,-0.021600534154404893,-0.026284461385119733,0.07945957091772334,-0.1406309407705545,-0.056768214504589694,0.1308135965422331,-0.0941429343755576,-0.023990500825034195,-0.06806397143845477,0.041906563863817844,-0.08488489079181812,-0.07748013854920803,-0.06603004250502366,-0.16076988116215635,-0.12729223825563188,0.10492926984994691,0.04100074405133915,0.08529646956263591,-0.10669395385935791,0.015697528610589116,0.14016488551567372,-0.04348153879362839,-0.3192674935040091,-0.034256884637863395,0.004521104486224503,-0.003355388913312741,0.35399928283429105,0.16281399074401656,0.03489944485716845,-0.11019967376308046,0.011445520745821749,-0.10794495792866586,-0.11293121744705036,-0.14482317222442603,-0.09176133413912364,0.20984322989746332,-0.19593579522653798,-0.26144109333202925],[0.06798635845235344,0.1916572054904071,-0.1179601763866236,-0.10967085239359423,0.20779030630449133,0.13292629293264444,0.11808771312109297,0.05730771762471214,-0.06426871065550187,0.05641633848987195,-0.22924312348844655,-0.02634281693451756,0.16161798960735851,-0.05805104172288375,-0.0747316929748226,-0.05674352282103945,0.15811979011640262,-0.06787826275712515,0.12799314865634148,-0.40695281050079046,-0.033054281977490094,-0.1811627152795138,0.06051415575480151,0.2856782668063099,-0.0664389297176005,-0.2730845797464159,-0.2619952017281824,0.09257955682211304,0.13708934807958517,-0.12226262563204468,-0.01891036481926348,-0.3141603642465782,-0.2876921888151702,0.24677889333196468,-0.006960090695148719,0.059559583168598995,-0.11636784872104641,-0.1453590541069318,0.0037042604726463904,-0.09283277622251973,0.08060867815293002,-0.03788943786664908,0.25110001741974974,0.08701860756511794,-0.19090163002787508,0.13077849931577898,0.09646437664092512,-0.23509622277830042,0.06599392263882108,0.0400833988752799,0.04789389632031004,-0.0745773332894654,0.18090920506140099,0.3959682000070072,-0.2819651629783805,0.10122894848181334,-0.2842472654456312,0.011474230506689028,-0.12643084075383687,0.053763300254954446,0.15647919505701524,-0.21355461712453727,0.03533233246875846,-0.29382221317850626],[0.259769946293067,0.013223074760447415,0.05345125481271814,-0.2057471705287102,0.08285223464453298,0.1410166622840908,-0.1557645915031103,0.06757276094203134,-0.06352226274676318,-0.15378249599875612,0.123612714338362,0.005918067822014963,-0.17621813423846944,-0.22179126750454387,0.04592377117044074,0.045739998284469494,-0.11283132488890575,-0.1304827400039013,0.04712669092187354,0.12553922242659996,-0.19174391026881693,-0.22913846613177147,-0.2205529192481789,0.10597543773254324,-0.0500013665354939,0.17686602382423885,-0.12775543896316813,0.0446216935070631,0.07855625569728476,0.07120402026065344,-0.16655716937163417,0.044379524306009645,0.04574808429871335,0.181005376830875,-0.015400279867964224,-0.44745666307439314,-0.028148665802839472,-0.11243065655331287,0.06773529075759463,-0.06303298177717032,0.07936152769781639,-0.12478218240037,-0.1510140114828485,0.0995932537280267,-0.1381835347398204,0.06293512133187397,0.02823405050211473,0.08228242736524632,-0.21329586909632675,-0.08886942204471247,0.08313026867218322,0.4044070054585573,-0.15493169414028227,0.037890635190158665,0.2567589282407762,0.2945624747438795,0.06424663004616335,0.21284676982298853,0.13736598739128908,0.05103282588608398,-0.06798470708785441,-0.20140339591032383,-0.15411685439420103,-0.0652902448665056],[0.013871712643904913,-0.046228550159896235,0.06636513901936199,0.14666298288043667,0.2042367467235431,0.1210252809914684,-0.2256714273447019,-0.19717528525762149,0.013055031184353055,-0.08766551943558083,0.07822816704145431,-0.03332372264238668,-0.07838152100616806,-0.0800780077847452,0.217396370727,0.40266841226694844,-0.1871500091080612,-0.16894638999536463,0.12193377851884601,-0.14925936942765097,0.006916299831585085,-0.2891567903168536,0.2526060049760015,-0.16040443820463998,0.03871622589312503,-0.16624583595122636,-0.09560980342518276,-0.002769595940062621,0.07191429768308229,-0.19609302255642186,-0.07831949569735178,0.3547185047199648,0.13625650341477963,0.01144737229693003,0.04734693465982521,-0.02096129438438181,0.07380445239394928,0.4395266220558983,-0.04070921704526212,0.23200696097465293,-0.1442888230980658,-0.09566512302133577,0.3083796635580184,0.06328424415289176,-0.1737807086401879,-0.25986890002742263,0.16918874402623127,-0.13850248205361035,0.04656120777410255,-0.0039641482163441455,-0.11813204377002955,-0.23578941221120253,-0.032035443280952904,-0.0005035312534054382,0.09576576334661338,0.058648879153895994,-0.07297613048030012,-0.039648502568827695,0.020433104269331023,-0.04573539001189104,0.14821922341577426,0.05149233975486379,0.025503339921315437,0.15516882856315953],[0.022211674749147772,0.4169420156333774,-0.04670616219473107,0.137980527588929,0.05923743975971698,0.01692990262113725,0.07439011508887627,0.09902396194365862,-0.06874855871174719,0.035476446192254395,-0.08639682125855577,0.46674358683639916,0.39202219649444964,-0.07589243808877823,-0.0175734298938654,-0.057758684844923476,0.01646332850066072,-0.15386073656736546,-0.00919203066583391,0.1679875598777555,-0.13607689457475278,0.09283756219180352,-0.02481798963486196,-0.09712250734786122,0.008879859224025422,-0.1367576588581587,0.09777551407477017,0.002163954214203611,-0.04118353393492163,0.07823316898287502,-0.10761698126601803,0.1428769342063467,0.008834498757290872,0.07021472652462916,0.21809623219795746,-0.20415092123582862,0.20380619116886375,0.023886877145976215,0.333550833734971,0.13484169132383894,0.0020233958405451134,0.1718601702521435,0.1315926712615275,0.02477378027509147,-0.13515084619898168,-0.26041827133979606,-0.10668735850354481,0.14030635047147366,-0.20847501449593875,0.16843231153357588,-0.031219308586597414,0.03564785365971563,0.021628731604808715,0.05884782510725682,0.034251033974683494,-0.018785488862382533,-0.2937974965200047,0.08725354558316455,0.18742937532528145,0.2212312727462086,-0.036049965136699384,0.2331224055527683,-0.09691764115345546,0.1788132367151921],[0.32220704616896656,0.06634775456506566,0.05408834805966309,-0.16419753617546043,-0.08403205126656678,-0.07531876640438673,0.20262648992135998,0.04517723255437256,0.32547858799061646,-0.184418413800166,0.07487268847764446,-0.22193791254767048,-0.03556011888889681,0.12176107162269617,0.11111884618330838,0.04055084575692823,-0.09833675251812658,-0.15995347126816292,-0.06589879469807587,0.008825101748735091,-0.14497064318035166,-0.0002776793378494442,-0.06217018947774685,0.43771573459366053,0.26336326396392407,-0.19229232713549274,0.016200649515266948,-0.1092133379699784,-0.27483039125353514,0.16315039190189012,-0.030343413920649966,-0.15452407172304025,-0.03956959926579697,0.12778549977542933,0.23404913585478518,-0.0407090855741619,-0.07951980733074125,0.05637800414291912,0.031163778305199983,0.04512267549518544,-0.27964175926929963,0.034830437418929903,-0.04932784247130141,-0.12259832802652645,0.3508023232330401,-0.09635157844221666,-0.050986020575997014,-0.06545969225284,-0.12937152617664702,-0.0907288780715735,0.011625961833394526,-0.14403051608533068,-0.12701493253827054,0.06779895326506037,0.3297455325941088,0.040647150766002026,0.2520828698317206,-0.21056043436151634,0.17228999231798917,0.153991726182659,0.16446737327264668,0.08373051361083082,-0.2753780909445703,-0.1928285010482588],[-0.3500567839222222,0.05149509887307361,0.3695431243185341,-0.38755112635887384,-0.0009311025050386552,0.014747180951463048,0.17661845574995005,-0.081322785092387,0.22260834830544776,-0.07536367568344944,-0.18586366791790634,0.08937575230096985,0.3217014526812309,0.022262308855355236,0.2796862759095962,-0.026484153174520134,0.30636461399565423,-0.29182268553088847,-0.15452117030302434,-0.17824895669404023,0.21845883536043068,-1.0008178168852548,-0.24952808272064084,-0.07257602735896722,-0.10250108075527418,-0.1652584154752812,-0.10213698780401896,-0.15186432054373653,0.1783345754334003,-0.006775807971511045,-0.3128493434203357,0.28234247011911795,0.12391423543591816,0.031829093510557606,0.07872135084379057,0.13895967437398132,0.2015500117039676,0.3230464713666603,0.17306233752344485,-0.05137571880167677,0.17172356389446283,-0.34679976775812815,-0.05075670040865499,-0.06642755270728176,-0.020048431770912374,-0.41363394512860646,0.01903951112704223,0.16979696565991642,-0.555392634199904,-0.030801179390717512,-0.03581975646159428,-0.016745810582089134,-0.042837038847990144,-0.5482991889444415,0.046462240617078966,0.44166673756734226,-0.7538785187885871,0.31324702541823857,0.14966348192929194,-0.10023380041757773,0.22637164120014236,-0.07756138175998543,-0.07542852146619859,0.37498756135041367],[-0.12744844557022855,0.2477217883156988,-0.08416686299875423,0.12403406618490256,-0.18589967087411335,-0.12126043242938277,-0.20439855996100953,0.10475565240444161,-0.09195402186863776,-0.049389480952099114,0.08833702668521902,0.2923890947082161,0.19422832592990796,0.3221717380352886,0.02772238684766711,-0.24002088007735514,-0.0044137721458560476,0.08501154509691673,0.19302187207923688,0.054394439168707565,-0.016092754680433006,-0.18520179749346516,-0.5315644759423774,0.1424717801292741,0.18455642707985326,0.025688721196461678,-0.0851376610878754,-0.08278938107991923,-0.2707880675184763,0.44120505797273807,0.14789491022961432,-0.24398137185285385,0.20156320911079215,-0.2058747833080804,-0.026157377137438837,-0.12502216496456137,0.057076875474369244,0.1812888338635555,0.5447786329521795,-0.15787247097887908,0.2059314830522076,0.08018831633605372,0.4757765959075035,0.0038483564980347704,-0.013005814689246666,-0.02760949120396789,-0.015530556212085085,-0.06227349285677565,0.41924942042182334,-0.1210981693411167,-0.009526856702487343,0.08760552818421996,0.171162724606846,0.040508840460185866,-0.1457734179202764,-0.31448404281166775,0.3512237314147838,-0.14867149590936812,0.16017303930569662,-0.3609276369726631,-0.04436024003146555,0.09381326370261366,0.05986038462832191,-0.005068839394368007],[0.3155183508434709,-0.03973225323485348,-0.06735050390627581,-0.102562460540107,0.09862436996635254,0.226620874785642,0.05406337525653496,0.14805667721608323,-0.08886481180200431,-0.1042472720959596,-0.28643914597351505,-0.09646409731790177,0.12061385171097239,-0.010418398003168239,-0.015382850121482789,-0.003095675720679964,-0.07686032459014751,0.20372466706179596,-0.10408617545334876,-0.031867842011869124,0.06839661645421116,0.17939549045513453,-0.005375953650766542,-0.23553708872485077,0.06768283361775244,0.22969250196797558,-0.06312866016613694,0.065287047984243,-0.14143631115212246,0.12236138364302146,0.08634560900542182,0.07559822728271924,-0.020390000873697238,-0.14103316012377454,-0.03230564622122774,0.025832095872071883,-0.29820771281447556,-0.21881415127933093,0.09592922381458921,0.0859495708531625,0.20430244271009557,-0.07767303846218346,0.318394245357271,0.04118777254210602,-0.026950085515822255,0.08398791263987347,-0.042897846336383647,-0.016727952482589396,0.22212566906976758,0.15543894527217944,0.007379674349372862,0.31890194632906355,0.14924068264307522,0.1602075918996012,0.051576410747578405,-0.08162337382687969,0.02253545566391934,-0.10128475006749196,0.11213301631158214,-0.2630878766684825,-0.49708465102460964,-0.02418742603954458,0.10338070920290918,-0.18319537835693747],[0.21814700218669528,-0.0274156594539453,0.002746639869905134,0.17487860217439927,0.01455119459941192,0.21866960464890242,0.08486574003661686,0.0755025572654993,0.11631161556287338,0.028180499597871726,0.12070230127996379,-0.08633288820062013,-0.343666074671838,0.14156643224212456,-0.1970756694401058,0.35936839408087345,-0.0670732685302826,-0.07088287028653723,0.01827176357640168,0.13739424074918105,-0.2560936734695335,0.023215599425820355,-0.11880793801327957,0.051510201842857574,0.05336981353196467,0.19086907556263194,-0.0475778990449735,-0.14796926803269322,-0.08586750166045913,-0.057783937466738856,0.010558913969669766,-0.12483276851914105,-0.18720591793425614,-0.0943832137865623,-0.2768823024784964,0.11539589518106173,-0.13942344905912335,0.1694749547191822,-0.244290613024345,0.11183940437105051,-0.13637679672239064,0.10441816166667384,-0.21528505445535087,0.36222703665011236,-0.2668948537896741,0.140154701405516,0.03158819798833053,0.00370771846029362,0.0902680086398607,-0.1187280133089822,-0.06624852003763564,0.14569432867762142,0.09029002885306343,-0.12030167198208107,0.16731855001570356,-0.31346814600703254,-0.10106454478317489,0.41875139506977543,0.09904557487079714,-0.019772246498213342,-0.1785805008716729,0.03724232468014777,0.14471582709498237,0.1420662251933326],[-0.0017199281557140685,-0.17066799797256618,0.01600709797655664,0.024451806254134723,0.15066655261550257,-0.09332815759550281,0.12428038491725027,0.026988586137964916,-0.06923378651261523,0.05677184770176514,0.04614686293939614,0.06610175181365173,-0.04820007489756453,0.16047730762696555,0.03461813910958044,0.22523740679165716,-0.3064777844773817,-0.08236055653730565,0.009478206140971597,-0.017345097214180868,0.11643257550241222,-0.008735538358540153,0.00710680489273931,0.09903778165319692,0.14976368567347875,0.18747424574183053,-0.22074034077270677,0.04661069519774927,-0.044860156688892504,-0.0047726358826323334,0.19232351561032218,0.007790809124618161,0.03611430836367275,-0.021524263462601573,-0.05825617755851703,0.1346134187485598,-0.24287015136618495,-0.03774705183256386,0.02173378979070018,-0.0036241659061945963,0.0990470028880871,0.08324921691213485,-0.2506959425864303,0.11337505617175361,-0.07320955510898089,-0.021192541231627653,0.301980380388122,0.00377497591642544,-0.013397762286196822,-0.04616822166231829,0.014395431703478014,-0.020992054045335124,-0.23923787065998364,0.046254839787696414,-0.3551429786189694,0.28663776672707836,0.10556968692000446,-0.14236795045141568,-0.020698643485193458,-0.00813340331852009,0.18138881868820989,-0.1291319076219056,-0.1075747930306378,-0.03505716712322896],[0.049998458025618885,0.1620650793374023,0.13209964644912717,-0.05808278339515469,-0.16676615314618426,0.15202537952566827,-0.1017662604944946,0.0067768232825409416,0.06401188241904819,-0.18012218705637328,-0.07252582667175597,0.16903376689429336,-0.12049176070424604,0.2725114151007568,-0.03584427116329876,0.15148922190181943,0.0933707081249506,-0.31525122052435106,-0.18338182002843365,-0.051291895721664274,0.0001631173112818153,0.13253520492673312,-0.1380745016368076,0.08963280098554441,-0.08339257738830423,0.00797936467883173,0.09481912564273286,-0.1162398654403618,-0.021007255701292863,0.10035115931289335,-0.10133732879291067,0.057846951167827045,-0.05766915671774791,-0.027372512682810914,-0.31047806515733933,0.08387664887033051,-0.06840091113281323,0.07700932610717465,-0.18016537900087745,-0.302337965860599,-0.14667052746333306,-0.07690647202183575,-0.023289173838963926,0.026091472845883222,0.00527441123244787,-0.05817443048553859,-0.0063626169872016605,-0.2512317362669454,-0.04809509219224377,-0.2817389064655097,0.12302539853343501,-0.07014112003196403,0.08731570714785358,0.08390178608187597,-0.07901343967029949,-0.09406797071147045,0.1422950587366222,0.08162500787762181,-0.2479997852072431,0.04520253444599082,0.0013622161737740675,-0.2641207711327986,-0.004549846107175375,-0.14869491524737782],[0.05659045691006018,0.0449260089909659,-0.24101392418642528,0.021027447963720945,0.011885383713420782,-0.07428793081454614,0.03014195215601207,0.03275143684536091,0.27561618512934144,0.024004040561346723,-0.10988228432352297,-0.6030862073766218,-0.34715162593814036,-0.09696632328807764,-0.11447474692360879,0.4683300139727127,-0.004317932003722714,0.1274629992741792,0.1959979776254181,0.11438141813545753,0.16476583944735732,0.15340873787598022,0.2620737952197583,0.0949380227729778,0.039379020360288355,-0.051140240820008113,0.33779632929920494,0.04465822522265376,-0.043450933469273235,-0.228199287338291,-0.018679830260800667,0.16983505415514838,0.010906253387566168,-0.18787347502716367,0.1792158768042605,-0.035440469967549675,0.08955236470067074,-0.18942155423251417,-0.037882802648386706,-0.05719618010310854,0.07757733937006629,-0.18275369144853085,-0.01104859677092803,0.21040832280663715,0.10679619848021138,0.15132400501831597,0.11624517412633387,0.14058088188548817,-0.26711737839965316,0.16004244481761373,0.08771452487302214,0.0645512862381384,0.01036069920740833,-0.16987356495911304,0.11489478968143897,0.024592209399743763,-0.10535403641448315,0.07320872890640726,0.20843574131131348,0.04903057260210786,-0.2765314755645745,-0.1319218113633227,-0.4157923329011835,-0.09800641835426696],[0.148439898656251,-0.032949399741585984,0.06981078099866365,0.13297136902423382,-0.03011970106042119,0.11014218480782711,-0.13404232134363536,-0.26406954260318216,0.12507585695293702,0.18205947992087987,-0.06658276747759619,-0.07879899925111196,-0.01850746419167747,0.0740820339130092,0.16956624967397535,-0.1859383796186927,-0.211629302183503,0.011019543027125977,0.2862623280383417,-0.0293966918846887,0.28060227661342674,0.1255744557994841,0.031095122810620823,0.23466726120271184,0.00742090000554577,-0.15286524745069063,-0.054220539089633805,0.07645519492392815,-0.05318456743868593,-0.06903721130924403,0.056118996355757275,-0.19648694473246905,-0.06349644872684566,0.09221826052046694,0.041613296963871865,0.12849031639671557,0.05595993088553321,-0.053156770707817054,-0.08960210735730159,-0.01237189417766905,-0.04027097162623507,-0.1520774466269854,-0.10774611145075715,-0.15057217100331555,0.030437096493380483,-0.0010212928486263023,-0.18482521791195308,0.012269521566948719,-0.2755307807050199,0.06828909752392527,0.20697054777647392,-0.08666327167338629,-0.1456126538549626,0.08796806244337108,-0.18555740547732022,-0.11157919350544661,0.13849709605231356,0.05505869758504663,-0.036472087064000014,-0.2650357528965926,-0.00733493070145061,-0.14892721310569199,-0.03521137519811446,-0.2556400556387504],[-0.17160331434523932,-0.010419246209345513,0.0733854346522138,-0.030743249345461913,0.06693501705235196,0.10888653007225303,-0.023113219926754042,-0.1658814761340685,0.05467933847373107,0.09414655162965323,-0.06530038787774656,-0.44021381852887365,-0.15100572937003728,0.11500627567258953,0.35578303519847115,0.0687197092195263,0.3327258713330697,-0.005459352210933054,0.023654540091542227,0.2748616721779978,-0.005687472384191284,-0.23957347634895823,0.3010722169140666,0.016397147194436305,0.3083587842153645,0.03835140166137646,-0.0225018891478067,-0.08230484588834121,0.1701620874133747,-0.2485199984238757,-0.11237244390037347,0.07650278734578791,0.0320487434552907,0.00748855012259968,-0.2195398027403907,-0.3843507429328709,-0.17462644958321955,0.0582091177006638,-0.05893832302712475,-0.027910490457090806,-0.10649362008887085,-0.09659937705708758,0.32805078750784405,0.27620576797102797,0.02673228059609875,0.08087396323171764,0.003031826678781728,-0.17602771190486374,-0.08627738928306512,0.11654881010121129,0.10917732769787275,0.06411204596597593,0.11633567613807014,-0.22877511273887807,0.008628336062992218,0.028423818971807346,0.17765445363993249,-0.0499915175794592,0.04368962015930606,-0.1280136302436041,-0.14304906801950826,-0.12122975636094756,-0.35223726131992134,0.21446453990209383],[0.07712128668127306,0.1955990159504846,0.041899636930742105,-0.08724391916044077,-0.056706578684569145,0.10497981869292489,-0.09474490490556303,0.04612149860171386,0.17022493126695198,-0.0909166477801473,-0.11606972435723772,0.3036437284478561,0.19940416691309737,-0.21813052669985677,0.33174904656099485,0.10570575076370438,-0.08997905288205074,0.17365633014585813,-0.0005448115873078478,0.06453918889999774,-0.10819940994783583,-0.2038248513638043,0.23771769963094888,-0.006245618423347767,-0.08452733125983848,0.12794750653335143,0.0915276813952584,0.11002921177803586,-0.144019163299835,0.0608100163214371,0.1323679420542237,-0.00736703302106307,0.0014571105400957994,0.12684965648624988,-0.06571705215310192,0.20074282649921776,-0.06714363680279865,0.14798222526209504,0.205403042238895,0.1643736961833611,0.21728966775712338,-0.23430117201755402,0.04004947872912674,-0.03263745144991702,0.1637729350475749,-0.28546948748130535,0.22974081265127613,-0.33161924293393347,-0.14948221020542274,0.23640765355182453,0.4280458216352016,-0.22864259385572727,-0.18210938162907647,-0.3171472187694272,-0.02291619396568402,-0.2252711724657197,-0.23228887476128304,0.15679727008940256,0.03645510814659109,0.09880131825376443,0.15263705306817432,0.16478280034734955,0.040610505340435116,0.14751509581627595],[-0.09799839912509606,0.0894238344964971,0.17680958781361972,-0.06044007436279032,-0.08482018073148162,0.3887642179077556,0.46253993818957173,0.26642038738697976,0.4516902145753863,-0.14645492818947609,-0.1594335033828988,-0.09110746416551975,0.35968124728510076,-0.0011200073602059826,0.047942542378317035,-0.15386674838834452,0.0016998364792198027,0.13041343748336204,-0.05663616906666107,-0.040954916826572686,0.044408971813062706,-0.4394390144455072,-0.007952537089542971,0.01960792247833765,-0.17945873978654467,-0.07193359869666126,0.18345075478031247,0.05712722140525482,0.2303925551776488,0.04039530727781135,0.2003346306338119,0.1243205626787845,-0.10590640289493254,-0.07767488140496814,0.04610881837009014,0.013747566480795446,-0.0956456235986942,0.07680063461610412,-0.06112731155675615,0.022011867965705475,0.06892764885423447,-0.255730208145027,0.013700755206555976,-0.01637023161126318,-0.07373297271139875,-0.16272459262823136,0.07488449333362085,0.05020708828477582,-0.19405365940791355,-0.0773727221900984,-0.5640476358103562,0.1242459931146911,-0.11503008362641486,-0.2948941775865838,-0.051805815353674914,-0.0026612029804043325,-0.3684196315076751,0.10292135392489309,0.14181628765610518,-0.036502274255527704,0.1392371922293447,-0.158840357594102,-0.14476546121200715,0.13524971119514206],[-0.0785074339313936,-0.19033730425898002,0.10870275080513234,0.2271889367678417,-0.006411032188571345,-0.1082529398244451,0.07102098392522802,-0.04784270413843624,0.14159216555993165,-0.21369995682269216,0.0258403848271042,-0.32381168407000244,0.0009433368475721708,0.29161413479331405,-0.15557040823965942,0.12680128321483689,0.17553261576794735,-0.18255979238393585,-0.08290053091437752,0.0660344411129354,0.06681410747659437,0.26840301372423364,-0.13250037513610785,-0.01911526071530671,0.31313354626235324,0.16944858333077709,-0.013853998351338444,-0.2567608098946137,-0.04976649027846181,0.1262182873412522,-0.024939756744030803,0.04086807122612744,0.05860821657742185,0.008492423995467234,0.03897519596475653,0.06386027775721947,-0.14239525478954512,-0.3268598393292853,-0.02073634019148326,0.3389040145088159,0.2216626320922794,0.05518468596201354,0.06710307013248969,-0.03356071181771934,0.10792963944863615,0.021914351205871277,-0.10393676110611623,-0.12378666039091803,0.23562133632494162,-0.06208934177858807,0.11608664477583339,-0.07542663658712956,0.37191149316857425,0.10665115452371626,0.3008251232468344,0.10928989134839574,0.34029475082061855,-0.10195666389874113,-0.03277491775597055,-0.0601360707243117,0.16385740131308388,-0.13440117316371317,-0.23361425031718439,0.039492397134694636],[0.0016803725515611425,-0.30033591623847067,-0.22487637220179024,-0.08260368441906592,0.14514127614963604,0.0749268544985433,-0.07608656122539209,0.040996369709409425,-0.0022036362150263146,-0.022136371592515598,-0.0664680095224051,-0.049685885734140525,0.016853928109109084,-0.21118888690268517,0.09385655298193037,-0.17150724611970292,0.1746516851438695,-0.036993171450128294,-0.24897042065254218,0.10935083650940905,0.24916186040991647,-0.053565210217215206,0.12451349139886238,0.18604392958411245,-0.00831782422791818,-0.05826641044736775,-0.20489154512351485,0.22170867433731858,-0.07232948658047562,-0.12292044048469475,-0.11580708905002893,-0.05230718682755613,0.11565493046167512,0.040476500416295635,0.2559202282080227,-0.1675895569855458,-0.12938515344368978,0.030487227478706115,0.020549152427546655,-0.09110882915136542,0.307583361598888,0.058688022823066344,-0.058089806259371414,-0.03913685665996323,0.009408886730340611,-0.027442539396184976,-0.04110747275693778,-0.18684216106831958,-0.13030874061845069,0.02211183139752678,0.12383634713605406,-0.22605351190092365,-0.07218159989088131,0.004825802493889186,0.04966909195200005,0.04793421782870956,0.08771658742267122,0.2187813361223315,0.08695880167796491,-0.0061386631267293275,0.10502882249075672,0.22727500956004168,-0.12483226533151168,-0.19704546689539634],[-0.16079384827685284,-0.0018378566904213684,-0.17496736320465395,-0.08648542002698173,0.29150799232654157,0.01760691682997137,0.01974320735644846,-0.1269211308625478,0.17339516562879503,-0.033161547877632716,-0.036490200145759676,0.24847194322440452,0.07369354728480021,0.3008369645790192,-0.03171000776645053,-0.10523795321884331,-0.09170993657821405,0.09663494793400486,0.06632440331084352,0.14908495068013483,-0.15138736797515953,-0.25662912566416723,-0.13474139854536712,-0.1352717575284938,-0.09155438641436973,-0.0969223215900275,0.09697050759631903,0.2774885032693907,-0.10353658403887178,-0.016708596072330856,-0.1895191636953508,0.08266287841818545,-0.14279334331761284,0.05009684050517492,0.011359256732450055,-0.01998732941990817,-0.038309501887551875,0.12352468166135007,0.26318219275101706,0.01947851350651559,0.21175174912627623,-0.018487786278553214,0.1298853239031399,0.005402657821491287,0.08980912808023646,-0.017189612976132747,0.20018443686590204,0.01596955415523916,0.05567873029763147,-0.08277196487283503,0.06964169948536376,0.2194132336831173,0.0107347718024163,0.1024171101011191,-0.2636930378315693,0.07382659569863584,-0.2693012275126692,-0.27039648010916667,0.17804910654010972,-0.2395499170920425,-0.06777110721498669,-0.017272630059132644,-0.0650584934178806,-0.09102657480198725],[-0.2617749191274185,-0.13006526803505183,-0.045993546423178905,0.034283716193278545,0.011332713339878175,0.060370886761457014,0.1438043018315374,-0.2815263495439525,-0.05543132566445229,-0.020147857856490158,0.21383534609794044,-0.02776583493131861,-0.26976570370006414,-0.023919514062021467,-0.14241920989642526,-0.028927565041264536,-0.2164291752185246,0.1017006384685619,0.04242966404875287,-0.07674074968054476,-0.0772069190473248,0.1345859469623594,0.14623855958563023,-0.06150775884716781,-0.13351185786797615,-0.1430124745495053,0.04305612720774485,0.00036754703983878193,-0.0649467991193164,0.17097482724619886,0.011959267805388554,0.2621742670726147,-0.1392680510194477,-0.09479197838168499,-0.22828751604156267,-0.07825388557989071,-0.07123396234677999,0.002029200694583897,-0.12734047150613917,-0.010176609862721479,0.13698807479103506,0.22629277614307167,-0.074488290610386,-0.08524423363435944,0.10791682398888047,0.04023756000405508,0.06638445384194795,0.008502765267515837,-0.10511295031770125,-0.12905816140200144,-0.05433511979099259,-0.3194456513086201,-0.0798947985960345,-0.23284192290082414,-0.10956705417195695,0.058263604344528874,0.07446599291179504,-0.29714773474024453,0.18738656811202573,0.17936452588837187,-0.1035415452285273,0.12323097345968367,0.06634191186554193,0.2722193691565298],[0.1612607880476395,0.07983738391145415,0.07950613920098087,0.005239189724287366,-0.1163283397009147,0.19061408994123138,0.08761103537504969,0.16745100256945658,0.20607610227206313,0.0567112611453214,0.010881138720361224,0.0875147464018475,0.24250928950748696,-0.0358019971330615,-0.09148773170215276,0.09347410309220332,-0.15780296055092868,0.10831752650697504,-0.18854216515592703,-0.01517997972220279,0.3661111373326549,-0.3953316362705946,0.2723749109647244,-0.07331247653488839,-0.00824711870848007,-0.1788243313180477,0.06195554533831637,-0.011181741348735242,-0.08828173528761836,-0.04647095849838005,0.17888852104303712,0.17580771240778012,0.13521050714801214,-0.12943749552259035,0.18463310775255543,0.22406179284765182,0.02920768427682482,0.022360718019628308,0.2315726650725332,0.13961636575555175,0.09283344150459376,-0.039837833867800716,-0.030850861272083103,0.09901507191209082,-0.041599441052696126,-0.17158944896997091,0.11780782965284245,-0.20241492743067302,-0.16545986259646903,0.00899245484171612,-0.12517545828904678,0.17792513459578177,-0.02820556521011544,0.03939023242881443,0.030970851746038922,-0.1488516599661103,-0.0645575992101214,0.13004127189975376,-0.030680949879687225,0.1352155264503651,-0.15673331645891006,0.06900011704904262,-0.1805870657080939,0.0649878240425703],[0.4003012694300308,-0.22048901747705726,-0.5391828209172638,0.08435892693632045,-0.18954737388633225,0.057429537623890574,-0.04950020694736932,-0.06557167325626413,-0.09637278935899299,0.3732626863765181,0.06193604442120254,0.2867367170633503,0.533333671997093,0.3013665848112288,0.02010105231223482,0.08625473634217762,0.10893603217867848,0.24104288565488666,0.09537074567953578,0.2115172912940672,-0.02635553350673997,0.6454060171315162,-0.2690946216750006,-0.014143506682436125,-0.02690953577627919,0.18505806018223864,0.18199644376383953,-0.07348900637845414,-0.054998087268885665,0.5705510036133368,0.02041644536253083,0.2676802360101284,0.2131362047931159,-0.4527070922273897,-0.17919389159962676,0.013539724974150718,0.039973457045102065,-0.26180291430921226,0.2837896574606984,-0.04188713914209718,-0.024458034323948878,0.3188264821886897,0.41346960865186927,0.0751026139365898,0.18080201460569137,0.6802856883342415,0.3834664192892198,0.15502024923858815,0.535150905508775,-0.05494775379369542,-0.11767067909543776,0.19040534901221898,0.18854940398514627,0.26178617682458794,0.2294676001047158,-0.42593933225774055,0.5282576615501552,0.04413829692698138,0.032561616045887504,0.10222279457017475,-0.08103895633936038,-0.19671513939698748,0.14341130883335593,-0.2645664639106978],[-0.30728663828426256,