{"layers":[{"weights":[[-0.15299162217925436,-0.13875346263554328,-0.1209543768245334,-0.21213568379224054,-0.07930444216805674,0.06420285161751411,0.0690044476170207,0.11879087957416484,0.06582321376938428,-0.1057037992832559,0.3357250810286744,-0.0489175927471944,0.06168386762960034,0.09165335394982739,0.08367641501140262,0.2011162422637393,0.1793185023259231,-0.06919079317720489,0.29341614587774545,0.22771094656143007,-0.17781104657207936,0.031021381848161163,0.13313966057695042,0.04566614793116449,0.28622467906613897,0.18236465464697327,0.0407342318195138,0.10807152614022034,-0.09199610175548552,-0.09420823833943134,0.07565721249480681,-0.07945390632841674,0.12324285132592022,0.017656572519175198,-0.22031958462459597,-0.2225447370786972,-0.044000950683745654,0.22568847686124846,-0.19740051429053893,0.21636027170344066,-0.27422838841165714,-0.023746645448640483,-0.01661436660061068,0.3117099837949443,0.21015639568388064,-0.06320897749049859,0.0949189725176102,0.07738755005733522],[0.06380584096735953,0.08455836549374092,0.23660848838434775,0.033662835391274765,-0.14484897036362124,-0.1498990381209936,0.10342526140547892,0.07861480264735497,-0.04965216889788351,-0.0324081497739785,0.01748774547966284,-0.1266955267803856,0.08906055877937702,-0.003908435904548385,0.003860446563297139,0.009510940677981094,0.2833806867937345,0.08139731426389893,-0.05307878293204786,0.0021622290450817694,0.08833279639710347,0.005591487763866009,0.036876019282731126,-0.15526240233531424,0.013267505823187383,0.01609511366098494,0.15827290131518207,0.17513402061396013,0.09799694676691305,-0.11949229072083624,-0.08621992795559176,0.13251931940791795,0.05421663246914794,0.10963816701943355,-0.14388027170059928,-0.10511268120801927,-0.08931191006892444,0.004710380191129335,-0.18473392926283363,0.0887756011324805,-0.23209017407011576,-0.09631197317331466,-0.05880471968941752,0.10598318681629215,-0.010017398962069423,0.0949923006727446,-0.018175024819676897,0.0444066670631144],[-0.08132573928231039,-0.09053327171029964,-0.0011597806690917345,0.08062241264071578,0.1092973153798581,0.016100803610620867,0.10125778407160105,-0.043848920447675646,0.16215430212653964,-0.23752628471415096,-0.10241134664125356,-0.10240656816653469,0.04533143898985959,0.05229379042776388,0.013977887211623524,-0.28485507695691986,0.1230787941256101,-0.04688364040235868,0.04272502213367798,-0.03784917986367236,0.07409470540216877,-0.008798542792265196,-0.09041927704906194,-0.05714233471749812,0.09362777618361835,0.009155030895751108,-0.07230788138794911,0.17708037624993617,0.1457341409922296,-0.17996406708447255,-0.02812474915956032,0.07131184407531685,0.09041824007933913,-0.07980168362548166,-0.005395381961096328,0.24494117290737402,0.1819699964876166,-0.1651279102739066,0.002054369067135136,-0.16917900702306984,0.07414436537255785,-0.12061013690981838,0.08909435363019254,-0.1721566339799935,0.19252008199325682,-0.06933810183931423,0.008763323995481132,-0.23323142931033372],[-0.17873172428269868,-0.05853951300908519,-0.15200438267528046,-0.3538651254385236,0.13894809471213457,-0.07303930268039617,-0.08087896279575243,0.24715269266923195,0.11535751110913764,-0.10942500434206051,0.012511736614552427,0.11631711732785865,0.25914766216370855,0.1426496806356607,0.25747024437222404,-0.06500533627960642,-0.018400820301106745,0.14239970300942711,-0.024578915525929033,-0.05840181873046731,-0.03568144376432883,0.027777327461592116,-0.05047428470880923,0.1941303939692539,0.03975416891699864,-0.06749836512666935,-0.1616669119942182,0.0946649772333326,0.24786966570314076,0.055703389532898794,0.008527097571249883,0.007550430408105461,-0.20590883250575462,-0.07318400479521549,-0.1376208870189378,-0.009496791688332165,0.11137629454759299,0.12061960982100521,0.028415108711995193,-0.20612383550454041,-0.18917053207966178,-0.1391160702226611,-0.17561402888756072,0.23423845718844882,-0.14929491320851512,0.0632557167262287,0.005497100825377486,-0.42106087200072534],[-0.26705183597856197,-0.1391364071359136,-0.14066468817621844,-0.2711212115639298,-0.05748913422305856,-0.09953965932160774,-0.023461492527349578,0.07311955822340191,0.0446855360407667,0.050418505161663484,-0.01765134836172443,-0.002522703662577551,-0.0396468468757422,0.058590740542420104,-0.03221651496475824,0.15822315971549508,-0.018175522035765303,0.019242339836740088,-0.058938057416255976,-0.14716493789472138,0.01967866917310565,-0.03255034982410298,0.08133094707813496,0.06782215398356688,-0.3160322420766448,-0.12189656868914618,-0.11061858921967073,0.08029974613690512,0.21828975651804286,0.14695821138001486,-0.03162906340935539,0.045453056392647524,0.2340551924534609,-0.06475247097748273,-0.027947779950794754,-0.005329500701896219,-0.07071061799313952,0.09214188977407176,-0.03721155970622229,0.07326682480728612,0.09513446549889837,-0.29102480879676434,-0.10615345761558147,-0.1784200367531826,0.05446637872253443,-0.10347028369596503,-0.0355157124402753,-0.027122049987770885],[-0.292141704955367,-0.3241324637111982,-0.3844087663133668,-0.297927166527844,0.1455748154906411,-0.18114660569700988,0.085956009356139,0.04305565247353148,0.021417476768200803,-0.08827079549493663,-0.43890881771555657,0.0035950261051556605,-0.009265415104927552,-0.08710924963116137,-0.06810493615462143,-0.10680127552575733,-0.08972703619775027,-0.12356122043621552,-0.08152375439836479,-0.0003532616718518279,-0.043413748835902176,-0.05095432761306355,-0.07961886143853732,-0.009002320196259614,-0.12536108411673258,-0.15488170748651184,0.06620673960245711,-0.05209753085941305,0.010153556915851281,-0.05977292540202782,-0.08557213941567109,0.02227805295057546,-0.19927981443309964,0.3577053199135901,-0.010863340325466708,0.4741757478047382,0.027024863431903995,-0.0956046108762205,0.08539951117250402,0.2537829930747409,0.20344255115861198,-0.11364763360331782,0.057323755509997555,0.35941056369212726,0.025808650010282815,0.20137386386181907,0.1977512182803419,-0.004406697246202477],[0.0113664987166034,0.05565551625056539,0.1826153120795772,0.06645214119642497,-0.34849139649918215,-0.1378972140288764,0.1926446948569225,-0.022759485930955156,-0.09038447741752402,0.00669695522263116,-0.08512095279809774,-0.08751779122636968,-0.012948637707035403,0.07795915419696052,-0.20734125950364204,-0.15527645701633067,0.0005426067539398771,0.26400025863723253,-0.06463730512811842,-0.07111079081964608,0.08205848989292645,-0.24124536773998406,0.20594397820749907,-0.2604851143572766,0.0695966812292057,0.017967841846134248,-0.12183899176553538,-0.10916027436223856,-0.028319888787874895,0.1778636008536857,0.2404951044780582,-0.1924559938350575,0.06377022581456014,0.027295929957867532,0.047944325253523615,-0.08241674199580457,-0.12272176771028417,0.01164313696481498,0.07619160107646832,0.011449251894443539,0.030942896263032038,-0.41353502170639683,-0.06474853900158663,0.019267910625712308,0.1468020268863483,0.06361594099604663,0.4208121285871915,-0.203631201565866],[0.08412435929408416,0.10155733774900914,0.3635607927835666,0.2299985727948258,0.21740954640190605,0.05816937504452734,0.17812593709922925,-0.10600390921354629,-0.06159043707464195,0.10057845565058288,-0.07833356737676132,0.16016853124043712,-0.07362841395247728,0.052911672731633996,0.1135524880583874,-0.06767726254140814,0.03321211249247977,-0.002425038358137031,0.01737300547727271,0.14827538121029493,0.1206541340408927,-0.06825070979212482,-0.08570751584206317,0.04407060196416318,0.03671927654413979,-0.10070809437843478,-0.0938264882044909,0.21393164558661043,-0.12137752864788126,0.026661674341417033,-0.04877564303424315,-0.0013135575904431322,-0.12747944051736124,-0.11134366383350859,0.12540179431958187,-0.1024636086297016,-0.02452492947914927,0.0014800305904168192,-0.08100206183379326,0.06034929480137173,-0.04623862942482407,-0.10795424244495935,-0.026428871696921544,0.08755088781845244,-0.262835601208396,0.0629660822097468,-0.08078664283554346,0.007109314030738534],[-0.26333530102937003,-0.062973617007883,0.1037645785928891,-0.2216061443830688,0.07180089781125569,0.29651846382781333,0.08163606958333879,0.18361359199498592,-0.03546706289392059,-0.06661225893778469,-0.0007777733620942609,0.2172063267216378,0.0605699295345988,0.17719096702918832,0.11245758256420971,0.13312840593847755,-0.02425696989758256,0.03227934621591941,0.06703739922395704,0.01588295664821657,-0.23480475860967417,0.00274230496939793,-0.0974600491061466,0.06522275154142745,-0.35522111367611986,0.1759575488501739,0.1454899452771666,-0.011746926659298345,0.15212754975016937,-0.02907918541127212,0.1782543510377259,0.2617894266462368,-0.007538072604941587,0.10692863433994128,-0.1960076758454895,-0.09283634175986168,-0.0244715246022427,0.11083875152961858,0.012245803913070232,-0.00637127701275148,-0.07123778066803188,0.08683794496438722,-0.11970823304071108,0.047726509092568314,-0.07431215613065487,0.1184452768086937,-0.3400027768424348,0.032572373404127955],[-0.0349249114315521,-0.11348515258445796,0.14181661860606368,-0.10242626728736615,0.175515503052668,-0.12363343323189602,-0.22571714737049606,-0.2241797703027638,0.024677684031884178,-0.11451817674220095,0.2172895594733494,0.2740313975939857,-0.09490360452335955,-0.07524455285288759,-0.039859816761840326,-0.03289437117975401,-0.09663804290898953,-0.03716209579935441,-0.18434511949930976,0.007415390605455301,-0.011433664254463075,0.2421556217650263,0.17139567156019864,-0.09235551807762957,0.028354786111464615,0.18193233762345937,0.008431250372826134,-0.15935607240947564,-0.027750072686121025,-0.1256331722689896,0.24779090894445752,0.027220884416715756,-0.06799836893423443,-0.07702316666263555,-0.19397251315534192,-0.10871664305269768,-0.06841411623835945,-0.047773910107609605,-0.14645074101895592,0.384485451489814,-0.05562240865228926,0.23141856911634656,0.14123473686188234,-0.03561789263501646,0.1342123849273814,-0.1283368686085426,0.1844446090832571,0.018987382788882595],[0.06495180799078612,-0.13222940595272753,-0.08727199186308283,-0.02339668262492531,-0.1197909284871298,0.19475603261369667,-0.22387816360566248,0.0838842367867873,0.056339566076152175,0.09630226801566229,-0.0038515845624980424,-0.1831552056488647,-0.11643867533698479,-0.14394207727108593,-0.16426658027936666,0.17099258549532684,0.1874886670297848,-0.004757661402001264,-0.3164853753142122,-0.20275561687491594,0.1529783928353954,0.2228880903252907,-0.07062944161952192,0.006274600839220531,-0.13556924861900604,0.2549273962664528,0.0742708188470342,-0.06221082341053515,-0.30973580253276733,0.11646595587151023,-0.18626894360279092,-0.29809389147922405,-0.15696177472107242,-0.06568160385126613,-0.13180544167900712,-0.23328832698010973,0.10292461838133436,-0.23776001199601812,-0.004955931558430081,-0.2349510953892093,0.15310720454682503,-0.09644093491560604,0.17027088140611557,-0.11587166684162385,0.15196861269117468,-0.05844186605534091,-0.10102883075442928,0.19229197301143364],[0.03875567320072383,-0.15119265005760107,0.08812379102504908,0.04469261298190541,-0.20804455711167424,0.15544976768280977,-0.15411177427591208,-0.11966531911159586,0.04608276044692913,-0.04318826616211488,0.045470975482933544,0.038900821493611036,-0.24760390204141267,-0.06961310424837698,0.03676389723908585,0.1979006617837085,-0.23214283199532296,-0.021214332216667093,-0.20028694384386309,-0.00494070643640025,-0.009437221691841396,-0.011328212548919315,-0.009263963154063548,0.06574072626451502,0.045603922998563126,-0.02843480289507582,0.09321523341572875,-0.07230843838102356,0.2897950465005569,0.10783730302744068,0.167831793192867,-0.016593300936366844,-0.015198116858564701,-0.19564354442521206,-0.11240924093726334,-0.159305766480829,-0.06555272633453087,-0.08876736016217532,0.13994455894621186,-0.04798586095408836,-0.012856685429448664,0.12774403167442205,0.02352273835169424,-0.03416664114826074,0.00997567475546464,-0.3559502469249558,0.37494210485796675,0.15076914524376614],[-0.10889767496199636,-0.0931800393203632,-0.09065305692273694,0.062305301299230315,0.16697024406300437,-0.08908024442312862,-0.22979522302211378,0.19068959892647078,-0.07935120227169498,-0.1099644443423033,-0.20292914596135708,0.1846235507105159,-0.0550377734296268,-0.060573343186271195,0.2641172353119746,-0.10667921921900689,0.08540723691299894,-0.16097109448141456,0.32728466498403813,-0.029451047396097656,0.004450745266628785,-0.10295366261655045,-0.22953854814709224,-0.10486432951471884,0.16878734721470998,-0.06397470803066056,0.049090441439828165,-0.07095789985895563,-0.0012273958051286804,-0.16688529762926796,-0.037443957772772395,-0.007364998317138631,0.18416206782620909,-0.1995129147583329,-0.0013434112418989163,-0.026855519170838175,-0.1991368681753972,0.06542506218264502,0.2003869700999846,-0.01606075055417935,0.10952313060169472,-0.028567626948123058,0.11390563345370983,-0.19463448358841734,-0.18053939217261958,-0.07763378197184437,0.17284232554765833,0.23580340846092482],[-0.1513917800377619,0.18799323336809834,0.12284309198867689,-0.22402370741992045,0.3515651887727909,0.2054048353573976,0.029964584526064136,-0.1793461338880486,-0.0742262157953079,0.12036281658595514,-0.19152238370611477,-0.12425957341803893,0.2359273511465509,0.1027962983068347,0.011572841594765,0.075961138454015,-0.028564832644812937,-0.07799303902848109,0.031687234733327026,-0.17994505439809466,0.009243136575054657,-0.05647817958904088,-0.01365845725118727,-0.2483244842225138,-0.02690482480098749,0.221727360743729,0.047154346743063645,-0.14092755407367452,-0.2062910939415233,-0.013474033915717092,-0.29254463081337334,0.23817844025330814,-0.08865867690881106,0.013834849529859253,-0.08128541481647265,-0.06367785599715046,-0.09094715854661348,-0.008175314304961052,-0.0062306252895309765,0.234150627107134,-0.06029999124556239,-0.2750210980733471,-0.18419781727215848,0.11739400351867542,-0.005196597441943028,0.0017858589996847594,0.38677803363147933,-0.057301542605276416],[-0.055854338381818,0.09270552572979597,0.010519888030696258,-0.16689419161331687,-0.16212215699048454,-0.05934683345546139,0.18955089379669485,0.09579882904160054,-0.22079349512040544,-0.012413142922134811,0.07321228932541583,-0.015908354869235225,0.25462811219665227,0.07498400960456032,0.3041688486339813,0.14828326021825924,-0.08697484815434121,-0.08485683449215188,0.130544384550581,-0.1351803363301999,0.30935947437208283,-0.16263195673151068,-0.15677108307062648,0.05273159292762663,0.05329958108118907,0.14763222581382193,0.05077893374078258,-0.12415640891161793,0.1376905271039861,-0.019210376715485523,0.297965967924333,0.14843445663894758,-0.2268836174900873,-0.15318559484621413,0.11428449085828553,-0.22572826214121985,0.21908975202013423,0.14813107439109408,0.21745669344615326,0.4771207014041262,0.015200783552792224,0.050597830717059755,0.11201727461489215,-0.22632157511639908,-0.07139822014944065,0.11581128259079682,0.16307370406789107,0.21653817690008417],[0.309039215856238,0.3203617203774025,-0.1616619584145134,-0.003774846213956657,-0.5325630418455354,0.09945223746761778,0.07083694568012976,0.12968403049078012,-0.10151059251158494,-0.0690701325210521,0.02332129813547433,-0.07627369059628948,-0.09330759750595735,0.10063239488241559,-0.18130258909631197,0.01845122382677235,-0.0039010341025690577,0.019368111491706152,-0.05817456734287202,0.14338210582038724,0.09880622987465715,0.0921069203400685,-0.22918728320673412,-0.027225518681348832,-0.0387219824246622,0.08581245047609658,0.03204042160318404,0.13897442970060256,0.08051831685923865,-0.11747239987476132,-0.15950144333508268,0.08654696014383305,-0.12304954124253406,0.018472729619958012,-0.1633361553723587,-0.02645080216225008,0.2199838797107011,0.0004901513652393515,-0.2126912444928167,0.07265005039836701,-0.20096897479500953,-0.2949316848596411,-0.12429528728887701,0.07824752882558172,0.07457615949394222,0.0015709298441167593,-0.002153590683526784,0.020341814309853008],[-0.012202339544475289,-0.059314304999895026,-0.0066798595363757405,-0.0928154603513621,0.2068370298187654,-0.023380074716809966,-0.08288165356260753,0.17517420054959193,-0.05766584642930411,0.047544390936703054,-0.21350367887502278,-0.04111886104027938,0.02186426636218094,0.008779862695076456,-0.1916285037786071,0.2813766157704068,-0.12626016540349663,-0.148740156895917,0.041644858511897136,0.049265971096685596,-0.12055434243165428,0.055041787839517194,-0.001976642697706057,-0.04979474341770405,-0.08141397056133609,-0.08944168117570882,-0.1274176471023091,-0.13067494434046442,-0.010235415860106166,-0.1890917263901641,-0.003800112020059397,0.0740580671536842,-0.059449991883513624,0.23138736053220307,-0.08068436623122219,0.10068854258900567,-0.1936130528302351,0.17010101162186772,0.12376537553300151,0.008583652438241648,-0.03300053340245137,0.21150150147624378,0.26005448801661474,-0.1286713586497962,-0.2180314461995116,0.053561540581919406,0.029971002929293045,0.4231618561204999],[-0.04311209741880298,0.027660599782377632,-0.25959315953571094,-0.18963597590607204,-0.17143584183906055,0.13541691262909863,-0.14679860796402827,0.12378684918329673,0.0436338548106344,-0.09230588344432229,-0.03206424198917472,-0.1137843897648041,0.10836355277463873,0.1624039956362085,-0.17425327407378446,-0.12381514217175012,0.20626426565742328,-0.022641118895648352,0.2115763403817691,0.15507054180575647,-0.15420550273206154,-0.254797951922289,-0.27018531948204405,0.04593632188516595,0.009973532479069671,0.1070865621461722,0.015767900295733495,0.09378387947567426,0.22816841282267744,0.008585887543399593,-0.16843478805107787,-0.22300607324989025,0.07292010199897776,0.013139967455782565,0.058140200351697806,-0.13991914372162467,0.02816817791326911,-0.0003439000847724287,-0.011875115523282749,0.11723108531203798,-0.27117532336436295,0.054217082682076145,-0.08444672235357586,0.004992833097980817,-0.014901927590059505,-0.01132841527263997,0.04786718783353782,0.0164085942598245],[0.022869183398392126,0.1435661428272132,0.16724672363535778,-0.036992006588161166,-0.04093791584582568,-0.2775419075080992,-0.19686889828522136,-0.09623374735203616,0.13191702553129384,0.011430451340541579,-0.25315703036286763,-0.009926143172914643,-0.10663911776307175,-0.1354133874464494,-0.017625272390840222,-0.15946133391375464,-0.12280143500547815,-0.013233118075069834,-0.23079281479080113,-0.024181511889019833,-0.007725221101407994,-0.11078933755554565,-0.27664646976738677,-0.04934514495891406,-0.03554835893880846,-0.08526216134592311,-0.045699406025417375,0.154902646942176,0.102613380641984,-0.01857814214973921,-0.07781941174907886,0.0017745017470820058,-0.09649707074920456,0.23107009929010924,0.08963570656862821,0.03943853262178017,0.38032801947461586,-0.03718672389396385,-0.24083415831022334,-0.2805125682421846,0.07236679624283901,-0.2522054009884481,-0.531794751416282,0.3910436019443385,0.2747943189909046,0.289776018349646,0.32911883000998665,-0.22519161407438085],[-0.23005569612029725,-0.15957320661518348,-0.009115941651322368,-0.20943342467839618,0.372009923651117,0.23156728742527277,0.4400938158125906,0.19968505055453703,0.06052335594165744,0.05246577810356306,0.12401473861704371,0.05222202624948172,0.051111169544499194,0.14717260716439043,-0.15978786003386092,0.08897793444746394,0.21397953430337488,0.2797002194532212,0.12600070012553014,-0.1960663973650287,-0.21799003182940668,0.055343873363308996,-0.11905382931113723,0.0791100253461837,0.15184992553604681,0.16144410024789135,-0.10385335109646672,0.2709669809335251,-0.03735844964440776,0.21851743513419777,0.0652757893448922,-0.037551059912103384,0.14440577268361637,0.17490075722748927,0.2353943247326158,0.23575901468734947,0.19110216653866313,-0.016958515703835376,0.18380488797385852,-0.37577637538369024,0.0032303176820828836,0.06850676408196284,-0.11616431648825024,-0.1080566107797289,0.3557827959325002,0.027936057883676042,0.18146822509469532,-0.21993128445219123],[0.49846585133319365,0.44829695458651425,-0.2395062528100961,-0.2851948168098881,0.41366129268021035,-0.08202535030725572,0.03135910524787419,-0.06585349004137513,0.14942782378140745,-0.10630536913280107,-0.06709379037800793,-0.015605035206207808,-0.04162268072518363,0.08840897776934604,0.11110353710953827,-0.0886118955588037,0.13429935774329682,-0.1105200740596302,0.032767426310181834,-0.07495390319044205,-0.10096285150368733,-0.06280303720455047,-0.06822120101659646,-0.028302370405745608,0.13506636525751942,-0.0017817617904461113,-0.06328262343187671,0.027536821028493957,-0.030824865433742604,0.15905267404124182,0.023771548987740646,-0.005347124740101267,-0.1781794723944638,-0.07057372570896547,0.06551356412814938,-0.10137355836587215,-0.04284734330396898,-0.03604468682072089,0.0035361122585071837,-0.18533509240696636,0.03408858576411008,-0.20115176658472436,-0.10016770095846153,-0.04096126161828756,-0.04265833741561959,0.03988754407860887,-0.1853384036979128,-0.07881957869981356],[-0.0005303311316364723,0.09691534021738092,0.16203282349909834,0.08892360318175757,-0.2166886531073964,0.1395785104941172,0.058258996592433394,-0.11783510588404253,0.07545266535022052,-0.2056547682118152,-0.028680977054686523,0.20090670941550448,0.010265175298562565,0.18458820674025359,0.20765877252634637,-0.033354920558794576,-0.18037144159681903,0.04935478303260923,-0.19875309141979272,0.0519674298068505,0.18333362000108352,0.25764951236323785,-0.02426527025107292,0.06665622702143442,0.005073439276824984,-0.07796458609838057,-0.23221368331978584,-0.04182139681690269,0.3433253979195225,0.07926901230153952,0.022587674158368917,-0.05002164250805026,-0.020850990347036812,0.015690971377280958,-0.1868702910067897,-0.20388846866698204,0.21794023918095493,0.082560454423161,-0.09289390619479015,0.20634249301616642,-0.10177811554829466,0.37794082391438677,0.1130085585852435,-0.27578148829556637,0.1498119494749857,-0.27596297794949404,-0.06694162903553921,0.27321993031438685],[0.46222122891729145,0.17649500380043412,0.02568536939608744,0.04433566743673484,0.16614685784017852,-0.14425079127665788,-0.05264431693304358,0.1260169944370863,0.10954507244184689,-0.08054436159331706,-0.04625943685810845,-0.0007551203114514418,0.07255172440641237,-0.0476486585057173,-0.21711753748096765,-0.0263351262434271,-0.041837207812353186,-0.029232813935432058,-0.08412095340508491,-0.2233318255333813,0.0017080297840941464,0.018121338855384885,-0.10436214810950453,0.0017458888234899964,0.1852054729828649,0.05187885082930828,0.06554346595611364,-0.06584196879183733,0.06256777969647749,0.07642380956925005,-0.10880942443314866,0.00716547840492684,-0.14421270446553636,-0.048973736331359236,-0.07509833567927586,-0.08206449147263865,-0.1636180699200586,0.06423238583222322,-0.1209993926933933,-0.16966147829329037,-0.17875572766665085,-0.1601576550636034,-0.08376261341383283,-0.016839068487825258,0.17611881758073192,-0.07664104203878724,-0.2294405594009107,0.25219580150978393],[0.2260850388677283,-0.1297627911640147,0.12043009976178352,0.23716054192256492,0.1955121018063411,0.0960023481152322,0.0259188220261387,-0.1753681322374042,-0.2672073820113298,-0.0555044714694509,-0.30019102614636634,0.00939353798376025,0.04566487455478527,-0.008747187173220232,-0.08059957517050283,0.01885330195639854,0.049484027665985066,-0.07537546914783853,0.12527060037691526,0.227205029622354,-0.06000363355506916,0.013777271270517985,-0.17483156808715514,-0.21958891875963474,0.1370632753166541,0.42601414933284637,-0.1812086902177011,0.1411025923468975,0.22607406965019186,-0.09307420677418538,0.0456613820161631,0.0547691085187503,-0.032941567279635944,-0.2604431487536929,-0.09027548129350531,0.2755404626782516,0.07685130618677348,-0.14022080461062658,0.04428920710983149,-0.10179783838376877,-0.16421453878304965,-0.10314807912398534,-0.17110986595553035,0.23715640018002146,-0.060402641161369244,0.01706322207955061,0.12481772831593005,-0.26558631820101336],[0.011702600445722947,-0.1935995304846951,0.1654765341958735,0.04234488123894671,0.12705842344266927,-0.12222032331395925,0.10824055409708477,0.11366565072991855,0.0075090581738421,-0.24027590937139137,0.00798216807583426,0.005221939132198742,0.053750560506295064,-0.15539366575087254,0.03662129105428537,-0.11310380313502982,0.16222553251033053,-0.017648407544267487,-0.15518331820231002,0.05749474033595005,0.23516170093029024,-0.26600935512280055,-0.09627210381992973,0.2670329717004039,0.00821486131538872,0.12778347738682483,-0.17091672368556474,-0.0049087776039813775,-0.0229635284558616,0.054338398134703356,0.22912125696445484,-0.017868430757390634,0.1319857570963084,-0.031683471488582395,-0.05121888234250676,-0.13650305041146005,-0.09746858136572827,0.07821339064574762,0.11068913788210441,-0.06793249440303811,0.03997708233023468,0.007006778386725649,-0.06932002670039639,0.044364454365585365,-0.13979693648520192,0.08897613440512821,-0.1494172022404853,0.05176318195153901],[0.19506504177644488,0.028647341675717503,0.010281683319396082,-0.13204836366243855,-0.050747402058472627,0.04911341347738539,-0.006681380567619332,0.10413006819144496,0.09822661844002924,0.35916933700759573,0.09826075594255404,-0.004492256685195722,-0.009930920341721645,-0.19265413162663828,0.09462466065200792,-0.19115663667123103,-0.12557610461929125,-0.005086036382808055,0.08544477446433271,0.22249349823521003,0.010099591101441433,-0.03434747511150754,-0.11092483196162811,0.02248735368662828,-0.0926174487320694,0.03055722087149582,0.16847325175862768,0.04082777398471316,-0.061265253336521774,0.22433676950523593,-0.12594581695715798,-0.03158731942301679,0.12443257303402995,0.06917443125964397,-0.03378916235734666,0.05755798657426457,-0.03287139516311325,-0.07957930261533784,-0.16699584858540864,0.00853052076842534,0.12898333784071364,0.30271628733915784,-0.02109170647292407,0.07943666786643037,0.03662866138994022,-0.02386468678853615,-0.24182728670886666,0.34479452365024965],[0.03533958283517546,-0.139178178229871,-0.04321645823001228,0.08708867308762595,-0.02052587805172436,0.22107667031891232,-0.06221579708215827,-0.22555541449808184,-0.2286333559099265,0.03001502863897968,0.16660330746987814,0.07448574911736901,0.015394193251254188,-0.03605175723142951,-0.11782814475833875,0.11666565499751039,-0.11877989247904709,-0.09072403223181116,0.01763505862635488,0.06444855612192271,-0.01939535211622044,-0.044195968049330826,-0.04194314124974238,-0.16004525043587212,-0.16442116170302132,0.16123089726054649,0.08993150638992514,0.020432392178397565,0.18143483222650897,0.271235814606996,-0.11721690882554965,-0.03270026141421819,-0.24656439036038752,0.06964782093050675,0.0337491497453276,0.233220599765773,0.06888142988002012,0.1613426142130394,0.054245785293069226,0.406402474373065,-0.0008051073405573554,0.27533876434087523,-0.16068127516195413,-0.029431816922271183,-0.10600256828503855,-0.10643871905998327,-0.07766779959742308,0.13524784195252323],[0.3800727696422474,0.41469809339631136,-0.10277605416086968,0.12407603498051979,0.4314026406989832,0.03171980602807727,0.24473148791313318,0.02760862106631592,-0.06880549947689778,0.15270876511349032,0.2789225449454684,0.10111828697995277,0.17263752937354152,-0.006462953138348958,0.032876859771111426,0.1830797086178258,0.07929281920930867,0.1463306018009995,0.06904168102520944,-0.009079590697841523,0.1118953678638492,0.023318477970236534,0.04356773752285641,0.06173142912817037,0.179816578071461,0.08195822721444004,0.09995077001021782,0.10368328189053744,0.07109734138058092,0.017761653249028557,0.1277047505793174,0.01697026968652451,0.26378943752732315,-0.1430971000770794,0.0030220236066695974,0.019554764379482257,0.030065551359416454,-0.17892909314544317,0.07650818922065745,0.17718831719662223,-0.01937988483946027,0.34091201248463743,-0.02198046640502866,0.2064645295000243,-0.09079331610531406,-0.07805205103767178,-0.29989666101637497,0.4304329780140349],[-0.12162243505487219,-0.08811815645723944,-0.13020013491602128,-0.3397561110186274,0.06651191034821567,0.010203165515614765,-0.10717153176152537,-0.1625461544407417,0.04145219876744371,-0.07251833494121468,-0.05813612268885605,-0.0061513583486495944,-0.11316989035057982,0.0935356122701815,-0.200973757557341,0.021537301011574073,0.06489737744695569,-0.17997301153506345,0.010815915397129373,-0.09172984361765119,-0.14647138988427183,-0.05470324334204997,0.11691574725932719,0.3041032089049142,0.16694905626199133,-0.03527526456883608,0.2926122419132711,0.05768779606365589,-0.21051701511120008,0.09477691915549895,0.03612475714415545,-0.3307940460388193,0.008174204350883282,-0.1699855132278495,0.09926569636192127,0.05186312065064634,-0.011481351975528468,-0.026899374021749075,0.23776822595064762,0.09187084217590583,0.2781612160320879,-0.2040333874639472,0.020679282325555496,-0.1386263438856995,-0.05361828293234855,0.02160933077314804,0.060434811231414746,0.1942575165981583],[0.2638272087492324,0.3123230418291558,-0.1302863189901731,-0.037262675000215045,0.008812112728409758,0.09305001000316028,-0.08731573101923917,-0.08212320527570649,0.004017828944671496,-0.08726641683028208,-0.21605559635988913,0.06173020934972614,-0.22918612844808076,-0.15043342103405719,0.1326323942809507,-0.1432440954211493,-0.0077955071895390885,-0.08316026950435974,0.08344711523357311,-0.12732350699448075,-0.03711956068258601,-0.11194335066744096,0.0688499232313855,-0.032927317794862805,-0.08032786895187123,0.0011285024005450264,-0.09147604652391243,0.009041316094775088,0.2497125199276668,0.11754036142824759,-0.04448607792816672,0.1913186368838612,-0.09440836262215478,0.14087962942048302,0.17983840657073516,0.14393270857970913,0.01718402945015987,-0.13188514399637202,0.12023232099389095,-0.13204516058669605,-0.17865160329677637,-0.027288575145391028,-0.07551564435065829,-0.012091683460650897,0.21211799979015794,-0.015225724171351958,0.13045047047709254,-0.011912642351808332],[-0.010292108255416415,-0.005076719011867642,-0.1775968232278917,0.059598252816407085,-0.08387236948259992,-0.20211091270060547,-0.0026951755457092345,-0.24413711569089222,-0.13324327915526396,-0.05118702695153255,0.07682885597099263,-0.10948217084378305,0.03930207944543478,0.22422943695486328,-0.018250351073743183,0.1679825313023787,0.07898119610442254,0.11562953992465932,0.0282269065385547,-0.3990415972741566,0.22987596407997787,0.1527185162130973,-0.07695882992131284,0.06539777501789275,0.032787935231116457,0.19641978515663075,0.034829570471500024,0.008318854749370672,0.1541146559967448,0.045035510684005325,0.10888318045633417,-0.10524508963794389,0.1336330864445392,-0.04272730399112711,-0.2310435678187413,-0.0918874371776461,0.04808921175217383,0.3040238534246962,-0.10399709299767511,0.02162788689530941,-0.15741372278599702,0.21931660403672082,0.07167148922907499,0.029112263612997673,0.05042970166571296,0.19613768742247234,-0.07799663611562836,-0.12018422666036235],[-0.30632008762713614,0.2380985923994104,0.07057156967945737,-0.0014151577504887933,-0.06959311704704617,0.1036938646857456,0.19248692158491917,0.06438251144391988,-0.11583240641210826,0.11037004631693721,-0.31145763774373036,-0.07656847965622618,0.02995976703428977,-0.05638555594882255,0.008273369885575334,0.07201104551141382,0.17581651342681887,-0.12077822664522897,0.14284949443272743,0.07042736535586695,0.07990442741917796,-0.05999449429203219,0.09088739600465637,-0.026033632182547062,-0.13727335253518247,0.047215627223716757,0.12960173348218995,0.11578648535440635,0.0976216203905289,-0.027710731027673664,0.12596132870724291,0.004256707216665861,-0.04732609282861024,0.11549887872317897,-0.08720551512241533,0.05606094935615362,-0.047631006506520045,0.1403279142715361,-0.08162300465700048,-0.035206376978932974,-0.11643326644779899,-0.2459675089095846,0.005753000694990974,-0.13990279844747286,0.0451271797274637,0.061031521613264084,-0.010183728256206302,-0.07822739739677038],[0.09172726496357408,-0.05051139025391712,-0.006185947817141599,0.10783192041687815,-0.015267591877487878,0.09019328537504927,0.033430707480889665,0.2501404612959685,0.057864116046758104,-0.07551119764033395,0.014085686663749921,-0.09753192837676121,0.10725469686294808,0.13728271056692803,-0.16897550084743526,0.14461738888578238,-0.28511035161943754,0.10518973239608405,0.0532319723438996,-0.03843409872447856,0.15401280692171598,-0.01800436967759936,0.3239365092253529,0.2886409878478156,0.05955515397516301,-0.1070151339096676,0.08511271178808948,-0.14060910965391996,0.08492916601887973,-0.39378459153329726,-0.052983504165907074,0.2776478305128812,-0.00993825299522342,0.3942807431401092,-0.1828625197394608,-0.0031064830551651938,0.11700344779776212,0.16699794347188804,0.05987548210608675,0.05813213187635767,0.15997033612997832,0.07464036026845319,0.19985062475453236,0.028615053993211827,-0.018680976806544635,0.03706649685009905,-0.19141633857346066,-0.15468214031404603],[0.11369090515793913,0.187642397698282,0.08987929362392823,0.14119541609021416,0.06707152781043174,-0.03585776009846461,-0.006441200156482232,0.22681983288756413,-0.01911063283081497,-0.2781760794429209,-0.1475063809629318,0.07037944473980136,0.06659068588417164,-0.19621071866914255,-0.0853685354401936,-0.12286004334234275,-0.12156426254832418,0.008813029911983933,0.1373845211566393,-0.14455542329607882,-0.07542525038884178,0.020587279392044158,0.11360202132850108,0.11887921798139939,-0.07284773891848727,-0.005496810946605188,0.0194236305858675,0.18552942619311658,-0.06796209458809606,0.20947009858195745,0.26397172390679585,-0.274282648391758,-0.12919931141011062,0.1306874348664651,0.03221323827747435,-0.0766091773860738,0.03140490984277674,0.09893477178717702,-0.1512805737749743,0.004572258349506739,-0.1593727209547577,-0.028071938470978337,-0.04636737614519798,0.08805129964009971,0.15401972736849318,0.043849589432026576,0.07550970996097235,0.11037545141967066],[-0.10315697830160339,-0.2097098436574389,-0.047718003467866726,-0.34930108044999164,0.14709092283748687,-0.12676178788620676,0.05976715573992354,0.056678831686870094,-0.10109478579843469,0.002316297293914928,-0.08768207832446769,0.1932277794187807,0.010739004715307584,-0.12877699115256178,0.08645908876714849,-0.060492749623984925,-0.25164580726598795,-0.05340189089601309,0.12204253860012666,0.10880327681533071,0.034288413553124175,0.000026055170519407006,0.005532064873733567,0.20079243744873343,0.1494289651166447,0.010094866071651491,0.16445026380242123,-0.18848786955202898,0.07679758676887914,-0.12483153109419835,0.0190892151455053,0.18255163003599595,0.07652911017560393,0.26198123940516416,-0.029464462949305176,0.15074518358499273,0.2218442787238521,0.13983186461523336,0.07648502840923833,0.07090725504788327,-0.09813465464394956,0.25355505670622874,0.030914532852623633,0.3167065336285747,-0.20400402479265645,-0.00271665795937386,0.3954286350712838,-0.16444407464756897],[0.12851752793058768,0.10245208461998788,-0.049223054909008156,0.05122424390230133,-0.5669968776069153,0.05602556439278236,-0.004463112440224348,0.07961573663616335,0.3952884051396515,0.15726759520450637,0.021780466222278298,-0.04640336273766603,0.39416294498931403,0.06209889760171968,0.00533191829841826,0.019582438251349844,-0.05834264837965355,-0.0030950992103789643,-0.23327574914364696,0.14863030212337336,0.3242252547955084,0.005385114940774289,0.1146089102222438,-0.11882626683427037,-0.1101110252420454,-0.02267387919639418,0.017954597722597596,-0.320377543206623,0.0012590389302465483,-0.11968968641416244,-0.1406157703651148,0.11333860622951836,0.0740806563747697,0.07964342770074233,0.2414798565975514,0.023304471613038766,0.21281625102150128,0.12365229758855473,0.19911239330951241,-0.032803498944038015,0.007842045468936763,0.11926982874271666,0.1468979921713762,-0.03855966041990128,0.12453685549233431,0.052149659652495,-0.11265262116847409,0.09993277015630564],[-0.3358619027033126,-0.05122519632074641,-0.29229776749982744,0.018830993881035343,0.09602083766080706,-0.09042882097962923,0.1480372794203947,0.010446197949501128,0.1772865173443874,-0.06666028891637076,0.12620836544750474,0.02583844057980807,-0.017467069966648166,-0.1628167694782066,-0.19303637604567542,-0.057562471217446405,-0.30943185466697526,-0.16102294858368396,-0.01842856033642612,0.1611079684361815,-0.10832776554029239,-0.2311378128585857,-0.2787754525722642,0.04259377693227439,0.042083169192074256,0.042659582226550224,-0.09313172181497059,-0.08119259458902195,-0.21296424051207888,-0.044496000115736185,-0.1425901175156043,0.2615265622543735,0.16874627753756163,0.13732362818565802,0.3088488472615732,0.08402063513990625,-0.06537120519125093,-0.2917554726896334,0.11948404300391882,-0.0032592337474344015,0.18190012157927835,-0.26999465738345657,-0.0035049317610723043,-0.143185047723566,-0.19901970541113137,-0.011275459589367308,0.009894357866440363,0.03654443225883049],[-0.08732774058396249,-0.3039608754943437,-0.04444509576516669,-0.16893929935273935,0.0634187106579684,0.010866597166415658,-0.061897331773249374,0.0041280431771692615,0.059464811367868894,-0.03723103677606539,-0.027831676179138183,0.008379639304379263,-0.11104735445503994,-0.06926685467059988,0.1406272450814218,0.16066278536109324,-0.08657309492318692,-0.0022842736039716347,-0.02160449263960014,0.0244108638994541,0.2076502863523071,0.026988451950081038,0.06992239893979073,0.0835111341305772,0.15535583499400132,0.06306034718398953,-0.07197947123181181,0.1077383094711444,0.2995179497781855,-0.012825504838605834,0.1792921284487717,-0.0697660557041535,-0.09983141610580765,0.14161404109068876,0.17048373744031955,0.08619872771004208,0.014336344998057285,0.2884495811708407,0.16058959623789212,-0.34834148982727964,0.13293677146877939,-0.10789934749747529,0.1566039298545338,0.09402984676943878,0.05166635798552946,-0.0653129809115748,0.24148758968546744,0.07097371298609022],[0.14757754310176896,0.22978490567569465,-0.13824274900387276,-0.01691626952053776,0.2785359430043006,0.04581896755020035,-0.03467405682280684,-0.09322532982013412,-0.1568472519376368,0.07514413537803138,0.07908872819671238,-0.11668842884436009,0.01936792398578278,0.092717034788628,-0.06700397821632637,-0.06667013209882458,0.026220082421739715,-0.1685295211264082,0.06983509064868422,-0.17393555043351874,-0.08034608840090603,0.0693951283468771,0.035071981704794086,0.15825520427783737,0.04237703878202408,0.03809441560057561,-0.12391574815217445,0.0701354212911623,0.029887284730637495,-0.1737481788457856,-0.19395019350490014,-0.21308603900025494,0.1705691415219641,-0.009410450923647758,-0.03205092926640107,-0.025034826071900593,-0.2659410149124775,-0.10381082348144369,-0.00401630199679382,-0.016285978837396704,0.17727332355021785,-0.1425537655108846,0.006943820043628339,-0.05305144379636819,0.08419451540061508,0.3662513341774038,0.1796203410652288,-0.14855991914834177],[0.09325395702343985,0.06815217644395057,0.08799714133452773,0.036905586972048154,0.3122445332433558,0.02230023979645134,-0.07189623190860527,-0.1846158938667263,-0.031998030529590826,0.20157465359908125,0.2341959371419239,0.06030428569786747,-0.024980640144859075,-0.0030112441016979822,0.20821100241754595,0.004108856505785527,-0.10178835028803178,0.1793226635449763,0.12869414778353755,0.17800760448621628,0.08375034581527456,-0.09803291987299112,0.0009671162334624128,-0.0562541487105082,0.013521974445860514,-0.17358964286917788,-0.00873374397085911,-0.004394924548751471,0.17429868481516225,-0.09707193214629367,-0.01966045763950648,0.21447337368686353,0.06594351506468088,-0.05621853288928891,0.25546561927057615,-0.3101572457549413,-0.0173135066247605,0.3217141525646836,0.10543510273635631,-0.12087890426925087,0.14128340819281157,-0.028037538343749852,-0.015073953542775128,0.22310146211010423,0.1271840632670052,-0.20928560201825572,-0.17726304034548118,0.1406394403430391],[-0.14764844221002638,-0.02451184647046746,0.06352759214318383,0.07292168508238682,0.10192662145345942,0.11286035318238422,-0.26314795531101787,0.10083420467584914,0.34789327192053326,0.030796250432457924,0.022573356947540837,0.06322533508076696,-0.027296580609594626,0.09857577467468043,0.026713767639583726,0.01878404735279633,-0.20806722596174512,-0.04189537056573709,0.11006767176785716,0.05687254655964275,0.008108224849197012,0.04136170791354633,-0.12246377717725929,0.2748963267808764,-0.03139363326133716,0.11737055983917057,0.012249697910075307,0.05634719471994546,-0.009492081841988636,0.15376188228473356,0.039530398199185524,0.03760530357856991,-0.08133839841479829,-0.1255042459342695,0.05446916922468114,0.11918887506736132,0.02024086356981061,0.24516554359651724,-0.041033544858633766,0.28892442301016125,-0.09064683251917643,0.40347851891171954,0.09052431791009874,-0.05758958548075622,-0.10562773391534139,0.0847630098805199,0.11192486143832439,0.05632295522213828],[0.2373884139019295,0.23807905010785352,0.05132295201139501,0.02796892362962484,0.5917933155843711,-0.17053877450175636,0.06108592850976995,-0.061369332468493284,-0.15361340399991677,-0.011275422634872207,-0.058892796713067824,-0.2172990738882172,0.1470425424173244,0.032124596073794275,0.03872898244314047,-0.19001949599133727,-0.28851164503604815,-0.04739050983729904,0.22369293964767942,0.08614253098823195,-0.10206452256205197,-0.046235636285056975,-0.07039004646412696,0.08120599100347822,0.21355614325846484,0.03389177387827539,-0.07598590591321985,-0.08595885744593122,-0.06847081943181586,0.2541243663078534,-0.17187155610766355,0.08160682764391879,-0.021589099242603972,-0.08306334512919758,-0.22193218620320862,0.13513429566303017,0.001182856341945048,-0.0003956080881454367,-0.13873796994516033,-0.10974182501440959,-0.1907760847763409,0.16219842895906483,-0.2333821362769121,-0.06290577667816337,-0.16902639949520853,0.2392051410526628,-0.17004002224748968,-0.02672989042240336],[0.09767999979897984,0.2142807756309686,-0.14198224875806853,0.049049990543394255,-0.05417984869559754,0.020420783754430644,0.021355174518160377,-0.026787121863203475,-0.1544203617233165,-0.11800823385058526,-0.20022678480101874,0.18883910625666264,-0.10164771865497152,-0.06372493187229629,-0.05923795274891704,-0.023896496091150247,-0.03830609129612341,-0.10047294628993593,0.08856807300964564,0.15936801175730056,0.028259738323073214,-0.06130492857582701,-0.030957596617505682,0.043430176454586536,0.10058527670926701,0.058171674242780594,-0.16004912464272522,-0.15382711623821976,0.06942366815906692,-0.15588269166573204,-0.24519882395577916,0.14016946009507042,-0.001103472515865225,-0.15813758532886787,0.3356642022083842,-0.12950006413519205,0.06346365754643929,0.05030513384177713,-0.01955445418795692,-0.01231858687663143,-0.20143063687291418,0.11713797770333376,0.10587927250954524,-0.00046708293906488706,-0.029878196045055185,0.0072093290887780765,0.010829280183217651,0.27729685858663805],[0.17176866989908718,0.1476194848945413,0.08820065254175784,0.11606611299211785,0.1791906056100589,-0.32592574524862733,-0.09148974473561944,-0.05289983120431068,-0.08776360912887295,-0.17315513730341647,-0.1941067893710545,0.14940509924655063,-0.18230053623773448,-0.18870241871839402,0.16072084554629357,-0.28648893935871084,-0.051701802199944344,0.10516311137581182,-0.1846812297953759,-0.2956270509098414,-0.12174803779280836,-0.2056529855463664,0.04950060523131199,-0.11656898936114292,0.09060099791849587,0.011752596092509652,-0.06997474623325053,0.060279281443663096,0.07388155561980446,-0.07590311848341817,-0.19036932118877214,-0.046808357483043114,0.008066713136375196,0.2643761629906534,-0.20579782277531328,-0.0639545004229918,0.09731386050870497,0.17407343045352772,-0.05186781266098773,-0.22691583423359174,-0.09985645837313271,-0.3920376777020437,-0.1754751393689069,0.3842556037952469,0.058076148287469265,0.10244868935115778,0.016427745827002904,-0.37666203072992466],[-0.13041696831643582,0.13378654880533106,-0.10541844684370688,-0.0997724099622833,-0.09859836875120515,-0.1734047201008445,-0.017412136999958073,-0.10161506850563472,0.09288254450812936,-0.22324788428466164,-0.118830536733889,-0.22169344823579637,0.14473736317176455,-0.06500755145872762,0.17738981941752527,-0.21622835964989184,-0.09113282403318207,-0.1001904173794438,0.10736458658071432,-0.3537365020940958,-0.03333281694432385,0.23228162995359067,-0.036421351893859456,0.1011898040932974,-0.23443940581369957,-0.05302438641869228,0.030763831879634353,-0.013859658474856264,-0.09696294841535152,0.12226879769562077,0.0090001635975854,0.06302671887866111,-0.17802202554154448,-0.2310858989035418,0.0631465550539789,-0.05472711322974684,-0.02347539069407629,-0.008111649653564352,0.0778700131292965,-0.05919668876302371,-0.16484505073655117,-0.032966471227097394,-0.008319397105708825,-0.17956963174217505,-0.1693882078110529,0.1795398533678289,-0.021022392501620843,-0.05086807865630045],[0.31015632807696514,0.5397461825903369,0.29908533852643937,-0.007987747850305291,0.143365227970084,0.04080085995004149,0.0818497853879222,0.18839562407327312,-0.17412247731032865,0.009618626536018457,0.042075533436137125,0.02529933968301675,-0.16154901318784876,-0.07502325425976922,0.1521898301084604,0.351718900185483,-0.14543706464448142,0.0841499751632531,0.09202912650716939,0.10355795926546368,0.038459771066467245,0.056312084303706635,-0.01959940556889178,-0.0006769266266358376,-0.04961019067159761,-0.051796460784706164,-0.16799334523487974,-0.011076205179474446,-0.0568559799678438,0.0009132102594821629,-0.038978783671232343,-0.020698154241579968,0.03206912243269161,-0.13223622131450694,0.13390524926881794,-0.05960281705439239,0.11190254140437975,0.23481994789386804,0.04613555947655131,-0.2164796474225013,0.009302761506762472,-0.14071702535556338,0.11462605370908266,0.14508062392504423,0.12543875273845678,0.15104478001146535,-0.3747381632802923,0.0047454691175930815],[0.16052004272866727,0.2664687234823458,0.03148288386556009,-0.036346816279064054,-0.17411717906623772,-0.08201969349646443,0.08685226392773285,0.03649564871086435,-0.026864420007288635,-0.029470146657188168,-0.07901939951909685,0.23479453949263004,-0.0032158969513280643,0.012656598083691578,0.09786398889512078,-0.1038530400734249,0.06350533625547783,0.033326098349313646,-0.06348208499803419,-0.4276860895972178,-0.25539411428903014,-0.08774426933390835,0.14856289305008594,-0.1481895681054627,0.15906530566533036,-0.1490641543187064,-0.09959610831192584,0.05454476759861943,0.036023743890026716,0.1045027301655941,-0.03918032353801567,0.05501477408176305,-0.2577927646565443,0.41383629806261063,-0.053533083211933445,0.13022180213163126,-0.07859163076342694,-0.00929472334625498,-0.3267817707435088,-0.17174646641117808,-0.02574084726102143,-0.12214005278392426,-0.08612656506026657,0.03892853407034562,0.0011711939444453369,0.21061044937128348,0.01971269023659167,0.11668970052145217],[-0.21286059267140842,-0.30523708745246814,-0.1031342588105114,-0.14080267102939306,-0.20720245364195192,-0.008791172017427299,-0.0344748155432466,0.05918611163278692,-0.08623214364643701,0.05292558140826874,0.05516850000681603,0.14868768759895595,-0.03828299328896314,0.030162567106164398,-0.22364406383518243,0.0706697227820948,-0.07852775920773779,-0.048260072136006235,0.1514590312363661,-0.20298028747884075,0.13211555309890557,0.00013123196611787832,0.17795546720011574,0.15939217241816675,0.04579415863354001,0.12028178298003007,-0.04346346742761678,0.05488429510729686,-0.025611417372229668,0.09136306024674745,0.09561745505733271,0.14086363125368115,0.1687983859789082,-0.04323900591082586,0.35079246768058864,-0.12882548107329947,0.050717226226798334,-0.04950218076519743,-0.0016635827583169741,0.13288201549322207,0.21839136396780146,0.03732882473856726,0.14451844855527826,0.12600624486112044,-0.16823270534249438,0.10439488453545545,-0.24113990308694744,0.10193014397467078],[0.08897450861611066,-0.0589048637508535,0.06900450073162588,0.12614714495367024,-0.11884066860215933,-0.182545800876008,0.043350706925656915,-0.2192101073550393,0.12936774570248485,0.08889348608628847,-0.059419678139125756,0.031090342207872722,-0.08426836857700153,0.10389899100316405,0.036683298413633936,0.03141309764450586,-0.23442294640330794,-0.023100696886623,0.03256630967377264,0.14467223222066933,-0.11318880756783818,-0.1883434328689999,0.07303921842283871,-0.190622433436009,0.04322640746847692,0.1785089696773043,0.06836630980149691,-0.16041200905937583,-0.2336509861871489,-0.14542083391997856,-0.12689445963547413,0.17944814432734357,-0.019989718451773435,-0.017019494912293827,-0.10249757885042918,0.011491518017610166,0.03623928393958152,0.25776106664640774,-0.01474593251887529,-0.23605690306357682,-0.11637672762703781,-0.14282487421063086,0.025597897307714126,0.26952940103544865,0.4166203446679384,0.11826357744731032,0.17572134948251217,-0.22070749327256936],[0.00038786071710444534,-0.054939952626311635,-0.05574873985711521,0.02865056763854234,-0.08402084700232777,0.11753413937061159,-0.0054992548842748195,-0.0759509553254131,-0.2193080383835598,0.18202898377815363,-0.23710811089723713,-0.15707344616753174,-0.12717668953581984,0.11400982693695594,0.1325788001366204,-0.06470534223005141,-0.1973369205632633,0.23625291830703343,0.19583361499487348,0.14709310416793547,-0.12874502248978523,-0.2080867723819272,-0.07802346862160454,-0.039223639292645565,0.021520311835756395,-0.13394490091973385,0.27005149117159866,-0.04689154822393166,-0.06691295969810468,0.026485910357095573,-0.05874350811205839,0.12571087912254153,0.14568764298010778,0.08002697915394212,0.051771383810842404,-0.0840035544242554,0.18345604883203834,0.031187412327503827,0.046792516734514476,-0.06888874825136905,0.0011409397826936426,0.041126076286698315,-0.0938823911570048,0.01860734874915861,0.04478413726275981,-0.0975012349711121,-0.14478672190331882,0.0037486032063532714],[-0.08723524543347501,0.002525425765460437,0.006182063091443388,-0.061469409644812234,0.10345545310411464,-0.08817539109605294,0.04648789608674251,0.2272161841819539,-0.09269136470469135,-0.19418072105134546,0.18817980503518372,0.000795082602294591,-0.021344262961088743,-0.03040538432016952,0.05603805425856236,-0.12563750207259652,-0.07133971351200445,-0.13013889957289523,-0.07459684136855708,-0.2402952544194164,0.0878449554985591,0.16980980007362395,0.11745739241582996,-0.13503008663599378,0.12917738245200638,0.1784584036214909,-0.0757756359793762,0.05110736573708993,-0.2872370608770754,0.05365002712247862,-0.0028102034561079004,0.10330451871456732,0.16788687560728863,-0.07531515564543155,0.21234508191185322,0.19307143753406628,-0.1571667770631666,0.18029767955128057,0.19711147313793978,-0.004527673568521459,0.1576255308196543,0.2429613259408393,0.14291466506613537,-0.002010486768724593,-0.1385961076085358,-0.04583720265725003,0.17277915947974676,-0.24164943891658464],[0.17133451076567263,0.12875250762452434,0.10917097871296737,-0.15383928204257216,-0.19565114695753505,-0.012152240509842331,0.15223509554774015,-0.29599502024164526,-0.12152998722360872,0.1551803276520444,0.18290732989561384,0.0018587063486194618,0.04769518758686975,-0.017632556220194398,0.015130188269181801,-0.051170762208993775,0.05814410262255292,0.09833723963055666,-0.04925061072706277,0.16432946229745504,0.045425955627610426,-0.039424662000171855,0.04275728043382216,0.05770149223398328,0.11670759922231609,0.07470855456377883,0.1475618683624723,-0.09944713419971887,0.23393374470482028,0.09647630124997693,-0.018743348685662575,0.014782781984665533,-0.003459944013291246,-0.22009827355747716,-0.056500457938471665,0.1809024007529686,-0.09065653546436606,0.12623456719123904,-0.18689347803611245,0.10779951533479394,-0.03779230776123681,0.03529719310448033,0.16119829793041926,0.0850162087490182,-0.15699359715662548,-0.11912057330901245,0.008356022050179823,0.3036635211269551],[0.2717684483481612,-0.04761683812807332,-0.035288416878765785,0.09228838150958528,0.07237284120114416,-0.05722126497595366,-0.17188873164428328,0.07074268628567479,0.10001229379306713,0.09551855694765055,-0.009139523956597973,0.016344838869017397,-0.03664035335196478,0.0387460171780488,-0.14728698093061585,-0.0016940389888901227,-0.12129055504081905,-0.03958970866446186,0.039228664377583836,-0.0991286476874256,-0.023095895613229802,0.09519666137665482,-0.1476158736773992,-0.21559586351188476,-0.0718720679294428,-0.2016196710441974,0.0283597511380231,-0.09941609358783303,-0.3150036775408393,-0.06264437677230161,0.08380430959132426,0.049756910418055134,0.1990881059825204,0.10730618446921168,-0.22937927695682886,0.12914044564355792,-0.1614390761544923,0.027307972674642043,-0.12198067325334072,-0.05620708762115832,-0.030149950439062257,-0.2584912624999889,-0.1841439805867129,0.272681958378448,-0.05735898369149722,0.1612916874584219,0.17209053570123825,-0.018123511172694895],[0.050788401016612326,-0.09876427468742281,-0.01389275257559667,-0.1535612200805151,-0.019720848744658695,0.20635607029035224,-0.10161752501383994,0.17965752992067016,-0.023054353882707327,0.35444247980205584,0.11643319612224545,-0.273279686455592,0.12137922143349347,0.14677120856077533,-0.0014185253274990781,-0.06278742491684726,-0.14293623868561406,0.20731024487540214,-0.08629092842625272,-0.03126677605450731,-0.005668766904768175,0.1282399025837385,0.0814435036562923,-0.10648363659051731,-0.02514969135627763,-0.07608336559684958,-0.03440657183765793,0.07059782279755042,-0.14265948693550679,0.031977806456393976,-0.02882386921970829,-0.03862356092583145,0.0907534892978311,0.11989767297420909,-0.07593351350512349,-0.0997540976871264,-0.00829932679981449,-0.04183620116558786,0.028798060454339497,-0.09794857041967737,0.10448428484984765,-0.07663830521429385,-0.1365649828660077,-0.11420974033454125,0.017332528400549635,0.03612936134371672,0.026383315916574952,-0.08512419700739607],[0.0141060622564301,-0.020908786752935497,-0.030698324057010312,0.02400957149704828,-0.662382524936149,-0.008072281099732289,-0.0991342855711761,-0.056995108644247276,0.15931236617484193,-0.08067726831503329,-0.22072569519212012,0.007450822659158773,-0.0023256164149850086,-0.01058571275846949,-0.14768289166897597,-0.055807918105352114,0.13104421179097517,0.22963392116077289,0.015872843120039174,-0.0468021068126928,-0.02452153076288141,-0.03888338201373321,0.13192848823914655,-0.045659239054643544,-0.06292311904181426,-0.045631176970740234,0.11242402239079768,-0.011894074455377292,-0.24501490315861418,-0.12622273419411692,0.11959408735590434,0.06599854794721638,0.10525642087362719,-0.01491520361325463,-0.06795223183601161,-0.15510751765092143,0.020851418275843598,0.23497032667149867,0.036789524691713864,-0.03491662318141184,-0.20380770996326933,-0.018232432821406224,-0.009416802028765901,0.07817770484446752,-0.07794017382235538,0.16999335859746595,0.09268205563313167,0.11143780104576992],[-0.1547007536683391,-0.21296364039989057,0.11267794766861537,0.15178079050550908,0.1834085202143771,0.32745972805340157,-0.1664944389574759,0.1354301004717439,0.05437274462063614,-0.04229289312231724,0.28533140933896955,0.04531188522832215,-0.2100164058156124,0.04033860766985404,-0.10941589239994726,-0.04892411673290918,0.10410925250467098,0.1950375098764615,-0.0014522564447899972,0.042080130292513014,-0.07826849242641146,0.0371261012365755,-0.11836580361519854,-0.24674415139507205,-0.11244820892010068,-0.0801585643295334,0.30188415494087817,-0.12076529577295315,-0.2913925776851562,0.1410640931572728,-0.006010459137660543,0.12134426125718868,-0.0036269778323884325,-0.23309693539091894,0.1359214628574718,0.053565006877706635,0.18605075711647207,-0.06445932834642035,0.07960909084965721,0.24164167647490115,0.10567542659117198,-0.15711705978421728,-0.04321311619527525,0.17807178347161043,0.20773661095900695,0.08116832372056691,-0.2058400704228749,-0.0363532625654262],[-0.3066943044780766,-0.212960984716358,-0.051266603467324666,0.058547097796331604,-0.15389305938364842,-0.08034958150120866,-0.09618736409552235,-0.025428370301387785,-0.18211469429789626,-0.08654547632233592,0.06940781336939307,-0.04889248430030831,-0.08283084155306832,0.029259000325095298,-0.03826371219673539,-0.09539921492852191,0.08921666342410482,-0.08189087081824534,-0.11570132369362388,0.10686013911591355,0.07698847656887874,0.1446451285368874,0.018663902349300182,0.13474752204899282,0.04222968909088164,0.06402222344351344,-0.028635705583899294,0.06937485537575698,-0.008499970215354221,0.06633327613557785,-0.02063219512525357,0.22060775842624578,-0.0236728762524357,0.2188498337726322,-0.3148468338490635,-0.1270153875060795,0.29294747433577845,0.0663363620354412,0.0360660717569933,0.17814715209152518,-0.0906907845971686,-0.011477002313493813,0.2126327474524036,0.16586037255340688,0.17084239568735232,0.1509770262719837,0.48093253386713675,0.1645860530073925],[-0.2488494789820014,-0.006715130525522052,0.29739621963636653,-0.10608913783835434,0.0492009715748605,0.04987673538851369,-0.04397665792729769,0.01281204178950002,0.066098320177281,-0.15190389684927172,-0.015636063994059573,0.025603563794739326,0.09590553624432437,-0.01933114107647498,0.00021764910904225164,0.09664510898723681,-0.19724804360013437,-0.08191861569940621,-0.014736284121500846,-0.16000803784298553,-0.07713981615652364,-0.04222972267395284,0.12710205953119852,0.014835542591137922,0.13542982675310278,-0.06735107144660324,0.030094296040580847,-0.26854665105012715,0.009750109567669736,0.07608985191091965,-0.06265283607496139,-0.079892181187887,-0.27431565790642043,-0.16224851377254879,0.05253314438313602,0.2398578112642345,0.03921981623588027,0.07129596081447517,0.07507400467532488,0.15085429838472897,0.19206927332366083,-0.07530472342704342,0.012996868767893055,-0.0014675536920959959,0.053644148723828895,-0.017339758391972323,0.09393293370430286,0.059951185773050045],[0.25755017894114096,0.46872149786067385,-0.22718876712289934,0.3080830392532287,-0.03921580888467001,-0.08848917320314459,-0.1729966663975924,-0.045578999894819894,-0.039789496109540516,-0.3282193689388456,0.17623419701431867,-0.030683408144212616,-0.11715143334867191,-0.09643954933911715,-0.11010408755408935,-0.2962820362041267,-0.1598149100571335,-0.09380566201479726,-0.2227834785783014,-0.08292575038619539,0.17149487329480273,-0.11463551675352927,-0.13735574869464606,-0.1009704654967035,0.09081333980704567,0.000223127009946887,-0.00821259523284232,-0.01845811049552709,-0.1294025161023401,-0.0040868470341600144,-0.061342251521466516,-0.022137709156671122,-0.2463337545014301,-0.2238435051672018,0.08202543392479922,-0.06993077994289315,-0.1977148085674533,0.026536692196457504,-0.13542974566801966,0.0971685135417844,-0.040932308452293266,0.09934307597230571,-0.09307539298857634,-0.03349586524572646,-0.03701693462105055,-0.028710080282039224,0.09937733709342492,-0.04882216578738262],[0.19950673070548613,-0.10009389795125102,0.02357283658298285,-0.006579478185368647,-0.17870931644264043,-0.09190293670533163,-0.04235650120085167,0.03894773102957552,-0.2089069211565958,-0.11478568641309325,0.019917521907856756,-0.07776449700684838,-0.059452588993014276,-0.000589440112084927,0.10731923304804378,-0.10687729875400394,-0.08066634001230474,0.1303864976039052,-0.14954814998454966,-0.1621899518083226,0.11505929607582008,-0.20973742713900886,0.23926009799917616,0.09594724079728575,-0.240310179740088,-0.04404020566539846,-0.0895994620585944,-0.31113081276758137,0.17033711056510017,0.029684536549312017,0.1438782512225504,-0.24422333330843793,-0.03757459000155757,-0.09399365108948887,0.14653441688898788,0.022131034369347585,-0.21045194728822894,-0.0240566152180127,-0.026357768191512098,-0.1740750119294744,0.0719810979660645,0.03677707437453028,-0.024412460921726147,-0.08877785714514722,-0.114942987805822,0.06804018636981439,-0.08773837171533169,-0.1368063587331911],[0.03329383651040166,-0.025207328501471553,0.08186187163870288,-0.08129231032404466,-0.11786172295391985,0.10675836109357131,0.1381354120755942,-0.17296974508889662,0.11090405224348882,0.06449457653597117,-0.40521472115738444,-0.015093343748886783,-0.02410700312368363,0.0033402770135894364,-0.06497317385633046,0.11548420018360796,0.08272750727818665,-0.05590374264461018,0.004359281225329975,0.28223012842824224,-0.11572932389953221,-0.07292114421977641,-0.2070027002523236,0.008931023114926348,-0.035073309469424975,-0.13026709538287304,-0.222669199547284,0.15333767567617831,0.06180141697933098,0.22684769136402072,0.05542908673619175,-0.29780575762704287,0.06833796966009843,0.06641541558579235,0.0261802625501844,-0.008412223951170751,0.0440254856708315,0.05889404346873984,-0.10584768918378147,-0.023768388718130827,-0.1235293162373389,0.14104140765193152,-0.1363373733658422,-0.23928064121255807,0.015742448474634296,0.1029973837029453,-0.1563124086303607,-0.08389644694017359],[0.252301369663891,-0.03816714773206936,0.029541540333942747,0.5524092245444181,0.1663347432529094,0.08876728636977405,-0.04188379950580701,0.06592587714593101,-0.04457467143187227,0.1315185135954216,0.03946650395562874,0.011590004147844338,0.0697186618953562,0.1647468458624587,0.07842714406890403,0.026067181878682857,0.24029434143626355,-0.007302692270666504,0.017198557786182154,0.09304207940881813,0.08639735297057029,-0.09342462038324903,-0.00552263285012376,-0.10955500560780608,0.05046760740128136,-0.036397444419527414,-0.272989664441348,0.014754951154760908,0.1533347962934647,0.1091781701869881,-0.015062162604106507,0.011948895604337716,0.1678801890560335,0.0005093801074793704,-0.24979673951212222,-0.05334308520004528,-0.11632474341494065,-0.047321294889072274,0.08022342679638635,-0.09073222355211184,0.18263747236108788,0.06534175934536154,-0.10951847061426738,0.05096860318288714,-0.23728989710814666,0.10690689176425652,-0.0651680709470959,-0.1324668092608973],[-0.09486919239881036,-0.16631947365119382,0.07939499342001469,-0.060317607478261565,0.08417981285003319,0.05584584746683657,-0.1426654284410855,-0.17612237794731497,0.10960333301722207,-0.02505811563207331,-0.17587994013540736,0.020351828474373786,0.03671658838655263,0.22568996453597734,0.16469572726428805,0.0021137551626867384,-0.1222718293483437,-0.03044429593746083,-0.2711036679828686,-0.11039096763484428,-0.0034815714742110065,-0.028125874118547566,-0.09133608203320748,0.008861170997089843,0.03343277212123813,-0.03689705383417014,0.07377579193268131,-0.08285459619003463,0.19200359059140837,-0.042522855300167806,-0.2853254609784923,-0.1202549842660646,0.3300828898809536,-0.016841542528190853,-0.06634568584460596,-0.08938481629741224,-0.0827191684588306,-0.055903050841786615,0.17078315380195616,-0.14218069174446082,0.05635392733201378,-0.11576094522580772,-0.20225954474306093,0.2736312246497802,0.04489669457294944,0.14576104790493094,0.38383093844301774,-0.17967589778646537],[-0.07844909348416493,0.10113216356787982,-0.009970737981627401,0.00540662829797231,0.22682818950090824,0.07600484893877772,-0.13900719524845012,0.004052080588179702,-0.019907640764802382,-0.002708430669430188,-0.052926508693104175,0.00021650798398179316,0.11931061940102891,-0.07562798154390517,-0.03610688552167065,0.1010446166652011,-0.08724943521588142,-0.040577496145983556,0.33203251972448355,-0.013914961909388436,-0.16757174807360353,-0.14175176352806365,-0.22224793484100328,-0.2225213563209183,-0.11029976539776534,-0.20175240923418458,0.012722906714572369,0.16422457197877088,-0.0030782678316733482,0.021032884576313,-0.006585370671284882,-0.04166930554195396,0.09839994643619845,0.1485896030096895,0.02206135723219267,0.05713736345378002,0.1433988051455251,-0.17208937407344863,-0.028875210086158645,-0.08352991280494357,0.14114955140534305,0.3733025309659511,-0.055335801376295755,0.02509223641404793,0.054086247797986625,0.06822622053061624,0.018374038947222608,-0.06440111885732261]],"biases":[0.05732865781016592,0.004951922993165947,0.04162724505148942,0.03904764776134694,0.0009756452210528475,0.36290350588421044,0.03035478675667912,0.07887327354235107,0.1021561314437302,0.06665747918647158,-0.013120936803652127,0.036484902890140336,0.0006067298688567241,0.10530430007536264,0.0633387236104997,0.0030008302325356374,0.03428519233809813,0.009387830740201934,0.10753280125032671,0.034539784097965744,-0.15278897523600438,-0.05736934539498435,-0.1470218285375831,0.09289715798510662,0.021909213500811844,0.00603017167238741,0.04532823486624614,-0.08550342749733515,0.005100714841698152,0.14165413105444977,0.03786001037511744,-0.07946036168178701,0.025210916210481348,0.039764211885194606,0.23751686850898163,0.0771632058199668,-0.004372695077384288,0.09583937119881587,0.12395617814561315,0.04089580025998826,0.0054022317869316565,-0.19118510803551306,-0.05574287793127278,0.21110685478914354,-0.020563381047198057,-0.1583633144112133,0.01748276868973031,0.03840888301811099,0.13775302704800646,-0.006681915107325744,0.12876336664707058,-0.035855959344295446,0.08012854815036181,0.03463163769372835,0.10455308814573655,0.03552425263546636,0.2671266890240306,0.047196361234664745,-0.0825834258628213,-0.012784855898469982,0.023377624958344032,-0.08519144178201092,0.1648013814446078,-0.012567451052003454]},{"weights":[[0.05784859684765357,0.029341379310089965,0.010085864876457601,-0.04203267959360678,-0.06772702375768819,0.09709375483195795,0.04918360536787889,0.10311492386598614,0.13739059747175378,-0.20540519489092576,0.060430639070003615,-0.05048339985835756,0.03316068534184903,0.04609079880484616,0.12303754988140479,-0.09534293600761656,0.02049598777355005,0.0567675035411183,-0.08795084910680481,-0.24453457774190293,-0.029492234807375586,0.09007912825955719,-0.09632371855519523,-0.18082891202582868,0.08969082293466957,-0.1083672932547732,-0.026312086818507677,-0.16959649651806624,0.1497769506716587,-0.1338551475021475,-0.3024488917499464,-0.2580446037537207,0.04557179613499513,-0.1452862328035088,0.06765833275350688,-0.15548013139302663,-0.21831219879326466,-0.06335565609615683,-0.05008930904418262,0.1288735805620289,0.007976525669019985,0.16335188924533126,0.012543480770329499,-0.065586723033606,-0.08716557127525902,0.10536740026850246,0.055077677842737045,0.016546683355780113,0.004930189331399537,0.20525899010497597,-0.035946647394141655,0.06250859363735273,0.14356094897066624,0.026892199554467297,0.17000644571229281,0.13055890349243546,0.07776296688797,0.06849946675793096,-0.19286633712737206,-0.08490089859102867,0.13004879623228602,-0.015573491971872619,0.1381415671723074,-0.15952899690661854],[-0.2199488855632725,-0.07830356098809506,0.1715560234747855,0.15887972981366816,-0.09053921065017466,0.24558887181580752,-0.0323568578916055,-0.10599640542398917,0.2389660624640207,-0.3096058710671859,-0.06511078997409017,0.08163204760216962,0.015284780386372557,0.01880624584751854,-0.25143722669980423,-0.3215410339959509,0.10337078444012258,-0.13804807127775212,0.21114646122603062,0.11297254564513143,-0.33234499967201575,-0.010383237159008414,-0.04533591590692165,0.06636001457462243,-0.06053350371570764,-0.03651085599172573,-0.0749948484182553,-0.16576352956817117,0.04420652196282945,0.06962857565388954,-0.0033301689889059334,-0.08797010342490202,-0.10598608672733993,-0.23587374464268296,0.16734279162296617,-0.19369433671922387,0.037127435489878215,0.1728769260728544,0.054330503984157764,0.03651341184687384,-0.08109019251540625,0.1297241011720427,0.030468703350975634,-0.06350581743463035,-0.04213200476266194,-0.19973842278562057,0.317408827928444,0.03889906499570483,0.14990984535126653,-0.23797947610228942,0.21190406118888871,-0.16885239158612197,0.10004384279070778,0.02604825485502952,-0.41421827812895656,-0.10063377653470833,0.126686981777011,-0.13209326673539412,-0.25796042167615696,0.0615447121824812,0.06253004255915744,0.10833444238469225,-0.04995018623903042,-0.03854060159116632],[-0.17324434003443764,-0.07683199732643044,-0.024645593721289383,-0.09564188029266131,0.037697694172229124,0.1998516916901315,-0.2332386547885449,-0.17788332021967196,0.023628016360043122,0.032905105048650525,-0.0677914691901203,0.052877751416737596,-0.09399883090356914,0.006432266256651757,-0.09549120793177997,0.034539117852179876,0.04866334280454978,0.16190220974025668,-0.4064435734035346,0.4277305624382267,0.10194998793142214,0.027717627133096962,-0.2096782737381668,-0.1648306691754269,0.09047005349692755,0.03548086761967068,0.12858115865482808,-0.02253453737836432,0.17368702356299598,0.24650537301043254,-0.32988916670982815,-0.39981048098639227,0.25520126105100044,0.2894095775690059,0.20647803776154844,-0.023813843948672187,0.0022831720693399092,0.36552953740974164,-0.04178989453794204,-0.24395632152069577,-0.04882928814711258,0.07890963951222033,0.1973358212010971,-0.1321608224451697,0.0502540579448519,0.1576702542744596,-0.0064601535375182545,0.09518207038284614,0.20825255384025562,0.08502061370491443,0.15511707627626428,0.2524686709356003,-0.16533645883763493,0.1664600078568311,-0.11626530162715729,-0.22596179791302431,0.14747729575519927,-0.06752819935189668,-0.16381092999498018,0.02806998476163611,0.041229535690630446,-0.023284648236794867,0.0736432228513845,-0.01547333965929967],[0.06947576640533408,0.002479605485856564,-0.17571434740545422,0.03692949215345217,-0.18036044172111845,-0.07366378064727043,0.07509933805791336,0.10125031165240306,-0.035548971715220076,0.1958993232418534,0.03960821602530793,0.08754067381044273,-0.1614502929950263,0.12472778404133375,-0.25601354340665977,-0.020281435481807136,-0.040103733447428166,-0.04883588868459568,0.010990277382125707,0.1963715577190704,0.04659980850026892,0.18153684906398312,-0.06019986921415627,0.08290022942913353,0.14195973994890543,-0.062024812721235854,0.022331992472384425,-0.04754141204654502,0.05572779472264428,-0.10119864528951047,0.06486069637068885,-0.17482436905007578,-0.08777520346296579,-0.07802012525172908,-0.06017563589134122,-0.10327275786366348,0.07073309970773788,-0.2634252958126449,0.22025550647752046,-0.23763794953984152,0.07916106749393476,-0.02874729663354103,0.20682547978038981,-0.02080947069396827,-0.06017992511385559,-0.08263459958744224,0.0453693134800445,-0.021797127882196874,0.2571652417470452,0.14350535720381327,-0.21074640473952228,-0.18495182822478215,0.22000721326439684,0.04167125301729371,-0.04387237426951681,0.013881103612889583,0.26326708166873786,0.08586912979808087,-0.02548548944776132,0.13753127832220943,-0.02580117090831135,-0.018561692701387474,-0.19441680235626868,-0.06687189345732154],[-0.16135262970914033,-0.07537502166499593,-0.19565454578457367,-0.22787947995708088,-0.04374062745368371,-0.7243774047203452,0.027979749049002342,0.06871684370665486,0.08394260092530288,-0.1743020350366967,0.09171075251297577,-0.21667642728420886,-0.011547122763069299,-0.1185612034308781,-0.27742939697237806,0.12678383896077502,0.06240008416039062,-0.16618699584378424,0.2938302054466964,-0.22187982899035258,0.2702365505191461,0.027468746334164542,0.3612442427068032,0.13246119961384903,-0.05753996902590375,0.24972503502962395,0.04310016060620284,0.45241083978397145,0.01975542674890032,0.3303749137527644,0.03867579417519918,0.18895516413707755,0.005599805110547233,0.0510654237393183,0.032647744176988396,-0.02430800800604649,-0.16132585195787313,-0.2520495169287149,0.021722421508726785,-0.1798316335482912,-0.006061394449026116,0.08088705204542661,0.23549446566059598,0.28446183330283986,0.009644254617350224,0.49007998187923085,0.5403089444959408,-0.07529682468074038,-0.07165518338038225,-0.050198597074275535,-0.19417643165638918,0.012539233401165898,-0.03451340220195886,-0.23999215217313177,-0.0672097610621264,-0.06415385797713535,-0.5691302863586318,-0.08709850792604582,0.23601121262683045,-0.11068471939411528,-0.042571078956665245,0.23678644247664266,-0.20197727776964677,-0.042647223133155165],[-0.09424533826681676,0.027400682312819433,-0.016645319177066447,-0.0003552075125155037,-0.06271181050555998,0.15921495038516023,0.0059562184519774955,-0.18923734758421665,0.06125210467947807,-0.21921139558570768,0.011889385278383046,-0.4181796235946931,0.048890491755291136,0.02192842885471133,-0.06963499246382711,-0.048804886095267036,0.21004981796164812,-0.05307798354684506,0.19573342852135817,0.3029999787086426,-0.3035018438422725,-0.18712446232591962,-0.20928466204882012,0.0439148619025092,0.13368479508152142,-0.38132861272827034,-0.10841070492832357,-0.2251258737740222,0.23254474726468768,0.10963365865479228,-0.000052769866371030285,-0.19506483963731078,0.16229029403097422,-0.1252291922363344,0.1720011660224333,-0.32473058227077467,-0.1476694888772505,0.15812546725961454,0.2964440803101139,0.14076765223676577,-0.24388377714551374,-0.09106224564427652,-0.3732829515761279,-0.11683861875412967,0.15120099334080853,-0.12641641646315674,-0.05453611950205026,0.09090787595057234,0.05164733465083874,0.02291566359789586,0.18465187646377676,-0.12991305814801818,-0.12093168227478768,0.011126392027600029,-0.11705137632191781,-0.19245691323539804,-0.08538645568957393,0.06248966881408131,-0.27903660750322706,-0.3340518141625862,-0.2257122946583892,-0.26116132087874205,0.12554954929966267,0.04744675341947506],[0.08724004172586736,-0.1283083504008716,-0.050248466316921724,-0.047709859008377487,-0.1468476658095929,-0.0715442193387319,0.07845193776462739,0.13936932111471276,0.0267672610107518,0.40208696273666733,-0.00021504325190966416,0.14617550705165316,0.2149743116000444,0.19639628323393446,0.2937456767956879,-0.2185444371510034,0.28456906616924754,0.12596636167056682,-0.004551929760935764,0.038200772327569466,0.0420593818941617,-0.0588779547391879,-0.31711729629196156,0.012525836018451846,-0.10507331382297079,0.10260921454324234,0.21909035955470463,-0.043674598504422936,0.05182342942626268,-0.06115273013667398,-0.03938371040797991,0.17265384488736216,-0.14054691893096286,0.07714844620161117,0.16996575917244378,-0.35004398578619894,0.039957484790230445,0.26607075364635363,0.43429069144247995,-0.017562001305773404,-0.08297957774085325,-0.013474641213987714,0.03609011067170117,-0.016474404384585393,-0.17342552404548153,-0.13430353830722075,-0.3248187231534468,0.15560165967142792,0.05180392321590035,-0.13779225497574848,0.23112299159552696,0.17979845694205854,-0.05446757105819086,0.24595412356224294,-0.05167223818277256,-0.09012377981481022,0.01930153505951868,-0.278127292752361,-0.07132905510412367,0.29245065379261936,-0.10473547229665794,-0.24534701918920668,-0.03380440287063081,0.07977686271505231],[0.11357376119521725,0.07640731710001089,-0.34138850462887965,-0.1576737045596803,0.12228933959749473,-0.10429000660682662,0.036625969315455885,0.1499282053244273,0.09926243441679035,0.14874440370441483,0.08939142884444919,-0.1398373711723129,-0.15582943187177903,0.17689223926692155,0.0030929244574715337,-0.24835243198446086,-0.04084608557805704,-0.08139289627929627,-0.17086997268921642,0.02011845684230208,-0.08748534794262908,0.04547664326208514,-0.012094560865638277,0.06943951780502224,0.07334853632896868,-0.012091702420973146,-0.052241462242393344,0.13483781899510977,-0.013260178105683413,0.0742069613119279,-0.05581681359453165,0.10625038388351549,-0.09403986069330521,-0.10232146187753575,0.31511630572837657,-0.04336913383987544,0.05464649775261679,0.11841587936491213,0.03976630922945866,-0.054200956316066584,0.16164497644041503,0.17778547695311267,-0.06663150372920154,0.14929690393703193,0.09730844644697564,-0.13411664309735818,-0.24693930329600125,0.0631259947652446,-0.04068663291484727,-0.04384676266168855,0.12068870421329085,-0.22753588379549425,-0.2298134965885618,0.10167628404248784,0.16921535457497752,0.0131856138269027,0.06137312896013312,-0.03092482844537881,0.018049676524953685,0.007254170183509739,-0.08127906306337127,0.14689301957051845,0.02107532371044589,0.2432913548136955],[-0.2013225864951063,0.014927620437811514,0.24335980867197488,0.11210848998092554,-0.026209118710469662,0.044613767670591435,0.07728385961461487,0.19408161873302918,0.13795406243941405,-0.28653817246173074,-0.03952117041967336,0.2442301722144612,0.24985231445687595,0.03617934550444941,0.04181334998406413,-0.06709907234332207,-0.20525947146273918,0.10823197093274418,0.2894836066409584,-0.16353157284385367,-0.045636835258891006,-0.1490210124163458,0.05615160271687445,-0.007481507159546622,0.16762185428849427,0.20287854980384845,0.1918993985417973,-0.2138067132636503,0.20730881314143032,0.05581407032717091,0.05175083767521077,-0.020821980506413706,0.21035776484765248,0.17873813596287652,-0.022044682337017032,-0.03153850337292206,-0.10116177402699576,-0.26648349229726137,0.05569576277315965,0.014924142361855616,0.3435466477534013,-0.16445751444551696,-0.19562186055061723,-0.1676168431199312,-0.06810229003312068,-0.02449032700657357,0.05950663556402866,-0.1129046560518988,-0.04705994674832561,-0.08511940168073226,-0.14884824777176756,-0.10123698594932617,0.10353663074564469,-0.2011970749722715,-0.04867728042513162,-0.08075258125802365,-0.09294212728056533,-0.13736703762888627,-0.06969542742714749,0.2823019017027036,0.2045568295841651,0.058395001387624525,-0.21158946957218763,0.16133578539345522],[0.1960564019126151,-0.04910197738609593,-0.36002292952377746,0.15426958859497727,-0.19226792812425808,-0.17216574759637426,-0.07939195152949272,0.03967021393097511,-0.06404771711478426,0.17183409303964764,-0.15419064888538583,0.30898121141536283,-0.07641485228501115,-0.02559405254286493,-0.16471891103478808,-0.05971554355283387,0.007318128801989067,-0.1677477044517034,0.01978688176246685,0.280015620178874,0.1857937832775896,-0.00267866703419686,-0.03224771616565146,0.002717296675457067,-0.15782578644709008,0.07937005764591056,-0.34385069753931036,-0.24160831229668628,0.12107908598314472,0.3215672772393842,-0.11836255124435147,0.022729833180330228,-0.24151720034237217,0.016598731887781614,-0.10782887350280841,-0.22151503997086733,0.2891596872800287,-0.12159924935790724,-0.12902833916746512,-0.021471165929471576,0.04353124586246426,0.13526222940998608,-0.13070932145957478,0.07204455384216599,-0.017566315706761596,-0.04266039108835618,-0.17390334022065412,0.26602874278597455,-0.10252216413436642,0.08178160862270752,0.03536788802600136,-0.06120737594294344,-0.03754435575565172,-0.06548581025785402,-0.10252210773718076,-0.012689340567771412,0.09108550147153545,0.10417100167660318,0.05633230996604981,0.006674185730106725,-0.06289763281952264,-0.051114331052550956,-0.0669915159690034,-0.2935298535803063],[-0.03962366737350641,0.05928083203921679,0.33938045722401183,0.11562890241237929,0.2718405904101156,0.39551699291538356,-0.21844701865190813,-0.1105069595546103,-0.06497582333283189,0.02635023787558286,-0.08877043078669866,0.022042880112154304,0.022281886308684832,0.22352083484072657,-0.05034746533715334,-0.22854426190675395,0.08024551443993402,-0.25314149253000723,-0.09377813719847071,0.1903957224643785,-0.06658156250886872,0.12164930346193722,-0.22450851125504948,0.08177472931877879,-0.1923347127196556,0.03855966362367061,-0.06229887404493771,0.12160618701047961,0.20447928490889233,0.22699989913187027,-0.16038754532574603,0.31717699432530816,-0.1871714902259343,0.07554661197028975,0.15074684022731497,-0.021259902855943483,-0.06256628094049163,-0.030767102497388066,-0.02475678792226301,0.018882071533480017,-0.006403298238689586,-0.1802989236807297,-0.10804162702590103,0.14354251111910377,0.0998989475127853,0.007167956727735556,0.007859211847251288,-0.22732599050791888,-0.1160578038838203,-0.016684428484357746,0.0567100369902004,-0.05406683978506396,-0.1171651925989448,-0.0717270676088685,-0.1300967471810317,0.008647166197266524,0.1474638931770717,-0.11276213044446012,-0.1348377519047965,0.33604303973393873,0.01046522866813609,-0.07022400861490388,0.1739000172608871,0.07302980373186907],[0.01493787701156608,0.0751298813813225,0.024821470899637064,-0.3041328591232403,0.008264980196247832,0.06364140008257013,0.17236649957086184,0.017910932912172974,0.16680358348360896,0.25487830869082034,0.12002049098996485,0.04049653651533209,0.1077885472765764,-0.3067252929287208,0.2443040248690795,0.06204370953957676,0.10944230509809023,-0.0824455932912868,0.144687957156543,0.08614473170559135,0.11717272379630159,-0.1621368151677858,0.00003653504278918619,-0.01880656589630254,-0.14230635640583816,-0.10038276188031323,-0.08446907527718621,-0.23867104750968743,0.024264402284451408,-0.2927653924781979,0.4293510806556923,-0.21078297726566017,-0.006317355569008222,-0.09311836328639883,0.26558097623509547,0.18473824112578643,-0.05163965460056978,0.11925395755312387,-0.2025257479090619,-0.06745358849673251,-0.12022394768739172,0.1041390246938492,0.11654306369959198,-0.056335283027679255,-0.13372441138664448,-0.11113629976496225,0.02412727924878983,0.14465697687037873,-0.08297213922191121,0.0017561427800534845,0.12515634264156145,-0.03746049003098068,-0.13617588497339422,-0.009675833918291993,-0.060437709382593886,-0.05468334404481682,0.22521674682843693,0.1281186049379847,-0.0862160257179931,-0.04472582162634763,-0.03242062365475619,0.0030687506461933097,-0.010476451265404068,-0.43954097560489014],[0.27253057836081485,0.12351319513644467,0.09538566017507111,-0.08917057050185205,0.2932730732278913,-0.20785453507120646,0.14507062717840302,0.22089970620021435,0.29619583826747675,0.07526283826838255,0.05037330530667973,0.0585944252313323,0.02078341417448835,-0.09964282726999925,0.1099295761109568,-0.06984142165119296,-0.08001896784455888,-0.11689056754296705,0.1596300297391301,-0.21565142772850535,0.3186053905469017,0.04333253096799259,0.10803985373654901,0.10950027804184038,-0.147730582334946,0.19638568699437672,-0.01753940915243204,0.3575554578577472,-0.10806705273556315,0.07805093659646811,-0.03518313392578039,-0.21408602561970833,-0.015957998219168587,0.013195877857067044,-0.061658128171946096,0.3414605822194133,-0.15228353257216953,-0.02832370599234861,-0.012720363048926599,0.2043114330989134,0.14025118042472828,0.28461588374960006,-0.006941251947593176,-0.31641342851834003,-0.07775986496802254,0.021796527655855373,-0.03287936836643673,0.20448898440789434,0.19899425792295297,0.031934938221671885,0.021379347998298708,-0.049239111395338556,0.019117472422278643,0.13845696422677556,0.09932345375174206,0.1424996194188636,0.33315292268776786,0.021787921640234718,0.02650314318310499,0.1099156373566908,0.3358988282651549,0.22096388203520123,0.05532693554992253,-0.2978267245126455],[-0.13331872211436563,-0.1885517622367319,0.03716828152857537,-0.12893975211321212,0.03525263722529934,0.001834811779709325,0.2666801266063646,0.057240077750410276,-0.20627435395180332,-0.19942074558753414,0.030025863190614895,-0.16459083076132183,-0.19375050827293053,0.22426061691078816,-0.2068858297567062,0.2655457686051179,-0.03955578621249922,-0.17141400335943144,0.4670387754219116,-0.27282522520418884,0.6729447744679237,-0.6327793342273473,0.039725096377033635,0.1717250637838561,-0.08568774357225781,-0.04203889427648197,0.05911850031911052,-0.2636049150462299,-0.2788561280591254,0.06755047797747088,-0.10808555000030642,-0.24264284780628237,-0.299418394156476,0.2770940752118464,-0.013459129875586489,0.019258537500932163,-0.17572824178604537,-0.0014276396236589078,0.13763910397772547,-0.11925362329053306,-0.13189542039615887,0.265934251852411,-0.330948987890763,0.26331496948281713,0.2819267474176958,0.27045578428432354,-0.01984409385572616,-0.1483173671721059,0.38622073024165365,0.031472605707018715,0.03924715367686644,-0.2032560844663213,0.036108630042119526,-0.20624338230055556,0.351616471148882,-0.24154331153852232,0.28317495916101115,0.08386649259956898,0.22691157275355278,0.11410698293722228,0.04355041373979499,-0.13642630106146914,0.4298737975568267,-0.24344988765861453],[0.025323677761619208,0.006723985979038834,0.3081333029023252,-0.06879863995606936,-0.1281104877861229,0.1366073876808457,0.1955981550541858,0.16754153146112843,-0.29284990071035777,-0.015728993226899357,-0.04265098632061899,0.06532892749655356,0.0036787275758530056,0.14911433508387,0.0755384921158621,-0.07993017027108792,0.05591913936021833,-0.09185824551880577,-0.18051867169116412,-0.09744452362419623,-0.11716456879789111,0.1746533438399139,0.09554149432557224,-0.11216964966533062,-0.009990316173012968,-0.03262736712184432,0.12688027110371355,-0.13978774723864243,-0.29207708672044924,-0.11081339632044902,0.1609675081843316,0.010422277504018595,-0.028645749461137657,-0.0007415763180628728,-0.07161888533846898,0.07434608477440144,0.10415803905271076,0.05406154482754209,-0.08917864394469033,0.2539476020214332,-0.22150548034201287,-0.19961118072528888,-0.309802196668939,-0.21944146111362287,-0.010048169183048046,-0.07299217418496708,-0.06557177662771939,0.17762576322931908,0.06516992656101006,-0.003830880555701839,-0.20824647090868392,0.12441999918403748,-0.04012932806586547,0.02946380982210717,-0.36485067790867104,0.3175226387804346,-0.10332739524865367,-0.23522336977486316,0.058725041687499396,-0.1655787450371323,0.006328290546571975,-0.12963067531035735,0.006763839117835816,-0.043262743977157334],[-0.126939372714744,-0.034461306467344646,-0.11096604374641353,-0.07104499707824419,0.16112298958477822,-0.004418719178239661,-0.06091734948411296,0.07919676202893178,-0.04310410204785929,0.19823714548310267,-0.38128459235520146,-0.12998924548817345,0.12589166775505206,-0.11874175224311086,0.1309801765414014,-0.1612979282439576,0.3464670848730376,-0.2887507427870655,-0.2988541756501964,-0.0742447984807473,-0.022403905273281597,0.07831189721925455,0.013239865190964898,-0.16755971769252997,-0.06916974030366116,0.07672357875909352,-0.12350765524872359,-0.0212640555031391,-0.01303934619849426,0.22393664021231402,0.00752520416821372,0.043705846882389134,-0.01931335893359164,0.05207874903338994,0.1878554118152267,-0.031716141033316964,0.09723782133226307,-0.17292295731337465,0.018195669592932263,-0.20709675695838395,0.025938570254103,-0.0002952295846071982,0.0006814681130349158,0.10128050842663354,0.13960002354252737,-0.07035814971261065,0.3270987702384778,-0.25056454779452086,0.16925460720397523,0.029594913839720356,0.02814308129643128,0.07969115113776393,0.05754972304710128,-0.34807118566533884,0.007461656242983722,-0.21991340057039316,0.057594933331934724,0.19029911597469576,0.020094459822496795,-0.013465171863908908,-0.16324590603703848,-0.010749727480303345,-0.09844714559654377,0.03305980178098652],[-0.09989588918275884,-0.014177056196212089,0.0637954458520943,-0.06877670436033154,0.0012482204986448114,-0.08334838634509129,0.14220361543256677,0.133640877056693,0.3908796958739241,-0.2988738931222612,0.09960631535326074,-0.14666257420330972,-0.21207010142300342,-0.04061025552115767,-0.0742242733178744,0.3011923857037708,-0.12510846196028805,-0.3045244567192326,-0.1788045477350205,-0.29200899465466973,0.17925769778967504,0.08253260349892975,0.14247062683045816,0.09695574846847228,0.09398242276651737,0.0028320409483501975,0.05686012706321431,0.18856862238550856,0.022796315231672658,0.09447466066699282,-0.11998233107820588,0.10539460693153957,-0.0962885498219207,0.18422237273733813,-0.34863960535032523,0.06880404044551719,0.2985815613201296,-0.06294305137014751,0.08052731749665595,-0.05094712699324507,-0.12902977145391115,0.002988680191254732,0.11707418598671633,-0.0384632247327592,0.15716698550757188,0.24588492835686615,0.23747609333963807,0.07194574284812204,0.16209606971375068,-0.11858591596551256,-0.13340286117803393,-0.04575051933547308,0.020672707610276876,-0.14881439604293692,0.06229152901408067,-0.044608486072072025,0.05929233487753881,-0.12371589379025015,0.22112535913195921,0.09620773771633237,-0.09200847965474081,0.07146209021289669,-0.16637325326872532,0.14147821784755052],[-0.11450351144735732,0.1237689053072618,0.08816511091179352,-0.05694230699497651,-0.032804162832794935,-0.008455170001543591,-0.1664855243494189,0.11768784816318484,-0.1914134421082775,0.05257229592654013,-0.29945466128489134,-0.24157600964108916,-0.16977508588911763,0.21796611871166763,-0.4037928114461405,0.03172028312570213,0.04337193856131951,-0.14407017217922963,-0.14056808460804965,-0.15076518104520806,0.3222103577628687,0.13053597923119745,0.2705666365604914,-0.07951730911617817,-0.20863452326002951,0.08612064504954897,-0.03146750007696253,0.05325651818402129,-0.0898823548887978,-0.08893338145867939,-0.012899191853310942,-0.041952545126747294,-0.06325666581210873,0.09083791704318186,-0.07374997313656217,-0.052602895051294715,0.2779770956865645,-0.04749006376987156,0.23713377093346408,-0.08677253206369684,-0.07501833393202123,-0.14640236665792866,0.47430178291207287,0.11727452602906398,0.147346330464007,0.20197187659182722,0.09669998318264181,-0.020027405673853735,-0.03620367948043304,-0.1792093147374189,-0.09814400217940332,-0.1328061262076601,0.0891428907250378,-0.04302707118112546,-0.10474516478373551,0.18444467000938142,-0.3875889952105895,0.119331327054301,0.03922274007497489,0.0686017954873832,-0.09650770756381093,-0.03389868981519105,0.17770057201148018,-0.054825500352424124],[0.18233338721598252,0.13328956738642012,0.1873585803814137,-0.14455479498081644,0.1286266971274368,0.18688888558768182,-0.11575533470977288,0.024583816289456134,-0.17218072902206213,0.012738738522248683,0.09868810390649854,0.036100140123423226,-0.15089592590968615,-0.01993314082675125,-0.06440358132233888,-0.14311943869427185,0.08539438016954515,0.08532494935476095,0.03743796861106091,0.013233083869958107,0.07402153494892118,-0.01883290298473518,-0.2319078208934218,0.1338426220757117,-0.15715836567266633,-0.05116558185204441,0.1604557946672343,0.05660941317370911,-0.2293945840916132,0.042885360625548916,0.11039264035005555,0.28326791060053597,-0.08562297849583245,0.16673683623925264,0.19583647198735157,0.1106335004280417,0.3217802712053837,0.17100141795468543,-0.017439490784492456,-0.06486752134140188,-0.021817177599920697,-0.014125338882499233,-0.028778391415559434,0.18159923766937436,0.14917765107221606,-0.027414918547724713,0.10998658222670858,0.2529847282106133,-0.20290422178776552,-0.11334746218625787,-0.3016558847721327,-0.014394374369489524,0.22876652394484534,-0.002749995727703817,0.03006321479112019,-0.21351843001497067,-0.23882114061974372,-0.10858725273840786,0.06166856444711229,0.10427595772870976,-0.04730610160853987,-0.19747529099883543,0.20215138297221982,0.10721996663262234],[-0.07051399427545134,0.07505099667399501,0.03619990117420498,-0.025263117832316228,0.019289775406960766,-0.19754923268163527,-0.38201259211432964,0.17238663151441985,0.4251755371784204,0.09014472979353459,-0.12022237808994327,-0.2855831748805525,0.16298746213610482,0.18944640948855318,-0.205851473049445,0.15054175580229479,0.14994138605919743,-0.04638234606564906,0.009491026853463761,0.24691382482179428,0.3352249631339828,-0.0948830295262599,0.19453263502278884,0.04682331326605478,0.2530306091399603,-0.13463786511435963,0.0022456740988984697,0.41482909645351973,-0.13366879107951826,-0.0022210192348900634,-0.012202746671940701,-0.037736495801670114,-0.02577036123009712,0.15150533508058595,-0.23656138140763933,-0.118962808141795,0.139525135510386,-0.18313543386452458,0.09985084557821576,0.27530645144194377,-0.10063454995693348,0.3917626742012491,0.09267533964979618,-0.06744298259133621,0.15471641241495718,0.22376351003723158,-0.016945554893466063,0.01330948584555116,-0.08077693430931844,-0.229627051819819,-0.1492778469498431,-0.1667867869894847,0.16136397927263804,-0.04382116153117462,0.31309070339868006,0.11017413517100254,-0.3007188129938184,-0.08047902425687921,-0.003140208633256879,-0.060150708666523396,-0.004660759491660239,-0.008896484159682043,0.009741370846947739,0.2434704605020037],[-0.051364333051582764,-0.08301074401660861,0.14338922751499628,-0.120535919242745,-0.07546614429261521,0.15243399314738817,-0.1373820502935291,0.024234810025419426,0.20463507061250294,-0.22512485188102319,-0.06630827660569952,0.15697418603094312,0.04399724840945664,-0.07780905589585065,0.0003692447328841811,0.05358714856437452,-0.036947689248462125,-0.026667682761569313,-0.02783041287177257,0.1202135671267303,0.07282113442516447,0.18453555526801413,0.08531056151151492,0.2572561513645901,-0.20644706108252622,-0.13935393370900684,0.12805503597681786,-0.051032558069863794,-0.034076393691445904,0.07168011809528779,-0.2114025425526993,-0.12442231858116043,0.07404655510387252,-0.03490978734420845,-0.07416324089019267,0.005852944320660087,-0.05587631675400223,0.19560715932563122,-0.1971409832819383,0.03136283863625486,0.018006941710929404,-0.07881142533499866,0.11840730635617978,-0.12998653177165537,-0.2864304384683236,-0.2017085350541111,0.045739035382964276,-0.13131425476896066,-0.23814870216524037,-0.08988713154667496,0.2059695902279109,0.2029915571448409,0.1163338383849507,0.09603255938459718,0.25508394297523346,0.018801376994219025,-0.10588012415859961,0.23873212701910748,-0.1193943414749668,-0.12045960926140303,0.09771553423515567,-0.2074990593390045,-0.03385597844929856,0.15164495992086963],[0.05831494941791064,-0.05495332669438177,0.07382774277614966,-0.22335942806162734,0.16814019042314302,-0.06842349577857529,0.03270829024737558,-0.05348788141450726,0.13198613264003944,-0.12458195169556,-0.24996859850759284,-0.044252185777358,-0.14446011002672413,0.11569673963055244,-0.04228137839775949,0.07957195902276903,-0.053323357720983344,-0.12925548949918195,0.02873891354663863,-0.11685696497671297,-0.23353345616356877,-0.048850414214655795,-0.2040648074665865,-0.07385913962837416,-0.231794959933898,0.05212504629121454,0.04982254286358871,-0.09601595735741386,-0.02660006663077121,0.24777933083696654,0.01450455292635068,-0.20510123877115088,0.1328409972288798,-0.17403209727625113,0.23352853513135638,0.11286311975518735,-0.012169849265265256,0.1451030114841695,-0.07362615954857359,-0.12073790026247344,0.13669640190354995,-0.11794892050925437,0.07464457625673006,0.023504204927461813,-0.033372588874633444,-0.24981420409484728,-0.1081089825421686,0.07122652064916059,0.054288206630693815,-0.2139558647475213,0.08978340307261318,0.14327070454986474,-0.019768142417409623,-0.14821891795139844,0.06807553163357612,0.08235908191687666,0.055464385882743855,0.012756722213788829,0.04831655623322518,0.19088203845494356,-0.0010833801068860975,-0.1432059509223878,-0.11702593920851331,0.1229439166898367],[-0.24287289509606386,-0.08756782404370728,0.14499892497900732,-0.07706060201931685,-0.28111640991532044,0.4938272810707962,0.21162346361880896,-0.03511439987592483,-0.07241514464210125,-0.24748427665995773,0.0944641091223954,-0.07522388640244275,-0.007946537488005601,0.29738427047394683,-0.4611164909967463,0.2408888435327558,-0.32706758810620423,0.011545289273793481,0.618055860579929,-0.11637571526903306,-0.22066253425751792,0.029815474664905726,-0.08140223926936621,0.23030178681127783,-0.057880720295363154,-0.15595144868585814,-0.16182928471090086,-0.4305744560540637,-0.10473521210465207,0.20211594425974666,-0.15803247639578097,-0.0677391621477771,-0.006765414687178088,-0.00457336534104472,0.13889010800367285,-0.33087485890644297,0.10787176481198048,-0.014180329823846278,0.3873495740776733,-0.10227662351261181,-0.3542838902149255,-0.1402717323311853,-0.0159045241663661,0.7468730073324771,0.003639280995070049,-0.10672533847369567,0.18556112066933061,-0.06058070201002631,0.0848306322196271,0.00963900485939633,0.060763273088908304,-0.04122517074689145,0.4595415297407053,-0.09224243552888728,0.030121403952421424,-0.005098052358976027,-0.03506432971571941,-0.028914318724458394,0.06429269127776789,0.2511691437934124,-0.09122988821109465,-0.1992842694186076,0.35506999160123803,0.08858482447484728],[-0.06250087902205562,0.0587029810736314,-0.02080276685617725,0.033777204837337586,-0.008691870414283823,0.10771347104248681,0.19128014821589437,0.06677264302601646,0.007953880435968397,0.006403757129755159,-0.10060815454709755,0.02605753245817249,-0.06109783240079358,0.02236483253439125,-0.0023350342276032754,0.30397787043558716,-0.13396870323903212,0.0219414154172945,0.13494827879399587,-0.012577461207643343,0.2254231727810066,-0.1678589423483458,0.02005521306759253,-0.2350340630439008,0.13845504173013543,-0.1069735269260885,-0.2028091333631373,-0.24961384930084918,0.05969083495500469,0.17258979350296083,-0.1522352066511183,-0.1566757357709119,0.2620797788633274,0.08738313779674192,-0.010098239297893339,0.06718861114894886,0.10408534161201269,0.2984102946338709,0.046807310414744244,-0.007039919092046192,-0.2731584592697075,-0.12650603212968614,-0.014937138978547215,0.2725025776608514,0.12482691148668333,-0.34366430174094875,0.15736036713282175,0.20904235702863225,0.14369129178540196,0.12763025890852325,-0.09102765788572134,0.15409670579856946,-0.13688177480512112,-0.005469639043325084,-0.19453476318577007,-0.07829826368433505,0.10917410699244401,0.12762340620398321,-0.06485793715325788,-0.15865991393325535,-0.1416275748297261,0.21117800105380644,0.07542498911614585,-0.258121566476723],[-0.140963885609623,0.13593778827701383,0.1304878526112868,-0.13082341039279344,0.02723744158052481,-0.051284314429022836,0.1594047415573948,0.0445065198380032,0.0944214973617377,-0.07226746149900867,0.10619929919434275,-0.1587359496310477,-0.13149784476118961,0.19358975871618356,0.22625762423733387,-0.25212680318739494,0.35525981723628525,0.30796655454613164,0.14337129012773345,0.013603761108645456,-0.10991076163194563,-0.12910768663382727,0.11825571550560907,-0.07545971463617024,-0.1610244235073295,-0.2759834953959612,-0.2207951762638748,0.09405565600145435,-0.009975422153427867,-0.0415906811079914,0.0020631526210476035,0.061419135234450466,0.049604997847342354,-0.037752574176643676,0.08553215654363563,-0.13682062250922467,-0.23508831280137513,0.06072337607770478,0.06111299799390674,-0.03632815434528303,-0.07790873413372498,-0.2566023740057247,0.03147322502998202,0.02521375514023207,0.03891320772646845,-0.17666410087117657,0.004292497119075683,-0.13415590515950665,-0.1220162782004472,-0.10709759253238803,-0.034235269368270795,0.046250620341589437,0.031546582479682804,0.050228830007252125,-0.2874888888028036,-0.36842290999085964,0.24086801580940118,0.18284364172106177,-0.15739545165951996,0.29904510289055813,-0.16930139950511722,-0.22622173329089348,-0.16980897583499954,0.07619908518170693],[0.0810111356111662,0.25105090076270997,0.04127400192486769,0.04757381139340551,0.15454703846891957,-0.03912465883867603,0.06613253592047566,-0.14313658917995703,0.17978307408573496,0.017194153444424157,0.05192180515836658,-0.054088525108597796,-0.15825053387890547,0.05964216382631184,-0.10128710905025282,-0.30131121340460326,-0.1434321787486978,0.09385411324392798,0.19106735614805065,0.0003230198940981802,-0.1249087381760391,-0.0678167728125453,-0.14536941383841268,0.5054146439719659,-0.026924068897642785,-0.006930661880837308,-0.0778723078984318,0.06105443034304455,0.02287431749932666,0.02834686128826427,-0.0984164519322511,-0.30113395580775887,0.019613211662765886,0.14399758140460853,0.07525872036733826,-0.12485388168279847,0.12166531556668696,0.08872160004396293,-0.00663022462176905,-0.0742572345399922,-0.2515403093860591,-0.3376034379322699,-0.24087841851572742,0.20341060876304407,-0.0022492364864739644,-0.13469828245527501,0.03145266226828985,-0.028594941339343625,0.06629909327718099,0.08988881998720555,0.19136091423683393,0.21615252514205227,0.17368484498112544,-0.16327038835446517,-0.24704230202792932,-0.011870603348403456,-0.061090339573661716,0.009415289604552598,-0.1756457468938096,0.031120904327904347,-0.018895144261735233,-0.1226529989717974,0.1164801573989881,-0.19189129460147927],[0.04490810163039921,-0.1623462796844313,-0.2783902145023688,0.13427934132167757,0.06171970799550801,0.13783242676550606,0.11670223223723405,-0.012594014809131592,0.030298661546362425,-0.16621743473661235,-0.04275443382417839,-0.0675437004797617,-0.039869820195626085,-0.03138982447909669,-0.053497151443650415,-0.015157721683403565,-0.06347502604800044,-0.018813541507586743,0.32568075059033486,-0.10635631814287785,0.03658750446286417,0.016284305248106607,-0.13122874616241056,0.04159240994115434,0.0579384772972485,0.16380178265118295,-0.1409422647748055,0.31593013207808834,0.012868095037407679,-0.17957920193073107,-0.02788109167603862,-0.12088559869015564,0.1197773631546877,-0.04651979698913629,-0.06873602887531013,0.19065882639955814,0.15502847298639796,-0.014307192429828974,0.19755351143513938,0.1597750458678574,-0.033459164537880816,0.17704136680305776,-0.012547344460927768,0.06679683318962969,0.3393994229018015,0.17985847875026995,-0.10037517474669401,-0.061924450657613414,-0.12195050667006954,-0.10252173275134972,0.1383464269035803,0.002020999203968537,0.10037953730355456,0.006751995612846455,-0.14975758218363075,0.08668620374688793,-0.04309422991698186,-0.07285771372709647,0.08916632372277522,0.1420167605454365,-0.3327818519091739,-0.08293797968944724,0.1332147378344731,-0.09447123962193504],[-0.2956581021714063,0.050699268796945966,