{"layers":[{"weights":[[-0.009256784244826998,-0.0763132030064178,0.05629395506682529,-0.07324686997407114,-0.0321796731966053,-0.14001983272396087,-0.09376573097576438,-0.05644519122868966,0.22004882823439964,-0.017472860268556656,-0.24503486319624632,0.26993632730605305,-0.12398794631592164,-0.14578324467278297,0.16883003712774125,-0.021825226997798798,-0.24340104685927585,0.07296548129830725,0.16491428564236615,-0.08484062599191813,-0.03279279980889597,-0.08311074845525868,0.07564345375884213,-0.08053875978348764,-0.17787725962758585,-0.16843425723741287,0.05296263021533978,-0.1922068435036012,0.10199191621426934,0.16678385104724985,-0.05718392049233826,-0.0327442889081945,-0.037265335436875005,-0.2711652824393009,0.09403577585326492,0.04612151779210844,0.14437204958846717,-0.07499249718884445,0.01655904565674333,0.25702368497961,-0.19576008845171405,-0.09285000055720632,-0.13340161124247074,0.15945483776963268,-0.07909357187039597,-0.17364743619335515,0.2423184456886553,-0.19998028091327102],[0.5031763797869746,0.4946124752818049,0.25601058462951076,0.587301403599107,-0.2682972505150607,0.08243626204171925,0.04019515586211963,-0.10765300145114208,-0.11008970957704561,0.009046619481857976,0.07585107288036182,-0.13795134783666865,-0.16540195791629073,-0.1300855900681295,-0.12673777370346884,0.010822912940101443,-0.019126195797314064,0.012187342889632882,-0.32590226511971004,-0.037340308361117694,-0.013913041278835536,0.05158748668786606,0.00042489196265749256,0.12942252496623094,-0.09964320979999514,0.0447462878023491,-0.10534358583817609,-0.1297576017739453,-0.23103960857486414,-0.03444882027132351,-0.1814352235205322,-0.015423710486720544,-0.24021002369937997,-0.14068914610769415,0.11712393092846422,-0.12540556498443156,0.08153047421541179,0.06816117511898413,0.07178754048851141,-0.32109098611175824,-0.09377717523478422,0.04224453115163944,-0.20988342755782854,0.045778854178488905,0.2580466104539129,0.07446562490874713,-0.15201423247773407,0.1740677775224607],[-0.07627245772935234,0.07730978065144352,-0.04215822477154826,-0.259545914676846,-0.11066856433842816,-0.15422374658534982,-0.05053369669473743,-0.06193784850548645,-0.31578851992778356,0.18857192903770545,0.06194410166526944,-0.12613180725003467,0.10289818906705922,0.3254147715522654,-0.02426422663183909,0.2738508302463977,0.21505417106455124,0.2404107093278419,-0.13751144129214507,-0.2188194818434857,0.026474251885184538,-0.06901266793298605,0.03614559500274859,-0.1181429359269209,0.08854325925059293,-0.1316655260937636,-0.07629624348343572,0.0015901674441228747,-0.08432176462359982,0.0009610847757499407,-0.06547670860935745,0.0896260491046754,0.01969486931403612,-0.08501376203021432,-0.12095901484529396,0.008464410782542068,-0.05276710906354179,-0.03723859041219009,-0.03692528559481687,-0.05518925268355002,0.11768834265229053,-0.054147064689173935,0.1251563182595789,0.14192369814416314,0.07457104445897117,0.03700186168742667,-0.1518411401856406,-0.07735221954275734],[0.18428387891703302,0.11401248065691887,0.1501004161653058,-0.24839844328142233,0.04943443421955642,0.18451537668797396,-0.022213297555790424,-0.03499137430645276,0.047666712501640174,-0.10458754368213458,0.04786374675051347,0.061489722832866196,0.15993103281057727,-0.12909315747020925,-0.1867750559544206,0.040827947041182325,-0.18076814563807245,-0.0543193499277012,-0.014173038160064322,0.21404770717959276,-0.027634482558523618,0.06232774571225175,-0.04579070517999589,0.190523927358487,0.058379045921734984,-0.22473484970532204,-0.1962408516903077,-0.007797057881215434,-0.0489376370969282,0.358945992993576,0.08927568417367951,-0.3006172028938289,-0.06114109353302621,0.02990595883924524,-0.04361141724222568,-0.09030025078312746,0.07137878656128828,-0.07675129240278698,0.08820687444943441,0.08268094755112017,0.3538294470465179,0.10158552698305078,0.16262923788494613,-0.045784758652436704,-0.07119630140314165,0.16183732613101331,0.2602303548161365,0.15156182975865604],[-0.19435100884954676,0.0927549495557014,-0.0163521610934695,0.11156392545343835,0.09603789476446806,0.09592074232359923,0.18084727256433197,0.11890165695574588,0.12581623369116557,-0.12596746116415133,-0.0006708639525360043,-0.0030285932254524505,-0.12073452261677058,-0.15198240838771432,0.24907342646341873,-0.058548021151506945,0.05010464882937102,-0.22934647696994592,-0.15523382899747976,0.18425115460674593,-0.1997237060941269,0.1816909338796789,-0.39888361917626947,-0.03910971836170312,-0.11833665576860855,-0.03534702664053564,-0.03277777106360178,-0.012153788271846301,-0.026712330030840614,-0.16260164251558595,-0.03930220641312844,-0.013525763223707516,0.07289124624721005,0.29091880545334703,0.008785212406303122,0.23467361009411283,-0.03284418664032536,0.07612806203478177,0.04429682677311368,0.0055067862483941365,-0.10478860031220014,0.02552601553439133,0.03165862331794027,-0.11831079192789187,0.006503024642556316,0.1117592477721444,-0.11920310396492141,-0.17619420364395505],[-0.14623625841465157,-0.2673111086645939,-0.07148695668263366,-0.47693410187248625,0.24086062997731872,0.01704223998238154,-0.05141294686693683,-0.2607182921041201,0.08110230719507243,0.14580570309038304,0.04825712961804542,-0.17335419028892637,-0.03654620896053511,0.11843049741795707,0.03722646368997311,-0.07343208678816776,-0.13690604746378207,-0.005585919821835439,0.21745138848211143,-0.0421006079051434,0.040995263910006005,-0.21189454353637216,-0.07850162858293705,0.09607139064660061,-0.06695652658789493,-0.1340484175487244,-0.05035136485420147,-0.19191943240493695,-0.07789756811679995,-0.11255115264436634,0.08142991563339876,-0.094071164754033,0.08706344667465261,0.02500101058469321,-0.014666564104411542,-0.00959851775234086,0.010774281376499027,0.17388307857685134,0.14466019224574667,0.23565270438748506,0.09019668547859641,0.2714270609863263,0.13053948285515485,-0.052233991357573124,0.16994083798549015,0.11165829091427018,0.16112096316186672,-0.1447266823454833],[-0.26283657418532513,-0.10693916993820855,-0.047458191440821765,-0.29647244822576013,0.3654688827017845,0.03197324312746553,-0.08706770707123998,-0.2441357512362459,-0.07351677058676984,-0.28763066816771404,-0.04691219738872499,0.1838804677878878,-0.11556147703535247,-0.07354583233535647,-0.11047795330275088,-0.05096852482131683,-0.2469180128144195,-0.1927525006374122,-0.274723189414846,0.0780770267706219,-0.2731877257935167,0.09927001065366217,-0.005667334010200806,0.11175962448054931,0.12998741418757964,-0.006861081379543473,0.16284349649081797,0.005853517406310166,-0.08476244021117339,-0.029415620399587488,0.04824870936448315,0.07777635299304281,0.05962302077153734,0.05862150807702815,0.14924526267843313,0.052624614688737095,0.1120147024506033,0.055317885003973395,-0.07472958773243815,0.07365166890347385,-0.06586044044272688,0.06372485255429637,0.04381571638820557,0.2628611712510403,0.126673955703699,0.16857924178429906,-0.13896887115071638,0.08429327213952847],[0.07135735851435526,-0.16588722863106592,0.15175414100355994,-0.17501877340007813,0.08609258778594922,0.08869145728503959,0.17330853204206667,-0.04502954052572638,-0.15596685739559968,0.11598150839021251,-0.06451421455591384,-0.3111414436541862,-0.2974372968877975,0.031065902516535186,-0.16105962920284017,-0.26696189324228053,0.11517936922451671,-0.038710514609945894,-0.10315880361965937,-0.015347756909738464,-0.056787906035246895,0.08378256267373842,-0.2759461406152573,0.1625446685796153,-0.05876730666948996,-0.02212323852606444,0.11253849438652079,0.07045424374804092,-0.13216235708188098,-0.15907977254339087,-0.04561793254016944,-0.28559856725781263,-0.0728254602463233,-0.05783650863695663,-0.10121269028635083,0.1223509681792436,0.04312662770129124,0.19704953388464488,-0.014521761630205398,0.060484571851059696,-0.04662697655083809,-0.1599706642895881,-0.07118799856871308,-0.0814483026269748,0.09734981364239816,0.07029193735503886,-0.27210299684383155,-0.035676837803666234],[-0.03559091539355919,-0.01743921474237015,-0.040712959273651754,-0.212683255815291,0.0359053726322084,-0.050530160091709714,-0.20198439239766847,-0.18660820084190666,-0.06600317905513484,-0.14060138842925285,-0.019905913889717304,0.2925212633694934,-0.04370632610197492,-0.09074019840087334,0.0410133539395357,-0.13241243742667827,0.09148773081867626,-0.12608114603619844,-0.018001626076581925,-0.0012203100113544517,-0.11253364907764912,0.11936657762893499,0.22101072357458512,0.06387023019672522,-0.011795333499322503,0.08803431192625548,-0.11921448959913228,-0.08930191516180117,0.36033658402448826,-0.06524159953297798,-0.17990057681011254,0.2041783783238273,-0.188616669164672,0.22389233155872898,-0.1960607315194072,-0.12222394481383135,-0.06935916346880855,0.05333990723268697,-0.03947222367987863,0.32371977179432576,0.09504600530688956,0.068193489053018,-0.0946911782781466,0.16282319565440392,0.044452930085945246,0.24127815134358738,0.009259948521099336,-0.20372863824049528],[0.4582491899660288,0.011729376259894416,0.21982714386582802,0.11230577401196562,0.051181644294591044,-0.21672960943087083,-0.142393174145819,0.0755492126582277,-0.14058538578408375,0.07899745983998971,0.24597471543143803,-0.0927633006924985,-0.27794857657537875,0.11650790848129557,-0.06965367967961174,-0.1710029356314692,-0.05556140011098442,-0.16484314883336468,-0.051275144145945716,0.09302858289132634,0.32230234466203317,0.01252852740423927,-0.19648430697990094,0.12324498988960336,0.1421972715184645,0.10330212592443477,0.1234995464287265,0.059671848611751656,0.27679376838772246,0.19857987537497374,-0.3828419512608296,-0.02527241077958845,-0.06404121413601536,-0.25675567911730973,0.03784767849077135,0.0067926918042544035,0.15161197716314886,-0.037552070730075875,0.04680814624428127,0.04345163519985303,0.07405327512505708,-0.1569357183432067,-0.17671293589756354,-0.06205666700368076,0.3850468048002778,0.1206623153529539,0.02747690021460149,-0.15125692526000753],[0.05251590145841145,-0.1039406313216534,-0.00044422136264141295,0.08041994324452506,-0.0048242218523630535,-0.16142565243656512,0.024327995119313002,0.0522218793497251,-0.16290525110142978,0.15052595049071202,-0.007043032935042318,0.12894460878194433,-0.009782634929688463,0.16549427182251783,-0.25882125997347816,0.15674305031973879,-0.3075073767816448,-0.06802175691471482,0.10584346997187279,-0.08672822639835212,-0.06764557258447697,0.0009298371660417212,-0.08322022547119987,0.00338980786958515,0.32289618243627605,-0.007124496190815585,-0.006418953360699771,-0.12625906843282078,-0.008808050362044328,-0.018243399217333766,-0.020643803353535717,0.13452653884304708,0.12086487768996679,0.23191349830739624,-0.07095665367070507,0.008607721238226965,-0.07001993430516543,0.08767083779909615,0.10787853841149833,-0.14673020927437272,-0.1456261935389512,-0.1660593545968299,-0.065431167982691,0.026752613543362665,-0.10775226776523952,-0.1423436379975509,0.08623060460937271,-0.18769303550836364],[-0.3463403712271823,-0.1715011732396812,0.07501751881774801,0.01243362535357978,0.09800522398117247,0.15644908210178332,0.2064450767067427,0.059568711674521616,-0.11350482261513206,-0.17509131781812418,0.04807866359277613,-0.07137819205808439,0.12249442801859654,0.16812093624791055,-0.005337966393207936,-0.05717261521307544,-0.08956744843897507,-0.07112140811710828,0.12212048774307473,-0.23197333685074828,0.11077029365427872,-0.14440565820297363,0.026079896927826036,0.15853405714260105,0.06934149397994542,0.20822570004313118,0.059106099310989264,-0.3152095294465611,-0.0009371493797481534,-0.12390896985072981,0.08725024336316739,-0.05008531710153461,-0.12299519391531999,0.05990304193760498,-0.03386581771341966,-0.07000163477614174,0.010820674542165551,0.02657536039284374,0.14588152111885327,0.11066270419539,0.04639910173983823,-0.16866755115804713,0.07510151801003215,0.15157365826633293,0.14418363384123203,0.16529641171929232,0.05087018962234236,-0.04986913377288647],[0.19333126878638224,0.19989966873467024,0.03360408601261676,0.025196227445609492,-0.04171772837408792,0.08205716797957588,-0.12245285154446806,0.23818880247411242,-0.09861253366580347,-0.16524836751386832,-0.1682857786400458,-0.055104157070676674,0.17145118486113078,-0.023306237927006184,0.16107295147736825,-0.06944160264002022,0.098945253651539,0.04223193908321851,0.2006408559594406,0.17313058726743355,0.05501795953965979,-0.13028750248988052,-0.1174009230154587,0.1066276599221065,0.06736457246690244,0.02538593899383756,0.06807077783484888,0.007180875460701907,0.058447619071419786,0.19549571419667694,0.015401314023951245,-0.0010257792090229432,0.10376699376411691,0.10253923598414269,-0.1517283190039124,-0.07411074388451083,0.11672818340019164,0.194234937422861,0.21891894533912593,0.2009135266342883,0.25305496632869434,0.2836052924326063,0.19200567955386597,-0.05200869708512056,-0.0437995854991276,0.06460786969200912,-0.08982553780482293,0.01532624766015208],[-0.0040548582213288074,-0.04365771557588487,-0.17124783422708592,0.011077105876949487,0.010846319741637231,-0.1649621439186844,0.0946207180088259,0.07173742248491517,0.0017068103291484505,0.020557607467093276,0.05196162021640877,0.09588435930824997,-0.04035726221755234,-0.0608853162333127,-0.12485403994357126,-0.02550015434816611,-0.16773750990684028,-0.09638129775916951,0.18030367765136612,-0.14807780886905592,0.09540196034764005,0.08152837088259458,-0.18700812306041545,0.11029321855644786,-0.184674673370774,-0.22114661405784503,0.012442916327192011,0.01651306458612821,0.09215425691221804,-0.2552823300218559,-0.1540334362746088,-0.09681661590181748,0.31654473568410807,0.038440483614395914,0.010154206231075005,0.030989633676172804,0.11869678149383327,-0.1299160830635635,-0.03132630408864604,-0.3074193575905816,0.18147931164207762,-0.3564955964445561,0.08218687992969653,0.17980945986662633,0.23373267086857094,0.36312515916123367,0.04227190385631171,0.04977506727883537],[-0.20871691118929303,-0.22657307802736656,-0.03561557505229407,-0.055857263781399415,0.24117959651447918,-0.023995178595392797,0.06776984308996212,-0.0347128321760211,0.10924951189200674,-0.04210273528053662,-0.06661330719194872,0.08107006199370495,-0.19149699040329707,-0.021581306307535582,-0.0904325512723193,-0.065024042315768,-0.1416417851222315,-0.22974139872406688,-0.23052280745028872,0.06441998401622236,-0.0202765893169973,0.00831471390390395,-0.06883698133219503,0.018857982835739,0.1660853454420102,-0.05017995426736944,-0.18100923699693913,-0.025638067231914082,-0.03686485804516964,0.04282165719861547,-0.16597276731230023,-0.09059312467193133,-0.21879801149903813,0.37353762381979216,-0.2544129791430135,0.281864709278978,-0.06584829113923232,-0.015250652597581207,0.19485306191984947,0.05798716871344377,0.26913177042291697,-0.1034289434070202,-0.1133489003318028,0.3223312253905697,0.03691985502358903,0.2453042883998162,0.2323304343165367,-0.199001504592838],[0.09210345331779425,0.029304008629855185,0.03281766467066442,0.10510343834182138,0.07038201116701101,-0.30739390830536095,-0.14573505328205014,-0.313976592059945,-0.03158460200963156,-0.09525253354903256,-0.2492599249873057,-0.054738237919390274,-0.12785873054477448,-0.11372385525928577,-0.0722734030743682,-0.14638028458442628,-0.01053557229833425,-0.05608155217089465,-0.17583170347224683,0.06264161672430336,-0.17504502847011252,-0.05972797369211812,0.012581634087190699,0.04572714848867086,-0.0004623106667148382,-0.13084104009525865,-0.17791544887641444,0.06709042595375385,-0.27324508751436755,0.2249473730245666,-0.09048465316361662,0.060048844211472954,-0.05214359097230522,0.17650689843091535,0.07139784563022325,0.17806720424374664,0.12444710115630438,-0.10545088867195007,0.186415046104408,-0.17896481813820705,0.17736225550521661,-0.4057588072322148,-0.15348673005865937,0.4108863886304793,0.11900983129505116,0.34681300340254145,0.39601477634887755,-0.5187023600100645],[0.051240590546839514,-0.1665727371943157,-0.2209087113790111,-0.07428813328974443,0.13090245054634703,-0.005754534373017614,-0.04716022988944422,-0.07176699413468766,-0.08001926678187019,-0.06618512090910812,0.241727112721532,-0.16754668150440613,-0.014158798685347912,0.154951462209435,-0.026741485429514142,-0.09232080036572492,0.024928133499773564,0.10394266170556861,0.07966585297289165,-0.005713033135416554,0.11505046085904154,0.04519891361735848,-0.07598036305540587,-0.05161243159327709,-0.061997415760547306,0.15965718105801657,0.3134171352653956,0.05356978917158606,-0.20311363820783726,-0.01994715132052198,-0.19785959329594782,-0.18338895172944011,0.13344297824975973,0.14028883023077093,-0.029465761681399517,0.17620701761949217,-0.10423773216187704,-0.004809500793303661,-0.016867381319607255,-0.06685660522246319,0.3894664837949856,-0.07023125056494557,0.09404439888970792,-0.09758235123003106,-0.12384717876891929,-0.16093808212406605,0.17861197527236874,-0.1966801346010329],[0.1663712305652638,0.11641674787378122,0.07932695202007906,-0.19198272638764116,-0.04907671140605959,0.025475701106419973,0.021168331714263317,0.15818304559203042,0.14403274151422435,-0.19196912203550512,-0.033454567489924814,0.11103733554750007,0.01478471432060569,-0.07200892488363407,-0.22388835709071722,-0.42480557164153304,-0.23344672763891225,-0.18688668160519353,0.04874205607749346,-0.14326131200813175,-0.06883528273565703,0.005082018116479184,-0.16877212210355655,0.15044507973290255,0.19011839694346716,0.29115058109898,0.004874856567088748,-0.06561950393500668,-0.11505221614935536,0.029909229084478326,0.018397021480330893,-0.025843422172043076,0.13638491904140554,0.14475537785294312,0.2843751163639751,-0.22284934088861713,0.1053483188644221,-0.04682385252125922,0.0019970046496378797,0.015196518526777213,0.1564029795729773,-0.3895152855127985,-0.1640821380102745,0.3032823839215785,0.13421473561536093,0.006379005263832608,0.09020874639473717,-0.023651199479598248],[-0.09526364316938266,-0.11568329853473142,-0.11247065831112524,-0.015167654352873572,0.1384659754442883,-0.09710354911270765,-0.12763287268781176,-0.2771892562290478,0.08622982248800302,0.1228901785853786,0.18332953646352834,-0.05039298321340332,-0.30462700481672733,-0.10533860425917188,-0.14045304787218854,0.04334684135510076,-0.08741737096947956,-0.02705171816373349,0.18541364174297928,0.09774968844732869,-0.009846460328009315,-0.1970328068754607,0.20668238192227442,-0.0371284461351836,0.031723777297688924,-0.08661249389682654,-0.1264803522846113,-0.020949419702377483,-0.024965491218160944,0.17109029292613342,0.1831454643632666,0.051172738868533345,-0.24567781394153895,-0.10076306262287102,-0.07445714222593167,0.09892267450035826,-0.04753776476437709,-0.07700323350835005,0.02355831481740134,-0.061303522946483766,-0.20584294522177263,-0.0097481499830186,0.003885341666990326,-0.09789433039930598,0.04291413862029916,0.20523246836244718,-0.1354154379105186,-0.041189660711002316],[0.13148529518260071,0.09767073857266259,-0.21190905941397878,0.29217349892705324,-0.31707522670052907,0.02167017801975646,0.16341392362859639,-0.056698309013828385,0.04289975065393,0.05941436548436782,0.18181326860235386,-0.273675779140558,0.038790830441860616,-0.25527448158432603,0.012335728378984138,0.12083043531225854,-0.2588638871836773,0.12968981204443536,-0.24423566072072722,0.1412838431117784,-0.0067904304183582335,0.08562653940864019,-0.014141896133490095,-0.000477753553706873,0.13683463097916265,-0.11616684487656474,-0.015842835109780035,0.07320974349331366,0.0802643443748505,0.02920389186941722,0.36238467254810225,0.01904800796769681,-0.18267504307143295,0.03292698962682958,-0.008921780774070593,0.06568568893949114,-0.26212718531144413,0.010771113923737807,-0.0355418895796326,0.07854209628261144,0.2377189251515091,-0.033713945396239425,-0.12466550784157426,0.11915767925936258,0.009521543898147697,0.004876596066399599,-0.03771149244272695,-0.07280687380468306],[0.06664950756124553,0.24020852763618172,-0.1974529659011112,0.078717618951113,-0.04486326137042399,-0.208450133475515,-0.13499447888596405,-0.2773210115349819,-0.04480448363148425,0.1481880583392621,0.18037043883036233,-0.020015169070530497,0.034405068291683764,0.05970726649322067,-0.02231381793463442,-0.19054626705084898,-0.1516683469951097,0.024258622866338352,-0.1958477609319925,-0.122380130741274,-0.07816657201067888,0.048834614683707464,-0.20586425054779398,-0.10256177485947116,-0.040214881753298466,-0.03069636798280462,0.11803856583170595,0.17133551117299572,-0.08643758146779228,0.0720534241684921,-0.11147922504976232,-0.011567173427114526,-0.05192255663185536,0.3148234593223951,0.2657004209026908,0.14492102432167364,-0.03779790121986704,-0.09757814036677266,0.19817592195932343,-0.47994956809913203,-0.17358986572018803,-0.2401174432391786,-0.28791985569431855,0.13835905320324648,0.1867209317164197,0.1627119696175694,0.22915945197663812,-0.1123374529688364],[0.2998716777618153,0.15335434800378622,0.22863423743586211,0.05828714197592952,-0.09986382289143125,0.12431167692575516,-0.1863821574813906,0.1611795445723013,0.13343877252005065,0.1593384238567417,0.22972924134938771,0.003956913253819511,0.18634089343785434,-0.13569813618499738,0.24489913059801108,0.18918443207295627,0.16162135626003568,0.11128717431592983,0.11353224036600884,-0.22256088481936256,0.010353401809594957,0.17567203328401762,-0.04312255052928118,0.11670428512153212,-0.17023509424184513,0.09655084986882834,-0.004383785903661327,0.02327291959637259,0.23245112881511307,0.13706638460982395,0.003216096428486392,0.11525756568908628,-0.07181138243811852,-0.1641214418084895,-0.11409921097909373,-0.19525001277164297,0.011517845812240975,0.14517245659614325,0.2180292167351446,-0.033084956609561025,-0.10133456101489206,0.032674090913127694,0.25316963381388824,0.09130497147307838,-0.12349099557313321,-0.1719557714980191,-0.03439012246637937,0.19669352821085748],[-0.3660053454039535,-0.0765207470339115,-0.02612215014267966,0.01889767660713841,0.07991469653199534,0.10646689303466339,-0.22339771003473435,0.03173452083711037,-0.09422778924588988,-0.036333117604612365,-0.003070035150167059,-0.06301322734082873,-0.04056018812667456,0.1574229182368781,0.016339828018077606,-0.10973964234450044,-0.05059691114991571,-0.1917200468222817,0.0579233815466923,-0.07214202507509622,-0.15968045988907006,-0.016988847857481133,-0.06159005323285306,-0.07419930133177384,-0.10961251873136711,-0.21560133467769177,0.3068675353036117,-0.08227955810803489,-0.16096569989777773,0.06366795922109315,-0.15864576900685562,-0.07049261020277112,0.033705517159369626,-0.06109237534734295,-0.027616102437565338,-0.04200413017691559,-0.12534610721104641,0.044127010898356064,-0.16742136692513276,-0.06057521543827054,-0.1907846954140599,0.20860791689442565,0.039934896330503865,-0.08682492067649898,-0.12698145967677707,-0.024772400664422312,0.12487883890140371,-0.007841783739047859],[-0.11763072019873033,-0.054631036338611466,0.030631560679959906,0.002037541437073771,-0.07622550667462745,0.14481067205042833,0.06848040064060568,-0.1450041412847612,-0.038169289103803114,0.10211054832415811,0.046708721143224156,-0.038939954905067325,0.08258509175963355,-0.15295555685175774,0.182000464931872,-0.0025679323794737248,0.01687860063333958,0.1956332649501947,0.027961383551689038,0.11868276663878673,0.09501154171485109,-0.030034347258287495,-0.004574882258559439,0.22390894974557385,-0.13414419922159404,0.015106624751933839,0.07301471038558563,-0.2263792119235052,0.05640161728101282,0.026214095780126317,0.012087110223131112,-0.04752540214061089,-0.11869683339091815,0.2960268420192126,0.011461882525361851,0.1610078953828165,0.03265731608919267,-0.06300918604090998,0.2597470297429079,-0.12890233892291783,-0.030981629639353622,0.005509552935876754,0.04011212188611046,-0.05584935186529666,-0.12579029848733805,-0.20989213235569854,0.21033050820119784,-0.0755500545644792],[-0.004734518974192376,0.3164185714782586,0.13316205839323816,-0.22392670341733623,-0.05805764957579861,-0.15896362629499264,-0.2868592723490209,0.022963411557433238,-0.3031007273821588,-0.12625702118957255,-0.09761069731308103,-0.10742956406112682,-0.006850454345031489,-0.04672060618724996,-0.1702488168405325,-0.18746469692068235,0.060009049854834524,-0.008183663379770698,-0.3570051302462159,-0.029040079778707352,0.010023911630031699,0.20863044956585036,0.07257333532185237,0.051400574024128745,-0.11634050658191358,-0.10961156867698305,-0.07976775942131642,-0.06893714863462244,-0.07146040100473212,0.09310268123012509,-0.015889325807196503,-0.12567050941794686,0.10668066085415445,0.24313955750796887,0.042469100656156944,0.26025734500369546,-0.0958251356026729,-0.012477748263662136,-0.019774905306713535,-0.3362159349160482,0.09026075823101667,-0.4109877397227595,0.03161227235652371,0.24627738606338123,-0.004355769008457937,0.06449347170941058,0.1566725771507192,-0.015012435428266881],[-0.031820209442630774,-0.009667638309447172,0.0238416630012454,0.1900675387220429,-0.07334786319473698,-0.03522772264326043,-0.15352633182886802,-0.07132441930936295,0.21152696492048836,-0.12002439047123892,-0.0721204506516548,-0.06754935832013785,0.017087592197286054,-0.1920942347960735,-0.11142427756790085,-0.11557330551168615,-0.11484234695384161,-0.10373379775958268,-0.09061790301303377,-0.11579023268242632,0.044305957563306235,-0.0741830573048191,-0.1631650784894381,0.004148943720883828,-0.12485985336342866,0.24236267847750687,-0.05572574080945823,-0.026468217469728526,-0.24199318154662702,-0.14585010085938457,-0.2437948637259805,-0.11543637046938723,-0.02564387787685277,0.190567489199568,-0.09645531951993144,0.02824126765773567,0.03164069011202219,0.1016571236344008,-0.015301979290011649,-0.12600947207027968,-0.005782555344264403,-0.48259478595123817,-0.21577185844836066,0.1653470848717381,0.2111210800520738,0.25760708570741064,0.3020716057025383,-0.27258345085271707],[-0.14366211671465162,-0.10725586828664013,-0.010287021052849803,-0.13329748140104727,0.254591380373714,0.07820435901901208,-0.17556957179408447,0.005116948183797915,-0.22312510971755073,0.0020921917326925093,0.0032634302437840566,0.06851548853012658,-0.04497966994022593,0.06944814893620653,0.0581335764259917,-0.24623549643380765,-0.11338893944168736,0.013445269185336726,-0.09578540949013906,-0.08210974217267165,-0.19808487866274518,-0.031865313470382704,0.04771632367133396,0.27403515955306595,0.09273919399286333,0.09551279583323523,0.05078751710055838,0.025617652316529408,-0.016685593742053077,0.2403755641678965,-0.208245248092801,0.03196435969782075,-0.247461535369021,-0.03941664841572539,0.14992422010111986,-0.055740760057430255,-0.06313949479892329,0.11510147826994746,-0.0053616827870566885,-0.33933348248701023,0.06930638807417114,-0.3508252689485391,0.04925004014423755,0.18341681800640539,0.18889539018940493,0.107621995658873,0.2795544409332797,-0.09444478855623062],[0.33929173547197444,0.06975620576813371,-0.08395534045334443,-0.1530889301539005,0.36386158613537634,-0.09290249014724075,-0.2583139767582232,0.007042247390484821,-0.18113470259839973,-0.029701322439964532,-0.04897271499092565,-0.011080296479198478,0.0752529225921956,-0.06141394266220904,-0.03848698984611163,-0.05041694106948054,-0.047432696139938155,-0.2919159242546613,0.0009284745414249071,-0.12168805516528919,-0.14296740565993737,-0.05613282706224956,-0.008189134928344385,-0.0045926249103305375,0.04964491701383984,-0.04711438904525268,-0.005648847295834255,-0.18278158919943294,-0.3044168797663723,-0.09303197727469514,-0.13859673225956695,-0.06270874036981994,-0.026632726331219644,0.02674440661918439,0.2501582086233682,0.3472130896151706,0.06188051329823538,-0.03084748948738283,0.23692192424427197,-0.13467500474880428,0.03807507548520072,-0.2841184317686117,-0.3565352563812825,0.07787335169075567,0.20150178402422678,0.2501356937612242,0.019245737805551857,-0.1831490295394634],[-0.08377880169095778,-0.17389469969158908,-0.1826094267925383,0.04623141466114822,0.21588012086818706,-0.09587935935749628,-0.13887059810206373,-0.10172596695739314,0.053644410657821655,-0.014361873510025658,-0.1729726867960477,0.059058436874711184,0.004910805118452797,0.04137717930794734,0.2654795110109568,-0.07951239228847454,-0.19970816765400554,0.012624617280042858,0.09484560199598813,-0.18349775936270812,0.16379180058452436,-0.10594175706702733,0.15446945712262727,-0.23153939118407962,0.08886667461557449,-0.14906910808747273,-0.14667883724562777,0.09915758837131647,-0.0933857756783397,0.01293883310372015,-0.2105017814127339,-0.08412403529174228,0.0802914596433502,0.05476475958366462,0.1765436638366581,0.1129888003236349,-0.19093716702633054,-0.19809526805464192,-0.045337397253535826,-0.2126266362965844,-0.11223252687217723,0.1581007908901967,0.04964437303116037,0.140425956141913,0.09018308510606282,0.01754363970748541,-0.03535191416081231,-0.12111690176021804],[-0.01820463196337336,-0.07376983185949794,-0.04614638739304871,0.0019261591618272688,-0.08107768949696707,-0.106864856158701,-0.12705050792195713,-0.04645120248812725,0.058421027731650525,0.1504238592411716,0.031222007195308436,-0.21193345586695633,-0.10349366019454322,0.08616611957780393,0.17840025388774078,-0.0376467515065665,-0.014906614744670381,0.02997932395828452,-0.16334776858059136,0.059694301341992245,-0.052503228689390856,-0.11277209598928832,0.05906560609495622,0.09559406390412588,-0.16719258403521794,0.12355375604278153,-0.07074544198601096,-0.20120955923152986,-0.09423991055993952,0.09166703802586218,-0.0514467109862209,-0.14989924368860996,0.07144433174106767,0.08727698725246681,0.007249523407431856,-0.08590634517110907,-0.12511916765952966,0.159046967689228,-0.030302368311836178,-0.016042093881933787,0.034003866277554536,-0.0349231820379193,-0.031027066232284854,-0.11465745975807855,-0.03546959747283462,-0.07398856217518177,-0.2411320565676427,-0.16170685275930563],[-0.07561704759354997,0.1900130595632921,-0.19150041738719178,0.14358398194526795,-0.056278490793286215,0.01541306827739235,0.009129042283679258,-0.022925572790775027,0.14979641356515894,0.0234466018881232,-0.09104694200612731,-0.01822760294996399,0.1471184452598659,0.09978528159511871,-0.06367037231443035,0.1154425348856239,0.02166751094838391,-0.08760909794487469,-0.280874639960173,-0.1377571942803345,-0.11801800410194502,-0.1065691206219176,0.1943577028010431,-0.07641125412789708,-0.05896325856247114,-0.0026890109855371306,-0.08365592830405709,-0.02204615614906553,-0.041785991044252346,0.037357633124018824,-0.11534420173973738,-0.01945961937205106,-0.054540676338941815,-0.02567932717178749,0.18687769093582607,-0.09178964476495262,-0.17129975404545347,-0.13599231654167027,-0.06441233909294898,0.04280485447466527,0.055243682405108394,-0.04928281621046104,-0.1676654155505498,-0.12211493875278928,-0.02604533783549512,-0.29860644748331855,-0.03314375245312115,-0.030086312354377455],[-0.20645677535892376,0.1395058169854232,-0.248434964065416,-0.08986579521032047,0.18964043099187325,0.022961361584284464,-0.035279670936243145,-0.0775950146484462,0.04690014121724653,0.05082846177941207,-0.21496146242731876,-0.11883704932526433,0.14525165376939633,0.3087950734710126,0.09381396292691631,-0.04182483299262506,0.12393063046904201,-0.05935771472344291,-0.11805752413347734,0.14773874161526485,-0.10376366107705146,-0.11583274078626846,-0.2048779278469968,0.04344158443010681,-0.0028566315053691563,-0.01922463836082873,0.10078307331863574,-0.18462522081533903,-0.07608373519816093,-0.10031210704902448,0.02785351318815563,0.21552604261716787,-0.17790251463331935,-0.1596553329157535,-0.10403606011035166,-0.08050808334029787,0.051908688256717406,0.09064847104731975,-0.029774645958663342,-0.2288644312512875,-0.09362502404246047,0.06414139987756622,0.21441817452520046,-0.012096688107730087,0.026063204927152896,-0.07208653742560224,0.26893199102922394,0.044962484221826894],[-0.19963450764722454,-0.25471800784759907,-0.03878504932004814,0.05238519663798429,0.18131978225269177,-0.040669687692375826,0.11908855424170169,-0.2255515893509781,0.09647221495862807,-0.08168730537554965,0.08866353175696627,-0.0990400326827988,0.18169287510859597,0.06698643278585995,-0.06580607351751344,0.1445001457258042,-0.036261887343177625,0.027655327976026645,-0.33800738737441954,0.06859547024904766,-0.06886891237575055,-0.21483625464589193,-0.23723263353270652,-0.06938448354299148,0.06714016836011688,0.09942625287554195,0.09329649168611343,-0.06284848082556917,0.06421526333039446,-0.04057225446772297,0.09922736419857518,-0.12301477451356033,-0.14490948172713777,0.09354933317756306,0.11349621272997534,0.19947781957666064,0.12485245122583023,-0.12866620859956773,0.3179504364054438,-0.02925017673854428,-0.09592015268412123,0.061483836033642374,0.05833500821832745,-0.03576712795926486,0.21750565483948878,-0.08575819155333471,0.2308274728463074,-0.0025101250169952878],[0.02671736076398118,-0.06078159319227132,0.2192337355903339,-0.0478012039482875,-0.04810764536597712,-0.04819422665037318,0.12619359509411002,-0.1112784662217753,0.14109087196314768,-0.31455760910789293,-0.07068090660125295,0.011197879376523242,0.14737214923099706,-0.042433422411687856,-0.02421056579272726,0.048951890260337486,-0.018903408282616548,0.14178225672381226,0.10512288084785205,0.05707587783742826,0.14072827274854677,-0.10951041706364271,-0.02466475696740519,-0.022766562125556878,-0.11850663616677057,-0.1373641434474098,-0.21286269864856638,-0.18852016760769127,-0.28780103210427443,-0.04374768845772883,0.028334985321469768,-0.024550279323797934,0.046558683395397045,0.10011486424181691,0.015550210753312624,-0.1543335515005998,0.2186541541018829,-0.050307488644075485,-0.10025597295084047,0.08212199882710407,-0.04762664726733083,-0.06794728693626612,0.07322207272698644,0.05805461114374812,-0.18040348749017565,0.06941342604574334,-0.05351599614867574,-0.22605275229970453],[0.07624937846306479,0.21365444862874544,-0.11798581928773863,-0.17708766149501987,-0.1669303985867613,-0.056418070293796904,-0.11285693327351237,0.10863210845501294,0.39505841982269174,-0.13466108963164072,0.04285542948195449,0.10779653411678508,-0.3881605198796922,0.1167695063355497,0.08771457586045948,0.011051293721438636,-0.08262381033313651,-0.19470219054874915,-0.07486594842429464,0.24654959798774667,-0.143383781062997,0.06195172169496998,0.09149001922585565,0.04182742044659213,-0.02994926982171436,0.16179565560486156,0.0027861953957136957,0.040649105097136325,-0.05772880621225513,0.11210588095333353,0.047735064654533164,-0.21352854827250606,0.21269265603011686,0.23347741662231292,-0.04194924642491132,0.09783939981029349,0.09808202462542419,-0.0009662685612153863,0.048936964541816924,-0.04604470318029726,-0.0753977927278328,0.056794075745355714,0.03289312240211887,0.04871657433660208,0.12907092285098767,0.024809590452059604,0.03840348123310177,-0.14053972546690738],[-0.07791247820066169,-0.0417756924510406,0.14429759854044347,0.09562130070496211,-0.031782227488681127,0.07940310985904118,0.21212196011563558,0.08369163469375043,-0.12725400253893518,0.15834716763209408,0.000782813452995978,0.25617583875904726,-0.044995125189480706,0.0439907628642248,-0.12048875518414724,0.015758157217666834,-0.14644751124610697,-0.024748199546750914,0.06435525025262795,-0.09155105173454442,-0.06369872417874702,-0.06103773081495073,-0.17852005405610766,-0.06832412519207078,-0.03532080723810877,-0.046996466422059686,-0.09251552793387056,0.019888488643848814,-0.06987629692946666,0.028095900898008182,0.12232910560022904,-0.0031441735747793154,0.12187780341060106,-0.06742020308221898,0.01783252241123149,0.0004937208952219425,0.04691999165466184,0.20146644889019424,0.06432457082531177,-0.05477409796431423,-0.06549851367846256,0.22551375431302711,0.21340742613607208,-0.11940226151137881,0.11743835608315258,-0.10637058993848693,0.06375625023893597,0.16410662719146876],[0.5871808975576674,0.6135755292765964,-0.21529917286431496,-0.05758599008135873,0.41543222147148556,-0.040992117889150005,0.3035395248632517,0.14702204117337264,0.11388158862057787,0.07193519599388494,-0.063035905993903,-0.05679799932447625,-0.0721643506511469,0.14199811620601419,-0.0978078577687855,0.05768601048617863,-0.015569811137987652,0.11923408666417001,0.08408781793626276,-0.08488084880533883,-0.09185348539506022,-0.027493454182694856,-0.13855482326320856,-0.0884877785697666,-0.015110533192463133,0.11829801751642058,-0.1438608827371976,-0.03789769287381593,0.20065405805157588,-0.03229449682700281,0.04743467432791629,0.1934655567393355,0.1819037667713742,-0.08564414447429414,-0.02159784348207988,0.07318486260657496,-0.022493001372427192,0.04333616466115398,-0.009980175940552612,-0.09471396514521217,-0.032356315443009924,-0.22362786138115173,-0.4217580677227601,0.11759599390697752,-0.07009992931611278,0.10708422591711597,-0.4554838694412607,-0.020776639049380964],[0.09019202078744047,0.037754616393509674,0.12081287164841306,0.07807125928579456,-0.04618703228377228,-0.15650791789429563,-0.019033911678472036,-0.07341208427587963,0.010933281917874127,-0.18530742094738742,-0.11096693696837617,-0.2809180785349505,-0.05212301200941029,0.2597495311344817,0.053143565210901,-0.10243157326202172,0.0011666581792277601,0.046457812330101905,0.1356780056735124,-0.07893253828749397,-0.36719585539760535,-0.006633789630782774,0.17752492470639686,-0.1962122587116867,-0.07109446166365939,0.1848965619809874,0.033837155431351906,0.1824387919907208,0.12614379525902153,-0.00016261482741427414,-0.20146865012327528,0.014911477700589803,-0.2910681150983534,0.31969986281846097,0.007020685919343797,0.19129355836711595,0.06266938716275969,0.003488574755434348,-0.36238326642358276,0.06899109005196677,0.20230077037957875,-0.27525970023310936,-0.35057024893942734,0.14606546077413282,0.04367985779928154,-0.010656284477481785,-0.013100788749805773,-0.26961737473771025],[0.0723867360440641,0.3516739759566946,-0.054833593070143086,-0.051544482485415814,-0.14303558419496912,-0.2122010610529858,0.0737317731798065,-0.3559765766041581,-0.07146139839517023,-0.11923527547563853,0.20003735984881585,0.05571691163885963,0.04756155865146386,0.023912712110788877,-0.14506953867948827,-0.06235985406156641,0.09622621054252822,-0.02100303764997351,-0.08602347012654712,-0.15169323221905623,-0.1710026507776258,0.14062692857676684,0.12112668969829529,-0.06514632009511344,0.11618800784168219,-0.010342579563261015,0.016015675358169227,-0.003165326987978628,-0.02328293489066266,-0.033040958537820075,-0.14984941022206938,0.017903623425090734,-0.06278357748936172,0.058184534554292816,0.07344121078931111,-0.1799461173328458,0.12274794825567073,-0.00345620783654495,0.09653139454158738,0.3119437964425912,-0.13068506458224852,0.026517762923382017,-0.21988572476295495,0.08221859843500591,-0.2193503820141422,0.1394227854337352,0.0032631900510642375,-0.0956106480951717],[0.16394130381822675,0.06295799429692613,-0.23897637956855228,-0.019027931786849684,0.15412511483319294,-0.023151966252764496,0.061659496862273594,0.028553389001173424,0.044672436388225226,0.25567684517584965,0.19418071036886198,0.09174185821702718,-0.09623470525483686,-0.20800695375450867,-0.15869214242844626,0.16627010922582458,0.02564830598310992,0.24533859703810923,-0.20157278583793609,0.20719489009303707,-0.1503169103686507,-0.0006315066757232724,-0.1590880842023977,-0.16584589601332642,0.09167864821382932,-0.1752457528599495,0.013415883550283515,-0.1463458944689339,0.06242513984100281,-0.2736128302695215,0.11230722977470836,0.21631936313327407,-0.14435611041997176,-0.1172959047363152,0.09110619941723395,0.002358323818763163,0.192211394977213,-0.11040303013734497,0.19354274949948155,-0.09476534101362563,-0.04267338162205856,0.4497624439778098,0.38141065520375916,-0.03284261967131627,-0.0640177561471324,-0.007494154813682949,-0.08006695746859206,0.49946609643258516],[-0.14570801987772145,-0.0005571513066651583,-0.09258165964893621,0.043140581337829324,0.03370997719192816,-0.0059043420514896874,-0.15440810533154256,-0.06922806654564008,0.10359010639168224,0.07603627074244251,0.11656368421451925,0.06584081390822763,0.1298546697709029,0.27785279305585797,0.033892332115759385,0.14539124226638153,0.006183690586884068,0.1584540522479692,0.27133879699625274,-0.24491170184822597,0.02147389161998458,-0.1851473061520516,0.02991464704094721,0.21622021828208657,-0.04431393574658766,0.05370686550591392,0.18160027519347555,-0.2332406446911637,-0.1846559136420574,-0.05288618546099787,0.029383784101080442,0.07633088545436802,0.023680470475481722,-0.0766046026801715,-0.2024680208830888,0.19586036618332087,-0.11407849476689069,-0.10722073823068018,0.18580340141149984,-0.021479679024548302,0.04216568862940685,0.22067473905952498,-0.1485891425362719,-0.006000722974890616,0.0725735853355742,0.07725174323440079,-0.23847188784871493,0.10131482645059521],[0.04136616413172504,-0.12414681464034717,0.09271200590578987,-0.040600137143642814,-0.16275506141622204,-0.15485356184605398,-0.06925707296664373,0.02601336419238454,-0.07196391610729998,-0.16223884987872175,-0.1970914188817004,-0.08342033805519136,-0.3954123430807897,-0.04376661143385711,-0.12753763552279573,0.06167584089603041,0.031707713390347454,-0.08770903822572139,0.006255310224160318,0.06900671054465317,-0.13845584622009374,-0.2289988366179813,-0.1144834994050246,0.01961504585595189,-0.08342779751021523,0.06987638138238847,-0.21402193117736457,0.2803557204031943,0.01124961513775906,0.035040837982882406,0.021654574195961944,0.07767305836906008,0.07541890086850228,-0.12057838861268004,-0.07114261238837384,-0.08381573259464511,-0.08084704708929129,0.030419629229106918,-0.01953633158262577,-0.08693423777713198,-0.15819837466074388,0.10866185421489523,-0.1247823078565524,0.1178328956468317,-0.045918100558862904,0.09610738334261365,0.04235738483149653,0.01778599178914995],[-0.04004189601342164,-0.14013567824150602,0.08770178166634893,0.038698426523891244,-0.15018012846992992,-0.20839132129913868,0.082623672146309,0.012358457099713518,0.01228136135363505,-0.14066342708506577,0.008347253664219397,-0.051694123614632506,-0.009451863515851566,-0.20658112792116767,0.00781798312135603,-0.07493064300401615,0.05406010940972515,0.05022251263361248,-0.07880918075511234,0.07253758806645377,0.15599073738571326,-0.11570671137542625,-0.022769987288594216,-0.08787958601733502,-0.021927520259948836,0.027641015199601104,0.09460970955258526,-0.08885463547563456,0.17452903229752068,-0.37169127050734574,0.023550848020500253,-0.09174686589665883,-0.08840932984303573,-0.08721365915995534,-0.17828207412814093,-0.18674842497681673,0.14755533119584432,0.004906127588319145,0.038083106711322146,-0.12896643271358949,0.12279832128239594,0.05735489643959016,-0.007475998085157559,-0.19471618361956405,-0.1171195942869309,-0.19777136674666915,-0.09597179134921863,0.13098638195736337],[-0.17254910855446465,-0.026304038825770162,0.2265818812889562,-0.028457543601304734,0.013145204302769033,-0.13859706520641482,-0.09623349006332405,0.06358037960158104,-0.2457479919258202,-0.2072906528876827,-0.10941201280259154,0.014238559836366948,-0.13239377909204,-0.13893106664358917,0.094115559826638,0.12474555376564217,0.07692853586093747,0.180654351041419,-0.07504697972345438,0.12167991817429759,-0.30941918793261497,-0.18273661680445463,0.06494065172069678,-0.03358859611617213,0.01763177816512519,-0.05377719526235546,-0.06409721065606731,0.2888942185955139,-0.020630396220739394,0.07574597787532722,-0.022421886836755164,0.287414362017874,0.2267749307480258,-0.11268461797977207,-0.14124897689330604,-0.01957907317949295,-0.08798800624809962,-0.03755554407099058,0.25264649210568363,-0.1256821508320415,-0.16708397082168538,-0.2126793237077712,-0.12442182378565786,-0.1371134069255309,-0.0814501422449333,-0.13895952647277335,-0.17898132227385927,-0.10237284370199591],[0.1347282915705313,0.1127881479185556,-0.1637397688918659,0.04127851944557312,-0.10951421501911308,-0.0134612980079575,0.10665262593527212,0.02970975303723008,0.24938669295965485,-0.02219772325589891,-0.14134939984001246,-0.053417188472693444,-0.19245393331504224,-0.1127745591128027,0.058440803834462665,-0.08703196521235891,-0.0541312542427701,-0.0640134922018407,-0.05991371749794122,0.004923877181602745,-0.06405751578563328,-0.048771053187267294,-0.04100721453210213,-0.10612496299679831,0.19325879181957575,0.15407093006535458,-0.08116168921026601,0.32110077945550436,-0.003146405425184247,0.037513901716453454,0.1593643138946689,-0.009615606069238895,-0.008560913948944747,-0.14406192057463663,-0.2084546674681468,-0.20293896261505814,0.03917991030094257,-0.14439789984055956,-0.28521290199088883,0.13521156363654926,-0.03106780322862422,-0.060898349442270516,0.14693115797062475,0.12537839661497677,-0.1263745903104494,0.3902242645323578,-0.10474794966945292,0.017400941968816967],[-0.10348075672551664,-0.2337673023143222,0.21671037410741967,-0.10616642403134166,0.19021152477518505,0.14217034781634433,-0.23500684049603376,-0.043995748879565526,0.15437655683870583,0.05922499167511889,0.20784444256857432,0.21456906508549342,0.11801787386774797,-0.2410391843137255,0.2667819484193736,0.005976672298936437,-0.16344903395508734,-0.1472960301034147,-0.004239205187041727,-0.003155432161116137,0.027812139460591544,-0.04617538062258035,0.09729037170095924,-0.1700246516536272,-0.16685257391988412,-0.17682043918592286,-0.18936466751634995,-0.2614123430212622,-0.11231974023122909,-0.1870443284329684,-0.0055210885263261645,-0.00046004456747406747,0.12883111769020228,0.15501546096666505,-0.17168716549268076,0.0621652042370195,-0.22427353838056222,0.191490873889457,-0.031726501042735916,0.12569433542870076,-0.001955845390202479,0.27377786245513475,-0.18901553206328742,-0.1190402822984695,0.10434058208187809,0.05839572258242624,-0.24414497700081067,0.12403621057021345],[-0.21700589735078923,-0.054225888874146824,0.07085046725631718,-0.05631787086099639,-0.08497855656445404,0.1149754741463807,-0.02923930451852156,-0.033518983762943905,-0.03397259553834,0.017760034198470467,-0.008698414686532572,-0.03356830345720152,0.1799369474848947,-0.08093260574402246,-0.20923793303263324,-0.185184575581496,-0.0241979699920389,0.12891146219172311,0.16360238006021263,-0.3071000944133773,0.09388422112150024,0.08459874809104771,-0.031016603396150165,0.16279016800550042,-0.05626651757803134,0.10714949883231047,-0.12178752249633484,0.04225204827977945,0.20061910259523721,0.20101910781542898,0.10432669358758703,-0.09030898767110744,-0.13028353942347043,-0.29047191201985234,-0.06931265586455855,-0.12118725233533788,0.06867157745706116,-0.23680666028135988,-0.017701700750810637,-0.09376821720767271,-0.16520915728400545,0.09611137885866936,0.1454668812024309,0.02522345874786497,0.06895120733660828,0.004860280510740893,-0.11139528140988751,-0.17447635283518556],[0.04969882875265838,-0.1427601790551213,0.16964913381635605,0.10451032634377722,-0.058373061945781186,-0.030693725103108412,-0.1161724506753588,-0.20710112278338907,-0.07692290649196618,-0.08856003323851594,-0.34296430103675235,0.12889467731271054,-0.029380522305623494,-0.016162993943763363,0.058145172323379526,0.06516095164185771,-0.010374697837637375,-0.2482001980097829,-0.05486985092659669,-0.078011385345305,-0.06414551765707924,0.025091970438778297,-0.041290859221316666,-0.027139073639757223,-0.2544031764106752,0.09188667585622362,0.17198934606834174,-0.26676418434540794,-0.22515572465869746,-0.02664449307398248,0.04273801752124825,0.14169946415169188,-0.08450355944714127,-0.1903271585436529,-0.21376605072969201,-0.14632029720641435,-0.27052028042319903,-0.02370544023843047,0.17048144201436205,0.2710774079690165,0.2569501218258431,0.01285775830760202,0.15884085937248038,0.10447115174859066,-0.018623798996639636,-0.037003730239295866,0.374945372002565,0.053488704232098776],[-0.14093212278151743,-0.014384313033829239,0.05957940287327,-0.07193937312237929,0.1825479588219686,0.07963869784390189,0.13486105523500183,-0.07807375234243126,-0.05152211513220411,-0.14004431418700666,0.10991770074242747,-0.041593716694947845,-0.15861681617103474,-0.14512845342865208,0.07582727619785,-0.13011353632902634,0.11409110535214104,-0.0874932402161827,0.08566255317693007,-0.07076274681658196,-0.14895225857305827,-0.15041949878092314,0.17548463684949756,-0.09410255764064335,-0.16176729574549184,0.09232948240862783,0.2794020393065699,0.15736834736993358,0.13040731627532295,-0.05550813152874002,0.010989287404953063,-0.10616314139731126,-0.1400704382940532,0.06549082429443154,-0.02686257440302188,-0.2638895634534847,0.31510449218024106,-0.022599035302880408,-0.1584772737136011,-0.2620555097926661,0.20247251474519504,0.08215197949570266,-0.030615256746192268,-0.2822506612167912,0.10484865877883232,0.014328605776111978,0.007963349794096462,-0.01869993314151778],[0.2329007929808774,-0.05991435333623792,0.15981238336158213,-0.024812038974952762,-0.005320061752636067,0.1753418656990816,0.1249022389460007,-0.15650693242345187,0.018965295195901365,0.0894424581463809,-0.23821144050418833,0.28686235812787025,0.09845639859083406,0.05195275775276266,-0.22025135360768183,0.0012870275317566151,0.0021118224754562358,0.007107526682673535,0.09293177893957519,0.05367569444943462,-0.4097256582395895,0.14702388704062133,-0.004933536582418255,0.1428662696131663,0.06128052416871601,0.1892827576594401,0.02598107025550781,-0.01262148672179202,0.016337375652757634,0.03624175995969199,-0.23573809361381,-0.20191940893767013,0.058119133297214354,-0.18675333434260658,0.153594478339424,0.14175167117637671,-0.10743018684070695,-0.18763157411671094,-0.06531692786435886,0.17598270915887268,-0.24756791326461422,-0.21879212405767695,-0.06561989432290155,0.09356993807944741,0.17847094709521721,-0.269836897551276,-0.1339319633594558,-0.09198830613577119],[0.3203302191911246,0.3238956492781197,0.04995631272378314,-0.02278551134756071,0.7019746034634229,0.16498854574839916,0.03680426789506618,0.13056077148875642,0.3439616933667755,0.37651886525274036,0.23818443748755153,0.25859811557079976,0.07675910309409548,-0.07426801137620358,0.11632221674221613,0.30770414795576795,0.2004654807818203,0.10914635123310347,0.15475386026904867,0.301191056343256,0.10345521096426046,0.019498113749199592,0.022783202560710553,0.06007243809360862,0.07042734345551777,-0.131997164328607,0.02802774014775261,0.08354784471491004,-0.04899733342533081,0.1520271622189118,0.17938871887873772,-0.09007039720250833,-0.03065194016808719,0.13155374755078766,0.1398776590777273,0.05848335586734142,0.019993490973638905,-0.013488950890658302,0.044306325505651674,0.052942366964766785,0.03276039767131746,0.16487887777341334,-0.13680678436467264,-0.03912756578115509,-0.023748257321510455,-0.002765052432411544,-0.5012804077313344,0.043837184279071524],[-0.19503027708008108,0.037869170465991225,0.025375592948211838,0.08059712223581066,-0.020649299283297746,-0.09627962051503092,-0.00658150449505902,-0.18931606904772358,-0.14819038769519122,0.005880097354946227,0.27332303228947197,-0.13175618002961065,0.32784669224761487,-0.06952839594582746,0.07474833640122966,-0.0511747091651563,0.0009849175958513406,0.17338604781172678,-0.09024162039993902,0.0378157043970453,0.258711758365017,-0.012059035555694507,-0.07994145189671777,0.02129228840661787,0.10782505375867509,-0.23657498392390341,-0.1910908890735385,-0.20585088967451645,0.18920955628145064,0.2064853120947644,0.26940453459502467,-0.08343511834360416,-0.11199367444200245,0.055279602998318016,0.018068895484470146,0.0060971199526144194,-0.1066144475695707,-0.12830343613423412,0.2800739847512416,-0.00009758019879017372,-0.0852372691970634,-0.05816546644951304,-0.1420244480778169,-0.011898597500985037,0.03910239901498166,-0.13410501543744155,0.05292949461212875,0.16369044831998217],[0.06219815645816983,-0.02841885471732647,0.08141785086450778,-0.11667088452183612,-0.052245299930746794,0.1015708815357706,0.03835573231932991,0.04101567287115674,0.04604342523567535,0.13477556183137648,0.12179023669800275,0.10000851849104947,0.15367842556665198,-0.07398587142893842,-0.10593258298219198,0.05727142896040171,-0.03854575706362202,0.03597807418780332,-0.14605488331091573,-0.06457129783620993,-0.0541599162740847,-0.1306815871020716,-0.07248572645999259,0.0028423999845583955,-0.1177561187371969,-0.2823321507888908,-0.01267198262546416,-0.04445913172380531,-0.15440688953126142,-0.03579494304529929,0.1079614773760684,0.08576866747880946,0.06717783527394053,0.14682298102922123,-0.1550536414437912,0.14945460408597688,0.08300125245483743,0.0035880686578281373,0.11339603543966491,-0.318191355323235,-0.07071655384625648,-0.11280819879991033,0.16421160499803406,-0.032434179461303586,0.06950989457452988,0.043366905126373693,0.2717745959731015,-0.1188537341434067],[-0.18655770784978984,0.1810004832505319,0.07768038552795863,-0.2937898097600222,-0.13018400034243877,-0.06934159696279248,0.040741378552396346,0.142562068469215,0.17286103848669646,-0.17505312663115605,-0.13772083595701365,-0.03947140764236227,0.13325889170926555,-0.047960424496344786,0.010470100490952847,0.11802254325238047,-0.20457171193736604,-0.10813531526443153,-0.09070890545451403,-0.1343036466296576,0.024246171822144322,0.046106970555533575,-0.08590798170270608,-0.18163166680237466,-0.26110530625986095,0.009556584376773406,0.2398965405478347,-0.10094633298901431,-0.02685606263413083,-0.015919383601552574,-0.025300188455205184,-0.05909751789363241,0.07824452447571041,-0.2523253317660391,-0.10783893990425199,0.07511154684093442,-0.07038821723445712,0.1074615454794282,-0.07204948988349513,-0.2375104894763749,-0.23076944139084304,0.06339340239551494,-0.23147147606872384,-0.19781605923575263,-0.24607361924580978,-0.003249306005702263,-0.004764645987388883,-0.13528346036242253],[0.29795807225301846,0.3266185703109205,-0.02883945235893663,0.05759901731249378,-0.10782778733723106,-0.19342700377462,-0.046564002819256115,-0.2011009658102351,0.1602911659561592,0.24781990234464563,-0.30684774445576185,-0.16304769984875847,0.19999651434435206,-0.2601730490204077,-0.2450251712553187,-0.032305444045859374,0.15471241029057559,-0.12367415770861205,0.025052171143972284,0.040300466801416426,0.0651022556172764,-0.05105808290440648,-0.03141480809684474,-0.09823541132451215,0.0661630018352652,0.047251706057786905,0.03699331368254826,0.0077247758524424765,0.10728193292985738,-0.012657765940812409,-0.09509361438489988,-0.15753376755895973,0.0858329846424598,0.05358885642604081,0.09630337510786273,-0.06873272930828539,-0.025014884104773955,0.1338368896303733,-0.09203432224595569,-0.012993949413730615,-0.05262846581243191,0.1144328013971105,0.02969869538496285,-0.15350466054884437,0.11534073978169494,-0.002494477145297926,-0.01308046398152357,-0.020288191686483794],[0.25631147831456386,-0.09823252325014353,-0.007584419251875798,0.04350712313923772,-0.021009410423314338,-0.007882166158998751,0.24096956777555345,-0.1270179776397257,-0.06541812643424094,0.1849279576821945,0.11431193227717418,-0.019617358162016835,0.1337741261730668,0.2753126707614421,0.03404150356797869,0.08086413051637499,-0.01964593328529146,-0.06474758140502371,0.153985309365476,-0.23119191625321933,-0.17229865909238148,0.07283267607508113,-0.14192900889876794,0.19921284379724302,0.4360374866394943,-0.18800997400490843,-0.10151642475350957,-0.030154553974853025,-0.1521260540581413,-0.06712618930389838,0.0697805652531031,0.03943596631500611,-0.07155241056704406,0.04417929374076639,0.06684186779297309,0.0415911019382513,0.1098541022674402,-0.18447925110796204,-0.007917066131128492,-0.15517514302853966,-0.16175164485823035,-0.25523892642306034,0.022168939491863323,0.08957890509903546,-0.15284141670394152,-0.11847022855912519,0.012599798093590249,-0.1583617019068564],[-0.23158867345231682,-0.002812387947895304,-0.047790749591810226,0.03446464085357051,-0.06570331118750738,0.13129204939440708,-0.014606828500712401,-0.10137247509116305,-0.16178809695059018,0.2553000618689762,-0.030796425277676558,0.0723952729988406,0.08830804648430866,0.10280231984219486,0.15784700240748986,-0.027452812280496352,0.0413502028307116,-0.1913049483159705,-0.23278080609434662,0.11870783673416384,0.18077085931886827,-0.023308647867833474,0.11360827805027299,-0.048075692075622706,0.0711172335799942,0.03939888462244778,-0.14420466486908867,-0.15801969504641852,-0.24248543335207465,0.14761299216229912,-0.1211295084971892,-0.13667398684232585,-0.07672043306107902,-0.019354518812321333,-0.2769754882159683,-0.18226883398632357,-0.10224068757619677,0.3261265358220955,-0.2063037504500867,-0.07522714290495693,0.11511245686291,-0.2284317539023058,-0.21197767983686666,0.035291275149577084,-0.06261058659412894,0.021505298261379972,0.12242160436463048,-0.17967030276396923],[-0.11589182789616186,-0.1078428905741494,-0.10270564371129105,0.18197910263376804,-0.006363555910940887,-0.0042654053576279445,-0.03177852103945522,0.0214578362161572,0.01929455547400865,-0.12365310954020277,-0.016372152269872046,-0.14929654855143823,-0.10359991151105448,0.020444918616984137,0.17615475239582615,-0.3590298301996549,-0.11476794147278598,-0.07862736343857701,0.14212094449587365,-0.03026230280553432,-0.017573118647689536,-0.16975358742921562,-0.21777958267403508,-0.1989416364620648,-0.17943384442388538,-0.034664988243557765,0.08552236428748419,0.06915790921794042,-0.08393396986884046,0.1791644297643825,-0.1422537139224434,0.12245308086534593,-0.15514306123401908,0.1484146812550179,-0.1601586753622818,0.06093550360210332,0.028711613013069407,0.17796658716091635,0.1818673655475725,0.06800208044854868,-0.08236608871018199,0.09501058914757816,0.1352792512262411,-0.25774272158832384,-0.12305995714980154,-0.2314659362691286,0.012569482082829785,-0.06191664416475567],[-0.3618086414688985,0.09091267301201046,0.00892366146303548,-0.06576776538075849,-0.36012462955574126,-0.05642136105630564,0.10433829795804517,-0.14801624243685205,-0.20617821702888164,-0.1070376910234748,-0.24377747433067481,0.02664018451927286,-0.04717119645569515,-0.1551658703108408,0.06917950810442665,0.13965091485355288,-0.07708434327340291,-0.15826143585095714,-0.043436835981007595,-0.16068366350480912,-0.0691305614906635,-0.28724047110859624,-0.22002305896837826,-0.13432965079138093,0.05211935969619118,0.17751886207362705,-0.09027198253762901,-0.23744047903215101,-0.1889867746154746,-0.010391244461696585,0.015610977773050802,-0.12015705018161998,-0.03139001932856372,-0.1901078397460835,0.017422012857465523,0.07516342193508208,0.13007312405010893,0.1595698829881295,0.22195754272686172,-0.16597579916188385,0.03862270832800713,0.32689201890772285,0.12309680032335785,-0.013194203050094395,0.0800286233281646,0.024796150340568854,0.11456771704225815,-0.09489535353902412],[0.006183369723866378,-0.14426339706499888,0.16090847973423184,0.0614667051593897,-0.08850981309981405,0.06824583966316487,-0.03394926203712517,-0.12114838911997791,-0.11860686671759547,0.22926573374845313,-0.10380146856815524,0.24534297164289257,0.015754506222091104,0.015579085589383233,-0.024975210223631788,0.05720592397947768,0.029616229161770192,0.11588836539827786,0.057772712489089204,0.12595270107531806,-0.12588170561596862,-0.03334231731497528,0.014793220595224931,-0.20557208966091953,0.027583406358111455,0.1927864899817737,0.23017157924017367,0.04756261368937433,-0.18890768388156015,-0.14571139094700122,-0.17037626408496218,-0.21130297292415162,0.12940526962978352,-0.176231966745646,0.09411452971840498,-0.02045824308586581,0.1796248963147197,0.16813014266953394,0.17954588074383124,-0.025456040455966722,0.12739545354902185,0.07683996572155159,0.1610879254193836,-0.08881139238867357,0.014970286563495616,-0.2135765136639596,-0.21454826504845695,0.006742248448816013],[-0.016219390690688007,0.15856410942730217,0.15424532277401523,-0.06994131638454387,0.04019439865484966,-0.0774520701510372,0.05670489107675431,0.06606574215076094,-0.14320442834605818,-0.08217794625274559,0.008860313622138799,0.3062230745899379,-0.07652149761277004,-0.05623957613482365,0.04933267159097667,0.09260478841149712,-0.1262944855621092,-0.12827722691448395,-0.06745565031530794,0.14438405532949491,-0.14059567745149448,0.010332857122712395,-0.08620541649206097,-0.054821840096827223,-0.07074570514805752,0.03475311459163137,-0.006223814626044069,-0.13678999749029708,-0.14531312944793096,0.1599708155109295,-0.1394999415467491,0.21435996460390888,0.0015747787638499026,-0.05080791676265885,0.12350446409750368,0.211518740059706,0.10729794435652362,0.024979917553510624,-0.08857714227977036,-0.0349754107692964,-0.006266746861313046,-0.14602974514314723,-0.012407066600573682,0.2484538447867634,0.09689910241207038,0.3349302729682276,0.040430328331562244,-0.012106660084149951],[-0.27538273835797533,0.04884547494180917,-0.04876899616690516,-0.05314107992534525,-0.07601956171139386,0.18631432432473255,0.040602792128798755,0.22613296314763454,-0.03168330821543304,-0.24361462800449438,0.2885114701023436,-0.01044784055052701,-0.035805894822097804,-0.019977253109414794,0.0015251415533263629,0.02552994552909394,0.09818269974929912,0.09639375196546622,0.010298209762048108,-0.05924096463308566,0.07811603093847135,-0.026758456768013947,0.04382323207503189,-0.17189014713016879,0.18275015574594233,0.11550926737870862,0.0852042625530168,0.10186064587704416,-0.04561372679985401,0.11886014193896402,-0.01630149456731235,0.1391597999003548,-0.061148156225690455,0.1673699524733944,0.1462564865808281,0.04425458882871159,-0.05715133666494532,0.018925077899954346,-0.03237656583839413,0.038913711667470215,0.10687946512730559,0.011475036047993012,-0.1344765004985068,-0.1606373567777609,0.20080541468992902,0.16620503741676051,0.004940457719510421,-0.1835134671185875],[-0.25552650043565955,-0.27949966322085185,0.1914793372019671,-0.007267896695839856,0.5951806441651223,-0.1299358593255996,-0.10456204089373801,0.11702596243783905,-0.005136650017044072,0.04192382431458242,0.016854979355428835,-0.07143017237103798,-0.05104915530631844,-0.0790677524759724,-0.10134944616750674,0.20914332282822312,-0.041160003516953064,-0.050166764866116695,0.12160281361937532,-0.053509978590233084,-0.3014280600180537,-0.013622173829746441,-0.20385397619986498,-0.33101719990017925,-0.02594064940006534,-0.04491537949520996,-0.23185729706246339,0.031107987142611742,0.1484451798511757,0.12880529215834294,0.15176109285261646,0.053671398628099776,-0.04810219664176628,-0.16248517919794406,0.10321211414243506,0.052384899906647624,0.03504306806683502,0.01753179404174865,-0.10507568880783762,0.0449252124800605,-0.11786789667479347,-0.1107048195102852,-0.10829711821026589,0.12619577021332395,0.15932306493925433,-0.06875931433778132,-0.015228955999680754,0.033919955745661104],[-0.26409561594524505,-0.07950953205999,0.13843184163285088,0.12020261160038405,-0.27076991865892974,-0.006113004009434759,-0.04285504285144676,0.08602538356262328,-0.11903638663990394,-0.21461018962472836,-0.08634335177666157,-0.18169410411114745,-0.05048379162367792,-0.01206190312677082,0.11997210995583535,0.11858833526688364,0.0032052896991198545,-0.1620036107429594,0.07169872930327982,0.03871223699750907,-0.09435842652994,-0.1359154579290612,-0.11485381896006795,-0.02322665248658707,-0.06134730924206234,0.10160276404324019,0.032356452287842195,0.12422601011320263,-0.19602059874026617,-0.10241307838450628,0.00809907356862072,0.14426922600011058,-0.044320552745047946,-0.05219080552164664,-0.07530600511266877,-0.033357486863722585,-0.06604114523671362,-0.028230151762517263,-0.03567310311681635,-0.01608985164764816,-0.029756807041305382,0.08689675625781666,-0.18093129780494413,-0.19879135867422817,0.1316652925625055,-0.0460326743212059,-0.0672430885457458,-0.2472778264191751]],"biases":[0.18751929403003692,-0.22092381329916086,0.012425636770707647,0.024475224499212012,-0.0719654326772734,0.18931295960346128,0.09817159714855547,0.0053909836277377205,0.13504049239090055,-0.017051180821073632,0.028324233810548067,0.16765362774096657,-0.06087116759483612,0.06985964898355584,0.21407237719305566,0.02075293548051616,0.043729602082083194,-0.02457916384354827,-0.03403749242686093,-0.011595100198722409,0.07469121457541707,0.057270332364887114,0.008175700018069868,0.06995573418999954,-0.039869989297276476,0.11922548690804517,0.06162762474051735,0.0999503793968016,0.047600224572471025,0.002696395345648544,-0.013990235017489253,0.043868906134146894,0.11351662799127744,-0.031516698078318535,0.003770481035112678,-0.05103220419375821,-0.17714953895164504,0.14019668534772217,-0.005281778616086461,0.13752803947204476,0.04765129082516192,-0.05906900907284444,-0.01735791006268121,-0.052266817605321,0.0027488270970709144,0.03967319609421047,-0.015069743084632312,0.009656782531560694,-0.0007720046981229331,0.01208982525433361,-0.1934253571020386,0.025361609798408975,0.10267019585535513,0.0003524328362152092,-0.17783135683154183,-0.026174600207376917,0.018859397025341028,-0.019000924590689857,0.04964411321396749,-0.05362520556919235,0.0725868154241938,-0.05651216422295297,-0.00807813376593612,-0.00030209099003115767]},{"weights":[[-0.07383327986467339,0.2809109925400914,0.005549004540813869,0.2031978094736438,0.04643585920206062,0.007899022907784227,-0.41209155781153733,-0.033952288882961645,0.06378673525646615,0.060448004763230735,0.05801558496272017,0.008757852743479233,-0.09161177121207667,-0.07415083504448974,0.32732808809156544,-0.24381526904511724,0.06603381898865145,0.17051615947949025,-0.06822673874605832,0.23478422498498214,-0.14735353772559043,0.04536780752281377,0.18666421002982173,0.03897605948172797,0.08408894430505719,-0.06781834572088591,0.2303972415327172,-0.21325686054854892,0.30464204009421303,0.02378828053106806,0.1256366856527025,0.15738106816835645,0.3512481170462038,-0.05900897670987322,0.07095433933868116,0.10544226119213851,-0.2619600529679181,0.18933908685611453,-0.24811598250944386,0.3034074427451917,-0.2053445468835212,0.0146223776343337,0.010627790424220835,0.15514093421410685,-0.03562703047794731,-0.14427601215316385,0.14669746374473197,-0.35222440668679894,0.07300938575048445,-0.11694492732055732,-0.09851426512496966,-0.05151133046324903,-0.05945746368372299,0.030216428369052882,0.10959275778792846,0.07652456294220993,-0.20508475871129084,0.13823296336934485,0.013244205237251066,0.04948631191340924,0.29485471939610064,-0.223907208346526,-0.22670742298682997,0.08461330659855384],[0.08575513547780918,0.16786788236728312,0.035825047042556374,-0.04455913216715017,-0.23925948795942362,-0.12397606972004106,-0.21703256133493573,-0.349215488962824,0.09335154855580084,0.0026660739162488348,0.20640175683022646,0.10329828034266512,-0.1273567905866403,-0.02091060940056797,0.1791002328684602,0.06312123132553728,-0.13524513133802205,0.39542745619632946,0.03935088797093169,0.052440776160935176,-0.2297376722379277,0.129172492868932,-0.09382887201108828,-0.039131993264202865,-0.03382204732819756,0.23145838411061687,-0.06634622361073816,-0.16144283294949377,-0.06651117919010566,-0.07715774944866977,-0.1598626687379898,-0.26579702415385603,-0.22789815492130436,0.06915061082820853,-0.12122374047371856,-0.07451151221312342,0.5204754169327314,-0.25700904670890695,0.11138524817641594,-0.21831163475882542,0.07079559502322268,0.11996525955221367,-0.00856592470877212,0.08700761565435677,0.1754593671395671,0.21205130938960576,-0.19902123767678462,0.0453530837163344,0.13523215011150108,0.011921125691066545,0.1665988393971533,0.12625913392087404,-0.16366297089238654,0.12358309333603926,0.2828392649822268,0.12385997500136052,-0.0795874008297099,0.06677830025781183,0.2901445309824031,-0.20216999311445477,0.3289232261779992,0.014846029826349671,0.13377273606540657,0.0034127181917860214],[-0.3241072665930954,0.5891875136462839,0.07162234175301777,0.05926763741577961,0.0310009060108538,-0.29681899746624285,-0.1990771767788404,0.12504975911571625,-0.013540121342573713,0.27725877757703365,0.17131576172688628,-0.5049108624944132,-0.04916886636297676,0.04476362029878125,-0.48405108075221803,-0.062245161506789264,-0.1650522636864635,0.28221409964674027,-0.13551080676737393,-0.032515336778817995,0.23266082121121448,0.10220313214701839,0.11378189800910767,-0.2522547913304005,0.3760776050277098,-0.12049482948205678,-0.021923627564186712,0.22990366056440856,-0.19580694270742352,0.2945694795217944,0.03277445689677494,-0.15825302292763327,-0.4481679843358057,0.022517388973987792,0.1420779732212294,-0.06362951127073084,0.5696633878982368,-0.1349773271063281,0.16085437103326222,-0.13172507587531862,-0.07514734922893006,-0.06952758819724289,0.15542672899040622,0.06929127321682739,-0.027972463258392647,0.06785190181128255,0.04393286537251631,-0.37760570970456836,-0.36491921008178885,-0.03777243985732019,0.0015965857161540893,-0.2088162003152049,-0.009575448267664917,-0.16439929531731196,0.3519100514212729,0.1279492066197282,-0.08245209694446493,-0.06573722676543801,-0.23993601025692363,0.04570826596961495,0.06592296456055784,0.036055251377612216,0.027766484051076,-0.24337558065492565],[0.0740234368631475,-0.14749057635686313,-0.18546594809750375,-0.013761718257757845,-0.2451253099579817,0.11038616070050296,0.24656788121231693,-0.134296212731646,0.21912782361215252,-0.0160277510038297,0.043565762548819414,0.0007049143321275556,-0.15296235960383123,0.15756760292516905,0.4140468297275086,0.3942725434077508,-0.00863096061992239,0.15520496685270962,0.1340327326727793,0.1421023774034127,0.38066070445287875,-0.03905143231399849,0.2794648816366706,-0.08716067532236228,0.13258785103892878,0.17139076146346802,0.22865438220530174,0.060006972228118745,0.250686240224608,-0.07894922860804203,0.14635101509794746,0.03561317447195049,-0.184374488270949,0.00796492326794,0.18543908772144554,-0.3389644971218425,-0.254963003033336,0.35211817136121687,0.14156565077139424,-0.13234890867743573,-0.17943166934377444,-0.019595678865514988,-0.31593875104845803,0.116428957377982,-0.07542249309792175,0.011484455917810195,0.02516482415671022,-0.07325243749160543,0.07792779724709482,0.1888941374053508,-0.488176761817793,-0.2578427583813274,0.054644572360980206,-0.14027699162625815,-0.09353264919461168,-0.10487193710855687,-0.1556018428403991,-0.2880601437668549,0.025107957990825852,0.05481192447336282,0.09290714149693738,-0.11774161964649517,-0.07646103200986559,0.21804828261488368],[0.10096704959056371,-0.1299240631073899,-0.2205472306046751,0.20551707729526006,-0.1199080543904474,0.123635536327362,0.11214744232545519,0.23990989269874727,0.0791690361906869,0.05600045747246657,-0.11917562051607133,-0.10838720547726037,0.13945750782471766,-0.2783249892591083,-0.27619779477879486,0.0600341203531314,-0.1126489181253301,-0.13294343682447998,-0.13871782577914687,0.06328636663499634,0.07967294526873953,0.10792894126688261,0.2544769021242436,0.03896808001110529,0.018362045156337832,-0.20805083160278995,0.09320595578918353,-0.07312143533576586,-0.11831376546998958,-0.10054935582518243,0.2410764276661533,-0.24177407722726046,-0.22860696422849414,0.14959835739369062,0.001156921106407464,0.10066445355278754,-0.07905167174842072,0.31459011055915814,-0.04023200241775373,0.11878279538777597,-0.1639196112633042,0.04046414187660337,-0.1034870101816582,-0.01606835569624132,0.014185051221486984,-0.3192168187235144,0.009697959999226038,0.13469194810389504,-0.13734203758332258,0.02199917480176642,-0.20790545049877168,0.13235387752205485,0.10578837535120786,0.06543121282463359,0.08868470194079678,0.053663722507311586,-0.10240062441426243,0.06733317230991565,-0.03665478699716443,-0.2270724101775346,-0.13385881246942472,0.09059256362284242,0.16600371634290084,0.01875523124290988],[0.017783693403738036,-0.2190992376800884,0.05149670042866676,0.3465717098688934,0.09284918013075202,0.12449950057106517,0.3142218416334948,-0.02913943051197811,0.015098428313204402,-0.10344717884384325,0.10139047476670932,0.0511579650028685,-0.04335613320671342,0.10766744303003586,0.058501349287540486,0.0066061495266843285,0.142338379737207,-0.14572999889631466,0.06643127706925865,-0.051996405553273894,0.3092397712795625,-0.20563993802699695,-0.018038723668437628,-0.010473542576038062,-0.003489327952538878,-0.02870903654394594,0.016774381399916573,-0.020816010944568853,-0.07951611543210105,-0.12729456815380585,0.1151972008034366,0.10390865694330083,0.2581646647517051,-0.02940351201034728,-0.10851283428918895,0.3397999394101024,0.06876792259145482,-0.1183584639103027,0.08939961336374816,0.12248878652832894,-0.1688090205524258,0.022565680945192113,-0.02007165453960389,-0.11546380766310352,0.03268244699348999,-0.062211449550386724,0.034915774705699086,-0.20388707018990648,0.010146531885231217,0.07737226975752583,-0.16109686915610644,0.04400560897808891,-0.1242214095937116,-0.06585805619022453,-0.0979210400255575,-0.289644994284336,0.2972550558315558,-0.005969566298873717,-0.26912385580023807,0.05072695985232806,0.33047402200501064,0.06728599962215397,0.12489486008806198,0.06687460772369395],[-0.1018253685470956,0.11121600897371603,-0.11792492292106867,0.1404561798827233,-0.0007006250536607035,0.09663980402957816,0.09949986101203165,0.1633829064665531,0.09207370243475169,0.08004082857535684,-0.28168873589766735,-0.08400206836399765,-0.13641565085980906,-0.057913975458613105,-0.06064522847484364,-0.14032999171311852,-0.0817650355503752,0.030306954415032575,-0.2160999203340905,0.2004675125664075,-0.04628673936425067,0.08269224683349263,-0.06046338398441334,0.22385515760818908,-0.18612306258121816,0.2783737130260684,-0.09342273153627925,0.043507465356231435,0.013609880010184022,0.2243727582109225,-0.05883668443371246,-0.34590942185360785,-0.0032169835977587853,0.1580633010713497,-0.019902157084958343,-0.11641627168767556,-0.10440519420510191,0.07709249857921212,-0.09061440707396858,-0.18718041621689602,0.047166879177664184,-0.08147737562705185,-0.14857236077157804,0.1476816983321712,-0.027654948351429502,-0.241057686978076,-0.12086037129204483,-0.14832477458411722,0.07046638130979255,0.027522759664013827,0.007349652832486486,0.0670790249608492,0.1075453178696914,0.12151167759612642,-0.139802339482174,0.2596593521924853,0.18847708484883602,0.22732690907902722,-0.06127755114349519,0.10701386429452554,-0.26090919091907966,-0.15473441277317196,-0.0023752087049536334,-0.05226575233960198],[-0.08272479650019067,0.35670407138030874,-0.1450605870513768,0.23449271307698846,0.11251448301116528,-0.20403676446724517,-0.32546142987271964,-0.093290439639858,0.07583337912486522,-0.04694443303165339,-0.10647045028042523,-0.11836485399980398,0.13148890238137495,0.25505526576978954,-0.13518455040527114,-0.024898361223015728,0.11521231796947945,0.13231356336099961,0.032224889940546654,0.14313829831480518,-0.1632787808257925,-0.14016037006351115,0.22568012463608794,-0.007215120595897768,0.04353754541849481,-0.07577883614751726,-0.23960104607777968,-0.08086697551496815,-0.10052011556772032,0.06028607950238895,-0.04554574902630869,0.050725708314743614,0.16801898736518314,0.07366376919748342,0.07777464366212812,0.14026791213824805,0.08585467003710116,0.2052718728534462,-0.21846626739666405,-0.044305429853651546,-0.062435472221699005,0.20247658245424568,0.06792358921834561,0.03727009664178581,0.13624233203812014,-0.2273692967911999,0.05452930071966648,0.07221397667080441,0.11729053123736521,-0.31028399484507346,0.2660155052997708,0.12794205746423581,0.008524466386834703,0.0467678995312435,0.18065053160162467,-0.09359647976110333,0.1611087796071591,-0.04629535905098058,-0.25935310432793035,0.21263357675686148,0.04941668422460167,-0.030746977570285917,-0.022338585811143785,0.022185187385106133],[0.046137397975049926,0.37407769394429613,-0.02232830761393101,0.10299623451913298,-0.2546908340730992,0.2304868546857907,0.29293891207106215,-0.09206343301663868,0.04124266195634196,0.18178143955141085,0.26550215844189107,-0.12142526815157498,0.03155192137052176,-0.11839291742105947,0.3377158232586947,-0.07293502248634195,-0.02035179618977452,-0.0336513476154684,0.15316707834585186,0.26978537200725966,-0.11464117676811804,0.05644899861905464,0.17204259705189107,0.19588539026591015,0.20236381216986238,0.24763654281347564,0.17703140894101266,-0.03832770547769057,0.10937207389189617,0.023795439974927463,0.23219948622390768,-0.2967021099512058,-0.1457691977955275,-0.0313108076500285,-0.12975549943519504,0.09548441588714132,0.21162963663859696,-0.006175742181181992,-0.0013916046328124325,-0.004973785727412088,-0.054270847042673036,0.16571684977056172,0.06463650472790855,-0.1601863780468558,-0.1834954912259947,0.19848466394286884,-0.2945972201229302,0.07842402443014793,-0.1480804673255869,0.04522294380977594,0.2762599876797372,-0.15735296647540323,-0.21541757905906567,0.2950885382694573,0.34426749335329315,0.029912725895927073,-0.1323655613989624,-0.000561769123063829,0.16766300447448265,-0.21164378370613587,0.14522660657149966,0.07754812126818156,0.0826391416226832,-0.0015949267853251558],[-0.029830522544033043,-0.35614707427448244,0.10127078326881034,0.13694420297543503,-0.02324979669674197,-0.02929582360914694,-0.006619277280204582,0.0710756779351647,0.14329510701440978,-0.2728575482145273,0.04301562539673417,-0.32817003836526587,0.30089395700322913,0.06397544752191762,0.1539057853535172,0.03126480158584794,0.29823608235596466,0.020555464324513367,-0.163415618783592,-0.12623997140312945,0.12285270934048649,0.2137842896325907,-0.08086459435273144,0.09696817282868622,0.07835686773383885,-0.06846418633466542,0.07945102063231081,0.15406185863939767,0.11642942604241961,-0.08892045318790379,0.0062572257635820005,-0.0601544949197972,0.17990770232019673,-0.050909012927988835,0.09904588433028605,0.18689406139223197,-0.09652928178308785,0.047904423174084304,0.06351605171969742,-0.009865546034101457,-0.019175027942682048,-0.24113328419348143,-0.1466218095815167,0.2055580282629278,-0.0834823237634009,0.14253557644675766,-0.042471016704084395,-0.008289857246170285,-0.1488820052249031,0.004426488884595466,-0.10724472636662469,0.09698599050082693,0.10604983584405708,-0.16398638113517985,0.05988413967345164,-0.42890914254536033,-0.04935396392496381,-0.05336699540926166,-0.08983765512031378,-0.016562926504247594,-0.1070088161387243,0.12746589682207057,-0.20877257238605856,0.1329760655997437],[-0.10554011368621226,0.014879520746222171,0.03707697735710675,-0.29089409990964554,-0.06336039058045834,0.021559043526327606,0.02606110150482284,-0.20569722079666353,0.14615617379559542,-0.03752544358020516,-0.05199805000819062,-0.03284883129828366,-0.1768466830989981,-0.02720337572253283,-0.05966366788791304,-0.20670858030035236,-0.10259771716872793,-0.012194754655218413,0.010288441871378333,0.06290773979232421,-0.023311226876547374,0.2262101546669465,-0.04828632942476971,0.009444334347191378,-0.15959687816977225,0.0030532559659535185,-0.019678113249328683,0.11485348407381946,-0.21556061018372974,-0.08992218629716035,0.0011465566054423904,0.30868864644804606,-0.27483279195282256,-0.06607342618505053,0.29312412722036857,0.09255687308454912,-0.12311495098966671,0.15104416535659296,-0.07954133300172864,-0.11458206708280318,-0.04974736798717414,-0.14814147511764247,0.10120368424974843,0.08865385829265965,-0.04741912073325559,0.05392697425874591,-0.025960836461471806,0.09513820411109475,-0.21686662675334237,0.08192818444572089,-0.37928278446560526,0.08323761256979925,0.012465327872724592,-0.15326494363916035,0.17483844131475876,-0.19333332815256069,0.09711237946036085,-0.05552499467216562,0.07976548070345302,-0.17166591957245445,0.011135235551613321,-0.03499923859479434,0.2290450980028435,-0.2519131553228307],[-0.04256553983173148,-0.2814136020579428,-0.08349805439400242,0.04875069487167138,0.03602958882087729,0.03408661975394234,0.1923506721712382,-0.024261948187580845,0.18283740119442637,0.0833495142873133,0.06364841985930111,0.2602895436703454,-0.14131077075629483,0.24733898425091616,-0.12725961710653907,0.063714765878335,0.04328291341457677,0.029445362253680038,0.07002241172425454,-0.16943428907119776,0.1775627229803267,-0.15780507367814148,-0.016927968812132065,0.21155808565805503,0.18012712793041838,-0.10175060894357973,0.2597350148385918,0.23825947509886325,0.09725281945315853,-0.00868588373953167,0.08148432409677486,-0.15221699905769337,0.07582256538960963,0.1173851571824326,-0.05759275497994458,-0.12140797702161264,-0.05731549940348013,-0.143801087137531,-0.21728714949642622,0.06201609380714133,0.14017597983338365,0.20538756113399537,-0.11985248929277607,-0.18646752736005284,-0.05499055871572475,-0.20114136375881164,0.2492277644551758,-0.3213500411069444,-0.007147708363402058,-0.01118780896242171,-0.14824655349152785,0.02360503708799816,0.08913975030045013,0.061064585620726836,-0.1135698062435554,0.19331477633576133,0.13956333240727292,0.08214174917662187,-0.07443562266007761,-0.06316822200473524,-0.08000618268124164,-0.03967518635512734,-0.1160057246750041,-0.07234809127063527],[-0.014122337302572518,0.04736008240078282,0.1281616158320378,-0.2671332694037027,-0.1246613459425951,0.18033682476689042,-0.037241733228738055,-0.25111007837023447,0.1397289274827505,0.030096612329742017,0.035596123132729064,-0.02468924487280123,-0.10848368192363089,0.021559301910529977,-0.016388491839929863,-0.07832833466563165,0.04708428123692239,0.06744409645002328,-0.02562870487860767,0.02582869639445778,-0.017276200489498357,-0.10835799220685453,0.0926469318737903,-0.06416067358301114,0.061139204884421795,0.2596956573799667,0.36540167659174716,-0.11948325641999533,0.0225440668807852,-0.11941250899140612,0.12013942498932637,-0.05392765761884453,-0.059026318809171835,0.2505626055895061,-0.25912337103272015,0.04419204374696097,-0.16800853147567618,0.14962198222783374,-0.2440311905469349,-0.04767591640177817,0.021766664777734618,0.009700072487176923,-0.23469600120311726,0.2597314803854366,-0.24244250906924175,-0.14973292733473612,-0.09404413254301978,-0.18924125682541018,0.020866030156452785,0.0985209462823359,0.19837475953790645,-0.026970882824838803,0.11699908064367262,0.18077774431231913,-0.10865838085002834,0.03717570498992626,0.07584530637337308,-0.1575024129061861,-0.005982203819970099,-0.09186409262776549,-0.09367565397592856,-0.009939632116976554,0.06533317503938849,-0.2416312488342007],[-0.1106528634451686,0.35374079328554614,-0.14448636806453433,-0.07242057130496538,-0.02488263588020771,-0.34608979443366666,-0.1483852644723468,-0.13122228308852937,-0.14877988744333973,-0.18308041645927353,-0.20252733987055693,-0.1548809748119337,0.16544530435406743,0.24924999561742703,-0.03447148821032049,0.1624383061498777,-0.19939170136656534,0.06482652070183868,-0.10040384808896037,0.2984348171304316,0.2884901385160489,-0.10891098472468072,0.21641021374882446,-0.15177720969641462,0.020022690230003297,0.08849927897223624,0.07579376171965212,0.05329759300878993,-0.19755549891463203,-0.20992368747481113,0.0020811864576509016,0.025114746969102163,-0.12004511850997948,0.09063878585876117,-0.01081543719171071,-0.07868646082473203,0.16745159933742493,-0.12694437774998232,0.04918027552954689,0.2848535216781599,0.13638648988535695,-0.14136514356248372,-0.17665624209209488,0.4050506550201493,0.07324455340128512,0.5249213865485134,-0.1238817797799803,-0.04188512979279663,0.03513939298485646,-0.10585618555616093,0.2339089126752366,0.17028447228691973,-0.16739851410455903,0.015938410462054502,0.12206133912363662,0.07401758172650383,0.0848602315160293,-0.0472901974749398,-0.08088506162884306,0.07612918081353748,-0.007450678275947482,-0.1442111123795854,0.28636137177449206,-0.09268802286515523],[0.25653114362637874,0.1113435631548902,-0.10296191431789174,-0.05966144600609943,-0.3442632597043777,-0.07445877519102422,0.10146349110045833,0.06591051586860142,0.015845030565643053,0.4162535936632823,0.08871728724304634,-0.16920964271543762,-0.07296495663140469,0.07931396387841347,0.17120413853858157,0.37194410994336763,0.10090815970474071,0.34959332758950407,0.33816208286092897,0.08686416176296294,0.2147379953519562,-0.45312405159488106,-0.15324630130066377,-0.0987804658537532,0.16634924958599248,0.24186689003064576,0.14005265556989055,0.3313995520439262,-0.09652486996318252,0.10576432289424638,-0.07328167608529343,-0.09142943865564214,-0.004245501902693425,0.05798168307974431,-0.06471247382705171,-0.20124279010697146,0.307833395593895,0.4697747251391625,0.2470015156207576,-0.5117606382694649,-0.2101550888281824,-0.22743978076091265,-0.015718501573420127,0.016123999313824657,-0.044927090167339596,-0.312862422378616,-0.030549295516358405,0.27990158916897173,-0.2553678039249348,-0.1727823924761415,-0.2309617767627409,-0.0019888464457038274,0.1762561396533395,0.06828830396172846,-0.07348067047901193,-0.09388840570661076,0.1253553536801529,-0.304534513890938,-0.21415977841363149,0.040659259118615336,0.20682976031253683,-0.10723987056191596,-0.02052422395414114,-0.0046673459403305],[0.03599243914403278,0.03322587214675896,-0.03408576529388364,0.07882330006798591,0.16637612704760546,-0.12643021399927767,0.223786060165328,0.07882616347718477,-0.22630636708369886,0.32713090022295166,0.1111327046624178,0.3195190157932397,-0.12000169991578713,-0.06347538579984749,0.1825321471494751,-0.296917648951487,0.2413541093226506,-0.14040809628989157,0.12687955809536208,0.17275298577494844,0.09481084656710304,-0.23433032383604113,0.07091778454915028,0.04290933619142489,-0.2721599176659572,-0.008972927451156803,-0.17571617643501752,-0.08170802284217604,-0.038544851166294386,-0.03143108993933345,0.08679389111118,0.06273377568416263,0.1019454302408061,-0.007184455862036633,0.0750832021562342,-0.20146548983843812,0.24950485242940293,-0.13468154858509204,-0.2055100563383734,0.12054336214706278,-0.0004212823315791151,-0.11631030684865873,-0.051937408674953445,0.07665613441628767,-0.10889622615067776,0.10695703993527433,-0.22171831505679282,0.2561382634750186,0.3950195859494279,0.019746811763033455,0.2390897027525266,0.08128906354477752,0.08092124630874535,-0.010367718412206288,-0.06633205745965717,-0.06807531382212889,0.24423651602883764,-0.11092535489221139,-0.05992300965270376,0.001585369697614217,-0.02487238038115546,-0.18678192713818922,0.24432033771014514,0.1616205873009213],[-0.0055392249631267656,-0.13878304850762715,0.1090066350636511,0.0541519698954369,0.1685135685427128,0.12260298081986405,-0.31643385729267265,0.38196282499559553,0.005260629341331517,0.20922263791570408,-0.25457785971745234,0.0038126735176805637,-0.14634734356561996,-0.0779597865599373,0.2526482397486182,0.0759093612835373,-0.20352433229212785,0.06377437701998907,0.1029518140729511,-0.014442959964262364,0.026088027474427095,-0.03413718061947556,0.22350756120360102,-0.04263639825255015,-0.06989238906322538,0.23545535915912716,0.035897352608864896,-0.002401875055218516,-0.007387564244332852,0.02888445031304282,-0.18389726079245236,-0.040919579614089374,-0.05439482176126265,-0.15580475839009103,0.10165267626887449,-0.12736149862623863,-0.1525569968242655,0.057415296614179226,-0.15634918677268325,0.06684334632671435,-0.2529678341028992,-0.061714418243077565,0.013299791788776074,0.279633851802065,-0.21082764204198368,0.24710413036623224,-0.0169071791804786,0.25579832430609967,0.08029485414405631,0.12391705176019205,0.009792906585069486,-0.3170237433596165,0.053525026624296486,0.18685037166295815,-0.037471079131525295,-0.2832602590462918,0.12623078825796805,-0.03246734844863155,-0.2147270031444548,0.0298163336498969,0.09988439283489098,0.13318312369379082,-0.16789452931904936,-0.1264503329335414],[0.14572574232090604,-0.14254173383414923,-0.1759600197531191,-0.10565130119503778,0.13288300214771162,-0.17091158610003504,0.13665665102581168,-0.1366910205552368,0.06844034215835072,-0.11305320053457853,-0.1698906687785335,-0.006832084981055746,-0.09565069312121106,0.305942966913108,0.09896683162262444,0.13499577094473933,-0.016417735498522264,0.15880040224024683,0.05262885961877648,-0.007950644722238208,0.1968601114727177,-0.07236343152713891,-0.2323100437897775,-0.1460083728583727,0.27639396023837043,0.34187871257079744,0.04500877963495527,0.29434172633368516,-0.021286496497791345,0.17547838743753413,0.04141102569623459,0.0691072170754256,-0.11566591328964358,0.009332656753535885,-0.054724712275807455,-0.1296876964729537,-0.008878756018231038,0.17659839985133188,-0.10125409857054725,-0.09954241497752937,-0.0507284651999685,-0.09966389897878128,0.2575241555649046,-0.24522408402473733,-0.19342230411955683,-0.21648452600599388,-0.25509559125654047,0.08477129988798071,0.29359411051554885,-0.044411621887341074,-0.36504260554464635,0.047260980396991545,0.42773019238432286,-0.09048565896827854,-0.036268068182308,-0.29426878594277567,-0.0814368620041509,-0.13934240890910018,-0.20720405383523155,0.20101257726523672,0.05147368968729773,-0.145906305234117,-0.10683862533091483,-0.21603163117197713],[-0.14388425154858878,0.08912795885965301,-0.009248901301838064,-0.04631977335428774,-0.11549066611203562,-0.2600948923537984,0.02392279928186893,-0.10591007882444896,0.1358277909727516,0.30716052344847045,-0.0808928185742722,-0.0507425172717561,0.3104592186760286,-0.0335743364412537,-0.05629741810135096,0.1348347247247309,-0.03849396002304994,-0.0480345259383751,0.20644364725530295,-0.17996632920021496,0.1796901263500486,-0.08140794298766992,-0.11407562973794949,0.05868450724130718,0.12815236138059954,-0.43903734071006095,-0.038635743525574376,0.23650182132739464,0.10086468952548046,-0.13547432061582182,-0.0524502963628679,0.1585693835112787,0.12441208056731455,-0.08676796579750004,-0.22463800292464256,0.21359685589058677,0.47738799361277534,-0.04247902010811643,-0.041769914062508975,0.2306648026819684,-0.03177705010354625,-0.029278836187428898,-0.02869710671962695,0.03647911774626296,0.0030186946363514352,-0.14445896646840078,-0.06348619387580084,-0.049162497902280944,-0.002175570145852815,-0.15410574016799236,0.36729560257074495,-0.10087776816578846,-0.36216620547266676,-0.025488227240449877,0.04330641904028856,0.15357903930509365,-0.07467499868870535,-0.05505768045909889,0.009583289669752753,-0.058329538030536074,-0.08745421647414049,-0.06353189840311423,-0.06381815476155765,-0.05103809435004674],[0.2641484318978789,0.05836374441469459,-0.18835380134521804,0.0686398534220913,-0.26764290995790685,-0.004361536341988672,-0.2005863926862935,-0.07678800409888083,-0.03261622217910975,0.026541783600138116,-0.14611504709372203,0.1591412141184387,-0.21132377657579593,0.22282227567923457,0.21770080471793493,0.5999765014237874,0.049340624654131526,0.04364690631818786,0.11756210805059614,-0.04441493944407973,0.25011104393325,-0.34338356981188556,0.11483414483809187,-0.035028256612323685,0.1147132886806691,0.35628426143835573,0.13441233045300816,0.21978813276092082,-0.14658749827816583,-0.10201676990836142,0.05550357626462721,-0.09899931975590323,-0.2386642167855304,0.14503368866906655,-0.16271674509347522,0.2354522046033718,0.08533193488485175,0.16338756675575553,0.10428448065038205,-0.2850108123543102,0.07914194225323488,-0.018763976171500933,-0.013752285843330879,0.0833630829386883,0.04761277894292625,-0.1365960689250798,0.008768186888885006,-0.018902603204237898,-0.10448719949519597,-0.22635035506945497,-0.20728264590790083,-0.20814349229927484,0.1457261860952993,-0.07879302686675178,0.06556084019617066,-0.21067463289183447,0.06617776817721716,0.2592286717708106,0.027977037600265455,-0.07934263031898282,0.2804404733789336,0.03582438944366659,0.050470357252741516,-0.0848948478208585],[0.011424059872846226,0.044548965200324885,0.14490117100854177,0.05604074790974036,0.10864507638270264,0.18410551986333723,-0.01747315368137897,0.013206311339118018,0.025436242152190282,-0.055234869666022486,0.0700755060558645,0.052301466465150576,0.09760705227217217,-0.26292716433509866,0.0614398065136568,0.08759768934953299,-0.060505523701346486,-0.10452513526978621,-0.0345709960009341,0.02127927300125867,-0.37534726500264853,-0.23453894206616682,0.026874842368739927,-0.17042494422072776,0.034042782794754096,0.08466216973801748,0.1850263809495503,0.07537548321656973,-0.025164759430808415,0.24132770142652113,-0.039969272823354385,0.2121247743913588,0.019965188203463862,0.031518016782008246,-0.19088686528238039,0.19270219593889246,0.04100296849115082,0.13205704281821415,0.11412772655891194,0.1224939584845359,0.0913384370808501,-0.11040235207313429,0.1230853772962655,-0.06314104698919118,0.06009614889113874,0.10198992622957848,0.10013326760148852,0.1034667082980828,0.04142260589414872,-0.24600356767387868,0.04304002864022984,-0.30800230414996355,-0.03230401029192542,-0.0589763625650362,-0.13124636321164435,0.1252221994631913,-0.08501358617810613,-0.21462044948226364,0.09533933777987555,-0.006093315713276702,0.040514042960418266,0.0067001176260100765,-0.06794548486752923,0.03266909253266942],[0.491311573362282,0.07948557408415759,0.028846292423721713,-0.021276720357919495,0.028902775057359602,-0.15077807705789417,0.16848735505244958,0.20689191073638652,0.04407242210721389,-0.038231207138616316,0.1591324104554175,-0.29106131440425576,0.09576124970476615,-0.07311063307240713,-0.03398201504844364,-0.3667248383128851,-0.1310686903012245,0.11926918886370083,0.13683622173816917,0.10053644631073014,-0.2633138668464241,0.31867154325189284,-0.14075759133735083,-0.03366280305568353,-0.30345798773917065,-0.39321858611285065,-0.15812419065319647,-0.002119480208668212,0.03289055896730333,-0.01662621630343782,0.18261190106126832,0.11966805878664426,-0.12746116319830447,0.13565919853095137,-0.08149154348888987,0.03482627407993625,0.18807008295889943,-0.14165652475320478,0.052554815466169726,0.2853033822746893,-0.07146808978182183,0.06336296945525953,-0.04358336191497006,-0.08414603845535237,0.0860343541713261,0.11952267245738464,-0.08600186119488977,0.10114822021726591,0.04934212261875808,0.008389823666272696,0.10076331288224022,0.20014123420114469,-0.027551575646747213,0.027062704849484538,0.08951416555967828,0.041444337156803665,-0.0248105719886055,0.17866142382178596,0.28266533359299545,-0.0492543039204996,0.2787677312835919,-0.011514467881537004,-0.07415213271888323,-0.15470671161660388],[-0.05562681818423266,-0.08534849263326601,-0.04241371712555596,-0.23195580956699569,0.07197786619063969,0.10602631327161134,0.11073533858731163,-0.07159509041624625,0.14988138857468264,-0.06539187658960467,-0.18511859858640223,0.007628100029697258,-0.10599686933279748,0.055989373552710525,-0.061467625892299954,-0.06288583402280114,-0.026108340069186418,0.17366489121901751,0.08336815481960091,0.023554439874941283,-0.1246925713393439,-0.0030861621111350985,-0.09036377825772657,0.04159661565934405,0.15031335889967595,0.017061119503486523,0.05502294953089572,0.09277595002640734,-0.06618726255001418,0.07511026554895976,0.25640884116677487,0.04699086565299651,-0.17218336993296088,-0.03797649359295783,-0.007820553695854899,0.007919130797827311,0.1673068349458852,0.3228161745980883,-0.15185489524589396,-0.19411393767832816,0.007847514239860928,-0.0916599543832705,-0.09538665547239115,0.028207552082256317,0.3356809436291521,0.012638057321115052,0.20248573419931132,-0.06387055189917441,0.2914611461473327,-0.07613818647539798,-0.05237515286398465,-0.33760737379731526,0.15028145376222177,0.08274318297525848,-0.005380216780363204,0.06290091916011496,-0.3466636092750038,-0.29198239208962196,-0.2318315967377163,0.11574843923901235,-0.16486868929438264,-0.1959481403781477,-0.17389457434440672,0.14212906767201264],[0.038090232811179715,-0.3456861547468593,-0.1739362902850234,-0.14464551487805116,0.0984758451750557,0.021502793085109547,0.16563354829148152,-0.10286525652777309,0.11539776500893062,0.048179170530489014,-0.24544046983580806,-0.09635057096000148,0.08666729154539211,0.0151017053231592,0.051052722225765554,0.03822223309326965,-0.24037273072805457,0.14348400836389222,-0.024646429256921218,-0.02384032662869852,-0.016688605139213733,-0.19452334239914332,-0.051772535292281326,0.031141102603307894,0.1292255905203133,-0.2326214082913073,0.2827739325314691,0.16964857300276112,-0.10074909920325752,0.013366048213455257,-0.07715950029105789,-0.16407248098167437,-0.14324767780464698,0.01712324196606735,0.1428478035933095,0.020643689544982025,0.009172080899895695,0.2679506950253259,0.11478913850428749,0.24885968335734485,-0.03448077882140871,-0.1342954931017556,0.09876394633921146,-0.2515341289430936,0.24200691934302507,-0.26170812782982894,-0.10844251499728537,-0.04315278518990671,0.011058672565023641,0.06979970148200529,-0.2845937343699944,0.027004561302535382,0.10652903802162199,0.044666588361265615,0.1250279792370868,-0.2568232533367751,0.16572807787041846,-0.0996914469385243,0.1258788672650375,-0.11676857181578319,-0.1024832228504001,0.24511376653486838,-0.13567981162992596,-0.01929318144170457],[-0.02194756967936004,-0.06994203154542125,-0.08233724615692399,-0.13642373663024934,0.11465661603981384,0.025994875505930836,0.05693739723656922,-0.020788894539617308,-0.32693176458596795,0.21953576807981803,-0.004166325315374502,-0.0700275985783865,-0.14833750452494268,-0.10352793911653972,0.07411780112014303,0.1490985999883139,0.000822514820327707,0.1104231570414958,-0.14528293184832317,0.0038303176201959924,0.1120989461814136,0.05440000141633878,0.015960274885304562,0.006817298878506027,-0.0181913805982555,0.10735710431178914,0.06171099471249146,0.0137882716387248,-0.09720173966361977,-0.12584343959777214,-0.04991525660204646,0.03476991078867802,0.23198050476029775,0.07746824007497354,0.15424190954137068,0.03643233639202157,-0.08506681548618254,-0.08963929025799024,-0.07072464017363254,-0.05208230470100892,-0.2431641506389952,-0.07982579705020518,0.1208397994765618,0.16491174526914348,-0.0024214550273152654,0.19040601460300213,-0.034563344291198506,-0.21741206153514717,0.28040886315070795,-0.0798667166410937,-0.254562623718912,-0.02477546941369812,0.22544238270573522,-0.042928166743069644,-0.09813900978719053,0.13232903942804022,-0.017421618309658108,-0.18503607066088504,0.15413190012261815,0.006297321947138503,0.024342254627728717,-0.13489769904967885,-0.13371764846653403,-0.09700472290488779],[0.07269484591800499,-0.15753946100018568,0.02149695590168632,0.2539238531695725,0.10377182803237982,-0.011807716767299718,0.07334561823489023,-0.0699870546483405,0.12159079865729641,-0.19777757451168632,0.29105604726248335,-0.19995399663322497,-0.1265763173223344,0.0438116103868661,0.2842660889199185,0.19278304402448224,0.14770331087591865,0.09314254099919889,0.34109038722117824,-0.00993736932848064,0.14725649679446035,-0.03101904945904136,-0.2655173150516934,-0.016882735019563316,0.231673908735182,0.22508634251945275,0.3726507134635761,0.13628736200504815,0.09847573440962433,-0.11405918277560766,0.060557901772531605,0.05612978481692749,-0.04493300626080796,-0.01969364330000394,-0.15149955483503313,-0.2450196971092789,-0.11055524646683294,0.20579952546813213,0.15661523116997048,-0.16714859130559415,-0.1688925172076195,-0.35115932026425684,0.04172499110512644,0.20415686505264696,0.09942178409290693,0.0887516098733835,-0.009107504950212316,-0.03878246032866388,-0.10802666549833706,0.02999017137759713,-0.3151381879144042,0.1316250118224823,-0.1077417212407811,0.20568128813634104,-0.08958658871444582,0.031015902485396304,-0.12973400892418857,0.10735281048700926,-0.17007437407698975,-0.16049979287543925,-0.033341644273643396,0.1707145736566037,-0.07009421966241823,0.103682683648996],[-0.29243020134539544,-0.021729112424112736,-0.17126966667796942,0.030748664161064018,-0.043525618009656035,0.262258274022028,0.03362985005291467,-0.3493561262004959,-0.1780544408060593,-0.1363947486290352,-0.038341677239470656,0.10936130603787128,0.012503363685246413,-0.1343768171701463,0.3664549639612732,-0.08240691418577396,0.21497794083015334,-0.17733139758199618,-0.04234954614654129,-0.0458050208515678,0.26725492331653905,0.08519897654188988,0.32073802861343037,0.09398783614800933,-0.14424450531472727,-0.019717672411369673,0.12008354951437826,0.14150590177576358,-0.09397738470275237,0.16316899558489648,-0.19869855624772795,0.15169872133885065,0.027028241316524457,-0.05968250135674513,-0.137219716712852,-0.25619829822617657,-0.31982864102518843,-0.0027968853994494,-0.2459076764991482,0.28186674644824644,0.029635676652261318,-0.026694937040396743,-0.01632157076283451,0.15030572117083674,0.037970617433947695,0.1037054564661926,-0.09995239487941796,0.06806950551286718,-0.12501379738151944,-0.19623363966259103,-0.08234577104437814,-0.1751819647066805,0.02423909547059087,0.0394069863800592,-0.008349329140310445,-0.12667490050848532,-0.32504960371062347,0.0431774392486961,-0.09531694557632663,0.3118033867116099,0.2591260802314747,-0.09694971273238216,-0.1939213333905713,0.05865149185711662],[-0.20612742578856796,-0.002193947916116735,0.25088450124242523,