{"layers":[{"weights":[[-1.2972417002840266,-0.4473265892799817,-0.1571201223934663,0.47340897778200863,1.0813318674719827,-0.4710730637557303,0.11424444161000173,-0.47533890771057474,-0.18744588752451063,-0.7644351077796419,0.5476956280496544,-0.16880596528524672,-1.3396451431121839,-0.622729057837352,0.39089222610898994,0.44441941184353506,-0.7778249482164287,-0.11884264870964766,-0.6883168220382496,-0.1840891606010799,-0.3469165408202947,-0.579568498051475,-0.29419308052798543,-0.5700786071249698,0.5138031359115522,0.16690870265151084,0.20794157199471747,-0.5415566210942033,-0.052473833062653644,0.2557362659354547,-0.9920175772494261,-0.08459436486752453,-0.4501890194878963,0.9080580935959381,0.022538216611817,-0.12315467381671574,-0.08486133916997506,0.35027053885465054,-0.16894647961036452,0.3457629663461684,-0.12543802220321407,0.039254494471566696,-0.060931904444813834,0.324794796779565,1.6243170154533484,1.9513761807149264,-0.07337063026626085,-0.7407460393726388,0.16524998236785057,-0.3380315821270832,0.5861357133970493,-0.23593724353029918,-0.32709865172657565,-0.09933538502226588],[1.3227511267050207,1.5631417930950182,-0.28613879894818084,1.2097835970516557,1.1975099488620446,0.7763618156547075,-0.4451721052560358,-0.25650954002471266,-0.26273430949852083,-0.4666807587381056,0.5665664342233576,-0.2609895933081563,-0.582365929789952,-0.42122724408106255,-0.11535003663853911,0.7081253476016044,-0.7724750942877974,-0.26386621510729086,-0.20512807644209566,-0.5815581424068763,0.5090465857159497,-0.06547737847632877,-0.2660194116366065,-0.6487760509322259,-0.6485047791182497,0.6010660448179921,-1.000327887012196,-0.5263032417013513,0.014551687557458034,-0.033741808048196945,-0.24581506609536075,-0.5241414912557936,-0.8638977744715988,-0.3924990762891974,-0.08734908113625231,0.10433436057027885,-0.17272659203820984,0.7025354408759001,0.07208922473110864,-0.034340311867550426,-0.1578690267237148,0.5450190641313025,-0.7408854309198263,0.31918204352399693,-2.573738681514825,-0.6959360800110428,-1.4494309943830248,0.38249308620081557,-0.42185103737652774,-0.208091722784716,-0.5125307882218968,0.68106461939134,0.8151803454285792,0.3341920566037006],[-0.25603976953351404,0.10140177565500506,0.30223029108940025,0.4221083895758538,-0.26666690391857195,-0.9292439242627665,0.6544307717220833,0.16194430036461083,-0.261486148176273,-0.3508881856606072,0.08369237330350987,-0.11780551743655733,0.2123204167406945,0.46718321467123897,-0.35022684174657026,-0.027504155967559788,-0.12785301743241523,-0.30309061713676955,-0.0029265632383330383,0.860936868853531,0.694110411170275,0.15505165687050448,-0.32587917421307505,0.3510871584591057,-0.039633163915874174,0.8535160037093465,0.21992672615513653,0.3959271927720313,-0.5655833495027923,-0.013379140110465936,0.5857950031539302,0.3065687830522337,-0.13066981143825318,-0.29919580847588007,-0.24370451958277517,0.03762487495145374,0.3591572603442844,-0.4740306447195918,-0.5251504918060165,-0.5583794272587452,-0.2501600641170521,-0.24012906343682996,-0.623411356472161,0.5142211293731672,-0.7079642123535382,0.707062504495731,-0.17869663575382846,0.6154545665858075,0.3827582907282467,0.005028847695989304,0.9403515664649109,-0.9889089650109163,0.2630036923190164,0.02845648882423559],[0.18894257960150346,0.18435314977787884,0.009654519150890732,-0.3785350987788653,0.09755004621740403,-0.317619435019117,0.1120607155161345,-0.36520036914930804,-0.5526184146259397,-0.039655099143986565,-0.37105498742954457,0.03415466561128744,-0.49039682953082653,-0.35091914448309686,-0.1715263041611944,-0.037169075727639896,0.01700859529814079,-0.27506834510288414,-0.24657578103755318,-0.5613001936172717,-0.27090091157505486,-0.5126259664542155,-0.39287356380838795,0.3247658398850705,0.5114002609767818,0.13403706876720878,-0.211312616824327,-0.11916026058462736,-0.0511682702316647,-0.40777370362386656,-0.4410833266456515,-0.22777677173791763,-0.3601628696471292,-0.32005997155481597,-0.009778584691863804,0.2553050675728736,-0.018286815889705814,0.4532397635428161,0.8043301420004189,-0.8439609335181957,0.014675830947668195,-0.8829168679776229,-0.5593087660623624,0.734571634388008,-0.23996655674166698,-0.8377875216509763,0.8647813328702295,-0.19754975935191377,0.8055712377406665,0.012423926891215097,-1.3605705767866025,-1.1056088736349674,-0.6663139173973348,0.0448211418455182],[-0.7823647517103726,-0.004166456792464741,-0.27124897227628975,0.09910305801714643,-0.11936423170090163,0.6563382944300619,0.6307206572447912,0.4344181408369196,-0.342644450974885,0.07791442889631015,0.2719811568673935,0.3416268469044455,0.5095575099677613,-0.20421131396546224,-0.24665182542379754,-0.0403473388646013,0.16080929285063061,-0.07500316650970598,0.007936158309043616,-0.07397374918072487,-0.27578685754104515,-0.34305063917594547,-0.059222127305907105,0.8111024193440199,-0.3982096621853363,0.8264511657637688,-0.09425852828318686,-0.5715930980891089,0.32233850602789055,0.0011330935131367613,-0.09423532515922713,0.16023287441516415,0.06849858715910631,0.19110965603900154,0.09089806135638473,-0.34508494209809587,-0.45309508588153946,0.29647177669512453,0.6301856197691537,0.23052532999063996,0.038625001339593776,-0.16205239549637077,0.3891900973226566,-0.5418684953880196,0.2345414557617076,1.1432745583680186,-0.24229655956474275,-0.4866557791209211,0.9410255603869576,0.30400202457058334,0.3255655136568653,0.28440634411694093,-0.4746994031391353,-0.10913588624332636],[0.6815669881142331,0.7487569364777776,0.2535852287669404,-0.12344563407348387,-0.7173969553931845,-0.07800192020957637,0.2977421207489517,0.16903635474283318,-0.11992581762477586,0.2708820269863185,0.42669352009596306,-0.02234802760969434,0.13156688126041513,0.4489239134408204,0.09416672008241457,-0.5798690431624217,0.27787947466134416,-0.2522552018147292,-0.01834259234146219,0.36343515416125727,-0.746132871195685,0.2951429103897753,-0.1584241918167511,-0.0026235913344804076,0.11793872748683165,-0.08617295780233954,-0.029861641154114653,-0.20641905303924557,-0.2824034852566637,0.3247084299089324,0.14162117828147294,-0.2515685454018539,0.3724963793590405,-0.30640188418675074,0.14891642363999982,0.3424472828437087,-0.08290611057226885,0.2654878125698905,-0.1345083328169127,0.17081381489918807,0.430076030850561,0.21335470129459272,0.6339315204460133,-0.583181745717485,-0.13214975914622906,-0.2366528640982611,-0.5696143199517774,-0.807129743754077,-0.18509181558706653,-0.19402803963372398,0.7946375126709485,-0.6595366686767278,1.609787921648054,-0.1902132758293792],[-0.6888267836632564,-1.121805631190426,-0.12335754984930851,0.10465587734167944,0.4303604711369847,-0.8443756266039274,0.44667216358821993,0.5135213829909612,0.5724272927508031,-1.3640193518141353,-0.008668654965227673,0.18325754644223202,0.054892716550725286,-0.34645908993012564,0.4934652155734026,-0.2858526968336049,-0.44073410827585224,-0.6620061078304539,0.5144572862826029,0.5746878078061792,-0.18183041094252478,-0.09459682682932537,0.6012731157306477,0.05691035830504012,0.29863567160438864,-0.7620426749649122,-1.0769321482043506,-0.41593252669303843,0.4948028539100283,1.0393934057435368,-0.19376621778444433,0.02988309136151717,0.4174953620816451,-0.4634798467598902,-0.27836470300253646,0.09093541921022928,-0.15064278566684125,0.05338623558187925,0.6009029576436373,-0.15854993655802052,0.19166330186373362,-0.2459819294376049,0.49678215483891236,0.25186205691840075,-0.3006942422118268,0.06027276714072063,0.09915551489966215,-0.23009088890580023,-0.07254461028436443,0.0710830082975768,0.31337162426449444,-0.12380189420437959,-0.5922853594854902,0.009524117670283582],[0.5355079342835668,0.5199927281118129,0.39582445943098415,0.6735684003665195,-0.26317141421293133,-0.001930183447886756,0.7661625417132713,0.12806603861833168,-0.134615925061256,-0.07837169732764669,-0.1843736411588225,0.25638304754779556,-0.10878441919923912,0.6073329382297706,0.26736372336582015,-0.4898296848644916,0.34689371817939774,0.16820211508978605,0.03040136245153066,0.12405578089090484,-0.19317226115376923,-0.4408230685550385,0.22774647922474398,-0.0049153096509611145,0.8382860778237634,-0.5697318721302942,0.3300882856818179,-0.7534812428985342,0.7746043242779164,0.5632884263812078,0.39846462313951153,-0.25918434724343475,0.6753814911324885,-0.7315518934263217,-0.12005082342076338,-0.011479225074670323,-0.37588946420197433,-0.07795596364470858,0.5282713674688213,0.20721492585857135,-0.14867754385119572,0.10635839719838676,-0.385790749073987,-0.6758567842322873,0.09333470184590159,0.2874773030552744,-0.14988044934814454,-0.27454322520468255,0.20157918823956994,0.06690593468890557,-1.0985669016989064,1.6298368378073986,-0.7889345201330894,-0.4128238265985564],[0.502210155980794,0.4971055656006283,-0.5268415304731915,-1.1256515638027216,-0.6310239072446377,0.4121130890144307,-0.03279443407488726,0.14809518041804484,-0.5786539424593191,0.859836910646834,0.6996090070814976,-0.02934321935123125,-0.6481781936478149,0.2369264517567291,0.23644562135782718,0.09470441997997957,0.5389201639490904,-0.7275380952830055,0.5639348123071959,0.3448599499825665,0.08994828918155495,0.17410938714822422,-0.3460052850253716,0.3608201760496551,-0.7324606580739709,0.030256569547227292,0.19735996933080793,-0.05500430545836943,-0.3301406599900192,0.5809696526319972,0.44358438600449707,-0.27521337910747146,0.055775384278846644,0.02309075844641173,-0.10939926042034254,0.7749028102878112,0.05385366876853014,-0.14336876185404468,-0.004410809310344781,-1.119423749637666,-0.09482799324128309,-0.38104350400336084,0.719150561000242,-0.45253121573040495,-1.8538658404338293,0.0900532450701656,0.4334350706428026,-0.001454797686922403,0.039804438732544134,-0.1396083140929957,-0.2742966244009839,-0.1920005737423209,-0.2842354173791334,-0.6050827887896012],[0.3713633476677809,0.14744239745419968,-0.18600795627509598,0.143371438128634,-0.19245646159200444,-1.6582137320335273,0.2545152741310248,-1.3509708193385328,0.5038169722759727,0.6039523374514411,-0.33754668820001504,-0.1618775203272373,-0.2541393546424724,0.5273809065664286,0.13202533280547152,-0.9063044080735206,-0.16885512817737794,-0.12285125925197815,-0.1737997661934288,0.3327551277725503,-0.5610062484161166,0.2613253406253805,-0.7616363905337463,0.6585280507265657,0.19429764649140077,-0.02377120419098792,0.16720853949604061,-0.04812797933513454,0.648222811134335,-0.4690715795279215,-0.3206120663065827,0.21971575964094317,0.26609952569448203,-0.29849340049776696,-0.22180263868676886,-0.3130815780069245,0.09165098408133622,-0.18127992397433407,0.6612578611475745,0.5009693120697627,-0.017759232970467175,-0.5229519289431795,0.24474141674139924,-0.5016254768906486,-0.8868784951417011,0.11302931372896334,0.18111011739570626,0.09161884836206782,0.8238391420615437,-0.23843974790814618,0.9783158466293412,-0.5882404693662382,-0.630381465981031,0.20874506745777857],[-0.013689857907088421,0.01808406623199769,0.1352064085058256,0.239709157421755,0.5884552965770518,0.9054235434762831,0.5434084697202954,0.5375299111189015,-0.19332697405983748,-0.0738834407252311,0.4541511868081412,0.028283121321585347,0.492327952662243,0.1563350186911612,0.10396957130478504,-0.801217968550274,0.3275713060745378,0.5349601094388733,0.10757602838989376,0.1065691296520917,-0.2299484161472733,-0.42563843857117817,0.6533415017263268,-0.2292622139926929,0.6337209943075369,-0.256913736665277,0.6014204769145675,-0.1757117239866735,0.3698044957993867,-0.07266626520124042,0.37290966339013093,0.08787489982046572,0.5210236991414505,-0.4723921607051241,0.0018497533073202125,-0.39274218844851394,0.04060869541713917,0.2560293322871553,0.09118365953218252,0.06127691455121139,0.4463418329054298,-0.3116983052073569,0.6541759375110202,0.06525725836052082,0.2533131662144332,-0.8682995680601153,-0.909498183874844,-0.4982217404321389,0.16088654059728813,0.10205369998617836,-0.9808671029736876,1.1591228817156292,-0.9756679488074607,-0.24036866752790242],[0.5411286360579823,0.2752104212759289,-0.20253735920009117,0.5073340988942748,-0.3012013177392841,-0.16609914463374542,-0.10887353441496467,-0.2761161029697018,0.03893777568210292,0.5440889324335629,0.1583321153466099,0.07406855870383923,-0.1063724439590468,0.11618327522433752,0.28193668615558093,0.2179587456560634,0.0752290004779053,-0.29837977127043486,-0.3196993384200604,0.19559114617100035,-0.2522444661135233,-0.28730028819421655,0.0689098955727336,0.4135429979601672,0.1821025894422834,0.6858428624031694,-0.0684297055319153,-0.22789152276139849,-0.29844545178398235,-0.14363175390263824,0.18514988470919272,0.4413574390179593,-0.3720723536409161,-0.11057871371828942,0.06143303035491381,0.2637725701161615,0.59779186484137,-0.444201737346962,0.3092619676323673,0.680511245657108,-0.19017969268598942,-0.06892454926716265,0.15477356331734593,0.23087573275560938,0.525059704352858,-3.264536712091469,-0.587796005866904,0.5037928858863121,0.8688865928211961,-0.2646606722573999,0.18576825059293253,-0.07650597369174608,1.1678032175667816,-0.10436190408218739],[0.4719004254906325,-0.04005335730887576,-0.017682346864182134,-0.08689270212600554,0.2177117232940938,-0.2316394185861542,0.19027592470777377,-0.6569707447409697,-0.014261696600773541,-0.40246654107512064,-0.26749564583638225,-0.5582140679490201,-0.340042100105728,-0.42484944935667573,-0.06777250639476248,-1.9668031429323432,-0.028936196368850663,0.0032268688739977595,-0.7840453206895293,-0.058616367864119306,0.219931736469613,-0.6769680772815933,0.17804868861263953,0.4129566907849705,-0.640430613352463,-0.5092311364455229,0.3775356276794752,0.0979039451542325,0.08617129669981223,-0.29526432399449526,-0.2651556256030429,-0.8701111740758561,0.21475698994303158,0.08364081087717741,-0.0612706865077196,0.3574481651168105,0.023474900071645457,0.0702130158693669,-0.05757201631919501,-0.004721429100245705,-0.0032058191241900254,-0.37300561557321094,0.28256449031215175,-0.17486354049801145,2.321949962696883,0.9057117088285447,0.21452559906843943,-0.9990501220576682,-0.7261879602533606,0.05162673760102189,-0.03885002210852088,0.3719907953335509,-0.24986450171276592,0.02397286395286615],[0.08842065501235641,-0.24567729693818272,-0.3442982259320209,0.22257978518980923,0.6800034916904164,0.06287401699759265,-0.12243276018728143,-0.6069184180152402,-0.20215985239108114,-0.10743321743455805,-0.34400902257576155,-0.5079373469179386,0.03599459466422292,-0.4658485778413516,-0.03938091695113816,-0.21763350740902992,0.04646176519074936,-0.070209394513654,-0.7133191212605474,0.041915643429516945,0.04518022289241767,-0.6922419375374477,0.7722335431390858,-0.008091297584751054,-0.07452534787583232,-0.5161050893073746,-0.00034313964326674527,0.29724716306938515,-0.4980606110161183,0.35348799192459135,-0.3978163846365768,-0.8427239504122599,0.20171486147428488,0.526243752020268,0.026236221752630438,0.43892796101733544,-0.0444275576917149,-0.04396709784359202,-1.4232980764836964,0.3838152863868046,0.1602696521136013,-0.1926097186961791,-1.1547954261170996,1.0431253023159528,-1.3475975076730604,0.6581588192603139,0.5206904427261727,-0.625626019424568,0.2646366943103317,-0.5762457021138362,0.3152811860989317,0.8573888912668186,-0.07220391185514977,0.43167563384650026],[-0.4206843135525743,-1.024909145085886,-0.07009032263021896,0.08147434077544459,-0.11957190011448018,0.381325873315024,-0.23074980983091475,-0.24967040109060926,0.20738216382584584,-0.7841712473998628,1.213279784317534,-0.540605932747312,-0.6193712022261729,0.39845765806916933,-0.03079136131518465,0.8127095950252995,-0.14143137540943956,-0.6376890968295249,-0.004432209972120735,-0.44077423335166016,0.3405096459009261,-0.4595736629600971,0.1465091109695242,-0.443990798999301,-0.4073517718425738,-0.21434553796034334,-0.4431393800090308,-0.8495909402831744,0.2676011113727995,1.0345185107405115,-0.272751316097718,-0.575692782050466,-0.19188122126296536,0.7712012884136795,-0.1730508900706948,-0.04911115895100162,-0.46156239265062216,0.7793020284582218,0.29222418623014335,0.09306104318228961,0.31233387391867173,0.1878963110034745,-0.9391721728036703,-0.20729633891646537,0.3007077500288389,0.9853301950694232,-0.25092338304101497,0.4991699967144643,0.17722212968578588,0.17531443128990834,-0.7748697002007389,1.231674836818582,-0.6361686161265458,0.07887088975552216],[0.11184925731110713,0.38000583991115594,0.028829014890382736,0.4569796205838825,-0.1972165283451349,0.22434643635106896,0.16577206840722303,0.08545420442397406,0.044121215614141736,-0.026488258789471055,0.3867503658174868,0.21340331032721954,0.31945903244592744,0.04332725504410871,0.16191927310501666,-0.05942416605207238,0.09307922468929503,0.10689943163437074,-0.3484880571705785,0.06569918125369195,-0.08491055399435019,0.02716762993548273,0.19139141784628863,-0.19602306066455968,0.16010316301460245,0.7566162823429661,-0.2483569121755852,0.0733241747270874,0.5868520912780035,-0.6046892594744527,0.16449774177909232,0.15711295656527066,-0.23292224351482735,0.008961061562407797,0.06710153843834935,-0.46088858798303867,-0.229454692190544,0.2388580701528709,-0.4657616812610918,-0.11722437715504927,-0.21056245492631223,0.3651318971725822,-0.04758197592606297,0.12338832550116342,0.2569676779915275,0.6362037358580844,0.8631699398108627,-0.31937617755345094,-0.4940641227405073,-0.041731499191089726,0.5846650625711242,0.17770091524968543,-1.3949721584585848,0.015597512194913751],[-0.15533607453722517,0.8531567366800408,0.18176900581714467,0.8692642676877044,-0.34297478763216727,-0.45487554688683124,-0.269583412916195,-0.5662879729598762,-0.2588759208433266,-0.33537352503129575,0.25997559881512794,-0.4856110530383066,-0.4213646936868619,-0.6284134597980022,0.2044625071610763,0.2506963953545474,0.3631332776392198,0.16063625228537282,-0.18718073874153832,-1.770929560745651,0.033715876417913807,-1.158543779914333,-0.3061341081704282,-0.009534536378526566,0.44070266049865553,0.4609988858978333,0.4070973035113916,-0.10311575759799312,0.1434069183997149,-0.7488740085206423,-0.6104981911600701,-0.5333270862975077,-0.03816078420970407,0.016308002034928326,0.08676459887941687,-0.394374289248478,0.12493954901903621,0.3925537542075959,0.08234335415693898,-0.08557999755794046,0.16058499394201814,-0.5063521769506502,-0.8345392011703389,0.5363789907840081,-1.1322496385056764,0.23004977345143238,-0.18507346597706117,0.420766324809399,-0.1772695867653263,-0.2666574304468616,0.953554928031055,0.7113073940383315,0.1651146790244407,0.4129177359793966],[-0.11934411937726287,-0.6392703456453999,-0.05967774062613976,-0.18529068221108158,0.5646440154037382,0.3097926289494292,-0.22405027645218595,-0.27121190273689444,-0.47426134321806585,0.2915777924589298,-0.6797610137573781,-0.6275575751033888,0.6776922910998576,-0.36306803054129816,0.09146524638931003,0.11613498812205687,-0.1360956707718415,0.07494960960014453,0.047360923697299155,-0.19178648878091742,-0.5756981715951626,-0.48411684199580923,0.2953027941856973,-0.037925812507141034,-0.16315205056470872,0.7719021745586099,-0.21426914887236656,0.39034354028204254,-0.2270121893877776,-0.22256125966247745,-0.477282324010991,0.1638702398269366,-0.4868644916858351,-0.3937371523998499,-0.024478280137764263,-0.19993752115772004,0.033161598013261524,-0.06477319882403976,-0.4446812819501257,0.6279802905764834,0.0633676743031225,-0.352387920882409,-0.5481231176564626,0.6060352725661219,-0.7082862277120292,-0.6808253417649723,1.3521841177430574,-0.7400605371766101,-0.8277998048684007,-0.1448089320603707,-0.35964980541983244,-0.366696066781858,-0.9153641339832914,-0.19546191475575753],[0.27218421236667506,0.3731250377230786,0.1395762542237811,0.03655547539239178,0.16966351664459461,0.13222759946954368,-0.3007150019281268,0.11580081468158258,0.07419680637748828,0.646084475845154,-0.05604287561999112,-0.0895622372773111,0.5455466163291122,-0.0787954695385627,0.04058382505671974,0.42191155619983534,-0.2489960460117784,-0.16069225029770928,0.2735448431126359,0.020778646747405382,-0.853413022546981,-0.41754735946787164,0.5648507004812005,0.14711281078381416,-0.12576538415127905,0.32460000723567856,0.549536811251448,-0.1342263920916347,-0.009013581746904496,-0.8750082663620232,0.33209169372199876,0.046560781909414636,-0.2906529098304157,-0.32082879870636105,-0.013709031020283785,0.016145621124774568,0.11880281364084021,0.1350269656495703,0.02622000354046434,0.4115096232468028,0.262721890234172,-0.13751872758868144,-0.7282953256156537,0.1785956640612117,-1.563865545894335,0.192894699962841,-0.1830866174181859,0.08035643541023489,0.15918222340541005,0.596065512885312,0.0825299123251563,-0.07078744908246525,-1.2433023021495548,-0.257188594716053],[-0.69041096487526,-0.7412281034711743,-0.37128660958585435,-0.5834626091309589,-0.09252654944002324,0.6295573564259654,0.20472531924212028,-0.14287988881064456,-0.29196072437852877,-0.47532616964411717,0.9977895035889479,-0.3253249526341697,0.02460934968159722,0.5001098897859062,-0.08575908404734188,-0.7366457848455039,-0.31397303721225295,-0.268783593693923,-0.3532475646247228,0.5068471217243113,0.24469269175657335,0.7015019206479953,0.3159478167511195,-0.872054945082296,0.2850425032705634,-0.6126610254506384,-0.7367974320296016,0.1940164572405663,-0.08316933521511681,0.8870404938960397,-0.3455576796115353,0.07368571059670721,0.2948827089589197,-0.20479706096905245,0.08943540475228073,0.2122783127092039,-0.09333685006198814,0.01805106027208555,0.7119979079193421,-0.467834899082783,-0.15046279236880405,-0.678011440229755,-0.7746373613029126,0.2777044566317113,0.2011647253432077,-0.5048757329143562,1.141822580353657,0.22635444892508536,-0.38276053451970365,-0.14825805783439847,-1.255381675193979,-0.20894627613342173,-1.911258909569261,0.22806213745566775],[0.3930248736254775,0.21777854084993528,-0.09563703519174362,0.04898959580310394,-0.10760037618083275,0.35539616081736086,0.2969184095763896,0.3819340954346212,0.32638018648565315,0.3183040458585799,-0.10292945895116683,0.4554585876637495,0.49474209241445,0.41858176417216175,0.4762000714684397,-0.27552062492036067,0.35555756218990314,0.5651636228528031,0.6943606471466651,0.3975039106618922,-0.5087022170075219,0.27739962688450404,0.30200817463950336,-0.47203831597076645,0.5965871384835167,0.17014593624799082,-0.08479871607734787,0.6015793311014038,0.2687055989873923,0.14112475065813002,0.7537822825554406,0.5230823712755173,0.5361150113398531,0.38160412255597476,0.1107004852556934,-0.5019309361995568,-0.4077240162976109,0.4065319936827707,-0.10382807148093284,0.07774504013674888,0.07104314734456345,-1.511080835070928,-0.0672217134487252,0.41741709719674347,0.14120085775053878,1.1576085595644166,-0.1835934447559631,-0.6799291022953042,0.20110895856648225,0.01590586424580644,-1.338268070562531,-0.3132125950319687,-0.8854647202400434,-0.017209274903552712],[-0.3578159490935398,-0.4889968090682268,-0.33655974846365533,-0.3703601183571132,-0.03900369189676452,-0.8252098922056138,0.8904391461125155,0.019873224414696432,0.2599223698949215,-0.777894526932177,-0.7821284272176849,0.013782147382556108,0.5330820565596657,-0.21800226583615934,0.11492015092382482,0.04874047883421018,-0.10371863078075079,0.32143935602288054,0.49441141040331743,-0.4785451397543553,0.792888881559001,-0.5925710579170091,-0.21533258048430015,-0.021688457301122184,0.40088966241423696,-0.064570549791484,-0.22805747141307264,0.21179901395988734,0.4078422811720117,0.6126805749747827,0.16154229188632738,-0.30590599949071884,0.4936905375320714,-0.27947726190374994,0.2457064599265313,-0.08422737460951062,-0.748348350745245,0.5248333766785303,-0.718072035101208,0.37702841105810303,0.07865456716300519,-0.09124010366367437,0.235618947062268,0.051461374552941704,0.05952289066334216,0.25711645107496456,0.3316731970969295,-0.4811183509196762,-0.04589407948324129,-0.367323066347437,-0.5047721992083597,0.8403305976827449,0.17049531155920086,-0.5925704580637847],[0.6320874051632749,0.22958842828949577,-0.09804423987398123,1.0465260374655334,0.2554939788867266,0.8554399252435715,-0.4719742162533921,-0.49674184438748803,-0.15849448154932191,-0.7810530669971764,0.27249623138726814,-1.2263234113981532,0.3744556938271874,-0.7255177466435193,0.25967651077755016,-0.2624334364204433,-0.014122553972887662,-1.359519005326126,-0.038864098846084154,-0.33442875089721336,0.5028558604823608,-0.330195362624647,0.010244973957447513,-0.38733987803322106,-0.37334029394001705,-0.5494085403546436,-0.46088050422983895,0.12133807610644229,0.09282396598762255,-0.06665554893398017,-0.6142857682098454,-0.4336957728181295,-0.2573635180523011,-0.16730096821934365,0.1559892991593968,0.601290967433403,0.4011753008990145,-0.27201054483840387,-0.42131230205705633,-0.5762735754163677,0.19203080437982611,-0.5519735841850413,-0.6047726642852198,0.33525463862122096,-0.43454399491838036,-1.6909864048902274,0.6702448088722089,-0.3464344888569927,0.25473017979520046,-0.3297560108675619,0.03933793527506574,0.10390180072051398,-0.7805341695072575,-0.29275477132082034],[0.8536759289433342,0.5064230878587007,-0.18834460714361634,0.11067792815536509,-0.4857522290069524,0.19987978393152964,0.1594436488875083,-0.17023314480885643,0.021440216831212847,-0.374785586195223,0.32110893195136864,0.3559552078468522,0.1256491366445666,-0.48633072073810585,-0.24430477236648823,0.8814516903528761,-0.2896325346924722,-0.4282078615014688,0.675321401332939,-0.3046875123263305,1.6871179716636768,-0.08936449615685671,-0.2866906625440993,-0.16255854520729288,-0.24596188564089763,0.6342658862067697,0.38382867728019837,-0.2834554323325427,0.04762718748222753,-0.2444558471863895,0.5766814510852214,-0.2511980584086846,-0.6006060088182322,-0.10695007016490957,0.04752028617798842,0.04802230465253744,0.3166942922410193,0.17638727819354585,-0.5168604088263032,-0.38145794081913953,0.6281027772442491,-0.10567174753906523,0.7956674627316581,-0.3578888336867905,-0.10632050868039085,0.6635727322663741,-0.927895978944926,-0.24488590969790916,-0.1165622179322795,0.703618473657443,-0.022580444429800083,0.08359011197239981,0.45925401632262625,0.012786934127805447],[-1.6523341441457617,-1.1398645358693171,-0.12636491243364573,-0.2324770973160384,0.2934537969197541,0.8821374721754661,-0.2772647674600547,-0.39757611164360773,0.4825925069628153,-0.3713318235253765,-0.6292464764039496,0.13073090167383986,-0.23426219100256085,0.3389201633126599,-0.854169792818469,-0.6020033285790807,-0.5454350969943133,-0.051772702515708986,0.08250096853346386,0.2735345582912938,-0.2939158120207265,0.21368501349306696,-0.18721670921412137,0.10200770421175408,-0.35374081445865907,0.5444028025993657,0.5316452199322168,0.3846768516888919,-0.6005297738710417,0.128087511779402,-0.49329037315550767,-0.18089343042262726,0.34524484018932344,0.1424396938716747,0.06597840761350914,-0.27127826088025353,-0.25440024682547063,-0.5416522667639783,0.14130629933230912,0.7849815084148463,-0.760069483052895,0.1380582018678877,-0.5184313271576299,0.24355121387835815,0.9503444405456293,0.665741503321655,0.5247901294829573,0.1741347122522378,-1.183134239893849,0.2259413285671488,0.39087848620845594,0.3721545365151141,0.6583571066792867,-0.5633450804662863],[0.10166568685631673,0.06403630483983098,0.16116824222309561,0.8610389270725677,0.1282371269962874,0.6921220589591702,0.408387350008705,0.33765499909238955,-0.03804159787772091,0.5574246771148651,-0.9128408370741998,0.09029946181709672,0.49646783982977766,0.08089645107299717,0.42890747883255387,-0.2592646973361498,0.2519687589576599,0.19444732238761578,0.4389843013079363,0.2461706160454712,0.1713793708834104,0.9485492663877166,0.11347366938318282,0.31093177009990297,-0.6963089200578945,0.7109034580786356,0.013840117599857414,-0.29485591125763294,-0.2609823830887597,0.21157520677497366,0.3904484783056275,1.053824817120261,-0.13298938601135263,0.16946718504491587,0.08078591991612333,0.059279179976054884,-0.4021137567504985,0.2840099439975763,0.11368919811612554,-0.03205376951330819,0.008290548327683318,-0.13844966608520573,-0.2727355901216152,-0.15066129043229756,2.893768516292992,-0.8231059671100576,-1.2478997199045938,-0.4408072282897646,0.727548230840216,0.292486231098144,0.5076701698023875,-1.0255402565554335,1.2512585479629326,0.4169850458809862],[0.7770498067835341,0.41969284517697897,0.11595874741593142,-0.01723271377055891,-0.7582061173585917,0.9553832424033571,-1.057774074469739,-0.8060181655115819,0.03620671303947287,-0.33780694809254436,0.41048812578919924,-0.9430784029081566,-0.37437780358825967,-0.4090058003173513,-0.663695027285497,0.35837216942871497,-0.6002742559187969,-0.7849427289069374,-0.7325942050138489,0.17434411621018045,0.9459578695894026,-0.14018069648597958,-0.1260429049405844,-1.0192578558119658,-0.25062033776331055,-0.24752062465840288,-0.5222593227893578,-0.6491873478665887,-0.8282970417294505,0.8402045270398398,-0.41887175134952737,-0.6206613290095867,-1.1317704671609605,1.2721827790622195,0.04624907181002256,-0.13610734558427867,-0.661649928109854,0.147843997806261,0.09078777900950581,0.2643561512856299,-0.30368194744197413,-0.09934817317731137,0.08843706113893497,-0.1310529863340664,-0.7829121366130071,-1.4695554574005616,-0.37719897525221235,0.10010501379729833,-0.2349165638115626,-0.13340160926531563,0.5036026610388145,0.7329346005017857,-1.3269953464478412,-0.10983250561961204],[0.3253881856695426,0.7700555230779089,-0.6081313608292507,0.5276465176638013,0.2997927884156106,0.9772786331844383,0.43283491990392486,-0.5254637511419856,-0.48991394647164127,0.08749936341551524,-0.13080635024058723,0.08540321824301284,-0.37796690183129417,-0.1305716304807215,0.03100536493872167,-0.2743929919067084,-0.26410072267533446,0.3566418359583555,0.3068001887387423,-0.6028585481042933,-0.4925099018197744,0.4550836891642148,0.2216133513500775,-0.03581807073883678,-0.21505546536991807,-0.38286858725849726,-0.2019497355947236,0.13429205561309532,-0.18042181676864133,0.1656815335708609,-0.21893925750217916,0.11913785531460915,-0.005389194620577532,0.5108682423079267,0.13951576864720722,0.4533804996819401,0.14609381934299004,0.0307398442327445,-0.037060500522770774,-0.27284991299978906,-0.1923467956928823,0.05845413683894606,-0.08469124433380196,0.6544814133632387,-0.7479934204347575,0.4258772351931043,0.03232508411217709,0.6661424785813191,-0.46457269017177905,0.3932843617167202,0.23480849735093734,0.46813279279945164,-0.4408744629279588,0.008024538187536252],[0.08756249722355211,-0.11446470234512858,0.559085159643642,0.20227855032637185,-0.7055134975923458,0.5594743964286963,0.06541177990253211,-0.09342911871259296,-0.09768764994693471,0.12894445406559038,-0.24840413408558165,-0.4329570688245551,0.1625874353294704,-0.040283263450895286,-0.07816492933751565,0.5796447839899748,0.27872355748194805,-0.2640496328608553,-0.06876582037961705,-0.08891921090028852,0.3294308532491257,-0.40141248986978495,0.6747526790185289,-0.06467655723580261,0.05902614006280166,0.04024827151280465,-0.012411438849178743,0.23649803002023553,-0.0862668797536788,-0.4095419414476817,0.5472669504497594,-0.19257548502156274,-0.3096726079051069,-0.0063483769229960045,-0.2208005156645401,0.2884210956567985,0.34224888928888786,-0.2853310829500296,-0.18695718483868978,-0.08173600011025743,-0.15970525156816723,-1.176737233813648,0.2778262541472804,-0.12860155392962333,0.5742203031870494,0.32636956887454915,0.6548906416714378,-0.16265395214064549,-1.0192140723401357,0.22197478398417986,0.9917360356094476,-0.2697757837315578,0.21239756699175213,-0.08050680575173967],[-0.5717899470452675,-0.2382034524838536,0.04897366910914199,-0.6199024842822504,-0.7165853280601654,-0.1137597847532374,0.5906909240980674,0.12198063650436546,-1.0558664375668034,-0.14084782583166566,-0.42165322875397854,0.14617475658435336,-0.20736553449102724,-0.1039189150803015,0.11512078494899158,-0.3187465530421143,0.453517885227999,0.83469214194158,-0.34351989633654423,-1.0424865482349341,1.0264864004128862,0.2823798280934083,-0.08738385745598547,-0.12067683752474255,-0.4321679323069668,0.7507017319346739,-0.7339943074247428,-0.19478658470178514,0.3775118791439395,0.3406075765388086,0.31355121378394846,-0.23495144383941158,-0.3147730910679408,-0.15441467584519522,-0.02737797137798102,-0.4871904667849641,-0.22857680343727618,-0.5123625534348384,0.2645841173669496,0.16085925936799786,-0.4303827578817866,-0.259604294855523,0.1201692925132721,0.4292955674833949,0.5569926960484342,0.45030624307628514,-0.4795641398246514,-0.11429577935624526,0.0385064480882389,-0.5104987630524694,0.15426731707185856,0.1987703241182933,0.4979935891556241,0.016712421329070085],[-0.26503179416083456,0.7580980931657356,0.06189147772442557,0.6332949244811569,0.532673568686756,-0.1503751033299326,-0.06739399919325266,0.2841694548012555,0.31237928672718906,0.10907248920127266,0.22370805300778673,0.16490538403277494,0.32296892405005057,0.21310462027412588,0.13302307009368214,-0.10835513956442243,0.012561997348719394,0.5553672833527159,0.1169834019165021,-0.13100706859097264,0.288785887859125,-0.0239119783924777,0.05477244780822424,0.11693536882191806,-0.47742930788099425,0.7179877823422636,0.2740657704719796,0.38791769865315595,0.435136303239993,-1.0786931198754286,0.11632085779063114,0.3796904973646511,0.03795783948544254,0.11292749850820186,0.06592495484994415,0.07349049335156399,-0.0928727817638493,-0.17998565840681,-0.2518189353031017,0.219303242095525,-0.05429384662786263,-0.569931674528112,0.615678226845758,0.828205773825077,0.2330686176029297,0.4823238561521191,-0.5887989803065768,0.3921778212064106,0.711482795707012,0.1165726714138021,-0.4859682352055662,-0.24355380110705155,-1.20493315892867,0.0936885557728727],[-0.5772023675588895,-0.2636981671228978,-0.18934102313992002,0.030813837672315873,-0.29351759791261123,-0.3504949714404834,0.42184744740072944,-0.4574921031950545,-0.18628660193088772,-0.10806107194192263,-0.38743461688517783,0.2897024504168008,-0.18737718864368802,-0.13858626167415458,-0.12579066587127738,0.8615489025521152,-0.02291679623423678,-0.30266440508380404,-0.3884216971968773,0.17988383490615462,1.4796089298173418,0.17472415190755206,-0.048101425205701036,0.3565795083800275,-0.1215328977605283,0.4855776203466567,-0.08472296871579678,0.012923547074514818,-0.10570436357135567,0.19179463641691244,0.08934562117951401,-0.21741617676160302,-0.16429363351929088,0.4004629201921549,0.3170404599068733,0.08990371884780345,-0.09710522850196475,0.058611638729796085,0.19808292418259757,-0.27974027433194987,-0.04972791310764524,-0.43232986115287614,-1.5624666230891935,0.330473638539746,-0.007908817027985,-1.1607635925027515,0.5168876102708784,-0.17238847995351456,0.5726382765266053,0.10494968234176792,0.6791332566155773,-0.2357907972046664,-0.8818860819197903,0.3812906978890552],[-0.005033835030849818,-0.3616337006207082,0.5333466393086898,1.1027219460432427,-0.14227459326582553,-0.060791233640523135,0.009088719883749664,-0.4679029787143325,0.3806882624567635,-0.12603466199998106,-0.9088317710491695,0.16925529681014992,-0.41545312909036713,0.752007221932895,-0.7124886513724326,-0.4926846940222107,0.5575543760244204,-0.6056143687593564,0.3494978582071732,0.0071099738088607435,-0.8853542673548962,-0.41893310660454786,0.08852950807567547,0.11428369461092823,0.04543287612897612,-0.5731284530052858,0.2746857724408244,-0.28087350612077916,0.1240735062499342,0.10345294840209826,0.05547700598154881,0.10385386678404684,-0.3477722443118195,0.6562176001094394,-0.06336299127896172,0.266216852569253,0.09352558282873188,0.1068545808270913,0.13705576762223012,-0.5560983496882216,0.1784819327450786,0.3982254270160929,-0.32669878136666897,-0.26632596205854026,-0.666683133985217,0.018283527431601998,0.2980096625921057,0.7418999525508825,0.2974693142724867,0.28561537844791013,0.42696750124763183,-0.45512997008780925,0.3443628206005987,-0.38877375565880445],[0.027963421349082796,0.27730060891139985,0.32168546113932506,-0.22684639866854017,0.01337061304644145,-0.059388308460852815,-0.03446691184031015,0.36923663013738406,-0.2586068936760533,-0.4367391856339857,0.08281306678733143,0.024571115736084545,0.3049697770020747,0.39535952770913535,0.08351132398474652,-0.2043704982234722,0.04281872312733508,0.11666526384543215,0.12659381078279394,-0.2568717284897918,0.4849835974727804,-0.3683804552763224,0.39235579705041046,-0.1869400798674491,0.08116524702695846,-0.663253944807162,0.6156337094454148,-0.4400209022398051,0.6440315392534396,-0.4149636617653655,0.30610499166621025,-0.33510874000585616,0.2635321192880143,-0.6886922504214155,-0.05085661493761977,-0.2669454924691869,-0.016506918319103465,0.02621608562436586,0.6491459851831342,0.3936350265406286,0.2385913859736515,1.4307512719110398,0.5377880748916626,-0.14091020443803143,0.2200679692752489,-0.7088592985341172,0.21140052002261017,0.26763153979861265,-0.13909543897309254,0.2004655287100181,-0.47418703815966057,-0.06973674691064843,1.7059234463849997,-0.19066585674179481],[0.0037376816894351145,0.13715435532421175,-0.3001041378257653,0.34847650439563654,0.5213267309456228,-0.008276697362939737,-0.10436673955571783,-0.03629107724401004,0.004766235801963009,-0.0571566330473261,0.46380161849935014,-0.19127549390005733,0.14971507985400345,-0.16639589121746148,0.18496616289256992,-0.27338368801286683,-0.2191875449731778,-0.05151477932097459,-0.3200680570237534,0.3524057004263202,-0.7597537432461976,-0.007272577215527823,-0.06719832404338173,0.050922085836029536,0.30053662821347055,0.1547833330035792,0.39062876682534226,-0.10383804541869468,0.4768678451492895,0.04819152836615733,-0.47848234627527986,-0.09560806382858818,0.6604436923750676,0.3107208174149389,0.07371915985792257,0.4749548450103898,0.3078636604765024,-0.6124357404974002,-0.6089415415598015,-0.17793081445057948,-0.2564797558220809,0.6426020861898665,0.004911384096496362,-0.2970785927224903,-0.7914118220196679,-1.167672817901104,1.156489444654326,-0.0055951323935010495,0.3673022397918979,-0.015282391982264944,0.6820765106114006,0.7550044036590451,0.3238254281514505,-0.675085142410626],[-0.9077260959084514,-0.5276791564694542,0.4345056567166779,0.5095574123765495,0.4221477708947445,-0.5492401373906526,0.025159794831826704,0.03585506452740286,-0.3656233354133718,-0.25270072281625394,0.5236027277793275,0.21097055584798813,0.15118332471724777,0.032858258752111076,-0.5353964593578375,-0.6800862722098923,-0.2765378376318537,-0.23293147151528684,-0.026061799292046606,0.21106968911278803,0.019096281224974223,-0.0050429190589905935,-0.25305385506072836,0.15733443886035386,-0.2854767594329369,1.1518605938994804,0.1741980394546594,-0.49727958619994084,-0.30061848990856566,0.12865156629500832,0.16320740614613125,0.2773513109853608,-0.7200872716747017,-0.058449447101292566,-0.18877676364457482,-0.17992701557389545,0.6053587816247069,-0.40449429334287845,0.6202161636758003,0.010050521788037052,-0.052629413074829885,-0.5965593733612842,0.3218955472627378,0.3617334787754966,0.8947520592115547,0.31724725400938947,0.08195751430006658,0.35200660497292036,-0.7766598473275398,-0.0151144989100524,0.20403437977552397,1.3031906475612656,-0.6226124621051584,0.23727850894285027],[-0.4460989965098465,-0.055692262259331465,-0.421691715507258,0.47153645262011645,1.3643887472187999,-1.0631846809712155,-0.8864621580339368,0.42435941907442765,0.9869942687452015,0.27280087657533547,0.5973802732983542,0.47600642888766664,-0.04700470572531299,-0.14462833129791328,-0.13120746849892004,-0.6543537148613174,0.062150530586851174,0.39806168072702264,-0.12185286144647066,0.23140087240162271,-0.20793496174297774,-0.048143633670604716,0.029977847746422003,0.7541950248970908,0.37312394670003024,-0.48825406994959164,0.46193467381964554,-0.3001705782983893,0.25513027536469424,0.0010440471988891844,0.2643273442394983,-0.11598813728393689,0.5635001617223322,-0.3584151873034957,0.024556064554988495,-0.0029850937735718154,0.06107807021811331,-0.14958241262858524,-0.2802139698159557,-0.45432927541773105,-0.3362175166401031,0.1501634583100253,0.26600940386506305,0.18539937385318345,-0.7038841127258277,-0.5569420738168633,1.0353462604872166,0.11877131241482763,0.7408194647916869,-0.2646061896820474,0.48223740701629525,-0.3794958669752097,0.40856668956712905,-0.3694305763387474],[-0.2527859721907153,-0.5962193428711209,-0.6726654107413651,-0.23900292985048457,-0.6221393456459099,0.7945638117162802,-0.984089987591681,0.3703873097554248,0.22966781053569094,-0.06658420629507113,-0.48039258321370226,0.16999374486855465,0.56575499861145,-0.6443252036181264,-0.7901377247119017,-0.6377718091655972,-1.252230792600738,-0.015914830447346633,0.3413144894722581,0.5833456941799385,0.2750306754934761,0.27764323184149137,-0.07147448796422932,-0.14475365603779303,-0.21227732279589295,-0.1485894693659494,-0.1743020348312331,0.3359481385630517,0.15846031574224545,-0.06841346109336471,-0.5124760681660396,-0.6173559367062217,0.27990945160877756,-0.5645518086699464,-0.16314713664600047,0.41850953854938266,-0.6517595311897747,0.49473703875125313,-0.6466853222669232,0.2889790719885255,-0.25303249115159854,0.36702579564669885,0.8423403700418116,-0.05716949152388894,0.55252070309476,-0.17826586508885786,0.6294867977777974,-0.41667417419398073,-0.16990209391909858,0.6864705573126932,-0.864881859464911,-0.3826107754324368,0.5898472407003844,-0.6051125693361208],[-0.03694889717968524,0.5213067629970122,-0.4924750649044327,-0.0996605382471845,0.4979563304514916,0.008157532853446727,0.5941513590687338,0.2738893593454307,0.1456260756147532,0.07191326459664334,-0.15957672380803722,0.16862440319716615,0.4611183792580193,0.14776210092818706,0.42191432019131286,0.6136315831172952,0.06999187009426629,-0.12199583309358232,-0.06065753413142545,0.5209924292592447,-0.042188103383656306,0.6839089234875292,-0.2410837195198619,0.3235366145316854,-0.29109903477795795,0.030841716575124602,0.3958645577930944,0.05394598822255375,-0.11986766257804184,0.38962266717236954,0.02969347124915201,0.5930205838613949,0.30894254672574234,-0.5531006822163282,-0.1418890997487996,0.14148790987710744,-0.256446104166143,-0.2382693715285677,0.10432804905420034,-0.1424601147186204,-0.6468565944600351,-0.49968021694469095,0.8656453630615183,0.5910111396745067,-1.4541946618681545,0.14229650155321474,0.18723861362590294,0.758426389514787,-0.24549658937434185,-0.6247831311472247,1.6706717049395268,0.3016059213645433,-0.6021060943467907,-0.5480604637847252],[-0.3265281746877455,0.1845074320688556,-0.03995825884620241,-1.3551212577776044,0.1811749614180283,0.14597112237388726,-0.8193220235844217,0.12142107068300871,-0.29886025651904746,0.3631586036084716,0.11215836221880919,-1.0666540257011534,0.02276477668344971,0.4717996692563619,-0.21840198935653207,-0.20461013690039265,-0.10958834941306171,-0.5811146108306995,0.4729084701135819,-0.1032538203009243,-0.3425169347646013,0.13408322530955838,0.03017545517541345,0.5908793748341686,-0.6515657933087021,-0.38608690603279455,0.21579340590207952,-0.04430931160482762,0.356749297548338,0.03584476664381054,-1.0107819843117234,-0.0805457784701233,0.5120332164263504,-0.07005575115041858,-0.07611361167459439,-0.11026248747033253,0.4218722927418057,-0.458488496932213,0.10742032478766057,0.4958713593071131,-0.15181650845693775,-0.1751897089889096,0.4830717137777768,0.6728679816700764,-0.3721715574907191,-0.040387823782534346,0.895300982100426,0.11052987478361763,-0.11140688499798179,0.027040472940797453,0.9114661070649899,-0.9840542904288432,0.41216874397222936,-0.24857545097591727],[-0.8400709136944677,-0.819286962797006,-0.08189555786153399,-0.5104164254003325,-0.0960080071898381,-0.27713476898565537,0.26507295644925344,-0.03396618611506398,-0.0397422932656405,-0.8437091912627924,-0.12267204363600978,0.09619029080107656,-0.03051827313955256,0.05896187174850017,-0.2749270343933497,-0.3567399643517614,-0.4380198025230329,0.28174158552147105,0.08864231852484485,-0.13955132752781393,0.8497031670834634,-0.31732132614794695,-0.49833208272333623,0.3687737749980066,0.43792932175764315,0.6082365637719073,0.09462803868937361,0.138244678212196,-0.4584349323997427,0.34832385365122026,-0.22149356666722034,-0.47017158975865475,0.3414909058882844,0.5536736341453422,-0.006761866677026229,0.5436373771900841,0.14488206369298615,0.07289575083851457,-0.9216479292299191,-0.3376209416100351,-0.16441817992543425,-1.2424843119684674,0.5323635986465131,0.8851011071909874,1.4382688950353093,-0.5217544426886047,0.5019693250084547,0.28168518113752944,-0.08745272134003709,-0.14321744100193962,1.2383336588086549,0.7627551165089206,0.02405491640774147,-0.6284004463458265],[0.17995558884557075,0.19177049561948348,0.4832325602375307,-0.7435020135631554,-0.11343470428445736,0.09137715384712589,-0.2117211050487388,-0.09326759055544544,-0.06693325200401702,0.232545240663252,-0.8264990447289846,0.003886813984801033,-0.3440512195885801,0.13444470478072504,-0.3136600172023298,-1.0477070123693302,-0.4955229470007502,-0.3500182835637583,-0.1982644231520481,0.09129231183968653,0.037297933504954243,-0.585140382811707,0.3091034899137635,0.14491611021641654,-0.23521804199352642,0.4362126538664775,0.08217239222319778,0.03317007904161305,-0.03311585632445083,-0.1740761963746081,-0.1818639691498999,-0.14752384747631647,-0.22856000061038734,-0.1246580351919505,0.09966749169668006,0.6672954646731137,-0.021272274174033764,-0.6667304291911191,-0.23961898747490837,0.2845802646208357,-0.39737438607683595,0.8368483161193019,-0.8102375127013567,-0.3928674381464849,-0.12067845310507458,-0.32263058470812966,0.017615456482953908,-0.1951903173661411,-0.9572057946297571,-0.16400323827809227,-0.3828142205041873,0.5331313020703153,-0.21350458023224622,-0.03432607163426982],[-0.03807360177555917,0.1737826990829421,-0.023314536139711645,0.12016376484436854,-0.49876866515603047,0.25435366188664543,-0.05488780057005422,-0.01994667023559468,-0.26294325935097573,-0.33819257870301295,0.21674264355827771,-0.14865875637842907,-0.3478817993051318,0.01641773350466027,-0.25797526553272665,-0.9240027527806971,-0.8627070664646671,-0.3922755191581224,0.16760246110260626,-0.12986628172117978,-1.0046408138578806,0.44928549475095575,-1.0168795353435425,0.17192259515725405,-0.5185036255823963,-0.252267672377292,-0.07367505230758736,-0.29243946889206196,-0.47989020667453036,0.18016703760666705,-0.08464967598566345,-0.7069329849252155,-0.40066253233430643,-0.5873604052927404,0.0018718611200608287,-0.43591045035528675,-0.011329199582799546,0.1334526638664104,0.36415112355684476,1.1394943571299085,0.18618129048411547,0.19999499804513152,0.1651646540496721,-0.05242779104928492,-0.34750629800986804,-0.9039142857918882,-0.30020141983809007,0.0910359531915736,-0.8332903366802757,0.8030233031832305,-0.3605835093648838,1.5213665862025492,-0.28948001870021,-0.3512484329804958],[0.3879540528731828,0.5169895002145123,-0.22637680463878454,-0.7178791124404307,-0.9272831663572789,0.47646886963447804,0.1524358467903838,-0.5340226841841712,0.48519205864172654,-0.4304612168127272,0.0359557660652071,-0.011440061339954276,-0.6637772480165345,0.8041288218113755,-0.5605859003367747,0.2668255162898492,0.15376361724572435,0.2947395410668579,-0.5796924036584515,-0.4536140666190364,0.5291100499560296,0.3510230858630898,0.1768653117703267,-0.24759887652014204,-0.2826409986150634,-0.7756151624408412,0.26618572027649295,0.5233499207294229,-0.6292908288374066,0.5220921813145757,-0.1743286693554969,-0.46213741273972364,0.26872984319789617,-0.2488049474903228,-0.036330554885844114,-0.13220454245878324,0.30938262789945614,-0.209519345197161,0.162790665554882,-0.5085539770034637,-0.036559973137977944,0.08349213645678707,-0.2945424052813732,-0.03039327528478455,0.17598194746170193,0.5305778438920581,0.3210295600892707,-0.23724165698771166,0.7657702068089364,0.4353547796334406,-0.5783501081948422,-0.8259323720749812,0.334304648320742,-0.8019706518700072],[0.45887094441411785,-0.07097848785925942,-0.2108433564982808,0.3464484028006388,-0.49623748487492125,0.05171290808950003,0.1629384359656539,-0.5613475948425543,-0.1327632407594301,-0.7611099401526138,0.5092771844659362,-0.6165299151361269,-0.2192936188012088,-0.36353366194429954,0.05801125816056937,0.37453461494721235,-0.1681334599234939,-0.30214848428392005,-0.05735206918565662,-0.5948938261761652,0.688338625433919,-0.5826995689441868,-0.31893077044705304,-0.28760263592362356,-0.1547740990280423,0.4815950240743437,-0.46014041153976865,-0.48959406131444766,-0.2652972170059936,0.31689821121714534,0.022872718041803075,-0.7423841092071193,-0.6226932671198224,-0.07217582354996982,0.191897258344445,0.08836516893977793,-0.002174526042870991,0.09785582845456708,-0.21353016226357657,-0.05741993530179975,0.12470819359144508,0.16023853944305322,0.0481214765365687,0.5556006053928454,0.9050912536134673,-0.03863784939296969,-0.8909173342438544,0.08950504851512243,-0.48004403410707014,0.7030433182095671,-0.06037420588887656,0.7633910955614617,0.5815404126923485,-0.3943332597781945],[0.13811941908391648,-0.4584574456557666,-1.3935204236415795,-0.7111743113158654,0.14378200868439842,-0.8072359484569978,-0.04197784689340056,0.3840768603765188,0.10473756968629834,-0.5002477470314328,0.38783085804299267,0.2726572287175001,0.05463080036070507,-0.9155768692711991,0.4270019601794495,0.001273271679361227,-0.7085206415525518,-0.2928932951420547,0.9783332132790721,0.26914713937605117,-0.022070249045528345,0.6114751810752069,-0.2939228336712893,-0.14750392857820496,0.551562541775088,-0.6699249936315115,0.1712188444049262,-0.323232266750012,0.09572859501952959,0.08218068238801088,0.0002214927128703643,-0.2521728564815031,0.17614996639081423,-0.23836791158289578,-0.005393714637435426,-0.023501500831526693,-0.5248321288665131,-0.06954724949530566,0.19235583870609238,0.1427702945302922,-0.5290107082426586,0.052386835689470335,0.17961837266569916,-0.2870221900382582,0.11031179852057506,-0.2650846275336766,-0.057827229849904634,0.018754230905235737,-1.1726676870930886,0.6128927728809396,-1.0036001311491913,0.19500743292563705,0.296101484904612,-0.356090347736554],[-0.33445356152113276,-0.8322243985581245,0.016335574029748445,-1.129785260136174,-0.5977170083318785,0.03730791412949248,0.2188008595908485,-0.4809868766679571,-0.22726718322775818,-0.27820468660178405,-0.3170664339484628,-0.49076174996559024,0.15573880284805577,0.5768228007296965,-0.03834852438022209,0.4068894170685367,0.09640072797069521,0.3731100622753359,-0.13986062939744723,-0.33653931932303105,-0.3323086122354616,0.04888552204016631,0.3239868654499503,0.21535183870045843,-0.2762617852194809,0.2036588501556978,-0.5835500292567073,0.04057479495123328,0.8897025726319246,0.22579110524689952,-0.1550881074384723,-0.38461155022682747,0.01331078234992515,0.3307994903288432,-0.2667942126625188,0.40078576651639697,-0.11044427781590845,0.6178805737395596,0.1675877409142106,-0.12995294634536042,0.04035332276477592,0.2934501965152232,-0.10618282700778076,-0.17635285617394594,-0.5296110762563333,-2.4140223171375763,2.08726804842536,0.26376277613499033,0.10135503103892937,-0.01798043312026341,-0.9455728714296319,0.11657031205963886,-0.3819900126835952,-0.20577071770108382],[0.38608330471393626,-0.2604335517978987,0.14047248781364194,0.02138278997611908,0.3375575158502144,0.3007237826369453,-0.22479883326409353,-0.13027158295337865,0.11879472723694993,0.07903207947776811,-0.8380561672832791,0.01463552850316359,-0.12087743178811643,0.46148221138245465,-0.38135249243224545,0.8788632602722276,0.2267016258571078,-0.4278468746529714,0.08669275199629016,-0.2982630912357497,-0.8248760503770434,-0.04244533862652439,-0.7366734087167328,-0.09346126052370601,0.5980604787004682,0.1457061458983168,0.4925739450925506,-0.6618169479488432,-0.11015923095511869,-0.036042260739823126,-0.12144929288900401,0.2342251574778954,-0.2732862699172528,-0.6351332858556284,0.09525645729660247,-0.15458294426861915,0.005190935902304222,0.2577784660359011,0.7967258122179545,0.0475796742688019,0.39979143283437496,0.32242341551109394,0.05028107294961215,-0.6186269592243134,0.3585823825679045,0.37831298571998323,0.3306382494669217,-0.09845935113552008,0.038010376542442006,0.1169995426490494,-0.11862808995742932,-0.48090535904211923,-0.8596767411175303,-0.2771085633425248],[1.3668292207264578,0.20577663654015457,-0.18457900343682163,-0.12315267795455206,0.7600535667442191,0.30347388325392854,-0.2888542120058475,0.08481438057396767,0.008310394268752165,0.3646266367619979,-0.22273570776759807,-0.13150997595368522,-0.30757944408179616,-0.1641829163380739,0.5643687939191849,-0.3492638779497463,0.4875645965067339,-0.23104710383549493,0.0371355130494856,-0.13954491847894535,0.4613904446167745,-0.051642747476369606,-0.058355834442525456,0.09126514068141243,-0.13589816939901164,0.12317205864453473,0.5442373589925645,-0.024644977916845702,-0.45341642474087507,-0.4552311435674859,-0.0826663070291094,0.5156362388139349,-0.1763349807290642,-1.0177249927285954,-0.06793790898854918,-0.11158327531880267,0.4156782013148532,-0.18742009675415572,0.4365511041527695,0.19740066569689224,0.2832742054666481,-0.19861125856423748,0.15681031916246638,-0.10061760663497053,-1.235720283655435,0.8342717482769122,0.38998903843364646,0.10904718918277072,0.09637195580040854,-0.0002764782309684193,0.3197172251522598,-0.31053189539498977,-1.2174940897513382,0.13363680745870746],[-0.5339558666246481,-0.5182847937468904,0.30521741168595873,1.3684565671815792,0.16487793280802782,-0.07226787855923417,0.0219856868184873,-0.030862954387399857,-0.19654118516179647,-0.9118406408985815,-0.6683474412154771,-0.48539735499631154,0.3215972205771384,-0.5155251780265478,-0.24405973375620252,0.35862388135448925,-0.5271146080771156,0.20782660882505286,-0.37107952578748304,-0.10098972905010083,1.0279729046004213,-0.4519774670245795,0.06869463236818564,-0.5621699864589396,0.25551692966562156,0.01750737268342007,-0.2982311351570425,-0.08968480630006356,0.4451889232652821,-0.4690353261708949,-0.17515149974149422,-0.5199694846103593,-0.22338127793306511,-0.5662931229518853,0.03382859754479137,-0.27509851047429734,-0.37650583360217516,0.28225816744916643,0.6674823786352961,1.0971749521283864,0.2949742610083597,0.3876077602174417,-0.16835908280309303,-0.5853534632342885,-0.9154961564213996,0.7724360668617063,0.132168984072258,0.7808609594076117,-0.8131416786362577,-0.2758791261989912,-0.07523083223897961,-0.9724771124144793,0.309139268956982,0.010577994250523732],[-0.33968344427996955,0.3368188471510491,-0.48116971086512367,0.26554246567207357,-0.5283265240500008,0.1597404227465283,-0.44746739393734086,-0.33972528134518926,0.10135779862887503,-0.31467616658375835,0.37251112319648727,0.5932591486296245,-0.6383583255416667,-0.1487110892043921,0.08809560245110037,0.8757460153030981,-0.2803374595127556,-0.25139519685267575,-0.2688054165177836,-0.1902731575719341,0.2681447823601634,0.18895324844250252,0.470103387054333,-0.39644149471931367,-0.5221837512384114,-0.6573490008033408,-0.22333581232135571,0.03727933082746227,0.08551919898584576,0.025499224470820352,-0.4006895566162434,-0.26262243436847416,0.13038389349721544,0.310422043525974,0.1802393454575637,-0.23682731384792727,-0.24338790845573616,0.3270779408889097,-1.2943453534257898,-0.03517574859215305,0.035030649463101825,-0.26776826106372076,-0.09963988236181598,-0.681200074444237,-0.14067623313553052,-0.38362315559580923,0.9893114245607509,-0.39845833125232216,-1.0299304682009067,0.36668094573393195,-0.3380863464580476,-0.3426478431277053,-0.2573599787119088,0.060073463099431054],[1.3772578941657336,1.3080695203200998,0.10995348769050747,2.71610302468044,1.9257241447887286,-0.6364717654022745,0.44355750002773514,-0.07094994105857022,0.18485103843999198,0.36656024010234806,-1.1156493008845898,0.1165651524921076,0.20310789124131545,0.22673374159256948,0.1532087080078528,-0.8168568895203271,0.09961732137292538,0.35458796183505764,0.08640817936022514,0.10081706452339982,-0.9853831455724049,0.4050331287994386,0.14709394257967837,0.020236055214956757,0.05181862866427226,-0.7462839375335959,-0.006812945433066207,-0.18198063314986052,0.35560547521026153,0.3683097749123184,-0.24749913312782834,0.03213344478783417,0.3625553597457699,-0.6069742695836202,0.20857531125383824,-0.361517335243549,-0.023836684890623006,-0.25371128521732883,-0.2290704227034375,-0.24502937345950795,-0.30190453853928023,-0.1252217352018935,0.2583966617433651,0.04633730294158497,0.4092684280839422,-2.048454983918718,-0.26848333254313045,0.21132173840722898,-0.14778955694199108,0.02027433861054052,0.14757933700773063,0.44797513176916803,-0.4244679055803073,-0.24248168516888663],[0.1311094081663243,0.33774834256743674,-0.30292707576039946,-0.003803981125639514,0.0192338725724456,0.3452115517319022,0.5195152205809521,-0.3784491378198039,0.22467773866801688,-0.3694554965317114,0.09597537181572525,-0.13984018540884188,-0.38761027584847507,0.08893470381122927,0.48430126363628756,0.8146234147740771,-0.2818422725905879,0.4658882362360381,0.03354030513937204,-0.04326102241813737,1.3550044769433038,0.2191211710281279,0.39928482802485915,-0.438240722061254,-0.23053517477692415,0.2781761604783301,0.3229069337174555,-0.17375391793847536,0.494762955221099,-0.44948630691290875,0.2827126641590609,-0.11928945304909223,0.2836132686879094,-0.18582327266066714,0.37806198347223174,-0.1318325112683899,-0.5243646820493497,0.07296450666968703,-0.09457473962739987,0.02915069713671381,0.18695133828612606,-0.005146593476027995,-0.6419894590096488,0.9155997213193522,1.349596161562625,-0.588885403434485,-0.47215410362659765,0.9291882092687436,0.2235705326449717,-0.5604084154553626,1.3264917474263824,0.2943703375787474,0.7567140067911864,0.040457654983298424],[0.42058396353445904,0.12865699992814747,0.3977094478298181,1.038012516937309,0.6923105946419751,-0.11045896496469691,0.10914022379751147,0.40545935643044,0.23755019050474266,-0.14499247946947397,-0.431796787348166,0.12754288411945183,0.5378816749022313,-0.08830809198147689,0.07291282791486113,0.4371091536390863,0.1480161954366134,0.5800870419371397,0.074008029558367,-0.15705203790871058,0.39901146234664886,0.2512996623101394,-0.5379089927478033,0.43666857439432744,-0.012967592463990082,-0.6548156121755112,0.5773652369659411,-0.44518244063206097,-0.3680325077910081,0.7178810748211251,0.38245602695405734,0.2848407030594335,0.041497339929632795,0.3624998066721928,-0.013744540958429988,0.2704531372641648,-0.08213956363754338,-0.44224509184621147,0.2743512735397758,-0.547422423242285,-0.3915447131148557,-0.14643087088119752,-0.19774884498375675,0.3664595594559737,-1.6993704565205188,-1.170003957135581,0.5848788677543475,-0.38534824488922653,0.3267064256635658,0.1700057270975505,0.034098807244302316,-0.7094246375503815,0.556174258835368,0.32328917003164354],[-0.6083858754309333,-0.4720144416636077,0.17991004045326336,-0.24448229234983485,0.1722787550748477,-0.2986765133845603,0.7360983752990139,0.6075112654233776,0.02957395209234396,-0.7904370555153941,0.3283988791311598,0.15268094025613,-0.16511653177253316,-0.038091784260851254,0.40296203392767294,0.3554462624425744,0.08479013756621646,0.044536411204269294,0.21720518024040428,0.18829524472115064,0.4540804208073763,0.04042049151527729,0.6375236246360941,-0.9007868391178387,0.8762474564498691,0.29086280049898977,0.5114421498845861,-0.429196624962364,-0.5012472559116908,0.615323588916384,-0.09208655811619694,0.2765300243698724,0.17081302806997622,-0.06849671641900794,0.17553503379806637,-0.012945580378998999,-0.30307448040096796,0.34290680945343094,0.648469234013754,0.6590559163897179,-0.05005757451428212,-0.013888849348132837,-0.36067830534505496,0.4367243874450709,-0.6729275075423252,-1.0704999255885836,0.5582131331426369,0.3982020929341593,-0.5737736670575003,0.16174206755272785,0.2847868729230287,-1.4336563785156753,-0.8743840012031981,-0.43666153257051277],[0.006011425314536067,-0.4724455399603526,0.10876773385136376,-0.022108750948325512,0.7498849726382945,-0.6729064279751836,-0.17924993600109324,0.002773635920012893,0.5919678247886245,-0.2844527834580766,0.11687174425228065,0.2946625447961955,0.6311597059240946,-0.31462240542280656,-0.5228533777895763,0.4238652945232006,-0.2454100335225681,-0.20880157599094024,0.1519552468360136,0.021794704186688697,0.7155551402168561,-0.3270779252963469,0.18839506053992294,0.07605489882773259,-0.18969459193117208,-0.0005232097587898386,-0.02705066654163872,0.042848360738769714,0.08861624462326155,0.0915568472283454,0.3458620966653681,-0.02619542730566745,-0.026104283316637313,0.44133970320933935,-0.1610392177389583,0.46968553079260594,0.6944111249100867,0.03460562768451387,-1.2599781298728863,-1.0054919649997531,0.767528660686267,0.07539456824462974,-0.31211355574204575,0.8237025128787063,1.475824227389189,0.2769492573080798,-0.03940088002927081,0.44076035379067985,0.20427808463014988,0.34916079584874377,0.17990842124851522,1.0362446965135441,1.7116743025582688,-0.12883029554307038],[0.5172169638118778,-0.27081558942481126,0.3650280281207677,2.250371967454894,0.9181686658403374,0.017548802365957503,-0.7433842847507122,-0.13763411868778394,0.6304298483802161,0.03430155518483006,-0.5127731606805385,-0.3424043553937527,0.16232330032970313,0.09288574507051814,0.031340027805120976,0.3199134415016734,0.05912532108281151,-0.005879280292412862,0.006150688797825576,-0.17526844972741598,-0.3814353757321658,-0.18872572606239807,-0.15507930451965884,0.019086740003519936,0.027772432946163206,-0.14477569278926866,0.3876129799373466,0.108704700236188,-0.018434259882345667,-0.2689053455016286,-0.21190893620969417,0.045506516867661335,-0.01203288195237564,0.1384720244856826,0.3017438681769833,0.07824323784618925,0.23373603454804584,0.2728440290668034,0.09991192917053757,0.4615779735126418,0.3186053477492553,-0.06145164973742549,-0.4390649593712544,-0.5122044280889485,-1.5066839104587877,-0.7512572560084275,-0.21034057202711076,0.16755442357077766,-0.17853127198505844,-0.27199912174607316,0.629423808070993,0.6264093927156821,0.27848038583941154,0.13008140541334784],[-0.7783287668996179,-0.26696671945745226,-0.025888472976613213,0.11249748881746618,-0.011153610992900626,0.673214495330691,0.3919646687611816,-0.499356655640307,-0.2293986233188273,-0.09197787115367284,-0.2035175398524671,0.27371466138267453,-0.04029870240086872,-0.06486977848606588,-0.21130555737922274,-0.6463529378524412,-0.07358417885102875,0.3506205416802353,-0.4528341099925291,0.10784374114746248,-0.21523560982581436,0.08106997781699446,-0.2867897150010417,0.05231325308648071,-0.10644572612100871,0.9984493062685668,-0.32554765008007,0.25134832534109774,-0.2567208679262045,-0.8428373877093095,0.027853649938855616,0.33411072627452815,-0.9100788323860424,1.4688707695406027,-0.026536844729328983,-0.6882063385043261,-0.5522819803025378,0.4326570173786203,0.3584154836411661,0.4175374079651776,0.08132205173912825,-1.4302822929382661,-1.121719586974433,-0.20393094208417306,-2.1308054498513025,0.44709848599857605,-0.14751982111517867,-0.8122078019346857,-0.8954834164752581,-0.2760862325678009,0.28273438626949254,0.9951229440965965,0.9533624267508105,0.34958160959908346],[0.16702112950188786,0.23422658958706083,-0.0820521312845562,0.12087939928367877,-0.00330323129398412,0.004557454291343613,0.029519660069284043,-0.22923668808780656,-0.128852707581076,-0.08210595980922199,0.12278273563931104,-0.08501411189867034,-0.15864681307946704,-0.2636645198018352,-0.15785229037338105,0.16448707738497595,-0.13661635436326147,-0.24527452819548815,-0.19376227661186038,-0.11298265655510173,0.2161611963653041,-0.16444068860752792,-0.13070644379536003,0.1196729088764944,-0.2044859189973127,0.3828854869557944,-0.23049326438835305,-0.123962956134606,-0.1533746137102302,0.08186047761333756,-0.2512625599576212,-0.28996024629350853,-0.1951632528939713,-0.02674537602109587,0.053733227513604966,0.32532692533162816,-0.17573156325228237,0.19597004217783168,0.48267062357234986,0.490028343020732,0.13674604396124607,-0.7928873496018463,0.9299578041836848,0.22485810762031394,1.340589566338805,-5.031732959846999,0.17047649381060867,0.16071010913052167,-0.402959898634228,0.18207988595031285,0.2964172045955332,0.9350574489687331,-2.3152071483840935,-0.08747454522054192],[-0.32792474593057563,0.39878951047684835,-0.2816457693670658,-0.1626720185151451,0.7221845978432855,0.19912837484923904,0.13801359363673574,0.006435623921533944,-0.28902892042703676,-0.1506732616175552,0.2302029027337765,-0.08595726474010243,0.09178093673159597,-0.07356201861930078,-0.140416706781008,0.06489161733085762,-0.05627441670814439,-0.1778675071168117,-0.1843808957043598,-0.1658159624255876,-0.2012064312703152,0.06771594912985893,-0.32265773394598035,0.30508646245792037,0.2754505254499333,0.3773451189544484,-0.009438085197575503,-0.1021886272983716,0.00021763318678568963,-0.28250685804505465,-0.17715912374673948,0.19740462797691102,-0.11219541649608145,0.30310890873741797,-0.29706919580755364,0.28537577733658526,0.2669219599625174,-0.13816676155946833,0.5112130259552216,0.5414582468716628,0.21634874468135334,-0.38709612194894366,0.7793639127257704,-0.32740940812708896,-0.545628505541181,-3.96956190461183,-0.2893789679275463,0.44159103507359276,-0.4925561447126932,-0.2446879784936592,0.647638677492706,0.9081529170033893,-0.9008490845434892,-0.35535223618704825],[-0.8135543182066783,-0.4408739384912407,-0.10389348674233488,-0.35419654517631766,0.09130009176477553,-0.16377743977146403,0.8064516356709295,-0.5334281688439964,-0.3947859000213838,-0.47685496063702454,-0.00392465962267229,0.08671597079540071,-0.49208460736107734,-0.24952116475003108,-0.10889230275849376,0.758567600613226,0.15372293348470814,-0.31775610425108064,-0.39502509407718245,0.15931726254564518,-0.36042085685725195,-0.10181666796847805,0.5063717113662074,-0.8747759774387683,0.5756574718935846,0.01752241164037409,-0.09243900005818845,-0.9818652447302291,0.5624132556318838,-0.3894454239580383,-0.46932521496896973,0.5389244863875908,-0.42378449334204915,0.5957011695890894,0.08554622984731276,0.5941835467160822,0.11209503680609996,-0.1168978370073292,0.25262252906589355,-0.21464707901381733,-0.00632137755200106,0.8028569301928531,-1.089212124030321,-1.49991772510175,-0.4756579682267888,-0.1063666299986921,-0.45271820810937513,0.661956739952207,-0.25527797014740655,-0.2912814412088109,-0.5005309196854577,1.0544208377424105,1.071273370740529,0.030897766939705813],[-0.0048667156138830405,-0.17056421640537478,0.4542582568785887,-0.20504139508712768,-0.2199811333782805,0.34849034446744437,0.10437172409243951,0.13572078495045947,-0.2455244199522198,0.44707636734222267,-0.7198020550128047,-0.3498472276435649,-0.07288577742315584,0.22380286375398012,0.09016726521967657,-0.4143771274514589,0.016086586626868037,-0.16575917821375483,0.6004729357497121,0.11498565914611698,-0.07189426768766156,-0.4828993530253428,0.33561663124002666,0.4245473363477963,-0.19677280253186066,-0.49881739874960696,0.2168994752265842,0.20527004075640967,0.18298365290687213,-0.02939971289938044,-0.25132993353107647,-0.1184537379683276,0.6517040924170119,-0.12437432634830382,-0.005980725251814215,-0.029388799015641516,0.21011287682465934,-0.36930328394402495,-0.6787551805207966,0.41792717749650066,-0.04564997266185213,0.5577725134657231,-0.5268922699743581,-0.27978216480024704,0.5017575282970251,-0.7492291693795243,-0.494951924532347,-0.27067227119751475,-0.3321902509760556,0.09751060493674316,0.35945167339485734,0.11882855934509617,-0.3910536225717022,0.010822767604948236],[0.08908962017989495,-0.3112560928735807,-0.2608890155086725,0.20887620762012088,0.3697906989229089,0.23553380030151036,-0.17579020351620112,0.6626165967964872,0.2570744001453309,0.2746644177215447,-0.14403924787722724,0.23722938124208745,0.21363295230534152,0.22920571985290328,-0.3334789943344074,-0.48314346477560455,0.8636647723489583,-0.25284643480135616,0.1438407866478652,-0.20656956754923853,-0.1211020089818161,-0.21341160260745357,0.3750801415728129,0.4768415911727151,-0.19086672998731397,0.3347497179406748,0.17511727457902518,-0.12617155674845795,0.16176192644241394,-0.4566839950444808,0.46312705456210657,0.6235604921878863,-0.11507445312008314,-0.3385079749754337,0.12544021159742685,0.23398700998754438,-0.36757679179335023,0.24571004034854407,0.3602407987768341,0.3201256693560442,0.04234702893380139,0.21322840782878136,0.39547772163502193,1.1199633502160433,0.16787453521828263,-1.9061634745304452,-0.08833043390230123,-0.4048556287311039,-0.15665686559791492,-0.11045617022256239,0.5148289385267225,-0.4457365599528703,-0.2755009017363614,0.6155302750751216],[0.45968730332051555,0.16983130849587363,-0.166315180629424,-0.06743850386913201,0.5290920928220828,-0.18234512257372423,-0.07707866784395626,-0.2875217183961431,0.7688988646992353,0.04211513984060471,0.7526025137186358,0.28797370505981695,-0.3596494171146881,-0.3463902209463818,0.43489547910600856,0.4960566384928193,-0.0797541151548833,0.4129047899795744,-0.3227726001507131,0.2283261614462783,-1.354740445859596,-0.017773422554275966,0.3564497798237926,-0.08847070518725805,0.16406907252926617,-0.26970288620265426,0.34125727607380496,0.5211131426843261,-0.1460750223732752,-0.05187995277789582,-0.442681166078328,0.06853591390236502,0.5127720130961333,0.32981846619208605,0.3193178478567859,-0.177940204284345,-0.0449349800939157,0.1736414135804171,0.6259749758629356,-0.057628281147313665,-0.007820242111713746,-0.01871421935972502,-0.23004363476415648,0.009642111293068476,0.6549207704748294,-2.3952429618115354,-0.1734665732384262,0.38943200811958717,0.05762597629200897,-0.8791837866239567,-0.41822205382979544,0.4197305008185068,-0.2836409521885112,-0.24425583729666825]],"biases":[0.3535240745648064,0.07166477017553778,-0.9146619542267733,-0.20591519658164115,0.2677397007403279,0.47274912684509335,0.3841076203962559,-0.34433169261285895,-0.6439536923392807,-0.11224246899338589,-0.21710195609519814,0.6827338387213404,0.141951255794936,-0.4223447397841334,0.9967670081152327,-0.8220533508589766,-0.14171263148396296,-0.212193517015345,0.4771030046419656,-0.21881317917628443,-0.18139124529446474,-0.7295988364877489,0.21369311621238707,-0.34447527333019656,0.43112580529641337,0.41874716707246634,1.041682455612659,0.29917802467226606,0.05407349998494656,-0.36805374882605973,0.07583097062243525,0.5154082397985041,0.48183831131355465,-0.34499193079537305,-0.4121824430087897,0.05512183540257003,-1.2459377527018334,-0.1534198766374928,-0.8739498745291563,0.0327695257847303,-0.1957406588481322,-0.06785484812781532,0.7050582579580346,-0.6976551888045878,-0.21555680100785474,-0.13085351252837005,0.8869627881579581,0.15253567807134985,-0.39252481537099887,1.0214339976017774,-0.6004831394767466,-1.10307081828866,-0.7277542963202055,-0.02843939708164124,0.944980003641769,-0.5239091875372772,0.8796747738900658,1.158835759278586,1.4692005653976752,1.6183488835578828,1.4744060955154028,-0.10364668227538008,0.5470026516199182,0.831461877805089]},{"weights":[[0.014739253547545106,-0.821781433438864,0.019937335305015,-0.6787297816565482,0.8926096734837101,0.30290033595663685,0.18320343588623408,-0.3372970896463553,0.7131922766641596,-0.5111706488613725,0.162610343225473,0.4095537079216834,-0.49420401186613483,-0.32999752829159473,0.5955824533842792,0.6575344674825031,0.08902949368172891,0.33243997621128496,1.096478638948494,0.20702759961132025,-0.06643996043185095,-0.02465914951380133,0.36460836284656495,0.1310895235471362,-0.03661527459414055,-0.5680500128240561,0.10469789970606817,-0.21084346914207483,0.08163472189174038,0.28865140319428284,0.43378448747215886,0.12855816902026243,-0.10044254050020901,0.03502196947543338,-0.9887414409333414,0.048505290486423956,-0.300684829035108,0.8584194894009626,-0.05033973029648165,-0.18194698223210876,0.4403458110118076,-0.28523263190543585,-0.1605872404370378,0.2572498645429445,0.3565843939194536,-0.10202540210752506,-0.9935476644597299,0.14464170792662814,0.4863743991318598,-0.7072714182522695,0.11243898763869815,0.9309895214947055,1.1327642639202873,0.6069547879947748,0.8275450702563404,-0.06392758696959258,-0.11899399784722017,0.5250012238078144,0.2405887286995058,0.24121859728435371,-0.6208255519315661,0.0717201574947104,0.1690931394733343,0.35076645363158176],[-2.1045481927777643,1.6235471893291786,2.1463856004876702,0.6017410492278266,-0.8060099546642527,0.147229257402843,0.9309123517614019,-0.5635742532860085,1.473490543744279,-0.5758292445625325,1.1824255335950025,0.586034067985224,-0.8239065884464971,2.07129016149518,-1.2234659357555693,-0.2199260512310245,1.501520276645878,-0.7187723817240802,0.48957003372454216,-2.1946482533068696,-1.1850211934259236,-1.3476114351492228,0.8630950663528891,1.5431489509358707,-0.43624941848592713,-0.09213497907594376,2.105528054223801,-0.6299920278823221,-0.8037519928328877,1.0294009284648733,-0.05988198166269027,-0.634357235034382,0.3039566310914208,-1.0929625164708505,0.6326791313163926,-0.632145281458543,1.3667599790783542,0.13497548098808365,-1.3714606983970603,0.13386298917052286,-0.5415978324882417,0.7294800560142854,0.5987697678438192,1.1400137780879154,-0.8344986886546999,-1.021786165174599,1.2170834413584384,-0.2940815251956099,-0.3888181861076477,-0.42472287349380367,-1.0766159203386048,2.159665277133028,-0.10639535709260456,0.965601799891076,1.3067545404218388,-1.000035216505844,0.4302532853670951,1.9927238948005797,0.8859168626541433,0.6438299648358771,1.0628935547947265,-0.22123005937291648,0.8098635175697675,-0.0634818946136355],[-0.18201761346595488,1.1798424377838264,-0.027352456521360265,0.20219440465355729,0.2718939197884922,0.7029179151620912,0.32639932070286354,0.16976745126993298,-0.48924835588985116,0.18036497971074936,-0.12152354312646942,-0.37158802671126406,0.4102116326522405,-0.6400728935438669,0.023111175075174,-0.5030917462136594,0.0744838642956438,-0.35541194736069975,0.4710498304194359,-0.6522627031996464,-1.0374286667969836,-0.41215762717544924,0.48069501080900695,0.5736430879281542,-0.5157335293074298,-0.6359276223287311,0.1926036637610133,0.06940066184730309,-0.20261119688456977,0.0627645567244802,-0.3700299595178983,-0.38776378527005945,0.18005300331258095,0.6928394129441113,0.32923968406532217,-0.6339739507455198,0.2694315705386549,0.44066991089355506,0.14837634661650145,-0.4670693661842692,-0.08523251577229973,-0.06349103798099835,-0.7658628768549485,0.2093980817607522,-0.17255784867881807,-0.7617701839483206,0.22501264283739392,-0.21202574494170995,0.5297800519169924,0.4389326126726916,0.45635475968034483,-0.05983487835647362,-1.4822803230324921,-0.09829735205693792,-0.15383407349094033,-0.7844917299910636,0.7449515309490863,0.19274402212743277,0.052234388050636724,0.04109113987633534,0.6972938863486796,0.001517277202370972,-0.1534007466105765,-0.2940475952386951],[1.1518591734241037,-0.011391084072241252,-0.8735795459770901,0.28732817342519734,0.3573517699668008,0.6703652761634411,-0.8587189840553949,-0.2546211947795145,0.14225978435597425,0.7755964740433265,0.008578761781219132,0.28746776172328803,0.3715198140637141,0.13245818237134582,0.9489751390908483,0.12931856867326535,-0.42655114237264385,-0.19195990403458094,-0.11667144046184909,0.6741498021553418,0.880369771088533,0.06169179544947278,-0.41750716691641787,0.31837795850465267,0.24702653779704134,0.057590686127478974,-0.059849446007805965,-0.4454642650243457,0.0674965307937251,0.26103275007485693,-0.23298603496348458,0.15003217447574366,0.34675759351559504,-0.08521883154634549,0.71223616619736,0.6176626616650314,0.6094617717615186,-0.7123460408767557,-0.5331390020634419,1.228412388131783,0.2891792475227187,0.05840434412540359,-1.2410607041733426,-0.4344639654362764,0.3449772197259918,0.6997396890127566,-0.36019034472960304,0.10742615144362105,0.3785280800306738,-0.2560659078426071,0.38066944635424615,-0.8811964849244337,-0.32288281761698795,0.9220201312406128,-0.9523093688978662,0.06844569388416318,0.280235445000463,-0.9485517863546428,-0.032323801455583945,-0.12392366342382294,0.494168273243448,0.21258383907375128,0.23156697268886328,-0.039392668602678746],[-0.032572577062769406,0.5228375698300426,0.48178075621933236,0.6159956407095423,0.2559306234887021,-0.07801377487390501,0.30330922940258165,-0.000820283039431054,-0.15227489969771957,-0.38317054164796527,0.19617340357549184,0.053065259822167206,0.33673708028547106,-1.1510371439925837,-0.0008675550105385175,0.007901851918902589,0.16954929811195527,0.11290379257773953,-0.33254156751465597,0.2964526093270283,-0.1820781326764269,0.5663725914010281,-0.5610277774924405,0.19167577479866826,0.2870232534225467,-0.3996041253809749,0.16020389190757192,0.16903234417887966,0.7671966780186923,-0.29526153571171015,0.6977400117761429,-0.1320221785939099,-0.357538643844403,-0.05074794375872889,-0.6722985677362275,-0.010944764048756602,-0.4651867276824725,0.5676470133294432,0.6758687398265146,-0.17469188791373677,0.5114729030458856,0.027931975502749815,-0.1761773496881723,0.014578265340734805,0.007844414919695824,-0.6260470014002681,-0.11865574655101434,0.5238369932218594,0.493827722413459,0.6234296069723986,-0.05401303074842122,0.4593159985872126,-0.4905842326806735,-0.39141020969208423,-0.23834991358146854,0.13061885019853797,-0.33536268268564456,0.30479956559257265,0.11297596616707184,-1.4691461902551406,-0.43320707341982984,-0.5189771170290547,-0.276115165460468,-0.08032472051318083],[-0.1985994227345294,-0.41784976573421384,0.27611342723719806,-0.19603377050213844,-0.04617986090988099,-0.31555494745208046,0.4011170170579994,0.7197195358822225,0.017642582244545558,-0.6087239986150905,0.3472701954930228,0.034191232902939385,-0.316125985224892,-0.37668885784732925,0.32227205359942707,0.9301350747969637,-0.12268397298934346,0.2763041615981819,0.4743513177816245,-0.8621519851802322,0.5880913945897523,-0.26401525403744125,-0.08717571707412458,0.010117432514631007,0.1800815266616435,-0.4052156278168586,-0.05410813456881845,0.08162412639480249,0.2502657806651152,-0.09047467375087713,0.6697160253756879,0.23548128525198062,0.160567347392951,-0.6902231484181042,-0.7176251739356565,0.30405829299008996,0.21511345061166282,-0.058408585148026375,0.9206780116843701,-0.03919801074589881,0.3527137107491261,0.7144669257815606,-0.06620671747622067,-0.1945509975421854,-0.29766433590207486,-0.46141239678190854,0.003103537270342463,0.1386226979370823,0.4880262544779158,-0.2166082103146049,-0.05715208847632577,-0.08008667306056169,-0.02797787213378126,0.21532583895254706,0.24807993079301308,0.14461421196288515,-0.09188299229772494,-0.2978968465588708,-0.38948126155773233,0.008146536159770052,-0.3933268416345748,-0.22993053817747677,-0.4667943254230247,-0.2245187863623197],[0.054727912969605566,-0.8886432731681777,0.24147623623592648,0.9126260509693073,-0.7739203609979403,-0.6840380787811233,-0.14443532154269012,-0.16546193377052804,-0.08008935803408387,-0.13538171794295462,-0.12003428542421136,-0.3935843514972723,0.15536148461195057,0.25898439294560266,-0.40371636353747076,-0.214807303241229,0.00020472561634941503,0.803301124207081,0.002655041524637135,1.131349538216657,0.18787440857597876,0.20440044323118997,0.5651783841398849,-0.3874935168514279,-0.2467363803438401,-0.5801600721229754,0.14450811350962303,-0.24609193280392702,-0.37381026157459124,-0.39657282953649525,0.17345440211450894,-0.2135320581027862,0.4647493107019671,-0.7448469979971827,-0.1454303786800412,0.2906280199729008,0.11549317966081983,0.3321395421777457,-0.22983359729945643,0.0010835565759604994,-0.1414376689087957,0.40191618272973073,-0.006825354868158647,-0.1560561051473845,-0.31353955508651216,0.43610472286225255,-0.05729487531878778,-0.26503521061008983,-0.1020213067324032,-0.41579225134066655,-0.01022119536044399,-0.2586640437780549,-1.0003495586871185,-0.04697505835062334,0.6954254803285194,-0.543142458850663,-0.3252269354718003,-0.312095338966365,0.6792513571626855,0.20266878492728288,-0.5632228543228501,0.07804293455235371,-0.11920464817467671,-0.13635753369742823],[0.019001499424491346,-0.0930993700112936,0.02990313169452786,0.08835135957427141,0.9786312761834647,0.25188472024338787,0.23883026004271193,-1.0377343239120367,0.6509375873878653,0.5750311306180499,0.5661573172580874,0.09899960668302896,0.28737428160787465,0.5839403200893788,-0.8675015477354231,0.7050149451090131,-0.2929278021264005,-1.2001792089333272,-0.19268653603792002,-0.21929373889602638,0.11634836660445604,0.8968570685222093,0.3667673851953188,-0.4648750452795632,1.2040042347449875,-0.5293067739537116,-0.03520690052601138,-0.3346115013772703,-1.1821177022802438,-0.9253009531049677,-0.7325038411114045,-0.41545846361681754,0.13047089322656363,0.17922433241129127,0.0341357732120927,0.026159183436930238,-0.21513400026654114,1.32469432748846,-0.30766900255643287,0.4352192450940175,-0.5485798939992259,0.07749150796797591,0.07573353175637877,-0.2794950620419162,0.06372895336989205,0.08161298795917613,0.3778416531154264,-0.12833205276003065,-0.23842612827067305,-1.6084083160383278,-0.6597503448849107,0.23809290873257943,1.328589533513214,0.8158262232547615,0.5821639703753235,-0.7902725910006705,1.1313817647817723,0.20736479678618622,-0.9144243198780335,-0.13906973907249312,0.46152435911773637,0.008472999902113944,-0.9306844761662645,-0.5897738440669548],[-0.02759603831285424,-0.27739582835086873,-0.4661719335106179,-0.02570921934794773,-0.904590493435943,0.34116214827960767,-0.041800886643921065,0.39538814089366786,-0.0423259485658677,0.6280299164209662,0.055540261502604014,0.0666195149128175,-0.7304197989408321,0.03025756968565191,-0.24407487449023718,-0.05205866569508327,0.03464240725854566,-0.2650936179874893,-0.3889686083948612,-1.268431552136685,-0.01101597097087571,0.17729693076955808,0.06999120375270568,-0.4737995333809156,0.03518463370206957,-0.0018310031937349173,0.18554594132443028,0.1707227408788779,-0.2353765480501534,-0.8173478659354466,0.7318109813825944,0.07755613257029026,-0.431558379092421,1.1576176713134547,-0.19531578081661055,-0.29275170783046506,0.08956123096220223,0.6859131985992533,0.009161358603840253,-0.7460330587623047,0.43442581744128855,-0.5972691096014888,0.6208522633092208,-0.21750022632290228,-0.4876430898285708,1.025505214250869,-0.40690927777503744,0.9817651133084152,0.04050499888723285,0.5638146469485044,-0.3375572179756227,-0.046534911390875726,-0.34874280963660503,0.2685211919514016,-0.6679300644722166,0.7638542414359281,-0.44631372562865096,0.9552761006001347,-0.5910377063170341,0.466318965207759,1.282935427523041,0.014121498440808483,-0.08540550587490432,-0.04080687439622784],[-0.23907331883448152,-0.5875181799180011,0.2621693531742156,-1.5832457733225376,0.6717483956626268,-0.26102684145212046,0.33426235194296455,0.09631993209717316,-0.16283845349847553,-0.1752101778055293,-0.04891538528597077,-1.3866145281644375,0.4005167903647665,0.29408261170659306,0.34526757477519376,0.40317361876324814,0.6199362297491943,1.0460389652922217,1.2451780596831035,-0.09216958845917629,-0.8477968673278995,-0.30247050265161024,-0.7407189269494078,-0.542942277331519,0.6431837176832641,-0.3602764722540509,0.8520145722876556,0.03974855577230928,-0.997186462694119,-0.7985517317683872,0.4082151310871538,0.1941838575293617,-0.5216078305607769,-0.566041220381115,-0.108769641295721,0.2759331609206188,-0.5365586097350139,0.4615894568021777,-0.45866710233052416,0.41407278998128677,0.05910885684266833,-0.0771979808686372,-0.26392044029698497,0.4251348067427652,0.061587560934740784,-0.419615095982535,-0.6960357485019523,0.17502562768982785,0.9357536300492987,0.3370312016694661,0.2382170626586453,-0.127737236871299,0.49388450224629815,-0.023588762865393378,0.4912832907821376,0.17345916369140535,-0.6206225809463289,1.2760112464202484,-1.3381078917109557,-0.4192891312690796,-0.049900682146468554,0.7163861994746057,0.4511599103514493,0.5860909647567492],[-0.0724900277892752,-0.051825779402065564,-0.30652486377601806,0.16126946625330477,-0.18539030875564716,-1.0201226543138433,-0.2662551011299745,-0.09266459711954196,0.7173364760509655,-0.5908914115932297,-0.038143440281893475,-0.37770729975674855,-0.580525327257055,-0.4784589700660965,-0.2051870214526336,0.9431295106045663,0.24534496608947953,0.5328999735027936,0.41798175670882,-0.35768132703507605,1.036192698987975,-1.017510411987466,-0.5146580418016997,-0.14330644392517228,0.2757438134129971,0.48277276269079344,0.0665962552558143,-1.123832151180529,-0.701280262042292,-0.08751283615642155,-1.0204700153391058,0.00508852264216157,0.8810022513243883,0.2514969155701971,0.1989152465071492,0.5128954046371814,0.28706393776177014,-0.8831664951312473,0.010181617510282048,0.6089360619779168,-0.13307649925151016,-0.17363267273189006,0.6154243162750507,-0.20300093590649024,0.9963189184467562,-0.5419979872803762,0.24888472483198792,-0.7730870543448072,0.00608807441096009,-0.7192002361970066,-1.1815090867557636,0.25987053061577553,0.5709978606851166,0.14505070165986314,0.07705571917629499,0.2833939697455671,0.13197166975667934,0.3228801912932093,-0.256938895339326,0.22491734223569412,0.28765964914850867,-0.23910892375690002,-0.2221585868217504,-1.1920625432467613],[-0.5133159263109386,-0.381230071171839,-0.09474015250005806,-0.024187053294304938,0.23421149812348796,-0.12029421101546345,0.21633325708492274,0.11690226923146162,-0.40510946719023205,-0.699351140294831,0.36274033477491374,0.36215495021016564,-0.051655036849837375,0.17386195664180273,-0.32189671200920394,0.052004379544445874,0.09462616625384487,0.05897697408990784,-0.14317781324276665,-0.10025786960244512,0.09274878130698445,-0.1677736601066,0.5007070923166279,0.09443640428040118,0.5473487626262451,0.1451886675673552,0.013429487796816384,-0.5369215077673394,-0.015223679982633532,0.004101522299230231,0.32805039606597886,0.2675821595865553,-0.08864761189889118,-0.0034074652047019365,-0.09417428535596262,-0.16934159631616574,-0.32331374289417486,0.0750654781896105,0.5257562264134136,-0.3592098524406506,-0.18842750508854325,-0.09711335472901143,0.22031821893320566,0.09650669606627627,0.010698811238300361,-0.13519521929605782,-0.3246219855407453,0.07258635090920461,-0.42036351128807975,-0.1549497941158721,0.06318957820994454,-0.591809840730945,0.016355646010370206,0.29741465875010836,-0.7252791744723873,0.12696750589812378,-0.10976781691037156,0.3943707163226201,-0.11011383727636545,-0.1410048543016729,-0.269387744049192,-0.47868092888784725,-0.3071520491744252,-0.10360785827700296],[0.0014153922481717166,-0.004614432272953653,0.6878010743521958,0.36191377366161903,-0.13619442628349904,-0.6993768862598216,0.02581913696257416,0.6136866622542894,0.49642235258714523,0.4688280692895241,0.03860037780831854,-0.7803587748611649,-0.07922965880960561,0.3966949039312911,-0.8161532167253159,-0.23840368094683065,0.053011725766443855,0.2875575707671409,-0.0643991664626116,0.2790258412349921,0.39497570144264676,-0.020443173594800503,-0.6812666008850401,-0.10352989128202957,0.3059371332651232,0.5412806077788251,0.6193568041644213,-0.39105306438955867,-0.06291917927175056,-0.2632615405183986,-0.8365156728364739,-0.046016230342085435,-0.39647410780562964,0.34124715034017084,0.06528891141700012,-0.6867490185301666,-0.1232978162647204,0.4215222935519562,-0.5197682190356497,-0.24000923672319033,-0.418195261546496,-0.14728298925486064,0.24470741449315872,0.40813554926647777,0.6852028517397888,-0.3330928120453276,0.13330410804041615,-0.08758580950196632,-0.45349554957021715,-0.5227242388127672,-0.08478821285390392,-0.274659199328437,0.3258402774095403,-0.30425906550196813,0.07519289125894318,0.42827651769178166,0.5272051280081551,0.005088612846919992,0.22990926468628028,0.5587022738185328,0.5648445270686551,0.0485013832665968,0.2166866137633447,0.2277580750349743],[0.35883020831486456,0.018767107425610843,-0.05120827313954673,-0.386316522399069,0.5955613058152381,1.0459094704600276,-0.18706599979717545,-0.7129698622250991,-0.24529660094837372,0.629153991871502,-0.7172573805036537,-0.292492535176495,0.27497252268299,-0.4447591593860917,0.25210302424406883,0.03737565756071501,-0.21077715935965802,0.3178509276781146,-0.8395448541876903,0.8626747148135857,-0.06689914038915197,-1.4642685196616072,0.012169660726002078,-0.8582334036214744,0.8200241768045121,-0.5885572945502867,0.3982251627177976,0.33074079615834956,0.6753051001323814,-0.8574253447253026,1.182865324788613,0.27917415035632653,-0.36379365087584337,0.08565019772993834,0.47609953324683857,-0.11763941024796207,-0.45860080745666926,0.43730493249541225,-0.38738810513859984,0.05203382181343817,0.5526917783912065,-1.0052392913932306,-0.23100231125678872,-1.2222300857248374,0.5837619084298457,0.4817603972387944,-0.8105418258743031,0.6467708598442379,0.6448917412791929,0.2144149275712438,1.4476595831027237,0.25714812053447755,0.052855134832058,0.24585887187303912,-0.016972926025254402,0.1098952526392333,-0.5054790672867114,-0.3175542677907203,-0.4667919455121577,-0.9031158558467347,0.0959189084838944,0.6377138751761511,-0.7033474966886476,-0.312293342917737],[-0.46488750419694286,-0.0937150518296617,-0.14201286230302937,1.4801632655032166,-0.7752040730872038,0.18170400995333985,0.5256082750572902,-0.4033090760542463,-0.0561352549632354,0.2366268423398604,0.24517813247613243,-1.1226181032143903,0.9160237469322808,0.4269378196793975,-0.7847450574184553,-0.22210441406522136,0.40165017546021115,0.7161840522140621,-0.746169440745358,0.06121157965584588,0.3532827270546554,-0.026652723474609487,0.5310749275375226,0.38117575046924523,-0.43854501868406176,0.2986069438899716,0.8589496574070197,-0.9194457996653643,-0.14432822287257668,0.4255028564490209,0.4478877724653738,-0.38019823412580117,0.5672999375898082,0.02595504530009515,-0.8433237356677207,-0.058917690452808744,-0.1393205592081556,0.43908414611714774,-0.05726388943214427,-0.31100180717849757,0.9468468577271654,0.3308797835313024,0.5068369530942838,0.5719303054623631,0.16000899267583452,-0.02232063644958659,-0.36504528641555023,-0.07767731625452814,-0.49253823620641823,-0.8424778225318065,0.4009522406799295,0.5830786894690287,-0.5701274497821421,-0.9334042284992555,0.39110709675895544,-0.5405335105937898,-0.11771805403719826,0.4217030935421802,1.3257532311034952,0.6552101600142834,-0.13773612018595097,0.22937027654196765,0.11191632832181736,0.14223779130436023],[0.32861308771193853,-0.7815814300201159,0.12557159728595252,-0.34463551633213696,-0.014009024445149499,-0.19814369625318923,0.08038005506250626,-0.6809509302174984,0.48676878014696906,0.2919368978246002,0.20914879649957016,-0.7027561345299354,-0.4008513777339048,-0.1863617367620072,-0.0017659332950150737,-0.12532763993580698,0.6994214593705164,-0.04562773780240195,-0.20978755055760137,0.898864600244286,-0.2155875034184355,0.30161135298744357,0.3440852249172925,-0.4809996201373727,-0.4158128257966231,0.09486509747274496,0.39422607456653563,0.13176091186441105,0.10517439336686579,-0.15019375346206038,0.33194243973211685,0.32746825882406105,0.33399862885367176,-1.3273003772172929,-0.49584473960613257,1.3516983437783805,-0.027692321240847254,0.045412089137698224,0.6662799575681624,0.9396895354101285,0.6265939266043602,-0.09876110010569682,0.31139040869183293,-0.2277095677892182,0.020208944177072842,-0.2892857641873982,0.19196421199436137,-0.4210996745031893,0.7142583604700595,-0.4338205684010556,-0.06663259719777041,0.5141610016773752,0.5599943238454129,0.07294196734755082,0.3913603567033759,0.06163404049984763,-0.335866435144826,-0.9432768699155811,0.5607080670783225,-1.0351885123120026,-2.0064382373568312,0.024068372760436583,0.1334970551936026,0.21500992630265864],[-0.39094559607785534,-0.8890454802419661,0.4918904866883735,0.3084965942354492,-0.1642121278984183,-0.38671704949297353,0.28128717145852905,-0.812146755314983,0.22478518629505218,1.0863059578402954,0.3158841962879943,-0.33838377510875955,0.06093475176439306,0.027008055679698176,-0.745857838974786,0.48845989536394757,0.4220016761292908,-0.30554462288924933,0.8467600799085517,0.013553588126202254,0.19991590399157325,-0.12094904359287588,-0.007201758881528537,-0.16238747295413497,-0.12366779419680128,-0.7242376515788723,-0.14880267662733876,0.05107296119264912,-0.3430348497434872,-0.04099902411138191,0.0982226863181428,0.52835088147551,0.9382843891554669,-1.1727235310749298,-0.7801842425355795,0.20776976478655035,0.3570426411371581,-0.43735401374044136,0.5542154784572774,0.47587381875840656,1.6860848617286934,-0.35265929576829086,-0.34313023144754184,0.19795855434843618,-0.3817657795591812,-0.28111209140982457,-0.42640969187957994,0.6890923341323705,0.704210630647454,-0.15874960030021348,0.2495270047905938,0.21320076624401618,-0.6089787374556384,0.03935708296938724,-0.20854360272452746,-0.6598060794271305,0.0037194175246593325,0.08764695963728568,0.2706838055300544,0.4709599646782021,-0.9911252932408583,-0.14445649217927062,-0.8853486822601386,-0.3826005681720465],[-0.7941818065871062,-0.4292134894071469,0.2984494320659518,-0.6683642021278821,-0.33216362546389644,-1.3079693750052963,0.08891286518966193,-0.2491999474466186,0.15057712507492807,-0.3629519488440217,-0.2428074078854249,-0.8757357804804953,-0.39645902342985034,-0.1621479716143543,-0.19186409269631347,0.2613172639474339,-0.30649291452430905,0.5620784544861792,0.5200592538819289,-1.0891540222180498,-0.9660753604742638,-0.21184288975082924,1.2522314898032934,0.22674822488871751,1.306731350884644,-1.5526975478751932,0.4465780985461773,0.7230949455215923,0.4966903599423522,-0.6226746198669328,0.33800865096300065,0.0817369076209885,-0.06252288458350032,-0.979160018832119,-0.29892456466051165,-0.1093788544964481,-1.085155791089797,-0.8665432486319705,0.07708863486379756,0.6546675800154228,-1.102854305214999,0.006248525092548508,0.3223775757042611,-0.6249799139544772,0.6290317114481723,-0.10462452257026465,0.03398258190984166,-0.5454562946858222,0.6932584936409646,0.09449669720008495,0.5929560277717005,-0.36953301842299174,-1.2063208064463933,0.6176693242230495,1.2599814266774592,-1.1471211088262572,-0.28782746643646906,0.07518869271143412,0.7791408896151822,-0.043576385827077874,-0.3607990633451288,-0.7762044400283697,-0.609731256734547,0.38228551219790885],[0.41347028639822625,-0.07035164499968088,0.5371065654693833,0.7461954340380842,0.206279064922484,1.0383761894666774,-0.02409096425525026,-0.3990812000225222,0.1769534586393858,-1.584608444328942,-0.285869190360754,-0.2436895562441266,0.13477175381462225,0.874145054353684,-0.13399219955143804,-1.0573539355068953,1.5363934801252117,-0.5161493263136973,0.364373425726325,0.275639721192471,0.6434097461843487,-0.23830739452518473,-0.17079647027493838,-0.07538205961384031,-1.502828473673881,-0.8259259298985856,1.0364427138791574,-0.35472662836423036,-0.6612508933397097,-0.17178595410911351,-0.4742198635561962,-0.12364589547770397,0.20230807323070418,0.030916189357872353,0.19770732210946756,-0.06449722995195556,0.9474582655766169,0.1048452889845002,-0.05004918834903834,0.5181501961562317,-0.28571174656208553,0.3225317078063117,1.050169759710279,-0.028464676846863393,-0.758723802936773,-1.7004979013071826,0.5413013870047942,-0.8626633307204908,0.5487290042399376,-0.6896925577501924,-0.5060609041650839,0.38703410967402474,0.39491107244810125,1.828518331451913,-0.3922334200948415,0.023978123586254688,0.2921197043940303,0.8241619337358127,0.698703698941737,-0.47889495996178033,1.4675597046458844,-0.02939197075841589,-0.3285194108880804,-1.2942075870988223],[-0.8798629041689804,-0.6438796679890458,0.17092029721134908,-0.25575760886021354,-0.39012557609255594,-0.9419591649403117,0.68065629117751,-1.9647052890325643,0.9794429343188589,0.9347951189759746,0.5511876182424553,-0.2751759540521595,-0.49032863119568787,0.028268970231870198,-1.1192346977033882,-0.00524378207408684,0.6683882300542667,0.40348268108291724,0.6981030053810059,0.2982210970282631,-0.820108001043491,0.1068902659823143,0.7881379550790922,0.04346732477354422,0.6982170107898394,0.4497781241641905,0.520379254214149,0.1893902621198431,-0.37018585100298623,-0.5326775761421173,0.09925979012610259,0.3596350670637281,0.46126824580845976,-0.045623843866083806,-0.5359285808651812,0.33843936980743516,0.6414981118200225,0.24642651952577688,0.13157316713916184,0.8134498723475576,1.0130548689926047,-0.04390347698265703,-0.22832785207271955,1.2095249940821193,-0.004119629511197842,-0.2765084881446952,-0.3766243436121434,0.6692431349506632,-0.09558868193413253,-0.16464693875372619,0.6470050955548041,0.2702938033714716,-0.5752528282350996,-0.3963955109716878,0.8279116603223474,-0.7258014452544911,0.15659619933968996,0.4388432184261712,0.2998279566683054,-0.4319876728025804,-1.4449098993220209,0.06201547295074635,-0.23100710254708964,0.19260394637321707],[0.21706728609318568,-0.39110149729223814,0.5086335397304266,-0.21032605123058293,-0.3214060476539255,-0.019350401284344152,-0.29107037221873755,0.30386063714782313,-0.551901028434495,-0.30809389897070133,-0.24906089245383392,0.04344794691210331,0.5351064092101658,-0.38266192910286034,0.15006920976335184,-0.02615187110068205,0.1287962257232203,-0.644603438331617,-0.16977600176899013,0.0848644433109175,0.8211436202307779,0.0008870148581187281,0.28191981761848117,0.051367633593253983,-0.06577500294358307,-0.45122449960519473,-0.19088785319610796,-0.6597556084947135,0.34070041890715186,-0.10152609042522545,-0.26584094722600304,-0.0842461372407055,-0.12397320395665601,0.01969892603510491,-0.02802278028097441,-0.17027518716384268,-0.26283763226846896,-0.0735902923317269,0.14875292685541708,-0.16397013010070807,0.09599196772065652,0.12051051762024617,-0.06679537919719425,0.0479665455946082,-0.13586797569420286,-0.14737235562363024,0.4233542342070886,0.13728664427015974,-0.7807326778574895,-0.11120908401687893,0.08680852387741257,-0.14343002996521592,-0.07040511264724034,-0.22956860760287465,0.01016588446761279,-0.15840353408886598,0.29636712543718086,0.2938837067631629,0.08415249555552684,-0.14699182037693476,-0.5326005499725722,0.3220814038515189,-0.7168745099058942,-0.625533409880334],[-0.5467388731774537,0.1219980471199468,-0.3906591958548174,0.16624906927229116,-0.42433777599166744,-0.427677027781996,0.68376649745318,-0.921605076288611,0.015394049295537839,0.4325093061600353,-0.12098024850809438,-0.6352698320585266,-0.013832114193044795,0.17059218024607745,0.049619870872504024,0.6037046717638136,0.4044121530972753,-0.024086748514386462,-0.20471786483757065,-0.2760641119204128,0.1368800887473779,-0.33526523981785283,0.024520314157278178,-0.2178729983796209,0.5988270614291228,-0.33351593758267456,0.8042470221175135,0.5441012991227612,-0.19935268942841244,-0.2946800610546854,-0.04463187939798814,1.186946350392569,-0.33965825211667444,-0.3938799259793201,0.1981500212703394,0.2280858233287609,-0.1293441774295855,0.3509664129727286,0.19187451021973784,0.7681337250625284,-0.06928352881630223,-0.19645648652438008,0.24383865893537976,-0.39135659853467825,-0.49009637877567136,0.259034911256801,-0.9392176312720517,0.1752994588972748,0.2845685101477287,0.636799782302126,0.18095418681923564,-0.128713197743922,-1.0302230795746286,-0.028889236556809996,-0.040124024995790535,-0.057832493284035995,-0.006542877852215591,-0.3049079548000923,-0.34938913274703925,-1.024632048463779,0.220444697267822,0.13078415244634622,0.022584439074390755,-0.14183729068305015],[0.6687633669544257,0.12565344249716318,-0.447537541382077,0.6692290184179611,-0.0056851955843229204,-0.24822072946982676,-0.13544014105121785,0.11844452488127433,-0.007391634563684273,-0.1743030790762528,-0.7041416385389859,0.041839579841615564,0.011358436176689945,0.5547724108096709,0.3878930826506613,-0.041516326474031355,0.6983582332421607,-0.7282696956897218,0.6158102067675533,0.013457756601764534,-1.0349750564969407,-0.04556529056378567,-0.02151897239543977,-0.25995932653138976,0.4447605978475711,-0.3259330614702161,-0.1925335588114245,0.7306966043462023,0.10888305238488027,-1.0485865203169709,-0.016668518392896684,0.4594999763896634,0.5200782261052486,0.2039664511307707,0.919878802358085,0.5187813690722549,-0.325145517253741,-0.6557301658698026,0.21807867097650138,-0.22063011924990936,0.4909636278604638,-0.31811347749608737,-0.113898532208894,0.0923949103679041,-0.2053329511290488,0.5497295255391877,-0.32514169205646604,-0.32906234269671725,0.056966367869891135,0.09091073092773487,-0.3505138597394727,-0.9844108745935657,-0.4109028893135851,0.1912371116780644,-0.25001305451338884,0.06062533775027654,0.34725007348476644,0.1358122411818382,-0.31333465215440204,-0.5843569477336008,0.09887687492174287,-0.2897393109639174,0.26409474173953096,-0.3788256165850389],[0.45553621551721113,