{"layers":[{"weights":[[-1.2789974011813965,-0.6221828413164104,-0.05563641055970043,0.2942460894452733,0.9470747639330359,-0.39926453415053736,0.05648072579346286,-0.45119367889265893,-0.17958066015047416,-1.0158446275116355,0.6233229000122144,-0.17606723812651395,-1.3230574098830477,-0.5965971422168179,0.0782710707439545,0.9252507647958744,-0.8871867603993049,-0.02178820768529029,-0.8036343083232818,-0.33362708251413514,0.054803013681446265,-0.6666542464692126,-0.3318363285646021,-0.43233863460513,0.24259541770304965,-0.05647101671301824,0.03353762348408821,-0.4090165218699145,-0.15819988624574016,0.2612367502476361,-1.010983614462961,-0.20070168885335135,-0.592278437645162,1.058817144372196,0.022538216611817,0.15478244432882535,0.13246006394025026,0.08302145931069317,-0.46371682892444804,0.1081752341749122,-0.17536569863689921,0.12573707756409555,-0.46200625994057454,0.4007836162109181,1.5542941897275828,1.9091549165891508,0.2945789179232698,-0.575589543776667,0.13517414924567872,-0.0689465922884864,0.5699310657933705,-0.2050672271523342,-0.15486637726737149,-0.037680986996970506],[1.3718890248175841,1.469837405222644,-0.25744710852526775,0.8941567563744931,0.9057556375070805,0.6562282056969438,-0.42677534735530304,-0.24451521419966854,-0.33361903301194257,-0.5334812457248999,0.734759745074249,-0.28815338620179637,-0.7565411810528764,-0.3675251211802338,-0.07500724215728215,0.9392371170195749,-0.7465952582255774,-0.5466565479753852,-0.09387537114617535,-0.543194477671338,0.7325057955180835,-0.20836928487753362,-0.2176041539157916,-0.6372720386634652,-0.7380789134212661,0.7476848295497286,-0.9595415672200927,-0.5255405242152849,0.051334744970813,-0.1756330979456377,-0.18056242215534152,-0.6331290667643839,-0.9274569696774249,-0.3491065143497415,-0.08734908113625231,0.07892289183213644,-0.24610468056221055,0.8746838548514759,0.03756803145615713,0.020556141454557877,-0.059098701272160256,0.39932368914090666,-0.5198821062660841,0.2820867785198775,-2.6009524225201215,-0.795099440564922,-1.4485232594541686,0.6001005293168539,-0.5830453121074232,-0.03149641022828246,-0.4954124025807263,0.5900859885171156,0.8974434851601282,0.3239712908539993],[-0.235489986546303,0.012219145902558154,0.405428716090813,0.2594330044709689,-0.4928175676814964,-0.9971003616063181,0.7698226682873334,0.31075853006934984,-0.43764258778290055,-0.4400541744545525,0.116254691708627,-0.07817379973173266,0.09384796098156345,0.5505037720186088,-0.3558229631701646,0.02910198919368668,-0.18306902159722302,-0.24410767885521492,-0.08342719355375981,0.9365542629217479,0.6365258869758228,-0.055171209905625795,-0.3676126850955163,0.5205217113708501,-0.129506583286061,0.3119399394942917,0.31516902484204706,0.38628182777854647,-0.44229886583642836,-0.26972952342694884,0.7570739451403513,0.18164250489198647,-0.17813877739497497,-0.3734006124649034,-0.24370451958277517,0.2207265353368289,0.374617835684904,-0.5741531344196035,-0.5286958093972537,-0.566054337792186,-0.33482197847636536,0.04482131395262005,-0.4549448701755553,0.41817169009586924,-0.4811693766634468,0.7305867862962832,-0.34030312462443274,0.7933079416937235,0.24429313246543916,0.09299655690996088,1.0597833562487542,-1.074746520178351,0.06963918184350246,-0.2267729384812436],[0.40423973873217584,0.26971689070102467,0.051960280993937034,-0.21997611079146034,0.01669259388290074,-0.39572695070441327,-0.08414244330915578,-0.4310333173524327,-0.42584318437648444,0.0034948657375698574,-0.03357795557349136,-0.08563400436894461,-0.46941995425573985,-0.4458465602420701,-0.06989800559447297,0.1940563592261565,-0.07130000257134621,-0.0638501749255491,-0.1891965776438587,-0.8336998812162404,-0.7690076272212599,-0.2791947210194239,-0.49790531879583133,0.16879580079762965,0.6144178305186122,0.13197513218122378,-0.06131854273560021,-0.46623935396126265,0.3179087730313657,-0.4595519646011515,-0.6086412594448547,-0.27254351383397585,-0.23994910664929234,-0.3294209660489007,-0.009778584691863804,0.07208207268041911,-0.13800130506137442,0.6232134706093376,1.0189074465300414,-0.733816116316592,0.06493504884246282,-0.7837608450696324,-0.5928011382991358,0.43666789704504005,-0.3118598136032023,-1.0566189961343628,0.7909108838883383,-0.38336318280359677,0.6283795606140622,-0.008685693383692702,-1.5100023495016615,-0.8395422656953224,-0.938822837305824,-0.0016985090004595377],[-0.8654912334461047,-0.17373464700007518,-0.18706087180871803,0.2174891794072646,-0.18436159088213147,0.7146385815666185,0.45004767862483736,0.1671876818572521,-0.25434621851553446,0.15270523619261184,0.03623865856264237,0.05483714111212848,0.5253846447856416,-0.2711463351706293,-0.19356863108815142,0.3217540387999656,-0.09977573563367946,-0.10658342019326934,-0.1394097389426034,0.08072303239489681,-0.30539417991692386,-0.5015571843218477,0.29082090003017874,0.5857404426949393,-0.32430866092297017,0.580613638128364,0.08374380091072779,-0.5012574887557507,0.29655550467960423,-0.08939541238664529,-0.4191252298065206,0.06828194993927668,0.20052501843838755,0.17586532864095103,0.09089806135638473,-0.5929063147912733,-0.4454373058699514,0.2944166654992963,0.8958379019197412,0.17344391276466037,0.044227670155348994,-0.09414396745471118,0.21960579380131368,-0.36840404256521053,0.3432805460532762,1.1267736498397476,-0.24236164374098726,-0.4085032329701413,1.4418329370961889,0.45304887141701916,0.397748390799078,-0.009951538740673947,-0.12985425203502554,-0.010450865732586146],[0.6315005224960517,0.42845317583152304,0.06377652680188473,-0.37982467697790323,-0.8197114068870363,-0.31272451168092746,0.16713027744691117,0.2937777922067153,0.06010758771292633,0.16262540263413097,0.46365362353034173,-0.07108562326134422,0.041833188737759854,0.6901272022315897,0.05734109461335457,-0.5911807813658966,0.4043945698747755,-0.21839529972550786,0.12250146101922987,0.12812247864535256,-0.686619422940677,0.1423688387518905,-0.20117868351442517,0.1307356757964883,0.09612479033383164,-0.04359507842845376,-0.19454830950716034,-0.25726160377289387,-0.1774898935925414,0.3096632742279911,0.29151078678646997,-0.20989099565600236,0.24683559625561102,-0.12590969772918756,0.14891642363999982,0.34442009331446266,-0.09257985743458706,0.22505431464065406,-0.1578597821016396,0.32873685800733526,0.3799687860589656,0.3593350253613021,0.2507087644244864,-0.6533716048094076,0.22075447988376642,-0.252824553400571,-0.5082577864904816,-0.5941325476525318,-0.28609254402313455,-0.4025297336635316,0.7566231134098915,-0.4924669247666439,1.670821962573457,-0.19498875379709052],[-0.9613909468882151,-1.1111176794202569,-0.1970404955466605,0.13741888728308213,0.6044140353061588,-0.7238413429413989,0.26650368146328185,0.5448009260136533,0.7158310302844966,-1.1314376682002236,0.17604166830250814,0.33479429293874685,-0.14178467385380586,-0.04022709647337397,0.45947034807002773,-0.3967362634106423,-0.2656455940471199,-0.5140961242857661,0.5222926312782593,0.47095044708239425,-0.5588793595940033,0.2847824720839803,0.48939444647586516,0.057950379415931605,0.33990435647464606,-0.9638866253744859,-1.1344508584516246,-0.036927653009815146,0.43902687893046866,0.9540654322752049,-0.2764790713788234,0.159310212013212,0.5978775770697301,-0.3790295051399262,-0.27836470300253646,0.20009564272038285,0.12446734863307554,-0.0957167730870721,0.35697279694169093,-0.2339928099965179,0.31767042749486957,-0.11439928229227363,0.36150610785953763,0.4374131745148015,-0.1905170731026498,0.2171973778805295,0.05806700201703612,-0.33443581709218956,-0.15074919025943626,-0.1419835295354715,0.5174086007801053,-0.4413582668659007,-0.2965445559886134,0.09285555929900854],[0.48894194216783493,0.4396424024756108,0.21863385660025067,0.5974659791142786,-0.14805650561093706,-0.14259305917822462,0.6140168069571175,0.1741115463445614,-0.07031039000624315,-0.001609425478182838,-0.3528409367087067,0.2922729210951563,-0.08924405225827475,0.5639367752219558,0.2902972257600205,-0.3589425645400549,0.2766312147413302,0.13807361940254761,0.054849648073214484,0.2349660742691779,-0.21461411552619844,-0.3156832658005474,0.16558482815806078,-0.16381702380152924,0.8602968798198645,-0.6757354048200198,0.37014154862558624,-0.5827545257293847,0.5594837799432966,0.48961135176807846,0.5073449634807943,-0.2550794688754542,0.597363852297787,-0.8838309412649336,-0.12005082342076338,0.08187466731147912,-0.43088298775772826,-0.013284449477086667,0.506898567961877,0.27297236584056744,-0.1389995532393604,0.08680450918269439,-0.15577617845987304,-0.6660824695777097,-0.2009695999235806,0.38750581784406113,-0.0006727789174292642,-0.06139451858179183,0.21913946709517887,-0.02626060232485802,-1.175130077225532,1.5550261367010323,-1.0546769289609312,-0.5954638053371608],[0.354640783132405,0.5994895586349936,-0.5388972982811787,-1.3672007606400993,-0.7706348537692462,0.1330178982896202,0.11958241696427777,0.12415386095835307,-0.4707921803170862,0.9667932307860667,0.5080246057572543,-0.03223480461353602,-0.5977242938729477,0.3502425100876937,0.4188208623751037,-0.31229393218677887,0.6486453495299555,-0.4832561317052868,0.5583592148163385,0.33968201217573357,0.01345358566598436,0.0351812504925327,-0.2938886332439936,0.20176956399055562,-0.370800569383838,0.08068340263721355,0.6411242825255538,-0.12969535842222454,-0.6266543777412409,0.4808093873500778,0.671040008108499,-0.13181466454840268,0.02817466147654824,-0.029263335068764097,-0.10939926042034254,0.6008033836550613,0.04292333590676849,-0.13442624190191135,-0.03790175192754252,-1.035745879674873,-0.09681580615092979,-0.37290560656672306,0.3513301687274059,-0.2615250442362645,-1.9136497040507894,0.315865389216931,0.5979127251744175,0.15335559307786079,-0.1263819956920524,-0.3095277854581465,-0.5948480318139966,0.2795839620041124,-0.07835260215010657,-0.3890756100474004],[-0.0750644328570613,-0.30852691759610557,-0.382621553506303,-0.08883321099824441,0.2177660057049399,-1.782389899593247,0.0505825536367504,-1.0827867730524097,0.34265920535150834,0.15253435795399758,0.29048074557244785,0.22585730081285313,-1.563241741392618,0.8727339512402764,0.15971543311167255,-0.8316504779457117,-0.3895270704413385,-0.018158591863481448,-0.4083615285447612,0.13497174436932338,-0.5069009496043123,-0.07096531937904912,-0.4217872376261324,0.633326943642271,0.15760885855884707,-0.05364118458786186,0.10630165063539553,-0.21424386246736335,0.7489004589666474,-0.443547799954442,-0.8146050848227963,0.2662057021142784,0.16527818110739695,-0.42527269335464657,-0.22180263868676886,-0.1161721727116223,-0.021613890679920606,-0.14694761449256927,0.681010329364771,0.5163446501294787,-0.0966917982499752,-0.4956997885395051,0.14720266136289437,-0.6725394239727245,-0.32876774305695644,0.44517960638146475,0.38049624297553225,0.06444653490554726,0.7293245303525023,-0.5447096533601795,1.2466622151859332,-0.8274669309031416,-0.16288558110127943,0.2931619088620322],[-0.34317647539079843,-0.3554904243436356,-0.020902248380394842,-0.07716960583977792,0.5867561558914199,1.0625081016655429,0.6756569993141843,0.394728690859643,-0.1311947672932077,-0.014911639643795506,0.7914506343253745,-0.13810380825527477,0.638356747765849,0.15476617172799367,0.23644786992389558,-1.0752783452645496,0.2687747824608061,0.4720332027740374,0.3008571049451086,0.1455628005581291,-0.6099042949019888,-0.2773026078468052,0.6045787826859835,-0.09621857278578036,0.6265129732579506,-0.06349283705212651,0.5096251409319965,-0.042903971728916954,0.4335132145134713,-0.19227655297840238,0.2580522487314295,0.3281727844496061,0.5061345463536062,-0.4081554078397898,0.0018497533073202125,-0.2736493041300312,0.07903938704158363,0.2923309952642752,0.13896594383181457,-0.05973154815445204,0.52107418750704,-0.2248149530684743,0.2526297457386834,0.31963536168068024,0.15534446091600157,-0.7019706984820133,-0.9232697726968657,-0.3830727113596367,0.19376113871959966,0.06588527937014886,-0.8701962778006508,1.0928704006998236,-0.7331589365165938,-0.1324738016702225],[0.5885811413255594,0.3162184888301078,-0.1787126913906809,0.3361659236165994,-0.12046560386087021,-0.33099999452448414,0.056635212653270525,-0.28601874206974237,-0.029825027370496915,0.44735423833891297,0.2531017349121949,0.17156480568105037,-0.12159365630408722,0.164994473191683,0.14095906437704656,0.24857540506574086,-0.07612011386991552,-0.26495084916223155,-0.22745233879929697,0.21137294961085573,-0.1772610916148083,-0.1450266873854602,-0.07094220612365416,0.359429227491347,0.1612848379345416,0.7757177648622565,-0.18516502083281375,-0.2401808406042339,-0.1738299421171822,-0.1744942564951164,0.24776851839438033,0.4041190422231691,-0.40734397971031444,-0.20015751530320716,0.06143303035491381,0.43040461468535374,0.8859166434838136,-0.5923716011911516,0.19897061271884572,0.5038058130360257,-0.050224777887796314,-0.031484159822178885,0.32834104080135773,0.28538641679661675,0.5811162696443712,-3.1827350982259843,-0.541344445384463,0.2806177694515027,0.912129054310588,-0.08259115414496301,0.02164574083624301,0.26391961897410476,0.9228788401988279,0.332553864256104],[0.25319979941192483,-0.1309495148674612,-0.05425389423886778,0.015624533940319957,0.16727680925896163,-0.35912084281583373,0.21514720871258125,-0.7527640565653778,-0.1797634000597235,-0.39403552261662467,0.09795480352563592,-1.0289565373357334,-0.335129742011807,-0.3493654126901452,0.09458085541145225,-2.2173230170130314,0.045764630433729345,0.07866448729621862,-0.9400852030344835,-0.28070764356402156,-0.11306019420658704,-0.43005285904984164,0.08466467386285716,0.2942974758093648,-0.8032741975304253,-0.3522361786615615,0.4376651959055378,0.09160760476725693,-0.1291042534838845,-0.24265158478307294,-0.3651767427515334,-0.8892531866142318,0.10592740680985661,0.06279545423185814,-0.0612706865077196,0.22028910007672536,-0.04235103894992824,0.19879218666578652,0.14018568375109453,0.050057028568225824,0.05954741265064019,-0.1487565851194765,0.3681589336405506,-0.25202219680035537,2.260784490175166,0.9449400673430727,0.27088318589460947,-1.1876777806922696,-0.6642444011712969,0.05224581695068404,-0.1683559051129476,0.3190076413405949,-0.4752558174751616,-0.15384784026444734],[-0.006734649810801735,-0.2485433939770872,-0.1320777815848069,0.25659101411348867,0.5719132114306249,-0.08308856922511312,-0.25014227924735166,-0.5160763900075064,-0.058647804812002595,-0.12356357449706144,-0.3189076271645527,-0.4117113129602342,-0.011140010128645796,-0.3664247384347395,-0.09738198605823702,-0.07715269937092749,-0.05168039166285124,0.004943771297279649,-0.5710916688383533,0.013191381514332466,-0.09474419291197156,-0.44479817224658286,0.680591814820849,0.25088364433452376,-0.301589003667953,-0.794726639840193,0.24927497135174603,0.22923461978946588,-0.3309560237253983,0.18781904146589054,-0.4950155082720415,-0.8380518318595549,0.3847560660214275,0.4412776865404198,0.026236221752630438,0.6884087849131516,0.028325289209447966,-0.12221028421274784,-1.7127043362141479,0.4937719256801885,0.15477931264562408,-0.25450777343994585,-0.76721210538393,1.1709180424966095,-1.2785447019727596,0.8069490027626207,0.6161177057691894,-0.6662166869041851,0.31843190009503564,-0.4260820648892043,0.20816892324979475,0.6950296924385793,-0.11451787113861946,0.26118398148420086],[-0.6838148723127686,-0.898776179606642,-0.004456244313089149,-0.09124963499303235,-0.2827075444778251,0.311399853803177,-0.05732652306448507,-0.23774528419750873,0.005544551086733393,-0.8031934110017556,1.3919407234154098,-0.5221423605130668,-0.6537915200410337,0.35255729452623397,-0.004445624873122136,0.6301528895958945,-0.184133348140364,-0.7064682908955925,-0.1264604523504191,-0.2427761968578124,0.4600704245216627,-0.5065588711080451,0.07326651846570426,-0.46852057415108284,-0.4281518386402813,0.1024158703392416,-0.5940478723907008,-0.9023699674438359,0.3308618835325005,0.9931551720690832,-0.14270504617791258,-0.5594603385975563,-0.37367130731709225,0.7940467374992574,-0.1730508900706948,-0.022770403170763114,-0.2793496654667157,0.5973872379431372,0.2166560445071322,-0.05994372017806318,0.31263181058739065,0.23508585090346157,-1.0464494631530457,0.155393247979123,0.511349647767164,0.8680085911730187,-0.15003965672951636,0.6013950369659192,0.10664020959165631,0.04513006028817404,-0.7876369612825099,1.5855289274097728,-0.43099394090717114,0.19397970867700992],[-0.01084540678630342,0.3706028688471289,-0.07365953650558406,0.4901793565157609,-0.2920716788112075,0.16778328104616608,0.22041396619081718,0.1858276281328667,-0.03943098479579869,0.04563818784269607,0.31409834241544793,0.2651344882661209,0.33980982834456436,0.07144842850499686,0.20530569352130862,-0.11926064919723571,0.11880939665613188,0.2135130780957628,-0.17523422295576982,-0.09630890367465605,-0.1514773902880488,0.07304705240555237,0.3403633025447323,-0.14817788845614033,0.021781946610807353,0.6190942154518384,0.10121258816890888,0.07844642885726977,0.3277848684941527,-0.6003998487771174,0.2037120465206674,0.16157427715023956,-0.13300830112664833,-0.030179787403771433,0.06710153843834935,-0.4224984692134066,-0.3758054794654537,0.2634402049116171,-0.4168057578980829,-0.017720064174225843,-0.33233110744249533,0.28943022424184556,-0.24200707120113638,-0.05657899335571409,0.11890748317086598,0.4493217855595215,1.1804811251433547,-0.02222111288558888,-0.6321526748279291,-0.08937808512449126,0.9283194903934339,0.11088847188989684,-1.3697913920543419,0.05300547167991253],[-0.40929037523141354,0.30912078296470197,0.13498043630245343,0.7663973684458855,-0.26153241110694214,-0.5323216705015792,-0.2654184362060623,-0.6534635810144165,-0.11787501249261716,-0.1842798178172244,0.41664285049131483,-0.3279609217235761,-0.2200279913689603,-0.8482547317343293,0.27440092968513563,-0.055701149053135,0.17826028963405313,0.2792566715115632,0.02678913295610254,-1.7095628794440032,-0.029076563804716706,-1.2890643055909534,-0.12752746578955435,0.31708853903907974,0.16736811542015842,0.29445160650800056,0.07296662564362315,0.15849304872616143,0.2558967951945852,-0.7845383641114797,-0.502788853983097,-0.43625608891463025,-0.03385713454927957,0.06524013655822368,0.08676459887941687,-0.33873559027187533,0.30378105411550776,0.39408934456300904,0.13215779924608834,-0.2097550714559026,0.34096208939389844,-0.4744621336712016,-0.689815314231733,0.5092788183450461,-1.5251311473728801,0.5052601500080528,-0.09842337681207707,0.2709395006290249,0.07322625144887773,-0.4269429142818215,1.03604248525456,0.7741770295833,0.035307915579751194,0.3667477941601349],[0.002068101700813197,-0.6477575204382741,0.11389509138146066,-0.17039135683899975,0.6095217164877148,0.37909324723925386,-0.23951241147440394,-0.19696049872973248,-0.3237995552169167,0.27022896353897935,-0.7641962085085686,-0.4559461207884146,0.7337840467959712,-0.47769376159697674,0.166289995500124,-0.012773257891143851,-0.2285034119187706,0.10434252620539146,0.3175894421861752,-0.21109795466196388,-0.6296966383343069,-0.3691363832779963,0.22469011021885976,0.14548059076963998,-0.09933537803125767,0.22487306979620006,-0.14140369499963745,0.2702443822585358,-0.6041912164061728,0.392171229445288,-0.5809709465060197,0.2651413324495167,-0.2965447337472483,-0.4392345718623228,-0.024478280137764263,-0.0737326515047008,0.09573646447456022,-0.09205960389296154,-0.4992243539406344,0.35334579736734395,0.09865613569553096,-0.39162351920013505,-0.4084489317182664,0.6150217507230978,-0.9117703819158137,-0.7701490524663019,1.6345836259282707,-0.30533414716423224,-0.8170107444280973,-0.15949977482177427,-0.3233998759078036,0.1444744020233218,-1.0611710813072475,-0.2245554507123606],[0.2632301657753681,0.20959233438996852,-0.06279272329135106,-0.1084325848674038,-0.17261034673920905,0.354384435409467,-0.24214546672012083,0.08824281656254514,-0.06439993361095198,0.685214007361986,0.1566212172678054,-0.14657401023674418,0.38700270323438674,-0.03105489288415449,0.1399432630738616,0.4538352204348427,-0.5538558364844712,-0.1201691632781199,0.4603939784560077,0.02981054347454692,-0.8600478850012849,-0.37138894065609696,0.5362449060304418,0.24493635896048482,-0.23153208594608948,0.45179024381572763,0.4762355194780276,0.05389301674408201,-0.0914562280423313,-0.9775923447083948,0.25402655159640886,0.1263788602319544,-0.3608615174099683,-0.5678120680355591,-0.013709031020283785,0.07141971930581383,0.04892250265716338,0.23583225527439358,0.06697683292101161,0.3803940206315571,0.29364686887533553,-0.15525054529767957,-0.8615583842425868,0.19596775743999262,-1.6335593634370393,0.37232487224489197,0.10967703117245202,0.06714372916868447,0.4166016084515567,0.7087083425021773,0.21629085348045624,-0.5857052918426678,-1.123144558327675,-0.07685458407707259],[-0.6679272651223108,-0.7717120942942347,-0.4556004194560122,-0.5212747808504162,-0.02481920044020961,0.44739010547189334,0.4131820402053773,-0.09452915256645203,-0.34818079818347286,-0.5132787040376388,0.9948976614976953,-0.3330696575604023,-0.06842128288039596,0.46907564829011056,0.2086853439456292,-0.7880030510268937,-0.10614842393687425,-0.245157224899175,-0.2897507414598926,0.3745341654983012,0.27583719871934936,0.7377579899850015,0.31231094620435534,-0.7728712891768966,0.20073565059977108,-0.4634761257135227,0.25052929126393675,-0.0051061040395159645,-0.24612645219162088,0.4290314140690456,-0.23041883262732582,-0.04605625258851361,0.46212067416888863,-0.3182042662990226,0.08943540475228073,0.07518715681944417,-0.020990159322927054,0.09499119706127375,0.6323386809979351,-0.3708687291595795,-0.0011759648406446345,-0.563949653659865,-0.7252184580932199,0.23153599817201678,0.026946298537057378,-0.3450950764221874,1.3580861823317232,0.27584829565436203,-0.24762905538751503,-0.12636026846119394,-1.481163179428673,-0.007066871401730757,-2.0096997215368884,0.10763693812571433],[0.44031737151540484,0.15053241535336173,-0.17345337485287063,0.07353419174908533,-0.25733948581814065,0.5617397083300456,0.24035647634502172,0.521862102979879,0.306482627334601,0.2223378557351707,-0.23302561770936167,0.33339958874254527,0.371609045219533,0.5872679443202767,0.5202082624759338,-0.047869200175230095,0.2412781187404456,0.6491314660804277,0.798275460232839,0.29140302283703917,-0.2680130388622502,0.4792457382399931,0.243978788079198,-0.296092750818438,0.43013220863430707,0.49568152200995474,0.00121987502868622,0.36985964840813845,0.43586714606041366,0.3021885245295431,0.5679772474967076,0.49386550201661666,0.7186392406970262,0.14578035138926584,0.1107004852556934,-0.46089947923564656,-0.5661272055706529,0.4127046092827475,-0.024255689683330937,0.16778468487920056,-0.0811874263286074,-1.5438162530129407,-0.046878543290236115,0.5307308999854099,0.4687899793798243,1.294614184823239,-0.2685226064431652,-0.4501381801179941,0.055800437826739845,0.07556585301754154,-0.9344560549693522,-0.49174643705600884,-0.6244391434022722,-0.23502423193021657],[-0.39238880663591597,-0.45352339798878877,-0.16855119376629346,-0.449563234951969,-0.27082192009502654,-0.46672682572654917,0.7836608429914419,0.04310636640895125,0.2770280174063108,-0.7270245777727141,-0.9831622831358189,0.036800459988108034,0.5048002270095512,-0.09754141845107521,-0.01584674397260968,-0.4098979774030836,0.04797645921260607,0.3154291079269529,0.4331476152017401,-0.5785357509061972,0.8059693216622201,-0.3039899918175805,-0.18109069575569933,-0.10949184681381299,0.29867008623917707,-0.46872479255452815,-0.12975185485766455,0.2930575787986507,0.5273102240405348,0.34851419090493646,0.01317274229005463,-0.20797175454332956,0.528556277724946,-0.3687168390214025,0.2457064599265313,0.05437956026874051,-0.4674593067215957,0.40730984392046754,-0.5428784968939583,0.3294920611503791,0.24202007842866896,-0.24778704647321517,0.37644657165971157,0.19650364026221295,0.22747344629499397,-0.04179976256929719,0.4943402447021155,-0.669414865103436,0.3398331757616753,-0.2540551313407064,-0.372714765121159,0.47458602165418934,0.1927658949326717,-0.6575494315547421],[0.6789782962055186,0.4965804607746177,-0.10022595070529709,1.1712445418058952,0.1630654604186775,0.31660409218773644,-0.4631409166752568,-0.19693412516723954,-0.17396670153754956,-0.8262071206342244,0.6273094372813522,-0.9299859409376989,0.2699639205739533,-0.6696650518853134,0.2599928639851854,-0.13658845560232064,-0.20877451527107957,-0.8893736746515813,-0.10149651064686925,-0.29927496329970266,0.8755667723749245,-0.43923544384507063,0.01661762221330399,-0.1913925154314402,-0.31961781608615436,-0.4397713998993372,-0.09678648578546153,0.23142915165782854,-0.2460418537871961,-0.05979478319385259,-0.5132734305277495,-0.4288734052881372,-0.1151834780912387,-0.2974095532491556,0.1559892991593968,0.36612996490184535,0.5681823662070666,-0.6894864961033255,-0.19965079200627167,-0.3519382296195654,-0.058438081577104395,-0.9380114531165589,-0.5771680265540204,0.36010898271514846,-0.4274451487912522,-2.0841774504472546,0.7012390228448238,0.010586289760629149,0.37719424025099807,-0.017016863921339644,-0.048096585719169714,-0.3936018164097104,-0.7905612849132645,-0.25073059824976796],[0.6076487638197731,0.5795324841634913,-0.4377336716801796,-0.06975404091808143,-0.43215731371361715,0.34583305253669666,0.04623873263362791,-0.1747885643511471,-0.14971885306882854,-0.407843829871133,0.5430358184125483,0.33154467422689954,0.24214409424310765,-0.6982081398447639,-0.4464894266105643,0.996220242314556,-0.1338539468273064,-0.44060887382315267,0.33015958818253777,-0.4248809240915855,1.756710265178925,-0.2161453463548934,-0.20700170051024017,-0.288576698079013,-0.0869756426371571,0.39946352645491934,0.36960730925945035,-0.21022280626842224,0.2441306061275537,-0.387259487033211,0.2688275997452773,-0.3780328932827485,-0.4878949719763764,-0.0254189103850842,0.04752028617798842,0.12343068952996625,0.37216770339121086,-0.036689486562622636,-0.4381871673640867,-0.5429846228570365,0.47049942363833064,0.0009635492244100119,0.6955260809094216,-0.17246519633308033,-0.20956731569536796,0.6520979307828507,-0.72845952227844,-0.5681002831469778,0.07816898745305483,0.7930292293775473,0.11468903019295439,0.20339626970827016,0.4631559552005293,-0.04407192655886857],[-1.4421195259074528,-0.9900200494561259,0.08949401058082597,-0.4872631603319143,-0.06225759317312631,0.8599913269134922,-0.19437211742373178,-0.2642170310596079,0.5179838510226155,-0.3623177312962754,-0.736526594935722,0.011894837623489774,-0.3012036666944963,0.6313445314503653,-0.700159454304528,-0.6719556420046485,-0.33974494315931547,0.05184362163243937,0.04237484912939921,0.2650113666214987,-0.7994733361981919,0.648285745277964,-0.29974124485851544,0.0779892362958916,-0.4415234948241919,0.6208083202098196,0.39438598144621406,0.4041535558035847,-0.4719281130324673,0.20514324040802995,-0.4429082541054088,-0.058493237659427925,0.43311969528526906,0.27407677606620323,0.06597840761350914,-0.16680974660779732,-0.3306911008337453,-0.47296893585533684,-0.01381127713058087,0.7719305439008398,-0.7676770061520085,0.1284663586761761,-0.7066533287467845,0.3291581090007599,0.8327489659085296,0.5325483328337333,0.41861057006861346,-0.14002684808509874,-0.6631791626714546,0.15740793203800796,0.44535626382877486,0.6257786201993445,0.7763491497824634,-0.5740188629882297],[0.19000867389041015,0.285299918407548,0.1168034665924005,0.9974897129193261,-0.18183719430221718,0.401072701118081,0.2743703222549342,0.2916035482606946,0.06717463345715728,0.7237773800732222,-0.9279534629095934,0.058590102868101755,0.6003927574854839,0.08025055402926809,0.4488382728773119,-0.11014727681017075,0.18114409602914824,0.2552974099588626,0.4660213133433686,0.3206086350749679,-0.13265530292389674,0.8895700950890841,0.11448884824255542,0.3482135284246384,-0.5110781541085595,0.38060004060184205,0.26985808772153996,-0.33772977703526225,-0.22899946831683524,0.13782322318752932,0.3174004021783117,1.046998313426868,0.03838564951716056,0.30634305594498895,0.08078591991612333,0.013380449127861545,-0.5978695440157048,0.35784221709286385,0.13489668111288705,-0.14516556851297852,-0.1136329658422202,-0.11815657373417701,-0.3861534768123156,0.11966233461422722,2.7006098537088112,-1.09399135086432,-1.2980693106190444,-0.2852698416457614,0.6271484899548929,-0.037807579717865726,0.5919087376319757,-0.8050642176138428,1.3741395572048314,0.6835045879659325],[0.679746284680256,0.3743921831402733,0.030210230816764234,-0.016134302020486678,-0.7388024694084925,1.062882465122308,-0.925705324281537,-0.735449168538265,0.10421271890626145,-0.4000591169721315,0.5013572092861416,-0.6716205409059987,-0.36577266828742644,-0.4427799417775635,-0.7015922989796846,0.21984923197403947,-0.5340583165210702,-0.6566595060110838,-0.8377371231500146,0.2933794562014572,0.49223518232384406,-0.30231656394991013,0.017301156614547283,-0.9005222379005992,-0.09745101122275493,-0.14087219525248695,-0.32130091928659305,-0.9141549431039142,-0.49592065904162175,0.7451129237021007,-0.46359330574404234,-0.5408237780820571,-0.9584948795452612,1.4701273168034195,0.04624907181002256,-0.09132418838767312,-0.780569774080274,0.2190434155030145,0.03412447973175848,0.10111816585296454,-0.3514023757156386,-0.18411114947469456,0.049766181585472635,-0.16781774950309644,-0.8962526195437107,-1.3029275490616823,-0.18803931870252288,0.11892815684013526,-0.29281904946381426,-0.24976217198035217,0.45731401102568675,0.8578774068105821,-1.300357226563672,-0.17101059895198412],[0.4150963936375284,0.6155015321359072,-0.7542086074684445,0.07303620616182567,0.32931775502215016,0.8061381959735924,0.4790866946215566,-0.6960675201738954,-0.3396424828659135,0.13472700639426938,-0.003944498571114765,0.12235327642032438,-0.2891246050007356,-0.17076757506825524,0.018556066788665736,0.008690299607960436,-0.13949828750406834,0.1398831154214296,0.38408444979366746,-0.514839411523312,-0.05388307172725307,0.48010990199673226,0.34538428627984236,-0.03118779406381029,-0.3056308106597902,-0.5977541472331994,-0.38320096485424987,0.29670893514395635,-0.25415958607989103,0.4114759105385818,-0.20864422437931557,0.02876767653423933,0.14783306330721732,0.5483762147086392,0.13951576864720722,0.05178515123026292,0.4691776001293948,-0.13648082536006226,-0.06741123625596361,-0.2049857464778353,-0.036483684499311025,-0.19404223962340778,-0.10154385857764915,0.26979291566919544,-0.4283254911487397,0.20642405397775782,0.07938633811047693,0.7440954930169885,0.06674328985591678,0.3129328326612284,0.31505805023146816,0.3066870997102021,-0.45811941107489745,-0.08373642657332839],[0.030694000750026935,0.11048752153398163,0.2690577601224925,0.032996178400560044,-0.6966118703013935,0.31652186958770595,0.013715995077452041,-0.2694154804666182,0.20276864297008312,0.17608248816105254,-0.2043610749198466,-0.36107362156314277,0.12600564255179522,0.07477986159641384,-0.10861752843510324,0.4894362247587558,-0.1414417675215075,-0.08859753070419354,0.14520805523811936,0.061732316762207286,-0.36761891708656136,-0.035997817483860516,0.59599720359173,0.09122470030367433,-0.22332129725830707,-0.460077999488223,0.0467841685923259,0.21418822020340325,0.001053725537567833,-0.27256932791191046,0.5069661137056921,-0.2935414842958244,-0.04849359145340946,0.2480974842718234,-0.2208005156645401,0.46015323918661655,0.14344223774440515,-0.1563721445664946,-0.16587319832544967,-0.0715776503735538,-0.22955296472912692,-1.2754056403559966,0.3444467889379265,-0.09760974780774304,0.6734549975279152,0.6073116844629137,0.5328739633405533,-0.11891158462100414,-0.9671465538684592,-0.023109516757547095,0.6301920678995786,-0.21772272241900212,0.3924612211120322,-0.09877547935276043],[-0.7235614760818532,-0.09563825208749684,-0.05262722330511869,-0.6270619752913799,-0.8287313189049499,-0.24666728734206889,0.6606704035404748,0.02041336289838685,-0.774151497807699,-0.22269181037555444,-0.43642161982786504,0.1781527670298134,-0.14764056706997739,-0.19099083447175366,0.2787728875255895,-0.775872398917894,0.6762152696201204,0.5913064938189363,-0.43559658188903866,-0.7614384379003364,0.7659883822073869,0.17981990061461123,-0.12022253137244425,-0.0869360834900472,0.011210051626472607,0.44843468512392753,-0.05855545595502842,0.039668650639639744,0.0363472707133408,0.05611214524050164,0.1401142382627084,-0.1774653543487464,-0.030539043985706876,-0.05548609320999277,-0.02737797137798102,-0.39036485991518344,-0.2236441019320555,-0.39378113091655137,0.05127493089720541,0.29379895004139783,-0.30686863385828544,-0.31576549070103294,-0.09670260624767958,0.30720045571234955,0.6593165212978492,0.4285475566209691,-0.2005937700068981,0.13409339572254111,0.06730044906581709,-0.5274628933890348,0.033139267573928,0.0043009060211228085,0.5331005997774124,-0.35846728232429464],[-0.1000870528578487,0.8405334831968877,0.10442349654419969,0.40834329790814483,0.6723440328959664,-0.024156549605038484,-0.21656146759706035,0.309796631595112,0.2975387100360954,0.04894714690432527,0.24830631372739612,0.01317022172884949,0.18328110820693333,0.22993393215932595,0.2091105257575419,-0.33046792179612866,0.01000276465059001,0.48077212268510144,0.016689059110570365,-0.15206454301732814,-0.0227825517900949,-0.11633125098557327,0.00006960455795509355,0.10030242025058912,-0.36230689331268173,0.8951591669512687,0.5712257670919196,0.1358313477322965,0.20875479857517212,-0.9435266360840789,-0.03355270296100437,0.3771992226927394,-0.0081835356889937,0.2845011118245396,0.06592495484994415,0.12211105708262092,-0.10742533568833704,-0.2502248185162777,-0.25477322818978854,0.08968582815786465,-0.13908556066180547,-0.6039361988765917,0.9791460937663798,0.9336422981040027,0.5007543695657541,0.45742884359981795,-0.6093615767284357,0.09785211255176192,0.8013423236760365,0.1311412892189811,-0.5481158304943173,0.03415132774534262,-1.517171649231136,0.2688994674737532],[-0.6470897035096077,-0.30236062122012397,-0.21748744512111026,-0.10565428381943334,-0.49260249857944755,-0.12944479421895833,0.3909977705213314,-0.4807229745516269,-0.29998309688939057,-0.04805428235159397,0.00017214512783448162,0.5216874626532966,-0.18123632217718402,-0.5267334447381178,-0.08353961511449419,1.0188972870585118,0.0337422999770809,-0.14945753811671061,-0.3453768955697814,-0.18079718350356944,1.3565939776308553,-0.09004266344028813,0.24701299937598178,0.25755942937628545,0.010199110442778344,0.31329151364238056,-0.045277279675658956,-0.10877101445139796,-0.09643716490508623,0.29024284083170215,-0.08148417085799162,-0.17982316892351422,-0.13882710292400294,0.3251966508502852,0.3170404599068733,0.20148957407877144,-0.10021218499270496,0.031750714224100245,0.13806687629223977,-0.2277751648131374,-0.079695794103904,-0.1093786598141326,-1.2538444166278704,0.42893900913445476,0.00506785582850994,-1.3806940326871506,0.6270346985297838,-0.030547510609502386,0.49527771035023516,0.49022032677938854,0.6357547453479697,-0.5596532431164816,-0.5385947082817989,0.5290142307874974],[0.07967775124437988,-0.06296495424050581,0.6268584433285963,0.9859097296500516,0.42400805147087184,-0.5492773388571246,0.08857012901514265,-0.3076640281576541,0.1129667103902607,-0.006727597239834256,-0.9045283603561555,0.03566806807502395,-0.2796390658968938,0.7713876040373189,-0.6427899955534134,-0.2605955139766792,0.9136154187888069,-0.6467419047949164,0.30973674713126403,-0.17675654946241257,-0.8374642642960498,-0.2847925311249519,0.032257373405422674,0.16006800542517316,0.012878062690233666,-0.5621979991806556,0.4738171744938729,0.14696218853625473,-0.2957472025408762,0.02139313825371551,0.05568494017839677,0.06986522719808941,-0.22268566654096159,0.7324942914911512,-0.06336299127896172,0.26620030583259585,0.16523547757569268,0.09814456693450417,0.2596871963020363,-0.7040995176400211,0.2414818135993794,0.32726022105283537,-0.3293217653049267,-0.22468155858808359,-0.6292797666667223,0.19984174307076455,0.02932420514176929,0.28871392860558176,0.5579705505692923,-0.0025660568634979547,0.1920602547831028,-0.37139631252231875,0.16368618050417233,-0.4915576836849388],[0.4108563852411858,0.22387992036011398,0.2501307569016986,-0.03063723630209828,0.43281408276477656,0.2796879587137059,0.12140938982949971,0.22113483051971292,-0.36824436763571305,-0.3418967866911231,0.36862526360348097,-0.17620635164714593,0.19475635217731174,0.29786825565550834,0.4849729152816718,-0.4900708871877965,-0.03914816348069554,0.14541871107770082,0.16311676616461998,-0.247201817460621,0.2627271774440242,-0.39659569151715485,0.3377265600464991,-0.04202908864950122,0.015330944426309018,-0.7540381031153426,0.8415888333093844,-0.5590124111430324,0.5061755734833685,-0.3836523252672906,0.30285220332893437,-0.33929551032211275,0.2639511049767746,-0.8681385615970509,-0.05085661493761977,-0.09574065485556014,-0.1229822148464605,0.057659035064553894,0.6988294069438965,0.3125041030696357,0.16355903888650372,1.428609607339587,-0.02512819196154968,-0.3525369298115499,0.11378019380907838,-0.8909868661732694,0.09111503309610137,0.016474476994893728,-0.06673952641202635,0.12440551150457126,-0.47818948203634754,0.15375010829837685,1.5714884813679926,-0.3018310209580604],[-0.31883272202129825,0.038574792118360825,-0.03272321134447302,0.44170916070217764,0.08698376684813011,0.18947178281073138,-0.1750852012739636,0.04530340122302848,-0.09253383423503032,-0.10457121599968622,0.08272025180345766,-0.31774455087053194,0.03226134827786447,-0.014217187569995512,0.14287161155115638,-0.06335957628244149,-0.26747105768873336,-0.15130915541293,-0.29519933582486374,0.3417762317942796,-0.34223619135343303,-0.011709622131973362,-0.1502297848112153,-0.15160343956401076,0.44451329897388636,0.12256452014717242,0.43816608704138493,-0.3425864959005289,0.2947357995040963,0.35207433724345655,-0.4663036221919892,-0.1721650571187284,0.5909833253413448,0.12728982379381082,0.07371915985792257,0.4674847039194007,0.5335458160660956,-0.8875676342063669,-0.541482958465578,0.02588019403274636,-0.3059294939412113,0.5278926917709597,-0.029751993748331894,-0.26623373271987116,-1.0102064877228356,-0.9134465505598233,1.3721380354512924,-0.023749047557501114,0.6075381140987518,-0.09037157386420364,0.921513336279474,0.7438112368124923,0.4642129689883723,-0.42444611304241164],[-0.4918979977478862,-0.488047163391057,0.3530697303452608,0.7163074894083911,0.5539826629622687,-0.6175028953717918,0.026417383642681546,0.11442042336746631,-0.19463572158813805,-0.41544705750595107,0.4371075985708371,0.26524417727859245,0.16794310202804746,-0.0036506033473210366,-0.4818567692133174,-0.6779942348703183,-0.29521513269022226,-0.14107912339664838,-0.006372707173375729,0.20626977072035757,-0.0807194406958013,0.03924078560205408,-0.41702925610756186,0.3282104468864903,-0.2544793130531556,1.0769039826667453,0.5976783566739757,-0.5063847449709616,-0.370231515183743,-0.10779742980479087,0.1690898749125912,0.2512199319321152,-0.6117741346014763,-0.17739806529221133,-0.18877676364457482,-0.08493450837442744,0.5162263779082911,-0.35026859746863076,0.5804936941053327,0.07570042535837081,-0.08753612091697394,-0.7539347188212202,0.4658116913093546,0.3766086225683185,0.8509954447608108,0.04308822384790044,-0.05896350003666128,0.13007382942655837,-0.7452013133208938,-0.25799188172156523,0.002852551348586872,1.6923273507610732,-0.5242541927647403,0.1781286757721308],[-0.08602487649386906,-0.1872979920770853,-0.399847570360795,0.1378894919568385,1.1643242124273945,-1.373708672595568,-0.753868649251564,0.4533480883769682,0.9435702646888077,0.2948613804470284,0.6877850539313749,0.4780683617251631,0.046282185076499435,-0.03805685235945593,-0.19290909317659785,-0.5993322259990264,0.035210659090030384,0.4742615624732731,-0.10241541316588733,0.3029220917716645,-0.30067531601051767,-0.15981605306143845,0.19644933598915604,0.813990521212693,0.35535047204507414,-0.8016552539072214,0.5279716880193049,-0.2029109188011906,0.12110337054848762,0.02037215887495072,0.30772493162694936,-0.06776492732804094,0.6120980422789661,-0.3721032400966623,0.024556064554988495,-0.18372300768677954,0.07818964752324335,-0.30109419013429023,-0.06926042350269701,-0.43081318134534924,-0.47061771684074216,0.03468933017419925,0.5796365174126362,0.24260740011354562,-0.3113991696534286,-0.8776560781557555,0.8993638310694468,0.29108804891915063,0.5852074427540263,-0.3373965105863805,0.515903527700461,-0.26711851307553924,0.376702429276186,0.10653417295418632],[-0.32879646184605626,-0.489846826573421,-0.5118305056086062,-0.2898017111489205,-0.9351031879822027,0.5799725263633364,-1.0305485499483653,0.18420644890046203,0.2746910575408356,0.02772580744410859,-0.08470552732563275,0.1879558358529212,0.5148538970508337,-0.7677245496850522,-0.7271055305359913,-0.6554089962821723,-1.317348242903763,0.07327234329658691,0.20918921439141447,0.598095083352568,0.47353824432240627,0.2520603940516836,-0.012092533419057595,-0.19951365467580365,-0.2751124631951835,-0.19715925073122845,-0.26349501199817327,0.6697628924598742,0.014137091684655654,-0.22274826663486566,-0.5219862083514485,-0.6471157061188749,0.22587319873957598,-0.38123032550911495,-0.16314713664600047,0.2727225631958101,-0.4738685237417308,0.33091161740756175,-0.7226376856534198,0.3963305230986121,-0.23896690504728596,0.3516008897599509,0.5123818036296818,0.23335715065891796,0.597173450082271,-0.21573127531961897,0.45555580176982574,-0.3709542493310397,-0.08327831874170306,0.7437932359242772,-0.6742236920913681,-0.561045410881869,0.3814279580842412,-0.3993338178870387],[0.2763570155594414,0.8537876334721325,-0.34182295213547664,-0.17968447162229279,0.44896706087933747,-0.5743603002099124,0.8130019109015764,0.24199559743631963,0.20291741065792165,-0.1296962354297427,0.030295812748991686,0.253708497447485,0.503925525964112,0.30121145544622335,0.18321234965724104,0.3788229960590851,0.017400889231939387,-0.10659810302536937,-0.27344239555967287,0.8136091664221687,0.3679451702764122,0.4035680158381493,-0.23870117518760361,0.30995426355280986,-0.1271252047361401,-0.015920661607150985,0.3263289381372398,0.14371411767770711,-0.22264295368809625,0.3037350480024523,0.19989898044382362,0.6338841000878883,0.14051214624503078,-0.6728563596675077,-0.1418890997487996,-0.044367723680913594,-0.19528487576741757,-0.25714263938767273,0.2335990431381712,-0.19867319254669744,-0.6045686339203081,-0.3637465555225419,0.7202492924282395,0.5422543097344092,-1.5860346101199405,-0.18481754277081264,0.14537629258804682,0.48561127968591855,-0.0404527623875433,-0.503218134017241,1.461830041903804,0.2676345408488876,-0.7677355289352032,-0.33421096318466587],[-0.31774907172581124,0.2564298611208209,-0.02806418865025504,-1.582224801617219,-0.038142768232005304,0.029166345573484333,-0.8347587739168268,0.02274399319420113,-0.11212336126059749,0.17810252002001453,0.4737657691814862,-0.7862651697002312,-0.3439359504834657,0.2812789977370146,-0.054002462822441324,-0.3803972063061286,-0.16948622102653757,-0.7147960844002104,0.5053524908612909,-0.05455151201701218,-0.48617544784821276,-0.012584976098372825,0.0619719484553827,0.2672901834155635,-0.39789189399784025,-0.25512550855204313,-0.0995551963241282,0.008139355705328675,0.14168887464312577,0.1906313043749101,-0.9384280002275353,0.05784104138448086,0.1888593963361428,-0.2613068614882524,-0.07611361167459439,0.042446020567829985,0.4580011108512487,-0.4070355169833573,0.32814196215542785,0.713093176613437,-0.06423471039864785,-0.32788120517074887,0.28261057584922084,0.3509023224334958,-0.6403336275828593,0.1085705121459654,0.6815843482434338,-0.34076435639410796,0.2712580039336888,-0.11970346258173158,0.726932944410568,-0.7663315260428726,0.3807908726802844,-0.3321038309581652],[-0.8295509975084852,-0.9189948538915574,-0.07587964197850937,-0.39728248658544163,-0.10602259194482509,-0.17131939616582054,0.2608709500721539,0.02576199044824012,-0.12062771940287635,-0.8637959720157149,-0.5693870937912345,0.19770572097191635,-0.06903750361729424,0.16488295228424937,-0.48929035132614535,-0.43825202584942,-0.447213410805757,0.46088457370826763,-0.106551441416177,-0.1597529841947831,0.8224826142116302,-0.2066407067080915,-0.9842828630697713,0.49131717145068493,0.6737473742287878,0.35982810807438004,0.13441110653012214,0.2383954227508377,-0.55358196594209,0.34209846424898976,-0.2500308913883681,-0.5256416911762444,0.3800522953230633,0.5826014182939159,-0.006761866677026229,0.45272751851558557,0.18846722747997902,0.08331419005584709,-0.8937599872765385,-0.22601221861614879,-0.11041457692107792,-1.3406659864868746,0.29951798531760315,0.702683521908018,1.2915966017017944,-0.18099383876631153,0.4412332940029857,0.23652571690799926,0.12918245708734424,0.23202362915290198,1.2045922220851837,0.6580920232079142,-0.10574639042320326,-0.5826923099307124],[-0.009394760638305629,-0.1452669791007459,0.5104656370230163,-0.6115380306087862,-0.017722405162348267,0.09525186672306359,-0.17391875183237007,-0.06257460233593204,0.019480780365111278,0.21918202405757034,-1.089102066910899,-0.022530451339414212,-0.3123007796860272,0.18728024852683028,-0.2302825783274349,-0.807287502164042,-0.43042226885923024,-0.30927883342627627,-0.19373734655380548,0.12247126416175547,0.12812592134195838,-0.6801516334628455,0.39133039142466164,0.05275367208123806,-0.0597940634709753,0.25177064268553107,-0.02811709735447678,0.13219062445777735,0.012129920595942943,-0.07003343631851539,-0.11079500319771654,-0.21506624904413774,-0.09054040779542737,-0.0750110206206553,0.09966749169668006,0.47801566894267034,0.22929298764087142,-0.8929979870207277,-0.3023556371624486,0.2689691757478052,-0.3730766820915967,0.9387617888192189,-0.792792840977334,-0.3399744425070712,-0.22568093203223036,-0.38626750932538984,0.2852557852133478,-0.163156470106411,-0.9667964804576701,-0.344079432495582,-0.4754139361067027,0.512731145414014,-0.22782195862723445,0.16114523558729862],[-0.08288303430987244,0.13243507316406114,-0.016415711157426342,0.09253614031460822,-0.38668863468740194,0.30601149262471866,-0.29776538313528356,0.010868915165347666,0.16901282177357532,-0.4150378910607104,0.033205404866195186,-0.042403238071454775,-0.5592767107372821,0.2268229351411921,-0.22019230244160887,-0.8510770275567255,-0.6519729827436792,-0.34153762720434905,0.1318241940055828,-0.21251121869639553,-1.5711237329052863,0.41695514664963923,-0.7479469786999055,0.29370297282536045,-0.5333306931937125,-0.10488355766983135,-0.19766664686686367,0.022338198575477367,-0.45634557280569005,0.14578047583096482,-0.28515642298212585,-0.5433216113275362,-0.22071838733290727,-0.6325816215813227,0.0018718611200608287,-0.5268514630799236,-0.08919793666469536,0.16254734850283672,0.35876258171907704,1.1823781357790077,0.13740723803865149,0.16749607370239358,0.19735778115303085,-0.19990390488254647,-0.4339320542213424,-0.5973091544044858,-0.08656633274494557,0.06107029236384641,-0.8604950851997337,0.5429734454110613,-0.37049669066283875,1.6599124073321374,-0.49151568999038836,-0.38207619085466693],[0.1497745465962704,0.5544456387288468,-0.44101828849092123,-0.5810961404087499,-0.9813232318778562,0.2804567109546496,0.47561006405813006,-0.5746619480804369,0.37219099698455593,-0.5280609296552073,0.38640363187536075,-0.02033427669794043,-0.7720206573895325,0.6970390905465167,-0.26442436546904236,0.3188235063682525,-0.033870720476505994,0.24119443933416818,-0.4292495600453333,-0.2909432919053041,0.6123705603965652,0.35465714693625977,0.032775308664431395,-0.09404905559560284,-0.28271212727656136,-1.030127354299803,-0.12040905860755663,0.5454651953822645,-0.4241509277748155,0.6299177907441897,-0.11541724071399498,-0.3976006687703899,0.21721584945895026,-0.17552288485350404,-0.036330554885844114,-0.1798894578049433,0.12498366949259868,-0.05939476553897556,0.18529129283615908,-0.7182000313339917,-0.0708343518866425,0.033652939429881644,-0.010648877267595223,0.20441832663416196,0.4634226045052619,0.42274776906490136,0.2733319752854598,-0.6543190050147054,1.057615525279989,0.3594590907262212,-0.5289235251578013,-0.694735137375528,0.2561600829844617,-0.6650073228088631],[0.6261720002906962,0.25992862831473934,-0.2675708505642924,0.3455134314269703,-0.2947860085523314,0.09480494167435803,-0.0581571547424306,-0.4426257199062159,-0.2246874866000412,-0.6139818078183537,0.3933175716894354,-0.3563288346428269,-0.2335823584449877,-0.437371708644604,-0.16123286526674593,0.47512246893748566,-0.08799361680172427,-0.3631275139583036,-0.09207874165901564,-0.6264977964282861,0.9424263540220261,-0.4210106384715928,-0.2834159270189977,-0.10915143834448111,-0.6970738124961237,0.6558679839396693,-0.7243020425516224,-0.04392742231933317,-0.14623885197369715,0.037410549486310556,0.14234763075191564,-0.9301045624801308,-0.6016175558350682,-0.1921117670254151,0.191897258344445,0.011111877362409584,-0.045889401304084615,0.07229670800127452,-0.19304334712750454,-0.07319819934792991,0.055434197876944855,0.07666862094644775,-0.06233209083598421,0.484892063056055,1.0213208978702768,-0.10659542521540014,-0.9001442362266282,0.03611138688932131,-0.37774168361770416,0.5717168676412191,-0.033671820457571965,0.7912536471705255,0.5100014179020402,-0.27332430101340366],[-0.025013079669890043,-0.21660444744149737,-1.4751438109286388,-0.5157962501802189,0.4376126765255976,-0.3214595691400931,-0.14861904448723018,0.37857479804488503,0.23376730085168143,-0.6593721456243887,0.4813587333038091,0.3588995485756607,-0.13155849302686332,-0.9838060736038883,0.45294021068848617,-0.11727509229818149,-0.6425803072047628,-0.3542247504612536,0.9189169321046871,0.18171661416891752,-0.07095771208410122,0.4852765809036127,-0.10104559521091021,-0.433358762125711,0.6893232843388106,-0.5173214862292198,0.1371488686196053,-0.4427377065180269,0.26800620196250097,-0.12630852724125838,-0.060600981945201755,-0.14380129093682856,-0.013637051848825656,-0.3649762707349997,-0.005393714637435426,0.04095222441484196,-0.5406534477677227,-0.0007133272700190056,0.20383637745339733,0.15921525569566405,-0.4759981049185719,0.13505482989806591,0.23908032886336336,-0.48066469916475335,-0.04641332356451923,-0.25744377605682917,-0.2848479769962006,0.08651610016971592,-1.1171575755253784,0.7697335893311591,-1.0467014446963079,-0.22273698381376233,0.32307843288218585,-0.31665188985371945],[-0.39873475769273714,-1.0751433202770286,-0.013811320319156002,-0.969857928975699,-0.5738212489927016,0.0023989767788615154,0.36708998015344574,-0.3763279120376594,-0.22250683004409644,-0.3973752334388184,-0.5716285049560565,-0.3370243009924356,0.24118100621299854,0.5116871374298073,-0.07385462187897981,0.3883107124636459,0.16698392414692084,0.33647262623199103,-0.14529574395887795,-0.22651207335493792,0.0024546334058169364,-0.03433187441022095,0.4032051267188813,0.1328468033851914,-0.1827659119422833,0.2909648170812976,-0.5735595623656158,-0.10098266166878966,0.6552085015092725,0.5117526097971118,-0.023541918679465194,-0.29752029114500694,-0.06678877395143605,0.5175073545523508,-0.2667942126625188,0.06958393480769698,-0.22354282885987847,0.8012213386414708,0.136260086249999,-0.08631721108934436,0.11059553662248718,0.2661088432915237,-0.20140948284153953,-0.2678754310980295,-0.42258544578898954,-2.4016195130701745,2.1886811284434398,0.2525267706829198,0.0792712930819841,0.20077033960959248,-0.7812927203895222,0.18513651867383507,-0.3153787832541547,-0.14659338085310217],[0.23798358331633604,-0.2677303612403821,0.20964511701503297,0.08192530212099101,0.07480927272555236,0.3528418737141597,-0.08975381298509315,-0.2778433662709719,-0.15224675931711232,0.29461688095488514,-0.7901962822024774,-0.08095090480990631,-0.16735453766425706,0.6727552151758515,-0.5185454051519782,0.6224538449697075,0.11711536365637579,-0.3458126109218033,0.045441208134842453,-0.29744299702034704,-0.7118069270194864,-0.04035014543252843,-0.7141577203499732,-0.104684790146182,0.3760733891817574,0.0502516833942709,0.2439812585285632,-0.7751603328919583,-0.4259179384670993,0.2812295905376521,0.019166996575827412,0.3860483476390985,-0.6337091976589369,-0.801549906071911,0.09525645729660247,-0.2750313075110817,-0.06899934425490174,0.5065658915923427,0.8191174304068649,0.09080834427606654,0.5743885782336144,0.425126629666026,0.2308383976977016,-0.7680131961668946,0.6886894697053486,0.21001962887041403,0.5203468687784292,0.05167299725987005,-0.08018312024583052,0.06804633825742162,-0.5506726166892957,-0.6503331323728243,-0.8695049575298771,-0.07669278993788226],[1.2996968572931609,-0.166904274642448,-0.19534924552417823,0.20470844832508509,0.8863233986962277,0.2159547076963455,-0.27115582366728563,0.0754780333576968,0.0360438326890535,0.41891764073499704,-0.18882604229231725,-0.24248221879741808,-0.15759128714819354,-0.1377354501943296,0.5892918972012534,-0.2307285174487615,0.4194880590040057,-0.3301806169635097,0.34035672810169104,-0.18516959938482505,0.45563872252490856,0.0612821050925322,-0.22356047732023898,0.11685567327040768,-0.085894637813927,-0.1772854146185402,0.3439292444363375,-0.4815785694021008,0.0600431738667085,-0.14491225002265815,-0.01559409737876727,0.3724137265682786,-0.009798194618229155,-1.0147844031724236,-0.06793790898854918,0.09446650025828482,0.245620342926969,-0.0655362291072328,0.4388787020852826,0.09531690729529319,0.23510021472571596,-0.11229875243063854,0.003853596708014998,0.025869126906440425,-1.2464805954793403,0.8923720075586613,0.39747108451421387,-0.002347925254068291,-0.13289469999692913,-0.2995499588455388,0.5647141904191729,-0.6487890360927248,-1.4666038102852383,0.21628657773006044],[-0.2816422897944705,-0.5076963267460557,0.26047807879829615,1.1876031120930008,0.29357155394988377,-0.015094353103308077,-0.10251494728897782,-0.2669902013466905,-0.09460862066378113,-0.8597045942130784,-0.4671837708523847,-0.4356561098248346,0.16096848528507618,-0.5153669481360901,-0.33988974340927414,0.4757493291826627,-0.5534376668810224,0.2568991180899943,-0.5062028083927933,-0.195175166789134,0.9642280786546625,-0.48692893090438805,0.03723640936402494,-0.5190298461131706,0.2900645182314676,0.20156278482694906,-0.336424328478648,0.034342466047537386,0.30600901374097034,-0.5064718567177102,-0.39298881165227484,-0.4179090815375033,-0.3141636389782463,-0.4166132174888967,0.03382859754479137,-0.5180228270456638,-0.6407039673173265,0.44046947177730417,0.6909428121727234,1.0762258640552524,0.18898743162146767,0.40180559957337497,-0.3074987695911049,-0.5335869530465003,-1.1133952349274345,0.7286179577828784,0.1122199898965251,0.7710005080075032,-0.7931573949430307,-0.07487246027155793,0.10247095403936157,-1.0086978468688406,0.49285920533837274,-0.19309127848489283],[-0.3007663232533519,0.15633088297470363,-0.11650997592109362,0.0019065122886958428,-0.7702852438383081,0.15826563133510937,-0.46504695353561964,-0.12720165087827046,0.02362569947135349,-0.3023006638967132,0.4879315633020245,0.484872896013348,-0.630552431614114,0.043372548068042596,0.12617979826556985,0.7299954024173416,-0.2826928421425834,-0.16547250220682433,-0.38407965438798086,-0.028978757319575676,-0.1829880500681469,0.5552319836599479,0.611921058509115,-0.31254462993771503,-0.8790877950181529,-0.3624760941235399,-0.1481847392965806,0.20909522752929907,0.08178298783669553,-0.19075364201662823,-0.5061913098921993,-0.05451109878435365,0.15736178558722563,0.3546599453801941,0.1802393454575637,-0.1805926845866226,-0.10682357860591865,0.14205750843300655,-1.126620142265852,-0.1707839005980065,-0.013425453143000627,-0.17247991433122858,0.11882757312975195,-0.6746258371325027,0.22021221841715624,-0.41967773228682037,1.0999810868080782,-0.3395956965355511,-1.1334099292274926,0.19191332834129893,-0.23853718722489345,-0.8464900112068428,-0.21078712764898605,0.060805676234746746],[1.634115015072689,1.4186449966771664,0.036000292292063765,2.6483862388393518,1.9184230373878723,-0.5769575855884788,0.298190874812379,0.09500196224923645,0.22620638035439553,0.3808261254642338,-1.1682495773192985,0.25136306064798913,0.18433774475002285,0.24251346574915278,0.09760772755534053,-0.8633172471580934,0.16291863406202928,0.40458532850514706,0.11460832566393542,0.03552474422919114,-0.8211189923935955,0.480599428534951,0.21839325757896397,-0.18610300318230746,-0.014718595974765936,-0.4811961086657075,0.03929871999968845,-0.056624466600868055,0.19726545564474626,0.20221247052134422,-0.0452819594576744,0.0590922684611263,0.20958586777106028,-0.7440443646844582,0.20857531125383824,-0.3350989408293471,-0.1280257903075752,-0.1833469801835547,-0.42612850498860133,-0.3115996051592334,-0.3357293389224236,-0.02993739402101217,0.10790294763658613,0.0811215209086198,0.12896513682040414,-1.570938500224934,-0.23566472978305658,0.007516633327615239,-0.046722674665204994,0.06796077934012253,0.019438273517714266,0.4052526930939765,-0.02214434584276499,-0.16202395954822094],[0.38893681869212476,0.5797899826314294,-0.11105414346046188,0.01571490315863224,0.13958353693368505,-0.01804399508713009,0.2594301260987421,-0.39070557297817166,0.3153931132969305,-0.2709861323335562,0.4860614915741827,0.00010877371863331145,-0.4948510027145553,0.1338039979088627,0.32356694646374456,0.5460938098542825,0.08633087507789927,0.19225837873937887,-0.0252657295408395,-0.16215506872331156,1.4078186868158673,0.07733082797562837,0.16090321922604775,-0.501062883899884,0.008674520717051507,0.0713565987140237,0.23092302784515792,-0.4023952471133228,0.083353237316268,0.060814641755871014,0.4033402915415348,-0.10133986696181918,0.061879264404660655,-0.3839592652499325,0.37806198347223174,-0.03899982617294891,-0.5224763617077228,-0.05429075748159064,-0.18970068437899543,0.13759045220490715,0.06158439447648603,0.10935921055971286,-0.4667071846158305,0.7415922790873987,1.6641476894863412,-0.7672634819051624,-0.32974143385621996,0.9273481098519211,0.02237170527585013,-0.4218582090766206,0.9627363650735059,-0.38635195112272436,0.9369032169250567,0.08809000706552075],[0.6431190322956694,0.47703716862975315,0.41108153646700596,1.0056819255003575,0.7610354411022623,-0.11084519172154324,0.04232468765603862,0.21439223699004215,0.18353602291047308,-0.09575670128873096,-0.5907353577282672,-0.12898413010567175,0.5546636851212485,-0.18993192545646806,0.1516206204005901,0.21676311551949384,0.056907843205741174,0.47457788246310517,0.046544338721840724,-0.1956318803625776,0.15160342913545627,0.009898410770577317,-0.508290125358261,0.43113852180618,-0.05144470962634015,-0.23254929646909495,0.8246814504181053,-0.5615728497239371,-0.32970435516161606,0.3214223924162437,0.375584535859172,0.25625587457419036,-0.18570738548557317,0.32385559009619386,-0.013744540958429988,0.1522102376078333,-0.4659865006045735,-0.23263531424852055,0.49579004792176773,-0.6877376541832904,-0.5657818724842097,-0.04697223091218562,-0.03930835518380034,0.48265425440465637,-1.5902311254264831,-0.9576256320597688,0.551725432892995,-0.018617272905678342,0.07936341787264455,0.10078030272091754,-0.00730043468978317,-0.4622655951621803,0.24192614080178837,0.23758277204185838],[-0.44399696478780876,-0.39342774464276986,0.18295473551935207,0.30409631977102325,0.15750459204365214,-0.32024777678827326,0.6531430847595187,0.6205198912685709,0.04076419540337851,-0.7191703509894188,0.3698558559752591,0.08997074968509451,-0.2919351910237902,-0.038347512682167385,0.605256895314142,0.3574101238279049,0.0457494755370985,0.1835885274737846,0.05551890951606707,0.26248034434785456,0.5290273574130768,0.2273279436075079,0.32876048794442325,-0.7809397591607389,0.8835160781991611,0.26047920854344386,0.38667709048732496,-0.39682281270066433,-0.3434796561530003,0.49288567554088974,-0.0848362920804015,0.33885160222915595,0.11375146731763455,-0.16471204061393166,0.17553503379806637,-0.2844333402269203,-0.5331240435347869,0.5138981740627027,0.8002376312731962,0.7635378165247754,-0.10911577303922977,0.006980328344325547,-0.530007582645607,0.41652337970541253,-0.7386456291913773,-1.0345412289065286,0.42558617371495705,0.33781999471502566,-0.374489143250626,0.22971331636351164,0.1029985671967554,-1.3866449048174765,-1.000278909405317,-0.5486661048862455],[0.10859324513303317,-0.5264269517461856,-0.0013314350190733015,-0.14815179803269085,0.6619348508611621,-0.6351198091482837,-0.20699438128088002,0.13224670427174315,0.6036219804995655,-0.24659806358701186,0.02428883310799977,0.2993591205260957,0.6834886763361823,-0.344767674377488,-0.39849615632251656,0.3817781780656346,-0.16139397557258497,-0.17447685539368027,0.2333110173804831,-0.026664346251001406,0.5583024799338812,-0.20806250255305886,0.2313364272693686,-0.013540485111314046,-0.1395678870951426,-0.02907973127715143,-0.07338824978918874,0.028749476872308468,0.23318031486834123,0.07463095697184206,0.37461148494968616,0.029090970189469503,0.0410974295579378,0.12483783094422878,-0.1610392177389583,0.4878700558383955,0.45943575818517307,0.3130661344657612,-1.0903133887759564,-1.0239511937537913,0.8110138007426206,0.28926705286115884,-0.15803300752562174,0.5249737789761756,1.7972436178556948,0.3022931451073517,0.08885752053392633,0.2823904718064216,0.24124327269639978,0.43065788453383985,-0.14573346791376593,0.7944151033369283,1.8139154631343601,-0.09444495522765994],[0.5405041999163824,-0.6219116057039422,0.348041014988663,1.7015046451175142,0.9882554842872613,-0.08813026511593472,-0.6638369455951811,-0.22424579503954514,0.5299828173797536,0.07382977680722325,-0.7049080577237561,-0.432677066242272,0.137166547697355,0.40728447304472076,-0.23561238326249054,0.645850786155892,-0.10483970492289356,0.049363557246455386,-0.005799912507557928,-0.12257880652947668,-0.10669534181529719,-0.2489213443545874,-0.25303658129658224,0.08273389746120725,-0.0070975146091171466,-0.15139791686726836,0.06773550048546699,-0.16156394300115706,-0.04900607467144625,0.2765242028335701,-0.15051639761722932,-0.00858077915590462,-0.08732127109553102,0.14797662418481605,0.3017438681769833,0.2066192473399812,0.17024159888999543,0.4165497327119893,0.12150722558071365,0.4909883308884078,0.39881661573637434,0.059661138014640375,-0.7859226191427822,-0.2965990479325961,-1.3894149796109931,-0.8028297928510313,-0.38432983039998714,0.28789206419492597,-0.3401054743907899,-0.6335393016042133,0.7270031823985227,0.765315466359355,0.1889162145762815,0.20262656533459306],[-0.7332852023357066,-0.384501713233799,0.008393597535193144,-0.06400304996867406,0.3689723783193417,0.6565979581116104,0.35967684670911887,-0.28085683558517627,-0.16756579904569077,-0.21938022185897282,-0.32652438383058624,0.44830566109177056,-0.07840752698030705,-0.05649829385798698,-0.23551674556603028,-0.6486048220429481,-0.09864395390099351,0.40237668197648396,-0.4215579330477427,0.1705136705272457,-0.5621455191148332,0.19231417575561047,-0.12482502758664196,0.17157982517078701,-0.31440106106206145,1.2385376390261507,-0.24824933613964417,0.21072907524346354,-0.4750310155820898,-0.5220587677907054,-0.036024000986505184,0.37948331266525015,-0.7709312962804858,1.26061477017717,-0.026536844729328983,-0.7387506362088754,-0.42681825748940894,0.2480742610297126,0.3417786184140835,0.5080721848894909,0.02220301820338419,-1.5028047715072321,-1.1215635799190822,-0.29301289609629205,-2.2144723850791803,0.5319935305137828,0.26941579118257614,-0.535681369210886,-0.9618819390355667,-0.416379425103191,0.16083827025070638,0.906618897108542,1.038081279125672,0.2145794431193489],[0.26628861625564143,0.2344977879715581,0.005769047136056162,0.09451143812707169,-0.009705944287741635,0.011268704445315275,0.023863568116606695,-0.1389527139819143,-0.16655429265803628,-0.03683616559640065,0.04623093648547097,-0.08663605439247564,-0.11572777351854865,-0.2208644576649244,-0.14975335828832634,0.10987781305499836,-0.15452113363568232,-0.18556276739355135,-0.17084334395139406,-0.08551247945598477,0.03172510453452554,-0.04434500840435326,-0.11774682223315876,-0.01956873119323097,-0.07880950417964704,0.47639371935195085,-0.07951280516643845,-0.19322973274351168,-0.038702199409679734,-0.1567106760293853,-0.2785565451818681,-0.1282851130509811,-0.2373483096231596,-0.061676051687972064,0.053733227513604966,0.2680250052460261,-0.13077857383146524,0.20758277440282977,0.4418802845239965,0.5007847190316778,0.19331176560706784,-0.8254099982765342,0.9386843427775574,0.15166447734502536,1.2883378693052152,-5.300014030892375,0.17689820572410478,0.049568336240626815,-0.38894356449093975,0.06079206321134149,0.3470615385600315,1.0440837665320395,-2.0467857525634714,-0.11852825821811451],[-0.2247880698369812,0.5875458598700092,-0.19636899302658115,-0.05955162096261104,0.7859120086411934,0.13503346707404515,0.22441291822653245,-0.0443377500665157,-0.1377091081185183,-0.2770569750499065,0.3339203907459294,-0.004267270709909461,0.14500517138097718,-0.020005749980760126,-0.2683251546212313,0.028575369961845096,-0.03262139448477113,-0.17299534051158813,-0.21970360114138437,-0.09845639633924949,0.08129403886792398,-0.10599463687805588,-0.1228817403359404,0.2362215648848605,0.19295661568566383,0.5655067967791746,-0.14547578109673148,-0.29799030803658016,0.14119139055544125,-0.24172160471341422,0.008696325466489244,0.22219159417865528,-0.26227578243311983,0.3128410281562299,-0.29706919580755364,-0.1269131557881051,0.1694411940983685,-0.11672170638555236,0.58745723578438,0.5745266487473915,0.14031303399111733,-0.4236629366411215,0.8393590940594866,-0.6716837826649187,-0.696208029160824,-3.7888628681236907,-0.23013900461190082,0.3674294334726611,-0.17179466586134212,-0.2650140071027322,0.38785010315774204,0.8618331014010774,-0.8454867331636821,-0.3760769252821944],[-0.9510422190684041,-0.4638437141585473,-0.015048993926041107,-0.13769001718616367,-0.0870022723855611,-0.823782950715832,0.8063373754286385,-0.6280657536227864,-0.30454597901039665,-0.14525216284002668,0.19164242342019105,0.22108609490891953,-0.40147532446181383,-0.22241183580851862,-0.03389016492585272,0.3814283611132413,0.121055023631011,-0.19642348096612217,-0.2577264556609411,0.2604447844851761,-0.3160994055587857,0.03665282876622676,0.6185770410758272,-0.8986289756114216,0.6069220935326133,-0.381025694426767,0.24894504776196996,-0.9511890124092285,0.1697462559603011,-0.25141156121376906,-0.40032079109259805,0.6795837930844291,-0.3063573501282969,0.3986798521738671,0.08554622984731276,0.3729789556772252,0.10965067810470047,-0.06317773568101025,0.37924561750526237,-0.02423896857904092,0.04495436507291743,0.9602189562238934,-0.9498886439499438,-1.3578482604344966,-0.5736129388364698,-0.5562562802078701,-0.31160514288558006,0.3875546531746413,0.17731889896201034,-0.16603230458501292,-0.4611661929132375,0.8957600000387456,0.928122872359177,0.6291099161455382],[-0.3045894810350847,-0.3327381439023353,0.3680380790153789,-0.268515295908886,-0.25236616123259004,0.214790260099733,0.07676188379206023,0.20232577971070803,-0.17643234559257964,0.30859248443982823,-0.5627421241007173,-0.3501681758882617,-0.11815585720259143,0.2146851878513486,0.11447931506354576,-0.3698136086471342,-0.026241374695987762,-0.06496780935220046,0.5507926217472483,0.07580591152691069,0.12563441226785782,-0.7058309346547798,0.3342558643427575,0.4341342921708496,-0.10568002901904501,-0.4259687109401217,0.17063414017567188,0.21549423251992136,0.4678608600776047,-0.3100923530784449,-0.15811396842322903,-0.2102097808633268,0.6198475161212521,-0.12081192557666877,-0.005980725251814215,0.04592673603053256,0.38194633931796707,-0.5931834065829966,-0.5507323331382188,0.43009869960841063,-0.09769663280751989,0.7334909764520148,-0.795560790669307,0.04046197365838933,0.49193037612123053,-1.1203824272802303,-0.23494787603051276,-0.2100566631188078,-0.27670387865023877,-0.05676963433594674,0.36049201525459784,-0.2422130488444979,-0.1951151950032386,-0.03276730354983849],[0.18074197274368733,-0.4842640490497583,-0.3305748091411795,0.21250373609458373,0.6029907870123763,0.2941306253370145,-0.3632868940055992,0.7090960184126831,0.26858717384515857,0.2498067544991768,-0.1189177126056404,0.16222493946025127,0.17399454535788786,0.14908227604541463,-0.29307486019341006,-0.25399140717252555,0.5578562956904535,-0.29541724828128807,0.3285256578753944,-0.19723730703406495,-0.15285474372185012,-0.41136589075959873,0.2694232367184003,0.4965132767708199,0.021244246061970135,0.3375027974005811,0.1531050027303752,0.14896445167046282,0.3272402436008384,-0.907069050840459,0.3805934275255258,0.5835149628960614,-0.1468574551873999,-0.16667554240228383,0.12544021159742685,0.09743988884517678,-0.35936034542868583,0.2163894031569278,0.3778897821140164,0.24131281046562914,0.021242838106837858,-0.12018020715245785,0.20467906953597625,0.9948509794841464,0.15401126815690155,-1.4444528001422476,-0.07285280318741087,-0.49994345154881037,0.1748310991173146,0.34510726783984325,0.7641481640628762,-0.5199661534635293,-0.2182790715215528,0.6873433634952615],[0.34082372397711663,-0.19560568424013056,-0.1444641162140087,-0.08947804004806999,0.5489009532421514,-0.5470764330530596,0.09329609846312312,-0.20418687940160932,0.6338658804231068,0.25520933178396205,0.5987700236268735,0.1568623517436485,-0.2171312686496522,-0.08896935182790425,0.49783862780761257,0.23106311826127895,0.09105784690687405,0.31462279513584257,-0.12544159256196233,0.2902359996083524,-1.3080282833210457,-0.06440982129090524,0.3796498632136779,0.07554282355561809,0.2889436422455497,-0.29072387532901006,-0.04958071037578006,0.39396583834331506,-0.15563637006335249,0.6962217014040422,-0.3763621362218157,0.11343268131350398,0.7333270287974538,0.5660454036343924,0.3193178478567859,-0.1937004982779663,0.14709215853845017,0.050310342488964925,0.6922929841450945,0.04299867578371378,0.060875825429252094,0.06298517934125966,-0.10935991791673556,0.17036436415086384,0.6191043310600796,-2.3324491357092136,-0.7421834307797568,0.046204965925684245,0.1877181797341043,-1.024852444123428,0.10811367348144038,0.15448467605893781,0.042969200522716626,-0.11553892305897766]],"biases":[0.19993448556791377,0.2087914488755484,-0.9016472403143541,-0.023517846342141338,0.2188475343893415,0.7396784728048946,0.3843522770169428,-0.3491942169783289,-0.8222080980512478,-0.08591711555749146,-0.03226614271583572,0.6127452089691469,0.29923622362294616,-0.44276994127312025,0.8176782445663812,-0.7961124972279214,0.0688746686589884,-0.4253751706324669,0.3259600389003827,-0.3027177698664761,-0.35880210663029344,-0.38920877916195756,0.04395149854190007,-0.42799252285459183,0.4914553376855672,0.2958964769515554,1.0167884375662162,0.12846719060375478,0.4416461277983525,-0.12915493109390946,0.07866172681158218,0.513709006319974,0.5957285975405292,-0.4597132531547918,-0.38126372426273963,0.022186450568654672,-1.3402942792231836,-0.07042069500249704,-1.0642153087427613,0.5197521762171788,-0.06422246542360947,-0.26153766386118077,0.5576172133106662,-0.8934778473117142,-0.4773114806852545,-0.1120700431973334,0.8250191151224993,0.1058881282072756,-0.33146460144621026,0.8247141025711987,-0.5163496518133063,-1.5111756333432538,-0.9451107373071417,-0.27844012924221867,0.7744690184681898,-0.6275358823569205,1.1487723048559433,0.9148143403725332,1.4034997282537112,1.2490689708665952,1.424487128560455,0.06337896289128936,0.5000198966703807,1.2875695540081369]},{"weights":[[0.12897618961067142,-0.7915619148930115,0.15249416028388982,-0.5790279279039436,0.8263895617010807,0.4332577482717014,0.21614031953719262,-0.5254368411091787,1.0264165365919995,-0.4748398339509438,0.1186217880356851,0.5503091462238637,-0.5898477067933171,-0.3637789297926757,0.5571960734716273,0.5488692156472412,0.2140347363159071,0.21348842109518848,1.2098127013018822,0.36490344621394794,-0.2655633036619148,-0.2655227549260773,0.5227032241831131,0.4415136919196496,-0.2177703186033732,-0.38253801026119816,0.07322341809440851,-0.10937436998211268,0.2766636529176376,0.293015251878028,0.46089416930814986,0.22040672094549574,-0.025804313397787902,-0.060922427200737136,-1.1274208595559119,0.11591306739909481,-0.2085143215219103,0.7119836698040091,0.19815630256715325,-0.3932170231512811,0.47703234192860416,-0.3479308248329036,0.04049613872487644,0.33873841268867333,0.5861665093262212,-0.4808368602863916,-0.6871200796539899,0.10779210364986272,0.40874316957636286,-0.48246889949094884,0.14865035050152106,0.4824286078830495,0.8736269616627235,0.14411470198245227,1.0033623560877205,0.01478038960333773,0.08830242041241261,0.6423809746200383,0.5973518608493652,0.14397094708497127,-0.6316073095548465,-0.11439943286952214,0.24713219188268493,0.3292774395751218],[-2.225859331036074,1.8767470316504586,2.5339371327095224,0.587119769044559,-0.8738641757111352,0.1723792203920622,0.6517576795259478,-0.3924779673814916,1.4111167520758119,-1.0708348934355607,1.476100637654411,0.5613029145788586,-0.8547092458155592,1.7635020179378722,-1.2451698910786255,-0.26935469368315124,1.4915402438112288,-0.916747412754311,0.15510566602658696,-2.2268239764248583,-1.2412205779600523,-1.2803390682911122,1.2698284057805687,1.4312376418185326,-0.6812290018795848,-0.21036957839871864,1.740320411030405,-0.3409126371343708,-0.6018796435707195,0.8585184845512853,0.029902846222842675,-0.3135133311190877,0.3035429689155629,-1.1070175877607014,0.6480313592461991,-0.6632861048708696,1.6855571049061686,0.44627799078540653,-1.4956976574133898,0.690885768979163,-0.6478772412017709,0.5055186427870478,0.5360546708226497,1.3931125857574171,-1.0879263538151893,-0.9269501156998351,1.3331978620290827,-0.40042047571473977,-0.335499401567024,-0.22560034938484905,-0.818108995825398,1.9362786680355157,-0.20758994831607172,1.022273506035373,1.1859591067536943,-1.164505864836146,0.5577214001185062,1.7081381053250468,0.634552539676781,0.6078429639894789,0.8655572275678698,-0.25651210172051325,0.35486708428082075,-0.14261078381107284],[-0.5362483305038347,1.1095656184009741,-0.3461043515066568,0.28880105794528343,0.47386080682429815,0.6010707429842083,0.40991728915357706,-0.06876791068717482,-0.28277294016137633,0.6679824245304821,-0.12016617874426812,-0.4491930492142263,0.5789483620994106,-0.501489903442357,-0.18356950192477053,-0.5295073014474113,-0.07749913723313558,-0.15357783422008717,0.1288242472454124,-0.6747650412207608,-0.8753767520567914,0.08633460065678977,0.8364898759581454,0.5070057361136721,-0.14977145704698044,-0.3552290590560239,0.5143144908485714,-0.019043229364423923,-0.13072175522571544,0.09176978132900147,-0.14049702549596454,-0.16415366734562048,0.38250046872038274,0.5501613124172916,0.229182337559347,-0.994214935482889,0.41009191225326713,0.2381998849884103,0.005120699748136732,-0.4119148792634932,0.03712115130424009,0.1071893603409796,-0.2763670385344577,-0.6334856848710815,-0.29538642443583396,-0.7921807889726882,-0.10048117249031328,-0.0013207959105948426,0.32046878544102586,0.09958216725795821,0.33272547830591537,0.07234428186084343,-1.3294346510820536,-0.02582602777121626,0.23505467000908986,-0.553526212437703,0.6145870249831461,-0.021510733042392025,-0.320362526351839,0.07832728240653748,0.5632034620308891,-0.47670187260397784,-0.1003383499390088,-0.18735989463822159],[0.5882285260147027,-0.5318094608171011,-0.35154050952028526,0.4056661593458214,-0.3090524417617139,0.6141279401794197,-1.162514327637331,0.01332231685558942,-0.17905542955338782,0.8916034383055045,0.08332689154291076,-0.15380964355493146,0.33036145568954983,-0.08728397441145383,0.6354281125291713,0.04274319787621117,-0.12963488048647767,-0.23634557899467903,0.26166738635648834,0.5567905509284988,0.7080115030727929,-0.05101639151332937,-0.16878888393887162,0.3943395249223508,0.026601031685535667,0.20421831563342316,-0.24567571945850214,-0.1923020862707478,-0.020846053015738393,-0.3339957005703678,0.061001996836207995,0.614646042950376,-0.13747276601168537,-0.08478824046969134,0.9909635602322086,0.6089365891603236,0.5266933695523949,-0.7339587852422443,-0.39532764461917047,1.0144551217223774,0.4372844414769276,-0.03965585478145067,-0.9905431206561713,-0.3066134857532247,0.5352743765302165,0.5645826388870026,-0.5339360978216479,0.0813117512433878,0.3791641979968009,-0.34530240740360374,0.5025803701734439,-0.8002605756353538,-0.10692435269246722,0.42005009831936296,-1.054799308501964,0.06111980730430264,0.7455328773921831,-0.2680035072450664,-0.060894313827305056,-0.5750755651084684,0.6864868425761446,0.46122580556911197,0.08855248776948148,0.15317624422659312],[-0.29326654573675537,0.5035806364495342,0.3756034507226265,0.7858705131275462,0.39854187676526076,-0.3410931801511599,0.7337477672470328,0.03319349666342223,-0.19885160592109122,-0.7175633701565404,0.07716681640294461,0.2823028084290182,0.10366194219448326,-1.4343215983953743,-0.035884859252733894,0.2505938328812261,0.10088161017663322,0.519384728649279,-0.4894399017143127,0.21391318128774417,-0.10395606306633645,0.49672780520204773,-0.22386942007870633,-0.0688921438175949,0.0074282189955383665,-0.22523067772235178,0.13462086263158618,-0.03985705949115473,0.692741784224571,0.028386812490612322,0.7862157055378534,-0.24458190846702962,-0.36963804621614427,-0.12330340082965968,-0.49050747449459553,-0.3372981329909275,-0.6366972551000986,0.30426954556895225,0.4857938425669948,0.043450338081943006,0.3961353217091132,-0.15937728661573464,-0.12376176517039163,0.026003402232301985,0.04690388080947617,-0.22127623950280326,-0.2401476351280202,0.48432739393076973,0.3576007429553271,0.7864393501086818,0.07156518699005572,0.5314941270951925,-0.4810303937730996,-0.3262947752582876,-0.24036862574111392,0.005833558633587639,-0.3744903065676953,0.05781957411334164,-0.11003620096191079,-1.072256512151787,-0.44649752410346505,-0.8534591425223302,-0.47973686540964605,-0.33622620083120813],[-0.22479104470362415,-0.6183898752750543,0.0024460761506838904,-0.23668187517577233,-0.08722588678231603,-0.3174357487331875,0.20669709545928538,0.63760987583743,0.15968979542085288,-0.6023007078695524,0.42553735688817673,0.07349531558508124,-0.43056021357638435,-0.11059428625847853,0.5034656357518392,0.9884452097837175,-0.26801403228349757,0.42652885876572355,0.7415016561363614,-0.6690185404035947,0.4093232921078266,-0.1665182487393974,0.07215705801098146,0.11608550195210077,-0.06848010015088987,-0.32563795161375175,-0.10938630278061018,0.06734066340242435,0.21014221896631788,-0.06041334861875811,0.526787876789021,0.29569453608340523,0.29621626471669404,-0.796376126293008,-0.7088648187402722,0.26525010594387366,0.22555523117511364,-0.06996349315533237,0.5791743201594779,0.1663684566621992,0.5474864943633116,0.5202514110903294,-0.19301713223628242,-0.1825067534149425,-0.3411110944396698,0.00034383400686163106,0.023023869245679913,-0.001829696774750749,0.48500765440456123,-0.24276917476366075,-0.17298335968290277,0.04635142670356395,0.1195204124142287,-0.03400495930151842,0.4117613906223182,-0.24052764524675324,0.16246001584197522,-0.3363000976762921,-0.3170049602155972,0.05413961335825298,-0.5140606465882603,-0.3774539511837914,-0.39386497522280994,-0.06487891153407278],[0.1537265780003948,-0.9041807850241427,0.1139535109811192,0.9255821627718641,-0.6998839403531506,-0.6155168847517013,0.015814092458342366,-0.33011938171087035,-0.08407464331278519,-0.30438278801567814,-0.1820239172753343,-0.42621484877121124,0.21027720661728347,0.21884557594427959,-0.26854701242263124,-0.20706655444044197,0.03733567602886988,0.7677392839501435,-0.021936660215827932,1.0808584682846227,0.18154120950273459,0.26413623439014833,0.49840795345879263,-0.3695293661127032,-0.12429098890191995,-0.7837809730691162,0.11162831461051509,-0.16119868352152164,-0.39038457530452936,-0.3507015427783655,0.14905499518601395,-0.2585366442442778,0.3849746231789098,-0.8173772459239499,-0.023559627579499216,0.06944772110893062,0.18729514232908956,0.43046051018310394,-0.09386218291483853,0.07807756364360864,-0.14891061920138915,0.35893200421750804,-0.021148611685151763,-0.09984964897795381,-0.28818595922898094,0.45738432816503644,-0.007034197437804681,-0.30110323096853975,-0.22899584284929247,-0.38473320633787106,-0.01769859979127397,-0.43254196359471225,-0.9744186743330342,-0.10156943550335246,0.5621097911087132,-0.6682055864218814,-0.3462669599076799,-0.28917093528505433,0.6353520099757118,0.26115869364001687,-0.48980239211355053,0.07259982327025456,-0.05671330411081755,-0.006420059464121738],[0.2561309174093251,0.22044620408470716,0.23584367569880085,-0.02062101720171979,0.9353536690688455,0.26281922031846056,0.45526108203722676,-0.8193419168866535,0.728286917019942,0.603154799131412,0.47411606311861454,0.014511627735718572,-0.26071423119507003,0.6048317602441764,-1.000959198843528,1.0076242673255287,-0.5491657447670604,-1.2382928407431832,-0.35738985060003897,-0.6022513810700764,0.31190350605666256,0.4731993628649765,-0.01577221294332506,-0.29736878671382794,0.9395808452980402,-0.7664434929608739,0.2588865958923767,-0.008207876349950054,-0.9718946012204708,0.012805974648667805,-0.7004483142736663,-0.18628041305141232,-0.15366121983300823,0.01169021028197811,0.098311444433019,0.47044178098321376,-0.0018456849384559403,1.4767176917293499,-0.24292604324844386,0.6605866106610128,-0.5119984815825769,-0.21820186131341138,-0.32195702303889506,0.07294021653434259,-0.24492241536085005,-0.5337805067038477,0.2700792202890822,-0.1608977465899372,-0.37317940601026334,-1.4000239425041616,-0.395414413703154,0.5009128796696496,1.0337233233111935,0.5524582243366037,0.5356490796730636,-0.585261290578662,1.098195668447896,0.12549391194363815,-0.9819137881921951,-0.35073843355345846,0.24481735538245641,0.20088500284040223,-0.9890739342786081,-0.4780758203829395],[0.0885426916719387,-0.14185270902137032,-0.07554829420817108,-0.19377171516997288,-0.49737447230127013,0.7427786028476266,0.06545689539703688,0.34861244661121654,0.2848873101483944,1.224461094030194,0.042665326272139155,0.2202381799297133,-1.0969802369449526,0.2323532629931908,-0.4164701005990658,-0.32249982898343776,-0.031882035823278206,-0.71575050136055,-0.3920121056850519,-1.2346661559011796,-0.27632628144689036,0.2654473988810091,-0.24240015101209245,-0.4592431829631478,-0.19076387782289134,0.15644078040225243,0.19941094649873609,0.00935185522339307,-0.2303782013431942,-0.41293024599075895,0.5495920497320388,0.3010615936928524,-0.6804754149332874,0.5197450482497233,-0.3524576506774106,-0.5441166981773925,0.13949991841519807,0.3865723080992409,0.09495276663039047,-0.48668403345992534,0.2553545918645615,-0.449625940886033,0.5096092406474092,-0.08039874730387088,-0.2519265114718919,0.3389381927465942,0.04402456663784626,0.9729439593128502,-0.2957762597825425,0.7773038164619221,-0.3796118893021214,-0.2161700055275558,-0.23515751607148283,0.5349230230308631,-0.3504632007189711,0.8223547129115222,-0.38669437419163644,0.39822602194942824,-0.7130789924427784,0.694215883674731,0.8399152356764172,0.255791446974955,0.13328399770275795,-0.028258835075474477],[-0.04616127926650488,-0.32990955771230024,0.3711641070194645,-1.6183050512169088,0.34283699035049864,-0.28786588323774925,0.3389788544589001,0.1982769007258035,-0.3140663082178822,-0.42363798051770085,0.09443478191877018,-1.3045095885467521,0.47578680060449785,0.4220901525123941,0.37236934325241483,0.5342635785196137,0.6509169670693313,0.983047304356476,1.1614147077755028,0.20082630111618446,-0.4331006334744639,0.041843662258394795,-1.1369993140179417,-0.4900024903357002,0.7923341368914526,-0.18025143659798712,0.8507862070475865,-0.4875184056438226,-1.0123105926131108,-0.14107627033657402,0.3494733199426282,0.47496963315657986,-0.5625894277741266,-0.38409432846390046,-0.2402633038782526,0.11398202027291372,-0.4828184436656241,0.45480981746799154,-0.18178556110589056,0.3402617801099517,-0.17223238256873707,-0.2941648795860182,-0.44238866491872675,0.06538419156030703,0.19312252375518954,-0.2639986018582217,-0.490585459244942,0.5491166695184276,0.7191907150960719,0.2820449227298232,0.00380759062967812,0.06335822316211777,0.5361024390750647,0.08169893250188533,-0.08561822438432111,0.23088186010349293,-0.7882232667399327,1.353143463541844,-1.5296152408672268,0.35191052636753295,-0.006752053493969794,0.3312139984301303,0.29867129684735105,0.6193009776204326],[-0.025884588652430922,-0.4611238301426432,0.10053348795952222,0.17802979227199897,-0.38386988423967144,-1.4502060194355637,0.03835734936413975,-0.2858022717871176,0.4263493871375274,-0.7443617973263642,0.02493892557197075,-0.4203062895133293,-0.6993350528646667,-0.4783803465866476,-0.12795520007878244,0.7324210707159211,0.46386064693240114,0.7004674795131245,0.509780822895409,0.12045110166020584,1.0174858340485753,-0.630079777672041,-0.015293801384053965,0.18073355744505012,0.24658060033195073,0.6031531707916912,0.1983687869880702,-1.2459317339575409,-0.47589312141306556,0.23309909582002783,-0.7503755736276286,-0.16027615476513812,0.7755891898462786,0.41141811729301264,0.6255057442461495,0.26385655724195745,0.8862059728006546,-1.4121370391922448,0.32460342037291817,0.6511364590890583,-0.32923896328446683,-0.2780769599023539,0.7445198757323183,0.13801180089847762,0.7239975706732441,-0.5860775741381109,0.516296167566877,-0.49307871677545967,-0.05609880389719747,-0.699619740039278,-1.5729274627363594,0.14646184143995317,0.7955271830027059,-0.3833003617490158,-0.47703211645600824,0.2016050512171327,0.09222689372995635,0.3908947187778958,-0.5558213631020885,0.15701974814049985,0.20494672606456601,-0.3483010904981862,-0.16803896226737042,-1.3421648574874636],[-0.4820567779303231,-0.3563748847690397,-0.07600304568860097,0.0038819529914696483,0.4264341569461692,-0.18857623724960204,0.1086752568021541,0.2240522959031201,-0.4122704741082557,-0.15588815606918852,-0.08882023528707701,0.26076827255943,0.06982260856093411,-0.018173165459165606,0.004618118403482385,-0.0018525227298294708,-0.313567462265642,0.16998069755575942,0.023582222759764616,0.09023704603561586,-0.14823257425862765,0.11395777292512167,0.6021097430430447,0.17970579810516193,-0.14227074694873937,0.23381195623291642,-0.35686887053744704,-0.48321898473727487,-0.19146862271097154,-0.10682349848445527,0.33509429322293527,0.034815749280205345,-0.3372811709140652,-0.3655546169556375,0.4513360009290467,-0.3067187787990624,0.13751966192040718,-0.42197911434768903,0.40776326341399305,-0.12508377755102446,-0.12517477896309143,0.243535548259354,0.3759619087849724,0.2196212151272775,-0.0744382617885544,-0.19578256521268586,-0.21132037821509567,-0.06680729532684211,-0.3271411770811256,0.0756464314490344,0.13939457595560806,-0.5726080632557531,0.008915686966094674,0.29548774571807607,-0.491868165673268,0.051794105293219185,0.04190938016375022,0.875645900680419,0.12162782637833483,-0.25853062441708874,-0.40878165345366324,-0.09728519235436948,-0.33307757586948084,0.0782691233496008],[-0.11470869737175397,-0.10032573894579476,0.501933281319958,1.0653005042998631,-0.23024896505007195,-0.7976227944656679,0.04067236459239517,0.18556582744462274,0.5929683158370785,0.1094831563610443,0.07296582457960711,-0.5023558691866845,-0.23227849948773552,0.6862936024097965,-0.5820964097352005,-0.1750947925622606,0.2873017936417373,0.08146409479571926,-0.3202712268021343,-0.010443817308070124,0.5435263939245026,-0.20135902064475017,0.1267442008363767,0.052908572215073946,0.2423773594372796,0.5995759752787665,0.43912626716026565,-0.5627657183687014,-0.20371773673040963,-0.10933735423183805,-0.6658031270989919,-0.0468234927284536,-0.21375965761589294,0.6197595794659408,-0.029820482295767656,-0.6180384240057443,-0.1074955103685513,0.4238789007919207,-0.17180626494817908,0.01729124640355565,-0.37118060286303284,-0.09333107874598243,0.30321780855214203,0.43815825987485413,0.6067336619848146,-0.32142648731353973,0.36829709941278455,-0.09962715324506488,-0.6551965895229929,-0.6400946112559311,-0.09721982912496106,-0.31186359222170335,0.14874246413069472,-0.36367024954261784,-0.05180539023992702,0.25871334240370164,0.5177972413133656,0.001599732100194216,0.15870131769234838,0.5855814948294373,0.4571135651930504,-0.12195299042071421,0.21564980875984371,0.09220751693697829],[0.031326509852726385,0.2354747691242293,-0.07304743122905584,-0.5599679299471714,0.5745505437648115,0.8274957230043111,-0.03391886851238944,-0.7142977722062865,-0.22070936009656877,0.7663411511479804,-0.3701085050315546,-0.07095801859204309,0.5445458326956214,-0.4360980438914277,0.07247487360591519,0.04307283129630126,-0.2581376037817119,0.06821026972351277,-0.8858949954271884,0.3040292507901107,-0.09265736300158516,-1.3055648923742573,-0.42131983319509003,-0.6540436509427818,0.6343763412767279,-0.7143372291731653,0.35715707262644253,0.34291475666389254,0.940905909977375,-1.012918826504263,1.3184374217729562,0.5712385779479517,-0.21789540718472158,-0.06862845047652971,0.6811319565731316,0.30154235376746735,-0.3323839343755519,0.7324830681358733,0.0165728103986977,-0.18307817944865454,0.294904764771467,-1.466244317486091,-0.19444603285930992,-1.1605047500286356,0.7260138117997071,0.2905285271563388,-0.7477854877730464,0.8492697137045822,0.6605657543689132,0.09664856342903072,1.2100265258989673,0.076543712810671,-0.3895136737134404,-0.03436387245807659,0.12169732598488477,0.23291268413300256,-0.4220132331712133,-0.10214259827852347,-0.8222478779987475,-0.7700074816181626,0.03944087289916303,0.7894942664133767,-0.7868254779262537,-0.3534479178421922],[-0.48948939156731835,-0.024532367170716187,-0.1711811470105094,1.4779065809644183,-1.0291598555495607,0.18341296019403558,0.41741786376316314,-0.6620508809953816,0.006852400580222726,0.11468145105682899,0.29244016400298317,-0.576191235563017,0.8575722761926536,0.5364263506651356,-0.9973846913304631,-0.2830172352907269,0.30806415150809274,0.5102677381392183,-0.879726083658135,0.03700270746582803,0.14799895927380785,0.02534732519195508,0.22448441791332696,0.576427920471795,-0.47910884552305544,0.34038165720369357,0.8252195811412779,-0.7889023965451623,-0.05254971546251717,0.3978638877455122,0.30160851038275815,-0.44802405012417335,0.38931013862511166,-0.07225666007303432,-0.9874630289240771,0.012096148434375922,-0.19786443775392243,0.44659013724854363,0.07942536321163639,-0.2454286721734099,0.5509085666332864,0.372495556934052,0.6461142333495965,0.66829947782924,0.20130551857766454,0.04004504581812829,-0.10440431535600996,-0.12643222767726214,-0.36036882996238917,-0.9541537717213395,0.4731823755646304,0.6188274358201421,-0.276383303459685,-1.116788545915595,0.20041545627059396,-0.47770706174593,-0.25333297574611485,0.5117087181279438,1.5583259710315898,0.31323804785425075,-0.12796736294285638,0.23978120383095858,-0.013407769713207332,0.2636624760726085],[0.33994523928251763,-0.8965947032982888,-0.14694514496412625,-0.3744026506927558,0.17062742354351765,-0.19245294872339128,-0.05663900816344735,-0.42616247971304105,0.4100649462539764,-0.07389510067298902,0.001327514057105105,-0.8670663598933215,-0.6722812412025617,-0.30546713709391016,0.1384703350368913,0.06978020445064186,0.844032571499563,-0.2554561582638655,-0.014679486473506424,0.6390559424867744,0.12395880397640839,0.32273909295201264,0.14620081066192203,-0.6406566462132167,-0.4224527761335551,-0.32255330282271155,0.12233295505919099,0.25213330693292235,-0.2930493746951635,0.07141728008208945,0.5434337410484055,0.38576106533078364,0.20316995042821323,-1.262948688835618,-0.003137149598013916,1.200782967263735,-0.1206294626266615,-0.028780630631819532,0.7423459286059136,0.9608808904028082,0.6421821444658743,-0.09118253408854501,0.571188420552854,-0.5137200648254997,0.19377357148937321,-0.27625409141986035,0.27899825459998573,-0.3393672668525008,0.7509037577362312,-0.09046320575119107,-0.06447505399076957,0.42470865881305314,0.599979132362643,0.38117507181430177,0.20756090889735546,0.04834078847066103,-0.35719680798778786,-0.8716878994741494,0.5399930534633545,-1.019703260742008,-2.193146516742581,-0.09825200877850722,0.13178178898593626,-0.04332030751083863],[-0.5809840725198823,-0.7872121685783097,0.7138111941227772,0.08844041509450656,-0.026332990587450842,-0.3962412633069246,0.07501570605938639,-0.5914341568716723,0.36777264853348646,0.998440777772253,0.4035200166142974,-0.39563582592594176,-0.03354545311828028,0.1235846496337408,-0.7473932426970904,0.5145125190894105,0.5792471276951991,-0.3496484417878031,0.8753039022531048,0.21487951497095512,0.19338544573119,-0.05905417660092682,0.0860510944682837,-0.292728957149093,-0.30861267381705154,-0.4417978602710282,0.07114278844242643,-0.13765788942295396,-0.27627531392185983,0.17624404090566448,-0.17600398610318072,0.3918485275934267,0.6959133455148377,-1.2507676091039701,-0.49826411474157933,0.721680566989262,0.2039934545619583,-0.43625364593333704,0.5583690719506054,0.4298154543210885,1.7271265282113104,-0.2810598327068672,-0.530423469659004,0.5596230905794334,-0.42240652563869857,-0.16843157803028738,-0.21220683016840006,0.4996269718700052,0.8771809884597336,0.12583973541106078,0.21088185769329737,0.1364639719258274,-0.49888203969347805,0.1389891538826736,-0.7379495610218374,-0.8928821946790121,0.05347301036696701,0.24235755191396552,0.3333747051043165,0.55887770191951,-1.3186855641969775,0.008401445909386027,-0.9699292358709733,-0.5429150855181872],[-0.4863390791440128,-0.37925543325879485,-0.020931963675931066,-0.6228952614543722,-0.3601479297007717,-0.9184357053291651,-0.11293435915219159,-0.1381381299530145,0.5784839172691895,-0.11398930433769328,0.0033333700931685996,-1.0689557396962222,-0.3350498648847847,-0.4682567510527274,-0.12304426986605567,0.040596211446138744,-0.37009843467067377,0.8564672938502471,0.7850360009524501,-1.092276005307666,-1.2425195882209696,-0.2708842191499734,1.376131679305843,-0.11301484846974218,0.7857239627221414,-1.6128477999552793,0.32173561697900194,0.5730216763585907,0.4275881314786961,-0.3934633986851643,0.030642644715629733,0.4371979139321022,-0.34146396067202367,-1.263796050793181,-0.3733818456357894,-0.24767586116144105,-1.002283241749617,-0.6554190355329853,-0.1270173627658345,0.4964732495087208,-1.035450715733968,-0.05875156200000719,0.34206471702108265,-0.9496149771445964,0.902375512969707,0.31907873888819516,0.23686523884483346,-0.8914816400826934,0.6656773056853762,0.3051339526910623,0.9329101430094804,-0.5392169393070615,-1.1440821931757719,0.7270665341074467,1.1386198840568462,-0.8603014696468052,-0.22115415828336166,0.3254755946636923,0.8102220896062606,-0.2277359170073296,-0.3598618877012477,-0.6971900177630753,-0.2373177174116078,0.4554327257645953],[0.552846947924734,-0.10468456186819432,0.3753140616464942,0.7456527926293581,-0.13385727488850435,1.064884561496732,0.47543869640656145,-0.30810969673197525,0.09067111859728118,-1.7563093562469456,-0.2051119417222258,-0.06360591706098624,-0.16703660361117526,0.9721928152656034,-0.08048490907998793,-1.0179913771629396,1.6901862853222538,-0.579113344579973,0.39403585920373024,0.158301428307769,0.49998562966053456,-0.5168534868030066,0.003831001509660608,0.1371682229609896,-2.067655701899507,-0.5956961200642719,0.9101442730454262,0.0492437213048862,-0.6268120291633171,-0.4545790424061844,-0.5028700100836898,0.3310691539544164,-0.01540094261708151,-0.051872286061358096,0.30951941682058387,-0.1920084789463817,0.5087822554519263,-0.12004880727080626,-0.13779823669048782,0.6811749830785246,-0.7258564228515066,0.2223579856307915,1.1026727411112096,-0.01432178372594341,-0.7399549723662107,-2.144856849577728,0.727439744135256,-0.9556377099819543,-0.03205286798421907,-0.7730567984266363,0.07745769233374505,0.5804080751597264,0.0876687608679401,1.5451297896836742,-0.3482769980534798,-0.1546064947926133,0.611142599793648,1.2095642748216413,0.5244602004894827,0.06536375196212213,1.1899514195514846,-0.06122379517257,-0.35832128980657724,-1.2215005340753784],[-1.2311006089887429,-0.6703458494196458,0.2866212994663054,-0.32442749713140734,-0.3385882113163684,-0.7076606010177575,0.8690481315645163,-1.980254836983579,0.8025364164970716,0.7180687695714433,0.38998753600567027,-0.3447577936605192,-0.34546877496939987,-0.03957314819315328,-1.291438196791306,-0.1650106044522585,0.7398605508700493,0.37225338898376736,0.7382975052693517,0.08376131319505016,-0.8171260273122889,0.4155205357501284,0.6818956842863413,-0.033950459210912796,0.7163561492626072,0.16526492678066987,0.6469283569931223,0.29440833662304394,0.05024128163217304,-0.29381387956054733,0.22612791047248126,0.5975276314883795,0.6257457233197933,0.3345158723319847,-0.32564633605562654,0.4740847425154668,0.26285802939673936,0.052040515469983825,0.41952906230480186,0.5079731509622715,1.086247461714306,-0.016110076535634992,-0.34064864331148914,0.9861463721067932,0.040450201890672124,-0.1212628304062672,-0.6037102374011747,0.7302911300940867,-0.09857437077825686,0.11228585974697732,0.8172080578295835,0.11665613386349395,-0.1378513155492086,-0.5270365344840983,0.5573617609472696,-0.8187778196224497,0.19431191403419307,0.4706789085713472,0.5751535399450631,-0.6461466265526405,-1.4062615497329978,0.2919958468630888,-0.2681082961734234,0.05084767956332085],[0.31466714693218656,0.027073450657885797,0.4775543194531041,0.060703759651815736,-0.49004319873848307,-0.33354498993942017,-0.2583439051301905,-0.03533413160443271,-0.48507466625173096,-0.1720899408590361,-0.4272544811964813,0.008157819012076335,0.5615845213119086,-0.3850988493029939,-0.15422104586557944,-0.2142347534894355,0.20654764557104666,-0.5136196797699534,-0.46064707949827893,0.3522143800461808,0.7098115439106706,0.058677453364255165,0.1616989949061078,-0.10390980383721968,0.027997371541315354,-0.3759520998573341,-0.16932388939640375,-0.3987283056115771,0.5191900949245145,-0.04434222900796441,-0.31947169417813803,-0.44983281804845776,-0.258341032089913,-0.12728283601107118,-0.013773276088357088,-0.20333489135579194,-0.40527606936997296,-0.11661585784474186,0.33682019517719086,-0.15938148564347512,0.16370948937199314,0.004597963198406636,-0.39635204999417334,0.07335096098745757,-0.09389754954124757,-0.14425756629492972,0.27149869142985933,0.3844178114295632,-0.43809346358418183,-0.24178940318143333,0.03567824155498306,-0.10652204994963896,0.1680154360303842,0.02306372374840682,-0.017285998607286843,-0.14674975429277856,0.33837924199509206,0.31244221220169277,0.07428856910891547,0.04543184122056381,-0.3489961791180561,0.19884904422045008,-0.8143478252428764,-0.4015073450004145],[-0.7452330154476087,0.14049318980917744,-0.3328006829556159,0.3099558848425143,-0.7748627605823102,-0.1898864649161738,0.47404411802471147,-0.9677536435878874,0.41380251179847594,0.4658481173049187,-0.13395766571396706,-0.1815743103901946,0.15041150188709507,0.4399662415692551,0.22322982086894,0.5494966583815456,0.4096024079688843,0.029797672498940928,-0.4314674035847101,-0.6898091068431156,0.2624059080608115,-0.3956145794372401,-0.16181398269167102,-0.09390193421343396,0.40987508284600366,-0.16259198767510702,0.6952138512734884,0.131135969314014,-0.10302665466368664,-0.26796425277864294,0.2592821322025074,1.0438547570671977,0.009695024997201339,-0.3962327825711259,0.2477118014616187,0.2685157558981913,0.08950087789293867,0.15872535074546607,0.5049421059694013,0.44777025598251685,-0.4136418115687491,0.2909490773261825,0.12741827875826706,-0.01631475941016234,-0.6774341179881012,-0.13038204832394243,-0.801032385497636,0.21116877744914922,0.30243007389899895,0.7713032547844717,-0.1758318617608615,-0.08650012065259417,-1.199070375316116,-0.04150295489351802,-0.030841109385753546,0.002981538571430407,-0.2728228904063773,-0.4702504788861884,-0.4949021942890096,-1.1590104834228045,0.09315827099529446,-0.10182740215297797,-0.09561087435308349,-0.27914377868175533],[0.807025778740467,0.023907163991948747,-0.10762600291542114,0.8838319573079408,-0.24047110982195685,-0.37185343452149083,-0.1965975303835652,0.11591307007743724,-0.2651123989826866,-0.18617160552948062,-0.7839290432622904,-0.09143177305305757,-0.3215475276156344,0.2689747588240577,0.40332636663541166,0.29583176311682424,0.5798193590175194,-0.3809128092727867,0.39967461019470124,0.4977223992390753,-1.0763804083464612,0.12688447907891484,-0.0015228696854214976,-0.3402096918427492,0.26736245047467605,-0.5316816100543219,0.27203036933875707,0.6861618698973646,-0.1191555384678458,-1.077787004319502,0.053482619606199856,0.4356428935535859,0.38032116395401633,0.4698266626120901,0.8837016550291356,0.5994280713195826,-0.44279929314343686,-0.2966120506497321,0.22088929982484662,-0.006518555804932858,0.276737137594501,-0.2517772267858844,-0.017912803771931038,0.013573262731703006,-0.1801107962379517,0.4412038277348498,-0.3630617102606717,-0.3314723470619405,0.07323448899486562,-0.27631307530152927,-0.292263510320145,-0.8691228944799018,-0.9167681525013086,0.710998552229715,-0.4403373237360908,0.2570123874292065,0.49007656020837825,0.0988775368037829,-0.3175183757608525,-0.5521024995850642,0.29570321025789714,