{"layers":[{"weights":[[-1.0064696299001197,-0.39987350922245796,0.02452047856283938,0.48550818686089525,0.9382463023851882,-0.8691367374302543,0.28945971143205323,-0.546862814893745,-0.10897697126778895,-0.8550840811696796,0.586167028312389,-0.2664187575486584,-1.2319691370185095,-0.46659729668273503,0.31620855662960445,0.4404410692712083,-0.7192554835896358,-0.22820448433621832,-0.6441762643119401,-0.0859260418220161,-0.010565678370393464,-0.6039262005979635,-0.4086171719145677,-0.42039375259146605,0.2661187353032144,0.3780624488964527,0.12817376658089988,-0.4566696776352837,-0.05020483248921318,0.06830925439217662,-0.6637249317359569,-0.14133683195081784,-0.6302278924126076,0.8185946043793542,0.022538216611817,-0.18588278830552402,-0.03523567452150005,0.4668083245503881,-0.057583653462078485,0.2194719173939716,0.04072542814099919,0.03497636190776584,-0.014377130646297248,0.1941332805456958,1.7827663019601663,1.780104566406264,-0.18244735531598155,-0.7786582494552027,-0.14348421511125123,-0.2794194815108039,0.6203437379924248,-0.2772999241645415,-0.04830085843629619,-0.24512870834662331],[1.3995400618410652,1.3403655677742345,-0.22762627143534003,0.8387243205709157,0.8731750120985055,0.8584155474555554,-0.4740378096257144,-0.2180597973490389,-0.274442144281374,-0.47600766148466794,0.6555410596147808,-0.2957369237520829,-0.7400174407456519,-0.289543167090052,-0.06608597145335375,0.7590097011495582,-0.7184032821459908,-0.42306361546687604,-0.17331149386749004,-0.5196998359872558,0.7366171607593286,-0.022944467973998618,-0.24344804869630793,-0.7781517971839774,-0.6423264582909075,0.4603644792777738,-1.025958999806327,-0.3773705831997218,0.11445729269324112,-0.2345818012811724,-0.19917261333719175,-0.6046018008477384,-0.8415306168611696,-0.5496230581526453,-0.08734908113625231,0.220787532016182,-0.2537832718006193,0.8716891268045267,0.07171211341653697,0.03303457928936123,-0.06977202055752202,0.49811505410972245,-0.7634086812025795,0.4522541879872937,-2.4604105192250456,-0.6327808217276226,-1.6341002150640678,0.5682534578162315,-0.49523644221899504,-0.1996600407593405,-0.43785691303075963,0.6231500896463108,0.8989138265200503,0.3824951857248264],[0.03594923205183487,-0.023201762842778875,0.3076289480756315,0.24718561105452494,-0.7637952129688262,-0.6817588006470033,0.7199297617910949,0.3441235719789291,-0.45369933785061434,-0.30419395011331984,0.22140113183984628,-0.011312658898222697,0.10081364587254873,0.5259500059421361,-0.3018204131312614,-0.05690615457001305,-0.20149130872693388,-0.08812008740036958,-0.10537332855238848,0.9242107032820671,0.35408853579266464,-0.038730591529275216,-0.41014520568770274,0.45497766073742835,-0.005414778078667339,0.1849888656132629,0.47006567510458314,0.3234710594830331,-0.22645366369740588,-0.42157173804784215,0.8278937024691594,0.05800948776492003,-0.0220499079098509,-0.5344465979944218,-0.24370451958277517,0.2883446388761658,0.13253022077793053,-0.39425512379256467,-0.4659469072291749,-0.4369460038351586,-0.39701158275637116,0.014302762251675637,-0.25110019003079354,0.4410648615753721,-0.43467236701390866,0.6699177346327474,-0.4928475316630665,0.8752881772925755,0.21428657878854307,-0.020102283625830008,0.8022642164297539,-1.3168979722371277,0.3249013345922449,-0.1446372000717276],[0.6277185615100436,0.288911274309763,0.016422048055072202,-0.32015726952340373,0.16097597043951908,-0.05897793011772682,0.002527555330781284,-0.5728177265995831,-0.5143244773008803,0.015287867852366258,-0.20518578853515174,-0.05510811887550962,-0.6195665305880858,-0.48311583459718305,-0.04481074181725706,0.3299000326573248,-0.20577535464529698,-0.040580726281910624,-0.2665985171199403,-0.7768947397267134,-0.34805848426035524,-0.24286683456138897,-0.2719613192995199,0.059820986469869025,0.44213065927907513,0.39131736682711143,0.01809081718807531,-0.10664624223642018,0.005710761112765622,-0.45301979282937876,-0.7214538612487736,-0.42487024494862763,-0.10661247514761425,-0.43686029956178374,-0.009778584691863804,0.1494081440013598,-0.09229761730293144,0.5160054421450654,0.9453739533128103,-0.8925448687571838,0.003430708136654845,-0.9543118694579027,-0.5282023592163504,0.5368161705874528,-0.383944559270178,-0.6827582414024366,0.7979938733718428,-0.4406483752557649,0.5828415298218013,-0.04138556441684488,-1.109847905288396,-0.9501951086136458,-0.7303692481679157,-0.042709848792580954],[-0.9923932359449872,-0.148958941932449,-0.45284854341282876,0.1897314301565813,-0.10401606432702724,0.1310124854213894,0.5182581152302248,0.5737002008580502,-0.13971013981768624,0.0032234520665145507,0.4066771781580874,0.3975261626001312,0.46457065602464237,-0.20683420526710852,-0.09987854354076248,0.40209101987120865,0.16885749170028252,-0.10573630562921334,-0.0029564971509592236,0.11466669888316011,0.1645138922977261,-0.33631571385815373,0.40127127066995233,0.3677096243409601,-0.2699835180741118,0.739934921447966,0.07675505397952317,-0.5815178746398098,0.294038040119617,0.1395266025685278,-0.09123414522700951,0.04111269795785851,0.3396804360182122,0.11732533312979172,0.09089806135638473,-0.08795168272132206,-0.4615935747281869,0.18711865020141502,0.617588695753106,0.2502011664608277,-0.07922661400068684,-0.21691810520228544,0.2439398130357385,-0.24129045825450535,0.16035351321436378,1.3465856613819815,-0.40447306403423244,-0.14651671014238837,1.3585742652495378,0.06242495740961678,0.41072826727750006,-0.1550001068338735,-0.49617665903527985,-0.004543817617879073],[0.5967502666695335,0.43380324672422915,0.0906056597430134,-0.19837073806364483,-1.045571817594785,0.09437607491076545,0.36264791624778003,0.3633760070435268,-0.08641484497514791,0.16312319819097887,0.51057786369392,-0.01938887208360273,0.08665536280600254,0.5747948800744463,0.19524570803086866,-0.8845330649429954,0.2767307632253961,-0.20161577602165137,0.07496183974251117,0.4056375993739911,-0.8930253742730399,0.35782959742668363,-0.10144133719151954,-0.02292315466613244,0.06051445881922207,-0.2488380308445641,-0.13028420387832765,-0.08200407693200917,-0.17450345064053518,0.16746040572529153,0.28467306027244005,-0.1842672595545305,0.34714080317462265,-0.08101779759371129,0.14891642363999982,0.20993416206186816,-0.12515095126999162,0.22927752386557357,-0.14438155622504695,0.28347268947084764,0.35162090144845004,0.22969843855097727,0.4474565368038779,-0.42683526223478246,0.11107589538968896,-0.6183498818632506,-0.2819795580392138,-0.5193221493964447,-0.30405475420963424,-0.10174082453516699,0.20937595206660212,-0.23029236120986848,1.4055307291759795,0.004321785188612993],[-0.8145700785093338,-0.957440797506364,-0.1200243548171249,0.3319709929864927,0.21398535674564154,-0.6060427225277024,0.5170790393736007,0.361756394352046,0.5397118295817046,-1.4098610470356865,0.1284292798791669,0.20775107916415825,-0.0731155597120233,-0.24441822513569314,0.3350238230754257,-0.13396796396259433,-0.6654121810631765,-0.5263319373295268,0.48591827237416174,0.5323154527567767,-0.6436360200939953,0.04200319379839266,0.6130090005993152,0.10631977735855438,0.17342877748976585,-0.785896389613456,-1.0627619465256166,0.025386450596710363,0.31705388689866626,0.9447927936458879,-0.4262199194639855,-0.08071807806274758,0.6006349619411396,-0.5229377987258502,-0.27836470300253646,0.17923696074592582,-0.24555355618219857,0.1367257706181264,0.6312850873128604,-0.20996219272751562,0.18009206638479225,0.048791598920894526,0.22752421043740606,0.32017712532265374,-0.387407444892807,-0.4254145385881795,0.16974483629273293,-0.024761782150012315,-0.38237199541847267,0.05758497813363054,0.6243115838393422,-0.2296982714919907,-0.47497389501738735,-0.19248485317142244],[0.46989397558652785,0.5597238459569904,0.28069363247553325,0.662521246977562,-0.05658982173535295,-0.12340394273946939,0.6607490962872337,0.320924471403467,0.0085088466398823,-0.10453504532195826,-0.13556128699287537,0.47796984881119514,-0.014296439754587038,0.47223186779681897,0.29079642415664986,-0.2770927217918231,0.5077849879032104,0.23269032773447376,0.06381061399242768,0.06967345804749484,-0.6405336797088319,-0.42842436520758453,0.24945007460051108,-0.19188475648602848,1.0860757236615575,-0.508364150851403,0.43873958323875545,-0.5225842965566461,0.4559595217067749,0.5495419522957986,0.5079485364796953,-0.17141881676009535,0.6825384583748536,-0.5073843148913081,-0.12005082342076338,-0.03952570036162022,-0.42183971341131615,-0.12666402850786715,0.45252115408036425,0.025776633027150202,-0.24333585792370427,0.3699396878434173,-0.40726087434079844,-0.8467260264700668,-0.2422752060466006,0.491435563345987,0.2013381439509384,-0.02245595218107553,0.21617560889900006,0.10322186476088502,-1.2756984974466066,1.3598894233289864,-1.300756683338046,-0.5540936642885828],[0.10744344241866102,0.4811754980861908,-0.6037028829938745,-1.2921488982188207,-0.7522139369977029,0.26689674135577685,-0.08714612659949375,0.22102303648588184,-0.4975989258676259,0.8399456446674702,0.7478202797513529,-0.05725736944703992,-0.6231748923287664,0.2469614132300418,0.309061422816718,-0.07288199188786439,0.7083436948030799,-0.873026220401744,0.5635199053543885,0.4010793653556471,0.3311183325729547,0.09674327141035806,-0.280393854394291,0.3301981333698231,-0.608059341512077,0.14773732160439507,0.2643046158730892,0.04454549200639036,-0.1956989016504606,0.2113386459831685,0.4412997113846939,-0.12449398602994405,-0.012919420023414365,-0.20498217551065326,-0.10939926042034254,0.6854858327678821,0.2847758821445739,-0.29761978233626885,0.0061645031486139085,-0.8882804153279742,-0.018156800347481582,-0.4085051678532761,0.3745190795296959,-0.2879435923392599,-1.8748847479114212,-0.11717194314915633,0.6103044248021221,-0.04688046029803158,0.13985804290600112,-0.1450939414912173,-0.21419294375107026,-0.13459585584085632,-0.22198152369574792,-0.5645147522902068],[0.11743716295625517,-0.019748134478075774,-0.26375173793482315,-0.0683026155729472,0.15471045955143556,-1.6873431175148086,-0.5818672676683508,-1.1012774992676673,0.8076234440661855,0.6476623785686445,-0.13821273290022887,-0.20908960704129806,-0.6848553972735797,0.5817139244468139,0.31644773544912513,-1.2502323583399484,-0.10374618829931918,-0.03785450970043747,-0.40677814330835294,0.1764551066368251,-0.43127264526531095,0.25496299587219606,-0.7089026618096348,0.6647042515221773,0.035595972510165566,0.20575480821380154,0.07476582258541727,0.031491371979876365,0.6036855557670595,-0.3540054467440452,-0.45363068591286726,0.05585615860530698,0.3238050375154137,-0.08630343203634061,-0.22180263868676886,0.012997711302836334,0.15361297430015858,-0.43685765459611664,0.45351996337276124,0.24786133605339034,-0.21137497337341477,-0.5780630814329816,-0.000598388086705819,-0.4787148118499066,-0.3586355338509985,0.15183847062038228,0.2245342687541244,0.17051158606923195,0.9126620004526801,-0.5144281151740419,1.4691102180303488,-0.11415351158027763,-0.4074979985800161,0.07234410600201714],[-0.16637427465798216,-0.46189381952771547,-0.04850254456277862,0.10788077498129217,0.48414123225817374,1.222724970874663,0.6723008503237708,0.318550799040327,-0.1651045933619687,-0.05538335359346536,0.722539755757424,-0.11014217985624085,0.6052066718602606,0.1651381209562624,0.07734878737407769,-0.9093697330072849,0.3147362280329538,0.5233407000041266,0.1346342031538781,0.060601178719049395,-0.5577204044364789,-0.3542192175154495,0.7882722315607205,-0.0846406644235428,0.4778656644244325,-0.16090400106762526,0.2934200207592831,0.19484363234041577,0.2686885892080653,-0.010462750480581411,0.13442922916876843,0.25934856209519336,0.5446662074427344,-0.6151174135059739,0.0018497533073202125,-0.44527106671394456,-0.06528203775508136,0.41022900373782595,0.1389726681640763,0.19078915203552968,0.49465077118392126,-0.29200947837218166,0.8053230311830899,0.560551994250712,0.290352881524149,-0.7737681235632892,-0.882301455824093,-0.14635083564012819,0.05266689596278191,0.16610852777093174,-0.7583555908646706,1.010169557829769,-0.9443133127099108,-0.06745105856348517],[0.7060780947875324,0.6223932319317881,-0.10872296222496068,0.5415079717510592,-0.02642054081050206,-0.22513270657020468,-0.14487294612101412,-0.3326698692001285,-0.1368347769108112,0.47688753874968154,0.24738844079686634,0.21049216079355448,-0.11897667073492157,-0.16710408779738997,0.10587754965014148,0.6214163905653608,-0.19013767857351171,-0.32699590049780286,-0.32765077065398696,0.16199826247038168,-0.03773808529826153,-0.20836089076378825,-0.06253581734401187,0.25051384477742306,0.04790345084802977,1.1582791515868398,-0.14246977342997957,-0.26612458517115883,-0.5596893257770492,-0.11018199029374258,0.19935736775915255,0.4316900724466602,-0.7121395943330321,-0.1777471508287935,0.06143303035491381,0.513609617616403,0.6876831538102122,-0.4126674627980195,0.08268890870983953,0.3973758415181047,-0.06875412916833124,-0.07218653084254618,0.48158016183222424,0.5383307384750344,0.5952258816591244,-3.205484365529389,-0.8395223765059023,0.2755174141120427,1.0022882698047726,-0.0787058985440828,0.1611139307015932,0.11871456991845288,1.083683808230371,0.23299064403621872],[0.24262830816807637,0.06745366230631925,0.03099169299050688,0.13563297440468958,0.1339658517235949,-0.17069141032193136,0.3080309551574449,-0.9266461893475065,-0.04549256690376722,-0.4942795552483528,-0.1356896707915655,-0.7693412220825558,-0.3585118105039512,-0.5083941372178964,-0.02959525263486528,-2.2657125648717926,0.06966829429584376,0.12106798680422055,-1.0063692773655122,-0.3277023184161789,-0.09451460338716272,-0.6735381005932679,0.07912799039644275,0.18413871038664134,-0.4503701792312568,-0.5036290638637169,0.46972324801173826,0.16685063187815205,-0.059780084948282776,-0.44013989858697683,-0.40587165643116757,-0.8746667926964029,0.08506434075865081,-0.21687199281629063,-0.0612706865077196,0.33379213901616,-0.008649429664671759,0.18702290585525705,0.06482903278708702,0.11211288200537169,0.08147974112538227,-0.14973282809460015,0.33631054078585604,-0.21846716185850923,2.0279469610609993,1.0536172245835085,0.34463483603335193,-1.040540641169762,-0.905615347262482,-0.0013693355912270959,0.09751767972653219,0.0631230934327935,-0.5167426175496325,0.2073501254100392],[0.2178385262324123,-0.2684602741359887,-0.2851188729061542,0.15989287283950965,0.6827667865925953,-0.3412036669473072,-0.018320582957786123,-0.5831788033090718,-0.0868006827419825,-0.17127963450131742,-0.18325647108430523,-0.5321226508145798,0.13050710846204708,-0.3149079589618137,-0.08128420121376982,-0.28906906109675273,0.006573287585109808,-0.050636173434500276,-0.38734667492360125,-0.08437700186291743,0.4596282858633878,-0.1439646156869412,0.5212111981515636,0.24013591576343143,-0.5872864725046262,-0.7450674787946491,0.12428211772620505,0.15696462282342974,-0.4332550885813911,0.22764681704469786,-0.2511729057009315,-0.7333099495082107,0.12502192615268537,0.4000261846230368,0.026236221752630438,0.4992147348651335,0.10973750825294037,-0.03622650530257473,-1.5110177281626587,0.3581645190610534,0.32217531059930926,-0.21707403955265894,-0.9026934685205882,0.9298610034560683,-1.3587080854563436,0.4956078369726141,0.696141308278112,-0.6084975694397415,0.1593574245650503,-0.900117783439978,0.340481629486804,0.6253556577588414,-0.04131399540020102,0.3033994411901911],[-0.7832659965225086,-0.9910330004740591,-0.03559231100392965,-0.1759100466050585,-0.29396321876058035,0.6430647736795618,-0.13692415197333208,-0.20722426569162403,0.1007158009127416,-0.8876400679978238,1.3018690448607273,-0.44884014290252866,-0.5858524972813265,0.36257572597659876,-0.19405731426673586,0.5868677218731612,-0.09012256543492049,-0.6536971832719078,-0.2358641661869096,-0.3185063909235483,0.3645287736736469,-0.4337643355896124,-0.015491227617214578,-0.4733132510108211,-0.31933854139678197,-0.20859770237310474,-0.6880625517738752,-0.8149158067140666,0.34454998544484655,1.1408326445440449,-0.26911447357025586,-0.6262079845121791,-0.21886625158312636,0.6084368241951897,-0.1730508900706948,-0.06301989974570613,-0.2841787436085268,0.5685198742589535,0.30660038886791546,-0.026242996541744897,0.27893536876143005,0.4639728877849407,-1.073320322131691,0.1259474091304358,0.5237506192354032,1.1188242198712894,0.11073447413516833,0.514424402336474,0.14823791791255167,0.13473177741884576,-0.9771609440211321,1.5004959016004469,-0.7891324217864173,-0.10709312505715224],[0.07214637709061164,0.5354386597959214,-0.01416652607635753,0.15473322951723198,-0.5960291774379957,0.4265422654086769,0.0966238788846077,0.23244142797402692,0.13193186262076204,-0.07326111029699595,0.3871033318481575,0.24743876935171868,0.21314130030005135,0.2721908638997336,0.12421476689735991,-0.2098011128380327,0.00871851340516712,0.07731791497333586,-0.15214211294404892,0.10217229449884829,0.1491312561245632,-0.03288696423391924,0.015281583944957365,-0.06496123011388384,0.16781593063736552,0.09531144890701647,-0.08851770508925108,-0.013643232833588778,0.4946675658466045,-0.5269467586597558,0.3807644012029408,0.00129335175904544,-0.1744924686058993,0.06832902711863355,0.06710153843834935,-0.5694066728447801,-0.2628187940309855,0.06825481224401717,-0.35857423325536714,-0.06405341497705043,-0.4145298146756141,0.17079496539388062,-0.04662447627516111,0.06318086273092094,0.5932542395278417,0.648479279307525,1.0642258163159468,-0.07475456566246307,-0.6639857048649188,-0.15071545416970167,0.5963727701603905,0.2817568091854907,-1.3915996677350042,-0.04492437449799853],[-0.3364983631163368,0.4611083797590736,0.23122920697169425,0.8706323931465851,-0.09226768196565327,-0.5302795900892301,-0.25423837657161064,-0.5185623383301754,-0.09963547915445228,-0.3084301058268278,0.29139868718293344,-0.34670950857851685,-0.2888130792576838,-0.6535868535860017,0.20743727392767333,-0.2572590548042691,0.13488329004349306,0.25536127541197967,0.014094042284681113,-1.58942484543517,0.45583928658778067,-1.07109909780614,-0.43369463277489284,0.10812086527106686,0.351350821007713,0.2770245895417181,0.20016932757099337,-0.32388706180447246,0.07623727996862048,-0.2530152442169561,-0.3494313789548279,-0.5461292123608777,-0.037170938484030025,-0.1160622958618298,0.08676459887941687,-0.5158570768607176,0.09636905349197686,0.43227922402437197,0.23217462011403378,0.017917114745615827,0.17173996823174467,-0.3587093429982548,-0.5522707047489724,0.32769056559633947,-1.4174111906063018,0.19026279278783345,0.01874030966837374,0.5324939636694708,-0.10542595342995556,-0.6483883652393898,1.3586082267074757,0.5130534784862611,-0.0854737605099667,0.23101689688132535],[-0.20072010682187544,-0.8321968938507269,0.20914889084877786,-0.27029871469413436,0.5539949771023359,0.2536576323138881,-0.12829096257456163,-0.35308737820059066,-0.415111082135277,0.24399219218382615,-0.7254406541560979,-0.6240123823408021,0.7765470656071536,-0.3676821645571931,0.019127912356961856,-0.08206972907304347,-0.10330086558866733,0.03215427705440739,0.1841943034408742,-0.2931708419403566,-0.05485390408683587,-0.6474927695218787,0.27177453316780914,0.21064689873313558,-0.3039978895572227,0.32918148872057407,-0.17320762719451813,-0.0054353562268285565,-0.12742048296645406,0.2823508982805379,-0.37265650849316684,-0.16509356600260305,-0.23707800215252256,-0.3328505076721993,-0.024478280137764263,-0.12386432718304267,0.09869748990265982,-0.1730480342215194,-0.4541011759407071,0.49302996881358707,0.020628730795044754,-0.3134560426161751,-0.36530925600283815,0.5709491941947779,-0.70269134400572,-0.6505623091771775,1.6019610854306114,-0.9683516405211332,-1.046334610754451,-0.4245635608623526,-0.34347496305043557,0.23096725507327284,-0.8011283075084763,-0.3027629933522871],[0.4212935788809222,0.33757550401093334,0.15444421223718782,0.07541899614453271,-0.18001868048723216,0.0943528713054237,-0.4047848972990172,0.08792891919188929,0.38506897483802166,0.5278588924635386,-0.052645671453014915,-0.11295422431588378,0.39122037889460115,0.09593906084262878,0.10427231336699647,0.5830497986225518,-0.35245047591013373,-0.1578962622153891,0.40696010338847893,0.04872662250602323,-0.5975302160619895,-0.2945810565943989,0.32656429730227365,0.11402743335956396,0.06147261515143312,0.034419928823869884,0.3496214335239668,-0.1181876958776501,0.024352486395763245,-0.6120804188005106,0.353963966367388,-0.027023930708248316,-0.17823567563969317,-0.570955894064123,-0.013709031020283785,-0.12140702093465876,0.007148083390293614,0.47737817274052613,-0.06878736527150313,0.434258479519747,0.4934183670745868,-0.11152079469651685,-0.9997943901131421,0.3954594616250757,-1.8930458154186294,0.3724802513599286,-0.009165892071599333,-0.395358808373445,0.33695927667209463,0.5987614957000237,0.07158436249271319,-0.5716143956731297,-1.18969892487828,-0.016656136025563217],[-0.5903139898650142,-0.7738440171785278,-0.1325297467380268,-0.4672400898901287,-0.07420535363060568,0.433990211800399,0.22972357631416254,-0.1646282826018411,-0.24312152252301475,-0.43416941656180413,0.7360984065540523,-0.4137724629471015,-0.0010718203817208912,0.4422582994973355,0.17946700483616784,-1.0543075065700258,-0.3469709411713603,-0.09690677151521862,-0.30232791030548484,0.410294367404113,0.5227461326146046,0.5423539865630869,0.7004909423123751,-0.9194436058624533,0.18775977696112023,-0.5063081156924515,0.006613368684468497,-0.014583468452552152,-0.40576527562865183,0.7010595057247746,-0.3330356657795001,0.12817556854717763,0.3211166553950651,-0.20104135650183516,0.08943540475228073,0.18551731870585197,-0.0531080659177525,-0.05173397651071918,0.7370994440797383,-0.4116922527824304,-0.18001904500749402,-0.734553465806426,-0.7947255530182293,0.2767799535939648,0.0666610779291958,-0.42426643414691884,1.043368976078573,0.19616641222981154,-0.28448459477906124,-0.3143612797064494,-1.2469496720811226,0.05224554488363878,-1.8800741775344934,0.2159447668423959],[0.4676985670916002,0.5347394425653816,-0.03859214051890444,0.23413571147568543,0.015359936333748886,0.6093154080951196,0.2150864363823978,0.40639228426527385,0.2896808612266214,0.36073478714868945,-0.09231985003391481,0.386984185679172,0.3581245537874069,0.6225111706209554,0.42572023729926217,-0.043565865882614574,0.24010320510775465,0.6782314925715522,0.7514173252520566,0.2911913515877883,-0.36643237236336335,0.229552142871936,0.28298203533575045,-0.2282252612468363,0.4217251972809522,0.3907608899104618,-0.08866311007644627,0.2907641452283243,0.3950082997362476,0.3807027990031432,0.7000624240183859,0.4739586922588219,0.5873161805615532,0.35777698526047835,0.1107004852556934,-0.5090439569527978,-0.4372717605637205,0.30532981018489175,-0.08267868353127085,0.03496124132045918,-0.059706780419451155,-1.5138376984956388,-0.30612777386852086,0.10578765317019735,0.46299652827267024,0.9053454039830298,-0.17178941531553718,-0.5820682606354808,0.0573295168881618,-0.34381284946444324,-1.2611243278974624,-0.6830429156593187,-0.7363838262358323,-0.3112597002866104],[-0.5693784372548296,-0.31226063155924527,-0.1671004078627285,-0.5158494222296358,-0.08472923553332556,-0.7785808064674185,0.84195479839842,0.14517451111501772,0.2863229375013523,-0.750289433399747,-0.8972195775636568,-0.07034637349583904,0.622302582923139,-0.16613091197592897,0.18877939170354177,-0.39376815744455096,-0.020824925868364923,0.23538596533422934,0.5997791466495963,-0.4499305900993609,0.9039485894333149,-0.42438189311912883,-0.09888641047683057,0.017228289345260626,0.285683693561027,-0.17787036920950286,-0.11617458842721484,0.22803920748882284,0.4219313451815472,0.565965521120352,0.08401877941279384,-0.19305697356209972,0.5891876242020007,-0.7795681211894269,0.2457064599265313,0.3026807679600584,-0.7488980692720388,0.6117400234648972,-0.6077315866973174,0.393396689455496,0.1650114954225559,-0.1759424875206972,0.33430656154357086,0.06466628377056415,0.07544447962193106,0.2240955250000736,0.43870394117599937,-0.8874269362642072,0.1047077635967499,-0.3819072428362199,-0.14733018008562507,0.5165526865984277,0.07771655400302234,-0.6958371741414512],[0.7863805052039824,0.636040311308217,-0.09320691704643719,1.1585553526781271,0.3320317292062078,0.3039951445958823,-0.3432775013843896,-0.30170344735751575,-0.2019626804116573,-0.9122028966360153,0.6544020659687498,-1.1872570262024218,0.3254069429247199,-0.6615179454212989,0.35477615865973433,-0.18545822791107658,-0.2255698964455239,-1.0070426304075992,-0.05234906579641594,-0.3128557329950009,0.7834056860951686,-0.3931485118720767,-0.03462801148061294,-0.41240778789672794,-0.21182254316352442,-0.5383873776487934,-0.13557799523951108,0.12055522122541999,-0.15603046497330036,-0.11926011227735797,-0.4937923910394205,-0.4281327263956804,-0.23430285824730684,-0.3245581037258905,0.1559892991593968,0.5555726134108067,0.6141869453400046,-0.6955682266332874,-0.2333576202949942,-0.4252865096476073,-0.01851523297412262,-0.7163368166826152,-0.5670367852144303,0.3289575722584771,-0.5452945471649774,-2.076649255333543,0.4355001174061111,-0.23978924566132126,0.41223537684440886,-0.1478811763174661,-0.11593540496976326,0.011878188103901484,-0.7286720213136663,-0.26943325577010035],[0.4894003858475244,0.7719975309922916,-0.4336867928729423,-0.084974067592134,-0.4097334578095594,0.5219329624414787,-0.011352147913072416,-0.17800696997302562,0.019544362708313,-0.4961395284724649,0.34776400935333257,0.13395017275046472,0.21827042020859655,-0.5821672631798929,-0.3209038967570787,1.388142179061304,-0.3339817962877109,-0.333301807897561,0.5627555447363033,-0.5444978661031723,1.5959377297640156,0.02721000668551621,-0.287410641805614,-0.3519454971966105,-0.18739862795376744,0.5650841133504777,0.4275134276689392,-0.38989986648714864,0.3003098509374537,-0.15985171347964533,0.2898312034416811,-0.5406943425260998,-0.32607889542216856,0.07417963456202162,0.04752028617798842,-0.058751245197095354,0.39415208542887326,-0.20446654818843518,-0.4844167783728291,-0.42772472295945835,0.32470674405025285,-0.09788385727801803,0.8935973334449598,-0.191612918577783,-0.04927827107967335,0.620293958070775,-0.4040595704499575,-0.5801177222112416,0.09989110206485828,0.6550227626212118,-0.013654692529110904,0.03553674071312112,0.2789594500609414,-0.09952945978865127],[-1.594726161539303,-0.9644617867603423,-0.019286753782756298,-0.24899413974270246,0.11058590449927512,0.9673045376787057,-0.305194937380933,-0.36352650801157865,0.5692391438926164,-0.38618881706474417,-0.6025766470482038,0.0763598122199809,-0.22748717280803316,0.49161264215974054,-0.8813571233045469,-0.8988948655064082,-0.43977029537723494,0.016492659633823445,0.06960737216845427,0.19040706799132076,-0.43796065418376406,0.26515858923560176,-0.23700012345753477,0.11264280126151856,-0.33313543139191837,0.2376337050531816,0.6303777590606685,0.16679626066796333,-0.3834053842841827,-0.002549195771332719,-0.4483119376694806,-0.1153024189506412,0.31258447033300296,-0.06780092858825666,0.06597840761350914,-0.2922994804212857,-0.25569500103662157,-0.5680489821594629,0.2880633443690832,0.9618213895624206,-0.787760952658925,0.12211348971861856,-0.6421992661783031,0.031168673977657328,0.9879844233483447,0.49063855399011397,0.4523863922026944,-0.10844665888511239,-0.9642449902424856,0.1562925855635155,0.4888163231707569,0.24409230369856244,0.5322189282722037,-0.5351366252332016],[0.02872611271570623,0.02553784739116552,0.158235755863574,0.8201949490101625,0.060862213109935254,0.1823664369941281,0.31434673140882763,0.49688048149286324,0.01325145539617699,0.5970327293996373,-0.8893916025541644,0.08642221571284094,0.50132593321063,0.1692566328651315,0.4956524191229394,-0.03676555926932516,0.07978865605262427,0.20683568162802538,0.6246749176956603,0.37635771268154716,0.05377533274745659,1.3465894155923361,0.14719367093580527,-0.18518790538612367,-0.5389696673620088,0.6174918810612535,0.3295088820878592,-0.393258314321955,-0.27865772683506984,0.087036617328398,0.45355471969780164,1.0717521168566724,-0.05793695778058705,0.2482765765432524,0.08078591991612333,0.10550213662118753,-0.4065140858903857,0.25485425331843553,0.17360620011642353,-0.1358354293243953,-0.025265471491306028,-0.08576853646032298,-0.7744731434650783,-0.07336073684469561,2.614638600133297,-1.1922836812414992,-1.227974698756702,-0.20035793338305105,0.5908132698610647,0.09398766695549017,0.493670995586442,-0.7020647024758456,1.252812476287064,0.7461447815839611],[0.6965463661592743,0.691395743869101,0.03409142229325567,-0.19166551543460877,-0.8553882039181072,1.0900686599158713,-0.9431785052359906,-0.9082618927574087,0.09255299849010426,-0.4946373630250552,0.7013433558377213,-0.8095600464312508,-0.38656067103700126,-0.4725890696802907,-0.8095795344447135,0.21381872306369618,-0.6221509382543849,-0.7319533790183236,-1.0156179948971107,0.3381229510463372,0.6716848302260526,-0.27111699611872475,-0.018857860994318992,-0.9972914955479204,-0.2163034560660597,-0.36919925615963967,-0.09809931982975455,-0.7809992668048985,-0.7300438601864109,0.49888524497476217,-0.539536025118402,-0.6374113262340121,-1.082488483661486,1.1821012658819041,0.04624907181002256,0.00524619148649926,-0.6638922549095942,0.21963422437373045,-0.061649219284145004,0.14985313294909056,-0.23413404767425097,-0.1134186010529428,-0.1122172830624284,-0.09043523536122643,-1.0775312384308255,-1.1516848953052812,-0.32214107405658815,-0.1107397009476874,-0.2631702730204992,-0.3019543748330335,0.5191006278077037,1.1392343769454178,-0.8116722240135594,-0.28634873925081367],[0.2845729577256753,0.7405797672635666,-0.6971148094532857,-0.09981681823685264,0.3472944878428913,0.904436949610824,0.3116358147505379,-0.8089842667628299,-0.37109274808997667,0.34777131221177915,0.0321006727890139,-0.05697588583184127,-0.20739375766657392,-0.12417118207874388,-0.029215597149457283,-0.05531262626951432,-0.27125609161647296,0.33284115445243107,0.372295995060285,-0.6630247775750788,-0.47327629974075364,0.26527613314912396,0.34877472943806187,-0.03314163113946352,-0.05098599159024279,-0.40893489288271223,-0.27831653553314784,0.07213335349973513,-0.04670690421401572,0.3861282069585357,-0.34866546655048875,0.0076015068760894545,0.21024688926987636,0.8587369248106997,0.13951576864720722,0.2995446185850612,0.24277422643403995,-0.06469282643429763,-0.2816530154085758,-0.22809958814919162,-0.19109905926887377,-0.11838700354822683,-0.17095615606102757,0.6002692621344484,-0.4601449976853896,0.34804564404147914,-0.05343373921846314,0.9207200947012922,0.027767467956976283,0.6454534556345939,0.20046744735933505,0.2942454820593192,-0.40749107154834907,-0.08400946704193805],[0.028265869085702278,0.02303033801085835,0.4538724598213755,0.4320602551209511,-0.8528695403070026,0.3641723042600243,0.11973938777731535,-0.21898838103949808,0.1593819587365545,0.13076686642064572,-0.03316341992357827,-0.29970302084044553,-0.04028111196619423,0.0859982284984503,0.052828444611154275,0.32190751201051304,-0.08713411019785383,-0.03922252855951521,0.2250698421091059,-0.054063943424041784,-0.36583822630363083,-0.055216990638691094,0.44796435557330866,-0.1044973394475197,0.02025159750368481,-0.17848644451937898,0.012142728892332925,0.02192941021865825,0.21096280588291708,-0.4576610709897178,0.6941154660211936,-0.2108597380410057,-0.2505765038705434,0.15346348704197124,-0.2208005156645401,0.1459649392871456,0.32072299056706804,-0.23342843486078835,-0.14295828529775526,-0.09717232638090732,-0.12932850220082023,-1.1638361261911472,0.2757055873846722,-0.5104056083676617,0.8165819881115384,0.6477971984164137,0.7900958264548892,-0.026824313560281355,-1.178113861352181,0.012434245751531727,0.5129058558184646,-0.08921257320203721,0.5073424573518145,-0.1553202472292162],[-0.497324585528577,-0.05513583791613813,0.08938409706799906,-0.3952779666102667,-0.5023440087456383,-0.10535181500021622,0.6687420264555066,-0.20003801432142304,-0.8223213801119098,-0.1287456339674009,-0.511596307277247,0.16877760240709444,-0.25593743909234673,-0.39832094803099455,0.4371715775290608,-0.4245157106387194,0.48288096270896136,0.6509780137980054,-0.4558363880605732,-0.7741393049975075,0.6819457476554144,0.05657157981793251,-0.20163428255635918,0.04585131215473263,-0.06640897242417083,0.7226405494178398,-0.10763360681011476,-0.07240293989688591,0.08420486302432566,0.09409650157214393,0.12300247844833896,-0.2516492619862452,-0.10584683673467359,-0.1361814617097319,-0.02737797137798102,-0.4225335557167752,-0.20219437037733431,-0.5115606597143573,0.19602062667714837,0.4248145743854549,-0.4031984311013641,-0.403673063201105,0.014835125894917466,0.09875924969377092,0.46442364337325776,0.357430927438124,-0.37524369222416365,-0.27066758526974716,0.23279244217208744,-0.523005135976025,0.05281044622844361,-0.11780485341637481,0.45160284210179635,0.03352737131310739],[-0.06670846290800975,1.0361001629874758,0.11869438766774128,0.40676178211447195,0.5090600371946492,-0.0217002262063857,-0.12205964768214266,0.24022984917989837,0.3242791853522091,0.05063964211195035,-0.056971669215457765,0.16482768208986662,0.17016816963079,0.22095725005416586,0.1329106941012695,-0.3422492421668332,0.08118728142784788,0.37273165150398474,0.07722540307420604,-0.12237692455361669,0.33936036217513255,-0.10209960057799865,0.03509818735785651,0.024272174560038547,-0.39703714459689887,0.8037109383171276,0.16657980404946093,0.36228766073363355,0.44421100826848525,-1.105318958509396,0.08131556882970417,0.42022472169857383,-0.11270929846211239,0.40644207160730417,0.06592495484994415,-0.030218705982723106,-0.1253576280368622,-0.14467867304293697,-0.3076275524213104,0.19671880055229632,-0.051471707537018484,-0.6384258846100295,0.7307692135433415,1.1439507310711325,0.4925738123352334,0.3901888774094815,-0.7842702876449857,-0.13774191355237866,0.8978059265203767,0.018157911712317468,-0.34285247067946856,-0.06039394736570589,-1.1830954322824905,0.15806757557433904],[-0.44682688181909697,-0.07361921649621724,-0.05416370609890015,0.08355743121140696,-0.3658914121045279,-0.1736571822889724,0.258507118251233,-0.35014054731971694,-0.16661718030062958,-0.015444305127977297,-0.29720445503520176,0.5507595519423301,-0.17054850918828207,-0.35974915549887143,-0.12621613785742766,1.0440870901693837,0.08589319758528074,-0.18391086305672086,-0.3135718637221244,-0.06623211924516224,1.4425004461512299,0.2362646801630849,-0.00024024642106928163,0.018486886221546858,0.13780652569369345,0.6048200181147427,-0.007562761545082616,0.020678139506497252,-0.041107647579799025,-0.05090049246006808,0.11499452801377469,-0.09358405514303363,-0.2574772468019809,0.356560123292705,0.3170404599068733,0.4085571762956299,-0.1259132396075424,-0.11761878033683058,0.03572439914472218,-0.3273016921829382,-0.2547663432796958,-0.01894440483923341,-1.447621145868365,0.1716500335933873,0.3350309470015201,-1.4365301649171327,0.5577286207890639,-0.12950766754900134,0.5318982132438127,0.3452656975550791,0.5838651209930689,-0.8649878335013852,-0.38743695444004456,0.3343952148311903],[0.10500496303775649,-0.03189652216030798,0.40529754852029337,1.2688113224404807,0.4136586419249337,-0.12291277770961888,-0.07664646474742927,-0.40706041977752383,0.36354781577423806,0.08111855769346331,-0.5888993304802548,0.23681800015956542,-0.2694383743521796,0.4232627104232619,-0.43220145063375304,-0.1674884084083768,0.9523170144216462,-0.7257124110176704,0.36303355288843664,-0.1159701696947971,-0.5601238079622316,-0.1571397143707773,-0.0816645648889016,0.0950102696686547,-0.08709799292749805,-0.617572289222712,0.4650517905825341,-0.323211674476844,0.16033399067007573,-0.23493450919527928,0.280802128027628,0.19774801544615356,-0.5018713677034788,0.7966309910735211,-0.06336299127896172,0.42505405317040634,0.42589812619495765,-0.19805278953906275,-0.03383739209370329,-0.8293438960133264,0.20594710574514846,0.23645049617582417,-0.3732677739843091,-0.15553916328532277,-0.852475938786614,-0.009139039076689061,0.11768037780479057,0.28579648360647764,0.43231747331486864,0.19916409823555276,0.2326854124055229,-0.5618238177285192,0.40741363183015256,-0.40939986532803285],[0.3176409963793033,0.2025553925708938,0.3916114792108239,-0.08327473479149894,0.1242183643864134,0.22206048100817377,0.06926013217085775,0.3446303139686784,-0.2759347214429814,-0.4209528095326525,0.18667457594081896,-0.034477379418262274,0.46596132350473446,0.19801061284904017,0.2564964636734898,-0.2981495743676615,-0.04528242013065516,0.2909232454957831,0.12189279727129305,-0.2607482771938067,0.31342597127540583,-0.3817691984627398,0.3426375965598848,-0.10854155554522077,0.21146476383617485,-0.8691352684792861,0.4694918540300505,-0.42377093105424357,0.7481271841717756,-0.324362890280995,0.23809317038858407,-0.2543221747243011,0.32833665146092933,-0.6645133813122003,-0.05085661493761977,-0.3277052588294009,-0.1333838067749648,0.14869738649764053,0.5457835161556154,0.4276469007972617,0.24419579839107833,1.1930955416339089,0.6024430610792885,-0.22113362723848717,0.22792016211804705,-0.9419601973713339,0.13478095246472335,0.237246485037087,-0.15519537705842099,-0.03851801963321113,-0.3264773330695945,-0.10760225639742506,1.9749837038830431,-0.295067243860595],[0.045100525862701565,0.08918050070971838,-0.18789827064780887,0.4775870749686531,0.05643924256553905,0.007352416018611651,-0.27250001488897607,0.11273319381184554,-0.10066152175922576,-0.009498462010669938,0.4406197356139383,-0.22415917576539257,0.10304088417286089,-0.10403496222430562,0.1252845206440068,0.03556547958816133,-0.04861689975388965,-0.4225537231907973,-0.34704867280141927,0.5029760240525485,-0.48163082480085234,-0.2823680387711053,0.06612264666878834,0.023488268884009154,0.28784364424227216,0.37650321121950103,0.3637000548582871,-0.2948742483896593,0.39848467671025306,0.2313977534750986,-0.3734596453105962,-0.16436749732703765,0.5473018341069197,-0.01817678258824471,0.07371915985792257,0.386187967402511,0.48200008953676166,-0.720053290775916,-0.5293332047535116,0.059146849083990906,-0.18996087704019324,0.6759021227661515,-0.3419933483507295,-0.3565588448029826,-1.1312060069202874,-1.0139373195817893,1.4240262242313764,0.04280339315063212,0.6469615251017578,-0.42465698426364573,0.6266305687152507,0.2951466781424225,0.5754060796896386,-0.37931019146631495],[-0.5676219377316866,-0.5669575628909268,0.24323885252686184,0.5423847281123223,0.451872929227453,-0.5681931573038957,0.03781157851468374,-0.05288867953362927,-0.20077401181984422,-0.2520065240323745,0.4722790926434848,0.31627210695788743,0.17132620440316773,-0.021904334361147304,-0.5166267350411302,-0.5239386410967505,-0.25336461452390174,-0.07896831640447594,0.0461772222938306,0.0511458513074527,0.13128481191983796,0.07720403904454293,-0.37621212458453607,0.2527833842920612,-0.47015799106484046,1.107191097221341,0.4560068826889308,-0.30256319704704904,-0.4548404332345694,-0.1833804964044279,0.38280256576594446,0.13693648700308234,-0.7098160453130802,-0.14024282890624645,-0.18877676364457482,0.04985724227752337,0.4501169041793519,-0.24622507201921032,0.49846982987974775,-0.066112522950477,-0.04960206919668615,-0.8499817071461805,0.8278281891248365,0.31945976013268496,1.0879638584602207,0.24590220554305897,-0.13338221363006858,0.197067635037447,-0.604873481391566,0.23986700927636362,-0.0340404373485507,1.6620398104087484,-0.7508245625544218,0.3255617574433876],[-0.4534700742772943,-0.40513837608401126,-0.37448018043776216,0.27478785925267457,1.1635151977662486,-1.182818216495113,-0.488219056242637,0.4162657742668255,0.9884540668545407,0.019142744330934543,1.049388423576271,0.35376308851700805,-0.12586985159758254,0.19610812033965286,-0.13288431104502932,-0.8753317144514928,-0.009528365146835614,0.42500686277296845,-0.03182726790213231,0.32406011539362345,-0.20730249459663652,-0.06619792225874346,0.09679587302938433,0.7264765173298838,0.3641920469010558,-0.32167456154708207,0.3156030246883717,-0.3133841282319752,0.09377984908218746,0.3455157038259063,0.3901651377593505,-0.12745083923490688,0.5870761930019627,-0.3036928774187039,0.024556064554988495,0.11954505497245323,0.008749598537480835,-0.22080269559527022,-0.07402344733585606,-0.5311699687885214,-0.45976627128750847,0.07937820583649526,0.3259933359657726,0.023866816616226628,-0.3527185772131378,-0.7540370244851264,1.1328017347009622,0.02496303305913065,0.6125842631555121,-0.28394960422700066,0.5658193298790544,-0.28310027515459707,0.6924397315274773,-0.31300748427549285],[-0.6684737564113342,-0.2712711425139601,-0.6595496209021203,-0.5334414579553974,-0.7214374112885076,0.610329439587457,-0.8856088256232035,0.22744477925051135,0.33578966716118464,-0.14839160218387423,-0.012927640176377412,0.12416052604534139,0.38056565135174353,-0.7015079572606907,-0.5220793127861892,-0.4390417583560988,-1.5313762605627161,0.08914987628335584,0.4137728420418753,0.6648211950419448,0.348579013312599,0.14803887929905585,0.009412348173072196,-0.14854260143520634,-0.08950798239050597,-0.13874539691255233,0.03010595671947409,0.41681907523799294,0.017901759791193676,-0.1949144350357922,-0.6028858545685826,-0.5653124564355563,0.2981288499409892,-0.42309494218423016,-0.16314713664600047,0.6801420295028494,-0.47618409323212085,0.290864791490598,-0.7127820158974735,0.11402305409615628,-0.28132930045461435,0.3559227437383905,0.5615823483985347,0.27447374168773103,0.4308228564153595,-0.402102242543042,0.5414196259270455,-0.376871173971999,0.06130026785438691,0.6332184954657681,-0.675261864568112,-0.5904116842172076,0.36936472709806745,-0.4605003613435521],[0.23177539208159784,0.5655178754082276,-0.536615846251288,-0.000778203199034862,0.36004138934529084,-0.3303468060964506,0.5930840835157195,0.2566508024448522,0.11603430086441169,0.04762945459696263,-0.049011938496178034,0.2719519947463031,0.6059540257863789,0.0612006269717645,0.18813113886671798,0.6603243719787001,0.1288742229127308,-0.2561579688104264,-0.26969428783905175,0.7331275486617307,0.4639653147831274,0.46534927588844255,-0.142042975998777,0.09905671674445043,-0.21980079195804483,0.11660081656086121,0.4304305112933492,0.18504791680630936,-0.3433054427570396,0.2771406408994514,0.23021261309096316,0.49057194918381175,0.1386906223578483,-0.651701977864072,-0.1418890997487996,-0.15849312246479846,-0.12787571762309308,-0.3566108793154971,0.3263811404895602,-0.08742267905203246,-0.6366277157038637,-0.5264608288530356,0.7566215191639246,0.8869947746858355,-1.7352931249270742,-0.037047898629659085,0.16806149452026758,0.5506140809151623,-0.02515736915725008,-0.5749242220997893,1.3824420375871391,0.3485228491435297,-1.0297732723341144,-0.4969299245484828],[-0.5470085407302209,0.1257275028656955,0.09774084103425952,-1.318597306562465,0.06264749619601091,0.33978013656525263,-0.7969118430559851,0.07713253813415666,-0.14673884749409835,0.13261110628924921,0.38920351117128943,-0.9746146114142041,-0.2590047069873873,0.3496377018174198,-0.006814392848392769,-0.2594408361713302,-0.02227500613145449,-0.6995631455010851,0.3791544612446135,-0.07866906035794383,-0.6890908647266367,0.09241556189499933,0.05133744765472905,0.5154206960153292,-0.6662460075172989,-0.2766741587639856,0.19576992661561415,-0.20899829621481603,0.38908327069476556,-0.03279068273250753,-1.0004418606638348,0.029823597693598398,0.2910192763000142,-0.29066603017738984,-0.07611361167459439,0.03534632259187686,0.4792629318709306,-0.39827487370996123,0.3032092174306208,0.4780863228190442,-0.03421224610549411,-0.2108447635469642,0.03320993384643494,0.43531632812441906,-0.5317251105727782,0.043110440486117486,0.7037944629576901,0.00497253178529898,0.12187867396494365,-0.1321748829845301,0.894359587867781,-0.7875500875652626,0.611303565242736,-0.32267298311188763],[-0.7741139900835243,-0.8537337066941374,-0.017687980961773413,-0.38178257452984893,-0.1575753826473245,-0.23511956698797035,0.21642536141054275,-0.2006016151240169,-0.12906349393655772,-0.9321950102570757,-0.10722878870326474,0.1066042084269578,-0.29036692303722705,-0.06210431106702076,-0.29751616301885814,-0.1314473433909668,-0.6156037852338414,0.3622333716347959,0.030672212633860253,-0.3775790687521709,0.8615788669861327,-0.2656440047082449,-0.864569491318488,0.3301800442377633,0.3793614204898906,0.5775927434308786,0.33342908565149554,-0.030203768799841105,-0.5939785094317167,0.3223188207588677,-0.2028618911966329,-0.7906972989679353,0.25029489591403964,0.427440845184079,-0.006761866677026229,0.5898750223637201,0.13679803558998685,0.1605358607229448,-0.8265180002743739,-0.25636201280292387,-0.08486209814401406,-1.3521109128865891,0.44697889202377483,0.5724594455874058,1.29378422504426,-0.44357870129093346,0.48002140120208936,0.44336896561698075,-0.08280263502426741,0.11420210450746394,0.9543079025419882,1.0188178631462441,-0.17540098384247393,-0.4282323916865407],[0.09405123652122861,0.283484589932451,0.6225898609720752,-0.2850553235776508,0.019407400500209643,-0.33466576409607596,-0.1460769354184008,-0.19455047521183327,0.14300541447091447,0.21365050221135853,-0.959384030837607,0.1465658901203201,-0.3665976233285604,0.11985618396926637,-0.26379895578939416,-0.8249295022948409,-0.403317439045179,-0.2776464260295631,-0.09581986303903396,-0.020324400766164475,-0.10923562716078247,-0.6024535396155194,0.3446228735314009,0.22334421868766663,-0.09260998547685792,0.2595516026707945,-0.11774859712090635,0.25584640749345694,-0.022894652761220866,-0.04807755890995227,-0.26570114795469707,-0.06725663581020269,-0.06958482047476236,-0.15445581920477366,0.09966749169668006,0.44119352322584876,-0.06417529975986364,-0.5711545061302653,-0.09938716848462333,0.25773143071897786,-0.34470148860183336,0.9112716216024842,-0.7284798746073055,-0.2939179270372608,-0.2701359295950282,-0.5405805620345965,0.08244599001631396,-0.05678363002925529,-0.9548054022183485,-0.1179293198014911,-0.5751668755405158,0.18821830713113122,-0.36882408140929446,0.21549380742997548],[-0.11582337447835064,0.12735840801536688,-0.03205554744430666,0.1616013052614383,-0.41290334034596327,0.43038244422108785,-0.2590008438673937,-0.08555342776968966,0.023569047676623635,-0.28085752807989,-0.21255164064820337,-0.14136767707745632,-0.5690765728371294,0.1911666006744428,-0.14469288165236233,-0.837923358001356,-0.8807755482034941,-0.32592423015735617,0.21561530542893675,-0.15203437649027018,-1.1626668559081896,0.49571768311645426,-0.8258974511772644,0.24909789613960304,-0.7865154210024057,-0.2859699466094792,-0.3553343451678987,0.029835170107148104,-0.28233229264005427,-0.1277872719257034,-0.05709989726047888,-0.5905741574721041,-0.470443581693308,-0.607144207189163,0.0018718611200608287,-0.516762242884308,-0.19747190685127838,0.2929129226217639,0.38512696871048335,1.2029064112116288,0.15949884197092246,0.13835006033763578,0.17894087459970298,-0.23933942547765252,-0.0702834687939786,-0.6690517358056335,-0.25139594183500213,0.23953169901613286,-0.9996194702085934,0.49256138952013323,-0.3883440358212675,1.412635073628432,-0.3095718120450968,-0.2749383473633879],[0.02376258888685442,0.3890138171100435,-0.08630081465843481,-0.5605224552763585,-0.7578353691973412,0.15149355797865208,0.3600465082595145,-0.7535982677125578,0.5333527770793023,-0.3369953810332815,0.4534209620746372,0.24665286221952815,-0.5831568068652632,0.6424328579464698,-0.607941669024804,-0.09283854020237833,0.07529432363748916,0.3036611234485041,-0.3746320979997696,-0.45946502889327523,0.8293908571852259,0.4034626602052479,0.3228346878860837,-0.6126409875579054,-0.09244993810177528,-1.0364392850903863,-0.05887519063580621,0.4388014397753706,-0.6535646648721011,0.9874916640975914,-0.0682249371311604,-0.47009576768819356,0.3002460980797849,-0.12576256480136586,-0.036330554885844114,-0.11803893963792395,0.2451599284697741,-0.14927961178508486,0.07008905310846528,-0.446837133041731,-0.04054293915556271,0.17055373745080407,-0.20801815551772007,0.3196209910615752,0.24871649741699778,0.43007244498738306,0.12634866008028167,-0.15322787124435544,0.8332426590106689,0.46373325974761237,-0.6121726759666717,-0.5800782143223787,0.21149627174115376,-0.4761250654994308],[0.5909977421153776,0.34966318761196696,-0.08218373868730018,0.205532182262863,-0.5814657628268879,-0.0023029798610054303,0.0006003850684884699,-0.6153445332417914,-0.07463484597319117,-0.43665268831271786,0.33930204718397466,-0.5016701001424716,-0.13130481048898376,-0.3701753038533496,0.028054934093532477,0.43988790208695144,-0.14366298831107305,-0.2969053305711769,0.0029331402691327845,-0.5186420036263533,1.098103151294158,-0.43013040831595656,-0.24417700760223288,-0.2971912770282213,-0.4255675432597622,0.5532765098956336,-0.7941512303337079,-0.2259934994983771,-0.018930403431557254,0.14858547890125479,0.24218253723474312,-0.8030870953509789,-0.6150494428390866,-0.28342554438955225,0.191897258344445,0.18991716236249892,0.016740740529232197,0.06412316113081887,-0.29776872330430626,-0.1726164735561665,0.10989079283979797,0.055039728004227254,-0.12797684774397514,0.5607862328139631,1.0822715905927385,-0.238916076302387,-0.7977229836074617,-0.021082659672054405,-0.39282881725208235,0.7422427889221377,-0.07994608151378027,0.6449609096319808,0.7187226168576177,-0.21030097351997912],[0.14126117156899587,-0.38232233960815104,-1.3490250412197082,-0.5433183258136719,0.06924835034375351,-0.542813264097925,-0.14046731425079834,0.23595795777219328,0.1054812340927102,-0.3473529053648245,0.3379774655167065,0.2118586486511815,-0.16941492037918351,-0.701587503257967,0.40488703108367374,0.1496704823005221,-0.6295286087788003,-0.29622167475683636,0.9188192645750529,0.16002757103248916,-0.3781840527947032,0.5584771876719814,-0.28843499857599336,-0.19353590309626706,0.5992704563353517,-0.7349978223364221,0.19808633400276457,-0.3641335428797348,0.024327357383057184,0.11125217561815802,-0.04691415291016074,-0.2416435438089832,0.11978643545259168,-0.3150188851226641,-0.005393714637435426,-0.020746299651152645,-0.5275497233323717,-0.10394798977031942,0.3440421339218577,0.27227557663620805,-0.5661290429835235,0.1314517741740003,0.22250495174532825,-0.37614573555335185,0.14933006171256233,-0.2468761082772263,-0.29745314007489204,0.03952575436846261,-1.1712945614766976,0.6653392467417515,-1.1279119696487576,0.1344005687309474,0.4038676161498374,-0.479828427158122],[-0.6777205083140517,-0.8017212074610928,0.1080650984851356,-1.1211299278330842,-0.716225818588645,-0.18361925281395877,0.2209271119747668,-0.45186186483744384,-0.2129405335813755,-0.3213459681067394,-0.3273106319612839,-0.5304182325729392,0.18914403041490108,0.48176367229915035,0.06539849144655956,0.32381538045018,0.12519361396856332,0.28439648499764375,-0.1402248194121721,-0.27381780567260533,-0.3611908826802933,-0.0519830224385359,0.21911927581885782,0.16384744441895863,-0.06138792082868622,0.1415027967734517,-0.46883070305401126,-0.1385838633089499,0.7948909857357721,0.269483629832061,-0.11028481108213556,-0.31141981985885414,-0.10224761201858348,0.2744992842213527,-0.2667942126625188,0.1393273432336036,-0.13605644700544428,0.8584421690674131,0.3537335154066787,0.13752606891284522,0.2553027489031609,0.3320062011422831,-0.15042442517939028,-0.13358311042567395,-0.29662322157013493,-2.39997744072001,1.787352980662733,0.2743223525915647,-0.04607153061941582,-0.020673469395284316,-0.9273114379759272,0.27779030205731803,-0.31726850863305717,-0.42024142039434503],[0.15613792918508698,-0.3174711853040043,0.05218974025811863,0.13830944978608614,0.18582230816307319,0.08982458044539934,-0.14645760848705067,-0.03871059117870624,0.050094068458399484,0.3044125593059784,-1.0154766978337317,0.05985191149757092,-0.04160905357715074,0.5023840293178261,-0.22015703397151945,0.6998221110409963,0.35928631673723344,-0.5008553630689394,0.21726476380955026,-0.1618292679117546,-0.9384814018528587,-0.049552304909659096,-0.5298306167974741,0.011743601489373047,0.49867467278705807,0.1627603932040811,0.1417251752607266,-0.7309466128347791,-0.04735553001213029,0.37928634203326544,-0.00042213702354508385,0.3816261702155948,-0.21513240091896224,-0.8513958074418561,0.09525645729660247,0.07811854538186674,-0.23680630437511604,0.5349374957592282,1.0322084064734014,0.11750395333947034,0.43495322228033634,0.3579541017825964,0.03256283033357047,-0.9175090573363047,0.3006069986942884,0.19367181028841685,0.3918770119690372,0.15011978952463398,-0.27296918112610047,-0.14824701905249943,-0.235699308684355,-0.7567044731014319,-0.7389236693943597,-0.248272056456458],[1.3933401773423904,0.20474523317593388,0.04928591158358708,0.3146765033258712,0.7685998114906997,0.1092086973851922,-0.13034412563539863,0.10886173973263072,-0.32676626064279174,0.5565135315078327,0.01776203302549386,-0.18098886092999142,-0.11278164789242612,-0.2256415758768536,0.5198762276084572,-0.11064720209232363,0.08255627633552585,-0.12340485006932872,0.2731463174974816,-0.03882197115853898,0.2731633186830629,0.2843534473527355,-0.07489067326977068,-0.10722148769341588,-0.27840336577471564,-0.24093434395089028,0.34813363603372277,-0.23924389594832537,-0.031924726181158936,-0.4325964140228373,-0.021768152916968198,0.46068198295122287,-0.14291119361512222,-1.0667423574443073,-0.06793790898854918,0.10863699166550762,0.47780903375507244,-0.31153216011765616,0.25744206017748317,0.026093499444391873,0.22129297454339317,-0.25643704008657103,0.0712381347340574,-0.32307178643522333,-1.1933455780247273,0.8994720992378039,0.4647240566402656,0.3186915199876832,-0.1808100879296569,-0.2591531026803616,0.5827786567253026,-0.47616236579945964,-1.6760926417715205,0.19488363696595623],[-0.35358876662642846,-0.6462161913526474,0.24222468065202563,1.3499324929547212,0.3457045762759969,-0.12354886945830812,-0.012485874813717681,-0.07198261032814568,-0.1544688357062275,-0.9207191134020796,-0.5132551532492269,-0.5222908546585254,0.2621505139224993,-0.5353345262762826,-0.17030751981052475,0.3832157988267611,-0.5766772737986517,0.3699646629796335,-0.3612975638912074,-0.2657444200003922,1.0632150955701754,-0.5900982244329143,0.12434153552165811,-0.48916700376542743,0.2581127466887509,-0.027556655656770235,0.14966664236911598,-0.13655020974618343,0.23964846510653584,-0.5634553404843196,-0.21067378582403584,-0.6279164407565693,-0.12230937632523028,-0.6836851402485925,0.03382859754479137,-0.1568085205106408,-0.6294236877679181,0.4729358243225433,0.5607456475694428,1.1294349007916387,0.23273406371600133,0.39740052652534763,-0.14605089668860055,-0.47245578039306685,-0.5182475591116276,0.7827811984230386,-0.022613955124388203,0.6417703345779648,-0.7425491984247689,-0.33605359862327944,-0.1594256924348497,-0.6732015120669006,0.6294206929171541,0.015316485833076182],[-0.36621950913352724,0.2119887776240225,-0.7416899675135691,-0.23949202384893906,-0.5242520001474976,-0.02760611013687941,-0.14887110193894487,-0.13503163582623542,0.2092938304452042,-0.4244557349625224,0.6615856601622376,0.7219302141650148,-0.4353746929561745,-0.21755773765344447,0.3267339537342008,0.48135666964137835,-0.1874721180935474,-0.17322720631210184,-0.21089656237697385,0.08223105728240614,0.16016868390178088,0.378025886073953,0.7424283190142758,-0.378318815649597,-0.5525182504699279,-0.3401012023698469,-0.08857788940571149,0.2845958179473031,0.21337255568984842,-0.3387329112384654,-0.3484289050908385,0.0408676840308516,0.27607952452738116,0.40868568085040263,0.1802393454575637,-0.21781850099562375,-0.3834373509510464,0.25216293557421093,-1.1797355158043896,-0.4209096507968987,-0.17993379834692194,-0.4224503807408793,-0.08229588211955143,-0.27614678799342957,-0.003927295849867284,-0.5391427223518135,0.9882193681235264,-0.576228336547039,-0.9462753872423294,0.4808155422727307,-0.017847216900431243,-0.42160841462009374,0.0202270872778341,0.3636129455431795],[1.4467885578900617,1.5285760176549996,0.0071167969009350174,2.6626688932617038,1.875928140735319,-0.7211121629336148,0.3793472932554552,0.09692591924155586,0.22928239979235648,0.4186540921035051,-1.0181989952236832,0.2136009968800595,0.2874780570137355,0.21970212868176445,0.17902517763961634,-0.8749486995910664,0.23865700296294995,0.37030738243479644,0.06085723344740412,0.1717997751277584,-0.8965533860677897,0.44255612262459587,0.25523266145836354,-0.10457002187370978,0.06628571255311112,-0.8201993990576987,0.07000174599335147,-0.07666037205520364,0.40852279711179396,0.18297951962100314,-0.082630985750584,0.017734145160623743,0.4122773788771004,-0.6806739023147794,0.20857531125383824,-0.32625948353070233,-0.14214815954619753,-0.2446722663113688,-0.3483929320279062,-0.2428657160837104,-0.411176994288905,-0.12144510556322057,0.38568603479134944,0.13326276049867788,0.05633502760141611,-1.906137962045516,-0.19098478953970463,0.20080621342030144,-0.1977372164362488,0.07696732884869303,0.22078530302415392,0.38185991494753846,-0.40100012067879415,-0.21829964134331487],[0.21956456555447867,0.5572075187499834,-0.15349318429932807,0.09529210622674124,0.07372760723009948,-0.03319054237164986,0.5936335456483667,-0.44509037464639906,0.2746499579846392,-0.30701729528651606,0.25654420168853076,-0.24291047683836778,-0.3519740358144072,0.16503150633287297,0.5955260213127235,0.8087167362667367,-0.10785383201857092,0.48793594699039117,0.17934813298823196,-0.2652174927907393,1.3897780970529374,0.4257400927508224,0.07485605843769386,-0.48929092311654954,-0.12576522517194555,0.22121640399286238,0.2702494705571815,-0.34054408908711253,0.07656317830900074,0.11929001872060246,0.466690272276635,-0.11450846677636398,0.21474218310033474,-0.3759708366741765,0.37806198347223174,-0.09557477400233183,-0.4914081360933196,-0.016708825846705813,-0.20552209197124247,0.14366875796871792,0.13023455172573217,0.015330060284783939,-0.5607169780451259,0.9459745931959432,1.4470028917702025,-0.6745026325730941,-0.3702365452941687,0.8076254349462528,0.07808069998727822,-0.40554697950852675,1.0660594965823804,0.315396387003784,0.5229496166230014,-0.12023160371295459],[0.9682722131329291,0.16587817861820353,0.2831344851666447,0.6640661687765985,0.32162782225934694,-0.4086114344226496,0.03993099565651896,0.36250568581534975,0.13918818787916223,-0.17309990054787228,-0.49786036444834036,-0.038254503704828496,0.4612685814282331,-0.19752164209795206,0.1859045368695582,0.6487898969843481,-0.012318259797043853,0.46471036995016474,0.1360823753413359,-0.18204757893102747,0.18879283077266198,0.1108007702526767,-0.3548057819909706,0.253981131073083,-0.31836025922616146,-0.3542888598030248,0.8794663407318567,-0.7971363515870747,-0.42878037122515045,0.4392975464257165,0.5892994958780249,0.22854911069406494,-0.34768685908900154,0.2729929930816879,-0.013744540958429988,0.009180611452106236,-0.2940158901827499,-0.21077488316660944,0.6323551778620572,-0.33407929587836366,-0.37195083098041765,-0.02050835740180829,-0.2782142000363386,0.2963604001468219,-1.5074935339454256,-1.07856834495631,0.23552285039724682,-0.031198572997698244,0.24285650748253174,0.12067228727874194,-0.29783143052054517,-0.5185144022938472,0.5030454129256888,0.21045156441001356],[-0.3890933302330785,-0.4428686322345721,0.2974705511886637,0.08661042632688228,0.059016665162813654,-0.6152337097608596,0.6915263444325548,0.5646131237566274,-0.04782661947844851,-0.6701408793391235,0.25120675726074887,0.21061113290888744,-0.15543215591149354,-0.2140955238279758,0.46677663705334854,0.4679763548327291,0.06676232406010524,0.015101741313245674,0.11802083214826528,0.290367508282772,0.7976031354493847,0.0978521993611262,0.5108935680172794,-0.9051746044202937,0.7691371936055451,0.18028587486417108,0.5209132161342895,-0.6967004005229752,-0.31579969686496867,0.5995369214134677,0.044035250875762114,0.1842054652172004,0.08244121030301134,-0.32565510911127216,0.17553503379806637,-0.30481330975827586,-0.4158318418790089,0.45767784022860997,0.7816599382834742,0.7976960617611601,-0.048043905217124205,-0.009161545396639052,-0.32041666325079654,0.3395144864677825,-0.6837404005866684,-0.938862134793127,0.6760214217637331,0.30254703069504907,-0.5814217779337303,0.07423448238123964,0.13601673553418034,-1.272203305335245,-0.8943692691728844,-0.49468471039599277],[-0.04663002723623288,-0.5780436075743453,0.08528320021132055,0.003083160056823762,0.8817850156273098,-0.40820432419691344,-0.41494665793920055,0.010342273529165212,0.8207821615410353,-0.2745092424806535,-0.21111810510594745,0.2460817558414735,0.7879483818488077,-0.47603241252897593,-0.45902146425236656,0.540079670565518,-0.3083243500121721,-0.1612284412489338,0.11194860969724814,0.08777231647396734,0.6010120479310189,-0.1780952103247096,0.3235720334804148,-0.09016021730637801,-0.11544073185140981,0.08612033073278332,-0.04709266280495399,-0.0879725813488662,0.06018245074632828,0.3412626248555591,0.16429345820856678,0.09559395915276056,0.04430476208268513,0.3778000454269016,-0.1610392177389583,0.5166473366312152,0.552689057698822,0.10359267102397603,-1.1071822888059295,-0.93945622186102,0.6947936368144165,0.22325359002586212,-0.016597181735787676,0.7968691310601289,1.7792103559919235,0.3750842909073688,-0.3437234688697331,0.35350535110978204,0.20411352035962552,0.5195830898425646,0.43796229296583455,0.7597169668074267,1.531097445068826,-0.19712662262227923],[0.6529772642544183,-0.32830726617728606,0.5090848591617884,1.791730187717822,1.101041437288068,-0.027576354197318267,-0.7721925145067644,-0.13517429983210089,0.6414928691177143,0.0022229125218529745,-0.6253042798152516,-0.4156496859427764,0.178576524854769,0.16062239937899564,-0.026768553305255856,0.41067627396480405,-0.078556551254684,-0.013473133960551395,0.1623693371753036,-0.2335754049251207,-0.010255307575606326,-0.3180431325798543,-0.15662314459026613,-0.04615362318602195,0.13748475044933217,-0.12667280217703195,0.3695622731606355,-0.12587167429411655,-0.14033007526240138,0.19025206831155653,-0.1728836767610775,-0.1255172925328944,0.07260163517373812,0.1524658157653935,0.3017438681769833,0.0748468043060509,0.16354035173321912,0.32136857188839874,0.17242413730662492,0.6027503440490726,0.29693420775601664,0.09243636307587494,-0.5243007078849702,-0.5859101240647356,-1.595355015315139,-0.8999146167855654,-0.3929748644795943,0.34784819420476454,-0.29103127308520266,-0.4017751712177166,0.6555192925127037,0.3791616073005877,0.2668892888887019,0.19014371415154463],[-0.7199145434103162,-0.23550728088056286,-0.02513059221004425,0.06562864236307742,0.2882585168943501,0.5753455341215729,0.2945288150848483,-0.141493903321474,-0.20474629575533765,-0.06245373708409195,-0.15721166340702775,0.35033014015097114,-0.06510932467884988,0.069617145211117,-0.08299397729123699,-0.8832641208156825,-0.04254126655548887,0.39085863104975,-0.17472316347346256,0.07305515323881258,-0.401932609055118,0.11825984203323084,-0.05192702865867597,-0.004313555436076474,-0.042273597461112505,1.111309427161048,-0.15186010147488566,-0.05438037120370221,-0.13795477003765036,-0.6581793775310123,0.06285913951842283,0.44232563684321013,-0.738695872258807,1.3779510152679366,-0.026536844729328983,-0.7342372851769063,-0.4373919627859984,0.34822544204671757,0.33070183213289656,0.39378085154984727,0.11178049392375908,-1.6285708067754583,-1.1153095612008483,-0.20503512958355063,-2.252195381942889,0.27848905674767566,-0.018562702148538168,-0.5221468952973982,-0.6409998748568834,-0.5420582644668052,0.12060688100804563,0.8149603995438526,1.148888399700897,0.21599117002538357],[0.1730876074056802,0.25386113424822143,-0.027681953679584342,-0.028292380980085456,0.03349739235343528,0.0604474436008494,-0.060440656860155074,-0.20482486811155373,-0.13613789447818497,-0.08676470007773596,0.1729818547518227,-0.09698063822721062,-0.18702513696567177,-0.2127838239137573,-0.24588056016556478,0.14659023924192188,-0.20214687172657103,-0.20502417103235915,-0.18836732792663444,-0.17058986915898233,0.15023711861648661,-0.008023952415474657,-0.18845332670496034,-0.09459372099941006,-0.1385054634417347,0.4055413677298313,-0.2245651230956395,-0.20202990679680907,-0.06097823494622148,-0.07615994835423111,-0.2791386630385598,-0.2018137107583054,-0.3329261094670452,0.08699243710280805,0.053733227513604966,0.06856365089598727,-0.01446442289452508,0.16663633855101195,0.5164697374268671,0.4650382205347883,0.2686794806921785,-0.8255574496523554,0.9588107733858438,0.24644926060884667,1.273835578412962,-5.230008800177522,0.043707983985475304,0.14773147580380266,-0.3101085387405483,0.22563133239605776,0.29847677725676175,1.0286629796059295,-2.196974943844034,-0.004299749017359334],[-0.22000984974165547,0.49835609240071316,-0.4080644029215269,-0.23405497785072446,0.7763640736633969,0.1315639650341873,0.35237704311065915,-0.07710658761513293,-0.2623626353934632,-0.20319654732947243,0.2859826923261868,0.04439497842992233,0.1017540500057466,-0.08356354755037436,-0.16577629703517907,0.1610022905625033,0.02033365686327456,-0.16840944128514063,-0.17925321295893276,-0.15204554731519432,0.34739542278571384,-0.10363623642376421,-0.12303230168371798,0.22886324239989192,0.23312857426104558,0.16666391130899835,0.01381656061738029,-0.10121159839537901,0.005410277765996658,-0.2777050590255536,0.018077038050522923,0.07290658512192778,-0.07796929817941964,0.4728942181102274,-0.29706919580755364,0.10230828066646776,0.2826056586772489,-0.3147839652299116,0.45299035751449784,0.5314725623126865,0.05541523972570476,-0.47755145230699425,0.5203948349762149,-0.3993616534009035,-0.34164658185389246,-3.9102966867413724,-0.3711831178730335,0.5709169133341903,-0.3179833703045904,-0.46390733308699084,0.4828146646849475,1.0225801970608261,-0.7410367956559147,-0.461747266787303],[-0.9479427444556976,-0.6921345537800124,-0.13376700701281694,-0.14049073595420358,-0.010077168314638637,-0.37756625921082526,0.6337444997950635,-0.6510399588870742,-0.2639398492376293,-0.2086577198009244,0.17748144490196685,0.1764762217231087,-0.6353159377723597,-0.1731603011510564,-0.023057721172824567,0.5901219188408775,0.22396013888572208,-0.3170550145142839,-0.41947363626904155,0.2215518753008265,0.16658022423537752,0.2435507866567156,0.6689178142704005,-1.1542668666692275,0.44844734492835164,0.16139319988331635,-0.0937208656002758,-1.1281933506119917,0.22555960684928983,0.17780261781277495,-0.4618133906014946,0.5573526061569195,-0.34100007177770225,0.49829585451880504,0.08554622984731276,0.5992685566128398,0.07185679226352414,-0.08203549715995517,0.2947797851931347,-0.1647634795584174,-0.011697282247198867,0.7738725986898721,-1.1272111604090047,-1.2829871580236938,-0.5895715289869852,-0.489257865653027,-0.17659694336736217,0.4610456299960727,0.3150143534684574,-0.31931979530615756,-0.439601967052583,0.8447841734146274,1.0379496288629888,0.4743982003821386],[-0.30887982407216213,-0.22251290187335987,0.49434043531425254,0.024082402476156818,-0.2716721821559742,0.04038400030376354,-0.03685025382773537,0.12352401714713152,-0.1695886750752239,0.38729935448652814,-0.4628023317436914,-0.35054386311371577,-0.3884813140420263,0.281788357297861,0.21121393006265413,-0.363090916340517,-0.08024116870934869,-0.08175612025099331,0.6552791870363937,-0.06475590846936467,0.11020182608869536,-0.5666131416529018,0.3410387870105695,0.3805925337081655,-0.21030882767569262,-0.3499000167005114,0.21463704858541724,0.037157186659019965,0.47769196520017704,-0.1838261721751524,-0.25280748659283614,-0.2241427708876902,0.621610664695962,0.026281122016137245,-0.005980725251814215,0.08110138451139981,0.2885672848974421,-0.4609482306266802,-0.6698419458833765,0.3848875263683466,-0.058840511271712734,0.6725123456203925,-0.6038170751997998,-0.3041217597047722,0.5465528737240899,-0.9671353493603191,-0.23381579825824914,-0.08430639321509775,-0.4369901793538536,0.0012592801031811895,0.05185018239554783,-0.269815975068054,-0.4456531184062127,0.02155381717972674],[-0.12928365386902027,-0.32271563985480867,-0.39343872218459475,0.1968651037289919,0.37809672750660656,-0.045401678657681806,-0.14212264912584116,0.6463513288566145,0.336571506690996,0.2247036214520423,-0.04730942557364513,0.28044336279248566,0.3803301913877688,0.09507808139255051,-0.36232397978027775,-0.39386709960455196,0.5990086083905706,-0.14847917732156624,0.21124224203596342,-0.06674351973211483,-0.1735433452889563,-0.5423166007284348,0.49508328894505527,0.6774627744594277,-0.09525742022290835,-0.01271063829884269,0.20725905198923314,0.0009309656696484961,0.22511604963726975,-0.5254036207035697,0.42273700898636296,0.5570103371261443,0.038804344243992824,-0.192879239489905,0.12544021159742685,0.37045254668787475,-0.6014993315474643,0.427761594638059,0.5448727545334314,0.24528923863697252,-0.009523956530572352,0.013527234888534495,0.5487462378194077,1.062403262317667,0.4438719636432603,-1.4943614890499681,-0.5321490338855164,-0.1081536982689108,-0.19123378850685593,0.036773916393908375,0.5774633341905757,-0.5957410689049661,-0.12224948894733238,0.6066511773854641],[0.3173851629346861,-0.1794233466643728,-0.12743208583164112,0.1020039552600503,0.42316316522200714,-0.37444154049623185,0.2141084460959293,-0.2705780072337368,0.48465920560022246,0.11067041571617385,0.7232776074045738,0.23030444867687758,-0.33385793276417947,-0.15560323215204158,0.3684327042230184,0.2973218521712797,0.09893630056103606,0.2848218744759293,-0.3129476833897079,0.26034018635183265,-1.1997011609277644,0.02635786408530602,0.3445983518910161,0.03816402305681244,0.031516610166851124,-0.03116744877429285,-0.06629187478490528,0.44746648904895997,-0.1919800783272692,0.4726007413283236,-0.3765968487878638,0.09751820483265433,0.5101518467543517,0.4109616551613798,0.3193178478567859,-0.18711839801067132,0.10913669829424877,0.05748783132669357,0.6557960387710191,0.031746330655620346,0.030097854022713467,-0.033463817915516864,-0.25880848983135846,0.08853853084963983,1.023146352485594,-2.535077150085245,-0.36026926136967913,0.15605256380757238,0.12179904924362991,-0.9317985613894243,-0.1442843402601826,0.3614540818704747,0.07144924699749229,-0.05308048895119371]],"biases":[0.3525676983997395,0.18608874576644996,-0.8654074904593937,-0.3473976948978082,0.34031593432162555,0.5899506144175293,0.3803498479868828,-0.5000574096570807,-0.6430537641537752,-0.2284348254163254,-0.18674590276678774,0.4771195495671944,0.14170334646256907,-0.439740293852474,0.6817674608585772,-0.9148124197295162,-0.13108236444242896,-0.26234283757468657,0.24786123152564868,-0.19013053889071893,-0.36471574197481793,-0.6297158981429808,0.13911333685982322,-0.5873383033337118,0.4957694198713582,0.46635883758618546,0.895562362640657,0.2946163724677127,0.13036853021790307,-0.06258747251436625,0.1900654248167752,0.37520052728587827,0.364415369837226,-0.4453190103998193,-0.44664204149740966,0.00823067679249905,-1.0628842196090615,-0.019680040023853734,-0.985212796660671,0.25337617532592294,-0.019790863092192693,-0.15769869102344525,0.6621281142545556,-0.595414937797026,-0.5395070284713557,0.03932395769300128,1.2377783746566993,0.5095433089070295,-0.6337193542514158,0.8856149905737667,-0.9692992016934268,-1.3679439070052182,-0.9347902011396941,0.21172217733656368,0.6697984005087805,-0.3943904791470521,1.0822855703089924,1.0008732925947306,1.4669175321854315,1.3759248383053762,1.4687507412292553,0.12018199451554476,0.8870214633791074,1.0605406438934157]},{"weights":[[0.11471047530743349,-0.8990350843676411,0.25294638141634496,-0.5758478499293291,0.7608596740105742,0.5163823106872282,0.05618312611010968,-0.4183642435971828,0.4713326320603332,-0.5379059207314164,0.2600104337399518,0.5193583455810284,-0.31874260814792094,-0.27196944349363433,0.6344201173062224,0.39436921386283275,0.23851665126398375,0.32500599225369886,1.0908081684947173,0.16142882665176797,-0.13471096167156874,-0.027376783981488698,0.37874750210615105,-0.17431273193476135,0.2065935785742523,-0.2135933092811603,-0.054082858040334705,-0.25351882197463566,0.3355993686255748,0.1564950324607136,0.38980824695613536,0.05765613372574571,-0.10794209407921063,0.0700037019651213,-0.9069136585350968,-0.011373885256948357,-0.37169427971651803,0.9315386221733506,0.052932035218895744,-0.3428997977646889,0.3768160218100163,0.047273600743524935,-0.28482509319953264,0.2235217341099133,0.4372542596130118,-0.2559958721553782,-0.7327246342472564,0.5172346810669164,0.5327199373958057,-0.5852486606579388,0.11259442955983741,0.7511044496035831,1.300227814808976,-0.0016031926191022276,0.7847142132168687,0.04725787869206258,0.1643009231070456,0.34212180230619627,0.4487587607898166,0.31112626584241,-0.7407062812437974,0.06156273380439393,0.4395344715886569,0.3640465777251812],[-2.1880704533896482,1.5607895484108922,2.322700236485224,0.7932378158736334,-1.0086026153653525,-0.15594088883865231,0.5503013447376857,-0.3165559793516761,1.4038815319942637,-0.9562303507374392,1.4503090745869105,0.5834247947723394,-1.1025776504209939,1.783233044053782,-1.3091791398991648,-0.08446607895219746,1.3849050489399826,-0.4417433285167206,0.2703907716447999,-2.147887887242366,-1.178134560695921,-1.4883608322097008,1.3363369925487147,1.5749064565656588,-0.6607202426496147,-0.18988926847364204,1.707901521352917,-0.3171135854408172,-0.3215009150611278,0.9386837629590545,0.041193258863314305,-0.4432906057627982,0.37437958322548043,-1.1828326576620174,1.0158229834963757,-0.6408818754067586,1.3037868693878614,0.22535327350158862,-1.6277516296079033,0.06993876371643419,-0.22334376759902125,0.42751668988486485,0.5645086146484284,0.8603284126815726,-1.1064225770328204,-1.2343741155410561,0.9670403292990143,-0.07411871762898095,-0.8217065651913122,-0.11158073935939235,-0.9235969156088735,2.199171118912106,-0.5146490858581251,1.1895287900944196,1.0138141011515733,-0.9661984884506969,0.42947796201554395,1.6996451203832021,0.4536852229427365,1.1071682735469555,0.8699549440938648,0.028717668197825945,0.5739338000406257,-0.007006170154300781],[-0.3233122244119782,1.3764785785696376,-0.4434466046168886,0.2654910496017788,0.3881581961503947,0.6227005576316876,0.3656598693742186,0.17484959420012802,-0.3915315696287723,0.03844269909387329,-0.41554842404483283,-0.39609122352111126,0.34949303862215036,-0.3452429082262277,-0.1600399615648008,-0.3825695405807615,0.07525825548391808,-0.18345136772390358,-0.2096857573710211,-0.19731100001381197,-1.2140778156753154,-0.14068679327969427,0.4852619034576505,0.704538350559716,-0.3185496438839659,-0.6780097099086965,0.3029307618525188,0.4125116734171344,0.1821723129634021,0.10500886973982053,-0.29626165893840944,-0.06251939381095449,0.2221028583817792,0.7168375928456169,-0.002840018047746104,-0.6359138663602089,0.0159423500718948,0.37616039281332936,0.23381337436273145,-0.09113249620840541,0.1039788709768905,-0.09251877785457382,-0.3008418777273396,-0.22334497901512018,0.0021107381723632895,-0.7473079530860021,0.23429565366474336,0.028874804753791,0.31233053859787135,0.018355520983436905,0.3550524613775013,-0.050066766120907776,-1.6049951298658867,0.025477942668809893,-0.14107517661754593,-0.9044509869527997,0.8536800929278882,0.14591552187511617,-0.15205372299153885,-0.28484741266213687,0.5831541767797991,-0.205630333408139,-0.1744085531221556,-0.18651857559303775],[0.6492363782201128,0.31895899006343115,-0.291656032510478,0.5705546209386815,-0.062298482017304195,0.559054360015277,-1.1591478074711687,-0.3059661577003254,0.07618764585585514,1.071577406647791,-0.09553331136480255,-0.06018041627663625,0.37919008875595783,0.08284984330794916,1.0893628813005323,0.2418291493141044,0.14404381144971495,-0.06295300413101752,-0.300724670794378,0.383075664643462,0.5681658152112042,-0.0697441350967752,-0.4161040495341857,0.44515353012261644,-0.24947635320716696,0.3927548007150439,-0.09027154185832541,-0.7295221705714457,0.585564322391267,-0.10136616007290293,-0.17507002877367156,0.3814409973408368,-0.47946589429463005,0.07179662217384558,0.24855321581888307,1.0067705832351617,0.4556656509226375,-0.8310959615402106,-0.6281821759159572,0.7621069975855796,0.3041403321787257,0.13894905287214945,-1.2664844204539865,-0.765394536276415,0.2722698620842325,0.8856610566724512,-0.2728934411846037,0.2764188111067061,-0.057693037582186,-0.06957752876842066,0.31207328258988,-0.7966821110588783,0.143031490324442,0.16534416764081786,-1.240775644890752,0.27977600031256206,0.5970965699351058,-0.30012007367429644,-0.03240748024155873,-0.07291115894388607,0.7923698682342256,0.4543445732421724,0.3054290503654279,0.08787772221978711],[-0.055651696617237824,0.3319202824170972,0.4046520758170131,0.6978798124881417,0.4056946641962033,0.08655796779617707,0.6191981449446979,-0.1615310210958729,-0.4168305352111161,-1.068412401352147,0.012644206931313543,0.3285386369067444,0.13465306034676475,-1.117546841613474,-0.07447229785516678,0.05678370645273057,0.2914469840647462,0.5576174364489832,-0.7755628490031516,-0.05174633373457022,0.22606263151925557,0.5919497328891307,-0.18000518760009032,0.03757539298552046,0.47371000792830126,-0.48872275982558916,0.316568847987148,-0.01576404449283614,0.6703672596399777,-0.31177092145829494,0.7722261681686549,-0.21815478846731842,-0.3821593302479012,0.040780051776367364,-0.6729222839036907,-0.4564217745128761,-0.5772429471959319,0.24493644135153683,0.2829133811284267,-0.2804470979817462,0.3825753199891358,-0.16030840348193556,-0.17220550958170605,-0.13981457545655193,0.06654987432819684,-0.26492034206846404,-0.7144860088966355,0.7192041087000736,0.5079897689610736,0.6854548694984851,-0.31641969174760654,0.2512300283675984,-0.2219394666700883,-0.14841656353833677,-0.31173180010022267,0.2878993637789579,-0.38875171384792373,0.07427907145268552,-0.001758740108150416,-1.1029195938630647,-0.15828378076780458,-0.39434370873062263,-0.5696295999874723,-0.09276244100399979],[-0.34133247984683973,-0.4512646661539943,0.22816345696949222,-0.1968708239435378,0.07819455839778253,-0.3922458340198097,0.5436671168289248,0.4651232525559365,0.10801352321505134,-0.40333154012137906,0.4353649495342673,0.17764490327836482,-0.42384525291900166,-0.3418223394860506,0.44667450479653426,0.8700266446556036,-0.1193972552901541,0.4941620592310442,0.5979353972757682,-0.5278175182976637,0.6680106142384009,-0.17804912853616214,0.056319715811417065,-0.315519662369952,-0.20554993863799978,-0.2733824560550059,-0.11771269212417536,0.07935795158172196,0.036262469635091464,-0.004987324699772598,0.6300217796789531,0.03555053148301163,0.22257146381607168,-0.8024104960064167,-0.6220963495658742,0.5388000553126715,0.22231744385948957,-0.25083907204975653,0.6483288586333765,0.10028679286396673,0.5568292342599739,0.4707819521969178,-0.21067315802058836,-0.2247480479814697,-0.2515461160444412,-0.4053727563760701,0.2343191329479853,0.043765970762009124,0.6125624640444824,-0.07520648229928983,0.06507301769708725,0.018859955651085794,0.2695575101663093,-0.10703582915348674,0.4497885390527598,-0.004865352161695456,0.0059293301697735225,-0.34957448671240227,-0.2910404641751859,0.14372158442315475,-0.5513643373687885,-0.24705473361919209,-0.48422889300190564,-0.19850944063351764],[0.16067911153364509,-0.9672339080355538,0.18208023390555525,0.9551306841548768,-0.7389929922373577,-0.5547631645410463,0.02648167049072165,-0.1978438054070595,-0.07029064034741715,-0.27897625747187016,-0.03621372104055798,-0.37767851071768527,0.10781604079182602,0.149731888371536,-0.20949878407838154,-0.09717717309207148,0.16469650379642928,0.7924034218939732,-0.04893466809646023,1.0605320889764356,0.2831811604714092,0.2350543581076158,0.5277525902024265,-0.4027228075248289,-0.20320176364066278,-0.6371048388479924,0.10634912309156887,-0.05487199262997578,-0.46843839464883646,-0.3451114650807909,0.05551721066081964,-0.2855349891512564,0.29363266961833007,-0.9156185430125443,-0.001529947399731292,0.1970805072702878,0.1273499334523719,0.32502787850089815,-0.009792858397885568,-0.037426138098154614,-0.0974081883135635,0.3201641567170456,0.011717336795890064,-0.07299347310452194,-0.3332128081552125,0.4465845697581081,-0.08392050656386202,-0.29093128107882543,-0.278169169449852,-0.43264031251397567,-0.04081163378384418,-0.43245540113001774,-1.0278032731192683,-0.11272899851510945,0.6828703611768199,-0.5416027312270548,-0.3947835807756051,-0.35209627455135434,0.576764613305006,0.15458276592836603,-0.4747908043921229,0.0694173574352206,0.1074078594031166,-0.14342006942024366],[-0.2480792789463556,0.2819916130693435,-0.03530871817145376,0.10570490962615711,0.8337403572836113,-0.16528286688589655,0.449647454863879,-0.8189496494287724,0.515624154830138,0.7809183750199852,0.8569678501734695,-0.14234372247357083,0.212725889868376,0.3970517091962941,-1.3315513161448473,1.5750540877695303,-0.6642203136312994,-1.2790303072521878,-0.2812947708539851,-0.7976739200593637,0.3559652835978727,0.48764078901661034,-0.09745022719019505,-0.5330217146578962,0.9885600736501328,-0.4144081596903095,-0.042497370427988894,-0.07591526273094144,-1.0971090560694294,0.11937688273967606,-0.8571313306256984,-0.40833244949215614,0.2551209364063975,0.001207245545806389,0.16057513901894782,0.5965161292857173,-0.08663695892216743,1.250568665200779,-0.43629542926339593,0.3209111534044065,-0.3892498895262403,-0.20170341876828615,-0.218567723440646,-0.18008241731716543,0.15366504606993647,-0.46211107665190254,0.2295428320113725,0.11559789144306834,-0.6670240093865433,-1.5342679860398556,-0.5085825025676571,0.7592024734117315,1.1106410273130054,0.5747255790345035,0.45511832238404143,-0.48791405830395623,1.0172907724536302,0.046006559342196635,-0.4432916544515006,-0.32480025527286255,0.5192418141334627,0.01684082642878315,-0.9449042272687249,-0.15248595439423104],[-0.1306458547615724,-0.4143322967931235,0.0081488002425185,-0.2272993929627307,-1.0173281795401814,0.6945474263960124,0.22498128371959084,0.4951717569615888,0.2626297363662832,0.6405235370991631,0.031259084134539726,0.14021473713267885,-1.0838463780316736,0.18220288538655988,-0.3181500666041035,-0.05761699497929801,-0.03710855973406999,-0.3273336612570885,-0.21881999184137757,-1.0619961971543868,-0.3118603756310936,0.058728785026409366,-0.10649182854097354,-0.10276231293911552,0.017538774151742764,-0.169942990409225,-0.09257439047774767,-0.2368395329442976,-0.055579221493861825,-0.4663115958694231,1.0764739880324332,0.04999524371661722,-0.4202547219637219,0.9130819547220252,-0.19930710327545414,-0.24829191009013982,-0.03399968953323937,0.32981422213525136,-0.07027402434413237,-0.7498909848397549,0.2071210301522156,-0.5397476507211433,0.5546224140983723,-0.03342396873372899,-0.7906637069629738,0.7472851752831428,-0.38630918113939444,1.1047263348329157,-0.12543110611967803,0.7162114467870585,-0.7901334033280311,0.12267411054158092,-0.2372230150607217,0.31775409746847133,-0.5764741233216598,0.8000405111806923,-0.5383613173996349,0.3121432265689239,-0.6369564453626231,0.7486961318977153,1.1265775664448745,0.14227186371343,-0.0595981897725397,0.09592011574568161],[-0.19820896007076588,-0.4488671871571422,0.3683004459663961,-1.719186618457528,0.8581193389389028,-0.48223794515387725,0.22647809725231458,0.23759307893201925,-0.14407421954606114,-0.15625162683481553,0.07219289243143508,-1.4799329502164815,0.6678383602550078,0.00905581789516308,0.10118452449311256,0.5918578225154915,0.47485473003756373,0.846846865536658,1.2656322523284482,0.2778036837398931,-0.6848430319068258,-0.19689365230860134,-0.7870550571651984,-0.7015768287230867,0.7957787693576128,-0.14964069326761237,1.047801873521098,-0.10926482235200738,-1.03273937051187,-0.2848531864685241,0.24151595630757405,0.13267846220557242,-0.5319746537229552,-0.568257417558723,-0.09606711616621304,0.18636581604962305,-0.6606146939511001,0.1866700727845207,-0.6328519171611167,0.3337669641086059,0.15150367811746573,-0.0776635140932015,-0.2748366195179561,0.3015667787411768,-0.019740680451235084,-0.3951409567662064,-0.5838920419328316,0.21451200647236307,0.9942506085109613,0.03908774059574488,0.08859722326517447,0.0115574534910269,0.6512020789992263,0.07626470753309403,0.1257192062669124,0.2913114152435037,-0.6321037850028607,1.069658666893167,-1.44508111161457,0.11371841317126555,-0.17548756842653446,0.5452347837193915,0.3194296473208699,0.6675793139723211],[0.1387327972876874,-0.3614126532386245,-0.19508724470210423,0.12581043726279262,0.0288582532000343,-0.9646228695701289,0.04069062113997571,-0.15008632745976425,0.5240961049287426,-0.5328166167644127,0.07475312720641007,-0.33269901653934025,-0.6379374698631185,-0.5864305814762202,-0.04733513133381511,1.0352165377618283,0.117786428435247,0.8517235286742962,0.8346269675840959,0.031448349529596596,0.8449951569170867,-1.0231866633172941,-0.32513205509238147,-0.3400077355624602,0.03668467592061753,0.7358907106762524,-0.283912278813985,-0.7513206362070414,-0.8656870463641977,-0.007631347801065378,-1.0332505411968218,0.038553377718405946,0.7451696303283682,0.3395823531741319,0.6121197131556467,0.48146012597269405,0.37368098384216414,-1.0598626227374601,-0.03851721911355328,0.40610842745577586,-0.38836347210567806,0.11086106560909224,0.6891756894124331,-0.40516076439231385,1.1400131334476975,-0.7065532718002422,0.228342413879217,-0.790690665241861,-0.3242966383319034,-0.5103899155484991,-1.206988111170253,0.10677981468960927,0.5997322147146125,-0.20660744869937642,-0.22104790614156852,0.2819411491518298,-0.1296341341962345,0.18146242761955475,-0.28024092734468764,-0.11327593381378105,0.22542308310021783,-0.2919153291787704,-0.24789840504259747,-1.223692983712597],[-0.5944378012309339,-0.21857920330455388,-0.2333356689208675,-0.07141738912489917,0.16589043398055045,-0.28890519339372706,0.005925850277324507,0.17686260554688074,-0.20111831341693942,-0.25861542933282167,0.2921241041719966,0.28518584920869683,-0.026738423029225338,0.08646098332188012,-0.1763842260975947,0.10351833701299931,0.18232645960491145,0.08013766975346734,-0.04324222398342962,0.021366108561394717,-0.10135624365243336,0.09570663384533495,1.0386127955233546,-0.04827670765173889,0.07279133439348001,0.31303688450490796,-0.10575214411420465,-0.3366119072472663,0.18571011140207438,-0.1813645823316727,0.3002566682234354,0.2068015624175262,-0.4580451862684694,-0.06495228596655118,0.20375891215283123,-0.2451488507070271,0.19395711342262584,-0.26255925659834456,0.3976520566625619,-0.4964337474559114,-0.16172063142172963,-0.019195672568434304,-0.13921858301730142,0.3738467119007053,0.23137982884533678,0.08820264200583221,0.11705679158788926,0.21537275864259106,-0.28935226375926576,0.021373272087245425,0.04383424924953224,-0.6792123943193819,0.02686994834207862,-0.02420318056887099,-0.5359147268865101,-0.049541167343271644,-0.0640115353757322,0.5538267618291737,0.032314777844188985,-0.20092551274572962,-0.4211466514459928,-0.6003963553692035,-0.3540102312531294,-0.08033760286095347],[0.18437881822764343,0.061225861229120666,0.531595985902281,0.7481903872880415,-0.2791708323654183,-0.8057076887093428,-0.03349653293069886,0.4655994368520411,0.9465244201705557,0.210625009108665,0.22555099344268856,-0.3901863057041785,-0.26849047215823507,0.5172084506178677,-0.7829070829458685,-0.21845334666934732,0.016004181124344,-0.014482010966854846,-0.07228151750522631,0.46720017424280313,0.5299689998401692,-0.3795663827264808,-0.3484759644508139,-0.010413644340414125,0.23739563635171576,0.5707502441033758,0.5489038604196587,-0.5741529968900869,-0.041088505329547866,-0.12329593364414876,-0.5199698738887256,-0.24371599304359814,-0.12275507755691811,0.3222636984708295,0.16297221693874214,-0.2656704804287953,-0.013120005010489216,-0.09103653808248657,-0.585509301291633,-0.7517814266371292,-0.3998093130615508,-0.08831188661734499,0.3216237561452981,0.18014108175465657,0.5169688388865059,-0.29510029309481767,0.5411255935267464,-0.12356368019641881,-0.35884510064974007,-0.4504778786676007,-0.08435413145000291,-0.2570292099800846,0.18293973688518084,-0.4912001250719894,-0.14601386701559102,0.33431286772423663,0.009719472273218179,-0.2536139028533681,0.07004515286800697,0.40013455534288184,0.6416328288542098,-0.07402920776989444,0.37968776720440944,0.08040684149413305],[-0.08132495317808389,0.04090971184958977,0.23318092970008922,-0.06821800493524373,0.41098673091714866,0.4165328719272446,-0.355843001278824,-0.8143312640348328,-0.16766680721888388,0.7027426669759385,-0.2671536403267549,-0.3873102486589693,0.5790313229928455,-0.3912112516426593,0.2188489672102246,-0.0288429641658395,-0.29307480623137094,-0.2495266550404427,-0.9928530293294655,0.11666448420701775,-0.08945260590717494,-1.5608415942618008,-0.381766768284747,-0.3321698178602522,0.9352821212804022,-0.5982155861526589,0.3415340394599522,0.5553545304169252,0.8085299618167342,-0.9588569010451535,1.1478548748989508,0.6696357994738423,-0.1893642209678482,0.2540618184125898,0.47442449311856977,-0.2134872037732566,-0.27243617867935976,0.6485951658340958,-0.12404723301972857,0.5115294126170395,0.9796586409628166,-1.468015903210553,0.09010095555450749,-0.639107239286543,0.4572071923994023,-0.030601529575146398,-0.889745561203751,0.8310757088333917,0.4424829729831186,-0.12545990625415343,1.3462590656947009,0.021106824753527563,-0.4378457661554925,0.05931415844955584,0.44771243402581085,0.06046256383593446,-0.08368384324902248,-0.3786565102060057,-0.7070159248135721,-0.9134046602049047,0.08025964890978261,0.5237382581183487,-0.4805806795559684,-0.11291553461779764],[-0.3273387157473375,0.011518921253651006,-0.15730693740904184,1.268546316873714,-1.0242679308470057,0.0010062045107147144,0.862117521565016,-1.0143272419326759,-0.08660088093319061,0.5099611893881104,0.40383379220629184,-0.9521047119633999,0.8548328244850617,0.4288658471201835,-0.674877901018704,-0.12398722283388763,0.22731105320321354,0.723176086920669,-0.6201511972681654,-0.007966287844348566,0.2278202239346168,-0.18286376595007145,0.7098265033365049,0.4601213288865176,-0.2993221870331675,-0.108866152955224,1.165404052882371,-0.797313042111073,-0.2289222319425758,0.3654301359805625,-0.007551665646737431,-0.5333904646873303,0.432541010033871,-0.18820437871530885,-1.1343800930318304,0.014330928701469176,-0.4050801985306467,0.3532933764154621,0.18375915038320273,-0.12670852952594616,0.4197503625868429,0.3162091476066931,0.5432715660140159,0.6568258165670824,0.544098684926194,-0.015253139425059672,0.10480917525808471,-0.10819831502894525,-0.265507248823752,-0.8820029579962708,0.38178047960016503,0.5528813490349967,-0.500841986021784,-1.357863003311764,0.3739364474191167,-0.7465620776203872,0.29251967189612027,0.6689997031516501,1.3089163395240673,0.15103636080178512,-0.23700102698749517,0.23530597203502931,0.2051068894768153,0.3262771661617858],[-0.061989884416537536,-0.8014602240606795,-0.6021200547964984,-0.3889605870434306,0.061257176331430276,-0.00710055843479929,-0.1283406137889207,-0.7710279435235655,0.38007529104553833,0.14545452790368243,0.5492011658970528,-0.33304380407078993,-0.5766425257323402,-0.20513404109921904,0.27341691060973206,-0.009458668504744965,0.6112481394870375,0.20185317232900465,-0.6534571998532541,0.8133323478276999,-0.058968014706100455,0.25698767796702665,0.43589480591947893,-0.504764614127757,-0.2725498401809667,-0.3923637241419575,0.29220989355720806,0.3973836978462555,0.052437399010194216,0.03637772335758678,0.581692437878138,0.6262946278112316,0.03640170023299068,-1.3805899991196033,-0.4396169071334721,1.1942838349051474,-0.1920006398978002,0.17936424408611695,0.5643449722683938,0.8716777419767261,0.9264252652838622,-0.08802436689012844,0.23673818864206225,-0.5611964001845617,0.1619374162709656,-0.18725103962775783,0.09893620396768017,-0.02252445554960953,0.6885014879309271,-0.031121905566962482,0.03341501022668297,0.3835587445861304,0.4130844446052089,0.2399247237256619,0.4540172368685991,0.23288817369964906,-0.26790634263820395,-0.6595410572759458,0.5896286123175973,-1.108414677625799,-2.185851304859948,-0.02498176157912142,0.13847746083200996,0.35758100252441793],[-0.2898277821820745,-0.8543973191886294,0.6070799592122045,0.4522187101638845,-0.21707427252152556,-0.3088797506081266,0.10483508456055278,-0.9400862965407595,0.03120940547707897,0.9447157010050504,0.3573044835879623,-0.5817344344360379,0.030385660818294045,0.16225193330138038,-0.7223500347191989,0.6029736259421657,0.6910728740653328,-0.09088585713480911,0.8818518954057571,0.020748674588542904,0.0012002977014088114,-0.07147032142896013,0.374092259233299,-0.3527274726781305,0.026021111077291766,-0.3360604624399694,-0.051402871673970854,-0.35983597753398355,-0.6666320639430736,0.12550694302736168,0.008628201487464189,0.6588923220428382,0.7517529777203262,-1.1368237431664774,-0.4864878582659776,0.5716629578649103,0.20953048186779943,-0.42678374107135403,0.7516724304763962,0.3885048518785855,1.6389479678008734,-0.24177410375805314,-0.3191310317104046,0.3438836504673839,-0.3445543993322994,-0.1405923069843937,-0.11595538274139924,0.44250151056731285,1.023135137533783,-0.02551861454444313,0.19003798106754644,0.1440551423294626,-0.26784744430862456,0.21592723926345495,-0.2801828823982483,-0.8327040477876773,-0.23578687199085166,0.12529031490630818,0.3061109707333403,0.2660640717961861,-1.0474480546181735,-0.14608714677407228,-0.7348901401038067,-0.5673242429824207],[-0.843913244634407,-0.32330094215935307,-0.06493709778458143,-0.666217411823413,-0.16676977306921337,-1.5120805875467365,-0.00787026596532203,0.23107110815632248,0.1584078523720616,-0.4603786035591455,-0.47331557655526374,-1.3324279379933313,-0.4183523846612284,-0.45131403033334816,-0.2136479883465917,-0.10346146744652346,-0.3345994439273148,0.7145060803441808,0.29745633697800644,-1.0981850558129715,-0.6169113477239551,-0.6588101442115503,1.2583835390810203,0.06616180624432334,1.0436054575650846,-1.4524003073617635,0.44118581423107767,0.9655027010926989,0.5353894511166241,-0.3644474531592873,-0.14424004831535672,0.053898361524371906,-0.19015963406006647,-0.9072639024466355,-0.019982090525454566,0.10550250401018176,-0.8402061309338494,-0.5455541506082027,0.17307963639190577,0.6506393448669657,-1.1593682386464095,-0.08817818549459078,0.2034911639725724,-0.8055396432204572,0.49433028337927,0.12422350153919307,0.10550819934969118,-1.282957918086694,0.4596147444243349,-0.00849294622701029,0.5108867157483611,-0.2041336691956244,-1.10706029869653,0.4707596843638459,1.4934556771296703,-0.8425533308519519,-0.01706348174676733,0.24016484854829795,0.7964977655450802,-0.056566608751762434,-0.6482638949799323,-0.6044710619029002,-0.06164490305317034,0.38457709444165433],[0.45336477886416476,-0.02001731543531539,0.35545740187271674,0.7332564581488044,0.049459789023904493,1.0475413628559465,0.24518235757388163,-0.37936477366930854,0.5818093037305324,-1.5344807206029267,-0.2706502129270175,-0.47206805994760354,-0.059207842380809166,0.8236160940773748,-0.3580870803686174,-0.6406464068786502,1.5817071733136252,-0.4413691124925208,0.10338567393251422,0.4608282441503784,0.6425518881571521,-0.36715588566669055,0.011750940730333014,0.12291376223081076,-1.466434456906903,-0.9624403460448842,0.7135091605598952,0.1287988952738958,-0.5448097884384885,-0.12467225353584223,-0.4766109817004904,0.4829296614531537,0.06237699349339224,0.09732167068568666,0.21451298229773602,0.20205824860657198,0.5597362438213601,-0.07103697480205015,0.08677794202072495,0.4611362212422769,-0.6453558954013547,0.26995755246024766,1.0185408829833529,-0.04057206432777577,-0.5299427490908584,-1.5884393609457752,0.5764984612645558,-0.7899467217250745,-0.03060621499889004,-0.841345526071621,-0.8835795972528141,0.5925094804619061,-0.10850972997769971,1.5683785366107215,-0.5579139903058846,0.0757915048150121,0.7143721638581503,1.1775466997468036,0.4690366136272038,0.1123364134008291,1.2860133248427392,0.24210314766208482,-0.5207071330326837,-1.2057239093287726],[-0.9544426743194973,-0.8406703757263393,-0.004320004031134999,-0.17978584731297165,-0.015016493368854753,-0.9041343221736117,0.6950876990247149,-2.253724795020809,0.9199990991245515,0.5698227216685122,0.5198453116377234,0.04245415349858381,-0.4568189754978996,-0.14995273727070163,-0.889474476772555,-0.25745551633706437,0.35831427865677595,0.10592294310062561,0.8432510927036622,0.25173022459771466,-0.917124322698685,0.5305366005279479,0.8510225345977764,-0.41701365204448076,0.9845066148556654,0.23537409903386866,0.8222924069444759,0.3791267748867687,0.033837313886054,-0.40705388093384837,0.09762926451033824,0.3142164421897488,0.4088901194464505,0.27249898592746624,-0.713199529104424,0.20200278652407855,0.8191860768661242,0.6050234836653802,0.42509926746511123,0.3698771944926901,0.9384988952463715,-0.3202186648427111,-0.3214268349800038,1.2389376402812855,0.04074749029621249,-0.07608294589772996,-0.2835852498115241,0.40374521242924316,0.19990281794870127,-0.17450831353753363,0.5454848886310906,0.33758493178055377,-0.24868061114256101,-0.34563781671002336,0.8816893698070295,-0.9127151430375093,0.17839120285067564,0.516718784991597,0.3616043477425705,-0.6756596382471147,-1.3910106732305454,0.025358632644146357,-0.4076736248632429,-0.11050069050135497],[0.3402840587900741,-0.1714120120384475,0.18967289344768407,0.41414864513537275,-0.5973504087387559,-0.15087901421864836,-0.12766120536204695,-0.11703562467218827,-0.36886397878247335,-0.18327798784875562,-0.5160498909877527,-0.2441861272195479,0.5485433501862897,-0.3053135651845316,0.0927926407426478,0.06165620693011292,0.1436977359951764,-0.6168230209493059,-0.44173710951531847,0.45055243542685164,0.3715985690706817,-0.054059583200511935,-0.009295139672207612,-0.11249967126447702,-0.47634138427746997,-0.38101415296900026,-0.15083471338699866,-0.299669770029909,0.38797056280620984,-0.15624339934981693,0.03439554638315062,-0.13991170157790664,-0.24056178005293039,-0.16674750287110382,-0.11285841460534485,0.019874119772841835,-0.8692017497413737,-0.03642891095392861,0.696249461753862,-0.23031319334898487,0.11063196018426318,0.28678800023739753,-0.02734004550193041,-0.16472059790643187,-0.21691863134555112,-0.17287969034747094,0.29150897992285035,0.36844432732011545,-0.38245252866753704,-0.4701843944959072,-0.022114602950999027,-0.2542819150600047,0.17234239193126563,0.04800898417876174,-0.22845116230929088,-0.2278938484938174,0.755914153905115,0.5946903105250214,0.25452885094722194,0.29041247439015255,0.04146203638720177,0.22804004530803787,-0.7941027793123954,-0.4323506002579379],[-0.5962799064271963,0.05538382842675859,-0.5292013833510455,0.41726716065161756,-0.6118117945823636,-0.12875154926519838,0.39444726390941515,-1.0269586981165275,-0.4277653101083439,0.13958836389256898,-0.026777277189309764,-0.8345930291757838,0.07852022918542396,0.27758596414190734,0.27631131017838856,0.6035041301629367,0.45409712330275387,-0.07422199379604823,-0.36138847985603323,-0.44095419831798416,0.353460489837908,-0.2962168749664857,-0.0323140793114265,0.20993955762842784,0.13227298163999915,-0.3233345448026288,0.4460307443574174,0.46577958379380807,-0.4875253668905615,-0.19907516971341596,0.2077503807508778,0.8810552821792879,-0.13265906566111604,-0.529182093637325,0.29653778743317977,0.061719432358563565,-0.15528115084598207,-0.006654081897012753,0.41677113525488013,0.7113827057006432,0.09911468529072907,-0.057794093332413234,0.4274147825666876,-0.414744031359197,-0.6960893136836175,0.11713111258766996,-1.1101066492251126,0.27403921635595613,-0.05770110941996916,0.6826124473330392,-0.007719549809193334,0.14798524778862993,-1.0885592332874148,0.034051911427274414,0.29564957410557907,0.05134929316184514,-0.18775250948181849,-0.37073209669302476,-0.10769269763370795,-0.7080626122322432,0.2988990530364145,0.21789160480485323,-0.024250175917292838,-0.056153230884596235],[0.6113482608186689,0.19445356305344816,-0.40521678071405326,0.537509220373127,-0.20425901878804506,-0.16870024669163453,0.04258966786427595,0.026912760700778707,0.022732273757535507,-0.2024503686656354,-0.5784237352666644,-0.3928881387251521,-0.1150347435392294,0.4442477196007854,0.47703782483021223,0.1318615307962901,0.5348786285244882,-0.5614408967599387,0.5979556500735536,0.4665116827353117,-1.1231961236271786,0.18622643612173653,0.029538527760479886,-0.36622276952148236,0.5432960125319491,-0.3101149223600551,-0.023479678226096066,0.8159958090418492,-0.21722316484055185,-0.8478378058083442,-0.18059341407110388,0.4401282366332034,0.6269793960005234,0.4012174404939814,0.9980944338302576,0.8075585520506885,-0.564289530799514,-0.6027968245524856,0.4580647082165858,-0.17476877048101988,0.16180067377413843,-0.14225880548717984,-0.01760611522555221,-0.24351900594636158,-0.40336203062028814,0.6791633865791418,-0.3014305015500763,-0.3998869969620473,0.06229723689496693,-0.19945898432641035,-0.49388493274065826,-0.6817873889587134,-0.5118147185347777,0.6030525670468003,-0.28371733663027854,-0.17387509260813175,0.3850059803915427,0.16976827090692928,-0.5828079038199966,-0.6223100803233472,0.20430816891002074,-0.2884674648411718,