{"layers":[{"weights":[[0.000922113003277731,0.04639101040369916,-0.08449277210370351,0.0032959691900158695,-0.18994659493011523,-0.20338346627045983,0.056329911270980616,0.0718503490808842,0.0028836762544909777,0.17126260622133058,0.05102294736058928,-0.027043204601241294,0.03623322296137915,0.05794585093746032,0.09559434148985312,0.07158473138737376,-0.19679512541039354,0.003293215609569351,0.08521286237918593,0.05019857757959149,0.08948567230136648,-0.004536297229541818,0.060896596129513036,-0.0018360468865353502,0.027130263423510652,0.1866489385032543,-0.048678608214229396,-0.08080091651185878,0.07771336759860016,-0.19351633564265774,-0.1360310037044685,0.19771669581347323,0.02601627498399315,0.03176574684774218,-0.07871859798801682,-0.12936404676144037,-0.03152370354179265,0.014480373068201234,0.13159818283724403,-0.038939272387665466,0.03270537056788366,-0.10639651767794514,-0.02166430983313459,-0.1284658710532445,0.17045155025032654,0.09843335892932509,0.133536723953881,-0.1717707156733733,-0.021461384535615836,0.018177659624072553,0.07611531695734883,0.12115519369698198,0.0662457676482581,-0.042623253409245276],[-0.04275702270040607,-0.015621347605843975,0.11050020274478059,-0.05455577876671468,-0.04897521652238528,-0.08261970901070666,-0.05813379780620579,0.11346237350223001,-0.03251564340212846,-0.03491577516108488,-0.03646667787833451,0.1296994594629489,0.11932356140748425,-0.11390074654986918,-0.009903394632263751,0.08501051284497128,0.034341501469876384,-0.11012289858460657,-0.07379356899093445,0.02457131742313417,-0.09502260561080358,0.015018336491221694,0.012093796421960661,-0.16452393171983698,0.034585582092307755,0.022115295250981933,-0.0407114187045627,-0.022188241863603287,-0.06357339714910008,0.11803816135144883,0.08875470756696036,-0.19651812084485332,-0.0647970234946511,-0.0919188258515701,0.029927733242895768,0.08265554756518509,-0.03637176536309741,0.020720553144256405,0.07358375260475693,-0.10942992329330424,0.12937328928532543,0.06691602950476125,-0.09856019991896503,-0.11593925358458486,-0.1561267059742176,0.1254762532722815,-0.09014442233181731,0.15800672023321555,-0.008932260630377982,0.0287263617021429,0.04333422091683161,0.062138924577522174,-0.000006797202205299915,-0.10197917653905005],[0.1489646965940206,-0.03567462028407533,0.058952208889466756,0.12769339017012227,0.11482391934609866,0.05197217409264466,0.08552513252364892,0.0750882398802365,0.0033080612970898165,-0.12226542761159995,0.01507652084247448,0.024072385117738206,0.006172534100127009,-0.04216555578858962,0.19431900071289696,0.08628360507590084,-0.003916883455151975,-0.112628105247655,0.018393549336922544,-0.056180789399629304,-0.020988506475265154,0.057868470631284835,-0.007524814248092754,0.008611546484804406,0.028720516926656184,-0.10619943230861693,-0.03937895920008817,-0.01889960018506293,-0.04864445408772815,-0.011832687299976379,-0.1239693354293657,-0.04391536673112584,-0.02566136726386469,-0.05925890989857989,-0.14676431061509163,-0.12074270783340785,-0.033269856353494276,0.005661922152909696,-0.08934094491069346,0.002995585141320426,0.20398748299701264,-0.04701888380049784,0.12886462498536547,-0.12535355219192904,-0.032737257545249886,-0.05554565228179025,0.02989619272005264,0.0359191586650115,-0.03997317927173581,-0.1503537717451346,0.026504815120912024,-0.05984701078303526,-0.025286180642584092,0.1625710553697103],[-0.04934701688173164,-0.12252669199057947,-0.03004080330446971,0.06459483181005528,-0.02032334343030323,0.03870104720740366,-0.0918232160045483,-0.01949796731615792,0.03845147305566348,-0.1773048598148405,0.13954883192167195,0.017340002800572924,-0.05849835241740709,-0.01310457383902998,0.010832961819431067,0.049492349115804274,0.055781134563459685,-0.02437075932532746,-0.07807982824182809,-0.19080714194480303,-0.047626692140962545,0.019085714827227075,-0.10914044540361727,0.07476100429352577,-0.0351134005504352,0.029848362782583553,0.021097991862802548,-0.14029565927044704,0.14766485075293065,0.01511119376921566,-0.04010578725965979,-0.01573829061258317,0.00045514312130340024,0.0032490795349143656,0.22143788982825519,0.2451049047629909,0.04638573860013378,0.033359655543126636,-0.004126689574841055,0.022144127333261456,-0.20276840648403244,-0.056033572873205505,-0.044198512245320704,0.03880120071409421,0.021708967986321902,-0.10392172957913658,0.010665421700970637,-0.03590002197445744,-0.010931213023288509,0.07198527360832488,-0.007080948930819416,-0.11300638902474992,0.02690929756418903,0.04210046928998972],[0.2672225138069773,0.06384953408987822,0.02613722854062164,0.08005169225525514,-0.009976498685709989,0.15202512748270075,-0.012186129131695011,-0.08413379661270903,-0.04065832749067272,-0.1164057069790101,-0.10161800027323663,0.11005417361589379,0.0020735573690290102,0.1028653726710288,0.07222606385444638,0.08793705007852426,-0.04045245559123654,-0.0905885715443386,0.12751593805524414,-0.049635854891414574,0.035964546573273484,0.07198177564185303,0.07925214939393693,0.14626577766454385,0.06582019760094965,0.07025943315346506,0.0054440066749803055,0.050063941201772155,-0.02539582161274968,0.0651341323527771,0.020596621179067444,0.017201335682609925,-0.11359871503085255,-0.08809681198260401,0.0031590765000839983,0.08932746689975903,-0.028101898814803117,0.01662294039228751,-0.0721876907065831,-0.09364502393655967,-0.10140884518705787,-0.15727527331037675,-0.09670347306950361,-0.22942754906422122,0.15613091181065,-0.006292098948499086,0.06912666917400205,0.01593189569095016,-0.020187421277723445,-0.011293606784204865,-0.07347662891636332,-0.19028607275111897,-0.05110069865423095,0.04061315841862104],[0.19369533033108388,-0.028561195022054932,-0.015876996299839408,0.07424008368138232,-0.10770530800658563,-0.16716428676512676,-0.15406172701598944,0.03591224976355451,0.07300539069154573,-0.03612794264171245,-0.06154423669399785,-0.03845535918238048,-0.19011347674388823,0.12665474088339224,-0.14178415397100552,0.11778750472443397,-0.0034821745504074854,-0.026655411274249433,-0.08997532247092808,0.07380362505467065,0.05433626598734416,-0.12563459033651048,-0.10064031618846615,0.020745620267041943,-0.012658076867803176,-0.13600665701379624,0.05659618573227402,0.05983309641911179,0.06643456921892206,-0.09845415484751983,0.04966074875574631,0.016048942497222964,0.014824543438483835,-0.07980325574879601,0.031153197770347356,0.00820013990817287,-0.1017212797883449,-0.0876408698868416,0.011265707587297728,-0.024701445393318918,-0.10600681670716365,0.11698434823746855,-0.01040504320041214,-0.11181521829912523,0.07752408601133196,-0.056125028833274596,0.14959907199483874,0.046297153164551914,-0.09368609228097888,0.1186955539497386,0.12047618908221455,0.14143368677295678,0.024083987912840398,0.11307752798097272],[0.051520115573585254,0.09880791147838025,0.006525299765912621,-0.0064930925967705945,0.06322403940793563,0.024484332085792912,-0.125937694336231,0.11538201930292633,0.011330209809029003,-0.034687959794343776,-0.05506344758467825,-0.016678669747156802,0.06962337722181006,-0.14202485498008452,-0.13499640145502975,-0.026871424832836676,-0.09207716745179717,0.04080345804962013,0.01972760857064173,0.06025731314847965,-0.054639906895082066,-0.10721286835225474,0.0007003684285280522,-0.03371567513002169,-0.04763665460532278,0.14810922709006866,0.06599572732058921,-0.056890118908757094,-0.0362451186305148,0.11276257138885015,0.021233916698264303,-0.07201450669485565,0.004989392353637202,0.11114190242167989,-0.020558487227311115,-0.07316714281694638,0.056017307171984276,-0.07212377234032219,-0.09220061304621584,0.06653745701543898,-0.03407931059035647,0.31977888222107564,0.008680555963775278,0.003244885575246809,0.03294519451736126,-0.006987424414064974,0.07816234291073618,0.09541149174186694,0.008872547472763198,0.07661769090811649,-0.01480698554951219,0.1812699759564892,0.00483632410205224,-0.07985955881165474],[-0.0037962116333828027,-0.012969657023800188,0.05740417290597431,0.06900792815718099,0.09878916331922823,-0.027087799029658816,-0.04596978951797221,-0.09120966913156163,0.17572875060642337,0.17610437979031912,0.07834216522773521,0.008069054249938942,-0.08255068820712763,0.059146504752826644,0.012326042179186718,0.13990361455829123,0.01309579572983624,0.08471342510310921,-0.011987806331501498,0.1931086102198009,-0.009017973466948048,0.0025846406566826254,0.06141387762873532,0.021202358550871808,-0.08585605238200672,-0.012340009022921974,0.04855373369230353,-0.15897824608587502,-0.03612560259457761,0.05599801501120269,0.11829125967766656,0.07890108399964288,0.2106962336180616,-0.0059612931294027935,0.001900932025591354,0.1683706459845748,-0.1515052282903757,-0.01729898473084575,-0.04974125700436604,0.18668805118282777,0.18465714212676068,-0.48442347084024395,0.05043011065172873,-0.11744919998153022,-0.10520619761350689,0.09761437121271609,-0.32297348632868317,0.1755622920051448,0.0376449966987069,-0.05939887291772476,-0.1820616891961908,0.019672812882352227,0.08759586350868905,0.010670427531569354],[0.10535494601694727,-0.06862897760711713,-0.0544090041641475,0.13921082063743934,-0.06895669220039503,0.12797936372669633,-0.009744290077089579,0.04003003008008826,0.03997454556168169,-0.058284401782427664,0.07246356909976899,-0.01681654364508789,0.04562890286940472,-0.08512512904257176,-0.1850815962843151,-0.06525646484693473,-0.058217828667046154,-0.03336662813903783,0.0429722924153347,0.044325016829686835,0.024189620551220314,-0.033082892683330034,-0.16574789053650787,-0.10440013489143997,-0.0934419603756493,0.01546833589426832,0.09474511423070373,0.026767411176327638,0.002098831344440756,0.1852311166426533,0.11147630627729897,0.038148588314541744,-0.03931287250815533,0.0317426828531788,0.059249494029401086,-0.07644439031335723,-0.011090840719895455,0.08975804264928292,0.07889622409009323,-0.07907894064337694,-0.008001383943058386,-0.00019263634886912577,-0.04245042399149718,0.13245199124120044,0.11315026588589425,0.038557750716446515,0.025843356567417514,-0.026988151571837957,0.17261198729494645,0.05925212651004848,0.06606031892657921,0.08870361424870775,0.015470604244973327,-0.06134292320671218],[0.014787343313501096,0.042255315809935724,-0.02166639737866485,-0.1068806100774182,0.2029868255122668,0.14890424290415122,-0.13865980455767127,-0.06061713119080602,-0.0097378245844562,0.11026756886911014,0.18103196972021893,0.07494732683854213,0.05365546937760973,-0.03234035690437941,-0.04057587332361629,0.0803283115014382,-0.005017851183080815,-0.06700940679476274,-0.05876043739283519,-0.05304973904876566,0.10034949600317297,0.21437783569699836,0.07089851843669903,-0.05012359704567407,-0.062219840577333686,-0.05201224192698679,-0.0370372167125086,-0.11354192152952361,-0.052085344010459826,0.01514204014801037,-0.0026746621473554217,-0.040547650861832374,0.021823662534991874,-0.011421768188499173,-0.06127501101312717,-0.07702446297716169,-0.006159407741007214,-0.11665297015387155,-0.0775028736156836,-0.002273906116248004,0.09637975194305717,-0.33908467948007387,0.09550037746422595,0.15930036343666334,-0.02590870687667331,0.12741440986754834,0.12072194880366227,0.030731772976558186,0.09420684161119304,-0.04679271494981511,-0.006730926715587349,-0.08413324654419777,-0.18390383434088756,-0.141083676291732],[-0.01401825697855938,0.04049193922520014,0.0333198852926362,-0.07942689114902689,0.02858074357585835,-0.04266746812642072,0.026109408638179656,0.016252833431544066,-0.11969735859313727,0.01919346292659414,-0.031226830967857017,0.1422707950604604,-0.08188876779950485,-0.07181482863732874,-0.0018557513459106145,-0.026308406412648127,-0.07524338478554361,-0.17841316223865042,-0.03844012127608138,0.17320326468517366,-0.11775794355322146,0.023910530508128584,0.052210735878415654,0.05214041713312369,0.04476492055038118,0.05100768038293362,-0.1918075985084044,-0.02276151085332428,0.0305432770569731,-0.0648169650311895,-0.006572105223327025,-0.06370246168545393,0.10526974140357871,-0.1290026308696473,0.027860668844812992,-0.0011643932565194432,-0.02802271108827811,0.0036631020890717965,0.08646493526976537,-0.00023603682236849867,-0.01579558314369044,-0.040508888840893265,0.11099747782873143,0.04331969677944551,0.10159667564000965,-0.09607219240497511,0.03223100184819227,0.04719474494446719,-0.06619750406914339,0.09887397038558991,0.06101191989168751,0.05433811412848422,0.024095545279529534,-0.09042390192737011],[0.13129871556087916,-0.08223352081712625,0.017242231012724967,0.08376364436718431,0.046042970884581286,0.052862797947191266,0.019942654737923348,-0.038614697513785254,0.036760676491025046,-0.08904415066688479,-0.11389554315958937,0.019282141375938273,-0.059409177602629364,0.07433900335808344,-0.03379677092283222,-0.04314826364659441,-0.06011115775965103,-0.04094446334770226,0.0827487949962472,-0.20370804192072764,-0.10517389483935992,0.008758630613798847,-0.10429371880420045,-0.09676684438242777,0.02444772296099754,-0.13173338433250462,0.08144299291092795,0.045545881822508044,0.10395070272044259,0.0000835080562134031,-0.06658389184532351,-0.011347409441112826,-0.12583190170010553,0.011672364117975885,-0.003792308880249753,-0.007170900238152257,-0.07144130731323782,-0.1346307456667489,0.045813696989649995,0.13010904165251372,-0.020654404060972298,-0.24939264625321772,-0.09200699498200161,-0.1467043015297816,0.08205672839747853,0.00795049284847167,0.07800014900538695,-0.0369182900631412,0.056338503966832876,0.09034066085112122,-0.005252211297114463,-0.07275893898304799,-0.06384164879520962,0.14597594697610353],[0.06706140887344807,-0.0035418063471595296,0.02687306695701437,0.06422674905160516,-0.09983252562040641,0.018677039576222135,0.04882542722693432,0.017560459204078695,-0.0347512685325756,-0.06200669832240424,0.09654765921315925,-0.10566789244775993,0.1222898462443081,-0.005509038712024267,-0.08763937608108877,0.05063236560651321,0.044862443425520045,0.015620418832134251,0.07947998821210728,0.02931481806691634,0.011772455042446445,-0.06064067983632102,-0.0027730350821582412,-0.06266984540864382,0.06126877520878634,-0.029306495023352072,0.15450629105188618,-0.02896082021938218,0.05900777708433573,0.0820934008849853,0.07129929753929741,0.17764296341443697,0.1261853889678286,-0.005024473343214011,-0.08025950767676061,0.04294088516259944,0.06916662695062466,0.027225133443344023,-0.023853195905827313,0.02105930275959995,0.11094834898259937,-0.2222448334382069,0.07450561171866343,0.04692556161699119,0.04794666398434853,0.19527843359841987,-0.08103705305507615,0.020392904099034954,-0.019106064805107858,0.038300979495672,0.10023113301816665,-0.06550464671926769,0.057107803291468695,-0.01389781644529145],[-0.0040474256403054696,-0.017225758897378134,-0.006685418387128699,0.09460576453615857,0.006391186515183021,0.0382262271779517,-0.03546034528603738,0.02318504443823514,0.02271299955335439,0.17655964510703243,-0.03490684901907379,-0.019910034315673467,-0.03834635465731989,0.08122036584176127,0.11713623669079143,-0.18905275372431585,0.10969839008780716,0.06943020963249047,-0.018496704878790748,0.06916612093525022,-0.12981108145655487,-0.02125603090500145,-0.18613857875780485,-0.05080549229858438,-0.0054877757483253915,-0.06491760030509448,-0.06887789929814263,-0.09320143879414847,-0.07528174475845612,-0.029413949805302996,0.2206456981064202,-0.01766344850489915,0.027923370797765995,0.07564380325327634,-0.053927319297281825,-0.0173871645296868,0.10612125191759766,-0.053416851079374834,-0.1059386176179952,0.0029184247256820997,-0.1436598381920119,0.018386008458619176,0.002417106168982575,-0.10368187202032401,-0.021991907816007378,0.0598529435223005,0.01019928621680309,0.1109161945412014,-0.13057074354757708,-0.09118113660377773,0.03866412279156217,0.02723798319246489,-0.010755083421531482,-0.07691004563268958],[-0.07879435950382299,-0.002255756905542449,-0.09891212920837436,0.03403187811924321,0.033150710655440715,-0.06436181170824122,0.04178973743587919,0.05276262176743182,-0.020359788698404237,-0.14001680143336373,-0.13385148005131955,-0.11183067098066497,0.05968275919604621,-0.1679143068507789,-0.05540134767186819,-0.024804722331283714,0.17094249951706186,-0.015986862153427848,-0.003518469273148513,0.06221779798940082,0.040967194799526395,-0.04234487953127228,0.07052136674473616,0.04049828069108676,0.13638379557780478,-0.02800384049227149,-0.09014174071615709,0.12070902713983828,0.01742263584766359,-0.013814030251575252,0.07773289907484918,0.013101139439414813,0.022043411646626224,-0.04689459818923848,-0.028451197757921997,0.07346002857103183,-0.12228982390609844,-0.026562591137732173,-0.0021804237640306685,-0.010229810535914957,0.12005762665878018,-0.08176925625495318,0.04408450820786759,0.15896191533626272,0.009003180847973148,0.052784064604864386,-0.069172075211716,0.0480680888226898,0.03397031733189046,0.07528686586816812,-0.05163409348374218,0.14388873553247472,-0.01885555493966563,-0.0044039309755602085],[0.057391672451206056,0.1060937569910453,0.016216072615192853,0.0545853176157065,-0.11163637368476954,0.14371239829796814,0.01448756598795438,0.07504484844639223,0.08597959863230324,-0.10396637361048766,-0.042752072758682404,-0.1286733676475871,0.030000950672234367,-0.01707840862511968,-0.10037083030489165,-0.11455872460527607,-0.10340832416824873,0.12707309623066307,-0.012073312590295447,0.03079340427926321,-0.04926568630996126,0.05267770577486748,-0.008488252005269108,0.0922699446721356,-0.045329075098360434,0.1439110245434397,-0.05340466930076885,-0.0631099436756848,-0.07659546793764267,-0.04468556667685484,0.12317147907741928,0.02430563024001996,-0.11168536531561324,0.034775955330370256,0.1479433398235876,-0.08521297689277035,0.07530820351184625,-0.06417642589878185,0.018229526982533804,-0.09155508781025504,0.15779975299157104,-0.05047346646491108,-0.1054116968670982,0.04985695819977722,-0.09918713955327109,-0.06423716700843292,0.05071485818611049,-0.05526469230631914,-0.17565645604995622,-0.021622200986479236,0.11589901272889216,-0.04619947442708915,0.14004049342446498,-0.06112908308974049],[0.006394367084890956,0.04460912195078628,0.0360970681986944,0.07231054623486971,-0.034027385265294516,-0.0550388006474661,-0.08417876620495539,0.0162040307964388,-0.05404979528616564,0.09396383114299722,0.03641418318264866,-0.03386363695971646,-0.0030415390828541946,-0.14179466513401312,0.04994766486996381,0.007991977770302609,-0.06039201561351749,-0.06660487373645659,0.08596512116142735,-0.002022323342222605,0.134087359399718,-0.07959367567564328,-0.05066052147605368,-0.12246703295480267,-0.12725066542916286,-0.13169074023816732,-0.014908299855037914,0.01183714865640627,0.0209786611213998,-0.04013211411285679,0.002488903904047918,-0.01558477266601137,0.03648819510365477,0.19884773448876178,0.1144463388502833,-0.13771958636052334,0.012899091031384079,-0.02954507550380755,-0.040587247843855964,0.05066339230836824,0.021104972564563215,-0.010655648049084891,-0.015370265924495584,0.0447043137186023,0.025025013791584082,0.04254364694320015,-0.06640961435875399,0.04470052801826447,0.006393872668788478,-0.17188483733984483,0.0831300005480573,-0.06327098901275396,0.019591594666581003,0.04677505682591865],[0.0586718476480965,-0.09231859557749442,0.08110732034246035,0.09549458167064077,0.03218053766201128,-0.020170484415447575,-0.026421833319316947,-0.09031477308106813,-0.10398810087666152,0.11004511100899028,0.09040763728770047,0.1308617388074725,-0.07117941785832307,0.06958498700405769,0.1133833241149742,0.1723961418978534,-0.07633474816767151,0.06813339331393416,0.14143148007216652,0.027410369892413054,0.1933154886567619,-0.08082093169763097,0.08164816784218569,0.05357227004196389,0.10819607628951829,0.011003081908438607,-0.013876581761161761,0.0025180882171785,0.009735422118134428,0.04606803318704632,0.04333661239756474,0.08061519297927561,0.021932076312805998,0.0016974655785240219,0.012984758697288264,-0.04859972014966274,-0.021094571127344315,0.10686829278921692,0.10338596845531396,0.06896414727728845,0.07635930218565831,0.1143407602337047,0.048524929934287905,0.06646820903759888,0.06591103753771935,0.061831479972529295,-0.04500809803877116,-0.00834771887113951,-0.02314510155239417,0.023558407424939733,-0.0036561285160898833,0.14520422287915358,0.08835235578420658,-0.039327444337879866],[-0.05872006643362633,-0.014493918127396007,-0.0038468681038690026,-0.1474480328208009,0.09298013497120393,0.015646086507779478,-0.00882384042706736,0.0661520198599152,0.08987643326513997,0.267623318934073,-0.0058272334594666455,0.023275766985846765,-0.0016005213949478072,0.13137813168013657,0.09590748562552427,0.10795919525235297,0.04499876951561032,-0.06132915684658598,-0.09297716086871921,0.039823913244027384,0.15611022773190242,0.17264262336885583,0.03245636130219094,-0.03609364155998407,-0.040295878301025774,0.0003740031184941744,-0.028936775930410975,-0.07327839083787854,0.02233042476765246,0.0067432739821065716,0.1439386849647923,0.08583885209451579,-0.07878633277143046,0.03917276477987221,0.03586901937253455,0.0906278895520118,0.08217238454069278,-0.05378910286828936,-0.11099347261934275,-0.06403914735509267,0.15037616142076846,-0.014156854179080431,0.03899988626344705,-0.20258625900693975,-0.15819417530676846,0.01146239439117925,-0.20208210488571293,-0.11683698981523333,-0.06740756179771694,-0.12322313359280113,-0.021756449942890735,0.04304310066578137,0.03854633567835275,-0.13334512279340416],[-0.2005427525242392,0.08912209062411432,0.01046143871477863,-0.101239283570906,0.09665466730421973,0.25948210646940145,-0.09732822069203717,-0.08841244723183302,0.15627850624296863,-0.039655047819161925,-0.08632912164948445,0.17504013446367267,0.10015412322691802,0.09133915287550404,0.0898627723902214,-0.005442491195199819,0.0728012276181703,-0.012688851567728655,-0.0478425498984399,0.024000381565242816,0.03142818993761318,0.06042496376079968,0.049280598795975586,-0.214964368764704,-0.002102257561471508,0.02601681932327583,-0.025376194632607346,0.02578774293494282,0.07329750545040793,0.03503863468222263,0.0590330589399885,0.11610218063230336,0.08408758458557809,0.003482944496957843,-0.06551757003834674,0.009716799946922873,-0.08394170918434837,-0.0885427546676675,-0.016612355263315295,0.025788219833530898,0.054953255772688205,-0.037518094558150764,-0.03427312404734732,-0.0498290055323173,0.1245228208784243,-0.08575649616330978,0.13907546902957385,0.012595521617401642,-0.053785208721298154,0.048522365555779844,-0.004873086047363024,0.011955485897532776,-0.1004318264574368,-0.01364621675201753],[0.032387605373833624,0.14248313909735294,-0.06214823874812996,-0.2858011226760515,0.15887333403605644,0.05004390131757714,0.027880969799630922,-0.0369562613524243,0.004843074702081872,-0.0806320424115183,0.01906908616926335,-0.016713343957717276,-0.037867129152262445,-0.0007584658502186296,0.03767339465245144,0.06138003415241544,-0.03851369389538052,0.04445373666299214,-0.06318148377692812,-0.04533524283677401,-0.022010293020054302,0.1446267285335064,0.19435225655081576,-0.09211978204381742,0.039389899753818194,0.004961331118265382,0.11973149009620589,0.056971250578496745,-0.04124835452430905,-0.026164624629333437,0.028131090441835593,0.045995236796080884,0.15884206656664,0.19561271382543124,0.0651550168602605,-0.020075445315026585,0.03928714404141633,0.00398366114334554,0.06027922634849032,0.007451039720809414,-0.12857894554527638,0.08876855571990751,0.0941142001700621,0.04685231751548039,-0.08262305483811139,0.01035734434972561,0.09663275718472597,0.06875521457080015,0.05344732241478206,0.061529610554219696,-0.18291017723840314,0.2541583580593557,-0.05481967260446808,0.0031716936964789736],[-0.08842861877577213,0.021504475521049844,-0.06086176081664207,0.09365801889993768,-0.16510644496380325,0.017440560135238425,0.06042688376295713,-0.09214597668930892,0.01997063342592596,-0.01508419773859784,0.03689708836288113,-0.029148736957742505,0.0587349723625116,-0.04370702358937069,0.12151525066354439,0.015751913404964714,0.012329173559297343,-0.013477424109989054,-0.09211707835380797,-0.00958972828165364,-0.1081059654319071,0.046101683402407174,-0.11704618508112738,0.10397344788232371,0.18184551485610068,-0.08079582655972031,-0.10787028578458817,0.1009535580060234,-0.0880210706223701,0.045204640373394195,-0.08015818226691501,0.004502481056475844,-0.032644670285160056,0.11535264605475269,-0.024436114594556888,0.06839475952956289,0.12052943930690718,0.013587878899961565,-0.034316459795659025,0.01012502680160475,0.053473817905539275,0.0018305290860660464,-0.09447086372016404,0.140658267074122,0.14236930121121413,-0.029199186296932862,-0.11598659667025842,0.015294038629460858,0.05604424495807006,0.0775179135283302,-0.06226567635110572,0.06434641168538949,-0.07099613318033786,0.018085296723532228],[0.2203985746947957,0.28480798747493546,0.0000025026217127961783,-0.07871564291007951,-0.16000205198942052,-0.09882636581490203,-0.029674177204245495,-0.1090053249635543,-0.13887132607439304,0.10292127849092299,-0.09974583447854835,0.07600838960821979,-0.04417451568705119,-0.06504531858753769,-0.0629899630797452,-0.03479025658979939,0.11221651566892975,0.03485067124887397,0.046556425354171524,-0.04582214458983516,-0.10982931026344696,-0.03814898891962399,0.00899938854195673,0.014360682218074019,-0.06024649074710129,-0.005678821436362828,-0.06172017227410815,-0.09454441396956141,0.10476495392675034,0.21208048105457558,0.00029669085419555083,0.000962286294808628,-0.08491642882375196,0.00945433802628493,-0.11473480613924816,0.030003192871906236,0.01255711306959577,-0.0031758830097375038,-0.07737662665457735,0.15328686926026647,0.09817214429052133,0.07871009192388705,0.052807138005047195,0.09631452242787804,-0.09976726748382898,0.061896940415597866,-0.03562115965878668,-0.0819477600130004,-0.005989782534226542,0.10986094135290664,0.047358895780698754,0.12166943023123077,-0.16422090860653618,-0.13241706374666734],[0.12950108207818123,0.061928111667329123,0.08452472567089053,0.015794581069068753,-0.154941939314074,0.12413620289276187,-0.0976822463386695,-0.04589988028661076,-0.015538559393757857,0.17437794452182495,0.05329679065741637,-0.11134365322367008,0.10966619753947086,0.12776270193040953,0.06709350199215429,-0.03328367112164643,-0.04276504066230145,0.07780247079183708,0.11227771208834303,0.011676190757808225,0.03730170723884576,0.04623208661934831,-0.00796583041062186,-0.0579827222723484,-0.03420587987152519,0.11856137836574562,-0.035147858257388524,0.0056042856638309916,0.012983339264995218,-0.017625502559770183,-0.05214525827011534,0.004443992882014045,-0.03172009740066513,-0.011294065668332586,-0.09224766471361158,-0.010871492538075168,0.06285916060014611,-0.14296446767573154,-0.002752905101425893,-0.0807015176656656,-0.027175280619585535,-0.2818190544583751,-0.034289612142907766,-0.18034172378264235,-0.020513833647073248,0.0355110749923601,0.2162305339793573,0.0012022223836774737,0.13582422818104628,0.07062806805299818,0.11675990189388548,0.04744961708657259,-0.01736666285587821,0.03396601837334123],[-0.03217332472063351,-0.027467052614455978,0.11100901064194883,-0.07102763502480937,-0.06714985024121449,-0.036062483165244755,-0.0016045420702628093,0.016260176908231654,-0.0348780096289407,-0.1030074441369784,-0.02411208472689071,-0.01239186386953905,0.0205871186907493,0.018379533427581276,-0.10189141839414377,0.021561204184955537,-0.1450174470169746,0.10536581106499822,0.1705826211019364,-0.01703740045692751,0.11853140160708621,0.02584882525022638,0.17759782902070267,-0.16377983742194804,0.15248147692835465,0.036937104432932806,-0.005005773753075405,0.0214829334617058,0.09512883422596582,-0.051793319939388835,-0.08541146648727133,0.06482734767721995,0.06356978485346904,-0.015780938389596145,0.05537365441237177,0.005315400206432349,-0.0051297846933958495,-0.14317874291896907,0.06865115868608754,-0.031917248653005575,-0.03013543474560564,0.11308137911603032,0.07090404056219728,0.13724398308398236,-0.1660305497439061,0.018670945423785387,-0.048350868003547494,0.025813346061942744,-0.017510760771402314,0.009934935236892869,-0.10118335309495421,0.0030730283647389858,0.025232345700139394,-0.050305540123516346],[-0.014633360765496754,-0.10412495520611209,-0.03447228365300794,0.003715389729177209,-0.08568796729132168,0.03478491084790939,-0.013256300079923128,-0.0568439451525791,-0.049763903095250084,-0.07016299526376847,-0.09838450108871806,-0.1288233117503703,0.032024197641398675,-0.07245825465249435,-0.11877488244853779,-0.007324535684671235,-0.06903496525712226,0.015647484093177615,0.012000960214399522,0.0010484544469784825,-0.015569124904930358,0.03264027779151969,0.03964198850247644,0.013579173415570831,0.020587845670198928,-0.09169392695673394,-0.03581423713463047,0.16484966321470554,-0.029117486347041123,-0.014967846503672982,-0.03764831605785076,0.07762894379844902,0.041066875114177996,0.04133078595783503,-0.06635137229536751,-0.047847371057386665,0.0702273483822186,0.01054660521401818,-0.12737124590466978,-0.01664994795104972,0.01546552377099098,0.06284417857671133,-0.05340340274014898,0.0631503055712568,-0.0078670384230494,-0.024475928296379346,0.07180892601633787,-0.03902741916921346,0.08244458812621887,0.05518846516778353,0.05230905715717197,-0.1072625107924489,0.01321599136906264,-0.12920767070277928],[-0.17392878493176078,-0.015179913365276037,0.05492808079884094,0.04855681452683691,-0.08676870306312442,-0.023519622544018653,0.023141425056941525,0.12979246776536982,-0.007852214865460592,0.016736121236392468,-0.03863753709856387,0.059336845269402576,-0.005005071611505481,0.030740888011727054,-0.005102306516012392,-0.03689914062688728,0.040699386770619836,0.027722205848277906,0.06737526178927476,-0.009597259281978772,0.024397644860957576,-0.006670631417389131,0.037874178955227836,-0.014522955790244214,0.11061591079497331,-0.11987626769775217,0.0032540670170821953,-0.02647141333536597,-0.020316054378834252,0.03990012061641678,0.0659257781984263,0.14001534945849997,0.014861562557046591,0.05932690055450346,-0.048026438245875575,-0.003988203849583369,-0.14137547946063211,0.07124273692090721,-0.1424705902111954,0.0022766888305328437,0.08894847495996433,0.4041689271925817,-0.09223503498378038,-0.11920061937826652,-0.10646126727648332,0.1096853637555716,-0.03780453113690771,0.1055449283822836,-0.03930574901450663,-0.021778880375608344,0.05134891238775197,0.14028840977647386,0.0871843469562148,-0.19063967507024063],[0.09548943390711576,-0.011186650204275166,0.07317026103248934,0.010768905333997578,0.006315359145276364,0.1267653069827739,0.05254073597327578,-0.0538870824571816,-0.13908535416272888,-0.10817778689225768,-0.012983969226350228,-0.0390188685278118,-0.08822821441718583,-0.0698250699257302,-0.04064664690624667,-0.0012771771907685336,-0.02422761037045485,-0.024740756970177122,0.11826780022224577,-0.06907998293286503,-0.08313074147893047,-0.1778675104219885,-0.02897157844447682,0.08445013545336466,0.05868011805751792,-0.015096083812828663,-0.10021713390540714,-0.04310520099551427,-0.08936787365783454,0.12383876057591231,0.056917694701027234,0.06179969148078891,0.01306341625323582,-0.09014779330606966,-0.04833737491759136,0.00677473004832699,0.0740978264510615,-0.04440905984396926,-0.08208323475196387,-0.048183882877377925,-0.05511751709165504,-0.14723753712092752,0.08002123716075453,-0.07084790610921786,0.04391451852258887,-0.12165184472469154,-0.10439641531242762,0.06855940572906027,-0.09835141824886502,-0.019781569760613515,0.02701853803718609,-0.07741153613262161,0.16521042253725793,-0.08532922917310624],[0.08559948675697311,-0.10109263794561808,0.008689000574043398,0.06869556191093477,-0.026303502307636287,-0.025650177353125386,0.033487854269564445,0.07930159363293239,-0.09416578688001978,0.097985250449536,-0.09055811595863264,-0.06274501347834932,-0.12109711074541175,0.10401651489906821,0.0252701318431806,-0.046729960917411086,-0.06813386164202531,-0.02582448817116708,-0.11477574973611294,-0.051808018388303734,0.11207670428347491,0.1283828762227217,0.013966413749923235,-0.041116435492746295,0.007123998178115069,0.11359376548681957,0.053083906292718565,-0.010106716623637012,-0.044961560543173656,0.21746009187010149,-0.11291263376052536,-0.01618596557999915,0.026040229675444844,0.05376358944358739,0.14376539807086244,-0.15506088879300178,-0.059188419231800876,0.0780068909671989,0.00746103828744955,0.13024339837203983,-0.17469604226132324,0.0830956901126109,-0.08985447645905642,-0.08885026881321675,0.05632928663284726,0.06318322430101365,0.22221410325764407,0.21564570655627463,0.03015942517610905,-0.08500784035872544,-0.023853685918833165,-0.02545055098171855,0.04047942360127546,0.02825415088173806],[0.00962983796548169,-0.03322291570105556,0.08201152411590867,-0.07931200236493836,0.11244597884377107,-0.003868878134859345,-0.04089807915190916,-0.1583140261127621,0.010129002710838652,-0.011000974890257594,0.08263555458748956,0.04011224016893206,-0.1579236450963315,0.04599285207293701,-0.08904739820310589,0.06676273825904043,0.09077961317319141,-0.08151372283291895,-0.03779637907185331,-0.07228922402871284,-0.08706632929823217,-0.08813709738541571,-0.11221143362237196,0.0431456990199102,-0.060121093561100264,-0.09364668463357384,-0.023712526934172695,-0.07452604456593559,0.048360120483066246,0.03006743171242016,-0.13917827997265558,0.1010276822619614,-0.17074725762622392,0.009160906155217011,0.06247246715369548,0.03579168326316462,-0.008113026772842681,0.10300504818472303,0.04006439826003123,-0.16009245855724752,-0.0457425011059449,0.07505685014887468,-0.017315647275938633,0.00041483608434233105,0.1235261593619613,0.12631307072921086,0.20830535923972904,0.006025428907523229,-0.00885747065888157,-0.03393792785473254,-0.02917996469626657,-0.1368278629994357,0.03345002092618227,0.055625836436051526],[-0.026513485612725037,0.09067669847660151,-0.0017551969899067318,0.019112243773540954,-0.02783963201855506,-0.03344825299120504,0.13300124868235605,-0.03857279873469942,0.16065109553695642,-0.013310428363015537,-0.001118803972524802,-0.0005488452783452806,0.08610631910942576,-0.006626877877998925,-0.014196795997456246,0.008155376293180673,0.022282794319983184,0.043318763334422986,0.04399433968787704,0.030781754915603636,-0.009066369432390182,0.07479395094410328,-0.09761984169798157,-0.09560824943801458,-0.10539608751048139,-0.004432548342482007,-0.023104636218782466,-0.022763688314530732,-0.02077926317868169,-0.02234066655366301,-0.0035484675626129554,-0.0515908530861003,0.025083821190354332,0.007771203022376688,0.03530648314747677,0.021526236322561326,-0.012895990020280072,-0.12134892762416727,0.03873464926012633,-0.10199815881867955,0.045485589705036945,0.4577310003502217,0.09786158143713938,0.0785831298456508,-0.018232215178086514,0.001997593311357562,0.2996086052484869,0.08745080000086894,-0.13239235200388444,0.022883500402272987,0.1046129305690306,0.30975168852054125,0.029088570654225092,0.053188424082118345],[0.11721602804657133,0.0929374171036724,0.03443160043901454,-0.25694287712433495,-0.040240780444617215,-0.009543614084459633,-0.06993596654997994,0.015736653905518126,0.07413545785009186,0.038645704818703386,0.043522795419697724,0.0020850902480991787,0.0009381827100425014,0.1375364311061994,-0.11804915212954765,0.06883443956914616,-0.04067724174975115,0.0476323539373034,0.10113200035604708,-0.169159959972349,0.10601271974389674,-0.022129899051083344,-0.07431907901709345,0.01897736268783842,0.1885790815892111,0.03014033109653086,-0.03386445583773766,0.02583509080531628,-0.018694119686234526,0.1683083511067203,0.12052506770379179,-0.015381338849358033,-0.004212288067281763,0.07858995472520586,0.08242376291785462,-0.0038898354656118077,-0.0072046250312082566,-0.12618615068904607,-0.015024589717506363,0.03275762917765227,0.05650720133476654,-0.07400299082942587,-0.0037105836521705397,-0.03997838120829067,0.15092759008114526,-0.07566084218278357,-0.1781254282048841,-0.07498443457555354,-0.022516529654916767,-0.047634936388610584,0.02816397260399511,0.018085973771556275,-0.11230490564875294,0.13940721798646655],[0.0988885540898269,-0.011408430786132859,0.15326155149014944,0.05959482707982757,-0.02284431736921918,-0.05778688210565365,-0.13631991468329158,0.05259709093120367,-0.01973092523878033,-0.09286675344547793,-0.023411836350394965,0.026187164127915066,0.0512149669309551,0.150138392734426,0.12811196158348845,-0.15352443966407045,-0.03175779917114126,-0.15658238298407143,-0.033413822162094924,0.05977959524471505,0.0030261883427077714,0.1106316949232619,-0.15223869585719094,-0.05617058049336095,-0.02797645622532976,-0.03189035609996943,-0.08052647614702106,-0.16318959300744101,-0.040077800785620926,-0.052685329947188435,-0.050031620181638994,0.17339688586783894,-0.1506624648718036,-0.09896910064892495,-0.07830995492956129,0.08382667758686822,0.061067231483784484,-0.04554420069690707,-0.013294466381680817,0.032410416789114535,-0.0036689772721228797,-0.002442154420520107,-0.020159535944240536,0.004080342458722817,-0.06422206258708923,-0.05798794384990825,0.03507385948178871,0.15733784274343174,-0.08255699453873568,0.00440950344700609,0.03753329442135799,-0.057719104171232126,0.07949533434615563,-0.05291043354488604],[0.046779690905647826,0.016678800606843472,-0.09527399938337645,-0.05660504262116198,0.09089836148254322,-0.047453734701869366,-0.10095750173454032,0.03232534578417919,0.027061714607438742,-0.08589692476028261,0.01699188015776264,0.10542310291440891,-0.009249864165708685,0.0415068008888851,-0.11461973298359118,-0.18318598040523623,0.005511905174148518,0.08577952585198409,0.18988594501629635,-0.010579190067191484,-0.09495970302795395,0.12466077695129517,-0.06689398749826633,0.08499870311511609,-0.10644075944707491,-0.17454253590977603,-0.15757375274288699,-0.10870486280573774,-0.12528831543236918,0.0188789202696129,-0.1362186238166181,-0.10121617061572809,0.0484799287319198,0.05056804118004764,-0.06808491525623289,-0.03389594344252267,-0.09494077759293985,-0.062164169789442655,-0.026190540707044144,-0.10791689692547184,-0.05246290775477895,-0.03101781736827509,0.04302170073212094,-0.0013642734542613634,-0.10842166193662157,0.09805797687881897,0.028528120679131824,-0.03397611309895901,0.2523648806023202,-0.05676925734011863,-0.016939323740565008,-0.13652514709381772,0.06525036052615932,0.07437512824110977],[-0.05262530417517365,-0.018571220254178178,-0.11070939418845023,0.06573945005771147,0.01391531699913724,0.10382523492897297,0.04284851530650736,0.03009814635868331,0.06765648326005837,-0.07630885291656966,0.04374789963462815,0.1400178275606536,0.05301158505515929,-0.11204424220247029,0.045243776749132596,0.021571696090733245,-0.030266167527842263,-0.1092990908397626,-0.0661428945075098,-0.04832736441122003,-0.04856265158738107,0.07032983929189635,-0.08069227899204783,-0.04280584191691212,-0.07486719611537436,0.13978174377346372,-0.07317665518625412,-0.07724191429983514,-0.0196191874016325,0.022318546241026218,0.0004750188315145546,-0.06992360173742508,0.07210313260779067,0.03356874796812595,-0.03851729285792017,0.02331391125066035,-0.02007695589410853,-0.046911619035674014,0.02058991050382424,-0.025524000445480775,-0.0007789732037433503,0.03519506762928617,0.11415211799343865,-0.02420713067890603,0.022960137626293963,0.06290781078123997,0.04543056981426962,-0.17951984073207872,0.01219363851679448,0.011646530480962501,0.09102163300241443,0.050626439911485265,-0.020851535536490835,-0.09035364168582433],[0.062080985582085885,-0.16091538651713302,0.07757781556995869,0.08913051360147851,-0.043333691732548155,0.052097640666199554,-0.04719180225402437,0.13444781725482774,0.05334583568198689,-0.07155754271917228,0.12690748141816555,0.05323821543022946,-0.0206872829542798,0.07477180550957144,-0.003975540542406893,0.17450292844654144,0.15987787661091188,-0.10061277988852342,-0.10964750718827633,-0.03818247488807693,0.013897424631200358,0.07326392937758101,-0.050687248829312505,0.010372371075683978,0.06236533584174773,-0.0762235527679346,0.15397561394786768,-0.08599933754891381,-0.1635373705952579,-0.06607001131826487,0.19742107029161832,-0.03787060258104791,-0.09207034066351517,-0.05942644285608803,0.03913068122502392,0.05297994100918697,0.027908058492699325,0.1479327908876628,0.05078607002895935,-0.05963058355935687,0.11139979597886485,-0.016170443449178163,-0.004820776161671466,0.00974597900698748,-0.07454585402049294,-0.19513689509664373,0.0343675644509234,-0.07192964178572661,-0.018719080857083868,0.024457536856796462,0.0669087446536536,-0.09096387631510713,-0.020566404694646982,0.16995185598644402],[-0.038507225910878684,0.1309296841635384,0.08767667768831319,0.012182285408210952,0.11770181331827397,-0.11276373987348905,-0.03406230696866232,-0.0006935911439489242,-0.07225023658993154,-0.00284004390717074,0.08365265781932166,-0.000014293136565949027,0.08708104271033575,0.0991376552011908,0.07280554565792985,0.09199358430852854,-0.1983039722584904,0.04995200821715833,0.04579080700269455,0.025733035061517428,-0.038167992270598264,0.03936389023540243,-0.060143996073921194,-0.07584073532093588,0.15038123832147485,0.09368750212868913,0.05710940411330557,-0.0033427260112138995,-0.014172070263724449,-0.06295565015017807,0.13118415434430764,-0.057113527224542486,-0.20705822246766206,0.07100006650780567,0.019104197691474298,0.006903040099427089,-0.05526454124640403,-0.10505410918800442,-0.008523500323521558,-0.06969458425096751,-0.037395114347868116,-0.1095981677753483,0.07059128753014154,-0.05218650250324185,-0.05185372227847154,0.04036853525229913,0.06145708951937135,-0.027032337338620337,0.06111453374845473,0.10056640036305751,-0.031091034294241846,0.023779820570884833,-0.014527491639538748,-0.03104137068682634],[-0.17967957616530103,0.20223407851045755,0.06869880556500413,-0.0249378930865675,-0.12406585867924678,0.09587135982264339,-0.0021178825397850957,0.10851198401422987,0.08070219129739369,-0.13532149933788046,0.09512355422798405,-0.022852489706916515,0.1268195247084396,0.04337866587010546,-0.0259663511212065,-0.037255599728833466,-0.011972302027459948,0.04498506876489907,-0.027044024258573225,0.11411813144088594,0.032255475002458955,0.03547589685626084,0.048226177003546714,0.013516643745486258,0.03191611662855606,-0.003472798161507022,0.16271145925387215,-0.050150761772773264,-0.10636943366861343,0.01898588864817914,0.1299075834387434,0.1006170496898194,-0.08833004835894288,0.04929697323724136,-0.1252639919558893,0.07074252805686351,0.006296680692905326,0.20495776924170103,-0.1720859612954744,0.051767935917584613,0.10207939631177715,0.24011716398445732,0.026014758176805805,0.14258311345288752,-0.018815284175949687,-0.06729574711886534,0.00552032790206818,-0.07804889590705713,0.15763723561509985,0.05709228056842353,-0.006700292570938102,0.1259121241930558,-0.009196333713414816,-0.06011320707868046],[0.11907745702725765,-0.010666157130182029,-0.006636425279230207,0.04821469990958552,-0.07584888669961909,0.13665213055590544,0.060228455077981184,0.06346244695504255,-0.013452957210236016,-0.08566084911214955,-0.00182932098468335,-0.12266780037373988,-0.07788202246165372,0.10338230372195749,0.08495136666575229,0.0727031048767507,0.00351274729038172,0.11726265075142507,-0.019253881457736124,0.02223902389851746,-0.25352792026274845,-0.08878048091875866,-0.05506517607332462,-0.03758459078758744,-0.011859784781153909,-0.09335701230961206,0.04788438213189124,-0.1169533275079908,0.00698520171309549,-0.022605288166164944,0.08404911508339369,0.044406926551147974,0.035859491476616295,-0.019820828551470587,0.1081608235021966,-0.09667893753006378,-0.04298192831649999,0.0012455772371182592,0.008016472924489934,-0.019974573118096226,0.08477564770987261,-0.025828442710319123,0.030574310620737562,0.12726897924748995,-0.028737929883660904,-0.05824307577141899,-0.11706187016133877,-0.028732601892768654,-0.018417601164957633,0.03648373184725364,-0.08757644239993735,0.032871898372329,-0.07105833712033817,-0.10246969162728939],[0.00008773849675858767,-0.03704452910387055,0.04693307817999163,-0.08150434550067769,0.11415348219383135,0.10053452289901274,-0.05732601216334203,0.020074027270439193,0.06998069124211692,0.08007366062162674,0.19475125983747654,0.018185810028127317,0.006332666836191119,0.09328988921539574,-0.05831415707203668,0.08327428647396644,-0.029229157653574162,-0.06111487955444141,0.17550937029642433,0.07999653800673412,-0.08526409698837399,0.05951872987270925,-0.07185804559799397,0.09363513298517573,-0.04105427690980028,-0.06722260231562174,-0.1252502870180442,-0.024298010599184645,0.012666003148399286,0.059651289779246774,0.04812210569211407,-0.18777001952055852,-0.0005215350202374534,-0.0649335593448431,-0.11515301367502749,-0.11393144191158433,0.06761428391172405,0.03901190022162215,0.002695157673584856,0.0023051863380406613,-0.08479279167634396,-0.21178126293586383,-0.07438384497706808,0.01481486324616354,-0.029456446855739955,0.10429827343954143,-0.07631958651358416,0.012499185058485948,-0.0007132275686714794,0.024174397217240646,0.025427993389845634,-0.08114930781235828,0.022245877785065402,-0.025215321138638544],[0.005709857843472068,0.11530405234305215,-0.03028625880111645,-0.0016999201015771635,0.15243375315329388,0.018890584423177488,-0.056955497319969274,-0.020751514210221245,0.2126454869332577,-0.01675963317505143,-0.10453536260945585,-0.04282538034094161,0.017563211965963804,-0.06741199130309729,0.0007216144673924153,-0.07837813195915569,0.049628764018231915,0.06597089680199297,0.09678185827367948,0.024463982640240734,0.09935541120245582,0.08143759418218803,0.02092456104869995,-0.012784502672548805,-0.005154906758469536,0.07013411319208404,0.06643221983401427,0.06606393031682872,0.036322607210019835,-0.0031866324464311447,0.13193761887585514,-0.22107898386275168,0.10524882527642047,0.03611286758182273,0.1040153877505088,0.041172403519465675,0.08856671711945875,0.036906536918338166,-0.07586263127158677,-0.03849911134760836,0.08967690244521614,-0.15152469605582805,-0.06745673854300456,0.09765749404481842,0.01549936943485276,-0.18727216581097988,-0.1027144877460667,0.05382047832148199,-0.019634427267179275,0.1322430796401647,-0.0781305534213354,0.007611874509507677,0.08652517924590006,0.01729704423607629],[0.05003205060273363,-0.0003738790480585012,0.06386614221783875,-0.024107933431935832,0.016532815262892027,0.02679752074695097,0.04812233035650054,-0.15988511040318915,-0.03444558887914058,-0.07176468686608617,-0.09573382758420881,0.022531057112795325,-0.04140353765435496,0.12136922189899436,0.024170343160189463,0.017188884080585942,0.07084456133597719,0.07267809835040066,-0.037197984980508185,0.06733679880042456,0.0032680082374595995,0.02726958187626905,0.04083687921238456,-0.04405701612368004,-0.06556286556956706,0.058278015861190746,0.0409982353000748,-0.04840697121731442,0.15572595038445297,-0.09623900940899291,0.0033670408922599586,0.011957928324520561,-0.030996907602454202,0.11374032703357807,0.08938578590757289,0.13383700566559362,0.0133491778531281,-0.0787862378038626,0.03072428147487751,-0.09696006601098812,0.04358194482053425,-0.13489839871834539,-0.11350415181624532,0.01673283554712887,0.11488849069572009,0.021155602444623663,-0.05481315902541034,-0.10520143308784749,0.01577219666521339,0.01298058304175779,-0.04830011012506874,-0.035584477581432,0.06273467430572016,-0.01513825651404291],[-0.022734038923435198,-0.037529914676384425,-0.084231001948003,-0.0011836741432640244,-0.09726371997375195,0.0875523290892629,0.0021230217833965114,0.045201125749312086,-0.07465464560379668,0.016432689696030435,-0.08946908183263584,-0.08227882367614087,0.04684005989124456,0.16578634296400035,0.028073925299249642,-0.07785205766035976,0.08700463882200629,-0.1172495971740246,-0.014798513444866976,0.1316951872507859,0.08582417863747896,-0.02401906765840456,0.07832250770360247,-0.030777694598807522,0.042515904101325636,0.0682724979812247,0.05678381276070751,-0.037200354142242306,-0.08450910865654421,-0.14479605449199076,0.08486953695324516,-0.08098807334468508,-0.02522608072554658,-0.12481537374416221,0.09342140243752642,-0.09401501579660392,0.02013401064785499,-0.010769632814119806,0.03257416663746553,0.05974690730519749,0.02261825409954087,0.298178955703843,0.0773720828617387,0.07445808538927981,-0.06747287801406116,-0.046027931739085474,-0.01209660080137895,0.16754013941379156,-0.010079137203908028,0.010366408309161036,0.03431489796984309,-0.010060593559090414,-0.11825625495669367,-0.11095976147490402],[0.02017296589440278,0.09052913645730631,-0.10236742627839553,0.1784127889502787,0.025260853057519926,0.01061805908266051,0.022510560084592564,-0.025513353809486182,-0.09614531427030538,0.08416328432870697,-0.1553149318399574,-0.08294978357710821,-0.09317002533661145,0.06762673666879712,-0.032322706814589465,-0.07163458331417162,-0.003341047250859107,0.002213622117007712,0.21901782044696896,0.08756993859907447,0.19908221509048193,0.044573324382393274,0.04115983097842918,0.14156356106920284,0.13106265502269457,0.03798439357463713,-0.007407939344379382,-0.0060433475391345635,0.022632943673956317,0.05233225246505943,-0.035017459255964396,0.13720947296555894,0.19869906568702012,0.0008816584245662919,-0.07258769739027437,-0.09209157930217303,0.04749944865436131,-0.014834870049766854,-0.12177779440097401,0.04662934004047597,-0.004126977206495699,-0.19119113105093816,-0.025979170322249313,0.09328285763890233,-0.12087014029570513,-0.012808107415081567,-0.10395039880650686,0.057820689932473864,0.030929612566063705,0.15138438004656987,0.1308496901312451,0.073871452870082,-0.06116265407649248,0.017806840779474815],[0.019966892057405015,0.06173587074519998,0.018792234330989813,0.037236972528901895,-0.037471312442224305,0.020488213161908825,-0.05512907676455865,-0.09578615002509425,0.06339725719901805,-0.05776431922567216,0.05412619221806285,-0.012025066321572683,-0.07740138100943447,-0.03682952130529487,0.030272835845278134,0.09772904190444982,-0.05218852766389365,-0.005367877477468794,0.02993092773862345,0.03867738210702174,-0.09980234210640687,-0.06874602185702797,-0.09758567119394695,0.09353144922869172,-0.07113693498624621,-0.1010286907692079,0.06438571327044904,0.007737878641929576,0.07164247027896381,-0.04999626454018801,0.0661161165746435,-0.0504679839366515,-0.036806349505569595,0.0327526520374829,-0.08420083263789747,0.0610809206330266,0.10171946837005684,0.015077235349932066,-0.007380239874239871,-0.002844727113994033,0.12498562425013224,0.05566088945438371,-0.036300030866923745,-0.0685807033343332,-0.07665220828642819,-0.01640072378163788,0.03195912824030483,-0.04976706910566395,-0.10339762529188976,0.07305909033589299,0.04854804658046593,-0.036264512894204515,-0.022513875424802213,-0.13056857529832752],[0.09942488163180853,0.05153332336209018,0.02963989799276394,-0.03355077693131885,-0.10769544497655807,-0.058622317615118935,0.0747568072658417,-0.09218217285236417,-0.10803520087898957,-0.0052258138237794745,-0.08254874663364578,0.047673336987773034,-0.00800038337111059,-0.10272291327926486,0.08402994730808099,-0.10969970896060408,-0.019383865005423988,0.04834070592532868,-0.043009880437592074,0.14060103369929644,0.019670413682811114,-0.0033257869176443566,-0.03466903740696225,-0.05683768962532529,0.15414698165374482,0.022859390652364298,0.0039942230798554815,-0.004037442975968215,0.10436786426114376,0.12135676139378455,0.02898589483537418,0.11553011501854349,0.03919246309551281,-0.04770003889884817,-0.05451640331949268,0.07207925812917057,0.07552012136849945,-0.019980831370271908,-0.08149524912722357,-0.07030509442150046,-0.021933251028047156,0.015037999022160298,-0.015213535528515093,-0.1331830003183432,0.08156947207444365,-0.03223803340743406,0.3520634119382051,0.008494937018732008,0.10864629098645318,0.1310798907773045,0.007078490068867784,0.03608874363437416,0.057648691802150286,0.04251458751358578],[-0.0034187735301548327,0.04629448567553631,-0.023204216601501987,-0.03640097635581153,0.05225925554986594,0.10160117050257843,0.001660664238378563,0.08011982208212227,-0.025274739259233212,0.0986359712601508,0.023203470152604003,0.12352827631180131,-0.08583271604599746,-0.09114913213507587,-0.19306360739438583,-0.01059114695099198,0.10493841580708628,-0.05361317935320543,-0.03719842859386207,0.059253469509760945,0.07657801154181354,0.16232435835799547,-0.03224585630179732,0.2480762180535328,0.08076317531851471,0.03963469877370186,0.04589509524218001,-0.15885469039964867,-0.12935003325105085,0.0310787460483345,-0.12821383021235502,0.02637857873957021,0.08150712009190778,-0.0798316094467602,0.11526949877620561,-0.02394119502806213,0.203477303233289,-0.13267242090504605,-0.11755038681288717,-0.030682708873608723,0.11866854893827039,0.011799712849280249,-0.0042598838529103195,0.2074103012198984,-0.10062381997050401,0.15150740960839684,0.010351638990389454,0.05175242115329093,-0.02920801890991066,0.07577656193158035,0.03912598705558595,0.010882181201332204,-0.008880795592304857,-0.08324539339179868],[0.07088180371581972,0.10237724694672792,-0.04045432608605,0.13509279727904816,-0.09164743277692919,0.05293182194937074,-0.07069147759072558,-0.0559681199434598,-0.00798043720772551,0.056742466184902335,0.16687746417504828,-0.0025082928735518156,-0.04639494153215828,0.07657767995546559,0.0567977805475174,0.015182774479185328,-0.05450945331945258,-0.03755117624094904,-0.09440235580095176,-0.04285319131808358,-0.11779070574067024,-0.014192385006124684,-0.04247941537111889,0.03812831904280804,-0.05554383838205747,0.0010843568524168303,-0.08159155546627962,-0.034994070762213926,-0.03790753386291154,-0.05702065444105493,0.09563958693408714,0.009362844182132983,0.13672496171657345,-0.04256188602523554,-0.02315697771374798,-0.07931106079695868,0.09175918429533475,0.13563138240730166,-0.0044596759689702675,-0.12967772231644384,-0.005681380689550128,0.36479305503366893,-0.136368108013546,0.07008891297167043,-0.1815919248669227,-0.051608676870780024,-0.391049455131899,0.12065042256963758,-0.03636021523190908,-0.20609527643264938,-0.11342392587779816,0.16982098144405533,0.09639570146726006,-0.0432372690191785],[0.009463539848006266,-0.10712918032610107,-0.10154438667512691,-0.10836509172135814,-0.0023009858469302856,-0.06859689291323498,-0.06729769541232619,-0.07431731653307935,-0.043555198221797264,-0.1331610745181695,-0.12535409457919527,0.1344773230676809,0.049820337412106945,0.03198797286024009,-0.0858748183005128,-0.0020608489333730612,-0.04506524070348853,0.05467222480065206,-0.06853144383056979,-0.030697165378494148,-0.005950048601238858,0.0031791221494827772,0.006890459251196259,-0.06215966579817044,-0.0765112095414247,0.010125646028979952,0.14599291924726418,0.026682414299260795,0.030298552185832203,0.05774380860200813,0.02387581731691341,-0.010339996848816932,-0.0046535851174867,-0.039928022037274004,-0.04138126592521715,-0.044616098150114615,-0.029659176236662466,-0.05017746390563274,0.08591146657654342,0.01510627305357429,-0.07138231737504605,0.02438946619679858,0.011254724556162284,0.0489441710536289,-0.02329461351946932,0.005382670412551117,-0.019333003579965393,0.05840587923300523,-0.1320203888031366,-0.1105566518483525,0.004617085921979676,0.03880947675977681,-0.02874076566155791,0.1033535170616959],[0.10775085698568133,0.06954731889043032,0.0006445567333182118,0.15106907065097555,0.05222572573240192,0.10442946537832687,-0.08277386105838844,-0.013646705149332899,0.04162650191436606,0.08275029168795417,0.049000876520897206,0.05967939053344362,-0.04004710034755941,0.1558129558522216,-0.05344770603130576,0.10394353916635327,0.06091818939224755,0.09539353880014342,0.06132048581148819,0.07743215777381386,-0.25237170285036437,-0.0747297652224711,-0.14998495030559106,-0.12180060589252506,0.04314152087823476,-0.059041629756094324,-0.07171588204604863,0.008364072202601283,0.06677326011393912,0.05137546187131481,0.125358505602779,-0.23531670080734535,-0.00837531948485827,-0.05481190157313708,-0.01557823670524506,-0.04885106213589403,0.03808082843882241,-0.003236752069224075,-0.03091519690497842,0.03497010176880938,-0.04968891239048069,-0.10380783671911324,0.12853432718006344,0.04434136204526803,-0.06964438081494057,0.1030416695453387,-0.17802504706473155,-0.05526506207527174,-0.03524535817696788,0.0056529762335809685,-0.014923431480338449,-0.17292522405535468,-0.06458947778651747,0.039944399900063585],[0.2206501463074538,0.04659188430929107,0.00983634614101057,0.0738925469098308,0.03931621953514664,-0.1036075426665815,-0.08887492195895604,0.03583260196367761,-0.049688192689765605,-0.131051533970338,-0.11710225601157928,0.15302936540188924,-0.00736884602508974,0.13948900652545895,0.027447942471987067,0.113154510911012,0.008858582991665136,0.05121648482211987,0.01780502813536594,0.04929680237903702,-0.09944679276778333,0.1343551457044354,0.019483418642353256,-0.030465121547471764,-0.035664818613727695,-0.04094188273159259,0.06452392622063652,0.05491996246546217,0.11253318242823203,-0.10937571904764432,0.06621869459860204,0.010502261683148868,-0.05527412984200882,-0.028469013373611612,-0.03907695402381711,-0.08994908174399739,0.05920225301817296,0.08291611446257881,-0.10081416909312899,0.10515965497068133,-0.02988414692781495,0.2202547577134478,0.18182157255531475,0.015422426988429373,0.17250416574374675,0.03674289157945603,0.22719104578092053,-0.025040786389497083,-0.1518858768271297,0.12482154154636056,0.16192514806131855,0.13236437149953928,-0.03668546365391144,0.014536326123328834],[0.019134782915504505,-0.11101305827279744,0.0756952504125611,-0.12719838026661914,0.05241287510223994,-0.061448394971751516,0.07385193087637583,-0.0009847877745344977,-0.08442265960835918,-0.07349850976671958,0.0416541985386038,-0.03487206772532395,0.014931794676188674,0.09740183340390593,-0.03356936445434129,-0.044215931630262696,-0.06910304847457553,-0.008504813667645281,-0.032322011736538814,0.15172056625830677,-0.08681896411568094,-0.05295766748305561,-0.04128775203319949,0.02299343932528244,-0.03871686173094002,-0.034717308655045645,0.062179645696263094,0.07752509964805127,-0.1431846508388001,-0.004268468863961618,0.01961211730892162,0.18203116103994055,-0.014845720156221638,0.041220495990855255,0.1914225103308294,0.022071312206207613,-0.11207021060435753,-0.13271839987574613,-0.0278625372195764,-0.04564603720277818,-0.04584311149876382,-0.029735603575891053,-0.03095403469036164,-0.0306281984576502,-0.08105714732041266,0.007215140186672263,-0.010104021241897994,0.17896254279361623,0.14194392780003273,-0.05438562857622671,0.004220955649193313,-0.013925950804388115,-0.04916941036103085,-0.056169101801928675],[-0.0734532983384079,0.1391810103057744,-0.017007239749070077,-0.07407758270867887,-0.02351044784225307,0.09232175780326224,-0.19798530845515053,0.1025465906639062,0.030802239655076592,0.009347604000987065,-0.20362942277227467,0.049027313292823865,0.0801916858518481,-0.00234839966978602,0.0878180860388639,-0.0009326431134236612,0.027893301610312237,-0.02202749614493639,0.02082035559349808,0.04692999051568907,-0.0818532298164017,-0.06192540757662814,0.28352040925972655,0.07382798954109249,-0.06507310379090583,-0.0796353654458067,0.013650793052929605,0.06874037984701296,0.013594004573019406,0.06718886563504833,0.06337210993340249,-0.025987344362382626,0.08790615513429675,0.005946274665479586,0.058343185762002835,-0.05904221210412054,-0.09544329049128954,0.07181859373640395,-0.09340384171299143,0.028457744411754204,0.03371448876249118,-0.13558596392262628,-0.07522132065681786,-0.012116260478319634,0.1674114523682557,0.014082707122366698,0.20149325938919432,0.1638040487255965,-0.08991008874658651,0.13474536442013277,0.19998854775251182,-0.14733040305476164,-0.17418963719939087,-0.00764842818895408],[0.041915130537174806,0.11341096039119301,0.04423728588423399,0.16433807289726213,-0.10609850317616495,-0.08942917884448778,-0.12402988370120724,0.07845855686606668,0.06868791028891477,0.12100416827476689,0.09609294018001545,0.08863808937601032,-0.11170218953559861,0.07853422845487974,-0.006812428234732803,-0.0028723944630310414,-0.10736130366025586,0.07869977899759109,0.04633240942536873,0.08445463790091254,-0.006855893560654035,0.05603524803489135,0.035399025193908945,-0.019036202544082694,-0.007608954932606696,-0.044409754174205396,0.07934997957411441,0.04194949023401137,-0.0028491600007706924,-0.009834497839192867,0.0765044422542073,-0.11707219826421235,-0.029987580487397438,-0.03886444854057856,0.03136965991480641,-0.01341504308877283,-0.018804971494155057,0.05124550971556901,-0.1312305202537075,0.19738589210834012,0.0444210273929263,0.19021501890517722,0.0502258614433591,0.22204941554407315,-0.016500202190873073,-0.047077891510505676,-0.018231891068339463,-0.03602720736523154,0.16678342138541769,-0.09495624842562317,-0.08105629327744591,0.12376802227737244,0.0563876244661336,0.12192470549551393],[0.17438327247434293,0.03310309109645731,-0.12045629008364957,0.0759867505454555,0.06341789412126937,-0.037407229231047605,0.012394839694757803,0.0359897207926568,-0.019095072991356186,-0.06774044556895781,0.19184969146324296,0.11332032004584909,0.12695190238824153,0.005945217418773775,0.030530675988337173,0.05775236298982209,-0.10763773863632019,0.018467366512098363,0.07615896526243773,0.037420894074052385,-0.006792518249572211,-0.03652760441235543,0.021422677403856796,0.13111601408698909,0.058659382358025904,0.024753902556262728,0.13036472335114954,-0.059691511367340175,0.029868904578354408,0.0439445264786693,0.05585853937148839,-0.06840209069801359,0.10507653214971814,0.056293877198327534,0.05644868611557084,0.06695791324045292,0.027389404584766665,-0.026440288818262006,0.034090287158535695,-0.01758438961476,0.06550590248213999,-0.3532505246849119,0.012598570580279453,-0.09572986581298598,0.01748809650944094,-0.046847402392703706,0.16983716605819574,0.01172715296530388,-0.006743670332485495,-0.005051679080200704,-0.007994110148774226,0.19419945875824202,-0.0002150628994906283,0.18567346066312773],[0.0025732487316375455,0.09733843254730015,-0.06439388930250274,0.10574936936546978,0.08840801887886622,-0.00482350755491479,0.03830122219149489,-0.017238112031378046,-0.003461365113206719,-0.06917638476298131,-0.12088808156425737,0.056860459296723585,0.07337031850221931,-0.02495828423965409,0.09332161079207744,-0.04843360219940966,-0.001629662559356752,0.05165599613835765,-0.0639835053177139,-0.05685814895993635,0.16241764494641403,0.13382235592185107,0.03320788406613346,0.07158661953827015,0.009963383861615955,0.0004348920638800196,0.04449460871639943,-0.008701735499783387,0.09289573477650678,0.012174233760568788,0.0007780448390710817,-0.15260078834859284,0.09938217408444924,-0.021622633994599582,-0.04253840411392277,0.001399555643490641,0.09456109385511355,0.10815569414971406,-0.030137556021953452,-0.004600024686331594,0.0261477867017629,0.2776115946381853,0.04310407196157468,0.08818901876054629,-0.07349492863078995,0.05507965920675982,0.1942742539071752,0.020885211136406363,-0.033105370856252515,-0.012068707563698046,-0.02359646771370862,0.09395033775964894,-0.055560663714431635,0.15501967118224932],[-0.21549172627851068,-0.38996750094276084,-0.033567447078094906,0.2815464367280276,-0.19592802635506051,0.13922131161338758,0.010949949062637028,-0.02823602130451282,0.07142327960742827,0.011078119797089012,0.4521662730361258,-0.13840964193786184,0.02275200820075307,-0.024824562211266322,-0.052030993207279684,0.24314379799180977,-0.051378069444559686,-0.08240612520818703,-0.01976158373254504,-0.002641211304458599,0.10742849405301466,-0.0060576094542300766,0.0005687381148662797,-0.005049421811081012,-0.039376881615633956,0.004164870572447176,-0.022959961319825344,-0.008363655140126495,-0.02153065626203477,-0.0005117313789165365,0.006972997612272721,0.002883073848263351,0.013232908790567354,-0.025580634559314253,0.06829487271839113,0.1110784585793826,0.09050999875369764,-0.11456297330668003,0.06508021744612108,-0.14257868256837547,-0.05225634184436999,-0.017657110572971854,0.07578765686436478,-0.13370730562779537,0.06592893696211802,0.05521283744010649,-0.031518793747732234,0.031399544295488656,0.2164869881606726,-0.008691665993192557,-0.01569957042826716,-0.09264902040254318,0.10050469167066113,-0.022069100964814594],[-0.006562264875526654,0.035005912264796636,0.04177069149636191,-0.0574642299519848,-0.05951452445705402,-0.023379059059158627,-0.09856800042787885,-0.08640027811177159,-0.10671253102865466,0.035007424319549965,0.031095742582828698,0.001402184807929098,0.18044204082115442,-0.06216681177613919,-0.11956954940255375,0.07527089131501995,-0.180499265886736,0.18098908693770321,-0.031042450369488897,0.04922798948537121,0.042492167146752136,0.10553749143900494,0.12952574508099898,0.03531881285555836,0.03888962924932575,0.08085018126057514,-0.09871137789131632,-0.04104472436332952,-0.04176951077313381,-0.03577989286716519,-0.07187801031867615,-0.04018952120730542,-0.17642899196176542,-0.010575612143968785,0.0022472015621193345,-0.01964791644018269,-0.11250103323843504,0.07465005215691531,0.011543685688339769,-0.13706601324132875,0.05450246644071466,-0.09348998173497576,0.039106456305660356,0.022000869715291405,-0.026766630121946355,0.11433435197695042,-0.06170434143455076,0.01444726423008536,0.055895404206476124,-0.12914428053577068,-0.27557027118331945,0.004829661801633597,0.049242839890271804,0.0027000121741511734],[-0.11025422872673284,-0.01037609610095297,0.05517457385413614,-0.021731403563364792,0.03236658695068192,0.20977143601823048,-0.02762717518665681,-0.04118126596745051,-0.12179770809595238,0.04682303745704917,0.0049392593070828866,-0.07212286190176756,-0.020825953458059678,-0.06530850323593863,-0.12611852683442035,-0.002021766192913878,-0.04144848332726475,-0.12359716622922898,0.028678481974461448,-0.04223564727667063,0.04856705802532554,-0.03464430931355297,-0.08923847891246113,-0.1367350655819024,0.11766965285540437,0.011701434852241782,0.09226357807858214,-0.009137335247975078,0.1121576152258801,-0.02342243155613209,0.10753290645709886,0.007392079910149148,0.04820678765539458,-0.030227634109649827,0.09600816710947117,0.08895248311133717,-0.01271405409708824,-0.004707661191302293,-0.07891002026111686,-0.04927619300509317,-0.0071605381918278125,0.06151639533097741,0.07530026040230459,-0.07265856172971763,-0.0017491298839442263,-0.034892298686327004,0.08104865283063595,-0.0022460746920950213,-0.08347046122123158,-0.06882251055560942,0.03142204829403828,0.08535672405853686,-0.018211605148449477,-0.004794435391957213],[-0.02907016322501099,-0.13577384909806026,0.10257259477128353,0.10336678517574605,0.00326981978677143,-0.06852653931919293,-0.011030099743751312,-0.06181130467698418,0.14097872365330458,-0.07387362847590032,0.08183424946112629,0.1071080171978688,0.0262199112853729,-0.02314536732864353,-0.06748822939511057,-0.12413737310355291,0.0401958308754817,0.0428395953203344,-0.09537995315130385,0.040195222420512086,-0.06876611800487,-0.04304622333785809,-0.02368733253316156,0.025098110993036063,-0.17328626661197338,-0.11634638940549705,-0.09469170514309017,0.03593266727604885,0.015132540325631967,0.0697674722996097,0.02827926791215339,-0.10849420415682771,0.025517084319849243,-0.017442081315979352,-0.0025517532850727813,0.12358925614103068,0.08806934738345229,0.13819291325611266,0.035442439801592736,0.07551215545520565,-0.18954121559010986,0.0058358698290712436,-0.0576758384897499,-0.13211987254892274,-0.038188764594526636,0.10875105772238454,-0.030400790154753134,-0.018331163592817213,0.12642062288568165,-0.014198843045252285,0.04258695560192234,-0.029378679381713093,-0.004820170378186356,0.01263153903534623],[-0.041959348819660174,-0.07001973960120447,0.0023224891807243266,-0.04080817888196393,-0.15087159764599783,0.09549136170467952,0.04211614079926307,0.08469217507212616,0.026748713357011695,0.24975524637990573,0.14794775327620746,-0.06772428961686201,0.012751151839336809,-0.060299090956947084,0.07073722964916038,0.09429075426142729,0.03585623855847127,-0.08850845114357112,-0.045175147881315394,-0.010898715701746718,0.010919228690000745,-0.08890235529098116,-0.08380100084794169,0.022860418234055945,-0.022456008598784532,-0.04691991317230738,-0.037305735171060186,-0.09758939492406847,-0.030559204158258038,0.002521628479836229,0.320910368870367,-0.20370968189548017,-0.1252400471334416,0.004071668537571695,0.04482127835271761,-0.0272005488691729,0.03510685192426477,0.07785648711989238,0.00721551113937943,0.07907735681582878,0.0711921666515189,0.17661692715405794,-0.08055318036488991,0.3727161941317761,-0.03845552399325689,0.046165870695217257,0.11299595142261223,0.07382826103801371,0.010385855312443844,-0.006982726109919138,0.07844386405365393,0.020270049420061116,0.08876894179982932,0.02906028801186136],[-0.11441173421072375,0.047881610436554395,-0.020670744716073407,-0.04011643100109035,-0.028570595401731517,-0.09735491465291225,-0.05419445163466787,0.01686897471615875,-0.037180798110597955,-0.11605969560362583,-0.05407774158986413,0.013056843022801927,-0.037016219931695495,0.013392442347510565,-0.06048580544273043,0.04013257346523778,0.018055475157941574,0.06849242102733635,-0.10348065068320896,-0.06681380654163518,0.04360281553180437,0.05780471975224225,0.09054729493990488,0.09442324721381813,0.17750594598950462,0.0583916202914631,0.05340970470884532,0.01757250017120221,-0.08244028784832598,-0.04345295439451315,-0.006388344135072318,-0.024075697220897935,0.1785843852200054,0.0872331697923888,0.024347451403150897,0.014047443450269644,0.01401174716707226,-0.0011030791253168084,-0.10412856729755711,0.05086918390509297,-0.15425355658757137,0.051882120605803564,0.17343878045603867,0.03727647646145315,0.055227298429662876,-0.0795302282679596,-0.0280468799869327,-0.029163208616622725,0.00833643146576033,-0.04955341076881132,0.17325688286182664,-0.0482673555244879,0.052175051452659396,-0.020778663043582012],[0.045207069714461,0.14250050705545186,-0.019296429078711222,-0.027068195608073598,-0.04922079786610194,0.07670211648169294,0.024339032338001602,-0.1616737074864158,-0.06380837035798671,-0.002858461861398008,-0.09121874259150563,-0.05237568768392958,0.028417426215533503,-0.119843205165655,0.09877286713299573,-0.14041468535797658,0.0009002868174669465,-0.10530899128741725,0.15458459136794428,0.02402243387681093,0.15977142446548406,0.025020388314888817,0.014953430041021482,0.12156947662424784,0.0789908042939322,0.013637222039128923,-0.05505217139035618,0.01790417048461947,-0.01509309246018914,0.039018582779115546,-0.07880820601208852,-0.03689593417075826,0.049208737526962,-0.0819631556411382,-0.08825773949584162,-0.0271835007711643,-0.05614196312231916,0.025824888208849074,0.13068598298176698,-0.056792310238662325,-0.041271472794701565,-0.11130020892197613,-0.12906589549044206,-0.17431728189867604,-0.010922673733719692,-0.013509823028805193,0.06676344304343865,-0.056152486668783676,0.05504923543187844,0.10937374003039169,0.059653330231497624,0.1654825767004853,0.05920253133314441,-0.08054661372049769],[-0.027115703946796403,0.06910048171993911,-0.08403471585457714,0.06918088515986161,0.13684887906888618,-0.06304462781111218,-0.009107225609254378,-0.03626032089664526,-0.021474561283053487,-0.013351331471837983,-0.03970704907833585,0.01849095454201349,-0.07635856141149652,0.07187538042307436,0.1512831255557806,0.17836112968073844,0.024470953224356676,0.08056764805436419,-0.054393886415608744,0.12997284011960514,0.08931059506066077,0.0933212963202187,0.018499737152508945,0.19071630089192457,-0.017780307561186755,-0.10078705274529344,-0.03016428936277622,-0.13937709562930828,-0.0880704842445624,-0.06509460195641852,-0.15656403239724498,0.07688394988543656,0.13258620345711633,0.1658551511849393,-0.06753846497646186,0.05171763915685787,0.0881629171190064,-0.00699415085757459,0.08165712164579571,0.07886913936765497,0.0788760256987111,-0.28106470674242423,0.03745694451028623,-0.09558211481441517,-0.11980247124974988,0.06370046223157196,-0.28031349521389404,-0.06109989696234799,-0.042700444012357196,-0.08720131816618323,0.18959462836626673,-0.007931448105864996,0.0638065051631606,0.062018165088869946],[0.10065064858935821,-0.018857365056417153,0.005475878003024,-0.11201589619688543,0.18501153453213776,0.0017287296573795224,-0.1231955975767104,0.0014367322095097117,0.06676897138792086,0.009879034347281521,0.009634120047607667,0.05921941000223622,0.0769463536470678,0.09515762679327731,0.0014806302513617408,0.11942566813262921,-0.049838027297784804,0.07251590543609157,0.028869163372391704,-0.06819468674382473,0.20569988058354305,0.05753304172476919,0.018186091071579997,0.0770563302858246,-0.03056497238130195,0.07897016251442143,-0.06697432198792284,0.0301978452805252,0.04491353873656136,-0.0036079373119028407,-0.1134105319701904,0.31213300980966485,-0.08336085633417165,0.06435470157157948,0.06179681082744687,-0.07973079375702541,0.11655355535051619,0.08705415579669432,0.018009948242049125,0.03372736633320263,-0.09966283485302935,0.21636424477141356,0.010767093703871126,0.06054208851428901,0.024695276850145317,-0.09282315741151939,-0.10977640886091702,-0.1676574737804543,0.09842711200991373,-0.057148367467493036,-0.06853242946325681,0.08821709603272078,0.025252108843981456,0.024888788935614106],[0.0618453625571339,0.039964704189068445,0.12102611122264624,-0.1416762254544283,-0.0884946738952118,0.10317676498076941,-0.026150307135098687,0.050428013915425736,-0.07141953704261149,0.019133411436884774,-0.019123008922001906,0.13458132235052234,0.05455590930132348,0.12393608337315751,-0.045289112584201124,0.07920056061853242,0.01691004416128376,0.14330158801445245,-0.15096492508641063,0.04209850429743106,-0.035326531885333926,-0.171542725119246,0.031806676425880136,-0.061873166471926436,-0.1586731850201667,-0.05402600621253736,-0.026310656295437593,0.03596984980731965,-0.06883792348360361,-0.1550213585510089,-0.08513482155633617,0.013155852841530568,-0.010745437838517629,0.0031859310970911415,0.05161619392479895,-0.022466764764080577,0.037649535457993,0.04303377447346074,0.009927942240720017,0.1381480941244394,0.08741044695842125,-0.0403383214000366,0.04733781667533381,-0.100902881175391,0.09025933418202571,-0.08233048647115337,-0.06928751074335178,-0.030799945277435733,-0.11413302627127707,0.13543924284658285,0.03266698336839447,-0.031795758935557285,0.023331873348102286,-0.033663158935012275],[0.131338285003041,0.014403379585699965,0.08327237521548048,0.04282139311779874,0.044330198157512365,-0.10372293116901397,0.03539488672694304,-0.10624749955856437,0.1723685252100935,-0.040341164608368146,0.11534972468782863,-0.01157210238160353,0.11930544938304583,-0.04166752809465822,-0.12253297947453058,-0.019179523918709585,-0.05591106690478476,-0.03410413989189052,0.0508235214071381,0.0018937419001819568,0.07724935326178513,-0.012435621960493708,0.08318064040945325,0.1259707540605535,0.050734534576068906,-0.05164935105453939,-0.03406046004545291,0.08289753767376533,0.019184499330439038,-0.04109110172567951,-0.07719796857322976,-0.007799573042391686,-0.01135093334797818,0.0777364767477127,-0.04832201308593626,0.05991254121625928,0.09998727895179861,0.021431931786313113,-0.031728221417374795,0.07251558200410489,0.04977748039165583,0.016532119911900043,-0.044090678801881535,0.17734823747708217,0.019877751365869736,-0.02682375058503602,0.17120150510847126,0.05034199476429228,-0.0653449735063976,-0.0748428957794597,0.02355760480724971,0.08732021380020101,-0.12485253102445226,-0.03807807532519001],[0.10244073007701167,-0.011002941080023433,-0.18803465446858886,0.0027632070730148634,-0.023174205849951807,-0.11121044489344621,0.01104537173105386,0.08236039990343098,-0.0225589027980068,0.0038097612406237744,-0.14872379153644763,0.030853940978245422,0.1108832674037196,-0.14456333930885906,-0.07618785673426055,-0.11015365878159061,-0.11321914541923196,-0.03175455480463295,-0.009898827520343219,-0.0235615344385893,-0.047551267672894124,-0.12673979395755813,0.010482391901946792,-0.1578444037980259,-0.06854274584073787,-0.12211372684939195,-0.001518354669912419,0.002263176507150026,-0.04783739206568743,0.11694239353570084,0.10460100171058354,0.0006958436635427955,0.013491031993007843,0.004207487292874287,0.07187760394607937,-0.0213992850535165,0.1447873667431952,-0.004034766705917587,-0.027921010485005088,0.07240478916353861,0.060541780064664305,-0.05372429841097377,-0.15526664336126797,0.012691418596487149,-0.031258176911027225,0.1376753692233686,0.03139901639988153,-0.009479559569321776,-0.0737748247894704,0.0004899465147672203,-0.034802299838034095,-0.00614960204755226,-0.11936893185043687,-0.0037596240994025518],[0.01977211694493509,0.12897936560731846,0.01668502891675191,-0.03103982418881957,-0.06150770296968796,0.023587056059163957,0.01275759449019931,-0.08690443765315593,0.11396287043399601,0.06283953424501833,-0.059646324755108136,0.0009677656155409285,-0.09484441253618842,0.01786679612470851,-0.023778255920774996,0.018433396935758642,0.0638841193358701,-0.09113181921058668,0.09402480344917791,-0.06406008401384763,-0.014903436465639004,0.013826244929956466,0.11969332264794164,0.03334402677226754,-0.02792663407853244,-0.294856586018288,0.08144015053528852,-0.03655354851834594,-0.021021668418598215,-0.09229817534474632,-0.09606561325689639,0.11974892770645702,0.0961033071343067,0.011503298027561603,0.030738745984696465,0.008768172497069467,-0.0009642045168963477,-0.05790401871808951,0.12165521323043697,-0.07108260800566732,-0.03433136441847335,0.0814126860673447,0.1476805354726309,-0.031393980390604086,-0.11760935210579247,-0.05016834003232832,0.10315339640775988,-0.04153646487517706,0.04340526328649444,-0.13138305498209624,0.1509565024067331,0.024553030704205864,-0.027728803452926148,-0.16294518077353456],[-0.23066141410235885,-0.08252253739797089,0.09982103422403184,0.022668125337870663,0.1293828144464714,0.003335298797975842,-0.04162763429843778,-0.11787873591689593,-0.01950703028449611,-0.011648275398270602,0.17907318597358163,-0.03029367853998649,0.12590508619238347,-0.09399183590946981,-0.06976233124259092,-0.13619349367262631,0.07967789927081774,0.06208005597696891,-0.001485122481808763,-0.022205816543550534,0.07081226631800448,-0.10205059248735492,0.020474035367525713,0.07194973914239146,-0.10226368280088746,-0.09099789479904516,0.11671602538226566,0.046149698220163536,0.14355349870655146,0.150835412381886,0.04223929546697174,-0.12397125295083745,-0.09371089276378716,-0.047697620133735165,-0.05823797925030549,0.08533278507359256,0.08883061547188163,-0.031222390187556653,0.0706236689991341,0.06640972022479677,-0.06033358382180165,0.008758684451165113,0.02058794461859938,0.005939078299264152,-0.08704337446059143,-0.03663260614076513,-0.06858687055773764,0.0061344924073698966,-0.07731037032797818,-0.10785261888660654,0.0826136572137419,0.08942953203982475,0.09236290586069061,0.04257867585701708],[0.004696582911077532,0.012799142146291598,0.00784908647189933,0.012054461772575662,0.09941522666199233,0.039189335029278106,0.03238945856926296,-0.023867891146315403,0.05166496239697598,-0.1666183468924691,-0.06629385761098186,0.1038954408178603,0.02083824530715525,0.09402511704219509,0.05969032951901189,0.1051297355701073,-0.058450616372135195,0.014357250957476954,0.07142538598779612,-0.1265852832242805,-0.04092387348256929,0.074301711814598,0.06629233510337473,0.07783916461238624,-0.07831416804521105,0.041249433714883814,0.08090119086397138,0.02233614455444772,0.10140898368744437,0.13403684841161673,0.07130488207506713,0.19208022083354168,0.02036418017400557,-0.10822713636582465,-0.1316376775904967,-0.015290697745726204,0.04581386984803273,0.0014023978566773039,-0.112630635839267,0.023228389257365593,0.0033174376089973004,-0.03953059627829055,0.019125717075755864,0.016997573880040463,0.06183226235397932,-0.16383841812148436,-0.019109818892326023,0.16052812990523735,-0.08376020099196202,-0.07309812184725584,-0.018465152993693525,-0.1414892042348547,0.0044476441807432664,0.015479066948506539],[0.13842513593603334,-0.04082425681638332,0.07468900204540772,-0.1395511837826964,0.0944136460082997,0.038854980394230486,-0.09588729295131462,-0.05577806964754079,0.014053766462500079,0.057502954864470934,0.12067320369512576,-0.11485991457520223,0.048576854508951495,0.009002992378923446,0.05033828153106419,0.10433312920480389,0.020247567129434912,-0.18430416579297773,-0.029030226976794193,0.13232105815250159,0.0038598641065892268,0.08752475881900065,-0.10077592057856596,0.058013342091085204,0.06552406573370882,0.06913852667896471,-0.006296108495828163,0.011618629620858661,0.01686148490454668,0.17217067625001845,-0.11713960565422281,0.04257293815473708,0.027793006777810363,-0.09451135542536299,-0.09349893533660934,0.03895324120109605,-0.05691887841581205,-0.04697726643780614,-0.014787117687975247,-0.01553722367418992,0.08023514631041878,0.05620154338062193,0.13615642003399786,0.02146169054091018,-0.07183599892894785,-0.03992157055330174,0.17722638624952514,0.04517470347329827,0.017339472482990774,0.19739934458282402,0.22238091161900536,0.09814036755994333,-0.12674164702835908,0.05860871600661468],[-0.05047617175403747,0.011159230852961305,0.0072189282196234075,-0.05736729484060879,-0.11551175432668896,0.017534153790397314,-0.09452927308875415,0.04733601007479981,0.0014039514762357087,0.04636113126531803,-0.1660973705364401,-0.06881424748733603,0.000034387751672011596,-0.04109105245487594,0.07356393760913846,0.01292755145613515,0.10926895769856626,0.11569763020461209,0.036407175431148804,0.04588534232558611,-0.04312633677530426,-0.0426493163111861,0.053896855005152906,-0.027823025357122264,0.032622532755982564,-0.07730227337624303,0.09013115094173872,-0.0020590084006962828,0.07372233003893962,-0.009782347290530015,-0.00817761384421301,-0.15944977137524105,0.08922259431863035,0.06818338631309169,-0.14884054886071152,-0.11709822081044774,-0.0013285100739622827,0.07820013500269085,-0.04244113594420516,-0.03506768578280637,0.1301847387055257,0.07638299812067227,0.05959648938893815,-0.020525845213015672,-0.061210971563455174,-0.09771389882552123,0.17852366301431177,0.05301086764635729,-0.12554978575163553,0.10751559390764101,0.06954569693067887,-0.03240295677458359,0.06773657368013906,-0.014107693517050142],[-0.11519847588394858,-0.033074462970544706,-0.06599218918856277,-0.025194893523377608,0.06754557593967764,0.09802176081817994,0.09350035411666233,-0.04942718105469521,-0.053263797575938014,-0.060897677523251724,0.03059279831468223,-0.028175760571710756,0.15784576548878157,-0.031051108879360127,0.11387500387757697,-0.1964047405255316,0.029867900547396783,0.11300969792192252,-0.08703115135480978,0.16088736362120235,-0.024624248607369455,-0.00622252051794268,-0.1295256574443596,-0.011232677736800343,0.10734483842684565,0.19393139742475626,0.07952303052495394,0.03969593153079686,0.16328824364615432,0.005536018596311523,0.14047483876377395,0.07754054767169721,0.2034333848026294,0.035674593154404445,-0.07243313864409226,0.09450704148651495,-0.21733642495800234,-0.000831588444786558,-0.0879570144414129,0.046503674797716735,-0.05592308846895129,-0.07547887320356847,0.038567848629273725,0.018044684544579602,0.08870928551220056,-0.062390114995178075,-0.03587694134232526,0.008702092885445918,-0.009624887412613893,0.04430370850105477,0.09982029438309235,0.00478715039725148,-0.01960130770418424,0.004902518992998942],[0.05444422955981867,-0.06905410396859113,-0.01838413024541115,0.053644206195148016,0.08055488017751139,0.09632780720944095,-0.09807384967871806,0.05061105929384308,0.015255415617766322,0.009542701902637596,-0.046278107251511824,0.05808661135119851,-0.03094740797152441,-0.05870553998926572,-0.09425765485926671,-0.04176692403897501,0.03962894707561867,-0.06210070248376415,-0.0632309697215187,-0.07396850259349558,-0.03481365914776993,-0.1171700092525467,-0.03959041752501087,0.080784449179267,0.08318220529932145,-0.083927040745009,-0.09151750395964442,-0.11559062886002888,-0.027850137958430388,-0.014098338615868572,-0.0033865072041523187,-0.14264918965111278,-0.08125262887083284,-0.003714008975082687,0.09523145694900446,-0.2275984431890326,-0.01523204802270261,-0.045011365718052,0.06999086832075917,-0.013646771516113496,-0.03962243161887664,-0.07424879894443294,-0.09620549725597903,0.048877896916910926,0.017820769121837887,-0.0623947906900947,0.06144930332571479,0.08986097684438717,-0.13609729626696274,0.15590290991033082,-0.09851038407030023,-0.05339544825378663,-0.004223553085959014,0.11523257921941832],[-0.04908697001263537,0.00779675911586573,-0.09635275081466746,-0.07810116877549288,-0.030820470267444677,0.04867370984614337,0.024083954528956827,0.08285674820375978,-0.05711344936385729,0.11666949131402139,0.11980608162539881,-0.027669824546635313,0.023679016956562805,0.13112494411441045,0.13349903056776383,-0.0033561856666903043,-0.016546554139596284,-0.016075262444385986,-0.03360515086979029,-0.06434201641782254,0.0015417829837155016,-0.04426732878105544,0.13561842291930298,-0.18475670376091807,-0.024379211431037377,-0.024357178224931483,-0.04364851794268269,-0.029520512987722937,-0.05123996304683749,-0.11842371749862535,0.13348925853361904,-0.00858372513622774,-0.09678379617455672,0.061010949514090994,-0.21258561352210337,0.11880836413206965,0.08556904139704428,0.02720604689360559,-0.0673263280306196,0.04612111947584711,-0.08312485745525078,0.14509171568557713,-0.016166828181034116,-0.09527607544935796,-0.08263638339327205,-0.015955880131025595,-0.06432356171661004,-0.12516399527147765,-0.03913060018224301,-0.030476120803986838,-0.09471996111059433,-0.0581344935811879,-0.06445462824713158,0.047112021878855506],[0.14665049190973437,-0.0863246491410796,-0.01900083902259355,0.03720158760646936,0.1267514105483714,0.0035550368101993557,0.09993331517042629,-0.07332129755101896,0.020882352203094597,0.028886505690750294,0.06943113058486837,0.07459657013709536,0.08797172642755499,-0.008174029333493074,0.01159151279085101,-0.031751085153186656,-0.13037764912697053,-0.025893447248149928,0.19734606078067143,-0.0777126599469184,-0.004074422314374579,0.028212843808424762,0.028945030539451157,-0.026956779301335845,0.0685599703648834,-0.05324502113393687,-0.05622691736344731,-0.0547191796220157,-0.022358529571428216,-0.10832668032997657,0.15501514297315946,0.0025080138374754253,-0.016535979154423078,0.014552470573263757,0.11211514852968583,0.09010018849935506,-0.060897778088728066,-0.01820684285503993,0.0044559994097975,0.09919742338411291,0.17649377964387608,0.07808036271952443,0.00896108987896945,0.09297350431052384,0.013904080652766042,-0.05957613366031196,0.07943352521060273,0.015949796992225103,-0.04938676955483158,0.018752628683976775,0.055567292265589124,0.060560621787730536,0.0108024348910474,0.012186776419855301],[-0.06686590973326345,0.12145516792913812,0.06324255817453901,-0.15764672235754745,-0.03691105857870845,-0.024757493579522224,0.06364161939955212,0.0642929761964726,-0.03198731644919515,-0.008863323983557582,0.13668785208874867,-0.035495102547332374,-0.10354367192061416,-0.0478935951479802,-0.027870728627072062,0.027153562214594407,0.05170360546018903,0.018468968051146607,0.0740864156931819,0.11737518416919897,0.13455013777908886,-0.01600480741060234,-0.017404458618625853,0.01978847864293232,0.08610516184751042,0.05291428163206304,0.09723494587733116,-0.0379508058053944,0.09140361052494896,-0.015073783266461097,-0.10564365106452679,0.11794748379781202,-0.08121301649335792,-0.10982168214704395,-0.04677230760568894,0.17360254244990003,0.08270754842686198,-0.008386433101139136,0.01516578001192735,0.23587015440321968,0.02392621448070111,-0.2451370026475284,0.08680696727974925,0.015354827518797815,-0.08207132651641508,0.1386427347748947,-0.03364738171326239,0.020431614288670557,-0.026181638067458025,-0.09205863306589565,-0.069892428722333,-0.010869480483852336,-0.04579066362455658,-0.001090004352888136],[-0.1081003070039562,-0.05926493510172823,-0.004199559759475008,0.05880893928989792,0.03153331486949447,-0.0042777535230848086,0.020308390572115597,-0.1908832581009565,0.11664741296758775,-0.01772785832638715,-0.03365771039596855,0.04985814504083312,-0.016091998855845613,-0.07540015410460198,-0.10606307637710286,0.0017083397089819906,-0.00788298766172023,-0.0541598397169069,0.08050404437001148,-0.028018576619087042,-0.017914642459842915,0.11497205203189621,-0.0660400510670447,-0.07545752768563738,-0.05515055154281492,0.13278153460575584,-0.1292260116448547,0.02270782234491677,0.0303100808554695,0.17201771576238456,-0.010209272013192853,-0.05612002826625774,-0.050491229659005606,-0.029499925928216764,0.1728690275348432,-0.13196594657092495,0.03268848113811146,-0.003348074162256179,-0.05959913261896908,-0.04818916951154852,-0.13327523744274705,0.016803880627767494,-0.13118981299469334,-0.030551307603132953,-0.051806131448698785,0.03514871384887038,-0.009503027292771325,0.000497811173362854,0.052086147201453485,-0.06101742196674158,0.062471822657712325,-0.07190119483032577,0.00859286416705204,0.0015095710681669655],[-0.041647418071523674,-0.01884899723154972,0.006789308129075791,0.007182642459128366,-0.10520469461400875,-0.008957615121451601,0.02078452577616327,-0.0631606402823021,-0.007779563159126148,-0.14615737362561462,-0.06503739521816848,-0.1390566907441432,-0.044254819478858204,-0.057072067462705996,-0.09269173973266152,-0.16295870571271762,-0.10467121515645868,-0.035388038058472494,0.12425607085124281,-0.012933927646317714,-0.10044833571319849,-0.06508900895855815,0.053013007839886446,0.13254668502549688,-0.05235782199621443,-0.04748593106591726,-0.03268800978171447,0.05617562989198758,-0.01824108446570235,0.013823194509220512,0.07108907525736274,0.2390996707790784,0.05151280194727458,0.02571236873027439,-0.13100210788231553,0.1330123658933206,-0.038761317507374736,0.07142896765168671,0.03065341670101635,0.019747968568277537,-0.05437796847875508,-0.014778087954160137,-0.052670861672629514,0.01352732531191057,0.03976065557874419,-0.05930682006702592,0.072330503952938,-0.0218359783603844,0.002193072010212561,-0.16531975690261644,-0.04095653200684344,0.08754595942174737,-0.04956226140111425,0.10424281397868537],[0.10294229420885652,0.0728129491887796,0.04432771195272296,-0.0826862123252583,-0.0170386811438213,-0.04443329778316503,0.05270385778050527,-0.05825774509428315,-0.04839984329466879,0.010445074008282706,-0.00496852496656998,0.002493965979733569,0.14707519889928944,-0.0946128007687391,-0.06606404526097098,0.15516132666584817,-0.03906075554697945,-0.028013646307825657,0.028660314766047756,0.022545026133004194,-0.046132689591663535,-0.048890463661199486,0.043711062530748246,0.07594105551989624,0.07599766319670959,-0.013660232229353688,0.07108062546210235,0.021934961136433083,-0.013341138494158192,0.022745806228067877,-0.03841627333853447,-0.08333315235548504,0.006076548639122836,-0.0400570797428003,-0.0728552623975701,0.06334291070217236,0.053792031510350446,-0.12141831612163759,-0.06284079382950453,-0.11248352081132962,-0.05032327853914308,0.06860685355823301,-0.16183745821857148,-0.07865217787828939,-0.08927115517938305,-0.0005888565743333279,-0.07156138346256131,-0.10608570920650431,0.06249247537843423,0.11433452893035752,-0.033093211486688597,0.13033840938845354,-0.13612158005200342,0.048488813178318865],[-0.4620291751614923,-0.8390328700698664,-0.014587469086640568,0.18323981124040384,-0.42545221601517336,0.07740277849323753,0.052363742562808346,0.1237273896435849,-0.09051510900193778,0.060530605133497874,0.22365126560412965,0.05224628299872599,0.03312552458432067,0.03201290887061193,0.026129888329875887,0.7789213722044637,-0.10780379883371533,0.12015582745400946,-0.027272777374548512,0.05031528671232074,0.014031911615121143,0.05592894484204725,0.05843574340982811,0.07387031424579477,0.042077100547548915,0.007519614829141062,0.0032777542707592847,0.011216061431776942,-0.006182297968600599,0.014736846118972618,0.02362186791554925,-0.04456130173759733,-0.0547675547627614,0.03437554855326919,-0.09678073900563836,0.13982082030269752,-0.053002926094091615,-0.03551158536831805,0.09414128145843206,0.011701523472351356,0.1962416603172603,-0.009833473630819232,-0.026937634854366108,-0.11303422955900119,-0.06470577943046811,0.06680402702065952,0.008413440971001909,-0.10971185022852752,0.01959198431752968,-0.017817895721752745,0.07976438616338949,-0.08521131908044183,-0.05561240339303482,0.0005658180951425982],[0.011346477203011901,-0.01694614976228277,0.10738344370130502,0.08914168458116335,-0.07275879322122912,-0.010024746010916368,0.05974996318574633,-0.05724571623745056,-0.06514870491825445,-0.011114994986339267,0.13368987245380812,0.1677286091796184,0.09698877433258006,0.0639109065497957,0.06030712872329633,0.012865136691175718,-0.025324560200227924,0.2115071489935944,0.0051166598303148195,-0.07363777405705123,-0.015187633307168337,-0.0029494944376965634,0.1336066103881767,-0.03930704766696312,0.01157710382686982,0.15898982877150528,0.020490638177392287,-0.17398075959340553,0.08207037311615278,-0.05560542221358196,-0.060381812116987704,0.08233149112874937,-0.016861810447657853,0.0012594710557257169,0.041241458653210314,-0.018262850595500917,0.12671246532363167,0.1864185787306367,0.07090670277868823,0.12127472852505583,-0.005741383839117323,-0.016486331464999095,0.11579867775574894,0.14241509165998423,0.07844800814054662,-0.01211272355879899,0.24042708300194496,-0.09602036221791675,0.1652277325987653,-0.0378300609976132,-0.04268315112805617,-0.007562256120802552,-0.13093813535282528,-0.14310114854543163],[-0.15781227297293318,0.026729725504943392,-0.008542788056235647,0.045478292828890786,-0.018191307633874977,0.029614576236274826,0.11851212715781166,0.10250791604441821,-0.030535938269617417,0.14238282755410314,0.06200122066998099,0.033460181171788436,-0.04015154449377397,0.13323388928733357,0.04693344639596707,0.04624487432159771,0.1142882916513164,0.03943559858160659,-0.042887533241345775,-0.1442064643965006,-0.05320852861899084,-0.09628636042662171,0.04540945717552245,-0.016300917375326414,0.0000022086831736488793,0.027335578253700206,-0.1662664470140513,0.015097634641055187,-0.03497270821019335,0.14686293355418625,-0.05611600043487093,0.01765844295106065,0.06765989873790747,-0.020653138947411012,0.02384152721862167,-0.10549652336498765,0.030084502768860766,-0.012747911523650362,0.061404920236692515,0.10541427913669855,0.021253718383285287,0.021307456416585168,-0.10676489781220608,-0.04566385242902807,0.04076349413546935,0.02354112573697646,0.3100703163171806,0.0070100599834512995,0.1270107862005328,0.03791984617964992,0.11802807451657263,0.04137762820273242,-0.021298582189682558,-0.0932046302984855],[-0.02807602817240177,0.11791388663246806,0.10572728704747966,-0.08569862660934348,0.05953778552979678,-0.0046412154939956506,-0.025709262296027997,0.09409261170685762,0.09776114629109793,0.05386739752370418,-0.02041033015052014,-0.01769039702295945,-0.027399674818640515,-0.013767523651748397,0.08802581444385503,-0.027501585876966328,-0.08094301903185531,0.0820053179147216,-0.06919430880797572,-0.01946388173932709,-0.03277777996657747,-0.029166741146882544,-0.08044565325802386,-0.03514809491097834,-0.04863478849157062,-0.005546762673537651,0.10917174650162602,-0.06524673503796985,0.02017042553553705,-0.05973473373851734,0.09088246281299688,0.04878605822085095,-0.09293516602941411,0.015636711497764556,0.13645803424830624,0.04122523716929588,-0.063356129289842,0.008983873355260233,-0.06968029788271786,0.026161093176471816,0.06387758631563474,0.07775492241191556,0.10472731699991672,-0.02380070976282797,0.20476361450029124,-0.07659512918553202,-0.030265636066645885,0.11515345690900596,0.03710920609309773,0.0033347355125032023,0.03449377918244863,-0.015890159140717265,-0.021952946183587563,0.02691710431286665],[-0.03247228894635089,-0.06283678635310284,-0.01870518771340873,0.06771417354416503,-0.15273735018107412,0.010561597575913082,0.007480979768890984,0.026568921318708475,-0.07877455426051866,-0.018830633435375797,-0.03616325531765132,0.03254830711618959,-0.009841328651348175,0.14088853385418731,-0.03208526821339305,0.09005520542048003,-0.11453031595929221,-0.011801535390731541,0.09867274903400854,-0.12819415354055752,-0.08452187303597339,0.10131165515587419,0.0892191310697857,0.04623465043913201,-0.16031745526259997,-0.038122284592226365,0.04912850885548706,-0.007127787297847305,0.06879842269453011,0.07819267705284069,0.0347305861049822,-0.027712621645711425,-0.0698803701126266,0.14468556235003782,-0.03664592875951438,-0.009691936733445506,0.16365161026704955,0.0765271054634232,-0.040624118548528175,0.008442698461146451,-0.10483974687258088,0.028808992719431954,0.03263068846727596,0.05788798285304254,-0.08686723655358292,-0.11592967089324883,0.11670258418952585,-0.10134686291520995,0.031054767615061592,-0.0008687804099847469,0.07061360477480087,0.10453369601626691,0.026225936802177066,0.06649001145747865],[0.017151060304789738,0.05474254713057567,-0.15549660917024813,0.194629109405329,-0.05562480511606421,-0.124582827996785,0.01926754716116106,0.19869686591405983,0.039065097232084296,0.08183226236703632,0.09237466454496437,-0.03352454953681987,0.19999878825320258,0.04405898053532915,0.13573693955148142,-0.06836757162539438,-0.06254995437413523,0.05154419082192895,-0.20870723131490476,-0.08696943608164202,-0.065780820399088,-0.041309554683288334,-0.13107407720485528,-0.032978617657093194,-0.027801888974522494,-0.11317311476194622,0.0378754656045066,0.06735439253221114,0.0073870337902768955,0.07997151607252578,-0.09769442014300576,0.012906834006687965,0.02562183167413084,-0.07399813563321042,-0.031547344881481545,-0.09937631067114296,-0.050134600821669824,-0.005996609616790385,0.002037831449541393,-0.05103719721976021,-0.03691931881834616,-0.050341671006942305,0.029871435201010148,0.02587970522462271,0.05635690216811016,-0.08430243769517148,-0.021099178699053343,0.020362158937703982,-0.24136610275826578,0.04034228859724076,0.13860418847590747,0.058902029274335015,-0.17857731605563426,0.015950873192852547],[0.047888975921328965,-0.1720249035897193,0.025333777461150092,-0.019732352965436722,0.06358800737804456,-0.009896975055238698,-0.07484160301055433,-0.010717187115657893,-0.09204559084958312,-0.02750423806136566,0.1788390797150781,0.20749018138362646,-0.03401148517818562,0.04233317462383666,0.07397432805544661,-0.13046502613047514,-0.07429303262630178,0.024152788245995392,0.010175568715444453,0.023249841702411733,0.12440201130765148,-0.116068986863182,0.12716330679872828,-0.06698122900436364,-0.04718959512185445,0.015955781842472105,-0.08993559759734142,0.0007334089303260144,-0.05444826939294249,-0.05422830664520678,0.10135526126860933,-0.008681309031511115,0.1067271816275782,-0.01298596954000334,0.07324938894020135,0.023275463014113578,0.050583320919630824,-0.013729127236143862,0.09282970976254536,0.0007959173587278647,-0.10173534597059239,-0.08076517921817666,0.10862473386463366,-0.011315971490954672,0.022246110414438997,0.01958716415587983,0.057209282446050135,-0.02490049256819295,0.02568488396456187,0.10682765002213723,0.024973458729494632,0.02036986432894946,0.03860923612759769,0.12457722765574557],[0.0865085158177146,0.014883388690799111,-0.14414820742547715,-0.06178244712280374,0.009529620903887563,-0.12291284684264456,0.07279082598662888,-0.02632444343622491,0.02910639432311828,-0.021656025849341776,0.12132329504676988,-0.06884956494522815,0.06922798478510024,0.07692860129929713,-0.1293684936929754,0.06283333549415748,-0.03925556818023716,-0.010261513372324359,-0.10094471887841176,-0.019258166437694207,0.10139936332484274,0.049077901477379206,0.02923929269185008,0.018586819001111407,-0.03560466475485954,-0.16597436176495628,-0.015408806501703235,-0.06389588287678513,0.03276517885366279,0.05060816988297617,-0.10493144419929289,0.03920452831096945,0.022778991063933853,-0.060556275299247696,-0.05270811365906601,0.06036182842476758,-0.1694221795200586,-0.03570053541497082,0.1811378976054686,-0.03409413226993241,-0.0955331394115832,0.009297425166818597,-0.018781009708321413,-0.0347293134267904,-0.11225263581567019,-0.024816458047420283,-0.01639297287859396,-0.04056027229733102,-0.04103849748870098,0.015499647156102773,-0.003633955981736525,0.009691499003062348,0.035737597935731356,0.0513497056758598],[-0.14059529640721274,-0.0603262330075872,-0.02598847932216278,-0.05401899958379856,0.06973676853016891,0.05722256408547379,-0.05673725986468858,0.0752308404619065,0.044097668844080284,0.21488438919525346,-0.11304172364092988,-0.08021015334650297,-0.15875392446050557,