{"layers": [{"weights": [[-0.00994687620550394, -0.013930841349065304, 0.01428938563913107, -0.06708195805549622, -0.05132840573787689, -0.16823576390743256, 0.07991129904985428, -0.006339150480926037, -0.05954622104763985, 0.025045227259397507, 0.039526909589767456, -0.06299556791782379, 0.0058831218630075455, -0.050575971603393555, -0.07787303626537323, 0.0860925018787384, -0.029511013999581337, 0.03609471023082733, 0.05439957231283188, -0.021007418632507324, -0.008464368991553783, -0.018203716725111008, 0.02899961546063423, 0.004576096776872873, 0.07070795446634293, -0.01336574088782072, 0.02328198216855526, 0.11832365393638611, 0.09016958624124527, -0.037050407379865646, -0.19811752438545227, -0.0917091816663742, 0.152782142162323, 0.12387063354253769, 0.01994062028825283, 0.09213491529226303, 0.008797256276011467, 0.003312780288979411, -0.018404565751552582, 0.060801055282354355, -0.013452847488224506, 0.3254636228084564, -0.1882830709218979, -0.6767580509185791, -0.025755854323506355, -0.05035635456442833, -0.2805216908454895, 0.17935854196548462, 0.0694955587387085, -0.04622887074947357, 0.1435147374868393, 0.05080515518784523, -0.10978096723556519, -0.09520161151885986], [-0.003725059563294053, 0.09699993580579758, 0.04338160157203674, -0.07785512506961823, -0.005128728691488504, 0.026122692972421646, 0.11425887793302536, -0.011070621199905872, 0.07269064337015152, 0.21991805732250214, 0.039309095591306686, 0.083304762840271, 0.03853940591216087, 0.02381776086986065, -0.013388756662607193, 0.09366978704929352, 0.11586721986532211, 0.12004204839468002, -0.05379752442240715, 0.012510250322520733, 0.11931175738573074, -0.00976791325956583, -0.0662551298737526, 0.02156386524438858, 0.1132010966539383, 0.01385334599763155, -0.10069186985492706, 0.06559455394744873, 0.05601344630122185, 0.028112169355154037, 0.22558312118053436, -0.07471174001693726, 0.19531360268592834, 0.22460313141345978, -0.02728274278342724, 0.03067188896238804, -0.10799888521432877, 0.022804437205195427, -0.013481994159519672, -0.028137771412730217, 0.137907475233078, -0.3511449694633484, -0.04480944201350212, -0.17581462860107422, 0.005953280720859766, 0.17264577746391296, -0.14594781398773193, 0.03877321258187294, -0.024719245731830597, 0.022732526063919067, -0.004467303864657879, -0.05683781951665878, -0.18901729583740234, -0.11045404523611069], [0.05597401410341263, -0.061739481985569, 0.062056396156549454, -0.010083730332553387, -0.02933783270418644, -0.048940062522888184, -0.026111673563718796, 0.08225641399621964, -0.11614543199539185, 0.06427051872015, -0.06454171985387802, -0.04428868368268013, -0.13499966263771057, -0.08384157717227936, 0.03951369971036911, 0.02199629321694374, -0.055837370455265045, 0.018179234117269516, 0.05768470838665962, 0.15915417671203613, 0.028182294219732285, 0.024293050169944763, 0.006730697117745876, 0.038958508521318436, -0.08526966720819473, -0.012436488643288612, -0.09223133325576782, -0.04167823866009712, -0.06329650431871414, -0.04340791702270508, -0.03384910896420479, 0.17631593346595764, -0.005515286233276129, 0.0327783077955246, 0.0009572720737196505, 0.0011788553092628717, -0.07981447130441666, 0.03609808534383774, -0.11818051338195801, 0.09421940892934799, -0.049355100840330124, 0.010375265963375568, 0.09303076565265656, -0.010937250219285488, 0.019818900153040886, 0.10256124287843704, 0.022076454013586044, -0.030337221920490265, -0.03409606218338013, 0.04473358765244484, -0.057680532336235046, -0.09012973308563232, 0.07032140344381332, 0.010490893386304379], [0.0077771940268576145, 0.04409535974264145, -0.0006160786142572761, 0.03131828084588051, -0.11348986625671387, -0.0413343645632267, -0.0268439669162035, 0.1039833351969719, 0.04009870067238808, 0.016648078337311745, 0.01162446103990078, 0.03150094673037529, -0.030315876007080078, 0.043952666223049164, 0.0596793107688427, 0.029359426349401474, -0.0701439157128334, 0.05522383004426956, 0.0228488277643919, -0.01861708052456379, 0.014455151744186878, 0.09420933574438095, 0.05156233161687851, 0.06256914883852005, 0.10383281111717224, -0.03653198853135109, 0.1118091568350792, 0.07731104642152786, 0.04732535779476166, 0.12689630687236786, -0.13592976331710815, -0.0899837538599968, -0.00903709139674902, -0.13000105321407318, 0.04043843224644661, -0.04608355090022087, -0.08285228163003922, 0.23501785099506378, 0.07118198275566101, 0.04047362506389618, 0.016143571585416794, 0.2996886372566223, 0.056719161570072174, 0.7002518773078918, -0.13854826986789703, -0.014018062502145767, -0.37841475009918213, -0.01858634129166603, 0.20145183801651, -0.20263169705867767, -0.06716673821210861, 0.06634794175624847, -0.03237414360046387, -0.028859779238700867], [-0.06587063521146774, -0.03029545024037361, -0.014247224666178226, 0.02418753318488598, 0.021518690511584282, -0.00434964569285512, -0.08938050270080566, -0.05335434526205063, 0.12699975073337555, -0.03907807916402817, -0.045635003596544266, -0.1343485563993454, 0.04358457028865814, -0.009105518460273743, -0.010964350774884224, 0.11917656660079956, 0.07271198183298111, -0.08697129786014557, -0.10820188373327255, -0.09254501014947891, -0.13628730177879333, -0.019305022433400154, -0.00033928442280739546, -0.021125657483935356, -0.023267127573490143, 0.17881610989570618, -0.053933728486299515, -0.06134222820401192, 0.002224961994215846, 0.1043429747223854, 0.20901302993297577, -0.045421771705150604, 0.006963555235415697, 0.012048534117639065, -0.09538347274065018, -0.028987079858779907, -0.012756130658090115, 0.15115126967430115, -0.0791458934545517, -0.08907727152109146, -0.03410258889198303, 0.0046288142912089825, 0.13063699007034302, 0.15816810727119446, 0.09288468956947327, 0.05993760749697685, 0.06197463721036911, 0.09232442080974579, -0.04776711016893387, 0.1807350516319275, 0.03933899477124214, -0.1579131931066513, -0.03421498462557793, 0.026567596942186356], [0.059706561267375946, 0.19444487988948822, 0.045451726764440536, 0.04320499673485756, -0.0805637538433075, 0.13335251808166504, -0.007339825388044119, -0.04393292963504791, 0.028148051351308823, 0.2081587165594101, -0.033566467463970184, -0.009750320576131344, -0.04663853347301483, 0.12141438573598862, 0.10252930968999863, -0.10304880142211914, 0.09325893968343735, -0.14836634695529938, -0.004551863297820091, -0.016103949397802353, -0.01775105856359005, -0.050084978342056274, -0.004573169630020857, -0.030659697949886322, 0.023535294458270073, 0.001655771629884839, -0.11131961643695831, -0.08364704996347427, -0.03327399864792824, -0.030240515246987343, 0.3102515935897827, 0.0924547016620636, -0.16803349554538727, -0.117287777364254, -0.015471930615603924, 0.05354679748415947, -0.02061736397445202, 0.13186311721801758, -0.026730094105005264, 0.05157293379306793, 0.08279944211244583, 0.0788339152932167, -0.08414455503225327, -0.24020123481750488, -0.1064079999923706, 0.06773991137742996, -0.11273165792226791, -0.03730770945549011, -0.005690772086381912, 0.11941997706890106, -0.005324678495526314, -0.10203439742326736, 0.0147161353379488, 0.028855228796601295], [-0.24985432624816895, -0.023390531539916992, -0.10288333892822266, -0.025494728237390518, -0.02091134525835514, 0.02630431205034256, -0.04007980599999428, -0.027571577578783035, 0.0015074419789016247, -0.053414568305015564, -0.10981382429599762, 0.05034467205405235, 0.06427408754825592, 0.04589054733514786, 0.08312277495861053, 0.004710769280791283, 0.022058164700865746, -0.02831057645380497, -0.09172900766134262, -0.0813433900475502, -0.00023324304493144155, -0.031086303293704987, -0.028051400557160378, -0.09453967213630676, -0.08959203213453293, -0.03263841196894646, 0.00477691600099206, 0.10297900438308716, -0.054696161299943924, 0.1144186332821846, -0.07102504372596741, -0.08687563240528107, -0.04590187221765518, 0.07369345426559448, -0.04047410935163498, 0.23196189105510712, -0.04872942343354225, 0.16197273135185242, 0.22770333290100098, -0.06877252459526062, -0.09498281031847, 0.06532575190067291, -0.1250416338443756, 0.03540497645735741, -0.05667096748948097, 0.030251283198595047, -0.046715665608644485, -0.06512521207332611, -0.07289078086614609, -0.11855389177799225, 0.1128280758857727, 0.04537123441696167, 0.11052694171667099, -0.009857147932052612], [-0.06213843449950218, 0.10910222679376602, 0.1008826270699501, -0.03447766602039337, 0.01803567074239254, 0.046526193618774414, -0.13262954354286194, -0.11082728952169418, 0.03321637585759163, 0.09638327360153198, 0.1861651986837387, -0.07069622725248337, 0.009158574976027012, -0.02731296978890896, -0.0014170168433338404, 0.19543972611427307, 0.10685041546821594, -0.02042570896446705, 0.06582139432430267, -0.1968303769826889, 0.11246637254953384, 0.08340565115213394, 0.01168008241802454, -0.02792554534971714, 0.02316569723188877, 0.1510550081729889, 0.011219514533877373, 0.17312249541282654, 0.15680727362632751, -0.11638430505990982, -0.06508050113916397, -0.18534094095230103, 0.2414279580116272, -0.11733527481555939, 0.013790678232908249, 0.1721317321062088, -0.014546201564371586, -0.05595870316028595, 0.0030512765515595675, -0.030984701588749886, -0.08987616002559662, 0.06204366311430931, 0.117835134267807, 0.3059084117412567, 0.042964186519384384, -0.05885009095072746, 0.1266724318265915, 0.05859525874257088, -0.013207999058067799, 0.10717403888702393, 0.09039974212646484, 0.12760761380195618, 0.0004030695417895913, 0.07861138135194778], [-0.03812193125486374, 0.03820165619254112, -7.414856099785538e-06, 7.584028935525566e-05, -0.03267526254057884, -4.670596536016092e-05, -0.1105835884809494, -0.015720413997769356, -0.05955653265118599, -0.05961587652564049, 0.0002681459882296622, 0.02246655523777008, -0.02235393412411213, -0.08347850292921066, -0.08358275145292282, -0.00016555293404962867, -0.1011003628373146, -0.05737707391381264, -0.057323504239320755, -0.057323284447193146, 6.212866719579324e-05, 0.015652962028980255, 0.01564706116914749, 0.015656208619475365, 0.01558248046785593, 0.00021402601851150393, 0.05753200501203537, 0.057533808052539825, 0.05751269310712814, 0.05748441070318222, 0.005558458622545004, -0.04345441609621048, 0.1275990903377533, 0.03214912489056587, 0.0522143691778183, -0.00804197695106268, -0.06541790068149567, 0.04133234918117523, 0.03987627848982811, -0.07837342470884323, -0.017076149582862854, 0.5175678730010986, -0.08484221994876862, -0.5082624554634094, 0.04068247228860855, -0.13804815709590912, -0.03481815382838249, -0.10241468995809555, -0.05519217252731323, 0.03916081786155701, 0.02741112932562828, -0.13442745804786682, -0.07398788630962372, -0.048871852457523346], [-0.16046351194381714, 0.047946520149707794, -0.10011754930019379, 0.03183186799287796, -0.017285181209445, 0.005287536419928074, 0.01283714734017849, 0.02380554936826229, -0.007962512783706188, 0.13882499933242798, -0.028322957456111908, -0.08517718315124512, 0.033020634204149246, -0.04251541197299957, 0.03647201508283615, -0.041682206094264984, -0.04479026421904564, 0.016052689403295517, 0.05469780042767525, 0.03234177455306053, -0.017877472564578056, -0.09229320287704468, 0.04793442413210869, 0.10787849873304367, 0.045973218977451324, 0.12305009365081787, -0.016430793330073357, 0.011728903278708458, -0.08394382148981094, -0.0532461516559124, -0.0804828479886055, 0.08751245588064194, 0.09459538757801056, 0.06819789111614227, 0.011468025855720043, -0.09064552932977676, 0.03693753853440285, 0.1489783376455307, 0.08727546036243439, -0.011543141677975655, -0.04837033525109291, -0.04787951335310936, -0.01324075274169445, -0.25571408867836, 0.0651346817612648, -0.11853808909654617, 0.2838060259819031, 0.11603571474552155, -0.16137073934078217, 0.07974821329116821, -0.038108985871076584, -0.04753172770142555, 0.11461947858333588, 0.03492468222975731], [-0.04550314322113991, -0.16861256957054138, -0.0024225579109042883, -0.07735008001327515, -0.11548706144094467, 0.02308189496397972, 0.050094686448574066, 0.0346066951751709, -0.02730385586619377, 0.1340511590242386, -0.08694145828485489, -0.2706153988838196, -0.11572794616222382, 0.052239544689655304, -0.051682502031326294, 0.07815098017454147, -0.1122615709900856, 0.13903291523456573, -0.01726568304002285, -0.01709221489727497, 0.016144538298249245, -0.000670304405502975, 0.031785935163497925, -0.058477550745010376, -0.06607726216316223, 0.10316940397024155, -0.06418900936841965, -0.03126700967550278, 0.1191953644156456, -0.06414400041103363, 0.06756733357906342, -0.14767414331436157, 0.1074727401137352, -0.02106587216258049, -0.0629400983452797, -0.043959181755781174, 0.049347810447216034, 0.04364938288927078, -0.1075444445014, -0.030630938708782196, -0.022845033556222916, 0.25985923409461975, 0.0225085336714983, 0.53508061170578, -0.17570389807224274, -0.11397378891706467, 0.13531146943569183, 0.1473509818315506, -0.053142763674259186, 0.005921545904129744, 0.013575092889368534, 0.24971888959407806, -0.019995026290416718, 0.01780773140490055], [-0.08872620761394501, 0.06705170124769211, 0.05008411407470703, 0.008963732980191708, -0.0385936014354229, 0.058344919234514236, 0.000790064805187285, 0.020602187141776085, 0.04743406921625137, 0.003900161013007164, 0.03129822015762329, 0.00878220610320568, 0.01026646513491869, 0.0025245987344533205, -0.02834678255021572, 0.055696871131658554, -0.029486969113349915, 0.09079866856336594, 0.029778743162751198, -0.008562243543565273, -0.005692916922271252, 0.12582279741764069, 0.16036413609981537, 0.004461389966309071, 0.03853604197502136, 0.005453138612210751, 0.07510865479707718, 0.027682460844516754, -0.0016144260298460722, -0.14200463891029358, 0.01789599284529686, -0.0799371749162674, 0.19983142614364624, 0.04141690582036972, 0.10752113163471222, 0.0326545275747776, 0.0654686912894249, 0.009326375089585781, 0.025801358744502068, -0.1061796322464943, 0.009497350081801414, -0.0146615756675601, -0.07301642000675201, 0.24204611778259277, -0.030940968543291092, -0.048049069941043854, -0.20305998623371124, -0.04575073719024658, 0.07828813046216965, -0.0950983464717865, 0.01503948587924242, 0.16675452888011932, -0.03279435262084007, -0.00027065142057836056], [0.056876614689826965, -0.024518687278032303, -0.022467629984021187, 0.04047447443008423, 0.0320219062268734, -0.03810040280222893, 0.03260558843612671, 0.0008981198770925403, 0.0359211340546608, 0.012672088108956814, -0.015220064669847488, -0.05904502794146538, 0.1634409874677658, -0.03032633103430271, -0.030299227684736252, 0.1180700734257698, -0.05313410237431526, -0.003014266025274992, 0.06444373726844788, -0.014167197979986668, -0.05981545150279999, -0.06725431233644485, 0.0028255281504243612, -0.12313947081565857, -0.017764026299118996, -0.017908187583088875, -0.04528610408306122, -0.030364472419023514, -0.09030575305223465, -0.04566561058163643, -0.06545532494783401, 0.1823999136686325, -0.1658782660961151, 0.009722964838147163, -0.10968328267335892, 0.09469438344240189, -0.10051760822534561, 0.1315239667892456, 0.038116615265607834, -0.15476271510124207, 0.024406185373663902, 0.19864042103290558, -0.011308984830975533, 0.20030577480793, 0.05561050772666931, 0.06878526508808136, -0.2432180792093277, 0.0501069501042366, 0.01574932597577572, 0.1931471824645996, 0.08244110643863678, -0.0267874076962471, 0.051865022629499435, -0.02677229419350624], [-0.00027836294611915946, 0.036630891263484955, 0.002062766347080469, -0.023767784237861633, 0.05801711231470108, -0.06783280521631241, -0.06439080834388733, -0.02387993596494198, -0.10619602352380753, -0.012970964424312115, -0.11703405529260635, 0.05631968751549721, 0.0963786244392395, -0.07309295237064362, 0.1711772084236145, -0.09804701060056686, -0.0024520072620362043, -0.0871846154332161, 0.05394408106803894, -0.015039695426821709, -0.023998217657208443, -0.04625541716814041, -0.0608665905892849, -0.13745132088661194, 0.08879318833351135, 0.1518692672252655, -0.05950458347797394, -0.08888300508260727, -0.03869619593024254, -0.09543769806623459, -0.014954697340726852, -0.10383635014295578, -0.009414874017238617, 0.051974840462207794, 0.04622684791684151, -0.04158233478665352, -0.08168553560972214, -0.019770896062254906, -0.02362922392785549, -0.018560439348220825, -0.018630383536219597, -0.04206397384405136, -0.08409412950277328, -0.10415766388177872, 0.050320595502853394, 0.18373791873455048, 0.05155510455369949, -0.036035023629665375, -0.0219575222581625, -0.06463182717561722, 0.03344214707612991, 0.13608072698116302, 0.04950420930981636, 0.16167153418064117], [0.07739772647619247, 0.061176106333732605, -0.03758535534143448, 0.05947002395987511, -0.03387058898806572, 0.015636857599020004, 0.006267768330872059, 0.11783235520124435, -0.09348620474338531, 0.021089011803269386, -0.059874724596738815, -0.0002046025765594095, 0.08321121335029602, -0.016214581206440926, 0.04764839634299278, -0.05329658463597298, -0.026175539940595627, 0.012274198234081268, -0.026541143655776978, 0.013829400762915611, -0.007118715904653072, 0.053326964378356934, 0.0012281772214919329, -0.007880412973463535, 0.1499420404434204, 0.10561927407979965, 0.04421960189938545, -0.05877026170492172, 0.016038769856095314, 0.04872604459524155, -0.11193356662988663, 0.09208069741725922, 0.08237431943416595, -0.046918727457523346, 0.0790322944521904, 0.17816975712776184, -0.1743708699941635, 0.05226584151387215, 0.004993855021893978, -0.09415002912282944, 0.12085585296154022, -0.008006478659808636, -0.037065379321575165, 0.2400568574666977, 0.041380517184734344, -0.047495078295469284, 0.17378683388233185, 0.0720425620675087, -0.015380225144326687, 0.07758348435163498, 0.11185142397880554, 0.13682997226715088, -0.012871112674474716, -0.016797985881567], [-0.06904754042625427, 0.00552174961194396, -0.047600194811820984, 0.07342980057001114, 0.011618818156421185, 0.17934559285640717, 0.02610461600124836, 0.143344908952713, 0.06100355088710785, 0.09759826213121414, -0.0009485762566328049, -0.21382004022598267, -0.10288079082965851, 0.08061597496271133, -0.01703154668211937, 0.18278895318508148, -0.03355131298303604, 0.035850971937179565, 0.006790525745600462, 0.1564411222934723, -0.012757877819240093, 0.11678315699100494, -0.024774938821792603, -0.10047756135463715, -0.0057916101068258286, -0.11644133180379868, 0.028161853551864624, 0.016865139827132225, 0.05195077508687973, 0.024477042257785797, -0.05106935650110245, -0.11662476509809494, 0.14537538588047028, -0.09836288541555405, 0.060947537422180176, -0.16115519404411316, -0.022871527820825577, -0.04202231764793396, 0.14053283631801605, 0.09146012365818024, 0.1379816234111786, -0.02041024900972843, 0.0164029523730278, 0.1986503303050995, -0.09671149402856827, -0.20700713992118835, -0.0825008749961853, 0.007301370147615671, 0.028557604178786278, -0.030282307416200638, -0.009601067751646042, 0.16137069463729858, -0.04452607035636902, -0.07627949118614197], [-0.04325712099671364, 0.14653055369853973, -0.02365667186677456, 0.004195698071271181, -0.08464869111776352, 0.009680435061454773, -0.10753287374973297, -0.008312062360346317, -0.03083023428916931, -0.06609320640563965, -0.04331304505467415, -0.020438773557543755, 0.13065260648727417, 0.015077129006385803, -0.0182103980332613, 0.08173182606697083, -0.033465590327978134, 0.12398958951234818, 0.05498572811484337, 0.027764808386564255, 0.04936431348323822, 0.1025574803352356, 0.11732875555753708, 0.13588567078113556, 0.10827820003032684, 0.03668459132313728, -0.01026909053325653, -0.0032637910917401314, 0.05756104364991188, -0.017191268503665924, -0.1313532143831253, 0.20347830653190613, -0.04901408776640892, 0.14366933703422546, 0.12377957254648209, 0.023249981924891472, -0.07079829275608063, 0.009421514347195625, -0.05042874440550804, 0.038013678044080734, -0.03826948255300522, 0.04358677566051483, -0.03608467057347298, 0.28276652097702026, -0.23267485201358795, 0.03563135117292404, -0.12016041576862335, 0.14930298924446106, -0.07296128571033478, -0.04750630632042885, -0.031110141426324844, -0.10384701937437057, 0.05362498760223389, 0.06254900991916656], [-0.05438798666000366, 0.004285700619220734, 0.11412469297647476, 0.0011742813512682915, -0.049259163439273834, 0.034099020063877106, -0.017718181014060974, -0.1645406037569046, -0.05270792916417122, 0.10673324018716812, 0.09366831928491592, 0.02666749246418476, -0.08337262272834778, -0.012792072258889675, -0.013432529754936695, -0.06282930821180344, 0.07131588459014893, -0.07503747195005417, 0.01345925685018301, 0.1402738094329834, 0.11114540696144104, 0.044980861246585846, 0.03450966998934746, 0.047638144344091415, 0.03145580366253853, 0.002625826047733426, 0.08991819620132446, 0.06732471287250519, -0.013798775151371956, -0.03158752992749214, -0.21060241758823395, -0.0636616200208664, 0.22396719455718994, 0.012599579058587551, 0.03573070466518402, 0.12036098539829254, -0.011034686118364334, -0.05573008954524994, 0.039271432906389236, 0.07890520244836807, -0.06088940426707268, -0.1731862723827362, -0.016577545553445816, 0.1459042727947235, 0.040526747703552246, -0.06313944607973099, 0.0015906841726973653, 0.08853268623352051, -0.013050642795860767, 0.1314200460910797, -0.030086029320955276, -0.03574172779917717, -0.025717047974467278, -0.022057289257645607], [0.13184957206249237, 0.03398299217224121, -0.052958641201257706, 0.042720165103673935, 0.12947356700897217, -0.047485314309597015, -0.11237328499555588, 0.04556989669799805, 7.025845116004348e-05, 0.004445739556103945, 0.13051562011241913, 0.01838664896786213, -0.05533255264163017, 0.01797661930322647, 0.06624333560466766, 0.02367997169494629, -0.001253863680176437, 0.025453411042690277, -0.056122761219739914, -0.010913293808698654, 0.017636260017752647, 0.11050298064947128, -0.013567643240094185, 0.11089831590652466, 0.08042310923337936, -0.05508493632078171, 0.15833023190498352, -0.11536769568920135, -0.007498516235500574, 0.008096083998680115, 0.13610485196113586, -0.05004241317510605, -0.03040190041065216, -0.016021469607949257, 0.08467380702495575, -0.15091444551944733, 0.13378624618053436, 0.0656253844499588, 0.17075200378894806, -0.010266152210533619, 0.09725359082221985, 0.08357294648885727, -0.14639130234718323, 0.4604277014732361, -0.06757090985774994, -0.002960624871775508, -0.19570086896419525, 0.20785275101661682, -0.07305204123258591, 0.05778570845723152, 0.1573966145515442, 0.01130793895572424, -0.09492462873458862, 0.02347211167216301], [0.0030542886815965176, -0.1357712596654892, -0.029371125623583794, -0.03229648992419243, 0.1279117614030838, 0.09272672235965729, 0.017822733148932457, 0.0018921263981610537, 0.0374455451965332, -0.0035181937273591757, -0.021797534078359604, 0.02909020334482193, 0.05235612019896507, 0.173292338848114, 0.05848084017634392, 0.044464584439992905, -0.07277332991361618, 0.11102839559316635, 0.07135900855064392, 0.030942564830183983, 0.1476592719554901, 0.06266091018915176, 0.09515747427940369, -0.013634499162435532, -0.10202015191316605, -0.10262233018875122, -0.12936076521873474, -0.12784260511398315, -0.06636575609445572, 0.008832849562168121, 0.047708217054605484, 0.12301687896251678, -0.11503146588802338, -0.001570067834109068, 0.054167646914720535, -0.06980795413255692, -0.088409923017025, 0.04172816127538681, -0.04500747099518776, 0.06918662041425705, 0.12977969646453857, 0.14204710721969604, 0.0544915609061718, 0.055391598492860794, -0.01882745325565338, 0.15610921382904053, 0.17843903601169586, -0.06574224680662155, -0.0127808703109622, -0.05415342375636101, 0.02774292789399624, -0.24612151086330414, 0.06102552264928818, -0.007595145609229803], [-0.011823290027678013, 0.010204071179032326, 0.09827443957328796, -0.06573130935430527, 0.06400687992572784, 0.01239242684096098, -0.04452558234333992, 0.0421491302549839, 0.07351607829332352, -0.1262558549642563, -0.09491797536611557, 0.15686145424842834, 0.02397552691400051, -0.11070168018341064, 0.03527126461267471, -0.020228035748004913, 0.07959115505218506, -0.0792979970574379, 0.008910521864891052, -0.009759929962456226, 0.07713275402784348, -0.12676094472408295, 0.0469440333545208, -0.047343313694000244, -0.049889709800481796, -0.07825690507888794, -0.013201533816754818, 0.06404902040958405, -0.030129704624414444, -0.023441605269908905, -0.04407700151205063, -0.11944952607154846, -0.023355143144726753, 0.08538182824850082, 0.11596731841564178, -0.039425015449523926, -0.10104746371507645, -0.03238785266876221, 0.03629186004400253, -0.10339782387018204, -0.010931107215583324, -0.023697564378380775, 0.09689547121524811, 0.14190155267715454, 0.1305568665266037, 0.07363969087600708, -0.07803689688444138, 0.037709176540374756, 0.10749421268701553, -0.03863311931490898, 0.010456155054271221, -0.05794638395309448, -0.003676891326904297, 0.003780907019972801], [0.024875842034816742, 0.008641076274216175, -0.004057327751070261, 0.04505157098174095, -0.06764623522758484, 0.06592759490013123, 0.054655931890010834, -0.09923948347568512, -0.027101261541247368, 0.09523003548383713, -0.033331770449876785, 0.017384298145771027, 0.10835379362106323, 0.04043477028608322, 0.06511994451284409, -0.021001730114221573, 0.007641047239303589, -0.06915760040283203, 0.06818627566099167, -0.03172093257308006, 0.02207440324127674, -0.038296252489089966, -0.037889644503593445, 0.036754507571458817, -0.03288668766617775, 0.02643655240535736, -0.0390235111117363, 0.09120669215917587, 0.10632140189409256, -0.11604022234678268, 0.22508679330348969, -0.18504351377487183, 0.12440723180770874, 0.009589566849172115, 0.06800595670938492, -0.04327244684100151, 0.02358308620750904, 0.015907716006040573, 0.023999756202101707, -0.029454125091433525, 0.01855684444308281, 0.1297098994255066, -0.053634826093912125, 0.7011194825172424, -0.06975249946117401, 0.10536426305770874, -0.1369965821504593, 0.11859560757875443, -0.01856645569205284, -0.1382562220096588, -0.07566328346729279, 0.10144730657339096, -0.012660698033869267, -0.13044238090515137], [-0.0003646363038569689, -0.014652433805167675, 0.13653884828090668, 0.040605951100587845, 0.02190534397959709, 0.10004222393035889, 0.10100176930427551, 0.06448754668235779, 0.10410021990537643, -0.0032271735835820436, -0.032863445580005646, -0.0218508243560791, -0.018197160214185715, -0.05458751320838928, 0.008969835937023163, 0.10968628525733948, 0.1848515272140503, 0.05627714842557907, -0.03257966786623001, 0.008567478507757187, -0.05920841917395592, -0.004344988148659468, 0.003985447809100151, 0.07409866899251938, 0.11810604482889175, -0.0742073804140091, -0.0066417730413377285, 0.1693134754896164, 0.024482421576976776, 0.025714164599776268, -0.1564749777317047, 0.03475915268063545, 0.08609749376773834, -0.0032887954730540514, 0.07672897726297379, 0.14836986362934113, -0.16457250714302063, 0.03879779204726219, 0.07527409493923187, -0.06404172629117966, -0.043886665254831314, 0.019907258450984955, -0.026379607617855072, -0.29738402366638184, -0.03344105929136276, 0.040051721036434174, -0.004428491927683353, 0.03345547243952751, -0.0059675052762031555, 0.07841822504997253, 0.013771171681582928, 0.15646934509277344, 0.07211866974830627, 0.0367262177169323], [0.01583181880414486, -0.09225836396217346, 0.08630019426345825, -0.05776632949709892, 0.04794246703386307, -0.07157396525144577, -0.04134513810276985, 0.06909260153770447, -0.08694333583116531, -0.06617310643196106, 0.06689105182886124, -0.1676967293024063, -0.10441220551729202, 0.03570575639605522, 0.10346885025501251, -0.030652299523353577, -0.030416013672947884, 0.15006831288337708, -0.0034823529422283173, 0.06898726522922516, -0.14877256751060486, 0.0370379276573658, -0.04188256338238716, 0.0016462448984384537, -0.09350133687257767, 0.029682977125048637, 0.07958810776472092, -0.06691450625658035, -0.0058163669891655445, 0.057147592306137085, -0.05743693932890892, 0.146609827876091, 0.011077729985117912, 0.015803374350070953, -0.025618765503168106, 0.02910549007356167, 0.14922717213630676, -0.05200996249914169, -0.014123234897851944, -0.09992152452468872, -0.11578197777271271, -0.057346828281879425, 0.021805711090564728, 0.08701463788747787, 0.04137048125267029, 0.09144110977649689, 0.035399336367845535, -0.062125544995069504, -0.024969562888145447, -0.061997584998607635, 0.10145141929388046, -0.08729739487171173, 0.014787820167839527, -0.06986962258815765], [0.006128551904112101, 0.0740969106554985, -0.009761311113834381, 0.09179987758398056, 0.04464590549468994, -0.0636458620429039, 0.011355155147612095, 0.04239803925156593, -0.010522187687456608, 0.06803610920906067, 0.03682277351617813, 0.058911386877298355, -0.11422662436962128, 0.06667971611022949, 0.0851919874548912, 0.04572611674666405, -0.1530979573726654, -9.812045027501881e-05, 0.02942931093275547, -0.06672714650630951, 0.12694253027439117, -0.11895163357257843, -0.003496763063594699, 0.09465732425451279, -0.006241228897124529, 0.14779676496982574, -0.07020357251167297, -0.05695424973964691, 0.009402967058122158, 0.16982099413871765, 0.06836247444152832, 0.06617646664381027, 0.08183595538139343, -0.015241795219480991, -0.05758475884795189, 0.050408560782670975, -0.004406159743666649, 0.10627008974552155, -0.061138786375522614, 0.043786972761154175, -0.08563706278800964, 0.25550588965415955, -0.016539407894015312, -0.587588369846344, -0.09342923015356064, 0.08110027760267258, -0.22543305158615112, -0.09764550626277924, -0.00290101720020175, 0.110408253967762, 0.03517763316631317, -0.011651976965367794, -0.005064493510872126, -0.017933934926986694], [-0.012411452829837799, 0.012565692886710167, -2.372755261603743e-05, 0.00011572697258088738, -0.01065049134194851, -1.5801417703187326e-06, 0.018761659041047096, 0.06421045958995819, -0.015395017340779305, -0.015456581488251686, 0.00030636024894192815, -0.07210979610681534, 0.0948624238371849, -0.16184401512145996, -0.16200090944766998, -0.00032411012216471136, -0.0574834905564785, 0.026403898373246193, 0.026472806930541992, 0.026495281606912613, 5.065912046120502e-05, -0.03127150610089302, -0.031272586435079575, -0.031263839453458786, -0.031352005898952484, 0.0003114582214038819, 0.0025333294179290533, 0.002573527628555894, 0.002585834125056863, 0.0025210496969521046, 0.05323493480682373, -0.18243442475795746, 0.11957850307226181, 0.1558503955602646, 0.10827375203371048, -0.08903813362121582, 0.05214483663439751, -0.07120136171579361, 0.09703311324119568, -0.07760807126760483, -0.024629143998026848, 0.7116089463233948, -0.12875090539455414, -0.702873706817627, 0.03204704448580742, -0.020302793011069298, 0.047365400940179825, 0.018527552485466003, 0.007107702549546957, -0.03740721940994263, -0.05060623213648796, -0.08646951615810394, -0.0033446468878537416, -0.008140642195940018], [-0.057758450508117676, -0.126550555229187, -0.02652416005730629, -0.06874822080135345, -0.02028496004641056, 0.09536609798669815, 0.04838920012116432, -0.04205687344074249, 0.13658243417739868, 0.0061320043168962, -0.07904425263404846, 0.01612403616309166, 0.16318418085575104, -0.016642509028315544, 0.08326809108257294, -0.12113809585571289, -0.020235575735569, -0.12356030195951462, 0.05130772292613983, 0.12694498896598816, 0.000977367628365755, 0.029475782066583633, 0.01981247402727604, -0.005232835188508034, 0.05823281779885292, -0.04848046228289604, 0.014937561005353928, 0.07918647676706314, -0.23686353862285614, 0.07991111278533936, 0.09631800651550293, 0.046620987355709076, -0.08139436691999435, -0.05895354598760605, 0.15287154912948608, -0.10341820120811462, 0.06711535155773163, 0.0026214842218905687, -0.0246124230325222, 0.03287835046648979, 0.08904668688774109, 0.0605284720659256, -0.01664813794195652, 0.10486382246017456, -0.11560406535863876, -0.12373469769954681, 0.0244152694940567, -0.04290639981627464, 0.13174349069595337, 0.023085713386535645, -0.022411825135350227, -0.10254853218793869, -0.02093789540231228, 0.023845596238970757], [0.023879237473011017, 0.043711405247449875, 0.001537755480967462, 0.05809979513287544, -0.09284056723117828, 0.0856998935341835, -0.08550173789262772, 0.04686782509088516, -0.03452403098344803, 0.01309885922819376, 0.09377508610486984, 0.03992612287402153, -0.09643195569515228, 0.008084871806204319, 0.03397025913000107, -0.015550464391708374, 0.07597225904464722, 0.07100118696689606, 0.12485133111476898, -0.021802304312586784, 0.07727755606174469, 0.09024135023355484, 0.18083639442920685, 0.04393461346626282, 0.13508957624435425, 0.045815661549568176, -0.058411046862602234, 0.03514389321208, 0.1301097869873047, 0.0383315347135067, -0.250937283039093, 0.2461102306842804, 0.06078772991895676, 0.061095476150512695, -0.04616626352071762, -0.009930108673870564, -0.04887688159942627, 0.11883307993412018, -0.03279794752597809, -0.11053168028593063, -0.0241791233420372, 0.15860304236412048, -0.04719586670398712, -0.43513745069503784, 0.0592111311852932, -0.04204078018665314, 0.005534741096198559, 0.024769140407443047, 0.06927490234375, 0.13196998834609985, 0.07193280756473541, -0.0617133267223835, 0.04288579151034355, -0.09337252378463745], [-0.025517337024211884, -0.056832484900951385, -0.03036315366625786, -0.12008079886436462, 0.03685790300369263, -0.021124858409166336, -0.13411858677864075, -0.011897812597453594, 0.01563187874853611, -0.0037502204068005085, 0.0919521301984787, -0.10210435092449188, -0.017630161717534065, -0.1606469452381134, -0.020109709352254868, -0.05183316767215729, 0.03740859776735306, -0.03275571018457413, -0.03928351402282715, 0.04353515803813934, -0.013095052912831306, 0.11831076443195343, 0.033007826656103134, -0.06141149252653122, -0.04108534753322601, -0.03283543139696121, -0.018845563754439354, -0.028989972546696663, -0.10779409110546112, 0.05751970410346985, -0.025251561775803566, -0.0626969188451767, 0.10306886583566666, -0.038236379623413086, 0.034492772072553635, -0.05037644878029823, 0.0074691460467875, -0.20310966670513153, -0.0626664087176323, -0.029918793588876724, -0.029310574755072594, -0.036309972405433655, 0.07268204540014267, 0.057080645114183426, -0.11148472875356674, -0.05700676888227463, -0.08627660572528839, 0.01805255562067032, -0.09635788202285767, -0.04189445823431015, 0.08097483962774277, -0.06320584565401077, 0.11851483583450317, 0.11980576068162918], [0.0548119843006134, 0.0044992584735155106, -0.07506874203681946, 0.040901295840740204, 0.03092833235859871, -0.02729809656739235, 0.0093993553891778, 0.10360592603683472, -0.10538848489522934, 0.1065242663025856, 0.05372079089283943, 0.026040509343147278, -0.07834360003471375, 0.07426609098911285, 0.0883990079164505, 0.014805590733885765, 0.021211782470345497, 0.06755886971950531, 0.0031587020494043827, 0.019045928493142128, -0.01602230593562126, 0.0430290512740612, 0.0809745043516159, 0.05639810860157013, -0.10132206231355667, -0.01690986379981041, 0.07618259638547897, -0.022960452362895012, -0.028062591329216957, -0.010986209847033024, -0.012767807580530643, 0.06421572715044022, 0.16552121937274933, -0.06400687992572784, -0.01864360086619854, -0.07556929439306259, -0.04082931950688362, 0.006540260277688503, -0.03752385824918747, 0.12814436852931976, -0.08391454815864563, -0.17491896450519562, 0.042516689747571945, 0.09111055731773376, -0.09431638568639755, 0.05206906050443649, -0.017703643068671227, -0.11106293648481369, -0.018822113052010536, -0.11081364005804062, -0.1152762919664383, -0.06517661362886429, -0.097531259059906, 0.008980409242212772], [-0.08201344311237335, 0.04458373039960861, -0.0069163101725280285, 0.0014055257197469473, -0.009519758634269238, 0.012428713031113148, 0.056225068867206573, 0.025840211659669876, -0.007312215864658356, 0.0732584148645401, 0.07378706336021423, 0.0326932854950428, 0.23162870109081268, 0.061156049370765686, 0.06349291652441025, 0.07043769955635071, 0.15017151832580566, -0.03946442902088165, -0.036846358329057693, -0.04140467941761017, -0.016574818640947342, -0.018795771524310112, -0.04351849853992462, -0.036071982234716415, -0.05026063695549965, 0.015841389074921608, 0.08102632313966751, 0.03214050829410553, 0.11739879846572876, 0.09075170755386353, 0.0611635185778141, -0.13307347893714905, 0.10032395273447037, -0.07267749309539795, 0.017289288341999054, -0.03150944039225578, -0.10087285935878754, 0.09758169203996658, 0.06560623645782471, -0.050967633724212646, -0.02642280049622059, 0.21485298871994019, 0.014130440540611744, -1.0985753536224365, -0.0979304164648056, -0.08630892634391785, -0.031681329011917114, -0.06434009224176407, 0.008490806445479393, -0.1668262630701065, -0.06276287883520126, -0.013895967043936253, 0.053193408995866776, -0.051306646317243576], [0.08162615448236465, 0.03122539445757866, 0.00364582403562963, 0.04371921718120575, 0.04695088043808937, 0.008609255775809288, 0.011433753184974194, 0.01386481337249279, 0.02564028650522232, 0.09560611099004745, 0.02140781283378601, 0.0012971704127267003, -0.0006216828478500247, 0.020636452361941338, -0.0026418189518153667, 0.011131328530609608, -0.09067702293395996, 0.12486414611339569, 0.10187885910272598, 0.04450816288590431, 0.036157310009002686, 0.036310650408267975, -0.023891132324934006, 0.003329174593091011, -0.030084893107414246, -0.020893152803182602, 0.017997268587350845, -0.02064015530049801, 0.0045585595071315765, -0.010095535777509212, 0.17940205335617065, -0.21059347689151764, -0.026209525763988495, -0.09316010028123856, 0.13580770790576935, 0.06434699147939682, -0.10527663677930832, -0.07026468962430954, -0.041115548461675644, 0.01909499801695347, -0.015365339815616608, 0.2183157056570053, -0.017623228952288628, -0.9039434790611267, -0.10705528408288956, 0.039462413638830185, -0.31364771723747253, -0.03762233257293701, 0.041379112750291824, -0.0820794478058815, -0.0697883814573288, 0.17829224467277527, -0.03978801518678665, -0.1354546695947647], [-0.05651028826832771, -0.05452059209346771, 0.004486994352191687, -0.060282763093709946, 0.05897076055407524, -0.00015086733037605882, 0.03648069500923157, 0.06032787635922432, -0.1431153267621994, -0.11565627157688141, 0.013246999122202396, -0.11061136424541473, -0.07872281223535538, 0.04491396248340607, 0.03563746437430382, 0.021218525245785713, 0.08800569921731949, 0.013069402426481247, 0.013259587809443474, -0.002611704869195819, 0.07314170897006989, 0.12309414893388748, 0.0012918690918013453, 0.0356304831802845, 0.1651499718427658, 0.10799678415060043, 0.06153476983308792, 0.017610397189855576, -0.08976317942142487, 0.03031671792268753, -0.07342832535505295, 0.16735896468162537, 0.0861670970916748, 0.08246128261089325, 0.028504986315965652, 0.04725990071892738, -0.07098989188671112, -0.023030433803796768, -0.027484238147735596, -0.0034750623162835836, 0.09589270502328873, 0.03926573321223259, 0.0428602509200573, 0.048966895788908005, 0.09669461101293564, 0.061585064977407455, 0.29286929965019226, 0.0058538420125842094, -0.0466030091047287, -0.045861031860113144, -0.11071082949638367, -0.13933587074279785, -0.14141885936260223, 0.0737081915140152], [-0.01923193968832493, 0.06656937301158905, -0.043698567897081375, 0.1384756863117218, 0.11817950755357742, 0.0497116893529892, 0.00280853477306664, -0.0904095470905304, 0.09644810855388641, 0.05685006082057953, 0.14316469430923462, 0.03696583956480026, 0.09822160005569458, -0.04914616420865059, 0.006776574533432722, 0.15300597250461578, -0.052583951503038406, 0.11651492118835449, 0.06375861912965775, 0.11332163959741592, 0.021010953933000565, 0.047514546662569046, 0.03674255684018135, -0.09427715092897415, -0.11315913498401642, 0.04529683664441109, 0.08893168717622757, 0.13206331431865692, 0.07137489318847656, 0.0670633465051651, -0.02255908213555813, -0.20585455000400543, 0.3074931204319, -0.02319045551121235, 0.032632842659950256, -0.041613731533288956, 0.0444883368909359, -0.037515200674533844, -0.03205878660082817, 0.22154593467712402, -0.002780929207801819, -0.16980944573879242, 0.03713472932577133, 0.1908641904592514, -0.012081929482519627, 0.07149367034435272, 0.1369750052690506, 0.09812965244054794, -0.04323320835828781, -0.01774914190173149, -0.11590787023305893, 0.2838499844074249, -0.05301209166646004, -0.1101718619465828], [0.04117467626929283, 0.11693711578845978, -0.05368272215127945, -0.09511666744947433, 0.08647694438695908, -0.030871959403157234, 0.02903781831264496, 0.11840971559286118, -0.018173562362790108, 0.10051270574331284, -0.026347391307353973, 0.07552611827850342, -0.02247674949467182, 0.013968252576887608, 0.032507333904504776, -0.018939845263957977, -0.1380804479122162, -0.0711417868733406, -0.03149846941232681, 0.09244190156459808, 0.08839596807956696, -0.03894072026014328, 0.048253633081912994, 0.08122744411230087, -0.004390139132738113, -0.04540202021598816, -0.052851468324661255, 0.10225460678339005, 0.14664390683174133, -0.13155420124530792, 0.04037386178970337, -0.059031713753938675, 0.05545708164572716, 0.20078608393669128, -0.006155775394290686, 0.02999335341155529, 0.011317318305373192, 0.0014523061690852046, 0.0007467035320587456, 0.07010802626609802, 0.024101290851831436, 0.06775060296058655, -0.055135469883680344, 0.21758364140987396, -0.0008789912681095302, -0.005641326308250427, -0.004479540977627039, 0.027646565809845924, 0.07272511720657349, 0.01926032267510891, 0.1554655283689499, 0.07499904930591583, -0.028015414252877235, 0.13763666152954102], [-0.06647936999797821, 0.11079510301351547, 0.0648186057806015, 0.05554940924048424, -0.07510817795991898, -0.039807725697755814, -0.033201564103364944, -0.04904633387923241, -0.008665950037539005, 0.09399451315402985, -0.0843534842133522, 0.06961023062467575, 0.04201219975948334, 0.006632267031818628, 0.061838556081056595, 0.0052511501125991344, 0.06093619763851166, -0.10596296191215515, 0.08082255721092224, -0.08555181324481964, -0.043139081448316574, -0.05096079036593437, -0.012051749043166637, 0.04595959186553955, -0.09225798398256302, 0.04715454950928688, -0.0011262655025348067, -0.11896540969610214, 0.0730380192399025, 0.17139551043510437, 0.03314363583922386, -0.029519876465201378, 0.32500237226486206, -0.014343835413455963, -0.12591469287872314, -0.09222423285245895, 0.005927583668380976, 0.06080387160181999, -0.09267522394657135, 0.03164420276880264, 0.07265278697013855, 0.050356876105070114, 0.09656972438097, 0.12775588035583496, 0.1487322896718979, -0.04859357699751854, 0.17602907121181488, 0.004706370644271374, -0.13402141630649567, -0.03410588204860687, -0.010809917002916336, -0.03285229578614235, -0.0730820968747139, 0.06370323151350021], [-0.06070689111948013, -0.1215730831027031, -0.004520025569945574, -0.13698822259902954, 0.1683494746685028, 0.06571198254823685, -0.017420245334506035, -0.09709081053733826, 0.029385782778263092, 0.11198046803474426, 0.05554353445768356, 0.029175283387303352, 0.08451800793409348, 0.13540999591350555, 0.13947442173957825, -0.01862037181854248, -0.029967976734042168, 0.14426490664482117, -0.04750768467783928, -0.05459870770573616, -0.10204478353261948, -0.023097645491361618, 0.1612834483385086, 0.0894060730934143, 0.005401616916060448, -0.030456045642495155, 0.09318870306015015, 0.08802325278520584, 0.0275768730789423, 0.016924522817134857, 0.05679651349782944, -0.013242154382169247, 0.13558413088321686, 0.07364171743392944, 0.013604503124952316, -0.01940407045185566, 0.09681720286607742, -0.10162913054227829, -0.07240993529558182, -0.06418105214834213, 0.02165418118238449, -0.00565169844776392, 0.028026150539517403, 0.2854226529598236, -0.14409105479717255, 0.1228892132639885, 0.048093218356370926, -0.07879269123077393, -0.01501479558646679, 0.03200428560376167, -0.09568053483963013, 0.02278721146285534, 0.008000694215297699, -0.05283423513174057], [-0.10218001157045364, 0.003905820194631815, 0.03137876093387604, -0.0611131452023983, -0.11571593582630157, -0.051690392196178436, -0.05208994820713997, -0.05167882889509201, 0.06549296528100967, 0.046585094183683395, 0.08934284746646881, -0.07412949204444885, 0.14812251925468445, 0.003931037615984678, 0.013805678114295006, 0.029107606038451195, 0.0029271040111780167, -0.08136239647865295, -0.14768600463867188, 0.08518857508897781, -0.02530636638402939, 0.0976964682340622, 0.08970959484577179, 0.08201128989458084, 0.10068283975124359, 0.05554671958088875, 0.016492726281285286, -0.031020186841487885, -0.08798962086439133, -0.014694149605929852, 0.13143286108970642, -0.08409389108419418, 0.10367023944854736, -0.06567510217428207, 0.04998074844479561, -0.061993710696697235, 0.10915865749120712, -0.07429612427949905, -0.051644910126924515, -0.03114766627550125, -0.05577591061592102, 0.3140420615673065, 0.04755381867289543, 0.5856256484985352, -0.07138951122760773, 0.050289228558540344, 0.09450848400592804, -0.023283636197447777, 0.056271299719810486, 0.003915749024599791, 0.016846073791384697, 0.1703101396560669, -0.079839788377285, 0.0754878893494606], [0.07259610295295715, -0.06200828775763512, -0.0091913603246212, -0.02055349573493004, -0.06623661518096924, -0.08258433640003204, -0.08763089776039124, -0.09118501842021942, 0.026282330974936485, -0.1129896491765976, -0.058820050209760666, 0.06622957438230515, 0.1140538826584816, -0.1729033887386322, -0.14142738282680511, 0.05317724123597145, -0.03758346661925316, 0.08566989749670029, -0.07990773767232895, -0.0300421305000782, -0.014125267043709755, -0.10720188915729523, 0.15018010139465332, 0.004198089241981506, -0.10042722523212433, -0.013952750712633133, -0.04619095101952553, 0.13466688990592957, 0.06586915254592896, 0.002361631253734231, -0.05019635334610939, -0.020382000133395195, -0.01360723003745079, -0.0003914327535312623, -0.2033511996269226, -0.013600556179881096, 0.0915566235780716, -0.008305693976581097, 0.06634954363107681, -0.07931260764598846, -0.044384151697158813, -0.011098593473434448, 0.05059853941202164, -0.02243194729089737, 0.11137087643146515, 0.14264389872550964, 0.02359563298523426, 0.0604294054210186, 0.011389932595193386, -0.043115075677633286, 0.054699644446372986, -0.08122564852237701, 0.0392884761095047, 0.04865960404276848], [0.0937977209687233, -0.11542033404111862, -0.000627882604021579, -0.00308781024068594, 0.09526366740465164, -0.00234634755179286, 0.0033764312975108624, 0.05747965723276138, 0.014725951477885246, 0.010068029165267944, -0.006751198787242174, -0.01616504043340683, -0.017972588539123535, -0.01348591037094593, -0.01421813853085041, 0.0110559593886137, 0.07258731126785278, -0.04555945843458176, -0.04788017272949219, -0.049417637288570404, 0.002365800552070141, 0.028275448828935623, 0.02725333161652088, 0.02749338187277317, 0.02751726098358631, 0.002148107625544071, -0.007969917729496956, -0.008289657533168793, -0.00799319427460432, -0.008521989919245243, -0.030107364058494568, -0.0038896636106073856, 0.05377854406833649, 0.07227075845003128, 0.057858094573020935, -0.011884248815476894, 0.05221981555223465, -0.030278746038675308, -0.0730891078710556, -0.0010958893690258265, 0.030278341844677925, 0.07970453798770905, 0.018688101321458817, -1.1716375350952148, -0.09432735294103622, 0.026030221953988075, -0.10870417952537537, 0.009527687914669514, 0.08064841479063034, 0.04693811386823654, -0.1240716278553009, 0.07194330543279648, 0.19347204267978668, 0.09500925242900848], [-0.04079907014966011, -0.07708299905061722, 0.1382724791765213, -0.04870816320180893, 0.02622365579009056, -0.15863674879074097, 0.04162793979048729, -0.05821536108851433, -0.038785602897405624, -0.14279399812221527, 0.01771552674472332, 0.12057467550039291, -0.042861420661211014, 0.11268573254346848, 0.11015217751264572, -0.07709184288978577, 0.07935383915901184, -0.034648749977350235, -0.14919863641262054, -0.006081025581806898, -0.030196189880371094, 0.057945720851421356, -0.073520727455616, -0.06301679462194443, 0.04941939190030098, -0.1054830327630043, -0.03619948774576187, 0.018444305285811424, -0.08284687995910645, 0.04311712086200714, -0.11964049190282822, 0.0019980603829026222, -0.014905138872563839, -0.08615110069513321, 0.0206778384745121, -0.03472476825118065, -0.018653687089681625, 0.032726921141147614, -0.11970094591379166, 0.059807516634464264, 0.07965600490570068, -0.008530599996447563, -0.04434477910399437, -0.08717185258865356, -0.19881045818328857, 0.047899648547172546, 0.015388382598757744, -0.07557669281959534, 0.061127692461013794, 0.11257859319448471, -0.02358880825340748, -0.07411497086286545, -0.061259675770998, 0.018066512420773506], [0.04423314332962036, 0.12625104188919067, -0.005580805707722902, 0.06423239409923553, -0.06934016942977905, 0.0447390042245388, 0.014678589068353176, -0.10073449462652206, 0.027221087366342545, -0.1375383734703064, -0.08668134361505508, -0.005445284303277731, 0.024561164900660515, 0.015425344929099083, 0.02336699329316616, 0.07028571516275406, 0.015379431657493114, 0.06905505806207657, 0.07774902135133743, 0.062093913555145264, -0.016334054991602898, -0.04216798022389412, -0.040024105459451675, -0.056435275822877884, -0.055967845022678375, 0.024611858651041985, 0.04271337389945984, -0.1340138018131256, -0.10888984799385071, 0.08484546095132828, 0.11982041597366333, -0.15748876333236694, 0.005563310347497463, -0.001866477425210178, -0.009397497400641441, 0.056666553020477295, 0.056537359952926636, -0.0016600163653492928, 0.09586939960718155, 0.017584355548024178, 0.0003937439469154924, 0.24570417404174805, 0.12426137179136276, 0.2404230684041977, -0.05705782026052475, 0.06336367130279541, 0.11658665537834167, -0.019363177940249443, -0.056765079498291016, -0.06406021118164062, 0.009131846018135548, 0.16890500485897064, 0.05919152498245239, 0.020161371678113937], [-0.029370052739977837, -0.030619436874985695, 0.09537051618099213, -0.05264272913336754, 0.13293635845184326, 0.05256694182753563, -0.09913158416748047, 0.07157997786998749, 2.791432234516833e-05, 0.02023921348154545, 0.0618833526968956, -0.10661535710096359, -0.19338209927082062, 0.0774834081530571, 0.05150547996163368, 0.028015419840812683, -0.10208973288536072, -0.008710517548024654, 0.13718202710151672, -0.009604875929653645, 0.09932659566402435, -0.1334541290998459, -0.04396672546863556, 0.02159716747701168, -0.05255041643977165, -0.062361832708120346, 0.04140416160225868, -0.004454431589692831, 0.10643337666988373, 0.07812405377626419, -0.06385824084281921, 0.009310421533882618, 0.17263829708099365, -0.04647668078541756, 0.048530612140893936, 0.03189219906926155, -0.10555010288953781, 0.05448693409562111, -0.0014813992893323302, -0.029645241796970367, -0.10693568736314774, -0.09484612941741943, -0.05054686591029167, -0.2347494661808014, 0.11839595437049866, -0.03310023993253708, -0.035061314702034, 0.11956466734409332, 0.014438587240874767, -0.14301051199436188, -0.0005301065975800157, 0.07885930687189102, -0.0021354679483920336, 0.09381496161222458], [0.04578417167067528, 0.27617987990379333, -0.0004487798432819545, -0.006144157610833645, 0.125265970826149, -0.038076288998126984, 0.006566225551068783, 0.09854847937822342, 0.014209343120455742, -0.1460435539484024, -0.03547016903758049, -0.0717686265707016, -0.043278101831674576, -0.06714493036270142, -0.07851768285036087, 0.3933461606502533, -0.12635886669158936, -0.03927195444703102, -0.039762042462825775, -0.051619112491607666, 0.0366743728518486, -0.0083128921687603, -0.0058246334083378315, -0.013904692605137825, -0.016861779615283012, -0.001755730714648962, -0.08337538689374924, -0.0846189633011818, -0.08221729844808578, -0.0917804166674614, -0.1479848325252533, -0.1559034138917923, -0.02940582111477852, -0.15423975884914398, -0.009007705375552177, 0.201234370470047, 0.11392007023096085, 0.016248319298028946, 0.09177740663290024, -0.13273219764232635, -0.03243556618690491, -0.04139680787920952, -0.11442003399133682, 0.06696779280900955, 0.10101231932640076, -0.08211472630500793, -0.024356083944439888, -0.08147166669368744, -0.11982741951942444, 0.0427994467318058, -0.06429190933704376, 0.15558934211730957, 0.10311562567949295, -0.1470659077167511], [0.14469605684280396, 0.09211816638708115, -0.02041267417371273, 0.08586577326059341, -0.0009562617633491755, -0.10207056254148483, 0.031085943803191185, -0.02806459553539753, -0.02112768217921257, 0.13610903918743134, -0.06951132416725159, -0.09245147556066513, 0.031758327037096024, -0.07285144925117493, -0.09897051751613617, 0.05132697522640228, -0.09843654185533524, 0.009034250862896442, 0.004699258133769035, 0.008952323347330093, -0.009341523982584476, 0.027798591181635857, -0.045787468552589417, -0.008314345963299274, -0.029148966073989868, 0.0456199012696743, 0.05386429280042648, 0.013777012936770916, 0.07980937510728836, -0.038540370762348175, -0.03502123802900314, 0.12415491044521332, 0.04622378200292587, -0.09521499276161194, 0.006432970520108938, 0.06588391959667206, -0.057107433676719666, 0.038481518626213074, -0.06876972317695618, -0.07347003370523453, 0.048381954431533813, -0.028755994513630867, 0.16638098657131195, 0.15360943973064423, 0.0439438670873642, 0.054972659796476364, 0.21482352912425995, -0.035250090062618256, 0.0659138560295105, -0.09498008340597153, -0.020088963210582733, -0.011243313550949097, -0.1165446937084198, 0.032025232911109924], [0.056784093379974365, -0.0944824144244194, -0.013066251762211323, 0.03602628782391548, 0.04666575789451599, 0.02903282828629017, -0.051062241196632385, -0.10898175835609436, -0.0009915048722177744, 0.0726935938000679, 0.10180706530809402, 0.03507537394762039, 0.15354837477207184, 0.0931364893913269, -0.07764918357133865, 0.07386378943920135, -0.25413647294044495, 0.04051320627331734, 0.03328900784254074, 0.11592162400484085, 0.053808484226465225, 0.01819167099893093, -0.03500642254948616, -0.09863162040710449, 0.05498846247792244, 0.18163782358169556, -0.07341932505369186, -0.11510420590639114, -0.10471087694168091, 0.022160345688462257, 0.06494273245334625, -0.018057964742183685, 0.06965130567550659, -0.04120970889925957, 0.07688875496387482, -0.07306613028049469, -0.13278070092201233, 0.11496048420667648, -0.19275346398353577, 0.017368286848068237, 0.10092015564441681, -0.0007041494245640934, 0.08913137763738632, 0.23312285542488098, -0.008727197535336018, 0.11075148731470108, -0.18517456948757172, 0.059714701026678085, -0.059651318937540054, -0.01598189026117325, 0.007823747582733631, 0.09609721601009369, -0.06326503306627274, -0.04444792866706848], [-0.09856276959180832, -0.1417696624994278, -0.06786732375621796, -0.014128297567367554, 0.007295607123523951, -0.02541736140847206, -0.17984507977962494, -0.03525658696889877, -0.04087429121136665, -0.09277763962745667, 0.012170718051493168, -0.032962847501039505, -0.05426395311951637, 0.02745925821363926, 0.05257908254861832, -0.15419797599315643, 0.1431388258934021, -0.12998339533805847, 0.001553805312141776, 0.14062899351119995, 0.06130145490169525, 0.12123223394155502, -0.006621294189244509, -0.008432354778051376, -0.04091997072100639, -0.07105536013841629, -0.013095506466925144, -0.0643715038895607, -0.12412333488464355, -0.1394638866186142, -0.05591419339179993, -0.14021502435207367, 0.01808479242026806, -0.06081065535545349, 0.07515077292919159, -0.1073627769947052, -0.06014971807599068, -0.004252173937857151, 0.09845432639122009, 0.010309950448572636, -0.058425646275281906, 0.03543170541524887, 0.05784614384174347, 0.08854213356971741, -0.0641288086771965, 0.010032917372882366, -0.02147238701581955, -0.014773582108318806, 0.13675108551979065, -0.06590770184993744, -0.1303214281797409, 0.03855276107788086, 0.1338868886232376, -0.0012798509560525417], [0.1561911553144455, 0.012996647506952286, 0.0017760243499651551, 0.029973115772008896, -0.018493736162781715, 0.07735390216112137, -0.03349563851952553, 0.03017294593155384, 0.025761714205145836, -0.08334510028362274, 0.004457761533558369, -0.0745408833026886, 0.1375754326581955, -0.03759628161787987, -0.03193581849336624, 0.0418369397521019, -0.006386145018041134, 0.11741693317890167, 0.09512128680944443, -0.060175132006406784, -0.03808071091771126, -0.03895116224884987, -0.018529387190937996, 0.12842991948127747, -0.006391049828380346, 0.0357891209423542, 0.042765095829963684, -0.17207373678684235, -0.019547492265701294, -0.012760132551193237, -0.2513348162174225, 0.06212647631764412, 0.12208816409111023, -0.04595285654067993, -0.08463393151760101, 0.02039443887770176, -0.03993530198931694, 0.04441218823194504, 0.10347599536180496, 0.06241435930132866, -0.0372825525701046, -0.017979484051465988, -0.07518765330314636, 0.4575420022010803, -0.05314162001013756, 0.12949083745479584, -0.19032248854637146, 0.21030433475971222, -0.010748753324151039, -0.011571493931114674, -0.07248476147651672, 0.12300612032413483, -0.029969973489642143, -0.05599628761410713], [0.021593187004327774, 0.07023701071739197, 0.03519948944449425, 0.0026494674384593964, 0.1023326888680458, -0.03140909597277641, -0.042531318962574005, -0.0028881884645670652, -0.09117698669433594, 0.21099208295345306, 0.026162948459386826, -0.04177715629339218, -0.06039169430732727, 0.04407458007335663, 0.012898527085781097, 0.007051872089505196, 0.05973229557275772, -0.09940751641988754, 0.01146696787327528, 0.03196629136800766, -0.07791313529014587, -0.03594021499156952, -0.09768939763307571, 0.10228131711483002, -0.105287566781044, -0.11391055583953857, -0.035824768245220184, -0.0074110752902925014, -0.06523718684911728, 0.04721928387880325, 0.13648632168769836, 0.03301556035876274, -0.045509643852710724, -0.052572548389434814, 0.15334442257881165, -0.125311940908432, -0.1605176031589508, 0.03780549019575119, -0.0018850854830816388, 0.0004303807800170034, 0.07993908226490021, -0.029110152274370193, 0.01648223027586937, -0.1667494773864746, 0.008912096731364727, -0.04845600202679634, 0.03199769929051399, -0.046841710805892944, 0.10620294511318207, -0.022034797817468643, -0.06312327086925507, -0.06606223434209824, -0.037161197513341904, -0.03545304015278816], [-0.09203673899173737, -0.14616549015045166, -0.06093583628535271, 0.16565287113189697, -0.017387675121426582, 0.18172426521778107, -0.05070830509066582, 0.028197815641760826, -0.08029232174158096, -0.015620332211256027, 0.119046650826931, -0.0458332858979702, -0.04945904016494751, -0.06208670139312744, -0.12404575198888779, 0.030037537217140198, -0.038266249001026154, -0.061779603362083435, 0.045837562531232834, -0.010037100873887539, 0.17735441029071808, -0.012827722355723381, -0.07608123868703842, 0.06573296338319778, -0.006723442114889622, 0.08368474990129471, -0.005081905052065849, 0.027074065059423447, 0.01050847303122282, 0.04417170584201813, -0.021014882251620293, -0.01769082248210907, -0.06981369853019714, -0.1294843852519989, -0.018119189888238907, 0.06917589902877808, -0.1712695062160492, -0.005009239073842764, -0.12664397060871124, -0.003766897600144148, -0.011507115326821804, 0.16749003529548645, -0.018730398267507553, -0.1795850694179535, -0.0009074538829736412, 0.016143416985869408, 0.06617690622806549, -0.08391553908586502, 0.020515432581305504, -0.14493714272975922, 0.0943208858370781, 0.1473018229007721, 0.027019014582037926, -0.089153952896595], [-0.02098817005753517, 0.06845870614051819, -0.01043821033090353, -0.07549493759870529, -0.04049477353692055, 0.02076149731874466, 0.045173101127147675, 0.06865180283784866, 0.018498318269848824, 0.05210912227630615, -0.02259175293147564, 0.05722304433584213, 0.044425275176763535, 0.04232916235923767, 0.06057273596525192, -0.056797534227371216, 0.0643261969089508, 0.052522335201501846, 0.06260219216346741, 0.06864717602729797, -0.05180308595299721, 0.029976679012179375, 0.06316124647855759, 0.037180304527282715, 0.08307354152202606, -0.08608237653970718, -0.044538818299770355, -0.025359630584716797, -0.03967136889696121, -0.0703170970082283, 0.042479563504457474, 0.16835211217403412, -0.20736122131347656, -0.02748028375208378, -0.030812744051218033, 0.10551349073648453, 0.11109036952257156, 0.11382848024368286, 0.043766528367996216, -0.07564698159694672, 0.03373692184686661, -0.05989713594317436, -0.04001975059509277, -0.4609597623348236, -0.08482116460800171, 0.0177342277020216, 0.0022989173885434866, 0.24685406684875488, -0.046905726194381714, -0.14566262066364288, 0.002534636063501239, -0.014012173749506474, -0.13166414201259613, -0.027167020365595818], [0.03513442724943161, 0.13167931139469147, -0.14711223542690277, 0.031278714537620544, 0.01022531371563673, -0.008093888871371746, 0.0010353535180911422, 0.011345814913511276, 0.06603966653347015, 0.10433890670537949, 0.14975011348724365, -0.037412047386169434, 0.11007260531187057, 0.08467527478933334, 0.0026742410846054554, 0.07747641205787659, 0.03446727991104126, 0.03462111949920654, 0.08044595271348953, 0.026924416422843933, 0.10694929957389832, -0.07616858184337616, 0.036593735218048096, -0.09191834181547165, -0.1165023073554039, -0.08953431248664856, -0.08787038922309875, -0.07595936954021454, 0.049514949321746826, 0.058139488101005554, 0.30194157361984253, -0.2003646343946457, -0.045210327953100204, 0.1653718650341034, -0.0089345658197999, 0.020530862733721733, -0.12258140742778778, 0.07455854117870331, 0.021519245579838753, -0.04638822749257088, 0.07529985159635544, 0.15158532559871674, -0.01590047776699066, -0.32234275341033936, 0.017156707122921944, 0.004717619623988867, 0.05037080869078636, -0.07105176895856857, 0.06162342429161072, 0.18868206441402435, 0.04712749645113945, -0.34217920899391174, 0.018479913473129272, 0.04417929798364639], [-0.025193242356181145, -0.008313215337693691, 0.09848912805318832, 0.09804530441761017, -0.0904088169336319, -0.048654500395059586, -0.008311529643833637, -0.1163644939661026, -0.03110119327902794, -0.11364889144897461, 0.030515069141983986, -0.04263845086097717, -0.06042662262916565, 0.04547245427966118, -0.02903892658650875, -0.2545834183692932, 0.053795959800481796, -0.03183862194418907, -0.18629083037376404, -0.013562806881964207, -0.03531404957175255, -0.07754561305046082, -0.04191990941762924, -0.04532279074192047, 0.010111804120242596, 0.06579238176345825, -0.03152322769165039, 0.04218808934092522, 0.03415830805897713, -0.048317454755306244, 0.019689835608005524, 0.02875547856092453, -0.09573355317115784, 0.07773669064044952, -0.028302941471338272, 0.10063552111387253, -0.15256477892398834, 0.03860476613044739, -0.00019417842850089073, 0.05399518460035324, 0.021162040531635284, 0.07680920511484146, 0.009040018543601036, -0.09432996809482574, -0.04942325875163078, 0.09190730005502701, -0.11918781697750092, 0.042998023331165314, -0.156675323843956, 0.046065740287303925, -0.08422881364822388, -0.007273009512573481, -0.022221757099032402, 0.06869412213563919], [0.2224770188331604, 0.08606777340173721, -0.011382929049432278, 0.11950276792049408, 0.02106252685189247, 0.011648121289908886, 0.11207059770822525, -0.017377421259880066, 0.08876775205135345, 0.06492940336465836, 0.08220411092042923, 0.009186909534037113, -0.03871157020330429, 0.023702256381511688, 0.0760699138045311, 0.023007044568657875, -0.01704709231853485, 0.025193504989147186, 0.026117710396647453, -0.02799554355442524, -0.06091470643877983, 0.13689851760864258, 0.17199401557445526, -0.04163959622383118, -0.0037074293941259384, 0.1434488743543625, -0.07981827855110168, -0.05730392783880234, 0.0674973800778389, -0.0036606870125979185, -0.2364702671766281, 0.11632402241230011, 0.09167232364416122, 0.1591615229845047, 0.022953087463974953, 0.05393864959478378, -0.0016445000655949116, -0.0726282075047493, -0.12217798084020615, 0.01848558522760868, -0.031240010634064674, 0.16670449078083038, 0.028105566278100014, -0.003496962133795023, -0.062175583094358444, 0.0578220970928669, -0.1473415344953537, 0.0574960820376873, -0.060432687401771545, -0.046757135540246964, -0.054728854447603226, 0.22348757088184357, -0.06068282574415207, 0.08826914429664612], [0.163274884223938, 0.1553775519132614, -0.08056297898292542, 0.08615174889564514, 0.08314750343561172, 0.11888597905635834, 0.0017623344901949167, 0.07362239062786102, 0.04140782728791237, 0.09137953817844391, 0.24151362478733063, 0.05448847636580467, -0.0974150225520134, 0.16122505068778992, -0.00456101493909955, 0.01440928503870964, 0.07383916527032852, 0.03005654364824295, 0.12674948573112488, 0.06236832216382027, -0.01580970175564289, -0.026665134355425835, 0.02298130840063095, -0.0027642252389341593, 0.00180875975638628, -0.08193649351596832, -0.0046934704296290874, 0.045788224786520004, -0.06352250277996063, -0.1995316743850708, -0.22649621963500977, 0.034998685121536255, -0.04724179580807686, -0.05390436574816704, 0.034889642149209976, -0.006943054962903261, 0.06983932107686996, -0.17663484811782837, -0.0730755478143692, 0.09362947195768356, -0.0687696561217308, 0.16823062300682068, 0.13090570271015167, 0.5243509411811829, -0.030338488519191742, -0.06358787417411804, -0.18947240710258484, 0.22279681265354156, -0.05211157351732254, 0.09718489646911621, -0.12195072323083878, 0.08981669694185257, -0.06918355077505112, 0.1294892281293869], [0.05928722023963928, -0.031929753720760345, 0.026042481884360313, 0.043850671499967575, 0.09388440102338791, -0.003800056641921401, 0.08921948820352554, 0.006833307910710573, 0.03697768971323967, 0.1515578329563141, 0.06481103599071503, -0.16458874940872192, -0.18252645432949066, 0.056115780025720596, 0.03934663534164429, -0.033274538815021515, -0.09305893629789352, -0.04159913957118988, 0.0033223568461835384, 0.07229726761579514, 0.048494841903448105, -0.03410016745328903, -0.01219859253615141, 0.08856841176748276, 0.0004954547621309757, -0.0399739034473896, -0.0036051548086106777, -0.019523750990629196, 0.1574062705039978, -0.007357016671448946, 0.01768115907907486, 0.06167719140648842, 0.13533468544483185, 0.02999086305499077, 0.11131200939416885, -0.0014006439596414566, 0.13324330747127533, 0.027096016332507133, 0.025881024077534676, -0.034794777631759644, 0.030568460002541542, 0.06195709481835365, 0.05752762407064438, 0.29596254229545593, -0.05305536836385727, -0.02531835436820984, -0.3577163517475128, 0.014640213921666145, -0.1191648319363594, -0.28476205468177795, -0.06190493702888489, 0.4031934142112732, -0.12204945087432861, -0.06481087952852249], [0.08447394520044327, -0.02924961782991886, -0.039047010242938995, -8.244524360634387e-05, -0.014586403034627438, 0.01316872239112854, 0.05788886919617653, -0.01772799715399742, -0.038131993263959885, -0.12272785604000092, -0.018525494262576103, -0.11247241497039795, 0.05390487238764763, -0.09066089242696762, -0.015042743645608425, -0.019789855927228928, 0.0032626446336507797, 0.08520273119211197, 0.006217760033905506, 0.050870802253484726, -0.014722354710102081, -0.00757208839058876, 0.04302271455526352, 0.11212397366762161, 0.11964787542819977, -0.15667062997817993, -0.07731830328702927, -0.03235292062163353, 0.037311043590307236, 0.14613065123558044, -0.03607364371418953, -0.019478527829051018, -0.06393744796514511, -0.04371119290590286, 0.07896538078784943, -0.003336471039801836, 0.0216144360601902, -0.0823097974061966, 0.14282894134521484, -0.008799298666417599, 0.024925174191594124, -0.07081996649503708, -0.0944817066192627, 0.03555338829755783, -0.07114782184362411, -0.10174090415239334, 0.1348089873790741, -0.05188687890768051, -0.01577034592628479, -0.027293890714645386, 0.1331024318933487, 0.05245254933834076, -0.05477626621723175, -0.005946076009422541], [-0.014973664656281471, 0.0024692562874406576, 0.03700334578752518, -0.017198575660586357, -0.03227680176496506, -0.11305028945207596, 0.03232492506504059, -0.10011895000934601, 0.12247379124164581, 0.0726868212223053, 0.05321652814745903, 0.017827307805418968, 0.1919204741716385, 0.0551561638712883, 0.03884260356426239, -0.013625784777104855, 0.16488420963287354, -0.02709454856812954, 0.11787153780460358, -0.011562613770365715, 0.047876957803964615, 0.12745597958564758, 0.05202958360314369, 0.10225065797567368, 0.10174515098333359, 0.08160114288330078, 0.030271699652075768, 0.11358355730772018, 0.09592733532190323, 0.1204446479678154, -0.21151317656040192, 0.37648072838783264, 0.0714133009314537, 0.007417479995638132, 0.01462810393422842, -0.029979746788740158, 0.06538013368844986, 0.20941904187202454, -0.0001704616443021223, 0.0360763818025589, 0.01142960973083973, 0.027185123413801193, 0.0504058375954628, 0.7246130108833313, -0.0252839308232069, -0.09544698148965836, -0.15954601764678955, -0.06647567451000214, 0.08213942497968674, -0.15566542744636536, -0.08598582446575165, 0.1566789597272873, -0.06248628348112106, 0.060147177428007126], [-0.022754201665520668, 0.15631890296936035, -0.010156265459954739, 0.051870327442884445, -0.08529329299926758, 0.0829705148935318, -0.0686849057674408, -0.026199672371149063, 0.08556696772575378, -0.016680017113685608, 0.10774780809879303, 0.01841798610985279, -0.12628909945487976, 0.09784635901451111, 0.11583632975816727, 0.07672272622585297, 0.05272231996059418, 0.05386921018362045, -0.007552348542958498, 0.0656341016292572, -0.08976851403713226, 0.07964183390140533, -0.03337594494223595, 0.06906931102275848, 0.10941717773675919, 0.04439638555049896, 0.01873590797185898, -0.0752832219004631, -0.04141927883028984, 0.10496843606233597, -0.18220478296279907, 0.22295764088630676, 0.015603677369654179, 0.1137576550245285, -0.047172319144010544, 0.06067917123436928, -0.0406559593975544, 0.13384781777858734, 0.18884685635566711, -0.046702589839696884, 0.00046068738447502255, 0.22081509232521057, 0.136294886469841, -0.3791900873184204, 0.21245039999485016, -0.14531955122947693, 0.15706866979599, 0.0645209476351738, -0.08635960519313812, 0.1558384746313095, 0.08713698387145996, -0.2287970781326294, 0.040238652378320694, 0.05797715112566948], [0.06698969751596451, -0.07207223027944565, 0.1447606086730957, -0.08316142857074738, 0.04575645178556442, -0.042364414781332016, 0.030444685369729996, 0.08148795366287231, 0.03963981568813324, -0.09685030579566956, -0.013597189448773861, 0.11799661815166473, -0.009884958155453205, 0.1212763711810112, 0.12337317317724228, -0.029333604499697685, 0.0648937001824379, 0.02325735241174698, 0.04837210103869438, -0.031886640936136246, 0.03656725957989693, 0.03883197903633118, 0.023150021210312843, -0.10493561625480652, 0.0444803386926651, -0.0030655376613140106, 0.20153522491455078, 0.024649448692798615, -0.012794450856745243, -0.009470500983297825, -0.0014419924700632691, 0.014240473508834839, 0.05183372646570206, -0.018354978412389755, -0.14569440484046936, 0.004765871446579695, 0.05361837148666382, 0.2076752483844757, 0.0037659527733922005, 0.19264355301856995, -0.06720276921987534, -0.020398294553160667, 0.02936357818543911, -0.044348958879709244, -0.042549654841423035, -0.014745128341019154, -0.06162307411432266, -0.06697503477334976, -0.012271366082131863, -0.03753319010138512, -0.07754182815551758, -0.020362434908747673, 0.05942915752530098, 0.07590053230524063], [-0.21043717861175537, -0.05230063199996948, 0.0560147762298584, 0.031722187995910645, 0.03925957903265953, -0.021735237911343575, 0.036122653633356094, 0.025206254795193672, 0.09780345857143402, 0.016254056245088577, -0.14388538897037506, -0.1854521781206131, -0.06967797130346298, -0.09190899133682251, -0.05043650418519974, 0.03240065649151802, 0.15338237583637238, -0.018027912825345993, 0.10430937260389328, 0.09287551045417786, -0.07301490753889084, 0.018646666780114174, 0.023291196674108505, 0.06896118074655533, 0.07625327259302139, 0.033856768161058426, 0.13533394038677216, 0.012164780870079994, -0.07068855315446854, 0.11252724379301071, 0.04940095543861389, -0.13028880953788757, 0.16363105177879333, 0.08791520446538925, -0.018013417720794678, 0.24346892535686493, -0.07973863929510117, 0.09192011505365372, -0.03043537028133869, 0.060382481664419174, 0.06674163043498993, 0.21441611647605896, -0.11510002613067627, 0.0891314297914505, -0.130743145942688, 0.09249413013458252, 0.008937849663197994, -0.011431719176471233, -0.014596441760659218, 0.12102477252483368, -0.06100209057331085, -0.027482852339744568, 0.10119106620550156, -0.05925574153661728], [0.18192154169082642, 0.09046003222465515, 0.004960238002240658, 0.03608785942196846, 0.03102472424507141, 0.039551421999931335, -0.06885204464197159, 0.04430422931909561, 0.10087934136390686, 0.09303226321935654, 0.13331857323646545, 0.14450228214263916, 0.06207408756017685, 0.0919894352555275, 0.11705158650875092, 0.03141789883375168, -0.052036646753549576, 0.037841688841581345, 0.053850747644901276, 0.008687838912010193, 0.01728213205933571, 0.09272157400846481, 0.22673171758651733, -0.07803992182016373, 0.09061896055936813, 0.06354546546936035, 0.02864467166364193, 0.19782069325447083, 0.011657091788947582, 0.07627838104963303, -0.08422588557004929, 0.12211368978023529, 0.2041371762752533, -0.04869187995791435, 0.05302899330854416, -0.05089479312300682, -0.1428535431623459, -0.025673290714621544, 0.07156471908092499, 0.08235775679349899, 0.02482917532324791, -0.1340489238500595, -0.04906562343239784, -0.48311665654182434, -0.024052616208791733, 0.03315705806016922, -0.18666039407253265, -0.03743133321404457, -0.03603591397404671, -0.14135892689228058, 0.012461393140256405, -0.11077043414115906, -0.010153042152523994, -0.17297765612602234], [0.17052844166755676, -0.025538168847560883, 0.08860011398792267, -0.01812763884663582, 0.10050341486930847, -0.14869822561740875, 0.014797570183873177, -0.057485129684209824, 0.06623119860887527, 0.08967383950948715, 0.038247205317020416, -0.07825040817260742, 0.01980403997004032, 0.029336463660001755, 0.06299537420272827, -0.09803696721792221, 0.1348387897014618, 0.027668312191963196, 0.08025560528039932, -0.13526524603366852, 0.002849964192137122, 0.18643200397491455, 0.07127310335636139, -0.004590075928717852, 0.055679962038993835, -0.0733061134815216, 0.07222862541675568, 0.031326279044151306, 0.02173636108636856, -0.01837422139942646, -0.09648903459310532, 0.04355468228459358, 0.07914739847183228, 0.056726738810539246, -0.09927389025688171, 0.08595442771911621, 0.010176341980695724, 0.08626329898834229, -0.23189064860343933, -0.018730582669377327, 0.07108236849308014, 0.09879414737224579, -0.02815169095993042, -0.1871607005596161, 0.01789015717804432, -0.010199629701673985, -0.036176543682813644, 0.16076618432998657, -0.04381971061229706, 0.03636666014790535, 0.0656808391213417, -0.10440949350595474, 0.022117961198091507, -0.032788459211587906], [-0.04995313286781311, -0.04617229104042053, 0.07476315647363663, -0.06563371419906616, 0.13772299885749817, 0.03578735515475273, 0.04089389368891716, 0.028930766507983208, -0.021976875141263008, 0.024934565648436546, 0.023761887103319168, 0.10809194296598434, -0.07190626859664917, 0.05850668251514435, 0.08402353525161743, 0.064900241792202, 0.07573605328798294, 0.008750188164412975, 0.021476484835147858, 0.02062482014298439, 0.08149763196706772, 0.07020042836666107, -0.07576391100883484, -0.11467337608337402, 0.1378069519996643, 0.08877498656511307, -0.05685543268918991, 0.003132495330646634, 0.040543995797634125, 0.0548233687877655, -0.06022874638438225, 0.026414332911372185, -0.023941608145833015, 0.11099565774202347, 0.1060153990983963, -0.055937204509973526, -0.07630671560764313, 0.014693244360387325, -0.028725499287247658, -0.07054430991411209, -0.02429085038602352, 0.14155204594135284, -0.047600001096725464, 0.4969519078731537, -0.031773172318935394, 0.0095281433314085, -0.10810001939535141, 0.029182596132159233, 0.02510513924062252, -0.10605411231517792, -0.12563027441501617, -0.001873222878202796, 0.019158586859703064, -0.0009760817629285157], [-0.10562960058450699, 0.03896748647093773, -0.006731897592544556, -0.10877315700054169, -0.008395807817578316, -0.02479766495525837, -0.07987221330404282, 0.016718221828341484, 0.0827866643667221, 0.13795720040798187, -0.005350975785404444, 0.10220730304718018, -0.10102753341197968, 0.1427946835756302, 0.022847307845950127, 0.039711788296699524, -0.007913690060377121, 0.05496245250105858, 0.02866644226014614, 0.11273203045129776, 0.010837851092219353, -0.05105256661772728, 0.13326655328273773, 0.10969100892543793, 0.08672662824392319, 0.05245479568839073, -0.07373534888029099, -0.0927995964884758, 0.0837700217962265, -0.0765153169631958, -0.026529479771852493, 0.06311824172735214, -0.1341681033372879, 0.24976979196071625, -0.012742450460791588, 0.05103066563606262, -0.02430718019604683, 0.004665627144277096, -0.05031414330005646, 0.018216580152511597, 0.13701564073562622, -0.14965857565402985, 0.07301151752471924, -0.21041704714298248, -0.1009429320693016, 0.028999244794249535, 0.16165845096111298, 0.11053348332643509, -0.0019867585506290197, 0.05510397627949715, -0.055872295051813126, 0.12357023358345032, 0.006369880400598049, -0.025862619280815125], [-0.0518345981836319, -0.029619291424751282, -0.10007374733686447, -0.06692565977573395, 0.04816221073269844, 0.11329253762960434, 0.031159430742263794, 0.03654519468545914, 0.10792417824268341, 0.21588252484798431, 0.013341902755200863, -0.04200778529047966, 0.07666633278131485, 0.11454039067029953, 0.08396857231855392, -0.15771934390068054, 0.0516459196805954, -0.020439019426703453, 0.037106432020664215, -0.05024551972746849, 0.019426319748163223, 0.12321436405181885, 0.050726231187582016, 0.25195643305778503, -0.07796172797679901, -0.05026432126760483, 0.1493881195783615, -0.03802666813135147, 0.04618561640381813, 0.022141240537166595, -0.012576231732964516, 0.13764023780822754, 0.05411609262228012, 0.029112430289387703, -0.11283650249242783, -0.005529290065169334, 0.07580380886793137, -0.01021791622042656, 0.003753623692318797, 0.04989762231707573, -0.0005714170983992517, 0.09311540424823761, -0.024393726140260696, 0.22065402567386627, 0.12349310517311096, -0.08399394899606705, -0.09758808463811874, -0.037185028195381165, -0.01825058087706566, 0.1258326768875122, 0.017110107466578484, 0.08348005264997482, -0.20771414041519165, -0.031662359833717346], [0.06485362350940704, -0.11907082051038742, -0.12701410055160522, -0.05603501573204994, 0.08707758784294128, 0.06886494904756546, -0.15701691806316376, -0.04501718282699585, -0.04669501259922981, 0.12020694464445114, 0.03962191939353943, 0.04326322674751282, -0.053180988878011703, -0.0798761397600174, 0.01610754244029522, -0.07496767491102219, 0.05336079001426697, 0.05965474247932434, -0.11505379527807236, 0.01773621141910553, -0.08279551565647125, 0.16248150169849396, 0.15084229409694672, 0.00016513823356945068, -0.010397751815617085, 0.05513888597488403, -0.043347831815481186, -0.041830405592918396, 0.1402321308851242, -0.004548454191535711, 0.031087083742022514, -0.03350795432925224, -0.010074717923998833, 0.08477875590324402, -0.014722095802426338, -0.025933759286999702, -0.0372842438519001, 0.045990023761987686, 0.05843988433480263, -0.03367498517036438, 0.010836081579327583, -0.041439950466156006, -0.08436638861894608, -0.09924120455980301, 0.0013178014196455479, 0.04875100776553154, -0.12371036410331726, -0.034019503742456436, 0.13410790264606476, -0.08093249052762985, 0.12238946557044983, -0.007494514808058739, 0.053928397595882416, -0.08801909536123276], [0.12450388818979263, 0.04550281912088394, -0.0626378133893013, 0.12413817644119263, 0.0850781798362732, -0.04701182246208191, -0.035894788801670074, -0.034500282257795334, -0.03155282884836197, 0.07197809964418411, -0.07909715920686722, -0.005282489582896233, 0.043822888284921646, 0.03156352415680885, -0.05930399149656296, 0.19110220670700073, 0.157288059592247, 0.043475911021232605, -0.001983189256861806, -0.10793274641036987, 0.0771360918879509, -0.05879324674606323, 0.05828974023461342, 0.10216526687145233, 0.022611021995544434, -0.09515301883220673, -0.07515385746955872, -0.0016125752590596676, -0.01605062186717987, -0.04226173460483551, 0.3170739412307739, -0.15798506140708923, -0.08598171919584274, -0.060790762305259705, -0.10187118500471115, -0.08287639170885086, 0.03194586932659149, 0.08189906924962997, 0.018629563972353935, 0.055443380028009415, 0.019632313400506973, 0.09078513085842133, 0.025899244472384453, -0.23335674405097961, -0.2396981418132782, 0.06240937486290932, 0.11149322986602783, 0.005620993208140135, -0.10871081054210663, 0.007848610170185566, -0.010226596146821976, 0.03367384150624275, -0.04369917884469032, -0.09566404670476913], [-0.058632683008909225, 0.11171700060367584, -0.0029731597751379013, -0.007469139993190765, 0.012941303662955761, -0.019749434664845467, 0.029507456347346306, -0.1246127188205719, -0.03388073667883873, 0.1572648286819458, 0.06826461851596832, 0.011019628494977951, -0.016396168619394302, 0.12216872721910477, 0.031444039195775986, -0.05229566991329193, 0.07837426662445068, 0.08015148341655731, 0.06293963640928268, -0.018406357616186142, 0.11065977066755295, 0.027443086728453636, -0.028366604819893837, -0.03545363247394562, 0.06303075700998306, 0.038457415997982025, 0.01010621152818203, -0.041471704840660095, -0.029840074479579926, -0.0004310827061999589, 0.2121889591217041, -0.1921684294939041, -0.12064515054225922, 0.040519796311855316, -0.13605591654777527, 0.00800462905317545, 0.13887257874011993, -0.061982572078704834, -0.07602445036172867, 0.020943591371178627, -0.04373495653271675, 0.0007769850199110806, -6.667919660685584e-05, 0.03965586796402931, -0.22275440394878387, 0.0805579423904419, -0.20965799689292908, 0.02521790936589241, 0.057657960802316666, -0.12403611093759537, -0.014846162870526314, 0.007937722839415073, 0.08778015524148941, 0.02039710059762001], [-0.006230595521628857, 0.006180979311466217, 0.00015344283019658178, -4.527315013547195e-06, -0.005325050093233585, -0.00026166392490267754, -0.007052444852888584, 0.036329012364149094, -0.16506196558475494, -0.1649988442659378, 0.00020937966473866254, 0.11234675347805023, -0.03940730169415474, -0.167046457529068, -0.16699814796447754, 0.00010800319432746619, 0.032578203827142715, -0.07282979041337967, -0.07286570966243744, -0.07280619442462921, 0.00014754754374735057, 0.006522063631564379, 0.0062444135546684265, 0.0061583262868225574, 0.006217708345502615, 0.00020079631940461695, 0.0167415589094162, 0.01673503778874874, 0.01677747443318367, 0.016803719103336334, -0.02414904162287712, -0.22989608347415924, -0.11201126873493195, 0.02677306719124317, -0.15540719032287598, -0.11157608032226562, 0.07186540961265564, -0.13367484509944916, -0.045455869287252426, -0.38588741421699524, -0.12422693520784378, 1.6224805116653442, 0.03994796797633171, -0.4893408417701721, -0.0935615822672844, 0.008210349828004837, -0.019297396764159203, -0.1277543157339096, 0.027314748615026474, -0.08132730424404144, -0.11054109036922455, -0.06258948147296906, -0.036814697086811066, 0.12666217982769012], [-0.08488509058952332, -0.07198192924261093, 0.1705547273159027, 0.05019861459732056, 0.0316774882376194, 0.03216548636555672, 0.05120232701301575, 0.00043404000462032855, 0.03468584269285202, -0.08240193873643875, 0.03111257031559944, -0.09034445881843567, -0.16233161091804504, -0.13731655478477478, -0.0016540053766220808, -0.12797348201274872, 0.10994729399681091, -0.02135179378092289, -0.11078904569149017, 0.08121749013662338, -0.06730394810438156, -0.020639993250370026, -0.06524308025836945, -0.06256107240915298, 0.003942013252526522, 0.01730084791779518, -0.04182569310069084, 0.06444080173969269, 0.11685963720083237, 0.1250390112400055, -0.11466443538665771, -0.023918475955724716, 0.15492771565914154, -0.00036704831290990114, 0.015112197026610374, -0.02562728337943554, -0.01933601126074791, -0.030858004465699196, -0.044221725314855576, -0.07380786538124084, -0.14735499024391174, -0.04998509958386421, -0.012286430224776268, 0.10508015006780624, -0.009932205080986023, -0.0516437403857708, 0.2038714587688446, -0.021638542413711548, 0.00936582125723362, 0.044434525072574615, 0.15509150922298431, 0.07858068495988846, 0.03627876937389374, 0.02723715268075466], [-0.15362992882728577, -0.15823546051979065, 0.004968621768057346, 0.08000975102186203, -0.12809012830257416, -0.1616751253604889, 0.0316956453025341, 0.09629061073064804, 0.18050852417945862, 0.058116983622312546, -0.104257732629776, -0.053001660853624344, -0.04102126136422157, 0.059838052839040756, 0.07806671410799026, -0.19160263240337372, 0.07542628049850464, 0.041514430195093155, 0.026130888611078262, 0.03662872686982155, -0.043914325535297394, 0.024691389873623848, 0.034580446779727936, 0.013402084819972515, 0.016717195510864258, -0.14031319320201874, 0.003369205631315708, 0.0066870590671896935, 0.0036339624784886837, -0.012953788042068481, -0.057258810847997665, -0.10242089629173279, 0.18431155383586884, 0.08128800988197327, 0.04522041231393814, 0.09164439886808395, -0.045521873980760574, 0.04649128019809723, 0.13285163044929504, 0.06790074706077576, -0.01416274905204773, 0.05240104719996452, 0.010482775047421455, 0.13433194160461426, 0.007792001590132713, 0.08919057250022888, -0.07410137355327606, 0.07672226428985596, -0.019367467612028122, 0.02322179451584816, -0.03541316092014313, 0.19134469330310822, -0.12919506430625916, 0.11968238651752472], [-0.0815618634223938, -0.014943541958928108, -0.0804358571767807, -0.0070151216350495815, -0.021554073318839073, -0.041281651705503464, -0.11906883120536804, -0.1180427223443985, 0.0723627358675003, -0.033506494015455246, 0.09318073093891144, 0.07143469899892807, 0.08484098315238953, 0.08427343517541885, 0.043291982263326645, 0.05722822621464729, 0.049140140414237976, 0.02817121334373951, -0.07129571586847305, -0.019983254373073578, 0.1697334498167038, -0.01804930716753006, 0.015004847198724747, -0.03517423942685127, 0.006145148072391748, -0.03221157193183899, -0.05013234168291092, 0.16202396154403687, 0.12551249563694, 0.060378339141607285, 0.04335330054163933, -0.0790032148361206, 0.0030512320809066296, -0.09822020679712296, 0.0779540166258812, -0.0924403965473175, 0.0212803166359663, 0.13417619466781616, 0.017282381653785706, -0.024031993001699448, 0.12394209951162338, 0.17556096613407135, -0.14580900967121124, 0.6974511742591858, -0.10111358761787415, 0.10120224207639694, -0.15151070058345795, 0.0021534881088882685, 0.06635435670614243, -0.032252002507448196, -0.14054584503173828, 0.004574417136609554, -0.19925402104854584, -0.14477534592151642], [0.03943406790494919, 0.02286691777408123, 0.007382078096270561, 0.04124278575181961, 0.05494128540158272, 0.004021892324090004, 0.042545221745967865, -0.003044113051146269, 0.06759139895439148, 0.08840934932231903, 0.0037851964589208364, 0.0036177015863358974, -0.05160154029726982, 0.010965997353196144, 0.01089844387024641, -0.02921108342707157, -0.06985191255807877, 0.02099871262907982, 0.026484860107302666, -0.02224346436560154, 0.043113984167575836, -0.07152284681797028, -0.0889563262462616, -0.060425110161304474, -0.0809609442949295, 0.059648893773555756, 0.08116351068019867, 0.06291668862104416, -0.099130779504776, 0.032762594521045685, 0.2115030437707901, -0.4003222584724426, 0.19831915199756622, -0.1303783804178238, -0.08545249700546265, -0.04256809130311012, 0.006245971191674471, -0.1188117191195488, -0.0213505569845438, -0.00525997020304203, -0.048601582646369934, 0.30395421385765076, 0.07685812562704086, 0.5028061866760254, -0.11518100649118423, 0.21010906994342804, -0.06156197190284729, -0.008748608641326427, -0.09476052224636078, -0.060633715242147446, -0.03505865857005119, 0.4231884479522705, -0.17932170629501343, 0.07682877779006958], [-0.05922667682170868, -0.09536658227443695, 0.0286902766674757, -0.0889476016163826, 0.014061049558222294, 0.056747496128082275, -0.09591007977724075, 0.016478199511766434, 0.05818590149283409, -0.045281291007995605, 0.030864117667078972, -0.00658720638602972, -0.010922002606093884, 0.0192174781113863, 0.10137327015399933, 0.036061275750398636, 0.04036659747362137, 0.029659336432814598, -0.09009023010730743, -0.03689882531762123, 0.01569426991045475, 0.025875989347696304, -0.10426778346300125, -0.0027840379625558853, 0.04841130971908569, 0.09270744025707245, -0.09157516062259674, -0.016138141974806786, -0.027500350028276443, 0.06860572844743729, 0.09765689074993134, -0.04447329044342041, 0.00019325643370393664, -0.13472341001033783, -0.09228522330522537, 0.04475216940045357, -0.16220779716968536, 0.07596701383590698, -0.09463799744844437, -0.21846389770507812, 0.10596822202205658, -0.10605041682720184, 0.10654404014348984, 0.2615255117416382, 0.19950851798057556, 0.06307412683963776, 0.1075645163655281, 0.23169097304344177, 0.00032357286545448005, -0.010278137400746346, 0.07625357806682587, -0.047535039484500885, 0.12473676353693008, -0.005319142248481512], [-0.10129973292350769, 0.016367100179195404, -0.08448804914951324, -0.023779621347784996, 0.050584208220243454, -0.05655195564031601, -0.027940480038523674, -0.09519527852535248, -0.09697829186916351, -0.08694057166576385, 0.05755646526813507, -0.1109621524810791, 0.06557858735322952, 0.11658332496881485, 0.09635023772716522, 0.01785673014819622, -0.008788716979324818, 0.058656081557273865, 0.05909477546811104, 0.06787895411252975, 0.2985926568508148, 0.16952964663505554, 0.07989086210727692, 0.08309075236320496, 0.07217156141996384, 0.11996324360370636, 0.08947645872831345, 0.024289637804031372, -0.019057925790548325, 0.00784398429095745, -0.20230869948863983, 0.3840670883655548, -0.08516465872526169, -0.01873374730348587, 0.08733232319355011, -0.03864506259560585, -0.019668757915496826, 0.04971575364470482, -0.06706830859184265, 0.037514831870794296, -0.06966590881347656, -0.12297235429286957, 0.00016232214693445712, 0.42122045159339905, -0.07228679209947586, -0.19961221516132355, 0.14838533103466034, 0.05204431340098381, -0.007070185616612434, 0.0726407915353775, -0.10976693779230118, -0.15514586865901947, 0.060309406369924545, -0.10037637501955032], [0.1179085373878479, 0.24795204401016235, 0.0037221452221274376, -0.12059012055397034, -0.005450825206935406, -0.0749504491686821, -0.10296356678009033, 0.021926240995526314, 0.1596650630235672, 0.045950572937726974, -0.21457117795944214, -0.01662059687077999, -0.01649181917309761, 0.08617472648620605, 0.04976588115096092, -0.19158031046390533, -0.08490604907274246, -0.0355716198682785, -0.034593548625707626, -0.06538129597902298, -0.08782073110342026, -0.03572549670934677, -0.058921702206134796, -0.029352234676480293, -0.1298006922006607, 0.08122222870588303, -0.04483013600111008, -0.04790786653757095, -0.04933604225516319, -0.028940124437212944, -0.12618757784366608, 0.01181391254067421, -0.0012188798282295465, 0.14243413507938385, 0.03534283488988876, -0.014869650825858116, 0.03553072735667229, 0.05552953481674194, -0.01776883192360401, -0.07392480224370956, -0.07399196922779083, 0.26352033019065857, -0.02973920851945877, -0.08006924390792847, -0.26075536012649536, 0.13998658955097198, 0.021022066473960876, 0.038352396339178085, -0.06074918434023857, 0.11025476455688477, 0.060606084764003754, -0.07163508981466293, -0.04333307966589928, 0.04090768098831177], [-0.17719946801662445, -0.07790638506412506, -0.03436386212706566, -0.04398345947265625, -0.022163696587085724, -0.024583879858255386, 0.018451694399118423, 0.011270508170127869, 0.08325868844985962, 0.011485366150736809, 0.025957593694329262, -0.16693060100078583, 0.06367804110050201, 0.030794214457273483, 0.03534982353448868, 0.14242728054523468, -0.05278729274868965, 0.04333458095788956, 0.012756619602441788, 0.018707912415266037, -0.08239596337080002, -0.09556832909584045, -0.08779893070459366, -0.07975944131612778, 0.11098337173461914, 0.047686222940683365, -0.014179348945617676, 0.0065898597240448, -0.01350691169500351, -0.07373746484518051, 0.08128368109464645, -0.08964849263429642, 0.03778492286801338, 0.01955101266503334, -0.04599107801914215, -0.002884529996663332, 0.008125878870487213, 0.03704735264182091, 0.11232206225395203, 0.024124830961227417, 0.02476414665579796, 0.05701156333088875, 0.08292228728532791, 0.03373391926288605, -0.09091264754533768, 0.036583300679922104, -0.11672710627317429, 0.0939093604683876, -0.12726029753684998, 0.22436439990997314, -0.0039267209358513355, -0.3118240237236023, -0.012136650271713734, -0.1682203710079193], [-0.09311731904745102, 0.10901433229446411, -0.035710420459508896, -0.08750773221254349, 0.07823777198791504, -0.04090661555528641, -0.05867651477456093, -0.08652706444263458, -0.09867292642593384, -0.034047674387693405, -0.003733424236997962, 0.12399531155824661, 0.1158687099814415, 0.0834161788225174, 0.0016411117976531386, -0.11520961672067642, 0.05547365918755531, 0.04092239961028099, 0.06976979970932007, -0.07724465429782867, -0.051271721720695496, 0.1064077690243721, 0.01653832010924816, 0.2296684831380844, 0.09268904477357864, 0.024111315608024597, 0.10525123029947281, 0.10544707626104355, 0.10824386775493622, 0.10389743745326996, -0.1826898753643036, 0.008706490509212017, 0.2951524555683136, -0.027563510462641716, -0.12465257942676544, -0.06112125888466835, -0.14629505574703217, 0.10383529961109161, 0.05997943878173828, 0.0930095762014389, 0.05509701743721962, 0.056401751935482025, 0.09280169755220413, 0.1381351500749588, 0.047900255769491196, -0.10869014263153076, 0.032592400908470154, 0.06352353096008301, 0.02664918079972267, 0.018833624199032784, 0.06813184916973114, 0.20212671160697937, 0.005167023744434118, 0.034762147814035416], [-0.02749004028737545, 0.18431633710861206, 0.02364121749997139, -0.10312554985284805, -0.04219667613506317, 0.07813918590545654, -0.10399734228849411, 0.130716010928154, -0.029682248830795288, 0.053099408745765686, 0.11308586597442627, -0.012991176918148994, -0.14716863632202148, 0.04504084959626198, 0.0560917854309082, 0.09033653140068054, 0.014280462637543678, -0.051609791815280914, -0.011347461491823196, 0.05245071277022362, -0.02671736478805542, -0.062322694808244705, -0.026129091158509254, -0.04288681969046593, -0.10746815800666809, 0.0416722372174263, 0.09189730882644653, 0.08240048587322235, 0.09186044335365295, 0.0496763251721859, 0.07210025191307068, -0.016018131747841835, -0.014925829134881496, -0.03766294941306114, 0.04516809061169624, -0.007035937625914812, 0.13010048866271973, -0.02570590190589428, 0.10062450170516968, 0.10526996105909348, -0.06595470011234283, 0.10397636890411377, 0.06472349166870117, -0.022673139348626137, -0.06121671572327614, 0.02583557739853859, -0.24955174326896667, -0.08769640326499939, 0.13301892578601837, -0.02018517442047596, -0.02909112349152565, -0.19705049693584442, 0.03227837011218071, -0.03502863645553589], [-0.045521918684244156, -0.2547397017478943, -0.0035916115157306194, -0.06433862447738647, 0.004227048251777887, -0.006445352919399738, -0.010546506382524967, -0.07515193521976471, 0.06614657491445541, 0.002380539197474718, -0.004489588551223278, -0.06726451963186264, 0.06258974224328995, 0.034884024411439896, 0.02635607123374939, -0.10696106404066086, -0.039356205612421036, 0.03639693185687065, 0.02904563769698143, 0.025899741798639297, -0.03562038019299507, -0.045869965106248856, -0.055949509143829346, -0.04847748577594757, -0.05362134426832199, -0.046943578869104385, 0.002841435605660081, -0.002237656619399786, 0.014920861460268497, -0.014828218147158623, -0.052360713481903076, 0.04627140983939171, -0.07722748816013336, 0.056253064423799515, 0.12461975961923599, 0.0274394229054451, -0.03451105207204819, 0.12261024862527847, -0.07678111642599106, -0.09634823352098465, 0.17418013513088226, 0.04725005477666855, 0.059212733060121536, 0.0038975572679191828, -0.08253522962331772, 0.08105672895908356, 0.171799436211586, 0.06592697650194168, -0.016872402280569077, -0.0180719755589962, 0.11662594228982925, -0.4471012055873871, 0.07667135447263718, 0.011640871874988079], [0.09618832916021347, -0.07262285053730011, -0.01449707429856062, 0.0005382003728300333, 0.0752786248922348, -0.05320657789707184, -0.0890970528125763, -0.017446937039494514, -0.011043855920433998, -0.02942892350256443, 0.020649118348956108, -0.07260333746671677, -0.15107794106006622, -0.01936890371143818, -0.013258511200547218, 0.04875816032290459, 0.0251834187656641, 0.06884120404720306, 0.06847444176673889, 0.047094348818063736, -0.020838499069213867, 0.045130304992198944, -0.03396684303879738, -0.019351225346326828, -0.05182785540819168, 0.06595449149608612, -0.10056345909833908, -0.09981059283018112, -0.06999588012695312, -0.14078636467456818, -0.13294582068920135, 0.14982685446739197, -0.10066878795623779, -0.07811860740184784, -0.12565164268016815, -0.023606205359101295, -0.06726739555597305, 0.11891959607601166, 0.05201590061187744, -0.2388901710510254, -0.06312373280525208, 0.3052612543106079, 0.00865834392607212, -0.22023630142211914, 0.08957451581954956, -0.07379655539989471, 0.05234101042151451, 0.17434780299663544, 0.10295800119638443, 0.05945833399891853, -0.10204888880252838, 0.11766579002141953, 0.003279127413406968, 0.17057770490646362], [0.11166835576295853, -0.1978302150964737, 0.06734926998615265, 0.023332463577389717, -0.01617703028023243, -0.10057970136404037, -0.05752743408083916, 0.09373323619365692, 0.024499306455254555, 0.07878705859184265, -0.05426427721977234, 0.08856815844774246, -0.0022031981498003006, 0.007578355260193348, 0.10313884168863297, -0.06459570676088333, 0.012364879250526428, -0.01541141141206026, -0.008601592853665352, 0.05349263548851013, -0.03500450775027275, -0.007075797766447067, -0.012282762676477432, -0.019307678565382957, 0.11756902933120728, -0.09981295466423035, 0.004886148031800985, 0.0182939600199461, -0.03205546364188194, 0.11428844928741455, 0.07246696203947067, -0.1786952018737793, 0.013572052121162415, 0.04134048894047737, 0.1272565871477127, -0.07657027989625931, 0.026058560237288475, -0.029041150584816933, -0.08582071959972382, 0.20054639875888824, -0.039091240614652634, 0.027995044365525246, -0.04908531904220581, 0.16543234884738922, -0.004576503299176693, 0.18876267969608307, 0.08635375648736954, 0.07034040242433548, 0.06634549796581268, -0.20999383926391602, 0.04953395575284958, -0.08889296650886536, -0.15383633971214294, -0.04959510639309883], [-0.010540133342146873, -0.09869523346424103, -0.060525499284267426, -0.17396314442157745, 0.06830589473247528, 0.03900294378399849, -0.10362118482589722, 0.151841938495636, 0.0166483111679554, 0.06685541570186615, -0.02706659398972988, 0.016516219824552536, 0.004864143207669258, 0.05649988353252411, 0.041108228266239166, 0.005419005639851093, 0.1658463478088379, 0.10663063824176788, 0.10027942061424255, 0.04701613634824753, 0.11589072644710541, -0.04081455245614052, 0.05602610856294632, 0.011978182010352612, -0.03162744641304016, -0.08159852027893066, 0.04534024000167847, 0.10848259180784225, -0.0019710450433194637, 0.0647783949971199, 0.2098270207643509, -0.06789934635162354, -0.02341170236468315, 0.004276964347809553, -0.08213389664888382, 0.01179430354386568, 0.05882960930466652, -0.0671064481139183, -0.023801174014806747, 0.004515133798122406, -0.0715375617146492, 0.056153032928705215, 0.04762394726276398, -0.1600920408964157, 0.09710240364074707, -0.11330113559961319, 0.1358981430530548, 0.13078899681568146, 0.16635186970233917, -0.025442447513341904, 0.0744551345705986, -0.04682520404458046, -0.02271244302392006, -0.008099162019789219], [0.16528835892677307, 0.045643843710422516, 0.015280479565262794, 0.11365053802728653, -0.08382594585418701, -0.0023099591489881277, -0.07228043675422668, -0.17046567797660828, 0.0026519130915403366, -0.13438871502876282, 0.007221532985568047, -0.17952360212802887, 0.011986033990979195, 0.09588785469532013, 0.07262510806322098, 0.09610176831483841, -0.04446558654308319, -0.04242639243602753, 0.07463553547859192, 0.07682610303163528, 0.09396486729383469, 0.023092010989785194, -0.04934146627783775, -0.016326693817973137, 0.047684889286756516, 0.011574311181902885, -0.02167380042374134, -0.13617150485515594, 0.08654500544071198, -0.0030146497301757336, 0.15869486331939697, -0.13736768066883087, 0.01902727037668228, 0.04722894728183746, -0.03851127251982689, -0.003009600332006812, -0.12493224442005157, -0.03179541230201721, 0.1864342987537384, 0.05958078056573868, -0.0310783963650465, 0.0698775053024292, 0.02708570472896099, 0.2332042008638382, 0.01382836140692234, 0.068145252764225, 0.11556627601385117, 0.006853992585092783, 0.01765413209795952, 0.17533735930919647, -0.010115313343703747, 0.07128001004457474, 0.00019830188830383122, -0.09020154923200607], [0.005093960091471672, -0.1588805764913559, 0.01215905137360096, 0.09571661800146103, -0.14513355493545532, -0.03262171149253845, -0.06008844077587128, -0.04745936766266823, 