{"layers":[{"weights":[[0.07153488218921442,0.05630280717682337,0.06104080037067459,0.012944659201537829,-0.11822344672088929,-0.05468154398485089,0.029130172346671847,0.10863555444964801,0.12447339249640711,0.1553960477402174,0.07917273133181303,0.07156460870082483,0.08258154876364207,0.006658735747618862,0.03937087382177154,0.061319506148426225,0.021178702437515434,-0.15136349637368926,0.08576032248593037,0.04287553266377084,0.08743050606549534,0.09134933593028548,-0.05669652744254297,0.046364110878466105,0.015701993841572462,0.0358951177214999,0.04265244307246253,0.09734278319566278,0.08236431692676295,-0.015408278805376839,0.05611367803099082,0.14022967940301256,-0.08553867078192998,-0.031092061640711544,0.027665314327694417,-0.01970302247620123,0.061356804957203415,-0.021304433039586318,0.06506176193922862,0.06468752261098173,-0.09747663403754817,-0.13291735113153802,0.03913272354385407,0.0028441019215620545,-0.2832654893718201,0.007842407954491825,0.04764943494325025,0.0780410836063628,0.22215400617362496,0.024298455887873147,0.018018980503250615,0.0707361680691902,-0.07926290679180016,0.07248324433217629],[-0.05291935850085092,0.040598690342005625,0.0381568781081254,-0.010134214576453375,0.18616738308264696,0.03684102057525006,0.10662226986047735,0.10277941743966472,0.06103675329692594,-0.00925401082796641,0.010711137052353674,0.1442277465534297,0.07569883200565727,0.04765595526266594,-0.11452119676383114,0.1709177890902252,-0.13111462373611396,0.024495336052854418,-0.0291433789543324,0.15496308670527265,0.07751096974226294,-0.026709355231143435,0.06464746957543717,0.07519727065942183,0.005158493571153038,-0.06597751632455824,0.011338467862155222,-0.08026961702151203,-0.10614093378351314,-0.044951428677209505,0.2516222763250782,0.05769105288957422,-0.20504859542259737,-0.029351562437702337,-0.003875273277816402,0.12858436936936446,0.023069621764397686,0.050193646133732985,0.013471461167833605,-0.0456609406720399,0.0474473557878611,-0.13377931781855598,0.10736713516626939,0.0006889481254366001,0.07924139604753629,-0.03674836561434095,0.05663745006529509,0.09859428041312923,-0.0007987173423964037,0.03967161611598893,-0.010401245845246312,0.034684612784056906,-0.011645912826834406,-0.01683467968107658],[-0.014861534050662158,0.14450715646990192,-0.02449848647564076,0.0847170867538951,0.07557826556591615,-0.07682281691390327,-0.026554244741587654,-0.1202802567307884,-0.005581182604477522,-0.02401254847582716,0.12438378404192321,-0.017970750793120396,-0.010349884647086822,-0.03747112289703156,-0.08096939425169936,-0.055421526997315396,0.03100431837362999,-0.049713299637097245,0.057093446535588385,0.05239158319145456,-0.0125272122996028,0.05387248073873593,0.028104812890431128,-0.05386855469035584,0.07409777299486708,0.004863209696178482,-0.11060079242562794,0.03535561378470187,-0.020059225158416613,-0.031964022132689264,0.14415268351697796,-0.03994996360155892,-0.06518016897136604,0.03237352188589304,-0.08113633980278238,-0.10163362587565224,0.008571706093393909,-0.05329573828512754,0.07554156524211526,-0.15341440179273522,-0.054565864100305186,0.09391630649312449,0.027052915867445116,-0.01010241901503645,0.04894353793873238,-0.1986934614139206,-0.07339887283107199,-0.05967717432558431,-0.03562859582431917,0.05257640297411401,-0.02933026759105419,-0.03897660748524257,0.014054582626048194,-0.016410526353814275],[0.12935481637816754,0.14907008955701412,0.0310723716553365,0.0040239870515759385,-0.07904879068955226,0.11865982343165075,0.017585471935233386,-0.09555449617910614,-0.020473253587425515,0.07366902244608654,0.07075577330175423,0.005409365026124005,-0.08097876284140153,0.05769614812456534,0.19791142863820926,-0.01964759701983856,-0.03823825077758911,0.020666047689987983,0.006129548182855067,0.08110351667873837,0.047258818327483125,0.12258049395971526,0.11268184195533637,0.12373619462597751,0.04044804783952339,0.05384447066229196,0.011874460097249856,0.05991554649285233,0.09949391938764957,-0.0796466621885272,-0.341896102437083,0.4521865096565201,0.016389257035250255,0.08034983642322187,-0.07539322731590377,0.03546638056841698,-0.06446187394367207,0.026309214910557398,-0.007969092738521638,0.06012598545519611,0.07938211342663622,-0.3645488851144533,-0.08737718169081918,-0.055245397523411365,-0.02807658063523063,-0.04542152583587745,0.011873799666840894,0.016413540211159178,-0.026029474366072853,0.09811254514140323,0.06292168219733256,-0.01843918247262973,-0.033330242174206916,0.07660622832408383],[0.10852513076062796,-0.059935616094881,-0.02260096605904142,0.06295019801243262,-0.05871961601193634,0.07169383420029064,0.029796332665028836,-0.043031767204986804,-0.034215864422091735,0.13419192159256657,-0.00507333530769296,0.049980087322936524,-0.22132569740308855,0.0020068984037164266,-0.01718129772815468,-0.16483715857355502,-0.037419456978442,0.10276354933875957,0.14079759852775156,-0.005878158519839007,-0.03432835806126374,-0.04810966216013414,0.027153994401445766,0.022721271767773592,-0.16591685878119092,-0.0545776343567897,-0.11433813053024752,0.036018860086089885,-0.010316512658867117,0.06607681680915355,0.0813829434749561,-0.14235614605089533,0.00846548038744794,-0.11484810793337075,-0.05450380917179298,-0.016234755515174597,-0.050332129916982896,-0.052865125266967045,-0.037204007100797534,-0.0031995962559084883,-0.00923458773751845,-0.09302232150397767,0.060288862460713986,-0.057937464363578134,0.021178337158681493,0.019011012665462557,-0.017478373262743704,-0.12914038974415365,-0.03512152809374907,0.046385295919484086,0.021612482153929632,0.015601453092310345,-0.024199416914435043,-0.14272485250413214],[-0.07708379616885377,0.1254539538440104,0.11864483749323565,-0.0026392260370456415,0.018005531259508125,-0.005049355350116167,0.09216314867686774,0.09588312667489195,-0.10922159051049683,0.028079602965991077,-0.19532220746411963,0.050376227433846905,-0.0016238124587241907,-0.023929630873979917,-0.1000097858907546,-0.05808390824292173,-0.07596039210933196,-0.14221455681782189,0.05605325083722094,0.06909369105705011,-0.12899414858976674,0.02152565013654074,0.04882341550213053,-0.0402970028136316,0.048485550904956855,0.18769629441944918,-0.030162069400557802,0.018744173000350795,-0.03592024761810758,-0.14977658441319502,-0.12132498537028594,0.035286662851773794,-0.1512610915063954,-0.015382551574409278,0.025297531447822312,-0.04307899377755237,-0.12082624264151819,-0.12014268353197194,0.025438780825906334,0.0240715071270746,-0.016601814412794732,-0.136857022284532,0.1434967663555761,0.021393562004454424,0.025798622464304193,0.04847804224659098,-0.10229075331980172,0.0062281542572637395,0.13446806720560744,0.014345618348093003,0.158772235680056,-0.01775088108557861,-0.08091720925373307,0.006053532219775324],[-0.09498657924730732,0.008682136366577732,-0.043859438279902366,0.11373658961987379,0.03681328615445743,-0.0403249827970004,-0.021157934611525445,-0.07356622239639372,0.03195652216831187,0.04419457771531611,0.002057822607349422,-0.08643454358476918,0.014665932801453318,0.0985947796631201,0.06970291297700566,-0.008523637050396327,-0.02067023471157632,0.033313817622994214,-0.03734442064752939,0.07282022467040937,0.03629935756416547,-0.027205919645163352,0.035438663898846194,0.030272655923886237,-0.015418208609845288,-0.032071113785820574,-0.08866951620496405,-0.11534289497003412,0.10291411808008238,-0.004628974294283958,-0.1008397694223842,0.09037500648663165,0.02391626051332496,0.19484132005788285,0.07057897470560186,-0.004756575841181171,-0.06744267043529263,0.04657739408846503,-0.042390654158545205,-0.1090178551491998,0.05003759501666604,0.12495420099725396,-0.13923066829953423,-0.08532938110043525,0.04460355099455025,-0.02401997108442621,-0.11910318537469902,0.15398905263545248,0.10300392315218951,0.0020203776023388492,0.016397153022795496,-0.010527514641146003,0.04278292899462188,0.03969937603484668],[-0.11102719865463705,-0.024457067400339632,0.02306092519137147,0.07727464142379607,0.021540921860133393,0.08108422216034326,0.01749548603073086,0.05954752225216211,-0.1188460327600337,0.06803770095776789,-0.023221485668866167,-0.09567297834456723,0.013154402700366469,0.07529008182327714,-0.008720764235713507,0.13293568121963584,-0.03536882821722606,-0.043708778922571176,-0.01720535469472718,-0.03459705145494514,-0.08824928736698813,-0.02873557985780093,0.06340284273969785,0.10848424405120646,0.15685560671277576,0.07691348059355667,0.013744974708254908,0.04308307993484402,-0.019079314528387105,-0.022682016908727974,-0.06961736347782856,0.23000971644886256,-0.11171229243799906,0.045549509634887686,0.07968176696408441,0.053234807555179876,-0.09682461341289476,-0.011629281068094209,0.01160143739894611,-0.10296106391431754,0.06990256299113275,0.2289205757645344,-0.04446604223125831,0.12739771092269997,-0.06307301861252212,-0.0025578559631328165,-0.10441570080773244,0.023397198238423362,0.1081465376018082,-0.009241514264834081,0.10482700204838794,0.02774472788737541,-0.12242715721977329,0.015419944822767508],[0.1123445599436941,-0.10386059808927818,0.05807987896241497,-0.06103086165019215,0.10807247425031657,0.06581031753013383,-0.07412880626272389,-0.10660966412962548,-0.09488517702610741,-0.02553021790358255,-0.0754985592035714,-0.05502141893361067,0.046250505507382966,0.05491306072212316,0.12185876251193714,-0.010072598510494506,0.16021948925660798,0.1400037056415338,0.012867256288616624,0.06392482319668592,0.08488091245787155,0.020660932365052728,0.051508508520643426,0.05123822547754981,-0.03809080179398917,-0.18485020136969904,0.040115687589507586,-0.06090975404476817,0.03952708788466447,0.017873862118982897,0.27011582145622903,-0.126938250035022,-0.1501580938092024,-0.08475181896607811,-0.15869759817098308,-0.030400214293568126,-0.10432973981702191,-0.0010242138789632314,-0.07496708292396063,0.0015873557095135611,0.024054872999699637,0.25488195719800305,0.06337344081033225,0.02446070377976553,0.19428217455330526,-0.050194587174461874,-0.06741330762662649,0.05401449463970144,-0.08445055197475554,0.011939144199317749,-0.013391706062097284,0.09848565016571477,0.004938763516834199,0.08768461842151765],[-0.04380083329248113,0.07280494064098277,0.022419158029317952,0.03953557364813083,-0.009541806311128906,0.05339901814007665,-0.039333802865836265,0.05864664557331937,-0.08100408616671538,-0.01948587992373827,-0.1851883566381766,-0.13540412780163177,-0.03262732535821337,0.2197277086742178,0.05941316681833082,0.08603140943716418,0.06671052957269397,0.0014422586279023682,-0.20524452448859792,0.0696150279767664,-0.06256608239281397,-0.151972072978644,0.01786182739041994,0.06864111093889173,0.05746945410882319,-0.08704220911074952,-0.03312907519735581,0.017735642465100395,0.012776095321367238,-0.08536533057287098,-0.03665032311981178,0.00015075712901675247,-0.002193489586544822,-0.015844807072100484,0.03189023585027258,0.04860574420658275,-0.06927140677211352,-0.06129297687926693,0.035966358785142157,0.056137368317222394,-0.001418168836387145,0.055676203952716816,0.09593098069859579,0.09107597268870213,-0.06192700989035569,0.02751332777697498,-0.06802583242012754,-0.04314997412926875,0.09748773881776111,0.08954742371632418,0.03917075445612891,0.04506610280513654,-0.03864504761119778,-0.05964936266064708],[0.057368483149626226,0.1338586463326183,-0.07915164359816303,-0.021321273442322847,0.0735108353973701,0.09342701604141547,0.027582938789506847,0.025847823002558182,-0.009682267198714282,0.23309343503066784,0.07201570973430232,-0.06026770863199602,-0.05915680628749301,0.0182930747072959,0.14938985552469627,-0.043756446279444944,0.05798728832176966,-0.04654044941481428,0.1683124971111046,-0.1069667429485968,0.014095050669826031,0.08013097985879243,0.09466292527583693,0.1511555259048539,-0.04684958886005736,0.12182290141515184,-0.014648633294374259,0.006249091632801384,-0.02525371284541807,0.00922656461534485,0.02510695956378819,-0.0011134009962893846,0.10544576482514753,0.07059422510619733,0.08395646569489396,0.09034776844834745,0.0025257874455517854,-0.1106281697325661,0.04359721503110134,-0.06609144544146535,0.038190492067281645,-0.0037260094356281726,-0.028859719351972946,0.09107999039462492,0.006965245914744566,-0.05041082508380768,-0.15297095344943212,-0.1354404206163945,0.004080168989025468,-0.10579844027526052,-0.01127009996484772,-0.10003324670617551,0.03736363118727283,0.10376802621460172],[-0.09589438989454985,-0.008697202204639508,-0.0029499832941255895,-0.0974576706668951,-0.016259440039836023,0.11238225740509826,0.18085198437660477,-0.057305200695580844,-0.1386420098316308,0.06186163971037072,-0.08613142529416985,0.07774017159984929,-0.01873833462256275,-0.16274520484328062,-0.03614154296775023,-0.05346190019806533,0.02097321464233006,-0.0832014488028228,-0.029438812143060697,0.172933945716495,-0.024850318471257668,-0.040054648850113395,0.009213564007195418,0.06999980675232874,0.12092459938454522,-0.03465968826877775,0.10072401597450281,0.025437056295781753,-0.11430998433696146,-0.031588752897050806,0.10324805108568197,-0.014705269475904958,-0.07958280806195786,-0.0840360645250778,-0.18864055012498857,-0.009218430509000964,0.00765474013571878,0.04283221805322732,0.13694984567897284,0.04942436652084668,-0.031663995660611746,0.0007803331441801693,-0.08052124406685339,0.015907632880490723,0.040192374898089044,-0.08697726722544719,0.08183503687552406,0.049154706515930166,0.04875286755634164,-0.11082692980044367,-0.06379849460779839,-0.21812791758467637,0.07427158252589017,0.04131298836251415],[-0.03518297988395237,0.07657422978212866,-0.049063862273235864,0.08957778514076128,-0.06680400488262606,-0.10859224129460036,-0.09061207002898383,0.020162793650042622,0.11768772706761507,0.07601746353011282,-0.03259472599916943,0.08875842766163859,-0.0323625599783097,0.08045672408352486,0.07740717600052657,0.0010029834944472044,0.09029288502675992,-0.006913717212009123,0.23313549912321652,0.0907589561771406,-0.09227217765971793,0.08150096227963917,-0.02315174330143323,-0.011967471746540718,-0.10960354672385082,0.2115409047024462,-0.06411604638401591,0.06909622308677411,0.013451771343864943,0.05214621991071673,0.14232639527675356,0.07991680673010444,-0.06238132336594321,0.030691568978231904,0.06258966080010091,0.0015797349541018025,-0.00895543089740367,0.03115746759079099,-0.03693958721618804,0.010269343941831393,0.006423057816259397,-0.05003697577740577,-0.021431550032734226,0.06338643897551505,0.15121406620858757,-0.10181132502912325,0.19925065610382908,0.0014115170821071869,-0.038755304636714165,0.04285458931028999,0.12024062953346068,-0.16464291001113693,0.00996442554935111,-0.11989316624147375],[-0.08599244014099494,-0.20106808904365026,-0.11765698747462719,-0.05340797075578278,-0.08541377498146253,-0.007844524089219668,-0.03834413260385917,0.0805630184858563,0.20652312274419304,-0.07386259059204221,0.008501454576513811,0.003733088837388967,-0.04041759740031248,0.002400894862375293,0.13565037722130002,0.0012495512890731025,0.015414279173957967,0.0441476065906989,-0.030153935287330087,0.07981383712146894,-0.013433561709705845,0.04613238501161796,-0.19762177833256964,-0.08097687952294017,-0.0777338565756765,-0.12508670511740855,0.0011441454125055536,0.04235094680007372,-0.010773152043765102,0.0610771296863136,0.01815354719025477,-0.13951053710457031,0.15652461754027958,0.07965879633308537,0.12563367971835726,0.03935101229077735,-0.12007914406668589,-0.059005947810346064,-0.12249789499857744,-0.09633366695155213,-0.09903670267289641,0.04351607229744191,-0.012949623248527825,0.09977339212522551,-0.011482763959484488,-0.04932057534566233,-0.07116379756919072,-0.0644319134518547,-0.205684095799532,0.0024087265251592576,-0.011402747280832261,-0.03434822474563627,0.05308190233822305,-0.08267038801407856],[0.22905826004816138,-0.039642845617412686,0.019936077761851075,0.1067214861498147,0.15567707858171845,-0.06416583240526033,0.0008224381523959791,-0.08997108397316048,0.0453201942452967,0.19201610528822832,0.14067732256868573,-0.07872636786460573,0.06419907215076348,0.05689452778708314,0.006405837088301023,-0.05146263696361431,-0.07052951734932901,-0.007566225908579349,-0.040418251679191414,0.014782287998343732,0.10474316413959198,0.0003017875308646189,-0.0729400674439519,0.014112184220354105,0.0960457666572485,0.03683167240520441,-0.15618507237395318,-0.048708765662106336,-0.02507424309394664,-0.15643209340156272,0.01578467693515972,0.14301191381010703,-0.11270960275082827,0.042432847259508875,-0.07492183961355893,0.031049527311486864,0.006058334760476556,0.06940221630486694,-0.07685987125043953,0.02741497483315719,0.08412964494718715,0.5132151174189168,-0.10237138832734088,0.0340625015023517,-0.18743843032031532,-0.030341428257399897,-0.2135310826466612,-0.036849271966746214,-0.017468725537483385,0.04266041483321376,-0.09110737055488159,0.09264638696242018,0.1510817822800482,-0.06270220147759392],[-0.07700272029920542,0.026072799503538413,-0.006280651027701547,0.07494182872076997,0.020104272260218103,0.19260152373550365,0.08216841100484858,-0.041110547737819136,-0.08296530330791087,0.05483166694764397,-0.001840096567562031,-0.01023410838815054,-0.0534560070494233,0.06830414928209017,-0.06226683372510202,-0.0007586794140595079,-0.029063903701976198,0.17257339599548402,-0.12488966544602997,-0.16541563985898128,-0.04299216196114367,0.13538162743352183,-0.03861482358919442,0.020575306978938772,-0.015698347349905908,-0.08160417839906912,0.05563310723154861,-0.016660526430347915,-0.034207511892301826,0.0021091277697101317,0.057851569054954616,0.15351072341566627,-0.011509857536826915,0.062078449627775624,0.041117427647825486,-0.10944265804494487,-0.16998120669941452,0.03123716458952214,0.04679242290437283,-0.023836552917454977,-0.06094156494214721,0.19782530080742222,-0.06504692063522263,-0.03334763549475875,-0.020944809462260815,0.015357703347025072,0.09596053354451275,-0.23365695034186879,-0.011069996520044046,0.09097053300288455,0.15672765348779358,0.1813402904266273,0.043661856057679506,-0.011464262602010009],[-0.080681826401444,0.06539817285237105,0.026400319995404254,-0.13328671484020765,0.01545213172332597,0.12652676452128386,0.10502684216510819,-0.021348521002773735,0.08758532036418265,0.14613453192011386,-0.025448891205950248,-0.01575173860562069,-0.036655490864654056,-0.022896770012283168,-0.02118236267847594,0.08193504602805465,-0.0016528541179200234,0.06337803505109883,0.15510951739803738,0.051161099677284855,0.11188978080290965,0.001898324524295738,0.05652720414281057,0.18426088220528178,0.045648888922805705,-0.07357712575312118,-0.0864818196347976,-0.0008966972807095254,-0.00612859820076628,-0.10910634721956279,-0.2434533906700404,0.5558759847102869,-0.08509110509780653,0.0020735302365106267,-0.04227021447806288,0.11842491061416752,-0.08894396858725102,-0.025942388184164333,-0.05280381776454367,0.007972776622162928,0.024966958005894067,-0.32880719947643533,0.014660667547383224,0.0246779315971962,-0.2177291047876533,-0.12951262161908228,0.06586150009261005,0.12011682866670252,0.03872692595612148,0.03885430990706127,0.05750446851313199,-0.05134997456421537,0.024721056345493524,-0.08880878540428556],[-0.09656925623607299,0.0870906273583708,0.04044887471104063,-0.029757577742378152,0.10801094390832587,0.05277813002626672,-0.07810793244620257,0.04162961807403399,0.021369141067409527,-0.06635593559557677,0.11923607771604697,0.1924673802777435,0.09214462034846445,0.0025460384616831973,0.0037432571682762383,0.011788826341192963,0.00940477176255339,-0.055802452114480205,0.02999340221257186,-0.09796236897212725,-0.09735019517539453,0.10284670912905741,-0.053556818283068505,-0.08049033910065732,0.02130635339294582,-0.03663903617710456,0.1406773986350653,0.12130773860430441,-0.10599339007609476,-0.0019729364705604723,-0.08821932424179026,0.14894474846757036,0.03246963158683217,0.05448067941769079,-0.10182380840852792,-0.015035906695835339,0.08518988575966505,0.129381617385529,-0.15651395188166803,0.030920996977656368,0.0627004526859383,0.05991407368759755,0.030401130278763237,0.03535343390830606,0.15264264331129118,-0.020471955348222808,0.11532038389845271,-0.05194718353632146,-0.1178935323194319,-0.01560536421965841,0.1413117566656434,-0.13885381843410727,-0.08150116743468502,-0.02627270544701671],[0.04783697831902648,0.0814439161663075,-0.027635122506854633,-0.015669155226768948,-0.0854566641512377,-0.09326566165887722,-0.040003067074198526,-0.028948785292245895,0.13746922482730395,-0.0531892658143422,-0.12732612914154318,-0.03050434199782704,0.025544638504886884,0.055227975266268284,-0.08151251863735808,0.12932933064078167,0.03953866881376912,0.015951009606538665,0.06590481031338515,0.04174167308017112,0.007043431071819876,0.06687305003795063,0.02421147773201306,0.1320045146083685,0.20140372435705253,0.12153946705849235,0.03079916114583364,0.13498114546286544,-0.03477319196681136,0.08052393077623865,-0.07030914002240815,-0.021295325801121687,-0.02316856490706804,0.24217750213495146,-0.033613802461534,-0.006767315450705226,-0.1504056027258066,-0.16319278087860292,-0.13050087126686682,0.04975311529861048,0.03260322040345881,0.2659067342311208,-0.027201859946115913,-0.025235681061002848,-0.1154341253648998,-0.1425517781747452,-0.030782122981008662,-0.1480170566358154,0.05171666788362056,0.15336238344476846,0.06039840974106626,0.06487266080767115,-0.08102228778019267,0.04317019288902393],[-0.048330199876013016,0.09405691825078132,0.05916299843369514,-0.022091046854506743,-0.02533638225053776,-0.01642860630439586,-0.016402112213117246,-0.015980028724407958,0.03282492301377014,0.013745117117087945,0.13020749309650156,-0.037543346660952104,-0.11847752656955395,0.019211605022257758,-0.0160782825890614,0.13950464213367628,-0.05789318116584947,-0.011232800581806623,-0.07376300541298826,-0.07908951845271742,-0.1546125378321082,-0.025731093887034998,-0.061906533012853655,-0.11268136456724352,-0.0561352530264763,0.10319193981111356,-0.044789292569375035,-0.026565217502441927,0.07309724135871491,0.03930978551052317,0.029046843841561074,-0.023494254021748484,-0.055785586687270114,-0.15120340972433305,-0.032077256658747715,-0.060281270214092034,-0.11807351833337965,0.07495730358040718,-0.013887949497856348,0.03139374446716229,-0.04565261305730884,-0.00894649157671295,-0.051510768551594796,0.03513439360628109,0.041556106980166894,0.11549226659906604,0.08092116693981999,0.03393107601663222,-0.0059334210122232636,-0.03595458746233944,0.009242353964596819,-0.05107681551919174,0.05767712853560102,0.01830609788102793],[-0.05410088687226008,-0.23781130681096255,-0.031700989855385144,-0.10676465620981725,0.06022458964003966,-0.11173252427351603,0.06735075832498572,0.042347799540058205,0.006922174738214679,-0.012018216005129244,-0.103808248743856,-0.0007161173778737152,0.042381931462982546,-0.03547940382619935,-0.05627032348361648,-0.03358028932499714,-0.04029757592946318,0.029350895611016618,-0.017866116573419737,-0.03419849107671683,-0.12385493917800344,0.04928188739135747,0.014304096810848379,0.00786497784710897,0.00007472971383109575,-0.11881398411133974,0.0339055943791558,0.021497645489490853,-0.0813777508964008,0.005496078273800375,-0.02310270723419513,0.050701858240391195,0.09313827373149279,-0.008718007123936984,0.011529987468610127,0.07229194111561278,0.04111269001295988,0.1224131617849843,-0.19538004294213135,-0.08464357891095839,0.017513698452434726,0.38580654370503453,-0.050914678278181004,-0.11915246347384317,0.0638858614367061,0.021983104151119683,-0.04505193935717151,0.07007696147605226,0.09918959199412716,-0.0265643169914856,-0.17336765057543815,-0.04566921320264935,-0.06614820305962041,0.09307018672050654],[0.058205634175504194,-0.001621734605380973,-0.031508752820335384,0.0939282349350844,-0.02592644271719752,-0.06819471322917817,0.03842661405254017,0.0006334347878770404,0.05955765151961769,-0.20714240376636164,-0.1422962734572932,-0.035797668885171774,0.07357733590038545,0.058838267628200935,0.10394905253244856,0.0661322550130323,-0.0647708668493561,0.07080483278290635,0.02811660693464201,0.06802985663005845,-0.08800436419154427,0.02176103900667886,-0.046179280782342284,0.022178947842484923,0.020805782186496886,-0.01119543040337424,0.010636982958156752,0.0406004549244522,0.012252257597489961,0.024697292241578378,0.10549161234224937,-0.03857326530569417,-0.026783393298334762,0.023318078484987206,0.068182945753617,0.0658155761172227,0.08735238251976499,-0.03340487082857216,0.05067149040905789,0.05691284791657202,-0.10675701315750034,0.04127593453055949,-0.04644418349188247,0.04248536752003655,0.12196957502194372,-0.06987227093044611,0.06644052707439803,-0.08924632937497308,0.05693064957784763,-0.10225149403999378,0.11664625810756886,0.006834030461571915,-0.09025856140972074,-0.12701121519330183],[0.12902082501154322,-0.24537655301892708,0.14451588997638973,0.011732456453565568,0.11824193506227178,0.05556489486115556,-0.1834854777622042,-0.003238631046261037,0.041207926416777015,-0.0028353638285641973,-0.0032124633783312227,0.024648901217024084,0.003237513471265068,-0.042030544492878935,-0.034705460705067276,-0.06287075215556809,0.09973357084789722,-0.05675626807673758,-0.06832114662938422,-0.07958245561729149,0.10313166365917113,-0.05590248565814525,-0.08968493214156306,-0.15947257996530426,0.0071642183482491795,-0.04715027289747053,-0.027641160818124306,-0.19731579401744415,-0.06471161068647359,0.04837282467951777,0.17227754501001719,0.02331907571477911,0.08182751215398887,-0.02095217258603028,-0.14813092430068425,0.10677749629041255,-0.049807773956230594,0.04559964166454422,0.06583454861936015,0.02258620259209562,-0.02487727633420247,0.0020099642966584378,0.019783452065751956,-0.13007196675302143,-0.09677620327962676,0.022724635403934695,-0.03407566053232376,-0.01206584757052644,0.09411238867260353,0.00439636150580508,-0.06731307740439836,-0.0020387936399849306,-0.1253167448653148,-0.11668727582267643],[-0.22754180552009373,-0.13092695653773076,0.05679436685991231,-0.0035727372760140257,0.07642393905566511,0.1782306704880103,0.026437760615229053,0.038570770230299804,0.05744984825354522,-0.012836731692068233,0.052572535374878014,-0.18919136952611898,0.07323666963824513,0.028227887247419155,0.042489463808808726,0.060226963737785154,-0.05318166615672432,0.006610871537735395,-0.05505395671482205,-0.053750461605037235,-0.06766835212485305,0.05678010633096718,0.027986285426466428,0.027617412789179983,-0.0147226923357797,-0.09437339427417808,0.026104207316210565,-0.08976759009856783,-0.15345221036591183,-0.03354110183599975,0.039994132016186915,-0.033385162375424535,-0.03337311749026134,-0.11660674980132979,-0.041166135020654665,0.027038542358565,0.1129009092235649,-0.045095255323227425,-0.0025496631490068964,-0.0528791562556258,-0.01504808135662889,0.1648755049157531,0.19526940219735536,0.009196472399496619,-0.015606775162627321,0.018752907035698985,-0.06467268922914818,0.022204354361185508,0.062075890672178134,0.1541531786306376,0.04610621254294681,0.009016665155469936,-0.08740177927911291,0.21065497656968368],[-0.1275468775532279,0.09213029654154514,0.06108683756262849,0.024211658761353998,0.06794499411380113,0.11055048169355522,0.011486010060550111,0.054201614607490706,0.1012503830849547,0.054631722674760325,-0.03278599353470244,0.12793087494190158,0.012930043458010475,-0.014877627249974348,0.08698625228280282,0.03761645875723588,0.030454259721891443,0.03723320147465467,-0.06804431862189193,-0.07787380984750995,-0.009752050589355783,0.14343567645243305,-0.04069888397149315,-0.23624439092605157,0.002460710594129028,0.11294282482901427,0.09223550288067056,0.029772265735016873,0.02560064482191002,-0.02143201663072465,0.179066555847566,-0.1177311807238861,0.23455641087262666,-0.09245765613505941,-0.083308463920747,-0.16326601556299478,-0.03742493826454432,0.01692146461905151,-0.06822703528797677,0.08875717508517882,-0.07485205796897841,-0.15471722636618518,-0.08603183815213425,-0.024490142266175557,0.1212644177925638,0.07935515912314124,-0.04249936394541855,-0.1737757778986738,0.07370012030354084,-0.03232867854104056,0.142938740426589,-0.0672996201489575,-0.09041817241088543,-0.006743723198751205],[-0.06662840485755978,-0.0409322428789483,0.10549895651854524,0.07095095768158591,-0.10609918066359292,-0.07497321339870633,-0.1825055372927472,0.07707597826420833,0.06623747684547364,0.0034530005992075958,0.016004747882677365,0.021562638698581077,-0.0613357929250381,-0.10378157989117388,0.10396433792070804,0.07789642485465141,-0.03382699370139976,-0.02324822529162332,0.02672489265990948,-0.13154680290966037,-0.031320928552761355,0.03277459915475465,-0.08806227887234204,0.059637316027889076,-0.09154805990362923,0.08169466704997254,0.03689884151798374,-0.0039102635728949595,-0.1477667624508001,-0.07401907336078395,0.0070029982519260415,-0.044069993310996265,-0.06324450418493792,0.06849471552886863,-0.013949862346201611,0.2053467604559386,0.01171905173185333,-0.012438060384206348,0.09039329432595816,-0.04184242552479484,0.19425681276248502,0.023896703874544078,0.13240891531072219,0.02267266983347989,-0.1409444452513138,-0.03054036026299096,-0.1350004779921173,0.03159867596976787,0.02292334499183037,0.031142903377039757,0.018207732697741317,0.09462121941400876,0.012261687588797133,-0.05964567441859981],[-0.21691999137748358,-0.1463072720223259,-0.06563315072097965,-0.00833532556629156,0.002520946754029494,-0.09025125003690376,0.007767428109991605,0.04477169651570753,-0.09460647250434887,0.014749222793639773,-0.03506338294395304,-0.11896137624599548,0.06006159925276713,0.09207366898258602,-0.046358820457412506,-0.11278613756135916,0.10401362508380477,0.10402366591898521,-0.09904011682599285,-0.042728347297418506,-0.10656408481247698,-0.038470472280840884,-0.0920672832275237,-0.036109606983392134,-0.044869695235926786,-0.10293058450925986,0.13136717317722063,0.011059485840665503,0.010712755006211088,-0.005637525668726786,-0.23441269373005189,0.020559752770843816,-0.04657066192097409,-0.019528599617336603,-0.003621012987598316,-0.059800372269140555,-0.03668027111575133,0.1278389483625021,-0.040915326527004796,0.026321937166737242,0.08194859056855906,0.10090745927359862,-0.033835205753398205,0.17953120184556018,-0.05730814616745566,-0.08607248769890964,0.056435952713026635,0.04355887263171342,0.010051347985276845,0.04961950350696659,0.15597346701028586,0.11270878513512118,0.008383113682045404,0.043314541989635115],[0.03274522302446477,-0.03751215157981336,-0.02688004925511164,-0.0693078243251122,-0.0831355269319039,-0.05825766428177197,-0.13151983766507674,-0.10875829940518826,-0.1375408484482658,0.0036836631891997654,0.036548213238461975,-0.0598254638336326,0.02389532186252343,0.05204143939725609,-0.023478518735098,0.007641391443226369,0.18838049301220947,-0.017484065291495827,0.08839113924240656,-0.061680896373405666,0.022465240194112786,0.12326782579908445,0.0105055759905131,-0.05980042693177023,0.06568776480157608,0.027557907691137692,-0.08390893351345394,0.0970737369170271,0.00004005562529427506,0.10486636666465299,0.10054062503332126,-0.099973117272199,0.08985094403774797,-0.047566276823061915,0.04255561542033398,0.09011178025275662,-0.011056969625543265,0.08784709652078451,-0.030412714849660436,-0.1357583125917554,0.0656414112936057,-0.05163050853168353,0.08781891201095551,0.13014295380166788,-0.025524177349758724,-0.02037098779544283,0.027913419357455095,0.02672259859904681,0.024592992542211985,0.03314514297063752,-0.1555283437949337,0.04829012729329442,0.009245387344325257,-0.15864979449854072],[0.19406035062514596,0.12345516824320607,-0.009299955923171791,0.01081238419321979,-0.11760145218740749,0.05654216245813732,0.04968938554078348,0.15133570544990357,0.11062986439675387,-0.03445202393913333,-0.010514139806538873,-0.07231211829136255,0.04612161271678968,-0.04281942425460326,-0.08052111441455297,0.12169634047748544,-0.0661251248773723,0.04479272561159025,0.0875247472439453,0.07884244840364799,0.07957212895870346,0.04641941600730107,0.05139989299212073,0.026715715118113458,0.044243371242008084,-0.07428199391906133,0.09066072753630168,0.09153621588028864,0.09255265311174274,0.11179857701948695,-0.04446919033687077,-0.10161077852560203,0.14463409835139174,0.02267189714888597,-0.07379987118329999,-0.05760464073079388,0.018595159333952286,0.011911726416561543,-0.05595636618284312,-0.06646372364205426,-0.07284138043513806,-0.23579699239476332,0.02342545480260715,-0.01828185570534398,0.01850134516251857,-0.13945883672026213,0.030892558944043403,0.12945420585779216,0.09868008761927378,-0.1130782605855997,-0.027637384228586085,0.10147684922542222,0.023019181377950636,-0.09926177246910069],[-0.0951711829428666,0.03962605080281637,-0.04321224355130851,-0.057879237140567155,0.018150273357559053,-0.07605422909875867,0.00032018689974812537,-0.05052251362032759,0.05813502124361376,0.1577306257294749,0.00648585705725511,-0.06314408472488622,0.02550603184515784,0.03735540126123532,0.02797915166870615,0.15308710276380508,0.0016294996959990197,0.06914477237801335,0.03151671204134427,-0.10202147391467216,0.00810882937538563,0.05917713096468773,0.006435167035401527,0.15640339959923913,0.005666744951117355,0.10014664659900993,0.10484745597296444,-0.014093944517303144,0.09467894801988531,-0.0995607495615608,-0.06710517346791117,-0.06697649547474811,0.06890362520095902,0.048952557393256595,-0.019231653293947867,0.01923199027030213,-0.055347217232736175,0.12330580615756191,-0.019168226173641393,0.051945915735330334,0.006616327174915367,-0.10200874510651103,0.05495676967020818,0.003610125035202515,0.10857892419308277,-0.1281918394772267,0.014952718310772063,0.005668918921725958,0.036727381303929746,-0.0391831732797144,0.026551991806877277,0.11493787523873152,0.02313342155601204,-0.08674397260893199],[0.04918206385006004,-0.08920768500136413,0.1733267672538909,0.08557081968723372,0.07561866943315453,-0.0004639384764464674,-0.07472348647309,0.00949995631184337,-0.18905157895708005,0.09417154346951788,-0.05728644726589787,-0.03919441459222344,-0.0609902268027655,-0.0768708948416374,0.023140353673541187,0.14288534508666115,-0.006327191529866416,0.11747559204810928,-0.02607159215425188,0.06083259772243725,0.017329274620421407,-0.003692063039141429,-0.027454447799761143,-0.13384100247667516,0.0725637412451809,0.004960411925686588,-0.08856648717595599,-0.15435345368849718,-0.07950797472743572,-0.0362585774548969,0.08571014704995272,0.01071216464728281,-0.16545848208724853,-0.024182413512936964,-0.14801382516358474,0.06292151536361616,0.025484792529818317,-0.09683413239666985,-0.023098667357800612,0.09651518694872299,-0.02570254926011111,-0.12114831092370186,-0.07555639151068874,0.21978420303758425,-0.0034547127707349316,0.048961676327795925,-0.02360811483271717,0.08354810592964901,0.0547790149617033,0.01881900645771291,-0.022374894203924665,-0.008059384204487872,0.0024163306121828976,-0.0018370703971446183],[-0.0244939948303783,0.006611277934565073,-0.0019425103365778803,-0.005873237853380122,-0.03287497023659036,0.03723037840861407,0.040459364675447536,0.04373541356314307,-0.13802363566148915,-0.14699686589523997,-0.002986732147118034,-0.07077214386947697,-0.039245666155302755,-0.03868702692175529,-0.04431658126064118,-0.001834370431071566,0.10969302760162154,-0.1283202564149396,-0.12244398616889761,-0.12763119735006168,-0.0017822264104696633,-0.04919726987877087,-0.05472305441139772,-0.05390052980650863,-0.0493979886575335,0.021684915785248643,0.08446262253629525,0.07707418224241432,0.06811171444481438,0.07381745888223924,-0.04454529000368465,-0.2834190872101768,0.1009962408352758,0.048534976631845146,-0.006500173732085309,-0.03142629779434163,0.0266638704683038,-0.04089758140606351,-0.060556003274916996,-0.05555906827645898,-0.07715717924212222,0.9844469952172124,-0.009059654994672593,-0.20835982184040422,0.11312865510260975,-0.07637419730766346,0.0754371371723768,0.07570619869876817,0.051674351304421155,0.0324417437154024,0.13511678557096685,0.23428821504537853,-0.14589364327085982,-0.016769119674867914],[0.09263434771518012,0.0026332988970429205,-0.08065365851155706,-0.008193370446328226,0.03731599508386251,0.020725002413921417,0.056993674540061594,-0.014541998689080427,-0.05239292820478481,-0.014623869304181697,-0.050639818624052854,-0.04521566601688698,-0.08483009774976173,0.0015575010092004665,0.04281231189019132,-0.002640989395733039,-0.025513458687843386,0.1764400523921302,-0.04184963669670353,-0.03672226465259572,0.21800745003673322,0.01441895363923456,0.040764861846699245,0.03218194116980905,-0.034282002319587924,0.06156531156858701,-0.10800279383600157,0.017909057028832914,0.09733719005087492,-0.08698560329757422,-0.10945467888746427,0.1945359000330942,0.09170721552028054,0.06359955465827678,-0.006246389311400696,0.09116217311943602,0.11312177967296064,0.1436594886207181,0.16234783761983182,0.01557385251730686,-0.0051746715260785085,-0.1776029522665437,0.0019217459947025537,-0.01020763662186609,0.05211581323035253,0.047531715942399286,0.29899883705215596,0.06055331715407886,-0.07678953714493268,0.03364098693225984,0.05314738022744551,-0.15145961153437254,-0.012466999778638898,0.040332311481121874],[-0.15713159935813986,0.21659716092838083,-0.03730966124432554,-0.06754572902338181,0.0880547703989423,0.04931720976716974,-0.034679670143496766,-0.03517902088402936,0.10066685594435112,0.01397553578727116,0.08520102953358141,-0.07528482383435771,0.18897411673432063,-0.06103314763796218,-0.0064613912485162305,0.1014739227928615,-0.1034093094319344,-0.04838466087368918,-0.07817484083269685,-0.05838959794486495,-0.005878253141491625,-0.17345161256206668,-0.07114046148669075,0.16974018371739502,0.15771836354790972,0.057998762858357096,0.07381271392743056,-0.06097277666556895,-0.014836526570595083,-0.00712398226289448,-0.031502238963258676,0.05509998350698926,0.044978174385144926,-0.07856719060525937,-0.0014105221920212485,0.021636660534601563,-0.013710727382899513,0.11695898635314589,-0.020674709250753206,-0.025067818794769933,-0.03750640013997993,0.35427134142152983,-0.0008383248396543375,-0.03484971598321458,0.04356810997536308,0.02366229466295338,0.17222462032337127,0.1989344988743528,-0.12550662363599208,-0.022099983209600695,0.0174518150185719,0.10990625053211993,-0.00035515481090868953,-0.06342125832607667],[0.22878086739892475,-0.051008380741013666,-0.14555791613523125,0.07693405893580188,-0.08514380310478671,-0.09172404356588831,-0.08039868991006528,0.11425767130966095,0.0009846925985530243,-0.042275517074896324,0.09326095043576335,0.052094377654776626,0.1336759049796884,-0.03374552973028752,-0.13897739288698321,-0.1272413352207791,-0.04654609760315618,-0.04970591826487269,-0.1070989710244304,0.06817760045146397,-0.041927209725601725,-0.11938600914297136,-0.10504456651429994,-0.07292418557577611,0.03528180202911496,-0.09264668259070918,0.015645585376050895,0.08043813517929942,0.053555369019026786,-0.045634864525646766,-0.009800676867859345,0.06255261762027815,0.015237984505318897,0.03374911709318271,-0.026154691482246868,-0.045317600948240826,0.09207632518627659,0.03766821547398266,-0.22708846036655184,-0.05418091010070476,-0.1267554177841362,0.07474384699898474,-0.008657058890408097,0.042003270103126364,0.06177830008062311,0.11786099346001586,-0.12004116210014154,-0.04380035409942638,-0.0009577530705495695,0.11817320781794154,-0.12578611161329054,0.07260500636459402,0.034364619288792746,-0.05075231361195479],[-0.09803937537405796,0.009072045229978103,-0.08766713522063065,0.005439605748130095,0.03504646121882017,-0.12026402437968067,-0.008651440332857498,0.1319181614054712,-0.054572128727040696,-0.024068696047588403,0.016565134479996454,-0.08630161808737906,-0.027766785545667638,0.04837538956640019,-0.08704893550280719,-0.029169576870083508,-0.12632297086243424,0.0034178505361316535,-0.0005463844692252918,-0.00474953032083742,0.002162308626500847,-0.12428561850381384,-0.015629197604984567,0.14221335700025026,0.06291372056511337,0.030248323890720547,0.0745300762109522,-0.02315040344104619,-0.06735334474062735,-0.046983549912562636,-0.01637798047217667,0.08312902136157463,-0.09043390880429351,0.05285376422020202,0.012325139431484064,0.024432857178880715,-0.10228630195174368,-0.1958332571831137,-0.06786614217879534,-0.1063833545494573,-0.034920638736381626,0.11128703537583048,0.09946761433848014,-0.10869091310058869,-0.021055123499257904,0.040680555992176334,0.021138018264368223,-0.11982367744571966,-0.03977188368698772,0.011073309996677638,-0.12031597093840493,-0.0074243483418976524,-0.030806105710504746,0.14216463175326455],[-0.18272575353062928,0.011979583033818146,-0.010574366244771946,0.04627655298931792,-0.09317229953137965,-0.022402414549509843,-0.006540275262173276,-0.13452567901963522,-0.1842230079586625,0.12192200415826902,-0.02596038423217082,0.045048976736766486,0.1528218887477334,-0.053928475059409973,0.029252314055317728,0.03778160674381622,0.0140935073032193,-0.035829545130665504,-0.008987766319071512,0.04276986418832483,-0.1409910948791272,0.05677967261580439,0.018021272074076403,0.15754095211280825,0.012299098750703584,0.07475417809586758,-0.014374760758601994,0.0332989949845485,-0.08806519858144543,0.0766638186929939,-0.008614774622284448,-0.10148047792620563,0.13912942275917314,-0.07978955934729491,0.048882862034718116,-0.007282229274401302,0.014515230056798516,0.01777991546753729,-0.01267597253980819,0.18199099913907957,0.04340618023586803,-0.08792604361864786,-0.09784751023527803,-0.18378134791263692,-0.01729998015958485,-0.0034853886905258412,-0.0430255751226571,0.06283825901702293,0.07605228426352177,-0.15771958289230045,-0.07055924280101734,-0.006637096821722401,-0.06218391189759835,-0.09607494700982351],[-0.022494811517793433,0.05099032202536772,-0.029198053084389997,-0.014484240608903552,-0.07138121800597103,0.048620659746163655,0.06483983272364471,0.1209442523657826,-0.08897029803388233,0.00023376138944956814,0.0073913760578743085,-0.16773257796507118,0.052532976504425975,-0.02756475251277356,-0.07653598560014714,0.032028902239119576,-0.17680447468717958,-0.08483072277761401,0.037678673320625265,-0.008939890524005718,0.01764338363302119,-0.021977744477694842,-0.005887659879866504,0.05270031773413752,-0.17562710972710574,0.08021636196597189,-0.019561927740231397,0.003306273184846087,0.11579271603650397,-0.037393384403886,0.25853321140095936,-0.27692520162705675,0.11003271935529656,-0.09947330091913965,0.013372423712620245,0.03341824709138883,-0.07033207310032893,0.027184596612885702,0.07244813617097662,-0.03420978630828259,-0.031964482745957944,0.5558738736779172,-0.014396575625313499,0.11579166962175629,-0.048745308291688154,0.17389724506932147,-0.042411298372779106,-0.10613160967381387,-0.10559300681220112,-0.12092059630855312,-0.028692283545908494,0.03467150975595509,-0.10121577443880468,-0.049286851773453495],[0.13295152519400646,0.1299909253597822,0.01475396781566096,-0.043836106235311555,-0.062472003535550984,0.09805025582599128,0.03366085925751736,-0.0017060582980848512,-0.09250027813889325,-0.02216534547978927,0.08937738507941285,-0.05528573305174099,-0.11917547506184176,0.08751640240042353,-0.036658394975157695,0.13544888735549543,-0.1637755600174045,-0.01794732536299728,0.0512742600097996,0.10111179702787351,-0.043880078902608935,0.01993079127901983,-0.019851743433326036,0.07728860101574815,0.1057222381401774,-0.05627655825248928,-0.15115413086355634,-0.05224471566407738,0.06557356277042344,-0.04692596857163194,-0.35886660610190835,-0.018686111389445002,0.10803489544225432,0.025557044586557706,0.07890990734291436,0.02055672978440531,0.027890582924887695,0.11933492712219665,-0.15878595081001706,-0.2847927819355947,0.05609935433962007,0.17301806661347532,0.06470435255553658,-0.15757627110154143,-0.015455751758204501,0.02994027083417987,0.19537391102430213,-0.0195403991547387,0.0032491122911600754,-0.10472480119438134,-0.07596184155504102,0.03967676396660295,0.2060387762172056,0.09563560771548127],[-0.12594365949134168,0.1352130150776149,-0.002668420868201869,-0.01632039727413147,-0.03356338423790443,-0.1185399465541862,-0.00032967051795357744,0.030907506955017205,0.0053441477497405635,-0.04393895491420913,0.020365380547593435,0.11093740784293425,0.059582761531040924,-0.07724306012548496,-0.14195009329316927,-0.0750216442000814,0.04016847722316883,-0.022638853081077204,0.007540696688854486,-0.006725483510828453,-0.03699268356644391,0.07170305552610086,0.15672340393698592,-0.06368602753711114,0.09812267121760701,0.028922902448832086,-0.06138758553797987,0.12601663306373312,-0.17334106869274293,0.05167789668833574,-0.041668291689392484,0.0068521680331131984,-0.046325128221578665,-0.07976120753005916,0.00785557395204787,0.039247392762758807,0.0599380372826292,-0.1602877760185083,0.11538719042440183,0.07900010901840844,-0.0711121876454307,-0.058784193308472545,-0.02615085434315968,0.06729641970682226,-0.04220467721423891,0.010679734543099137,-0.11047822819715292,0.16135523543620683,-0.016200312703081296,-0.07446931023517518,-0.006104507223011094,0.069316397829702,0.1456035108858502,0.11632932445728958],[-0.048112638962610095,-0.006000482631424457,0.03384162511531236,0.04301124057163605,-0.10151358024574737,-0.02817281552087428,-0.033622888911845526,-0.03861464169284487,0.0018332178668726197,-0.10832167129644638,0.008988786370211598,0.061650258480654474,-0.014711123434457735,-0.06351033226912028,-0.08329185794174354,-0.02550542171243847,-0.02717544071126505,-0.08245533201913642,0.030940185964093026,0.007714755158150443,0.04169133009257827,-0.134496719708956,-0.055240467917316814,0.009098029846279403,-0.042665920535432195,0.12678790577436538,-0.007119739124720005,0.06606954694369728,-0.010060864867005786,-0.08425656588274939,0.05885207161666208,-0.09947577153754525,-0.023151231538014693,-0.008036498191547043,0.0977831387762752,-0.10445792672334595,0.12110673041053498,-0.05589082224125985,0.05630718063560635,-0.059119209059975246,-0.12473047649332453,-0.03816549398951163,0.13742237075859082,0.039747753527592425,0.024019001999781416,0.0501708976766008,-0.087298972009696,-0.06081990140688041,0.01866370444157201,-0.08950515946770338,-0.0784732538927042,0.05911335105658475,-0.03267810080192865,-0.007970851878191125],[-0.3576423040362186,-0.2767145141131527,-0.01540914180432921,0.22635380950264605,-0.06034289947845987,0.12827544782000302,0.05368655292695871,-0.03839281608234793,0.032006089241615805,0.15858491297875943,0.19812980528221305,-0.03395832911150732,0.03346584508248678,0.017614122553939286,-0.024587872709517813,0.21713524236678208,-0.06040353089788943,-0.053640193032867205,-0.05419093786971848,-0.04664178233416568,0.03955190013953522,-0.012195624903159417,-0.0338968536251041,0.025763432224290377,0.01252644768337128,-0.04384731833644834,0.08139952244416845,0.08866812693014801,0.1092058588713704,0.06330847942249815,-0.18553683456549339,-0.18292113629202408,0.13621979127266254,-0.018203934210861576,-0.09503679739224781,-0.005554463288334097,0.09816960527296618,-0.08976358069622666,0.07573125439179144,0.04787701961455487,-0.04444582808609962,0.02232459788589822,0.16722200816416594,0.01764053695550838,0.19367597558595642,0.012677264874355514,0.2634095157311746,-0.14003573762489,-0.08728800650915218,-0.011760142232597925,0.054149808633711084,0.16297567378148908,0.09124174877792014,0.05058284291348609],[-0.008619081108962005,0.09760687403719027,0.04944571173893706,-0.11449138135496045,0.14786275521025274,0.10113123747140022,-0.0011262344374512038,0.13221634362549117,-0.08602679648076857,0.05329172383739287,-0.05229390170939861,-0.054138798254783196,-0.0106771208987375,-0.049981153125205874,0.10651464438186703,-0.0745002748343371,0.01655098514158069,-0.04561770819973322,0.1611591312805356,-0.09654736517631488,0.18465383523949483,0.0937968346867795,0.06879610732239438,0.03511160579231845,0.0872474055885698,0.00353898545715746,-0.07314155752124275,0.004581637532442864,-0.13081726829138074,0.010868440191283621,-0.08148663686269848,-0.05810612426523548,0.11208465865373055,0.017420972597731177,0.019044629909336065,-0.03849526513624002,0.02504448964103288,-0.08699820457000285,-0.1294154967043059,-0.16651844018532555,0.04251483690945191,0.0356430239978665,0.11398187536326684,0.20908448663443144,0.1428743751505222,-0.03105737793107989,-0.09561364986618262,-0.00800807145481496,-0.07518311440335873,0.10676405621320066,-0.1852841058099652,0.013377708726843343,-0.02450983992982142,-0.0067667814299396676],[0.08260125660215804,0.1136231226330592,-0.01793311745441553,-0.06402152894895406,-0.04875648319913064,0.06164545723713557,0.018518812470510813,0.05771015197899287,-0.06549345832924693,0.16491827542052767,0.012219205633794073,-0.01297719336564401,0.02884813469253451,0.09499740280420647,0.0526306711749253,0.10360945480391963,0.15535978238730555,-0.05842379704521493,-0.06732542177135654,-0.01330638570330886,0.0013620527666977733,-0.032430757375599556,-0.1532353739747468,0.02359797890141608,-0.08127582231313528,0.1253312716858982,-0.012395780794377783,-0.11232952732690217,0.002764602916867727,-0.13265609013586935,0.24542387563463008,-0.15302506932263835,-0.0961037599538133,0.07654319112067391,0.04945958061745859,0.029441467135334437,-0.13504066509196527,-0.012005153369319071,0.05773078291237248,0.004608133814188674,-0.019164316489216727,0.09880141128454258,-0.08496135385507983,0.13128922447767238,-0.013281379211302298,0.14084590259393728,-0.14388573961082538,-0.002629153698651271,0.01768007154909265,0.0691402127198602,-0.18491526578813997,-0.051683357142796496,0.05731268040792572,-0.026786505474793134],[0.08397193903904958,0.18082035033348315,0.018841539992514197,-0.011752802520385918,-0.10005130166133386,0.029822607498712583,-0.13402769089097846,-0.09406077356036059,0.18246584128481338,0.011853105359334244,-0.006438009580756577,0.1289810829574009,0.1623746627686967,0.007953548190685096,-0.12670304851619227,0.03742259013882382,-0.01790316128197674,0.14479099996630262,-0.05820140194769983,0.008754899429063302,0.029843507468304494,-0.034866040405608444,-0.05003943237320215,0.06511802851361871,0.06017496671080167,0.03939172457377898,-0.043812202615097946,-0.028817019507916607,0.1285307607861798,-0.10904887235686882,-0.0257944094989151,-0.004366667457112085,-0.001788264329774143,0.018649889256006694,0.09564381056138847,0.11725837471674035,-0.0637310843207019,-0.17463219983913644,-0.01870305016662345,0.060770167917391316,-0.06637925855945555,-0.055310161516526964,0.002265892447334381,-0.05377920822479611,-0.04053538873242216,-0.018223849241575482,-0.04444169883794699,-0.11302919883060102,0.022700110076786784,0.14467063873386293,0.10005566783328146,-0.10069327388631749,-0.01716481197838702,0.2397887719679644],[-0.02361271149733418,0.03816703958193401,0.010693476834827971,-0.04349569584363073,0.08623569631587909,-0.053237393678009254,0.011783672511161596,-0.28814226377799135,0.05411297767366669,-0.006450323217876327,-0.02977817232755457,0.12125042765234625,-0.049086087161597305,0.029812493494809616,0.14093509011031882,0.23219042896204176,0.042287815593468586,0.07053947213890413,-0.03767695343275179,0.07155414083985849,0.09150223794579404,0.07952856674286779,0.04421485486898364,0.018644700046506847,0.05377994191555313,0.03153866771843739,-0.061381455174026024,0.02059224780941966,0.06119810039514852,0.0710860572183551,-0.17391654233647771,0.08084104996078106,0.06415426568897108,-0.0349894224398659,-0.0027185795348644124,-0.04712744043472204,0.10420879642266537,0.04825224515881971,0.13508882157021215,0.013207575437588324,0.08170137501803768,0.1591111129228824,0.020876707687169364,0.14164434178782334,-0.12828772021006943,0.12002476407100418,-0.36663134072801623,0.1018208653314438,-0.14173335332787615,-0.12063771382355558,-0.25553920354578274,-0.016247089241801047,-0.022122619500608877,0.020944093592354548],[0.03602817214517998,-0.05202482913976873,-0.1552530175066045,0.03338238920543514,-0.06885084803845959,-0.02491994492127464,0.0967710355567796,0.007714677136389136,0.07672067156174066,-0.07854757696701209,0.023507274043113965,-0.054641235966225936,0.06031114189985708,0.18464656924660236,-0.05414540992973814,-0.11140704487602215,0.024714582625020336,-0.03078009271471016,-0.1192423173203857,0.05996141119229111,0.07802931418008387,-0.14894662037373343,0.01398809239192649,0.06328663872349058,0.017895026511784755,-0.0936178548251364,-0.06502898272807413,-0.1177915376346523,-0.16681160041205517,-0.041496502432876156,-0.11476132804231746,-0.1949990292073884,0.05330737452858343,-0.06737625087063882,-0.05663440845410072,-0.13307500622881405,-0.08861653751138922,0.008822523911308468,0.02390565451810439,-0.01589646216824875,-0.09897115540213744,0.0848455044606536,-0.03708259055125876,-0.08907361831484902,-0.07374795876504175,-0.06848170475126719,-0.01753272600224099,-0.07257967252508205,-0.06144238087289281,0.03275816704020947,-0.10156166001407596,-0.11251230785299549,-0.0483328305094018,0.08646719437056875],[0.1227478097994552,0.09498655080068508,0.12667830358836557,0.1308430395453977,0.009128423981784674,0.009235790788837012,-0.027758501255499838,0.1899106488652322,-0.01974863093223016,0.16586901610236462,-0.037887895595695234,-0.06952419594703238,-0.04490080031391532,0.037874681291684746,-0.03316451259562574,0.009317855201732422,-0.0656298455769537,0.014991366992585622,-0.08801290922518687,-0.10339860476858041,-0.07839505398402315,-0.1069786609072088,0.02108478277318949,0.00029915393227468527,0.08706130896583608,0.040294434946981594,-0.07178734609718987,-0.059627355209907446,0.07121717157479664,-0.02814222396942652,-0.2523560812948202,0.1590564714262998,-0.06483440517583094,0.009478156249053855,-0.14093742855868133,-0.09600866643787123,-0.27325500228885785,0.061851517250265546,-0.08186568091257251,0.08954520332511898,-0.006321156021975057,-0.21235487382437981,-0.18597684961672534,-0.1721080856757073,-0.10726118483971189,0.027781161710242697,0.05046717426655274,0.0819361764611368,0.03717265926627551,-0.08375342987540232,0.06557510684362361,0.0042847545237123565,-0.18233296713162886,0.03241236043857242],[0.11514753772907413,-0.02201601408732271,0.024233644727320116,-0.08835510849215716,0.014688371487532543,-0.05954857973747467,0.1392330059879654,-0.04720968333550696,0.017185947090531443,0.03226829415664891,0.02038953836090284,-0.032602599015254544,-0.006421424241029009,0.176498579851085,0.025461323654228478,-0.09913343453000241,0.025301782038330473,0.14264483809861322,-0.01469780286723009,0.045988298802105754,0.22972243494451744,0.05928114898833563,0.080744187333149,0.1298995303693683,0.149134458594017,0.19574836948200772,0.13057226010354298,0.10916817568208081,0.02249871440842051,-0.0738469946058691,-0.1588728684938358,0.026336013840774088,0.33684646141692726,0.016775109946770842,0.10891940067794127,-0.07736997019569314,0.08486702987776679,-0.11475487097637477,-0.031374628188224014,0.3289681466571391,0.03172950564458739,-0.06349243166720016,0.0330895294661048,0.019690544792379173,-0.1376683142072522,0.06306586296492775,-0.0634563495498111,0.045149487001249364,0.10534903880451911,-0.031961385703995565,-0.0828665813045527,0.002305032534463256,-0.04940530250374512,0.04185924928830063],[-0.008049508781771512,0.006243766911025495,-0.044967012567329774,0.06089214078010047,-0.0605105257379315,0.0007104492906056024,0.1317223866421226,0.07701967404212622,0.15222638920287482,0.03365856822196049,0.0765714628947165,-0.0036995389576388042,-0.020040259569403338,0.08576674480799432,-0.2959184555870875,0.006813546203278093,-0.061679371804875524,-0.0644139746444378,-0.06202856954435171,-0.004875944516115755,0.008415699226856777,0.12132924536086381,0.04665588446151772,0.14534899238593818,0.04329695957832451,0.0705136806949247,-0.029647129479786243,0.02119927394964656,-0.0700301693706821,0.07870137249707645,-0.07367381927778602,0.03726552187984687,-0.16269902942930808,0.13079149821487185,-0.12675162612978996,-0.08354869884608629,-0.10573590476064197,-0.11120649534063401,-0.002143869861933746,0.014419303140448418,-0.029322393460408352,-0.01236310525455443,-0.1943274477994133,-0.022781191728208947,0.03494627160822466,0.15484269668813117,-0.1479094550358308,0.2600616636251137,-0.09670009928230913,-0.0597088400919241,0.07993600064403404,0.03381965012912389,0.06529016544174067,-0.05258778487108458],[-0.03156984882899982,0.1269283433155598,0.12257685646275576,0.027728918608435883,-0.017877787176097854,0.03619369425694831,0.02755013268466268,0.0631623307794857,0.15778140346039735,0.00887698336088327,0.051576318479008974,0.09630010728674555,0.04184663240463533,0.09449100527360116,0.14519748963360884,0.13706466218845914,0.023972547000106648,-0.0595044857227784,-0.011277620149914553,-0.045236322248341856,0.05089821246652252,-0.10135786215519439,-0.05896232798833081,0.034111462938095874,0.04314015928268517,0.013971085036950914,-0.06699697513895715,0.046600415489397626,-0.0944441053351594,0.059805886388268566,0.04676357616326948,0.0914313145440591,-0.2378502836572875,0.1986416646312422,0.07995322983508114,0.07163525065612097,0.041555679684310974,0.056404196772391724,-0.009388210870277231,0.007723065942087714,0.04222183823111271,0.13366290111464693,-0.04145915290202598,-0.0550101615579687,-0.09674691030343573,0.018609585737771543,0.0015639362530705677,-0.04141588132348312,0.059220971055035265,-0.0337585514428227,0.13535193632539685,-0.12314558556846535,0.03848734522315104,-0.18272980387109283],[-0.018891274670966563,-0.07659013929246009,0.02498271201380138,-0.07311212573564696,0.0804808218236829,0.07119803961590604,0.02930205744317079,-0.02289660527119721,-0.02021423054728488,0.1923432070894442,-0.010567730638126372,0.034294373213104905,-0.04779373792768184,-0.011744901093563867,-0.01683059779522654,0.021885725935049647,0.0028414742278963165,0.06579739313431483,0.0884751023149827,0.01482113127324594,0.0643830073863778,-0.008159374888152623,0.02130762299258695,-0.16008268656773778,0.12999599589555905,0.059024965175419615,0.1374957935949731,-0.026177359856129706,0.16942687382831959,0.09033702576368632,0.02848578144394776,-0.14704405715587854,0.2795018998346958,0.0456564255979033,0.04730389268942416,0.057332847626929605,0.012223311238396881,0.11166631429453981,0.015878198997964756,-0.024181699671313252,-0.0013517032409992777,-0.23945998706596217,0.20733147483057437,0.05960146053703998,0.09895680002236842,0.017809614958992793,0.13299590691026542,0.3013649673158877,0.042826262093977975,-0.03787093935498506,0.1526107697884948,0.09108389268079614,-0.03315406714029681,-0.03781249987343742],[-0.03130350746223815,0.03148804968522542,-0.036685892637156665,0.10431940499881577,-0.06652492545561821,-0.15568867852430998,0.001297113535166906,-0.04950147889491331,0.03473371848237741,0.08336798676515059,-0.09977067065966583,0.0003923911579544282,0.008286874113788086,-0.017837030726829774,0.07931929256769979,0.007262048202312803,0.0066110471936077775,-0.005400146530039021,0.05285895383716915,-0.01932733318126623,-0.09768031479915644,-0.13418331830137242,0.06055435793002261,0.14618312918392656,-0.047595015484621646,0.025296086405111294,-0.08317016157524448,-0.005574029019036173,0.043665469725181594,-0.10343297265397196,-0.1320725897086693,-0.14211967216334145,-0.003465060955088574,0.03125058481838003,0.03707544258408816,0.024303067783545317,0.0375962129144686,0.017357826030002643,-0.05103782705004769,0.033919219869723856,-0.07626283548229916,-0.037677728656680926,0.05319763883642118,0.00409449416656109,-0.04907850763327376,-0.0387696295599743,0.0381157079927372,-0.00037217731441481847,-0.07405392472370946,0.09346680367217029,-0.0963375476664822,-0.016375727945369522,-0.06319537326884517,-0.0620733215527813],[0.013242449512620921,-0.001845815504404321,-0.05718603981104956,-0.11017342292511478,-0.11476001432822584,0.011265875983946806,0.09906130996833407,-0.021024247337614568,-0.03379466598462334,-0.0686254364490913,-0.029960546380480627,-0.04907570559899536,0.012221454029316327,0.1373594618208826,-0.02453063407374252,-0.09510506178568273,-0.13125354262959116,0.026562995103019713,0.07257544245164302,0.046325505058989906,-0.09534960979033433,-0.026259472949946728,0.014190556540280898,-0.1107053318748113,-0.013006586186600014,-0.025057092532890728,0.018655323325758387,0.011370412038184634,-0.0039795448359975704,0.06156813953212932,0.11302680837362428,0.002400372501508616,-0.104544656023217,0.10679719648929405,-0.04000900266147504,-0.06951052064409215,0.0030203563477372154,0.0034953576664592,-0.0915854784737953,-0.09543899767908948,0.08096111209522168,0.002017404748378961,-0.0030348678580066645,0.021588074776328788,-0.04216816857681448,-0.05361568125068541,-0.03385980327434164,-0.009378616474862527,0.06064630051858397,-0.07955950380483542,-0.0892735150520445,-0.08879692444178396,-0.02257139012020401,-0.030311960035636663],[-0.02993031016550563,-0.11290453792190813,0.08636169861496643,0.021853646723704295,-0.08833905249001787,-0.03458553909721927,-0.06387479702546144,-0.03927372259208755,-0.0055593008016158975,-0.04323366525617167,-0.015767807492533842,-0.046194239788081855,-0.005935870775011766,-0.020473555163177677,-0.058812317354237385,-0.14272246597934757,-0.038037797544926664,-0.03158046585604634,0.059160998234829995,-0.030581497318920556,0.04842491350519766,-0.02055602563823976,0.0007540105025819693,-0.1760385332943943,0.013530190461938327,-0.04072478281003,0.02311906359808441,0.06136259037626527,-0.03639930226593257,0.12928492008051595,-0.08025423422049754,0.008564767078133554,0.013335217421988045,-0.059835374226213246,-0.07849433309321988,-0.00953463889137892,-0.009021495651026204,-0.005656883216193654,-0.010248865182042401,0.05285559914905237,-0.015604395559996693,0.07574026879105293,0.03735529665352705,0.02619507655524429,0.13801472437052775,-0.035045449728666724,-0.09576535989278201,0.04188161711263584,0.09838591334036888,-0.059956920053409093,-0.023572625122766585,0.16956223952104077,-0.12482312268832176,0.12787184650828565],[0.011249935868732044,-0.01668982586291356,-0.0006966592279046296,0.14465572182091252,0.05789183024945551,-0.08009447440973391,-0.017261631472991076,0.07009783123023494,-0.014638381897526644,-0.07793367477876426,-0.035706739949939725,0.046192874444755894,0.08685578480522198,0.01786168116388915,0.06485933321528752,-0.09376234155404105,0.030792044896939715,-0.06063676893130292,0.0690889940417473,0.07059971337595494,0.08656889663314649,-0.03089056070224128,-0.019317488032842636,-0.019148100649152816,0.024795089048211164,-0.17854895030092924,0.035475233254593785,-0.09828824896604327,0.019475458469160555,-0.11466965980948932,0.04521214752190368,-0.04382813037747641,-0.11035160141056753,0.07708318603447235,0.15293341937848276,-0.06256616812297247,0.06790943058295963,-0.06543536637805772,0.01042816851467485,-0.040093535932384815,0.03614633415900936,-0.012404071994455975,-0.031245111790083217,0.032967724266384356,-0.09877913808234733,-0.02533880883378743,-0.1515861618482308,-0.0773163280361836,0.008893684418186087,0.014023415778455665,-0.026115270865033974,0.03815590198339557,0.0951769324043178,-0.07239650131822285],[0.08255330012468158,0.13417821394030935,-0.06494947011219832,0.012471619880101327,0.02849382123953917,0.09626440035948425,-0.0049072755941351005,-0.14407045890215123,0.13911436001056995,-0.08128702124345855,-0.04419431143579954,0.10936163536157507,0.037105133155232776,-0.039236602760494364,0.08474084274168804,-0.15164643900673488,0.030204518176058664,-0.0490484429684812,0.08497789451455028,-0.05394149809955927,0.0823739772645576,-0.015812037256035378,-0.006842275255660377,0.12346627537633753,-0.08119990716825208,0.00007137526074001056,-0.01670451824489056,0.12066854330301031,0.1481520060322562,0.07890391634676008,0.024853880552393192,0.1474498089153077,0.13426148154918344,0.06979734999983693,0.020361229261160095,-0.019671062178563726,-0.020266461869974037,0.024984123957437862,-0.047796580628316286,-0.05686890189176728,0.016643586949306018,0.0306402220610072,-0.2378842275062939,0.0671649322735902,0.01849328704846861,0.07099093725456723,0.0977954448822386,-0.03170946195899767,-0.1312346336665108,0.080232626087885,0.01455319604709321,0.1047435668817764,-0.08140001973753837,-0.08368425940699911],[-0.10551173359088205,0.07832583026564996,0.020237894841448622,-0.006679594330649142,-0.06045527710526084,-0.09628222959418589,0.012307482179767657,-0.08372830060260741,0.11796803200948479,0.0558043966495471,-0.08719053595515686,-0.09802386123008204,-0.01991709678840229,-0.029370287247849926,-0.045911554575071296,0.01791756697263679,0.10565091358588094,-0.12877060767040346,0.17089310177794442,-0.02985368961314096,-0.09677353684362695,-0.007412549247009649,0.0049048976518990105,-0.05860893338687224,-0.05992316655427987,0.09756155956451795,-0.06571472208316695,-0.09546855870149665,0.06714032334317817,-0.053438097110591234,-0.032564758469046044,0.040629167126136664,0.043150636387810665,-0.033135392959497044,0.05176063232056873,-0.045444030254992315,0.11462811587297747,0.02969786814360357,0.0011731630779484733,0.02791926156576527,-0.004365525759036934,-0.007986835004270918,0.11886200376241737,-0.13391479640396442,0.04806075558864791,-0.05167844427949898,0.044429347707551484,0.0706393207500183,-0.01694304083085873,-0.01825388262992323,-0.053115107611053085,-0.012628309985032801,-0.011427228365927192,0.013696757020317387],[-0.020575826851366948,-0.021592220717218304,0.012083127599637079,0.09655636263927067,0.10559458780739463,-0.07004057496235176,-0.059635685514897105,-0.012243500912369407,0.08037005978722973,-0.026858972980306133,-0.11746163450298365,-0.12365133765105192,-0.13260634703403507,0.1651136489848902,0.09888399401981099,0.02456085681926829,-0.019675077375542485,0.12467253801461245,0.06991401120521909,0.043660501942206525,0.10852527649734006,-0.05954976357513597,-0.08455773511352285,-0.03612492806996761,0.17824971588369412,0.17450061612148157,0.05437824665758162,0.0033872793070119822,0.22926870049988585,0.05000037471660537,-0.12685443290006654,0.11939861564795767,0.21404009975689856,0.03402488356474868,-0.021758522645177202,-0.016981368877265035,0.05038760821119552,0.07380913014966048,0.08745011783657881,0.07507273041768939,0.014630433046891175,0.04584011663831699,-0.008023365716755923,0.020898321634743543,-0.049073772383810645,0.09524687489802658,-0.04153304447095711,-0.010141028373229067,0.018619523915565966,0.03649557636806491,0.10511621047590229,0.2372911004621003,-0.08245539557659959,-0.06678637429918254],[0.051887203860891816,0.06602710598595556,0.032376757875707915,-0.04953821509233745,-0.013971945853362729,-0.0719556389089179,0.14918219596027907,-0.03956902783241312,0.03644769813940788,0.12104176634831844,0.065168734436856,0.11104045141291026,0.06172541396478354,0.0438116659822648,-0.0714156323450787,0.1022005432307028,-0.07629442948176117,-0.001138082945542522,0.08043081042836421,0.026323067182609624,-0.05489446490851527,0.14090877586369038,0.04701902895474917,0.125461813603606,0.10850074060106259,0.0586683141030234,-0.040936836708758424,0.06920002866743527,0.1469664858463936,-0.03487728224444664,-0.1463198583021799,0.36954889721597445,0.20738359997170402,-0.06069159541006512,0.003712264613161584,-0.04879688027822789,0.03138427959953125,0.10843718928203322,-0.005837042885912497,0.11268346838627967,0.19452650868333543,-0.5376511356232218,-0.025749904218082518,-0.16470813774816892,0.04482908834402078,-0.14537818665258756,-0.0371429054531126,0.010158135189321935,-0.022218163384784287,0.01727196304562233,-0.002490978173893077,-0.020075718286139403,-0.04500743541589703,-0.0012385575326239347],[-0.035188759257738574,0.049709033079614155,-0.04044615087913221,-0.03643391013385429,0.11979225040116155,-0.0632131019225428,0.050495646473000304,0.06020799214408226,0.08257303611708748,0.1445921754756068,-0.059897546844321,-0.04672433791949801,-0.15189070015194445,-0.049089244349188446,0.10666456150195817,0.003003505251690468,0.1163046854648651,0.015407641969665153,0.07205744719654165,0.09149196019704275,-0.035958666518919956,0.01005684536228947,-0.05769477082587518,0.03500375703148854,-0.030643453859389824,0.08110457138819593,-0.05458651604707232,0.052830220983771055,-0.14653651046963342,0.1105194212104314,0.13887562568578368,0.024881371621990438,0.012039480567541958,0.0772655297618554,0.07467412997573163,-0.14966646807598646,-0.08013443205484197,0.03703467757527298,-0.07621780885761077,-0.061130357019236144,0.011589298448272278,-0.0610560534442287,0.09423180998255988,-0.05837656897707513,0.024458505347057072,0.06682359706270076,0.11397755840244715,-0.036206960333325246,-0.06962706163179905,0.009245573391986527,0.07854886734846525,0.1677827327080466,-0.022438472900754534,0.007141990622398699],[0.014638701724597504,0.013908023149728992,0.0010608962803784418,0.012306340975840109,0.021976175191769438,0.005301494956417275,0.042770060116140464,-0.12131434236879633,-0.07459995387262341,0.151405679055138,-0.161823192849495,0.053001065254252445,0.09650160926203102,0.043614056741043815,-0.03279140206044239,0.03899491545097958,0.04341640734714316,-0.11438244654093341,0.013044211754599763,-0.12776380979148289,0.08293417917530727,0.06334718796314542,-0.0022434849689431753,-0.04380796181083101,0.08566521441800685,-0.01780325293347929,0.05230601934480641,-0.1112560897383201,0.0310577400669417,0.02535963737616831,-0.023230790751452703,-0.009937055380428444,-0.06356180051144565,-0.09701548940270198,0.09684878021127585,-0.04073422080280684,0.0452401444510344,-0.12963650860046796,0.0007197117360408068,0.03499618199834578,0.02505854086939528,0.529203176276349,-0.16841914437514593,-0.01625225309086059,-0.008649852789176581,-0.05039313096063233,0.02043507363456468,0.04515585328536115,-0.008885019158208862,0.04992711538562191,-0.053015071046557,-0.06059500501008502,0.14841258790157705,-0.032669022749035485],[0.1792023364012704,0.063732871226812,0.022141091795876543,0.05802369159898015,0.1261192897092888,0.04100636582626487,0.0352835130884463,0.043455821772505863,-0.043329685946740394,0.04040047074630347,-0.1352949930078302,-0.09835697024041931,-0.050007782962956424,-0.07268955049437802,0.08573740990366915,-0.009189180990670402,0.06881963870104033,0.08816543057432125,0.023540218173394474,-0.026806661729308318,-0.047422066693258456,0.0736747673980765,0.035605743237982934,0.09312150582794956,0.14293911909093576,-0.036880044097012135,-0.01831527963121162,0.0721966427799603,-0.012031346228920034,0.07146488787215327,-0.14066153483541374,0.215614883449717,0.108564916967275,0.013059916576546279,0.09301718227039953,-0.00538020691855705,0.10854839484254923,0.11843057348164451,-0.10774221642305704,0.012633502180680378,-0.03301963425363606,0.026168514312875684,0.03839939813347345,-0.06908714984954877,0.017303681378823845,0.08412408534196725,-0.05337549403740509,0.03077219249987549,0.039375615811142906,0.006172501922351087,-0.10398019579909931,0.04285745597054586,-0.09664901660531595,-0.009960835451907003],[0.04000534033358479,0.11551664883241483,-0.07329983594081069,0.12280924606047834,0.07627526848049596,-0.06370381744155022,-0.034417760648989396,0.05449312857152898,-0.02653930576863571,0.020383475774432933,0.010409149506456805,0.034025348357833544,-0.05823287594159502,0.027895382567562226,0.03590103406941388,0.10135171463466648,0.10677840553914293,-0.07210502541202395,-0.006518909011875638,0.00526524676522686,-0.06003956254571997,-0.09412356173977242,-0.051642984034892155,-0.007980008647444232,-0.14868089351048283,0.11827159548285346,-0.11834330215769033,-0.01926041815863922,-0.10261085289061783,-0.0379245449531019,0.0998481336828658,0.044306882138102265,-0.22757109909011763,0.03568483075045994,-0.03242250405481881,0.07662499783629766,-0.12245891376411384,0.201934215634639,-0.010165944771629128,-0.10353770992085116,0.14535493334163016,-0.08193684987680461,-0.03318960220469899,0.06793014396159347,0.06319484514439423,-0.06068979223569684,0.057345517867379826,0.09518583652139644,-0.0338047177442402,-0.14758683274144183,0.06800269403756318,-0.2018510681954494,0.14970163118446028,0.07616500932400568],[-0.03044092007461075,-0.04726892636767729,0.06157660852354229,0.04609029753030141,-0.010824488843930098,0.17849864205054713,0.10539494716094569,0.05636924904638115,0.08498194054526415,0.14832296392678546,-0.006132250347784752,0.17538834538174047,0.016813365153674036,0.17839603429452885,0.19445276427593786,0.1864569526045798,-0.02797142759902708,0.06375700938542221,0.002425680014385983,-0.07026225713880536,0.07298163683723276,0.08330301527196853,0.08891726503336382,0.1955676365918171,0.06537779039578435,-0.008775093410002209,0.06736867899169627,0.05032198396215026,-0.02897071797100898,0.08075098875365475,0.08024379931224282,-0.12984029887943435,0.26146201948565473,0.15203893867622906,0.07690633518645422,0.10897333704251352,-0.09335393645675935,-0.054693955857534324,-0.07683038254601549,0.06188425419407198,0.07300419927713411,-0.5160306997576237,0.023887654021713944,0.20730073436320046,0.013097906987868967,-0.1880066555407147,0.07315473826727646,0.07686571101806206,0.12443794194157647,0.017339918886326335,0.019679906801551215,0.0449756638783742,0.142167394338071,0.13972812883756294],[-0.072344734575356,-0.06797340671865724,0.04836757314375574,-0.006781546042550964,-0.1702324256740213,0.027967014140844435,-0.09802180499397119,-0.1293773770861354,0.016671172733867094,-0.04047161271861614,0.10153048535818167,-0.009818692910388824,-0.06934358601964587,0.06945814820098156,-0.016000822719699468,0.023666417979728394,0.07403445931096396,-0.05616020675287311,0.08546058087970118,-0.0443715483672968,-0.06433465465747182,0.03630405880870152,0.0171051107636246,-0.12326558600869728,-0.07151631908887991,-0.03351401419993054,-0.05350054779016759,0.07726880402796273,-0.0945386859010952,-0.026128033431150416,-0.14042608476224763,-0.04687026663838836,0.039777932408481646,0.047869942268416114,0.22091618369340998,-0.0248805813040756,0.015355898526436599,0.0008589714481174261,0.06033611912440881,-0.1427413705966159,0.024789364407483302,0.10498323159993167,-0.0025547295420555523,-0.10334125235655488,0.09817941946932714,-0.11434142948476013,0.004242639991123416,-0.19915456168713275,-0.058071551262341495,-0.06375483660020201,-0.006615070802935781,0.02911988069377894,0.06993518477526116,0.039814848225494595],[0.12761999723464537,-0.006167223040153664,-0.06829562756546778,-0.001877104166974036,-0.06938908189174949,0.0844658373348672,0.07868709361745355,-0.0642774413639773,0.03643662763168237,-0.026121019016674563,0.09812268106385473,0.14071971559402616,-0.06822047185010696,0.0205463382617955,-0.024424910588417,0.056699621169463484,0.10168406519235265,0.1590893103002693,0.027001527549961286,0.05367577322802747,0.012044483607853908,0.15085012144569693,0.14791260289632044,0.1363689542195831,0.004073859092360112,0.05654890874163393,0.16101519094570974,0.017200213529017225,-0.04013357580412356,-0.016794669137443433,-0.2570599059743406,0.011114388148866719,0.3075704586527757,0.009743087652483466,-0.03960344527560106,0.010329931105141726,0.05801940607236135,0.01645381327719893,0.11415268487558572,-0.09380283873050704,0.14597455319033187,0.03504584334738891,0.1223794446157642,-0.10045884157520478,0.08967913774362572,0.015379608085933746,0.08442471385656515,0.07764065448774203,0.04531338449816938,0.015507657068469537,-0.03736879291720503,0.10912815509576289,0.03503290240391161,-0.0575137383990127],[0.13188617407821338,0.033591899267638774,0.10869187642699184,0.09227728049765023,-0.08364073615222864,-0.089701391291867,0.06566051296323973,0.10764655545826904,-0.04758978893888153,-0.060407928650313227,0.10888023889307503,0.1331960361130878,0.048483632737781154,-0.06291271309120978,0.043859388989701306,0.08356497086982542,0.11645504371079232,0.06784316908411908,-0.1513587600115014,-0.04656619127760044,0.04079269286811223,-0.002545057615288699,0.11850883161065459,0.18293419944039524,-0.05857652785461079,0.0838616899758714,0.006093005938239625,-0.06042688391818045,-0.10291372986176528,0.0660241961392599,-0.04432575222907813,0.107975657889345,0.04958954497961953,-0.06941637919701632,0.104374692132228,-0.03659529017487259,0.1218793609242222,0.04280663083891368,-0.03046299089763019,-0.17471412318465626,-0.014258146983788685,0.02538673418112016,0.04875590149130507,-0.09445098578737152,0.12189825474673556,0.003358460526521476,0.026359451933288286,0.10273969233410148,-0.07444601891080392,-0.014881628798333133,0.16423191954314592,-0.07956204968592401,-0.03962841587888653,0.07311288031846633],[-0.10593095602596121,0.00829690352813311,-0.015203411745859456,0.05191681453762962,0.09877267362250675,-0.0893153855476761,-0.07885137264515425,0.06964271308417092,0.1594089302247447,0.05673684024005527,0.049588428763448496,0.12301702471875339,-0.07821500230375056,0.03689473845917511,-0.005283181551942828,0.07232514153547907,0.10126248506280432,-0.09469645752221034,-0.014973240455161515,-0.055324339218618755,0.010304348739503042,-0.03349361347226831,-0.064345853452469,-0.06449294203572215,-0.06809845538587032,0.010835562764104986,0.1186938349885668,0.08848324476330244,0.020069340898498506,-0.04372552614511896,0.4705720207362766,-0.3544437563609848,-0.05434010475930491,0.07580250964900073,-0.038362981948211826,0.09802808354042222,0.08118162858324676,0.05813996746690779,-0.06568506964214917,0.03146308402812095,0.03236513863786515,0.23372604331410404,-0.013576497823378525,0.17779595896804068,0.1313028029071909,-0.0020374561361087085,0.08900051074971088,0.060945775414183154,0.0959617470614092,-0.00736370194017712,0.12402668508767402,-0.11245550944448207,-0.07790772626156149,-0.10271665187393562],[-0.12922464438831868,0.03623818728129014,0.14240862635938362,0.058814077777043006,0.00032802292363168993,0.10958420029956276,0.0834381853627881,-0.10470400517807633,-0.05904533176035861,0.0003824125858961323,0.07726165208041688,-0.024171097767613437,-0.015034277185490387,-0.01752716304853966,0.05046172545314847,-0.03588629751028983,-0.13309770747003316,-0.06474334344027116,-0.011383135325580142,-0.09016166023328094,0.07418982381438247,-0.0038398297055022585,-0.12224741550504264,-0.060164057016130375,-0.09593203390575916,-0.17701216506465584,-0.0040596837810849854,0.005077173262932226,0.019141087709089417,0.1302685256299587,0.04100202282289969,0.015882801276274023,-0.005203939596693821,0.030962237689745226,-0.03784363157283051,-0.08844221258447438,-0.02739509646076713,-0.07337722714282544,-0.05051855681039296,0.13561597444897674,-0.11341835877343703,0.09540068926445011,-0.06235432314246749,0.07538895603738104,0.04005864121696446,-0.022662747312104554,-0.04804545715620929,0.023220223775360652,0.04059423148698104,-0.10893674570625862,0.056827982157353074,-0.12409892225947017,0.20346174047574064,0.06211096818490125],[0.023490868417757698,-0.01763119725204508,-0.028265315067489544,-0.17227112842858602,-0.2462651139981481,-0.07455339304618061,0.014926303424953323,-0.08163590668524405,-0.10403876268931796,0.01014157730530098,-0.027108305714037946,-0.0540762856066714,0.0015218968316005764,0.0013884877994937068,-0.041661690664912314,0.015438568936580122,-0.03761034860236265,-0.08063635629828729,-0.09389861211258976,-0.10259837211056166,0.044631239702921675,0.09747890964379076,-0.018422526881862758,0.004916975333975757,-0.0056661475764437285,-0.04765318665341671,-0.015237533656137999,0.060275239288031836,0.2606781110030634,0.040223413450964286,-0.04961287794634472,-0.10164093334242155,0.07478696488342207,0.08767784629892969,-0.054966727396260226,-0.0871981347486659,-0.1368729094415183,-0.036768159497892416,0.03146027173668808,-0.04030728405011378,-0.001974310322224959,0.04719006973300961,0.21941035232841552,-0.054977714321273005,0.008373254996516751,-0.0843690234497916,-0.1202533560663267,-0.05446611961364341,-0.04484818268446065,0.024775784079658664,-0.09749514383408783,0.057945384986486013,-0.0003501796086498751,-0.06193533211757574],[0.007004966386967188,-0.05727657104876617,0.03619332379227199,-0.06408732703784646,-0.04697574215185201,0.04315753159802153,-0.07422562742711299,-0.051961097440340075,0.04440996378958125,-0.08860755887994169,-0.09981442244933973,0.013613335960365736,-0.007248976175950372,0.027307584307819856,-0.04222757134738225,-0.10580583107129156,-0.05292094399415288,-0.008547605438875717,-0.09647239708696811,0.11869074101260789,0.04806055128603225,-0.06855961880708263,0.10400937666164031,0.0232104114038161,-0.043156220004261114,0.009029798785104034,0.04323309257051459,-0.15052951714894178,-0.05502986090181456,0.01962879256180731,-0.08803245717031866,-0.0007478227126426584,0.07606221194232789,-0.040620379170387313,0.06173837064033037,0.027527380474255108,0.05615680294555232,-0.035625723781255766,0.05821203550236424,-0.005970225537084515,0.03525663573157185,0.0034220335204484652,0.04247211257035758,0.09146411458490158,0.034872325581998376,-0.024943523023825794,-0.026450917251533985,0.10852504122255713,-0.0709696418570005,0.04920655360096642,0.12043751863134279,-0.09622000368339659,0.0600189664363982,0.04184379452300111],[-0.1095209810738618,0.11695190662068108,0.08067834589383627,-0.08482815036210044,0.20376736324589326,0.08092949182305322,-0.06102916090233078,0.00801858545722934,-0.0293926125175507,0.04968195700598171,-0.034476722630971485,0.011055090784870127,0.06041351381233844,0.18049356013801568,0.02534840150468694,0.033885502908812204,-0.10408721297171315,-0.15085685589447873,-0.0013929427644425293,-0.04433029123164132,0.010073697236989107,0.04827202730919771,-0.045665373837303964,0.01358425346927431,0.04585733991308201,-0.021587568189639455,0.07222948535641108,0.06160540009807974,0.06098481323289327,-0.11037606230063968,0.06451378096721222,-0.03135687080596906,0.13786251308537056,0.015286758933018098,0.013677917537103037,0.08799220810171805,-0.009053405641257155,-0.13341807592787797,0.024924339242523512,0.15880149171300487,-0.08567427379884929,0.025851181613629558,0.09900683550552111,-0.11643786772836262,0.1455928713489327,-0.008714414482896974,0.22163671002719773,0.059426535735063485,-0.039367423293842047,0.09924412270739823,0.00990098993999993,0.17575375863418866,-0.0013270167851994262,0.020340114119589643],[0.04299047239114164,0.010402345282156514,-0.04594143406350133,0.0066873299879943605,0.013794397514960156,-0.10694678120690071,-0.03588342430446093,0.04420948155963334,-0.0774877940580983,-0.03131772842750065,-0.045155706011293865,0.07139652154010535,0.07877662473855923,0.026480535000886745,-0.16760087061772808,0.12515036709863517,0.017109407812548893,0.027741775078049424,0.03392055706913515,-0.0785932260097231,-0.016950769628261385,-0.030390652163057013,0.056278042000005614,0.02260376315389753,-0.1906947112155351,-0.0727316781892156,0.06818831281458412,-0.11952073885203628,0.10767743921036951,0.08131717137891048,0.0032440298522202985,0.0028299439365211372,-0.031959284763270514,0.027673639268373636,-0.11721013275107021,0.10472012382358968,-0.051077404569144676,-0.08313294857253757,-0.04064500974771968,-0.061019632039322494,-0.012446348798164197,-0.002616829281051297,-0.032193209518734785,-0.011957797695419778,-0.07111714114795656,0.03531429981865977,-0.14617048882609654,0.12888070310290206,-0.12270183650192527,0.06088143016133294,0.030524276049893467,-0.16023080023260625,0.019120348856152197,-0.05397451439595709],[-0.17402421321605174,-0.053626392408622346,-0.029231335820904727,0.027750719407101804,0.08298144680350263,-0.04199426100785431,-0.11702047674358584,0.07417953873328256,-0.1719752912793577,-0.05251946343414103,-0.005842852511014398,-0.014761249818493945,0.17124843783079818,0.007386002090924301,-0.029131615185752968,-0.1635335625974905,0.005057841454599271,-0.08080420242471553,-0.06398570075240571,0.1424822077965606,-0.09655759572746068,-0.0050023300131376925,0.05271073944192859,0.035174848609039966,-0.10338823389412947,-0.2291437013796354,-0.10178610612219344,-0.010523702666776512,-0.13728873457914448,-0.021790216326348436,0.10261391630129303,-0.23270002855491956,0.02654192569959306,0.01586897490789039,-0.02974020951203353,-0.0903542543744832,-0.007318444763330015,0.03761328800719616,0.06510922343625924,0.06961838128610807,0.10175217065229464,0.17928151599864875,0.015383684796320428,-0.12996005421749027,0.047092888722886105,0.03480556998330919,0.037223148027828175,-0.11980132232112328,0.11008043206999223,0.11043278532017407,-0.025214833267530982,0.08832377628810027,0.11694996851143584,-0.11116959501062135],[0.052801888126013906,0.008686370260707971,-0.10148303462029228,-0.006340717003208907,-0.04248145256845543,0.10373252347364227,-0.01579414765045631,0.03753273019671653,0.004194568286225074,-0.10071906638598513,0.07356433462648473,0.06192118812937841,-0.06776520040644106,-0.013562659386847585,0.1065142699240779,-0.10949921962287296,0.14160214949660999,-0.14716248630827883,-0.055103550200126354,0.005077589378880509,0.012590151985398004,0.024840381855847662,-0.1021315670575802,0.13461040096432625,0.049171869577170034,-0.060975531590869776,-0.02941586558781475,-0.13957706048406093,0.047812402172462264,0.10198636174078395,-0.027739207296930087,0.11439400758352204,0.09585033475955301,0.05594063380705515,-0.04600489101742802,0.043128649020810886,0.03055501297417905,-0.007795560298586207,0.06924573759760713,0.028399190458874252,0.01938894758290623,0.04521127395977585,-0.051840934188881846,0.012868623715646796,0.007306713955259945,0.03664737373645637,-0.1345150568462272,0.012626126027672971,-0.044658431108524035,-0.023673457767246556,-0.21172809096727657,0.007914661278492673,-0.09324450078007625,0.10443098870787537],[0.05030868022675239,0.038828489729378524,-0.03761921584548401,0.020079743240589462,-0.012356168328795152,0.050881976265293526,0.0030464782131080187,0.008830703219024042,0.07329954400080896,0.18213405489933016,0.15257906223342435,-0.0682113426359781,0.1020515017522228,0.01012666414254728,0.07068188152704942,0.009003933111986615,-0.008144166515622657,0.06781306564229404,-0.0008537665984375108,0.13441347044403174,0.11314578109315547,-0.006161018227016526,-0.016364445297803138,-0.058207390809398185,0.021548269026969425,-0.004498116877286774,-0.06665150051326067,-0.026335888524347744,-0.04724054104516571,-0.08148441062270521,0.12991973314137362,0.3375975758174046,-0.3879884880040404,0.1576064791100643,0.15996040218379093,0.0884233228532625,-0.09980253376587805,0.03987166999158779,0.08233043448478702,0.0008225281834433403,0.10616175752663096,0.20907826850086111,-0.07563022512723594,0.1581960538849952,-0.13266415935870898,0.10341521602660746,0.006078741867233353,-0.024237908789964846,0.03891271354401983,0.1561131345065376,0.07705378041679266,-0.018792832045786512,-0.0035405814910792954,-0.040826485194325246],[0.057119380892106844,-0.012483774076995763,0.023021134003458246,-0.12662404945187852,-0.2015208583695761,0.02791082236082663,0.0003358463319610561,0.0006540399306511732,-0.06256736950638954,0.052235941151664966,-0.0068594305131242485,0.06975209076197418,-0.10160155252870047,0.10004241275154518,0.19511578268943977,-0.03639432184552167,-0.07829729610142312,-0.053710304362452645,0.03938748731780324,0.021384432670593548,0.10751311744209802,0.005293253391336345,0.06076559470092732,0.09079541489448477,0.0031409456667098367,-0.12803738725862684,-0.133108125415285,0.10507209106776265,-0.009923330685036572,0.015179770722650475,0.0421536602247448,0.07622357247655114,-0.0813822676256662,-0.07097366444210447,0.013480953712635142,-0.013226809417809071,0.13128892285268287,0.021471033154822804,0.07410645218853915,0.04661046722838469,0.05337379641414532,0.050857107746930114,-0.04438433686890843,-0.0919613903928899,-0.10459383249982379,-0.06402212225669605,0.06725607604488852,-0.02243923978530839,-0.05238052418587724,0.1453919996037142,0.096209873636592,-0.03247778839414999,0.019315415688350955,0.1999805918464132],[0.018695526693790366,0.1537751492467094,0.05826471088254714,-0.02861113133552909,-0.09894799495147281,0.11820924795676599,-0.116802335045346,0.13797603862754698,0.1108613927250031,-0.028583642138896453,0.060723309793511634,0.1498708522234844,0.07340412754714871,-0.1617554863043792,0.06777148615822357,-0.059356865642621555,-0.02500928282490542,-0.12472361545170939,0.05518916492655285,-0.1835200131717166,0.003283143679398271,0.0051542211839595824,-0.0013785712163345658,-0.014114951737378372,0.07155900090421749,-0.09160000975256101,-0.10214368803617749,-0.019399323882705443,-0.041939740230006864,0.08102327528080873,0.0015411843443827898,-0.07355136998117016,0.007391563691826099,0.015950238880413563,0.1984516731358332,-0.00860962872562956,-0.06178687539901395,0.014280234716997759,-0.020226868208830812,-0.07390309213761588,-0.044097836975483015,0.02150762741468953,0.08920477080910155,-0.10177786569804478,0.05891164983916102,-0.005316580994261965,0.0026926689664372367,0.026873236473528198,0.11017939243677388,-0.17109794891425342,-0.06912004027576278,0.054261704510649725,0.020933992497093004,-0.02617026681003778],[-0.0305703504590435,-0.19194878290068304,0.015543565911358933,0.19524208803537677,0.017459682503105763,-0.0039857854695141744,-0.015202100218724457,0.0381489556090506,0.09960917965935101,-0.09530547295888568,0.4944338283206701,0.020538169310270214,-0.021721819021260406,0.02934991525565304,0.04137562526834808,0.023449547445653175,0.04314087018279323,-0.048334778903792244,-0.03408608099444759,-0.04638417510087499,-0.03833940734822553,-0.08278841773436084,-0.08768187220172853,-0.08425864170415194,-0.08470730654742704,-0.008392514258704726,0.012610756258213805,-0.046371756250834596,-0.02370649450156258,-0.003268945845950259,-0.10094988337486785,-0.017932969669962398,0.048493057658958456,0.0976168706131292,-0.07384385409772032,-0.0648036725253947,0.10037469668419613,0.004319542316654658,0.1920651321749482,-0.06528423414384997,0.039279368948581056,-0.06798467558636109,0.06623785686886603,-0.08963549565501679,0.11063915908149224,-0.17312227803997293,-0.007317117863337235,0.08249134540924731,-0.08623030364758874,-0.03469843084526849,-0.029119563164578616,-0.15120800509727106,-0.02668028071017182,-0.002561262777541803],[0.022862332961721743,-0.006059735714054153,-0.013811112659669878,-0.020027904733705318,0.009450675747066763,0.15729702402167575,-0.04197984242414,0.09990206038278278,-0.1058144462756287,0.017580917943564915,0.040013684200699756,0.0799444643409405,-0.18411067753535768,-0.01101674691227892,0.034221945091294025,0.07191764319815519,-0.014510059454804684,-0.055903591581370364,0.09309094830507922,0.18005841067060843,0.005336938002420629,-0.039965638735421166,-0.007647205366814669,0.2000308873627655,-0.06918064548470987,-0.004760603392766655,0.029344591115501827,0.16354214551492724,-0.0443892506051094,0.08121476457988015,-0.06038553563647859,-0.23950914958953098,0.3230965564136802,0.12150766818947559,0.011104433499902342,0.1581143446331518,0.04799287905257901,0.09662286841873369,0.1265663378289934,0.16879017511959427,0.009419035907788061,-0.06291022716758257,0.07967214789923084,0.03638001079660241,0.1855549748228594,0.01759500918317151,0.019045456783286025,-0.05383884143066077,-0.019324773804658565,0.054722176384756564,0.049427425962141,-0.008392468771620327,0.04411163538223878,0.05563852851410432],[-0.02949309839047195,0.014085563245411655,0.04439259502586216,-0.023237176779914173,0.05368546085666613,-0.09054981548608766,0.11611090206406863,-0.045640267599160934,0.14666673350269588,0.13496291442603295,-0.07447703303392741,0.021557251701144198,-0.04415084192028403,0.17793059699978883,0.09023649468991157,0.08272779150112389,-0.044807195505267364,0.10006769527731278,-0.012568583366047445,0.1947578055325547,-0.16143128666129694,-0.08720489552631011,0.0807742024725036,0.012941403695167528,0.044492899929990344,-0.027106993620807037,-0.03387508916239483,0.05691613012608514,0.047606444867010156,-0.09732805042060401,0.0013765006845017846,-0.08245652862766203,0.06193077667579693,-0.034302413974004756,0.024316418973436945,-0.034703161301174096,0.045060193157721244,0.09050416419535531,-0.0020521352581235326,0.034510865372955356,0.04189271867204042,-0.22715764841303243,-0.08461345649885621,-0.04657931052964751,-0.036357570532814194,-0.06223407147967633,-0.11699580059867581,0.06663994893611372,-0.034076989647619745,0.15877742058399452,-0.005290364070480543,0.010324393154320271,0.034700722636535,0.06461822421917071],[0.22930096439372297,0.272631515041695,-0.009844950405313255,0.1382365899638349,0.17831580955548548,0.32573116913068917,-0.026770810125171973,0.17559438147828466,-0.06744302074921187,-0.04571163608022519,0.11187841933339793,-0.11525335986166677,0.04206409172589349,-0.052402503387997505,-0.07087976439514179,0.1990300467972518,-0.14318006381872925,0.028092800929019838,0.04899746716152535,0.008204747871618298,0.095534948391247,-0.033117689260932066,-0.030054891868913927,-0.04809746316846669,-0.05184723181385868,0.1972249077889248,-0.020119517235833936,-0.03129871752714876,-0.012878091349349452,0.004754981238155736,0.022971095513798515,0.07658054585184197,-0.2747056466253971,-0.08857189393790638,0.09848047555053573,0.04510189106133033,-0.07693544049787897,-0.07902893771937144,0.06351922597855839,0.13247928236528334,-0.13588806102839937,0.012112302168660953,-0.1209076914127808,-0.08007617526260201,0.08316425911190917,-0.06973064002587115,0.1332852891874696,-0.13102687817941808,-0.02478368347184493,0.071724656447689,-0.04348890906882294,-0.22489166574934505,0.09592359138471081,-0.06812184108537864],[-0.01983255404422997,-0.005029317337330747,-0.09303201745956428,-0.30436901474498607,0.0014353089197869293,0.15183166380338048,0.13924464853596746,0.011173932069750748,-0.06006846957965871,-0.14549510174205713,0.03252017477447694,0.06831022891537175,-0.07316916935170814,0.014360836765482735,0.07970323158586828,0.12140625416521945,0.004120195874087126,0.13598576826091016,-0.011383377800091955,0.09879081832405945,0.056491646127777614,0.0315774853560406,-0.1659438174141977,0.06577277683639147,0.05489203401893757,-0.05387524186634961,0.053337923222198144,-0.15728936538055482,0.034205544573920985,-0.06190164669980877,0.18529015757154182,-0.02986147691988066,-0.02405647332965079,-0.11069336867207949,-0.05854683998050265,0.1091986289844059,-0.16834263238791655,0.06672660958135518,0.03151687497951832,-0.002756567196010409,-0.05798528467193836,0.04183813460351067,-0.14164101602882817,-0.03747614606424592,0.02750203556801984,-0.09004140490368052,0.11972403160366873,-0.10493506024970956,-0.015179737127207826,-0.06699322028287004,0.11289467614899702,0.09875080467078722,0.1054783684004337,0.03423203343807234],[0.052591573466062774,-0.05259675191848497,0.00023262588556232982,-0.0005261110975698273,0.04601651901131226,-0.001802960076428737,-0.026709440794326106,-0.06755741893078905,-0.07658029047276203,-0.07816443467921014,0.0009666884552093751,0.06761946484980765,0.03210871264243088,-0.1474587639663721,-0.14807732353034952,0.005306959126101733,-0.03701705768635679,-0.06801067856179549,-0.06813985024399297,-0.06837408918144733,-0.00033161477884744323,-0.08444303799101462,-0.08444638005905507,-0.08408120920189388,-0.08411722494239147,0.0006419901367174082,-0.051795410566367356,-0.05226126687902902,-0.053348382513929093,-0.05259536880462652,-0.05409509350592747,-0.19462709779930945,0.07212485401137408,0.06405620922892538,0.052248357053353,0.014610132997842305,-0.13946297440397173,-0.06599949653291494,0.029786524591707306,-0.1706039199065535,0.06092659628713729,1.9048462829666637,0.08515554537435942,-0.36474536168904126,-0.10212375021570325,-0.12580271835231643,-0.27827522415006234,-0.16356901200659965,-0.03042977517460102,-0.08692132094136701,-0.07220468112387272,0.11330439141650728,-0.07220737890867311,0.07144465216474569],[-0.0651554885291076,-0.03654442532582735,-0.01799042495499314,-0.0035179451160666994,0.07385119281713572,-0.013327514286385322,0.10474503303921172,0.010957872835534137,-0.04660660798973316,0.010607047047313134,0.10115756475065929,-0.08938758267842169,-0.01159430134013594,-0.07763302577903977,-0.22046279609472047,0.12400161690914388,-0.06128436727139474,0.030208102318180424,0.03946244345678354,0.17568697572776945,0.007284899611952728,-0.047315599319292294,0.020645803781545777,0.04009934839098516,0.06771650924866526,0.1513756944272842,-0.025213102929198948,0.03472786846290936,0.11726840731979739,-0.02444604783089048,0.16287826454817617,-0.053620658679942604,0.004519508001031215,0.04825834113366605,-0.016205733617335728,-0.05220327225617187,-0.07498543273465559,-0.1328616751865006,0.07176012035809744,0.04153784006730728,0.12683029795619893,-0.09340933911460596,-0.10525285775018856,0.1869399395528051,0.06298415494911819,0.0347736071524073,0.25076363477820585,-0.019142018960746597,-0.002335032029127666,-0.0845094903359623,-0.12601683760586052,-0.1420311047527267,0.008142964112063245,-0.005641837447133004],[-0.025792360716015813,-0.06872807294306567,0.059144725722148295,-0.05115779685711766,0.1065699755641628,-0.09346377414913877,-0.04139530241860879,0.11473263091985522,0.020505009122839687,-0.16850587280122062,-0.17533469444316316,-0.11959659026471761,-0.08846341898115323,0.10470602956060233,0.012406587177096643,0.11829469966567562,0.09616935278451742,-0.029825136632425947,0.12419139000839363,0.07407608937920115,0.017360890723703035,-0.04941220701079465,-0.09521254786767076,0.12706306341885365,0.062474209065560365,0.12190756565144434,0.10850986351504507,0.017783599840451834,0.057184416344591364,0.06222320739454638,-0.13914461506443163,0.11259157703620537,0.09934241803415346,-0.22478812057741196,0.08554267188363994,0.07382245969844681,-0.07046468368367532,0.0009214556813112388,0.08280605234807185,-0.11018373227834866,0.0705197353554877,0.22588693563081225,0.07032096818916547,-0.03501496785817606,0.05764889555448454,0.11736300470450617,-0.022454635106719377,0.13653514829116759,-0.027022095102328034,-0.004657619398747696,0.18125725352835775,0.00983939922377697,-0.12904442163986077,-0.0712784666557334],[0.008411056535906783,-0.0021747489678559406,0.0681985276608851,0.07957248807260486,0.09548475230576664,0.06306420233681807,0.060364862277351064,-0.17928770320168355,-0.003860594614469456,0.07991522345138606,-0.0811616576934772,-0.1256129376919727,-0.004049458260261873,-0.040973793001108275,0.0733053690989692,0.048227814661256925,-0.014519564206117646,0.031661040227276664,-0.04661303079341064,0.04306933819098344,-0.06378004834948121,-0.042738308166639295,-0.08968554457681963,-0.00025758895610182786,-0.10469207109831265,0.09567200210307765,-0.0657372319698323,-0.05188384914199232,0.024586346885139516,-0.04686236331621496,0.08647802904549914,-0.2182220935057503,0.03706100764983559,0.18849084182682566,-0.07022516086540884,-0.051795795127596786,-0.1372795584450146,0.042913272182751344,-0.053131272583992764,-0.165765892421158,0.12961302636049782,0.15676665019902206,0.0005807360049544813,0.01262415456765556,0.09410062961918884,-0.042563324114728164,-0.21567297197976326,0.11867332197775607,-0.01336041781739334,-0.162275344665927,0.05539879081467788,0.21189068981723846,0.00489547714852877,-0.1346486076792577],[0.03450915499062842,-0.01035730232739669,0.005744624310645994,-0.12146016263485028,-0.08331526077251424,0.061671399729576096,0.027010617995787876,0.00024014697660810716,-0.004494337419604355,-0.038580802003754085,-0.018350931167008956,0.030015665144380886,0.07793627552265382,-0.029930764808621415,0.08614880783160087,0.032054671001954756,0.17339737750975134,0.02342598515467216,-0.06955019253998533,0.12921516769713703,-0.05028807120293175,-0.062368251905203224,-0.05526185855931769,-0.10816501884585122,0.020923015392559464,-0.009697179006529368,-0.09340694354106563,-0.15096132036926577,-0.02276970133012999,-0.17281922535535868,0.08459143653554602,-0.04653601477588663,0.04252329270018764,-0.10550323005621418,0.11532702479518284,0.047727372757980197,0.06459941087351295,-0.01872782673962832,-0.15917165728085375,-0.04458942491023282,0.2479332934383213,0.07549985035953746,-0.03881321042801362,0.2434692126667553,-0.08691877019112802,-0.004145704862314947,-0.29181501784889946,-0.009055536107386047,-0.07674417634429795,-0.06688647648438555,0.03690185479981117,-0.11919023609788305,-0.058475296514385024,-0.010868309176264647],[0.018248261175402715,0.1551232891908554,-0.029172950015504674,0.018152627172676118,0.03797295143512344,0.06930385124633613,0.1866789122629716,0.051637156549921154,-0.10685958815238267,-0.08740506685348988,-0.20259152553675613,0.03432585313101846,-0.025301084032965736,0.05994999828937643,0.09188562721742305,0.003117056358868275,