{"layers":[{"weights":[[-0.08639945066793633,-0.020106946038331967,0.07544981845619197,-0.1347218384157603,-0.1659309126065284,-0.003351167511300188,0.06899543439855697,-0.04620847046806485,0.11609499565985192,0.035524983970160316,-0.007060819276922002,0.05330619418431023,0.10335651566704095,0.005610068018376124,0.12044510161526506,0.007758805025304341,0.08563431063325508,0.11283487225870951,0.01008202458437934,0.13431810465718955,0.003043243207531109,0.017468686457675266,0.0029476433083315055,0.028972284923844252,0.13617006755706032,0.17061777404443956,0.05865619724517928,-0.034652123577291506,0.10835909671604027,0.15226092221409643,-0.11492091766341472,0.06229144841898104,0.13682253457644217,-0.042869184438748764,-0.06793097544640088,0.0030288446054671583,-0.06149621967962442,0.15511053383683035,0.11666843911496563,0.04279406755804024,-0.05778015681878229,-0.125101607830987,0.07767397717761616,-0.03472856857835478,-0.11576063472179339,0.03771093417353592,-0.03869520641042908,0.07143800696939637,0.06934980109197586,0.08236841480507825,-0.13362032065858861,0.055908910839376186,0.02107117065311804,0.13570535443571405],[0.006502988968139397,0.0979347943263011,-0.0699432201401988,0.09706322083194863,-0.07731885765008233,-0.01637050029893891,0.09060321437981594,-0.04782631907028054,0.03278251360108285,0.10702158237242645,0.0035061173057947146,-0.041866588103527856,0.1356185728889599,0.15344507029794358,0.0700466313129711,-0.10460555750346927,-0.009707386656603763,-0.04008648866189056,0.10298896798516435,-0.08145559654172858,-0.06467603256474667,-0.0033815012927199506,-0.03162807089767766,0.020916639978571107,-0.1034053428371322,-0.00367544546491782,0.008224284919247465,-0.046516564022861584,0.2959208734588764,0.13566386886440507,0.26695483808524473,-0.09292772084180632,0.09442933922403551,-0.16199464492197968,0.04022070080733843,0.07866030751736998,0.12426969787172155,-0.18481644244163206,-0.07896229423722854,-0.023507797420584182,-0.013374796491573544,0.011657376373462973,-0.07080398502489453,0.066280028941313,0.11291436133570847,0.016101872055956472,-0.16214409745261513,0.12136024493700777,0.11360895932087572,0.029290444012773354,0.006319203126354221,0.025164917022166815,-0.05296130153635452,0.0685574199585383],[-0.09096239098375063,0.10729794840724043,-0.025311053071028784,0.18920340157900248,-0.022224302617601287,-0.12745262941508623,-0.016865354175767594,-0.029194082104771542,0.07851914734098453,0.011321402499545486,0.002076853715760418,0.05286117539938997,-0.004691920384330697,-0.054376566397194306,0.02836986986826556,-0.14825426014556425,0.03479620430529737,-0.06485635901881122,-0.09762928160114712,0.11215733078710198,-0.0959626563998998,-0.06263649854332491,0.023856605001514507,0.08713405817218325,0.07202539754632624,0.011176005169739335,-0.004544994823707669,0.048234829037668674,-0.0582021074975111,0.09523688855017942,-0.02539321136470621,-0.0730407786358819,0.06349991412156507,-0.07745208901851405,0.0008774639340579245,0.01592154979048154,0.03868606031892992,-0.06201305181032829,0.02066019248047967,0.023539174367156114,-0.14506151158969105,0.06834280573482943,-0.07987307379320897,-0.0416744330535956,0.06918803381610937,0.00016787125992069607,0.08903826409016895,0.01245819850248784,-0.2345668520499422,-0.020843211641412104,-0.18821006384829783,0.1296860849691783,0.027071210971159804,-0.05674664078037341],[0.03013971380194529,-0.04215743633139009,-0.06881936032862714,-0.028671712069012915,-0.0023187359925629235,0.032253397335052225,0.02802166409658153,0.02652817209267989,0.07940650598110646,0.08780433800407132,0.003603167477148972,-0.07652850288990025,0.14739186501901191,-0.06798648642037208,-0.027425610344239522,0.03358752338147426,-0.04030015693979556,-0.06541192458579523,0.020135595813131242,0.0022681423655123542,0.07456460185054757,0.061730010769910915,0.05295928845046118,-0.01922494368564932,0.053867756840948265,-0.06283837899424208,0.06221023786373027,-0.045091908161138845,-0.06990199689457917,0.02294121729696302,-0.0907130546361742,0.13382167374793805,-0.03656667632718509,0.00840185849979477,0.04075401142821096,0.04474122768790535,-0.06772613803763924,0.015911168954102092,0.012028147299064183,0.05736093340925649,0.0022608874492112785,0.14371972700855978,-0.023940317197964526,0.05115072921512072,0.04909407206548491,0.07161367921772761,-0.032729054240477395,-0.009931332121457727,-0.03650090853412939,0.019582257430543076,0.021734019828500616,0.10473668975964479,-0.0017526512798935918,0.18334406870839864],[0.0992211645143009,0.1434504524209465,0.05073579672520718,0.14288464679076432,0.028987705570892093,0.10415945193082224,0.032417210887016636,0.014299486438453097,-0.0833109745505154,-0.08729647168007901,-0.00395541335681134,-0.010750816812060623,-0.09066668546974006,0.013333524496254157,0.053882330612180666,0.0523863064213109,0.014075416219366381,0.04636601115143793,-0.04041205149210346,0.03731338338799105,0.05349371562839728,-0.05371478256723548,0.07201077319467807,0.04587776476188102,-0.03429526744142579,0.07619067098958301,0.0456265339555637,0.06953991929932868,0.019598831882185835,0.1676564145647541,0.10111030602101011,-0.011487124422487312,-0.053503026329230624,0.0023705478607417697,-0.009303222623585837,-0.036314649343000945,0.11063140176818541,-0.1374749074267913,-0.04079355239592867,-0.03545028490689793,-0.1027923909635072,0.09801238282806327,-0.08609810957921625,-0.1719820489550388,-0.08219206600779809,-0.1568063705956773,-0.01619165913963906,-0.0019469086197733178,0.06398700425919056,0.00503445689361717,-0.027230147389318466,-0.06585376302151985,-0.07378650814715901,-0.1240401926830468],[0.028462070404023983,-0.14980332602996715,0.03485917631561244,-0.21269465050506958,0.008165519452461257,0.07826642358482573,0.014360199579442226,-0.08643878749059859,-0.0067737545602633165,0.09658041443995266,0.07844526639109846,-0.11448376571287469,0.027805082724492457,-0.01346675078217789,0.11962291520834963,-0.03240498127899434,-0.12722773917338862,-0.06238987314112612,0.1599333543953523,0.024044980566618177,0.02580109149987564,-0.06889562209354241,-0.025740577515696608,-0.13119333217561693,-0.01607013066937194,0.021463438690697,0.019369340342753314,-0.03821612024664445,-0.11142609585140109,-0.08202993807738759,-0.1332343426199901,0.026959484502322086,0.10883611700119754,0.006553163049409205,0.024599998751208944,-0.03957390187866629,0.009402291282525817,0.03803504657778791,-0.0150724470517887,-0.05417182758552275,0.0002722322581440938,0.4170453414126757,0.0060303460036754885,-0.1253900662224091,-0.019884535408019845,0.17494849689088146,-0.07214948551545097,-0.0025865664103732412,0.07256821055275965,-0.03663044223337138,-0.05132478182327956,0.05239673479141985,0.04632321288931507,-0.02029907527999792],[-0.1725297547869895,0.0561608345774788,0.020613264909819528,0.1087697990838438,0.0016804121817810865,0.1314194826554312,-0.040546359582524324,-0.01098884806130681,-0.03738962193574006,0.047740734707848995,-0.044556758875711054,0.003158559849329078,-0.04856817945858025,0.03831533012259661,-0.1032413569136399,0.08673867323804826,0.121881830960914,0.1870368330060609,-0.018680017521880712,-0.13683062985981578,-0.018764362363785023,0.03460069382342574,0.10537581102032503,-0.02990342407947622,-0.04204998305937185,-0.07956934396083001,-0.0073188737795539666,-0.0003908212824675296,0.016864516819125618,0.07011404799832474,0.11848326177001979,-0.09832449673112634,-0.053601924645443465,-0.09632976218219891,0.07793583499743872,-0.10082796967371338,0.043807072733750334,-0.11576358776069162,-0.025725648862591,-0.08338028737877348,0.07938715374900396,0.09314221285700747,-0.052277922512260364,-0.1046842098297344,0.12476464294454673,-0.12239720174450794,0.013603235919930895,0.11725919290190315,0.058583509365448296,-0.01470767360345714,-0.023756035635317425,0.04073276084990698,-0.0023753387928264267,-0.002374934679851575],[-0.10723663478738811,-0.05549397549293637,0.0315826636189435,-0.028709661091036173,-0.03733725148548982,0.072493470867926,-0.06595513884547194,0.1265518765123955,0.031118008321805436,0.024139468421274023,0.012254156158542251,-0.07420752782236849,-0.03773142882592808,0.03770162804065758,-0.020121810324245655,-0.20936605876494038,0.04477561602464518,0.07780122720479085,0.09583441872336843,0.08983245522397665,-0.0615715637147821,0.048379227781793405,-0.054562025466524854,0.060371098468443574,0.01946848522536074,0.07968368523549786,-0.07489167309895228,0.04891667225718312,-0.06016022614041757,-0.07999978928234547,-0.0372720022001084,0.10285494172702113,-0.004953873991817748,-0.0622335029641112,0.08315511673270753,-0.07223792673924691,0.055306987576652936,-0.03489269965818265,0.003058978529402508,0.08559451347285123,-0.03447611885749769,0.7798402696673862,-0.023275744960410176,-0.1135074153214715,-0.1592524472835772,0.06455754302894859,-0.055493420983325006,0.08088937770254695,0.03960062595813903,-0.15993733451745704,0.007456073275831906,0.08711648285089157,-0.01830267572636754,-0.02811517707067868],[0.03710261785086344,-0.03774256026778396,-0.06382119532010373,0.05624643065572111,-0.0762347331466048,-0.024140270294212122,0.05374967714530526,-0.04083004108715128,-0.06308060551328344,-0.03728879733374319,-0.008945104670466822,-0.07985639801358252,0.12192587645474005,0.008627038904840484,0.019466150750957582,-0.09295421485397919,-0.08354886059409271,-0.15292678905981955,0.018219615862345287,-0.11800488317794719,0.02662841029963595,0.022613392403677806,-0.0861442918295661,0.08224065829477374,0.005008222672321272,-0.010417036253783426,-0.09759143545396476,0.07488862980065061,-0.04476714011857411,0.13485961528008103,-0.016959788856532345,-0.10556349279276259,-0.14759194288688413,0.06872704550358746,-0.0032730249402842973,0.0683944737268379,-0.053821865581627444,-0.054633249161560475,-0.10490755134165118,0.03598649009511058,-0.0576701221603896,-0.03185205622070787,0.024208279255218342,-0.027859288513799447,0.0388172633980662,-0.04929985402860776,0.05913988918754518,0.16702375152771176,0.07437719456344591,0.10097811606943602,0.13221193803022588,-0.040767394597887856,-0.10850477845092553,0.06776283114794736],[-0.02306106857409214,0.03826705529659069,-0.023932784514447438,-0.03921265715611761,0.009914887443573616,0.09781384185643922,0.024001909176972806,0.09752381878280027,0.043709163641874674,0.09878721814180592,0.07019112458764308,0.10289052204508244,0.010997261818024863,0.015979037414617567,0.05278185088599437,-0.17092859011657918,0.003967622406311419,-0.04818327627910405,-0.01089645612476366,-0.10249165981497912,0.10426778586736123,0.07817688878002478,-0.023514125953111052,0.07271821573558444,0.06809502035009592,0.05396354389883071,-0.09716193921539364,0.10625180900012449,-0.1392964165772229,0.021993490136204177,0.04270344762543349,0.01589168347971072,0.01154566969226979,0.11155228752891734,-0.08763538055383421,-0.007248484419829087,0.1307891597063554,0.07919519824471374,-0.08490658747662153,-0.07016708386777432,-0.0022599450484987395,-0.18547672896451153,0.05292184874361755,0.07846114114985646,0.07959784983121605,0.030368102755428714,-0.12818698861093142,0.11138204084908851,0.07110557927058525,-0.004060977859875583,-0.12764191402012032,0.038149177677140475,0.038015049826443076,0.03586189954429977],[0.07915439485529978,0.06726083442210526,0.004534393716562021,-0.02245437478599294,-0.052455193339659964,0.07196121418293498,0.1470370907676536,-0.059645692894492876,0.0072402266303151054,-0.00385659237390248,0.03586589327086203,0.09070345483346937,-0.00437059630966665,0.003168334859881893,-0.0063102530138166415,0.01036916220372291,0.0065592073985946235,0.004993751787447849,-0.030923552763903437,0.01385396803366126,0.03840201506433079,-0.004205735002585172,-0.00917154745249525,-0.0066096462928925525,-0.015510285910454995,-0.08344453473380072,0.11474321128346852,0.09791657925310536,0.185371602377339,0.12738106933075788,0.05965852362345609,-0.24281415397342024,0.24222301154023804,0.1848850665779909,0.11167881669719179,-0.016363283180908867,-0.007932337745577,0.06258210340187298,0.05469575333195836,0.008813472308475734,-0.1619010384318433,0.7435458293110199,0.07879304749977341,-0.15048516628674463,-0.08272751245806097,0.018908536517198028,-0.1352286384602283,0.006989771586527586,-0.02766919378065233,-0.03823220793618665,-0.14020714765392742,0.34583520802529083,-0.024547565014977825,-0.018013719581615687],[0.035810947982290196,0.12372592960038531,-0.04911173566255615,0.06069516838666682,-0.05673370957129456,-0.0719564720996538,-0.15243209391954862,0.06387614857404363,0.058864957975168455,0.09450343782075056,0.10087613808092612,0.06472847380547127,-0.13365082938141662,0.06683383796795025,-0.06964225445147657,-0.16798319044132248,-0.014068584677633701,0.1038557018108433,0.047466308392093745,-0.09337122996262089,-0.03287729757165125,0.13574799851859132,-0.0669265534725935,-0.01179168883785541,-0.06943754919432227,-0.09138650143295561,-0.10125740010062038,-0.13366264044215245,0.08727002243527222,-0.05002155179751654,-0.07499830317027961,0.20354533402779837,-0.10441383429657941,0.06848439080620154,0.0389218843092936,0.02999002613942749,-0.020300674148725887,0.016332711928355934,0.09162712055024609,0.031416644017835144,-0.06975819279490414,0.13363400732898237,-0.13523906157362434,0.07552454444957386,-0.07544836453314796,0.12115825471003983,-0.14872404867628103,0.06248540568714409,-0.10197952994428626,0.12467726158833943,0.0626175073606054,0.055137800171384664,-0.0430469077619451,-0.04529234555771422],[0.018565790247455107,0.09664085621583639,0.003389868056634479,0.07308091529040404,-0.06510071070783228,0.0757453819296913,-0.11324908227822349,0.13536076600153824,0.129909611931287,0.007654496306182346,-0.028041154034260118,-0.04496765308045469,0.05909965055090797,0.013464537382621813,0.03295350167332321,0.07390603871090928,-0.05551018498877696,-0.07187635117781514,0.04236255791889853,0.06467265971420232,0.05420516015575769,-0.17549915014567932,0.01990863550006817,-0.03482425329492473,-0.16708631304672117,-0.2406998535127607,0.054614003400222155,-0.07499297157615473,0.06531158069651956,0.08015370477155702,0.11538717566054986,-0.07926475573522453,-0.010605539687999706,0.14257864216791089,-0.11060790169901236,0.1202127600319527,0.0836904878757092,-0.10392962471181828,-0.039841553124558414,0.22545321585706113,-0.16165946263197295,-0.0923654251165464,-0.009455607313781004,0.04347944396841301,-0.05560912264387147,-0.07026820098882257,-0.019634951413084634,-0.03208900725535801,0.018769958635535218,0.05621586853551169,0.037049958306398525,0.07906754640956654,0.0024861815476820595,0.11917789483172495],[-0.1287366743049461,0.04360693489404381,-0.038376806388105374,0.08634649437093585,-0.018933705552787554,0.0003911905507577314,-0.03479524561088828,0.12451167785292502,0.017114217580466565,0.050452064023761165,-0.047338847920448894,-0.028631591247831514,0.003947619810457807,-0.05951148962187387,0.05687557839080418,-0.020571095901067975,0.023576123649522777,0.08710559987241495,0.07206475506968789,0.04932993166046969,-0.032292984695392594,0.11906816917352223,0.02449604912684439,-0.09737453731664338,-0.0026746353088331213,-0.011804527533087533,-0.0005332512655243978,-0.1062229255403018,0.001524216822795647,0.0164217088988543,0.02942479797667689,0.2476756831496744,-0.17574870204865245,-0.016082996600250376,-0.029199448663489752,0.050887360860431906,-0.05107982764686464,0.06265174044611488,0.054304223716005635,-0.08034518258656541,0.14046210282811544,0.05421842954540154,0.03967754059446405,0.07461165876236443,-0.1215703885959206,0.07480901789980637,-0.23648457133895395,0.05932164194850384,0.02031563971143714,0.1130106508604697,0.008250447602489368,-0.11787076592666286,0.03289284595731094,-0.026722027958669636],[-0.006697329138943504,0.01846158514340756,-0.030400480828985162,0.026062857085669442,-0.024037347639628236,-0.007772582292217491,0.035762909141287304,-0.0009516064622472755,-0.14660235539648475,-0.008553939634040476,-0.06823139059535417,-0.09532853494187757,-0.016556483272062415,0.08136615665501822,0.1154484617088122,0.14527772286147872,-0.014273765039897222,0.015588350032212683,0.06522798636172676,-0.02441415718870516,0.0029633558364083375,-0.026847463764441915,-0.033551807105865285,0.05808381878310867,-0.0508208371737376,0.04397456740560556,0.004193503113240279,-0.12971363314014853,0.06173111789428745,0.01896836388304998,0.02897280758442805,0.276768867201259,-0.031115580520749263,0.0301306707312481,0.12889702056813993,0.02579812293176425,0.00047085547728542007,-0.0050011883902189086,-0.0499443226193755,0.05136654707311202,0.12513836604275044,-0.014166318142594754,-0.05159253855568797,0.13195631859516016,0.03456626984074178,-0.012297478994712356,-0.10650631635775945,-0.038956641011128106,0.07533856710505615,-0.07265812877373178,-0.014509482823317212,-0.2066035470672908,-0.10204032366954414,-0.09194329514764642],[0.11932264618366462,-0.00027932083454759856,0.11685572529706517,-0.08148849335265261,-0.013499851128236985,0.039148722496019174,0.06543162123460489,-0.07442053246342181,0.05894816129844838,0.03872386193541373,-0.010985497357619091,-0.03869219103928679,0.18906634871422306,0.023244181277963925,0.025897333847760433,0.03372179232338596,-0.018386274860973148,-0.003489787914167591,-0.016073838058091993,0.07432384785916187,-0.0006216818859686404,-0.12455381003567795,0.06808871889673694,-0.06195601549393368,0.10569348512611847,-0.09144250488476995,0.019678084220882987,0.049003791541059646,0.08295251435953162,-0.04077710715417263,0.1095253981895657,0.06878143804037962,-0.06233504698505472,-0.029425290828716887,-0.18335077193366023,-0.06018748489535927,-0.14373010291775984,0.06570395848502822,0.20188080678701067,0.1883030919812076,-0.11177729416156776,0.039088719703227796,0.026967534275018846,-0.022321669977432214,-0.08980680578901351,-0.029842080791694422,-0.19964505971909252,-0.04264166055212874,-0.19774309004210855,0.06338319273990442,-0.044328909338839755,-0.09334040665232071,-0.03820396993164472,0.07169927930918103],[0.05077084494135981,0.10746716544139179,0.055656604490513135,0.05644188644424005,-0.08916316151210864,0.04428046298321211,-0.003527874912022792,-0.022611968170640716,-0.045888493736217444,0.043218652629182334,-0.18471002691883184,0.0475340323057915,-0.04581852706713228,-0.057338075520866165,-0.0007472472413061451,-0.05120535942910581,0.0740983305336742,0.02092545677518047,-0.010078712344939284,0.0483277201666199,-0.012078399235155364,-0.024776317640566804,-0.07692773170197843,0.013754918038691536,-0.05980921887354631,0.0935042215498505,0.01416973876177899,0.14862652393827075,0.13198526485487644,0.0029270340269908664,0.007833443181366327,0.015305092220514425,0.06872846385057299,-0.04554265670100287,0.06772404923515114,0.00013645721006399982,-0.07010571244102272,0.09566147520536293,0.015175755670925132,0.051311508518969304,0.13704314805242226,-0.18051843500127832,0.15604948146943742,-0.039247209844709606,-0.014672529200213101,0.1270463417612005,0.028390509186071264,0.1294611606198948,0.01138283106439224,-0.16533787077320605,-0.04334846426181472,-0.025873495345412223,-0.010884557364885885,-0.1015221748689882],[0.16427904654422043,0.029879258111445987,-0.06672849767810392,0.021846694307303044,-0.10944522349877565,-0.049470979566648005,-0.04430259682629823,0.1357626005244351,0.05282452673899483,0.040804489426404834,0.09939154931020644,-0.028001014665742983,-0.11487007401084724,0.14691041320942233,-0.00016034054527858777,-0.030865156906058577,-0.07099153054892335,-0.13502715012740146,0.10269948297157452,-0.04641365060337894,0.16016061242799692,-0.005176873941757897,-0.07311143546540924,0.03706424065711456,-0.04644468241323545,0.024425280379989065,-0.023081261367589267,0.022277354118576263,-0.024806511882297856,0.043288457433662796,-0.06860502716766735,0.11563353456780501,0.08788345267308567,-0.019829607466871527,0.006923772545882212,0.014463889757234165,-0.07274050351115745,-0.04027066025710926,0.017841568529547446,0.07348200264667318,0.06423145334765426,0.519905187800484,0.07994693975581556,0.12578103329345194,0.010980282015129949,0.058548313739225935,-0.17881611412092693,-0.0305967895462489,0.01278228940216282,0.0761092990576054,-0.04325401659826091,-0.09853744432644523,-0.09955195971559597,-0.07214585472449249],[0.09813467359211467,0.17204122179169345,0.07505584547557964,0.07572720639310838,0.08603103866882061,0.058836643671762764,-0.1759264462147625,0.025196532039380614,0.03536354098580922,0.025305766400559416,0.013097529158457225,0.09542193834284403,-0.07516498021957857,-0.08261255481020296,0.12168415638774434,0.13961454931566683,-0.032163742183373874,0.07287323255752631,-0.019843668534694846,-0.0505267469166433,0.07019488784977865,-0.0504386457708392,-0.12416115394880615,0.08210568212317469,0.19090461449727622,-0.14461562921415533,0.06736674298211454,-0.25883371608678096,-0.08518730500726421,0.008252821445594742,-0.25327013481742794,0.18030616548625145,-0.054045375750201075,0.06185543859626162,0.0655729527211797,0.02588081409341142,0.031784021824262536,-0.03132042415124424,0.019951823337909135,0.014904058108047903,0.03489208945811237,0.018448258745076013,0.03688016973672248,-0.07343547447897789,0.07492223151444688,-0.033673405406384894,-0.1306417707589683,0.08184385923101606,-0.06816068750326837,-0.016991418770036418,-0.05320169810591758,-0.1667070258034445,0.08447868571052382,0.10790349119944465],[-0.10083179982032696,0.11195617370159097,0.11361661784355058,-0.1833769277581965,0.03509766823508908,0.025776389122764608,0.17017932704768077,-0.18058279226721813,-0.08850671878590483,0.04342230058737201,0.18007600743230642,0.015296245249978944,0.06551158121842889,-0.11984000077433027,0.03138274232773484,0.14073487568893095,-0.06288804127504309,-0.1424582165684693,0.06793078202406862,0.2476598481494322,-0.043848202607651654,-0.04295226202936027,0.05544739804982685,0.034488364103431784,0.009218964084595804,-0.09599056630534986,-0.021666834185708583,-0.0923616726427342,0.08637331168937262,-0.04193548339061128,-0.0023836526003937638,0.016715791923224685,-0.1596921505687788,0.06364798160429956,0.07987153190966734,-0.18560092631876082,0.016975089445942105,0.023172463677881606,-0.004468335336469341,0.033817322903476964,0.09457486531475356,-0.16986379306712207,-0.03198069424280193,-0.008080672181838182,0.09455255971874282,-0.061374867512516196,0.1590321173419325,0.040197125735954756,-0.0046713669420756256,0.08725895662369611,0.08941462660881398,-0.03888831488089754,0.05410198462742369,0.11254735960433364],[-0.09766545290337898,0.09742826075338529,0.02250073014473072,0.0791259339388127,0.05080707182671581,-0.019061932743393704,-0.025245219365048442,0.1352755625421682,0.10667190517406511,0.017849848521963644,-0.08789437269637475,-0.039611912231980136,0.11011180590293242,0.12722848257493358,-0.030708874885441093,-0.01818092687037541,0.1065539934991413,-0.07069845496601529,0.0169462915132563,-0.11575026490223225,-0.021987605762494738,-0.02055922276937898,-0.03224415231699384,-0.06678756385718806,0.09182565777257726,-0.05499202369915712,0.029903013069200582,-0.06287290340717308,0.027805692089874892,0.06348717253059752,0.005216970114569825,0.10356337176233178,0.13948131695195293,-0.042121711845108135,0.037080159438116,-0.10497484029016892,0.11299441450200763,-0.14578503015213157,0.10571551339437987,-0.0744630564271349,0.1985203228832274,-0.17655631916511144,-0.003139243132091994,0.03975391551468687,0.08883019361227291,-0.07750606540613227,0.07064469651121051,0.14019824410351045,0.05408995206902109,-0.020385574014105207,0.07222676678463144,-0.037842605331369926,-0.08972738506721052,0.10695271870702311],[-0.10786487539219002,-0.1893212281401629,-0.03796865649253807,0.036348450008319204,0.1257749274677516,0.01135352014643662,-0.11169924934995065,-0.04586796196657943,0.048706897468889426,0.11561491047398957,-0.08206942591209658,0.0360489782718305,0.05417256405432477,0.046567627307605004,0.20384577937111537,-0.025632085625863346,-0.048585599843151916,0.14379339085137294,0.23169639061732072,-0.029947553967609338,-0.11470807307492382,0.07845293254782186,0.085335352447644,0.04259566309279275,-0.006406862963376967,-0.04909518803498359,-0.005352106832057524,0.09551303316910639,0.19854831894780386,0.04865433951979158,0.010866181125991163,0.023526315671861354,0.1382084302718919,0.09705058552848211,0.07130768595429154,-0.055040521459777524,-0.07571399474250723,0.11226234306954566,0.020749737815644383,0.05922197457517162,0.12475678980148047,-0.2984437883491628,-0.07242104950417659,0.13070732257128048,-0.04336916108557183,0.03022945261785086,-0.09570324962067311,0.08080054877333959,-0.0011691852422118293,0.10285911835639432,0.10197342036357672,-0.15148050239819846,0.10202505726342172,-0.028369208652743796],[-0.10395243508879613,0.090951847127576,-0.03147571093148384,-0.0485913926515665,0.028708163805513765,0.03117858675442906,0.16020316144174976,-0.008339715466594242,0.17140888539894075,0.06801118157192523,0.006430926877969459,-0.0724002267804445,-0.05449639173765265,-0.059375423990332,0.020856513919934132,0.048103469874501606,-0.21847298092331974,0.027492335793107094,-0.08468906976577781,0.16020298765509802,0.01569098209407394,0.058228287780877276,-0.013060519132287847,-0.07433711912125945,0.008581424806077266,0.0802487290185542,0.035483774449176386,0.13840351586949104,0.0698090418522151,0.04866859201959643,-0.1393009218454153,0.1377232999102913,0.10185174496290264,0.0862681545934921,0.0050502085636188404,0.026788091005092208,0.06522460451990139,-0.029665706995356003,0.04594585282107666,-0.04548864208470108,-0.027603886648962194,0.16716145624841325,-0.08308895970140494,0.027383716695028346,-0.024589604151032902,-0.04704892070728024,-0.1309973587758936,0.24588396696967352,0.05794869295429495,-0.08803941274286903,-0.13778770084322411,-0.0378884079560842,-0.013542883795953146,0.011858322146605288],[0.09855815403840296,-0.12452008526935321,-0.04594110545423886,0.005166898026696689,0.014368127629697117,-0.02317185602016787,0.01171574724049638,0.17586891666627122,-0.049108758400597224,-0.21687049136624179,0.1254571094697366,-0.014431315708889388,0.10601702862147522,0.01071329347265558,0.029152295461550123,-0.11822384685309005,-0.05543958974128157,-0.032543362459875096,0.03799565808290298,0.008696771395872993,0.09858977017860825,0.03445016285455034,0.03564694131104041,0.016477079803634928,-0.0020879485272245037,0.08733640378209603,-0.1814193402482824,-0.17436947281694604,0.027064282069845104,-0.0007199980417551034,0.0549087901833146,0.0011603587969619942,-0.08595925571122369,0.019602444989282146,0.09505969156913446,-0.014762904011759382,-0.02564535634077639,-0.0833498911375322,-0.05783596121642084,-0.05523031708461079,0.013786557207716266,0.07437960940795157,0.0713415531493437,0.05092385265524273,-0.005129295591239777,-0.25507078037525893,0.17643837922038538,-0.063325925299976,-0.1054900511585555,0.011805964983981268,0.04736520858195652,-0.11769934899740776,0.0943343945146005,0.04837206630771293],[-0.006989041094500886,-0.15872511593747682,-0.07814622197638392,0.01586254599543154,-0.060878224138734616,-0.07994693035425184,0.023284751331211023,-0.029097143506692055,-0.07345001457269795,-0.03387153201508743,-0.04323278285389053,-0.019238975968605885,-0.03673987497384607,0.16083069712776232,-0.03244698390140375,-0.12890757005622425,0.03705204545554492,-0.03895912453957441,0.051139783104579305,0.08658326581878265,-0.08072418323029262,-0.09307296813289688,-0.010099372775356585,0.062307967369370276,-0.016479093185229034,0.07372314242352714,-0.131630056002215,0.06880567899167897,0.016731201666864336,-0.10407218665502328,0.08866370694989995,-0.0132356045761288,-0.05734921158674213,0.06542072607300028,-0.07131879722197836,-0.1574334825659118,-0.02101933943073034,-0.0027386645928175234,-0.008557075523725463,-0.007908805736238611,-0.06081661264104256,-0.010102182916972334,-0.018788700490895635,0.08692016606717749,-0.0453470176781064,-0.13210962143720237,0.13738883683386077,-0.11804612212179731,-0.09389433485248913,-0.014430512100248136,0.06746413346632038,-0.030417699522510173,-0.03924501770632363,0.16715637068883818],[-0.09786998814177847,-0.07326505557682479,-0.05982866398651937,-0.12711515579717228,-0.08456454364993803,0.053660827369623326,0.12671280025908813,0.02938098301457316,0.03255909700958056,0.05800796257878884,0.09396236591558378,-0.022546435709744246,0.1047037363521809,-0.09606913297579506,-0.07499224109938214,0.12820504674425118,0.04585946702582696,-0.12341795969054285,-0.028867728587157512,0.11460781810497284,-0.01983401263194398,0.03287014394224554,-0.14629447246604851,-0.09524398168143061,-0.012003521283206463,0.052745642501409035,-0.17012548101199554,0.01980562591008188,0.15171043258994787,-0.09857851883850301,-0.12454461779994096,0.06283792670660705,0.05258845954523377,-0.049418761514195816,-0.08321878264524206,-0.007023537612527251,0.06737988384688699,0.0267429313064941,0.0388793021228194,0.08147327751683338,-0.0821779633213197,-0.051681442958085994,0.14838060480030935,-0.1066085994999898,0.09261924865003363,-0.03830712521181648,0.036427042809900174,-0.04074820064502829,-0.11663453153354002,-0.05499644646861482,0.039254391909169614,0.11592160840226157,0.02161676843274523,0.04828426832940574],[-0.014664890550482956,-0.055504154277698496,0.057805054110499444,-0.08317363839738107,-0.09215781324037746,-0.04793810298891738,-0.031382247524644,-0.012447266117754277,-0.019453371893861746,0.12054084925303521,0.013146837209211639,-0.016158784295973356,0.02240130153931249,0.09375837569778281,-0.060724393998642226,0.16028537230132428,0.08963790879951179,0.022285372240512417,0.05530970548626634,-0.0669207861443015,-0.00035598970889043016,0.06758466187307924,0.07056401473592275,0.09415911420449738,0.13048880170529228,-0.046280000199806874,0.005437611665604486,-0.0560741876871963,-0.0005653829544434453,0.0513433914793373,-0.128658157368402,0.1905967485543685,-0.1411194686787213,0.04053854049756177,0.05557345447593715,0.020938930749877984,-0.02035263734082283,0.034795275630457076,-0.07634618142047599,-0.19639574022372713,-0.005570844980661944,-0.0031007963573876467,0.02319898886554373,0.07615248204590494,0.028715482872635246,0.10656831673935654,0.026594484502865105,0.11175492457902186,0.08737900012629958,0.16829349555556905,-0.0029454185983434026,-0.12264923451928203,0.18262478812786365,-0.0523367390624459],[0.35705918564924444,-0.04040445077619581,-0.09385362384891403,0.05791569260258658,0.06717576419790791,-0.09792092297776313,0.029134705947861383,0.02741121716178508,0.029472254837114124,-0.03460488872655705,0.0703908825836927,0.024994983596956507,-0.020091399485412036,0.07949364354145595,0.028378155869387103,0.09391786885693096,0.0014792465265933716,0.11019406964633177,0.05292285170665022,-0.05199724741086321,0.02981776070825521,0.059856828082018754,-0.03746068941501856,-0.08110535729030043,-0.05026640245350657,0.1222452694224529,0.18615393139536643,0.13930637384604197,0.05132496154217869,0.11297887876373072,-0.025767047507547363,0.15707583431652347,0.04239566191243901,0.1016601138103659,0.03620165220363275,0.15527592489511544,0.009827584638706165,-0.09281782824557241,-0.00912461043193641,0.1105190292692253,0.11686361923357647,-0.11237317150153224,-0.05138706706242272,-0.1489083878124135,-0.042002226265380874,0.017540887009665603,-0.1676007088218414,-0.10039896278725455,0.19970765767132753,0.03739589276715332,0.006029144948455575,0.3100902392922703,0.0877012323830271,-0.05973278947415028],[0.14519043556928005,0.1723051484480069,0.026301757266887202,0.18118876713579912,0.12269385205173995,0.09008238288017657,0.10152388154529314,-0.05400239738727195,0.0010517719557643552,0.08061809325927108,0.06868974421374505,-0.06388430296812322,-0.017610859139685766,0.09022383068741824,0.03860832047649832,-0.10082507421699666,-0.06607514694050401,0.09569162314363408,-0.006323580213751538,-0.11100679643364954,0.06986376357143166,-0.007927008545036031,-0.09895539936867472,-0.08411347643327502,0.07172731821740871,-0.059544652982597895,-0.06888103578773926,0.03613490108031195,-0.09750970432553575,-0.14517766118607986,-0.05686811570776504,-0.00013375416755284183,-0.0048743879361549695,0.0541047797192609,0.0628000530868435,-0.017044679260618662,-0.0318934363159184,-0.0329580952530303,0.08768408870232991,0.08082719020485968,-0.11716419818976874,-0.12522247996017294,0.02718615896386184,-0.1646903562210279,0.06874156439661912,0.027658858288401644,-0.21278251198628345,0.006207340797184708,-0.026070968805651764,0.15121696320055186,-0.10448967377666969,-0.06937671107761978,0.14685394413946584,0.012406382363541397],[0.13594973291889992,0.027059728410233456,0.014425203800994144,0.12457669538417067,-0.03149258507231407,0.05454086634091446,-0.07214673217206496,0.041348788549971566,-0.16926502169787552,0.1406449017067117,0.027573130315193484,0.08103186749405464,0.032841422069096474,0.03401546287641346,0.17892534275355904,0.04637778715429835,-0.10620230313342258,-0.04858302614907401,0.11254638141463164,-0.04308993840555267,0.09801906350015929,-0.10562520627298404,-0.0768772338706799,0.01441600223337452,0.04162988512545627,0.11998197674025414,-0.09743737741469216,-0.08030445896452414,0.07898064925120005,-0.02168460692310611,-0.022985736349480857,0.1613864519846928,-0.10543356085269058,-0.025526650069662447,0.03127677107476651,0.045524131901574005,-0.026642411778308703,0.03032664454264401,-0.05166197450069928,0.018241701352741516,0.0008491645189618312,0.5026868141838795,-0.04609034594972085,0.2819580508616026,-0.017465193261766102,-0.002597268753626234,-0.37538536607277334,-0.022826637698737783,0.013556048324264589,-0.09500271126075008,-0.1958906431371556,-0.3258679168719698,0.0760125276871066,-0.07667101504841131],[-0.12108971941372747,-0.009582423443737382,-0.024909628864467414,0.03917910446746817,-0.09282766163035693,0.019724168790013184,-0.09500954642842652,-0.015606576135388087,-0.06450086683867765,0.1375345853159,-0.057697959657384904,-0.0550823039159033,0.056407616297893474,-0.20470695205138736,0.013670408981308958,-0.014553235661787643,-0.09062838668479971,-0.035107220359601704,-0.03680548018198599,-0.11018445404848981,-0.08177055223184139,-0.15481933702623388,-0.05046086355482404,-0.04273885038545178,-0.006640512989402371,0.18429332231433926,0.06743141185102497,-0.016586286295246524,0.06831378060011757,0.028171426932524484,-0.12198695230248921,-0.008867963998170306,-0.04086839875529552,-0.10655736249721158,0.14599944493545586,-0.08270588331884242,0.06573503604032448,0.023547960671121634,0.07760120884585524,-0.03781387606088355,-0.10651676480624332,0.00007286194405404341,-0.02078314698277415,-0.059946787872153226,0.09759160621726841,-0.2323902566583826,-0.09095410744325474,0.1115041331217048,0.01711954721243392,0.029341270609250198,0.022044811857459826,0.08675152336929566,0.017410003859694063,-0.055468900912785155],[-0.032392763047480184,-0.060292684943640144,-0.03914684050845315,-0.05072728141611153,-0.05701674430978527,0.11292070504959176,0.02638599259989441,-0.09341177853980348,-0.1163994030370253,-0.05436614304336888,0.1465203856336989,-0.029228542507831443,-0.16002393771316095,0.004410638845973053,-0.007545188689224931,0.029930555255944145,-0.03352981267694593,0.0607407668302267,-0.06657376240403558,-0.08401423000292514,-0.03539510447615166,-0.031002435562925843,-0.05984129480287688,-0.0564015622695867,-0.030572543355503076,0.12704563004159866,0.08252227443034828,-0.11722077808530888,0.06887650035702293,0.012406278775069415,0.00675246539801503,-0.04497946281631111,0.15346191306224485,0.07734503477495379,-0.05051413256932711,-0.1177964066006363,-0.011909167849752213,0.12561450627200227,0.13320319526136795,-0.06340278113910328,-0.004609826059823852,-0.07444240397128894,-0.06802787682212225,0.03299106355980066,0.16392428855290783,-0.030508857034008872,0.07598842200681663,0.17194193830163362,-0.1485881067242761,0.04235490745173749,0.09706923361215795,0.25042524549814404,0.21899802535230545,0.10018679332598433],[-0.12885033166219625,-0.06667936208551702,0.06988455219007392,-0.012930801211283578,-0.009111619033862024,-0.048207516102273716,0.02987686583791373,-0.00017054843554369925,0.0467460559119509,-0.07919797928454553,-0.03865771531010074,0.026509461348131227,0.0878961544711172,0.06733590048425162,0.05600332003640847,0.026562504813954214,0.026835205002939337,-0.08958147567622701,-0.0737237422449428,0.05841891955906805,0.06984277564963107,0.023353665884640922,-0.019371779145567522,0.1090232635003778,0.006229624319952594,0.08798324778660256,-0.06327598521463422,0.04479438435458863,0.129912813776202,0.1613947426618919,0.07259989539201263,-0.08205659709618358,0.22942078741778069,-0.0572123156593067,-0.11766576293751117,-0.10940549923923078,0.01919888973672791,-0.036645403833580024,-0.04710315933279173,0.046219929226863125,0.07115396877291573,0.008769919493097744,0.08419481527615512,0.038682304228657295,0.07108224493964276,-0.15399013987649202,-0.10881687474588808,-0.07670567871464322,0.25670533262828965,-0.04099061867812899,-0.02398173403634786,-0.04683830321298075,-0.10030459825387976,0.058906072213009725],[0.03908130199951283,0.028537331396099323,-0.022577848665101662,-0.06433105789415869,-0.047844255983878294,-0.03908020403307013,-0.0022736008427191793,-0.09385094776591488,0.06028570644764852,-0.13079934072337157,-0.136059677227337,-0.1097984462534239,0.16278585592301636,0.07846424836407044,0.08471766664920083,0.030373296827279773,-0.1438100660706021,-0.054524063256148655,0.03918616957840244,-0.010739951525060736,-0.0833336636065589,0.11863825299930765,0.06720489975916939,-0.03891367326493613,-0.014876631559517314,-0.0463592464454654,-0.10306890002672375,0.034605144873793965,-0.012849561895414953,-0.00544265610436452,0.0005746076986435989,-0.10260666366699471,0.18716348191267246,-0.05691899569692962,0.008232307291904281,0.009212651183465849,-0.021612696402118433,-0.05305592276751323,-0.07319259587772968,-0.008348505166841158,-0.058018554635904336,-0.02027552210689439,0.0295333797040698,-0.06153881816025496,-0.02107697218701388,-0.100427496572448,-0.03865865480294542,-0.09315722688007881,0.0698855499015522,0.06784354082078663,0.0027542386495677954,0.06525481632518934,-0.13916852233549734,-0.1230005240294161],[-0.15653420135752194,-0.010622382273056034,-0.03565855179987283,0.01935886596206823,-0.06828429885514647,-0.050308815746409385,0.030467719578668718,0.012941616708919274,0.11607720483208708,0.03972383350335122,0.05599979766691414,-0.034325243854463096,-0.11425113650955812,0.02145542252780832,0.0012540313233388868,-0.0846105494139373,-0.03999293714844643,0.007838273017804232,0.028229692380077623,0.13154751386017932,0.07060999939909599,0.020793882201117938,0.0029821817769604764,0.04673859763711444,-0.05068873775458098,-0.06878582666929504,0.017972691837692976,0.1352085324193529,0.02750153073692187,0.12039710782396931,-0.10311904038809996,-0.10047539563819007,0.23960967633660643,-0.09817013166559578,-0.0559445160500823,0.02897336201576907,0.0540178811549478,0.02246765902389946,-0.07145656950089863,-0.03383490901346297,-0.11221865986118623,-0.011079231518921106,-0.019023750401782648,-0.06510900920310328,-0.16705633562632588,-0.012369061773713769,-0.07322094256383617,0.1002854148435437,-0.022079654970767075,0.0681029127181415,0.004077505011028594,0.05770041527213776,0.030963077659453872,-0.11325866379872084],[-0.029225743432185754,0.02124655357585398,-0.0013316268611763674,-0.06348769160767476,-0.010521629442993174,-0.006611526095312818,-0.0746614279418127,-0.009350708852861869,0.10598909655535324,0.09984110106232869,0.00865753347093839,-0.02717476409098015,-0.12296010046990176,0.016246119222166268,0.010352477635026475,-0.007791645568706244,-0.07770603742957699,0.03474952813730086,0.03287450994434728,0.04140414263228386,-0.00524347760296472,-0.052767667081131245,-0.05381928929867767,-0.052493498505175894,-0.054413502826839655,0.12153343846103576,-0.06545478058817483,-0.04269143768990599,0.0282765538871808,-0.07856948407981136,0.17118936450303365,-0.3275397129526357,0.09439495037796967,0.0996156697109704,-0.005514635610974013,0.04017238655616761,0.03721941742995037,-0.17876792285204263,-0.06548677556737866,-0.0010991584076435789,0.1666580037841468,0.5232951280820368,-0.03970450324926889,-0.1746444225988054,-0.033009792400363766,-0.08177284809732151,-0.01842218507590518,0.012117922126016095,0.0367014916257805,0.05096810198950201,0.022261260892721357,0.4123853785749104,-0.036367397605642234,0.08010621771816268],[0.11368587911552762,0.11289812462944011,-0.009640310296981446,-0.02769374448035062,-0.05852209995920856,0.01728975407923885,-0.1886049098238938,0.0017155201022324893,0.030083687718274348,0.07294883301547399,0.004854394058589297,-0.06428869332319077,0.034015025546350754,0.0881404389651517,0.1309417455700638,0.050481927294362225,-0.0889035861037045,0.14136713657017605,0.09859427384140983,-0.09514431824193047,-0.08590607360409595,0.09515351404281287,0.10865900546796849,-0.06155251436328559,0.0723780135922706,-0.1120559631555341,0.12986003660325626,0.03259877994681804,0.009223698263768194,-0.019479353368528938,0.005758287827278919,-0.13077702999751695,-0.06541857669692379,0.0285284904019336,-0.02242208638258242,-0.027268695258088754,-0.09078540766667118,-0.10961139906529349,0.057198525575656266,0.23970427987903697,-0.12716036210635176,-0.10279752058021137,-0.0259740347801406,0.04206928630377091,0.027618881470472725,-0.043990583790476434,-0.08934539660742213,-0.14067846152496774,-0.03898175304617412,0.06499420969134868,-0.0923646593020909,0.07323569496219992,-0.13422234455632337,0.030307046863787334],[-0.1774251912542865,0.0452941181576393,0.028632427173660106,-0.06298506631182893,-0.019528543043866517,-0.030025702577835368,-0.0025502444257327404,0.10447371859189813,0.053011008332307034,-0.012475216616088296,0.06990693271034729,0.02839197331739946,0.0007197423093032258,-0.04177221521399309,0.057096812975306756,0.08377903252296781,0.04139600841838482,-0.0893109436352557,0.07032271420437909,0.01605232289831928,0.05264869669483803,0.11193773520404228,-0.1319396395047376,0.08368423221329813,-0.04169113599406561,-0.09031078314705969,-0.16253827213883307,0.11622896010804895,-0.2102421589997221,0.04343561875828749,-0.12257058867897497,0.04561290449653121,0.017576617925225056,0.1680200385378785,-0.06467022839017686,0.04012424552274476,0.049436298936869856,-0.011862071981988473,0.08661638879533941,0.16895264978596639,0.03456819589002402,-0.03171089652752871,-0.028372782851800216,-0.12104778401224262,0.06363008625871565,0.03124141048053437,0.0007621608753280306,-0.16149162905143838,-0.07198153195744986,0.09963582258316457,0.14061723543229016,0.08187022112650634,-0.13403063873508167,0.09489939296758898],[0.00799414739818547,0.06371268569198142,0.08847767517328878,0.06997579934918721,0.014163397156389989,-0.0072515394861736,0.13744357398075832,-0.04460049985004928,0.017395308098481898,0.10695120772395983,0.1555531744726887,-0.060865050198715596,-0.11296400459463325,-0.08541184345228285,0.08057566901732084,0.12452416359998011,0.06144131873990711,0.05943077791969121,-0.09038324183084913,0.17480483225963914,-0.08508502527457343,-0.042480503950357996,0.0018853807895671817,0.2038704206945867,-0.02562892920601369,-0.12301376545198439,-0.09517295978058742,-0.014916350113636694,-0.03740398738038349,-0.04347320303451601,0.15752688907526557,-0.06037538542050675,-0.005069417468143293,-0.017278989947269917,-0.01733952350485564,0.04012737694104778,0.022016302228852855,0.006472366428107092,0.1275550954753487,0.09837069813090106,-0.02741959438962508,-0.25645733700889306,0.03971036118687676,-0.10094148657296038,-0.04174306925760308,0.05404117625809962,0.09311402956887632,0.06587918882193913,-0.0014487226107995743,0.09822398069143097,0.026165100872504152,-0.009372408792689437,-0.0590639490176942,-0.019376518532334],[0.13086875419912014,-0.07799003148549986,0.023389299736887133,0.08709371657304885,-0.03417344032792536,-0.10391111235149258,0.12540385284596808,-0.018767814376000617,-0.025159681245209037,0.08423667811495117,-0.0502046213682109,0.032025342065567425,-0.015628812174668622,-0.019263612170634346,-0.04507892127432699,0.1515272919852744,0.0009079664054784444,0.005202008139948728,0.04183463258098486,0.03767497410563284,-0.004491049978070203,0.058249759893568336,-0.017089043632146205,0.16269790827417996,0.1458901350007387,-0.012264139270458843,0.022148288021928968,0.005631219660256113,-0.09847048200490173,0.010281024724864175,-0.036387529142780636,0.008501819148296464,0.24455503495755954,-0.14730199815029435,-0.0695580936539316,-0.014311537087367834,-0.09118318899631131,0.034145080392070024,0.0045746426866261816,-0.05091051555518146,-0.059567743792775366,-0.16133125591752337,-0.010714746532209315,0.04631904169988697,-0.013079679628550821,0.02387971274615429,0.033254419074273775,0.019530433127744364,0.13407056380933333,0.050275829236349025,0.007354521078673116,0.01112675198112471,0.09877475305305301,-0.0026481318668094434],[-0.0008501345968535793,0.18870979360651052,-0.10669529789180113,0.012716124732628696,-0.12549842031242023,-0.09138931337861132,0.15417567381065506,-0.009670082819497923,-0.039076310727586626,0.05457208436784538,-0.04019034724619453,-0.02666261422744616,-0.10976154079176904,0.04828820519394661,0.06955745764297465,0.13514010163650397,0.06069555020045735,-0.0606324158759092,-0.04205660863310603,0.10650232763555326,-0.046163919790328134,-0.023547392623103642,-0.08820129414605812,-0.11269816407624286,0.007524371444670113,0.12760587967937967,-0.015719713660926567,-0.10338988313461643,-0.16596891796272165,-0.07942318543575139,0.2967192078574254,-0.10611356864741175,0.12617303305897934,-0.024216406902772585,-0.0050176733912691415,0.036544643046501464,0.10319536803274862,0.07411401240726455,0.06996027607325259,0.2108018873292156,-0.16985696198043915,0.4404717248874728,0.04550337126134557,-0.018955230433403695,0.039706897761613846,-0.021082855735812152,0.025245438209258036,0.06771084625168357,0.04216555905585997,-0.010658820486712196,-0.08344620708702088,0.18998946188562882,-0.10821715376518666,0.11168220082957878],[-0.04271911728596383,0.04286712931001155,-0.03823795391881611,-0.14324341990195372,-0.09610415235099541,-0.015345640074122101,0.005594134124275928,-0.09552639543793832,-0.15518413618308763,-0.08905940539863832,-0.1159762346020799,-0.10097505359592278,0.006073050671399808,-0.1331794853669506,-0.276143094028811,-0.06690902406961718,-0.048298427403835616,0.05114528900130716,0.034445074339075274,-0.07206154434589992,-0.10978767575227867,-0.04207835351288496,-0.048461431311669266,-0.002004491734759381,-0.13775849899047488,-0.06744691149847684,0.07010710608037184,0.047704306995317594,-0.06254359467593006,-0.020983147118615427,-0.039274682229703484,-0.10227353606111385,-0.06111741141323182,0.07110394254789074,-0.05302031206891197,-0.07934227627414388,0.026682924262242,0.03740980342177895,0.1372886282539487,-0.041920586973906944,-0.052512440936041224,-0.0018014613965484985,0.06340391788545935,0.019458608267401662,-0.05414338499347953,0.013351501523437703,0.14627302992841898,0.11778071039998969,-0.028208611025626145,0.0512230309817229,0.06348228186944221,0.15081738690301527,0.0032594081518365495,-0.056261843037114075],[0.02845431258906075,0.08322571981089696,0.07538150398259585,0.14722960180966874,-0.030042473267388514,-0.1375729989273766,0.08749927646614099,-0.1609859781332033,-0.007787984451427633,0.018489762036976,0.0022459692201263507,-0.009039300281818837,0.16747249081947949,0.033714278521710016,0.0378787747144041,-0.007815229363456537,-0.003439477216479616,-0.0036726109840216556,-0.03458162900761038,0.0024488032543065735,0.013953598806619822,-0.029926210940469024,-0.03805896491227212,-0.026794792233747217,-0.11724765934532846,0.049119831458889686,-0.07984229308992061,-0.02626631707460149,0.0502533168148116,0.04092305270962742,0.1008138449528667,-0.021391091774525743,-0.008847356003829073,-0.08706373145337722,-0.024845185057480613,0.18336292893046183,0.0520575737142465,0.09475511224755895,-0.028209075297026515,-0.08402504852629276,-0.23910965917452465,0.46521339789976457,-0.023158354416000032,-0.040284684624915856,-0.03896879690400727,-0.1200020390557185,0.013053990206640097,0.1432675560643797,-0.037469002966836515,0.09596398144311535,-0.09508833977393039,0.11195578652230251,-0.15196470930530018,0.023701911072653997],[0.08849247761281089,0.029357325502142262,0.0028008410396531736,-0.03335338858977865,-0.21931240033184113,-0.09041252346134897,0.005435233908696093,-0.1103737655779009,-0.010440238908595273,-0.042888888660136605,-0.10121021872225881,0.022058059970696594,-0.022120790625916143,0.023654864197039143,0.10457349156113369,0.05657254737407431,-0.03990526185862263,-0.004643438295727813,-0.0555787675292081,0.07625892486130076,-0.07532908353544895,-0.03895922716240732,-0.027011900986232,0.011937325299335168,0.1320285125211243,-0.10278147559985369,0.03363935038415944,0.04187997894571621,0.013753877045904696,0.07495082653132909,0.023789990901403556,-0.05293571505699958,-0.071175354204482,-0.13382431965166322,-0.029130606436164958,0.02259265130538401,0.07688449322677202,0.035953244434337596,-0.06326837272250732,-0.1361373097599898,0.20160925445126432,0.2515277737041798,0.10955114653776991,-0.09496824283634123,-0.02119590449977707,-0.025589530636667922,0.2233649970025071,-0.0232895113101866,0.08628781376807265,-0.06865493990201224,0.08114079527445306,0.053351903823891794,0.0005741057844589244,-0.12677883438324028],[0.05858931005277447,-0.03225210915017941,-0.032773351733999756,0.26130619113557885,-0.031124059808910944,-0.05138508671200061,0.031794176386865,-0.14502427195382608,-0.04144720528020938,0.008723582534390963,-0.016403828046346703,-0.04913245703575437,-0.08143556504043252,0.0734234067348037,0.04954890146589344,0.13405497794096707,-0.017490509627289475,0.07975891270156377,0.10090462636719938,0.09344582202229215,-0.037551410667014666,0.05597312153469815,-0.045671571019408205,0.15244281265842535,0.03128266709690215,-0.033915336763199744,-0.050945331699868736,0.13441838503316775,0.025580186645456113,-0.032533125490737114,0.05846448186467405,-0.010447477237947497,0.005969993650127151,0.02074666383522684,-0.04284352734285344,-0.09252705361577172,-0.01819845585539551,0.03216692533824159,-0.01576047306313677,0.007750479178456194,0.05811661615075955,0.10922488233828803,0.04840532506072733,-0.07690784353659874,-0.08757544712837824,0.048717282981867886,-0.14670174580234183,0.01942315040151624,-0.1967631401438079,-0.015028349199802506,-0.023771345107029208,0.07197027395805766,0.031211985690590558,-0.10657826743110306],[-0.190604999039467,-0.09589735348172546,0.05251787158110921,-0.0699992127881592,-0.03493659930306687,-0.04892964194897853,-0.07393425651207348,0.12911124704225416,-0.06467204343373237,-0.0859571395371234,0.08520986116997477,-0.04099408769089611,0.08369114476406946,0.0071950186991607025,0.0988954016010001,0.044741937912691945,-0.04928405976909745,0.10008105070874804,-0.06129162444378809,-0.13018778013713614,-0.03871568701130618,0.06620596208361433,-0.07983752084199733,0.0018284807722035654,-0.06510346957790014,-0.1211203417551521,0.04817566572881353,-0.00939204473479837,0.06341754941053307,0.005449864626722562,0.17685624750676404,-0.04896149883690869,0.06483517720154855,0.11974354727161418,0.08318253071487985,0.030417912266317716,-0.029093417606897497,-0.023808132038917906,0.03782538023295219,0.08360096411253834,-0.12136666816162817,-0.04578970441618222,0.03106763424689566,0.045704796189787796,-0.11245580595874347,-0.031097434969294863,0.032223119039817005,-0.04995269138137706,-0.032101706051236495,0.03231474460252487,-0.021469240142723205,-0.006984142672358312,0.0012689923572962822,-0.149785528586342],[0.023178700991792933,-0.04151207146576527,0.018000250467243097,0.03771698825271715,0.07797133915094802,-0.037768242841213794,-0.17320548714687517,0.0030970567351286653,-0.018255005232901838,-0.06356745012255006,0.09135628632034042,0.12186005421116776,-0.1511938194229937,-0.053021350267958164,-0.051889362120670995,-0.07335775051215938,-0.06924134656699096,-0.13430298378617522,-0.10770267936376202,-0.16316930815364097,-0.02882563981584173,-0.10584753379968953,0.10519021679194379,0.031249983903508017,-0.03462468524640402,0.07606159355069739,-0.11330907665121102,-0.06169630673669183,0.07958971820069571,-0.03280485563695195,-0.14574882848568854,-0.012024648950352303,0.03241236753610919,0.0500495406657483,0.16126964513252895,-0.04190438937255002,0.17918372701039706,-0.03803701816557944,0.09675585232584434,0.041302106317827825,-0.026941879421763622,0.002200334012727036,-0.04013810628001778,-0.10667103422919738,-0.0999701502088136,-0.1412954987068299,-0.1244932122764053,0.00037799036699567764,0.01896319787310707,0.12057763453222349,-0.05793619023182498,-0.044464974747872754,0.024544034758250698,-0.02525102309599161],[0.014149763395813596,0.08061683224723341,0.004817496884994889,0.040031090769848954,0.08343221210452577,0.12323930965615655,0.07146025976526615,0.06925816020225602,-0.06085672233570307,0.045423020242356484,0.035383706447897685,0.13412343005848085,0.022181681942535943,-0.04567292221857233,-0.04295708487651105,0.09030335447715879,0.1002691178863508,-0.09595896072660205,0.014716208062611442,-0.05089878196972015,0.11443747012653574,-0.1051529591928517,0.007640577980413041,0.12325253015318771,-0.0034764397235022,-0.10724705698575457,-0.0005265409083815792,-0.06215512756013916,-0.07794565123667964,-0.15293914957341104,0.06450352825281727,-0.10099366194433312,-0.030789312571901345,-0.014086284929644486,-0.045850446259478816,0.019260830373327695,0.045377835341254,0.055462842475867614,0.030074745984572902,-0.052427151953407226,0.040025284664945295,0.30362477250131725,0.06182778964679115,0.15990256990590604,-0.036836862912923866,-0.1482331176444894,0.038003952537853936,-0.007422001498993291,-0.052007155991766515,-0.04711905467795833,-0.00446069786994174,-0.09506115101437124,-0.010052588192455143,0.04231168612896506],[-0.031293642305692926,-0.1104208638431924,0.15238523144097885,0.11646056272455607,-0.04766312257349266,0.08805577250472205,0.016055400839675896,0.016102514771942987,0.0036105604862352314,-0.04682382206571013,0.06171094509709584,-0.023913103089287718,-0.0391141885430679,-0.03523203130454627,0.09700214281453462,-0.055182932550758894,0.1165237351615165,-0.02484641046185804,-0.11836125967629052,-0.021702556622873227,-0.00019251452891796354,0.06672798287943126,-0.04081649729630343,-0.005800402825505095,0.06740602009255839,-0.0736353520512577,0.0858562866851209,0.011497321216356264,0.011186174334564458,-0.011497664798965525,-0.02149148873512231,-0.11460918121685292,0.022820684460980133,0.025174991356097437,0.056837868930158644,0.061000067814983565,-0.052591983896713726,-0.013620457306985875,-0.041891856057808805,-0.04704779188222503,0.023512423202507498,0.09328521084289869,-0.09437824999554446,0.029034515880199813,-0.02781754979523306,-0.03469802728089527,-0.03148864502697248,0.021589200615086578,-0.15864511794724895,-0.05187017324504268,0.03368400197064148,0.025894409424802454,-0.003219931053754349,-0.016292457797155845],[-0.08574186496197907,-0.03651381713986541,0.10237167662941707,0.09549254463371668,0.027011812774424417,-0.1335227529369227,-0.020642530841075837,-0.08285386671691534,0.003270185399521964,-0.08759146179272993,0.0713012438222206,0.041413223536749214,0.0207036200592636,-0.10336442406865948,0.05309613168435597,-0.005073368067842688,-0.022758482571099452,0.06581740465791383,-0.09132266381186994,0.03149220492849196,-0.025549799193133462,0.09129213963895173,-0.06842277311127609,0.08964485783949576,0.10157279489961225,-0.006876860861898465,0.14763097185248944,0.042637367808668,-0.05708131191765058,0.041832745923901064,0.05105742881973456,0.006117444017388002,-0.12189374332147325,0.017373089623136252,0.020231304547610705,-0.046399245866940275,-0.01794462050928399,0.05386767689095272,-0.02258597756088341,0.003326322590296286,-0.041253766222767205,0.08725596419276019,0.04449686661720408,-0.018030015592425605,-0.06023009091187245,0.13848984783791354,0.05243445094168415,-0.07006971682949616,0.11599594249251738,-0.057466922268320904,-0.09656072566954282,0.023513238644947903,0.001867568945973795,-0.005821637029683175],[0.04223245402264622,0.01147148108876012,-0.034395339075617565,0.01813358583561901,-0.028505714757411583,-0.06406565969232225,-0.02573503857640125,-0.07120349638001375,0.06314682305194706,0.08841015828103266,0.08936707345121331,-0.13990993274920888,0.08672954529052287,-0.046166745770555365,-0.049640837653173724,0.07192785563130268,-0.1095039657675602,-0.06022568491569864,0.01251158657866654,0.00018598190905413396,-0.029469103881831216,0.006999128217508556,0.007906721045770872,-0.001717191332418751,-0.024105586384061274,0.09514823176176782,0.058177747437194796,0.06935045606179406,0.039907123699236234,0.06762402490607737,-0.023751506620974392,-0.13482235122979214,0.13553635382723578,0.01241286168781837,-0.11157015163261416,-0.08969234026818308,0.06584001942818814,0.020812362172716287,-0.04039255667588054,-0.012430373382582065,0.03313596834294841,0.4284014227113323,-0.11105913967902292,0.08378352900833905,0.041890780498701936,-0.08043660784748684,0.045898560862035406,-0.21493752950079761,-0.027905634635632424,0.13132480081015127,0.08589664940556112,0.3292543241840544,0.14465590646440865,0.05217057628647142],[-0.117673501749196,-0.10080875834638921,-0.011752165191960297,-0.16349027905388605,0.005305950991327469,0.1561176816410556,0.029933592398737534,0.02988588305325015,0.0002044786858420142,0.057124768285923416,-0.006688330955967051,-0.05636192440020681,-0.09028223927076058,0.007372018911076845,-0.032609181062643725,-0.2574047171286949,-0.018461881378538998,0.08108616462913652,-0.1248253032649359,-0.1317554067105636,-0.0025383380015249284,0.003875718941329819,-0.04196220665463671,-0.23509626813474724,-0.010888929778723262,-0.08364421169675167,-0.14683535728778313,-0.022635573575113376,-0.055831668978445236,0.009219679580635326,0.09550686260199893,-0.09464081468105513,0.10568027581071206,-0.027489966970803265,0.02583604477605042,0.01951631762755678,0.0471479936514552,-0.006656863814167005,-0.05691228721447636,-0.021758091862262498,-0.0843553443211509,-0.08643012290804106,0.04669835831903048,0.014742796382908417,0.06061089072808378,0.013654458857764087,-0.07132405536946251,0.02297848120558162,0.011181907584588948,0.023482239699213727,0.0825898542924894,-0.0565910383217951,0.03840073326152897,0.08021429644373977],[0.06675231805597966,0.11764329757795135,0.01764646102851691,0.01693577960595147,-0.07728981320738527,0.03757363727011734,0.058767650668829725,-0.06915554155039183,-0.12431235153937047,-0.11754331014803358,0.02616798377242896,0.03968139920941699,-0.026774609565929,0.06253023476365586,0.038275848188197695,0.014550493995274064,-0.11671850500946014,0.03884854060121784,0.013064187505914926,-0.0014778455506671852,-0.02259332079456024,-0.19593897185199993,-0.16060672135279722,-0.029443623863705783,0.09916544812021676,0.17980547765098595,0.029176993731346808,0.06363283476875034,0.18534227831033698,-0.03115443667195167,0.07068310079865771,-0.02845571220688272,-0.029221303048589973,-0.03903202051590658,-0.10283620975389392,0.002849589051074416,-0.01750271115141993,0.06817551042173957,-0.03358587300715593,-0.10480866862929406,0.08541806027836153,0.40460158932410506,-0.10704493046204765,0.00407125247251124,-0.09297708106606839,0.06893793398400493,-0.15855667198438292,0.0827024044308406,0.09115452252995726,0.15467140540912042,-0.010651138504372286,0.15165821626670412,0.030040442108999126,-0.03061805707456931],[0.011024494231972815,0.20913520135203706,-0.05752736873597207,0.1145357948572815,-0.10039459730898884,-0.030021483483865234,-0.022500655378704854,0.010535408845293057,0.07018197421759058,0.19032413964148234,0.12991801228664668,-0.1081337289939111,0.04486693724344,0.0485920308532876,0.03625269807305363,0.0538966309054515,0.025574941202506266,0.019093640157102392,0.0718440495545945,0.11957045171703942,0.0036838192349733915,-0.06027341925251653,0.0713192060587812,0.042824249366867524,0.09753158351089292,0.044499245587042886,-0.20288786810268586,0.02068443505675441,-0.14918086547345882,-0.14156392560124914,-0.025171035951679705,0.15165139559089147,-0.1005302423243641,-0.07415546098471311,-0.09845528705665713,0.1552859731635011,0.013320916911590371,0.05503499617778877,-0.09971645121560466,0.03260039651732144,0.11719592401322566,-0.34982823693118403,-0.058171002324168476,-0.08887360476955118,0.026537905090292448,0.15734299551654465,-0.13003398484983109,-0.04200598412688539,-0.053868528949987164,-0.09397379891052306,-0.13462552192153732,-0.15478689568652593,0.005498364234840822,-0.11426116882823711],[0.04163317219555711,-0.04553512716480006,-0.09485353916812471,-0.03420677721696298,0.015832510075465493,0.07286908284246593,0.14682604751193756,-0.10710249709052604,-0.0018371369163305853,-0.013202303661830759,-0.08506828370456201,-0.015862763479895563,-0.014296770348327712,0.0561367632523926,-0.030610129772230533,-0.07915088156480551,-0.035262783366731915,-0.12017695115637332,0.0055106571862945965,0.07609535939646021,0.10580887784851586,0.1354810836820827,0.06460771089035154,0.05465716805236154,0.034141621560776415,0.0021669498313194304,-0.06309514108875741,-0.12193766401539877,-0.09571809149244159,-0.009559757500631592,0.05901032771270865,-0.15037524375981598,0.12273446589365436,-0.015288333536348668,-0.10945353055222688,0.1600377947652246,0.1400887966483438,-0.13124324287533254,0.14223242773685865,-0.0390941494669779,0.05883478742129269,0.053693784076127696,0.08446614742078641,0.05124679265513987,0.034671949028400886,-0.07493111856997094,0.018469267223794033,-0.1213255848662911,-0.031456436320054106,-0.005909990824667246,-0.054373326637498685,-0.025835851593388515,0.03651167357343125,-0.0004099714750255589],[0.0028281542082004185,0.04908332483146873,-0.09280842043439484,-0.12470334835320991,0.0993521420472657,0.06560107403089427,-0.10466468852352227,-0.13958978745931291,-0.08677335351481344,-0.019488366318193198,-0.09798138257342617,0.0340611704570157,0.05057990760142377,-0.09168025107729211,0.03616836650930596,-0.15461700503046685,-0.18308013763691727,-0.004833686891235888,-0.0016942489218975238,-0.018909998284919988,-0.11622458622832434,0.15219269093183443,0.028375940277389728,0.0554096022792939,-0.024447917084239393,-0.09360407553093945,0.12829424309170967,0.0058521424730132,-0.061831058781415975,-0.14505061572218333,0.18148570778586073,0.128840730540137,0.07365002656410499,-0.020967119698710974,0.043587872714775065,-0.01028257162214203,-0.15588740026063058,-0.2582041093013476,-0.024853965742814062,-0.10493990909578668,-0.01178339933627159,-0.006012073354913666,-0.002256637723205359,0.008376273162283164,0.008151129611997505,0.009874931334033952,-0.11378510038278289,0.064656590687244,0.15692245604035232,-0.0022781996760658087,-0.0015295438336683966,0.048326819756837114,-0.06842522811606147,-0.0011622042732502347],[-0.0754145772094099,-0.0792937008520164,0.014888702232700238,0.03242046770571411,0.12349964989205788,0.062392491893947605,-0.018803049171850043,0.08761607365220057,-0.1503113922785825,-0.05059105939671847,-0.09847770200264479,0.1570254358223812,0.05186252016322642,-0.004249288264269093,-0.012478066750617096,-0.1160044760840139,0.013705015386931179,-0.02612745577029028,-0.07131356445988524,0.02167594860470888,0.038392833622753884,0.04193854685190348,0.07244123285396227,-0.04023144362070412,0.1009586516878635,-0.09865337634779335,0.07095534448105598,0.01153273827632739,0.017243152614974337,0.09509452571257027,-0.0823073403942772,0.10259033876151148,-0.03507062274571039,-0.20425769888514067,-0.06140230191793092,0.1782549732272948,-0.030279489126757174,0.04784011087333888,0.011484154327599158,-0.13148510123524115,-0.1356977515752256,0.046941760711599785,-0.03890770749826718,0.1169368607469629,-0.07878260337029973,0.008392278724005112,-0.05223218013391711,-0.03616610428510997,0.082730880143946,0.055437053916303505,0.020636911680240243,-0.09164779589266338,0.1608170836566614,0.005433911933197419],[-0.1113535714423935,0.04406149298099976,0.023380611746424786,-0.16124503145504715,-0.0859996718160567,-0.14781442682364698,-0.05096776954403751,0.030281885750982913,-0.013560656165206023,0.007592640061000787,-0.013595421301199421,0.025511073241860846,-0.07352192339637072,0.024465561921701434,0.025243854906601877,-0.049672205724063646,-0.09239755653524856,0.14999319686531473,0.06083649399088603,0.047388537792401826,0.09272208790582145,-0.07497421606305303,0.06781060689147911,-0.04501656385832236,0.06577145329050459,-0.12229887892597936,0.029381749177619088,-0.0734401120882531,0.0772713965470745,-0.06158582474902535,0.19650560568762115,-0.02439514009337997,-0.020995274665979086,0.014777074983821232,-0.07508743771379191,-0.20175535754964627,-0.1478617142337082,-0.20371109776758867,0.06310747040794269,0.031360100358245824,-0.09411565325075423,-0.06293797235275682,0.02771375224666634,-0.01671465817905983,0.07213173986247709,0.03454284305720113,-0.20859520968308232,-0.034380723949019004,-0.11492426650625664,0.14278003774928927,0.09003214451526771,-0.03408353882409959,-0.013697222141442745,-0.11359261487655599],[0.13787301530728358,0.03489550468836313,0.1055603157567771,0.0004774732997971612,-0.052921034959071384,-0.021034512369698923,-0.1207449230706245,0.0007025268881884852,0.10346831344523237,0.0646561601289502,0.04808380706902427,-0.15210711267517737,-0.06065324069048196,0.041082501879319784,0.018149135569106075,-0.23731827236866848,-0.1460200523733885,0.18796726640915323,0.1361018517241669,-0.05946927555214697,-0.01169308721094503,0.0536101768966467,-0.06027294162372392,0.015370561290129408,0.0835705054237971,-0.056142835742011336,-0.08588935039039881,0.05261179200634189,-0.014221289173393936,0.052468561057046115,0.11351540899018861,-0.10377194211347779,0.060020860233184765,-0.17595899206754642,-0.013084368219069128,0.015586613050714048,-0.031845665859690946,0.07178456409029736,0.03923665154728358,-0.06338489526150377,0.016797146174979762,-0.11290253441579419,-0.00622607807927712,0.0534181069840526,0.07780720187621806,0.14419038710112445,0.03018504062785793,0.024688331071151138,0.033183466367586054,0.06675264216883806,0.1921423983727861,0.286268924730287,0.06808388022473484,0.024542310604298415],[-0.019477552148076192,0.017866692359476598,0.00007236152522303173,-0.055216829071828684,-0.015691403382324904,-0.0008335795282964101,0.005092041705835416,0.0019907376312026767,0.00882847124238044,0.010512701464017863,0.0004412726655494952,0.025061551242865684,-0.13303170483809335,-0.09465608278331732,-0.09550014225096627,-0.001290135243017866,-0.013066935485402699,0.042834659410886315,0.042357371597466054,0.04291266895683315,-0.0005449579178085158,-0.004941237113431712,-0.00449951305385123,-0.004684330404355676,-0.004357232053443565,0.016910370883250297,0.04155344623415427,0.04712578550699411,0.04244401318344339,0.10503224201989801,0.09112970557360285,-0.21888404649341875,-0.08329707833769394,-0.10622276158294325,-0.0020566290952311393,-0.1917621663048091,-0.013729194870662884,0.02348214511658126,0.04945166129009834,0.00899374617563297,-0.06306706284639282,1.2075555340657407,-0.024198187049540163,-0.17567484492095967,-0.10915619862603036,-0.08847022626767907,-0.19384329099489153,0.04937552974506186,-0.014033209947107972,0.014020086643473267,-0.19213099170759101,0.3042666308933212,0.011619843560808559,0.11116783815679723],[0.08782903413761942,0.06762413683331528,-0.07513320654586347,-0.11984256826669248,0.008075917491388857,0.021181989645846454,-0.11894379293389633,0.009709905832769492,0.07962257136529101,0.19782768519252686,0.0021814889931677127,0.09150306688164872,0.012999458931066576,0.052961831430731805,0.042922750734251607,0.13808007032528835,-0.05868117976120026,-0.03535173262763001,-0.06930659359696159,0.08480974890695395,0.06085464569366357,0.12633626143149965,0.09579876911913313,0.15297078173067005,0.20994985128649898,0.05083354314759106,-0.08524328389039874,-0.0282930347223289,-0.043965059022289185,-0.061834318525476044,-0.22514411044943472,0.4130803233194604,-0.08444547093686007,0.05478101346694872,-0.06144007173120113,-0.026770504118111677,-0.06497155995689256,0.0275883887737119,-0.09299911481443753,0.042452285058538895,0.1961616277883468,-0.5312060119144627,0.057204083565409784,0.15555717467978952,0.10274912998306407,0.029544769373559664,-0.05312427159780866,0.16610945375481992,-0.0384492625568418,-0.0006659987773705301,-0.0932574152036488,-0.07730538873141247,-0.09108634372271361,0.16545227466761592],[-0.031300545041057705,-0.09912267432927797,0.033666629868614656,0.03447751058484681,-0.005389515637412739,0.14955262909856223,0.03789305869473271,-0.02522035690361067,0.012830641009948336,0.12672466091587578,0.1790905533348659,0.08895101529791705,-0.08172840126072284,0.09271109077758409,0.11500002622472834,0.0038651801261015213,-0.05379466413434034,-0.07749725995511501,0.06456868368118891,-0.0659736997490591,0.1269509568960979,0.10529482572590933,-0.05219342130923849,-0.0505579056255788,-0.003491918306302939,-0.1391853347552122,-0.04653567411848859,-0.01102091196884355,0.009611895991370134,0.04238315970175583,-0.1576428333829273,0.17310113598070714,0.17187502042182737,0.06101063284485879,-0.06956535153339616,-0.03760249703877795,0.0888553702719747,-0.13444419427118787,0.08812815589729943,0.0653392661428218,-0.12305488055370763,-0.2296692841495318,-0.021002015015305568,0.012476078268248529,-0.021441081257746304,-0.08408713379558896,0.09861809842298727,0.0827608730165459,0.04975031915573751,-0.09769495958132043,-0.06400427075804788,0.0267311052296061,0.007796020575495634,0.09589394687506955],[0.04275822459684463,0.0006467449260289066,0.04287104976823198,0.059260965418265345,0.027347033850682944,0.26120571837503487,-0.05416899627782322,0.09036924850224466,-0.05784878101608226,0.030595890684924215,0.08367257817019934,0.05071230405545624,-0.06390287532396594,0.11752031185329095,-0.04146342600782659,-0.13447323733641045,0.03789662939854481,-0.01933922494127912,0.0320762107352245,0.0007860126527883301,0.10478379302525297,-0.07939265261691471,-0.12426002759232511,0.08022064787205543,0.022458931381051712,0.0811154946939563,0.19592638815545854,0.03387787599831793,-0.05885923173292342,0.016222458712442357,-0.21583838232474625,0.05905180541038012,0.18861704211421873,0.0341313542711173,-0.08879337989291214,0.0747831976396295,0.0824141876227873,0.15804333634923784,-0.1263979972118781,-0.03378581291066541,-0.0941452656878308,-0.18147822907872843,0.04519250344266599,-0.08083080128391366,-0.039585560893732295,-0.06671514888598479,-0.010856117250119635,0.06052319662042738,0.11870528886959751,-0.10649863946765266,0.14791790784415648,0.07161542157723673,-0.06379616473921432,0.09899512346176917],[0.02362359934056494,-0.06711308031538704,-0.1688140389297732,0.08782551736867464,-0.025778844386891677,0.1362814689506498,-0.07170812570013393,-0.017593308688261575,-0.07096575589595668,-0.04675725999306931,-0.07068730177262805,-0.00795309120427847,0.15225856667844603,0.05152424365844286,-0.030894165307764076,0.019017095304560694,-0.06750660114468932,-0.015983383386809765,-0.025513041385380148,-0.029743151955369456,-0.1544822199566939,-0.09953090185008932,0.0684449355709917,0.00337998310596234,0.16116046602601825,0.07360350401485204,-0.01756339328763997,0.05961559684330294,-0.044223338855065415,-0.06472021004846376,-0.023083918347997494,-0.024393741765948104,0.07819045016330602,0.14389303879446633,-0.022143015690835932,0.04964932670707171,0.061936687295437935,-0.1412083739247502,-0.16801099284859927,-0.036011205132782886,-0.03772807108839926,-0.015661647013769806,-0.09927093149412308,-0.03804318207515492,-0.021168992980665814,-0.08511256887850079,-0.06319371474729263,0.07521505364988057,0.011649061963244079,-0.14203607852174424,-0.02082777981306373,-0.04614542930544043,0.017874728860460296,-0.020837484390001083],[-0.005424133735564968,-0.028851605269006864,-0.07275299230784373,-0.06234614165122763,0.0912746821417784,0.19093107159355308,-0.10615260125486119,-0.07343078059986106,-0.007665693569279539,0.08999248969158082,-0.015242856186918495,-0.04846003332457884,0.006537205121779924,-0.002832071948457391,-0.0707046417401697,-0.07718761292627828,-0.15680897292497942,0.01576681345895184,-0.01086121387152253,-0.04197068201080069,0.03052905282013163,0.03274342914909423,-0.028349444174225545,0.04972582143129254,0.09689550670209977,0.06179137723876944,-0.0978345283734922,-0.04527156788629358,0.04430276749832551,-0.023357509089077345,-0.07985415239730853,-0.1894375571220267,0.07793648476400777,0.06801462976164918,-0.12448491365214755,0.031444351127881034,0.04462561391082129,0.22083889930763695,-0.021197692083039243,0.014449081931522343,0.06686449548481718,-0.23523881029347618,0.0672124817302149,0.05962041532026782,0.05860223223464135,0.10002438070240363,-0.02081347695045329,0.026050044347860176,0.027351901167084854,0.031091915810861227,0.08686805187408883,0.08011658712631756,0.12474166850337001,-0.017420499137063148],[0.061414259573075156,-0.012826350714459504,-0.039614209631714185,-0.015176407292338727,0.017095176707528286,-0.04681985429905924,0.16892305121829548,0.024591851934873,0.025443021693826468,-0.0031807203204543876,-0.06543285675708796,-0.008547550186450042,-0.06982355182482504,0.21405988136741444,0.10081207704198154,0.02342933454155658,0.05572169043237823,0.01977168899942529,0.019197355440382147,0.08456624582993705,0.09225326563660628,0.18412142449341756,0.14254236724551006,0.06018315572874203,-0.02642384389248195,0.14157898355441864,-0.009745522624047437,-0.04978768259832541,-0.06226973807932437,-0.022937065736183194,-0.1406088184645104,0.23311398827916924,-0.0710528316871768,-0.05137618586156278,0.0049568357803775175,0.03696022302141602,0.04451863270799899,0.23418783214512182,0.0072874015161010245,0.018072261846456578,0.07948362729994353,0.029197053209648282,0.06360586521201898,0.038700786369010684,-0.0032268367413488958,0.020050778904363294,0.06361868279453836,0.22297493374330338,-0.02727561882268896,0.015145357606349408,0.07409485880649933,-0.05092491444367487,0.04924766547850521,-0.002218321278255611],[0.055859495697657496,0.015016528423794941,-0.04387905859723049,-0.015669495864437763,0.09988428777429158,0.07152313103030107,0.1881448524911528,-0.05836503574844015,-0.021684304104675242,0.03999099180377717,-0.06778681192920004,0.09143435905776147,-0.04803290609185914,-0.06691120795675545,0.054150033274192426,0.06803303422681524,-0.0602885366883169,-0.013895333705308112,-0.09968993849539481,-0.0692089597686031,-0.008533462903357646,-0.1719780866497521,-0.1817694829957662,-0.08375399568372614,0.01500886876674931,0.2670638430308393,0.007364146175077011,-0.0269574057243554,0.12155402460631344,-0.02616462107429659,-0.10843342836386695,-0.07106239438500989,0.04257376232849672,0.03898630960515087,-0.05960227667061492,-0.028280159661838968,0.0016199830283067874,0.030410707197017564,-0.09543108246287152,-0.061206271007192656,-0.014925061581114408,-0.056635911130779926,0.008147278042771853,-0.08824592443883032,-0.049967300009570954,-0.044290768456971295,-0.08634550027603702,0.043538362318231605,-0.15096164457395145,0.12071053734309428,-0.06640803487678994,0.02547696220614933,0.14172332247951713,-0.00827461186230505],[0.015808485861114722,-0.04915283245683694,0.12688422313764183,-0.06947379163762489,0.04745496493631154,-0.1355166729915324,0.15523001150431565,0.013455893621877046,-0.01685650906676869,0.19591721003593618,0.11513478602053824,0.1750369666344636,-0.10597848285470589,-0.07303353068690248,-0.014465108984985896,0.12164401270501354,0.16393564989398104,0.015774277820370834,-0.05202493751866588,0.022736999215693086,0.03561224312497383,-0.004702492185805841,-0.18512644917653867,-0.027462723949763727,-0.010713741732257778,-0.07860981142045616,0.04958630881241462,-0.08185793724263249,0.022565012404023765,0.010500175001397877,0.011824220038225591,-0.12739713557979013,-0.13366604991655773,-0.09333012406676608,-0.07073607849982298,0.20638503311925868,-0.09734237333661602,-0.022302793453771137,0.06037686079308848,0.1275106167239716,0.0030053669503336995,0.13828573013053136,-0.011677136848370429,-0.06354225325116687,0.07472584375454375,-0.016239640275713098,0.24994931003549756,0.14151261544153898,-0.0327173701628897,0.07272965064602749,0.060573245544379976,0.29507848360155026,-0.19402786371257366,0.008667616760682176],[-0.033525529275607285,0.19242917925580766,-0.14069916141362382,0.0060840895168240315,0.03933628003176819,0.05786452758004834,0.1354899367515116,-0.2260741987954635,-0.10857366220981425,-0.0035923594606481674,0.0445531927005602,-0.06584351266131598,0.0855325770347598,-0.012380692065030353,0.10056787607544822,0.0788074387725611,-0.15677277130977846,0.06587590700435934,0.07343334624664687,0.14978392809435143,0.1241901422947002,0.08720799052458535,0.08932815754860356,-0.21189608796707984,0.06440656543668394,0.08978994498503508,-0.017166348358405758,0.005564081296075419,0.10036066662339957,0.04883151974511858,-0.12075955912895542,0.046835341551133225,-0.048722221772455096,-0.021173842965239338,0.0029706579377778938,-0.07002815998632778,-0.02363670543441483,-0.16516517853566182,-0.10763631034785033,-0.03462531828958756,-0.005708914953034368,-0.11113601107564904,-0.03628938316828569,0.07890916149297782,-0.11041174302564125,0.10334425434824537,-0.025218479250388313,-0.0003524810324798202,-0.049406202991474066,-0.15889438007952802,0.11686938902375067,0.14755216272041055,-0.13337979406807118,0.09306927120107626],[0.05047449983150333,0.024272868243510198,-0.07520116565317746,-0.025095509812990528,0.06605824007252328,0.025884251896318853,-0.22257280394088888,0.03762637989105402,-0.07136413899197112,0.12966928428359686,-0.10852760278117367,0.010667421800404588,-0.055172517135268904,0.1561038910206167,0.036388437766738495,0.2438037426233081,-0.0691513122868643,0.029985078659192626,0.033014841589433616,-0.07172423637997116,0.09584507291353517,-0.13364916952488465,0.11822607787383568,0.08835800658172635,-0.08397427582567571,0.11221050496451775,-0.08764464571046816,-0.09817566281355623,-0.013990698434596114,-0.24307730264041078,-0.04548731494219477,0.1689260726194639,-0.051064385385843104,-0.030071525901147363,0.08589822820746959,-0.1419739142537806,0.11711858784266316,0.07445071527957367,0.023885796643181162,-0.06128913385018807,-0.024992177306084395,-0.17993520320793913,0.05163135125111876,0.018567664566056474,-0.08809160254631036,0.0694176278738071,-0.1635240922366156,-0.1490366070006172,-0.06459008425691752,0.0655916248636486,-0.0990311142768818,-0.23398030726423594,-0.04196817704033377,-0.042248695558339475],[-0.007173618223093375,0.04455755644111851,0.09560448158686251,-0.013142544722757013,0.04508471335241591,-0.004992677170699949,-0.22255336050460015,-0.01684425693922736,-0.11787223932420257,0.05487440682241822,-0.06255483412477718,-0.05740683703066899,0.007579231108026191,0.051428136030452355,-0.0034737918241788436,0.006139756397733805,0.06319214198909608,0.06579269691139934,-0.030675654470571054,-0.026402612220691977,0.1931611053078137,0.050992727356288924,0.030783624088880978,0.12869006356989757,-0.0034478325440795857,0.26085566543598093,0.10643515666090564,0.14287523272242478,0.2244711167661044,0.048805436942111945,-0.14189913596640236,-0.10430144769985643,0.11278667730876762,0.023789935343661923,0.1365010691557972,0.11025958201000494,0.02181032196781667,-0.022573083052843917,-0.06526628682070665,-0.03663835038355748,0.020498755369422403,-0.10607801884783606,0.0418402928229639,-0.04473364795466573,0.13782894436160079,0.04032693241509017,0.038423765169605405,0.10772797534958718,-0.02965461153273615,0.02333873410192636,-0.03745604421840231,0.17748576180779974,-0.0006637676033181111,0.10716186064811735],[0.08822170787614725,0.02036934524093585,0.029173400836269837,-0.007705657883761649,0.07977498421412424,0.09345576098406605,-0.04434209164342632,-0.04791959574303461,0.12035409335811705,0.03972643087052612,0.013443659524848672,0.02646534942155553,-0.04768907319842458,0.0674428089690928,-0.05331449877433063,-0.05666524229749883,0.07548747143561897,0.06241168296115362,0.028061344791635252,0.020145262705189643,-0.06994006258530305,0.04256465401254847,0.04832679458875742,0.04504342275983355,0.013967832393810279,0.043229913003209,-0.06514287471444423,0.028471775362031434,-0.0036558333498573044,-0.01797205173035279,-0.05136287345742315,0.10199920639925908,0.03048334372482871,-0.13247357094448287,-0.15331735198296118,0.01085787481874628,-0.04933562932461483,0.10794885020382486,0.03197341993553942,0.05433726176563799,0.05203725839076005,0.2624885011473948,0.0704538337667524,0.07108500120214373,-0.028484802117910053,0.04421877341829722,-0.10273976715241438,0.12777006858954298,0.02939498000360446,0.06850616911769394,-0.0021986412650556613,0.2663955797973883,-0.08009377694112524,-0.05415911710796276],[0.05390249379682469,0.08037552130201726,0.0017876911903412286,0.017938926566560112,-0.08928666128253697,0.04484183250549125,-0.044610696142892654,0.01701619031200185,-0.13199757706792978,0.11315351759594956,0.05409409056486521,0.2373594793586998,0.12127657070655996,0.04228445144477228,-0.053068162150039434,0.12973095092915568,-0.10788109924308144,0.0779065885105083,0.04700930733354814,0.0053076859431256795,-0.007985881664253,-0.09333611843975284,-0.0032499723400950314,-0.05379967061031705,-0.035288262791699714,-0.0854454475891178,0.11612947515513006,0.08962539379932442,-0.04934096570042984,0.13159769524448658,0.1040076664316383,-0.17379389035377663,0.07863901372499303,0.029960751272598014,-0.06002812890739182,0.00029557383162321553,-0.032901489676494394,-0.16451702586652103,0.15681253907611298,-0.0007613521350676589,0.09994586705979112,0.1787328819455318,0.08615466587006014,0.05063524716695308,-0.11613568145516702,-0.010359399570268515,-0.008013677931436447,0.14058987115673713,0.05809240176681646,0.08278139031498796,-0.056665592177557136,0.23625479525234808,-0.019042399650694163,-0.007044088427096402],[0.06319137327808769,-0.004855150849394392,-0.07295901824040664,0.06574851316035579,-0.07380626125151751,0.11634741830216892,-0.053828538276686766,-0.1505772387348479,0.018940669759487286,0.09533426393933662,-0.06549137040309407,-0.05330015245157131,-0.05346370263853422,-0.060238625325300305,-0.027758660032339854,-0.02125999724156813,0.07385948046689218,0.0017963235802776571,-0.040686897214447265,-0.06484041416309642,-0.04374980535699045,0.09134903237668053,0.07502013700670758,-0.004481443893379911,0.06830512869137477,0.02582263794287024,-0.026568711428806617,0.10455327400857496,0.016826975020176126,0.040906980495963086,-0.23898322304459693,-0.005104414013564512,0.08069691266089986,-0.14668370053621135,0.0027994399621902107,0.13859474915678183,-0.07112314521570472,0.11941491008899952,-0.1562262973953236,-0.06853040795787002,0.006941179862995505,0.4628257374888394,-0.08313727385819726,-0.07102867835804906,0.09428293998535756,-0.06776247209171452,-0.0763873347282452,0.03267997772201207,-0.0904491949148275,-0.06021371035341053,0.1075582314940599,0.013510603063421688,0.06626904829730355,-0.0714212704184873],[-0.06554229091749578,0.014635054487669249,0.13457961003584026,-0.08187689127710736,0.022122497080845474,0.07537861054568815,0.002476204659375413,-0.06450182117764418,0.0058213498158276745,-0.050641298471796076,-0.010855875320714076,0.004143624297424893,-0.024592939521144826,0.03459212376053328,-0.0963527197831968,0.30807717888103836,0.06111746992499968,0.05097390007139371,0.11348526246134194,-0.18027953927913792,-0.0785285601237905,0.06541325133247317,-0.041678755737957374,-0.10171334111225414,-0.06616107165120333,0.005883488952158808,-0.043056084925050794,0.1229220129575211,-0.13022827530966613,-0.04771775189254197,0.07881878635952841,0.01825994319674647,-0.12427497534376403,0.09364005966699716,0.030110363609460126,-0.05291566646226528,-0.09900030220406116,-0.07572821158183475,0.06920221784282221,0.20147886951441402,-0.07710413653489533,-0.05185297791082978,0.07875754187010323,-0.11137619684274329,0.015429910896634147,0.052253428637985246,-0.012601612593076425,-0.15980579191437752,0.023947831151176074,0.07346162041012994,-0.13761501823716335,-0.05323567231057964,0.011064099767032546,-0.04270984282910782],[0.10825163162578584,0.020554824447836656,0.07352020309230993,-0.014592247180710092,-0.05234705078495678,-0.07994880827400129,-0.1112024865143702,-0.15239514624757408,-0.02984171539518227,0.18617716015829175,-0.09120901878611366,-0.048891948845341995,0.102525771689601,0.0635035372130484,-0.047324234073182855,-0.023652498915376644,-0.12548337035962814,-0.04618885439552186,-0.031771588958196685,0.020395133159364594,0.16688830425591497,-0.03234366065694758,-0.044279749324537584,0.18852769352787074,-0.13377091740008062,-0.046255866133801865,0.0790168894489318,0.060360139645929324,0.04490581203893964,0.03760954797583742,0.0869393532770138,-0.17843884406080537,0.19027990654204374,-0.0653179645773889,0.022007429661453724,-0.02657979327018799,0.03330228495847138,0.21462836523719322,-0.03256265419704157,0.15370400672258294,0.03390876691083912,-0.12415388099053769,-0.029160125605129834,-0.03831676190107087,0.10761891251339785,0.12396186549536058,-0.1690201291547146,0.012880869354493289,-0.09441596108300436,0.041737542723107444,-0.004118228081467659,0.16867322301059876,-0.12894619035533836,0.0003054248680199483],[0.02609491492917194,0.05655586654119367,0.01473891631642259,0.00381631567700969,0.0003648877512076751,0.19856372550261822,0.09710564066638083,-0.07179132594975457,-0.05094499804624568,0.014156291190254622,0.08340505330907078,-0.014591006545236576,0.05749322319840212,-0.0150492165560885,-0.004048066520436405,0.1485462190794846,0.07496935403135874,0.04473070842149551,0.04915455340929627,0.0306718473951049,-0.002135970736473393,-0.026574100755351986,-0.21340321084673686,-0.0860023745114357,-0.1668403065806491,0.09733319997062179,-0.0975660577009166,0.022966780961251557,-0.012794167447017111,-0.024429180727115668,0.15872556106450172,-0.15672607066227057,0.09328329697126225,0.009663898732709309,0.017850120598336353,0.001673511364681064,-0.017147399686264865,-0.022030483135171846,0.02323220866677903,0.09060521602843506,-0.030700804235790292,0.21647639661457171,0.02735585251366985,-0.02706610512882677,0.0453744838611413,-0.021760725961786267,0.18211112885463243,0.020094037353060316,-0.053211784531468104,-0.043717127790439805,0.056956458451500505,0.2664216699305253,0.04000887935145349,-0.05675923874966892],[0.001984166094845538,0.011925331991608465,0.0990894285883713,-0.060837873021857426,-0.16270337865519985,0.042449242356920006,-0.038608435361735007,-0.05315028001311073,-0.15640128501852102,0.15427991958643078,-0.06536742829092643,0.06799408776672457,-0.004717621788654029,-0.06691627838986139,0.09335580182910282,-0.08767170452217249,-0.0299790003245013,0.018581919728046018,-0.054023016402822366,-0.05738870997597836,0.03676372665050688,0.02929394510974475,-0.008078428497689817,0.10437033573452681,0.09450076918868518,-0.02986841253516925,0.010770339036846358,-0.03835193007854135,-0.057396756965957335,0.17255522887608998,-0.036925296051037386,0.11687458020809832,0.10492659677264393,-0.15725159951782205,-0.07139416766701603,0.06444154397916543,0.04108269487145529,0.10916745137047823,-0.07990410881749438,-0.04666543767562245,0.05304850813713552,-0.14903149630285195,0.023090910704207657,-0.021268920435082286,0.07493693026468957,0.01597385789324252,0.016727604266439187,0.020649487074837523,0.11728707370330374,-0.02173816309435325,-0.053829435169218925,-0.15947335694428727,0.1004990483824351,0.019112237896380547],[-0.051516998003070226,0.04530695176155866,-0.05746833496779495,-0.0004271973583052085,0.01449990097308595,-0.13677495506464285,-0.19585168089252045,-0.0017740390154681186,0.17981570845369899,0.17719312376424404,0.04873984313338015,-0.23150241417247427,-0.11978547078088404,0.18255551442657839,0.159101208089133,-0.04362354217730487,0.03826692032044556,-0.16445085305676413,-0.057000037226562446,0.02079162727403408,0.021202499178702823,0.14319029481204545,0.052949422761377304,0.15362683642793398,0.07882326751469013,0.06507450089672048,0.006487928846545389,0.16787998185470132,0.10269336783004787,-0.03519082059446289,-0.24237720318420905,0.36776917562933487,0.19987548375376965,-0.01777628508870958,0.010471511672194159,0.0542513183616398,0.07173163378398535,0.1490097246231939,0.024465654145265234,0.1273199699287244,0.08611264725956161,-0.16124457398459457,-0.19173119572239553,0.010356958102243885,0.08349411853122939,-0.09573295037957276,-0.13368742333147068,0.09292546922329017,0.0017754454989083348,-0.07065477732622243,-0.13155529383442258,-0.1971938385925476,0.15027199476987077,-0.07694760505055313],[0.07342741667957393,0.2407473783199504,0.0521887516923923,0.06605233009374857,0.1304319966614517,0.10501525485726848,0.08322371734995927,0.09147344422038306,0.05371331726840895,0.09833852017609687,0.14204472278484676,0.0492589436657045,-0.03197298929840279,0.0009335561907969954,-0.008573847767174665,-0.13963755996693925,0.07058839322428717,0.14748699130391765,0.005178745630521811,-0.0861236209737656,0.09151096619343713,0.09906187927621397,-0.05582686506190643,0.06554745944786368,0.03782679895261717,0.09031055830760032,-0.06508274482788799,-0.0020343621642260816,-0.017012847089921544,0.04340466088969934,-0.13488089796713784,0.06296798364045991,-0.16763540377650069,-0.08545521552085794,0.0959490174483611,-0.11119227397785544,0.12343052711679302,-0.00410935305993564,-0.03142470741568799,0.02020190341648947,0.02839662749182078,0.23376401588707296,-0.0529203574210175,0.006960031262183008,0.02332406339281996,-0.010802574993367963,0.02918145000595237,-0.05082757893111011,-0.053679160764391595,-0.046819243981182736,-0.11405938346997802,-0.06755192986771044,0.01724580990500029,0.03143022697467074],[0.025229519340398004,-0.0104447687695071,0.0873441886551902,0.09621063179883062,-0.08747046591148964,-0.023924608908864622,0.05521453208925618,-0.10638671446320117,-0.023081613491339095,0.058289287055253304,-0.0629003441036932,-0.05229932495386119,0.0005243912075919599,-0.019874268472264423,0.075476270765926,-0.10606990942698065,-0.017601826569969562,-0.12054482477459169,-0.04182484637264755,-0.009694995080997864,-0.12113991888530405,0.019226417319864655,-0.13497040866613721,-0.010173698653874798,-0.01864712097736585,0.06540529672654508,-0.06338494543106857,-0.14001949756449594,0.0038750686379582316,-0.04301035128670836,0.04707281483772691,-0.08240999515168357,-0.13148021451629868,0.05660005330580486,0.004551600753901241,-0.07528448999055007,0.06772946526956759,0.006360163554304263,0.009253045151538287,0.025929693587682826,0.013711618656097152,0.027563466799395735,-0.012016016229468901,0.039403992281259216,0.05414734170132668,-0.01882638604137591,-0.08642880286075685,0.00862448391104483,0.012261675511973517,-0.07923666828850828,-0.01857519719095315,0.014725178897132348,-0.10676244298598771,0.06776292493528197],[-0.041482023498831976,-0.008084403474753313,-0.07792660415147015,0.017391736159583643,0.06972087464238193,0.05229867821436747,0.07946938260785662,0.02193549153406178,0.0643294308052465,-0.0006607074898277924,-0.1004689159366865,-0.10849460383100601,-0.013534404658689525,-0.08051883659352312,-0.13818136259670205,-0.013434119479224042,0.17578843311917602,0.009708945075176332,-0.06870100851091318,-0.11500770453207217,0.04165811360438884,-0.12030304748424937,-0.01872084863237945,-0.014258526302585612,0.07727234535772314,0.05498714460837384,-0.001865544955376717,0.04332310868444499,-0.06405560827198213,-0.0204389409857729,-0.028889469422019805,0.07096225459247311,0.15070522034901077,-0.07896170584602302,-0.022004819109222893,-0.04105939633675205,0.017081353746390786,-0.19097286999281832,-0.03372378000853777,0.11476984187784726,0.03585367912548337,-0.1871152509697468,-0.04128500230199581,-0.0883932506682711,-0.006117919595186806,0.01184750696889065,0.003127689530082211,0.004105135377051134,0.14377670623967498,-0.034320515173000436,0.07901841776730222,0.016619971487638115,-0.12347336072840809,-0.04321231621734443],[-0.0071098604553987725,0.09510892764669018,-0.030709707603790586,-0.030449054336692975,-0.05608732368103662,0.08565843413105877,0.03429249247324858,-0.08986159315282503,-0.12210467102202563,-0.041483918809202505,-0.02340258612884699,0.08185537695374116,0.059086518489842824,-0.08756876132428167,-0.018755714871048126,0.2559509941603714,-0.07041559877047772,-0.034598170292216415,-0.17501324948919378,-0.07215224003530807,-0.05403616804954346,-0.021216849642805954,0.02872021856949107,-0.03952799489043162,0.06517417705502901,0.022829213422821768,0.01913806471745675,-0.06344248561898695,0.016906965824812673,0.0046656658674159935,-0.20461691833954349,0.1183920075463362,0.06956987651638533,0.1628411272433287,0.08222718028835138,0.0791656271119499,-0.0896226481465982,0.10826946727010416,-0.016273113026512954,-0.022623290703306785,0.05460038261467163,0.2912462245399593,0.029548578369175255,-0.24752428409675456,-0.1074096924264445,0.1510704021478031,0.009228629152378386,0.06420377872612267,0.009381267013997757,-0.0338600557888349,0.03738486402894266,0.15168743750332306,-0.09699713186837379,0.022866447431085415],[0.054639420689716015,0.01101360858746582,0.08160772287748333,-0.012211829005459404,0.07902794161300444,0.14890179518226826,-0.10701922389001273,0.09081001777571088,-0.06316933078199785,0.09619874689963939,0.05301598715907162,-0.15500849569090525,0.007332605962020115,0.024921256347626944,0.017072274060398823,0.08344902146810293,0.07324248206050103,0.15332983815537404,-0.010409820596356568,-0.01010296921539429,0.05163266328718958,0.0019697036711952024,0.006746348709412171,0.01036740749359956,0.06137379287476258,0.0057429487865187576,-0.10814069874913546,-0.1082057818735165,-0.10988627923723236,-0.08588944009978151,0.25655526033762494,0.33035351930881834,-0.3918298717645874,0.08614268101175944,0.028558272651240536,0.04689672668697339,-0.0842854758458686,0.026255242455399754,-0.015486630852132434,0.0041975033119213195,0.10440743435214125,0.48522039784561255,-0.07303773935758473,0.06566683255858824,0.0077307406998056325,0.0038024560500251733,-0.05592745811978901,0.10724759258358568,-0.09338038089473749,-0.04748408792488882,-0.09744945531519462,-0.18329664462847872,0.09621054386976437,-0.025386659435424588],[0.1089407291819931,-0.09297389521340606,-0.11546830949093671,-0.1165132902321379,-0.0384981161546109,-0.0067806131459602495,0.017963372190856336,-0.024867438821419566,0.06906793542405977,-0.02693619613414418,0.10306825339646822,0.021625862204454158,0.030550678279402943,-0.07745299428535103,0.043207182989147656,-0.018181564252994206,-0.027173768779090113,0.044524144098703505,-0.0775958162342675,0.0164155551302359,0.029413981025192545,0.028715397011414144,0.015891870602977254,-0.05279794103015658,0.07474949505233329,0.1321497315833841,0.007604420074614723,0.01777058258837978,-0.14270692713469016,0.040213648260555186,0.07447636557717092,0.06675551805046703,-0.07484815970876614,-0.00027829395225053893,0.012409193151936282,0.049834640987492365,-0.16461124043114933,-0.08251541162437741,0.02949258730541848,0.021167498637469355,-0.09447622577404029,0.012324806726711978,0.09307783270487183,-0.09206015389532628,-0.04492235252319363,0.024918997403302445,-0.02656823511945146,0.07948244223603158,-0.044730629581700994,0.09517057882572648,0.06564890369450876,0.1668460528108996,0.06282423812723582,0.14729206367747363],[0.16600237485425048,0.12309616241972207,-0.0821290189565154,0.08338397899382294,0.04426010034916282,-0.016039737490027878,-0.12860648903567737,-0.03540432152533718,-0.07810922385772434,-0.037320088098794515,-0.0676789709979322,-0.0031417131550083187,-0.10082714027856007,0.11705705447859995,0.10148119139380199,-0.08385895745323307,-0.0653185979520818,-0.06274617007172438,-0.05809276258356252,0.06733648442706942,0.043144369286778,0.02218117578174126,-0.05788838031125539,0.0029837662006503714,-0.007258565324823089,0.13808508294411914,-0.02869757490637849,0.01988800659264384,0.23655579787369518,0.1596039643023683,-0.09492251707215481,-0.11961434088360208,-0.11668635671642187,-0.048350047020676086,0.053828406529539616,0.0655078879397635,0.007286673828141452,0.08954182494152536,0.07842481741142322,-0.02858505527988391,0.08273264513656085,-0.08068251077192727,-0.061643832182113376,-0.05433956065849914,0.003697618573212161,-0.060770786445247936,0.003991552449916229,0.08666163933546787,-0.017126521470276598,-0.023381817942588996,-0.022961133075808906,0.338017013477919,-0.12724959156801333,-0.10431791910443634],[-0.08350204554697388,-0.055173785478154366,-0.02506366068697828,-0.053515185807861486,0.19877430719019917,-0.09941373699960661,0.14842338403706318,0.07013346216957841,0.036101865724475005,-0.052023507691743416,0.015494429093666483,-0.05018015348725481,0.0002475303850841261,0.05644847986404313,-0.012287847509836329,-0.22643414074417476,0.13688993597290366,-0.017945793923039976,-0.07094014220018258,-0.1359661895841219,-0.11259899852730268,0.0751787657396766,0.06813713218180177,0.09642296293437654,0.014361322990847818,-0.0034734908763722734,-0.03818329437001669,0.08203497967868609,-0.04346275288967943,0.01851426242764614,0.10101298274285109,-0.061730294418692884,0.03595658687713043,-0.012790295142770006,-0.07003172865290853,-0.0743230621339349,-0.08357260268686198,-0.04316534947919391,0.09927828498420255,0.10470925013279327,-0.20895568239289244,0.02693510244593492,0.00602768002805947,0.06430274865642326,0.0068440820514626705,0.20186718153164357,0.10736769046634706,0.0246252004525728,-0.048805869505117075,0.06789376112795378,-0.09798087428038212,-0.017529589695906362,0.0605368949014578,-0.04505443067733425],[-0.08704960647641258,-0.041220241192638764,-0.1101453144123249,0.08634506433174091,0.12003623856476367,-0.034355110568407836,0.10004405461169666,0.04884438010282701,-0.020730069631411104,0.056841537474303414,-0.004264713964920279,0.047143124760934574,-0.012940546070165765,-0.049514342233161986,0.0541666069965244,-0.236677213931501,0.1831160134783101,-0.004935799930032033,-0.050404282419101026,-0.01496861396317783,0.037863252706080826,0.12077393614215168,-0.041455464091428494,0.0205285879775622,0.08576573962706915,-0.02097454038540188,0.01460886726204529,0.07066216686811462,-0.044304803151220595,-0.03328400510497539,0.0527990378152166,-0.15168248454417257,-0.06203179079376319,-0.018974197482169924,0.058319154915004626,0.06104559698500599,-0.021456139322215854,0.006385069460496074,0.004846001936485349,-0.11097520304401247,-0.04314826036333422,-0.1460966403430487,-0.15174455829409939,-0.15811666727732143,-0.05792123824816841,-0.05167332858024376,0.043423772026212476,0.005075984260091419,0.07197212978409097,-0.07169064524739698,-0.1809588212345285,0.06098367948169461,-0.19942607440321905,-0.06787265480755333],[0.03679804559837096,0.12985729408349536,0.01892130237838699,0.012346940167220611,0.1460778934862412,0.03128216249626517,0.08279049482918753,0.026311642605601673,0.013529212171988853,0.1765201933270354,-0.060069837963407424,-0.08489058394269101,0.13539873760061039,0.0026404767771607295,0.08752214669074745,0.008557844227728982,0.01573724118504105,-0.008082128593281957,0.015874894023418473,0.033341147198001415,0.09813280775956992,-0.031485127166792165,-0.03354682246508906,0.01201572446601566,0.009301242599606475,-0.04352028376536237,-0.023970560145426024,-0.002792929027119754,0.0347103328662502,-0.04035498022394592,0.044348066765533614,-0.033235637662729994,0.15490462459866577,-0.04375607589990775,-0.04462464801279663,-0.07802512593443868,-0.042068074722315274,-0.05008120036592762,-0.058345895333322684,0.07436227414972507,0.08635287081271398,-0.47362930331467223,-0.08254541884395745,0.04108806125392439,-0.09148802233207749,0.0022288243050298893,0.014260695494320666,0.014630625391080112,0.08606351329849374,0.03242883310401802,0.10141524916088941,0.0446603006325159,0.018924441458019674,-0.1587554943691958],[0.06844095827987431,0.00743420625429533,-0.03869936240503703,0.004647950676321994,-0.09619394665294285,0.07785127436942876,-0.13086952433684038,0.03852005951574239,-0.007633535282782955,0.05873070605268749,0.023595874269799838,-0.0577006053198108,-0.017549228120130093,-0.15408453433728136,